com.rafsan.inventory.controller.admin.AdminController;-1;0.016132824,0.32637003,0.0049291826,0.01225309,0.04033432,-0.08107247,0.112555236,0.30889735,0.23536943,-0.032336075,0.3128259,0.21368857,-0.0044085723,0.21227677,0.061569247,0.016080422,0.20478268,0.26792088,-0.1513948,0.10321482,0.10201735,-0.02019029,0.01642968,-0.1665319,0.22210427,-0.09872687,0.1659324,-0.0063962266,0.18222809,0.27347866,0.20345934,-0.09338377,1.0680509,-0.20802976,-0.039196137,-0.35096094,0.17909646,0.08043314,-0.056864005,0.033817515,-0.25835785,-0.085110396,-0.5277032,0.21733226,0.066785656,-0.16118966,0.25765133,0.14805414,-0.1702718,0.029003805,0.078411415,0.18447132,-0.51025057,-0.041806404,0.057502896,0.17093079,-0.7291789,0.22426802,0.012562718,0.069258384,-0.23600423,0.21223181,0.06807258,0.16562156,0.8780226,0.060270596,0.2003661,0.5335228,-0.35285935,0.07799906,0.080388375,-0.070753805,-0.039775506,-0.23396079,-0.30113992,-0.04203282,0.24050725,-0.4137485,0.14133398,0.046883687,0.32192132,-0.0053716297,0.38501284,0.4915786,0.07048739,0.16058387,0.0843673,0.049522746,-0.5168752,-0.030434186,0.118089974,0.16454138,0.29729864,0.14525552,0.11428877,0.2642977,0.1553036,-0.42218924,0.14809944,0.21368593,-0.12605135,-0.13679957,0.22992766,0.17594038,-0.0005296902,-0.09143436,0.3123329,0.23370667,0.23732609,-0.15221606,-0.06363439,-0.21015339,0.025980338,0.037778836,0.12984793,0.07385246,0.026294054,0.30317724,-0.16173756,0.09364694,-0.21292341,0.2860867,-0.14521429,0.42062688,0.031600885,0.1662821,-0.36147735,-0.27968985,-0.054032143,-0.01437886,-0.6027413,-0.89344245,-0.110803425,-0.063227616,0.21793567,0.10766444,-0.0054143853,0.26784375,0.032742675,-0.18071638,-0.3693223,0.099923186,-0.13738097,0.16009445,-0.14238067,-0.09294969,-0.07389918,-0.04112495,-0.049841657,-0.5010068,-0.21280251,-0.029702952,0.7447109,-0.062180836,0.045951396,-0.65171933,0.28652176,-0.1924017,0.18640769,-0.30067748,0.03352495,-0.12720205,0.31425044,0.24348915,-0.00686161,0.13867033,-0.0754863,-0.14187978,0.01972081,-0.013285699,-0.10404471,-0.01498735,-0.5933155,0.1303708,-0.16228795,0.19745386,-0.094245695,-0.040391125,-0.10379398,0.66732496,-0.09967929,-0.1738342,0.06193507,-0.1945755,-0.075681336,0.060212016,0.15797321,0.20800708,0.080173455,-0.070129886,-0.13631423,0.15944101,0.14223425,0.23570208,0.3647741,-0.10660562,-0.04555814,0.10838452,0.49235925,-0.06864253,-0.10346687,0.048894394,0.4331241,-0.12085635,0.3816786,0.20236814,-0.114108376,0.015427161,0.2952635,0.9449522,1.0305917,0.07803374,-0.11314242,-0.028450944,-0.28871116,-0.11466896,-0.16721082,-0.36184612,-0.08071663,-0.37712467,-0.8563785,-0.032293823,-0.22204125,-0.25323132,0.09096399,0.0025122727,0.5397003,-0.07755637,-0.016344955,0.127545,0.14099552,0.20388885,-0.27531418,0.09128537,0.2085461,-0.23096772,0.12844603,0.1498118,0.024026215,-0.63219005,0.10606098,0.01710741,0.073755026,0.24830137,-0.14826214,-0.3637898,-0.047404755,0.34604624,-0.15374392,0.24513488,-0.028092625,-0.3212053,0.063464485,-0.01753248,0.13493215,-0.4119428,0.015753536,-0.015330511,-0.13511923,1.3150148,-0.10228675,0.03886282,0.14812031,-0.22174938,-0.015293691,-0.3450615,0.012035154,0.1281134,-0.049174655,0.14188384,0.5933447,0.045087382,-0.11815997,0.16647305,0.038865115,0.025664577,-0.42652273,0.16575892,-0.28670824,0.083512224,-0.16356894,-0.12369522,0.055480644,0.016906703,0.16097005,-0.18834268,-0.28393754,0.19333644,-0.007425362,0.056860045,0.3103478,-0.14638488,0.6575096,-0.010241327,-0.15367098,0.24900591,0.08647886,0.0052706543,0.0964536,-0.40239283,0.262638,0.32980338,-0.2776974,-0.09130907,-0.30135265,-0.10133142,-0.33436584,0.022938035,0.16886932,-0.08378595,-0.16684139,-0.31967923,-0.25869492,0.034949426,0.046930995,-0.007683434,0.035513956,0.04883121,-0.18048728,-0.044845466,0.20305263,-0.23656285,0.18182243,-0.5868923,-0.26294208,0.56948066,0.0649636,-0.15351412,-0.69930625,0.51252896,-0.10967154,0.17618273,-0.23691048,0.51975775,-0.55422723,-0.071175456,0.6066484,-0.050999675,0.0048578535,-0.06709049,-0.7872682,0.26842117,-0.30663505,-0.0044711553,-0.20040102,0.20599823,-0.06684751,-0.10944741,0.34390914,-0.00547011,-0.08558136,-0.50352734,0.024792567,-0.05630735,0.16705821,0.9536856,0.4243499,0.055916328,-0.1277426,-0.2002425,0.109028906,0.25504205,0.0014123459,1.0189945,0.34832725,-0.23119408,-0.5203905,-0.021628449,-0.0873042,0.32636532,-0.14562573,0.26658365,0.042720433,0.026343474,0.24271362,-0.06840531,-0.2633041,0.118062645,-0.41699055,-0.14450349,-0.42441952,0.057827126,0.13482289,0.0066233873,0.3044568,-1.4520454,0.33459505,-0.26836073,0.57122165,0.07437115,-0.04273509,-0.085438944,0.30154684,0.042620767,-0.07154182,0.057744507,0.33770666,0.026371272,-0.42205033,-0.07819673,0.021895036,0.0141739175,0.23712961,0.1765567,0.07696099,0.20891088,-0.4700519,-0.049140412,-0.0766668,0.5076844,-0.12039695,0.9730351,-0.20506297,-0.2938607,-0.06764886,0.14992297,0.2580988,-0.1322619,-0.052121725,-0.15554316,0.12843561,0.019399224,0.42262113,-0.27680805,0.14686218,0.087836266,-0.062253457,0.060854506,0.2224255,-0.1297363,-0.0027660828,-0.09412957,-0.045590904,0.36194897,-0.091593586,0.053167388,0.16359434,-0.3684894,-0.13806047,0.023317518,0.19878018,0.018002937,0.109371126,0.21314605,-0.091595314,0.023175562,0.14076856,0.6822168,0.31123284,0.0046921684,-0.15208034,0.12064981,0.1367155,-1.3183703,0.5287209,0.1367492,0.21090536,-0.11040053,0.17298096,0.5453786,0.09298927,0.36603585,0.0055333846,-0.12667511,-0.14148363,-1.0897185,0.09609053,-0.08696946,-0.17461514,0.38217068,-0.37683058,0.17840065,0.06926025,0.3606393,0.023494387,-0.011997004,-0.12492049,1.0350832,-0.1293649,0.8672188,-0.1115182,-0.1622548,0.14612743,-0.33486375,-0.15941404,0.020347865,0.045662373,0.06976795,-0.049601603,-0.06500919,-0.37197408,-0.28552553,0.03560437,0.15598144,0.37859872,0.015804695,0.051324982,0.2703608,-0.048756737,0.4266272,0.08114444,0.16593799,0.23026748,1.0235612,0.020097332,-0.14632966,-0.061619047,0.45150945,-0.10882872,-0.34834865,-0.20427532,0.21676438,0.47953305,-0.012689809,-0.15878387,0.11649791,-0.01719263,-0.17446001,-0.21706784,0.66396594,0.038175873,0.015112336,-0.2144034,-0.008227008,1.0254197,-0.09374559,-0.5309599,-0.41737,-0.050597895,-0.36504817,-0.23212689,-0.2888273,-0.009407932,0.07389737,-0.07033389,0.1382739,-0.12934962,-0.14098006,0.08449974,0.12001509,0.06405554,-0.13850628,0.5456885,0.0162428,0.3118533,-0.26255867,-0.12394502,-0.69755554,0.04820766,0.03658658,-0.1291688,-0.5216728,-0.23792851,0.16196983,0.2670459,-0.0404429,-0.31445292,0.49209252,-0.00040530073,0.18130265,-0.4247578,-0.12952647,0.122245856,-0.012786212,0.15895717,-0.074155554,-0.1791426,-0.11758826,0.08370099,0.043343246,-1.0577713,0.09059283,-0.20688169,0.25271323,0.3780813,0.21617608,0.7380276,-0.09838018,0.026145987,0.00035459362,-0.054533523,0.76346356,0.13091412,-0.34172884,0.107040934,0.23651105,0.14328201,0.27010176,13.847927,-0.16491911,0.54237086,0.37448326,-0.014210433,0.12782258,-0.49732232,-0.23173238,0.037536103,-0.07129838,-0.034880716,-0.105130106,-0.028620826,-0.16686343,0.49753293,-0.29164693,-0.08091884,-0.11925054,-0.013442806,0.14452751,-0.060791973,0.20482934,0.46749088,-0.30818835,0.10277915,0.27835724,0.09982621,0.25160855,0.057028305,-0.19185926,-0.097011715,0.3903021,-0.030022016,-0.03376918,0.091310315,0.5462286,0.18030255,-0.10851866,-0.027713502,-0.5757609,0.13696048,-0.07785244,0.22170174,-0.079506725,0.066904195,0.23952542,-0.40621054,0.29061916,0.2265047,-0.42827463,0.015138018,0.50200295,0.22444767,-0.13090305,0.1620023,-0.25960457,-0.30002773,-0.0048824544,-0.5550463,0.123539686,0.13987897,-0.008906988,0.0046522766,-0.759578,-0.0014777525,-0.033879843,-0.07494212,0.0064846985,-0.014572163,0.30058596,1.0124849,0.63114583,-0.038263444,-0.12009999,-0.2595758,0.1100226,-0.0031781932,-0.0330448,0.0461508,-0.5289436,0.10054488,0.052082624,-0.105316065,-0.26821083,-0.4149224,0.15760636,-0.19693072,0.1283965,0.98236305,0.008140914,-0.25954464,-0.15299825,-0.71117324,-0.12059126,0.24420208,-0.33289298,-0.74609727,0.05614132,0.039650917,0.0759223,-0.26307586,0.10686195,-0.16284266,0.23699595,-0.15414181,-0.38036597,0.14824094,-0.06349583,0.027889952,0.06326566,-0.11724934,-0.29016566,-0.19135691,-0.14601879,1.1157435,-0.024640247,0.07012208,-0.14786686,0.15684117,0.14842434,-0.10884828,0.5790208,-0.270012,-0.09939643,0.13561146,-0.00040611633,0.13769497,0.03688665,-0.07685172,0.25135168,-0.22940797,0.05049132,0.11917403,1.3410797,0.05835442,0.04049975,-0.5674514,-0.014369234,0.2738612,-0.1195832,-0.3323105,-0.016639533,0.17490123,-0.10810378,-0.64103484,-0.12673102,0.5115898,-0.04976784,-0.14928162,0.021391459,0.00012862,0.12060642,-0.137287,-0.18670736,-0.05631393,0.08818684,0.06683793,0.9299566,0.21577384,0.049383357,0.40001795,-0.80263096,0.013806593,-0.40487227,-0.07787228,0.10474189,0.29573563,0.047218155,0.29755735,0.03592596,0.049468536,-0.020648,-0.2567481,0.21204454,-0.03248267,-0.010186744,0.5118957,-0.6006071,-0.06329288,0.1919583
com.rafsan.inventory.controller.category.AddController;-1;0.016414085,0.32740217,0.0070133447,0.0131111145,0.040949624,-0.077272266,0.11108744,0.31028852,0.23445112,-0.03356685,0.31472194,0.2183305,-0.0053916,0.21111102,0.06331097,0.018247256,0.20627165,0.26738074,-0.15427081,0.10621435,0.10266801,-0.018927837,0.017181592,-0.16939537,0.22321324,-0.0952796,0.16619463,-0.0066106296,0.18308914,0.27157798,0.203,-0.09186753,1.0679427,-0.20883219,-0.035493974,-0.3521135,0.17852962,0.07946653,-0.05440986,0.036673766,-0.2604448,-0.08815836,-0.52876693,0.21699698,0.068533875,-0.16442163,0.2540507,0.15010375,-0.1703909,0.031626295,0.076505475,0.18504275,-0.509997,-0.043613303,0.05745663,0.17050053,-0.7283938,0.22112252,0.013547264,0.07029206,-0.23749399,0.21340509,0.0678154,0.1614127,0.8784854,0.058739047,0.20197333,0.53530455,-0.35327527,0.07665486,0.079880826,-0.06794013,-0.041316856,-0.23501681,-0.30088606,-0.04551576,0.23903167,-0.4153929,0.14526902,0.046554074,0.32155824,-0.008047581,0.3867276,0.49075127,0.07093989,0.15873857,0.08350319,0.049595345,-0.51586294,-0.03174484,0.11885408,0.16535276,0.29921365,0.14573823,0.11564359,0.2653925,0.15767998,-0.41852,0.14835161,0.21358012,-0.1260647,-0.13582928,0.22939026,0.17396279,0.0032655979,-0.091590114,0.3097302,0.23122029,0.23785119,-0.15338947,-0.06204693,-0.21513969,0.02675732,0.034551255,0.12916534,0.0768122,0.02687192,0.30154505,-0.16119902,0.09416807,-0.21193045,0.28596887,-0.14695612,0.4235228,0.031270813,0.16699164,-0.3618753,-0.27895465,-0.05543722,-0.013192742,-0.60469747,-0.88797855,-0.11037394,-0.06310996,0.21484451,0.10758674,-0.004483066,0.2686976,0.03343722,-0.18160778,-0.3658168,0.101534925,-0.13655873,0.15903828,-0.14822695,-0.092435956,-0.07627177,-0.042877395,-0.050339013,-0.50102717,-0.21403937,-0.02530001,0.7446365,-0.061682224,0.047796234,-0.65602,0.28581968,-0.1934765,0.18657732,-0.30207422,0.030491104,-0.12629934,0.3133773,0.24368162,-0.0042389357,0.13956591,-0.078259856,-0.14491789,0.01943375,-0.0128333345,-0.10296783,-0.01502739,-0.5912852,0.13207282,-0.16159324,0.19793902,-0.09287247,-0.04121007,-0.10279426,0.6656515,-0.098784454,-0.17751001,0.06086749,-0.19451018,-0.074638955,0.059362914,0.15689307,0.20676851,0.080701016,-0.071088426,-0.13315153,0.16156049,0.14383702,0.24209411,0.36534527,-0.10455591,-0.046911627,0.10758271,0.49216762,-0.06977115,-0.108470105,0.051015418,0.433522,-0.11805651,0.38253108,0.2026052,-0.11361017,0.013892106,0.2958465,0.9480637,1.0314469,0.074708335,-0.11446736,-0.027107803,-0.2900946,-0.11478591,-0.17055799,-0.3632779,-0.08110999,-0.37727845,-0.857373,-0.03025277,-0.2184965,-0.25680938,0.09097434,0.003420322,0.5414008,-0.07590179,-0.015428797,0.12729661,0.14037742,0.20373403,-0.27843413,0.09083257,0.20718344,-0.23053348,0.12687637,0.1491953,0.02530699,-0.6354861,0.10293082,0.018467845,0.072122864,0.24804527,-0.14789005,-0.3632436,-0.04622328,0.3437145,-0.15500547,0.2435145,-0.031155327,-0.3193055,0.065219805,-0.017763546,0.13615115,-0.41161084,0.015137062,-0.014765966,-0.13622586,1.3136045,-0.1021354,0.03956004,0.1472963,-0.22391395,-0.014150073,-0.34772202,0.009216054,0.12879355,-0.047281507,0.14237835,0.59687215,0.04535377,-0.11873877,0.16904159,0.036221087,0.024500748,-0.42691073,0.1669764,-0.28666523,0.08517177,-0.16154923,-0.121458046,0.055750206,0.015999824,0.15854187,-0.18679367,-0.2880856,0.19121265,-0.00828797,0.056221645,0.3089231,-0.14389342,0.65889597,-0.010140217,-0.1573449,0.24935384,0.086785495,0.0069366354,0.09768972,-0.40382314,0.26287195,0.33078384,-0.27934173,-0.089793555,-0.30251336,-0.100776784,-0.33251333,0.024623713,0.16640677,-0.08294604,-0.16561632,-0.31951597,-0.26018974,0.036067214,0.048292797,-0.007365756,0.035205733,0.046802934,-0.18314803,-0.04481523,0.20567487,-0.23718314,0.18167008,-0.58719116,-0.26315126,0.5669586,0.063557796,-0.15098567,-0.7014764,0.5113303,-0.11032855,0.17593719,-0.2334149,0.5188487,-0.5547686,-0.073085874,0.6065488,-0.04911213,0.0005095531,-0.06336302,-0.78671426,0.26871637,-0.3092117,-0.0029235205,-0.20059769,0.20543987,-0.070786856,-0.105676375,0.34544134,-0.004221115,-0.08438489,-0.5041747,0.026428277,-0.05617534,0.16862576,0.95599794,0.42304254,0.05765435,-0.12692618,-0.20679979,0.1100311,0.25387087,0.00036190546,1.0164275,0.34848592,-0.23163676,-0.52075714,-0.024132708,-0.08680288,0.32666525,-0.14797322,0.2687447,0.039820503,0.02500836,0.24295521,-0.06877881,-0.2618703,0.12234946,-0.4152094,-0.14458145,-0.42578483,0.058479477,0.13579671,0.006615616,0.300334,-1.4511781,0.33297315,-0.26865113,0.57235616,0.07523587,-0.041732937,-0.08396408,0.30206022,0.041971605,-0.07161347,0.05712006,0.3389436,0.022803819,-0.42350373,-0.07876601,0.025234649,0.014691035,0.23778395,0.17790462,0.079570346,0.2056945,-0.47156128,-0.048174005,-0.07685582,0.5093537,-0.11979798,0.9748098,-0.20732118,-0.29695266,-0.06675687,0.14980747,0.25793767,-0.13257076,-0.052693676,-0.1557941,0.12638682,0.021176577,0.42491135,-0.27781975,0.14795637,0.08698883,-0.06155907,0.060613316,0.22682871,-0.1321934,-0.0012091177,-0.097200416,-0.04617828,0.36344358,-0.090729825,0.052164514,0.16403724,-0.36554006,-0.13763903,0.021631805,0.1975168,0.016601538,0.10523301,0.21222533,-0.09027475,0.02544222,0.14009307,0.6803262,0.310233,0.0034293262,-0.15406914,0.117664345,0.13357334,-1.3258547,0.5282367,0.13859141,0.2121798,-0.110903025,0.16962533,0.54409724,0.09493471,0.36392596,0.004816688,-0.12398637,-0.14070232,-1.0917279,0.09647813,-0.08732454,-0.1762278,0.38121906,-0.3788449,0.17731512,0.07042378,0.35924593,0.02432664,-0.012272847,-0.12620194,1.0369717,-0.12939748,0.8705911,-0.11080066,-0.1610883,0.145308,-0.33512962,-0.15984194,0.01939261,0.043434504,0.069542624,-0.051801328,-0.06844006,-0.3730711,-0.28554633,0.036725197,0.1579849,0.37853757,0.016122984,0.05028745,0.27430034,-0.045258746,0.426741,0.08211642,0.16646992,0.22899376,1.0239872,0.021790043,-0.14529878,-0.060089782,0.4532015,-0.10792897,-0.34611645,-0.20346443,0.21628553,0.48107263,-0.011382726,-0.15944803,0.11720818,-0.017971402,-0.17508079,-0.2180097,0.66558325,0.038563635,0.01744938,-0.21449101,-0.0066118264,1.023956,-0.09554205,-0.53420347,-0.41824344,-0.050501287,-0.3641177,-0.23613334,-0.2874815,-0.010043665,0.07230677,-0.068888836,0.13892984,-0.12867601,-0.13897474,0.085261054,0.11932076,0.06661886,-0.13882516,0.5444309,0.015048008,0.3074995,-0.26126772,-0.12275452,-0.6970928,0.047647636,0.035675433,-0.12849334,-0.520469,-0.23467696,0.16330396,0.2673725,-0.038142737,-0.3147604,0.49066687,-0.0008673454,0.18175785,-0.42367306,-0.12728326,0.12427085,-0.0128169125,0.16084872,-0.07467428,-0.1786262,-0.11832488,0.08343243,0.04168884,-1.0541439,0.09051988,-0.20510519,0.25851315,0.37740695,0.21586466,0.7380902,-0.0989216,0.023893515,0.003405474,-0.05429843,0.7605951,0.13248529,-0.34240127,0.109127484,0.23607898,0.14385755,0.27193192,13.842513,-0.16391389,0.543529,0.37532464,-0.015305852,0.1276201,-0.4991591,-0.23622036,0.038169343,-0.07043264,-0.03562546,-0.10449523,-0.02975224,-0.16520946,0.49838766,-0.2902752,-0.08021525,-0.1202726,-0.012291465,0.14321251,-0.058245238,0.20423864,0.46949837,-0.31029245,0.101787746,0.27870288,0.09747735,0.2511473,0.05830879,-0.18980692,-0.097405076,0.39258337,-0.03199074,-0.03362824,0.09095364,0.5491963,0.18190193,-0.11136025,-0.030366952,-0.57522863,0.1388187,-0.075519525,0.22440813,-0.07744207,0.065657295,0.24101949,-0.40235558,0.29140383,0.22458284,-0.4259812,0.01596026,0.5028735,0.22542478,-0.13569026,0.16233492,-0.25986892,-0.30424944,-0.0057125296,-0.55453557,0.121894084,0.14100313,-0.008341987,0.0059911846,-0.76071,-0.0011685096,-0.03416766,-0.07747173,0.007797815,-0.014119774,0.3020873,1.013032,0.6316058,-0.03542049,-0.119978644,-0.2604982,0.11000971,-0.0028891398,-0.03339794,0.04535101,-0.53041506,0.09846532,0.04998498,-0.10395435,-0.26581675,-0.41551137,0.15606603,-0.19723363,0.12905116,0.98370266,0.0037966894,-0.2597457,-0.15155484,-0.71287876,-0.12335687,0.24467766,-0.33372712,-0.7456975,0.054260325,0.03941132,0.07768514,-0.26232627,0.10546029,-0.16372915,0.235393,-0.15267752,-0.3824905,0.14783345,-0.062149823,0.025478771,0.06393331,-0.11801503,-0.29403076,-0.19069932,-0.14434399,1.1171666,-0.022371287,0.06881759,-0.14419626,0.15720423,0.14922033,-0.10751379,0.58192194,-0.26814246,-0.098481625,0.13428254,-0.002022257,0.13635956,0.035004016,-0.07639247,0.25460654,-0.22929181,0.050687805,0.121288575,1.3404626,0.057845175,0.03943703,-0.5689358,-0.013637796,0.27619046,-0.11926356,-0.33312988,-0.01514295,0.1757291,-0.11049149,-0.640026,-0.1288592,0.51298714,-0.049480125,-0.14919591,0.024291828,0.0007578325,0.12072324,-0.14078717,-0.18693368,-0.05714087,0.08714821,0.06723855,0.9290934,0.21463317,0.04927164,0.39876792,-0.8028849,0.013877493,-0.405511,-0.07593221,0.10511809,0.29460135,0.04762507,0.2998607,0.035334736,0.047179554,-0.0215308,-0.25664023,0.21355867,-0.032879576,-0.010086256,0.51058227,-0.6007404,-0.063009255,0.18970037
com.rafsan.inventory.controller.category.CategoryController;-1;0.01578249,0.3261584,0.00511948,0.012810436,0.039718546,-0.081116155,0.11270071,0.31094545,0.23607714,-0.03347948,0.31188327,0.21382767,-0.003291023,0.21295711,0.06192577,0.013500803,0.20297271,0.26584494,-0.15101406,0.100118995,0.101115294,-0.020185746,0.015367977,-0.16810031,0.22250164,-0.099184684,0.1663161,-0.005205946,0.18340087,0.27286404,0.20193742,-0.094250955,1.0701483,-0.20744033,-0.039333362,-0.35156664,0.1773912,0.0823439,-0.05838033,0.03479104,-0.258904,-0.082086295,-0.5281497,0.21724655,0.065726705,-0.16130179,0.2590124,0.14660977,-0.17011045,0.027945856,0.078781,0.18449022,-0.51039594,-0.040912755,0.05796452,0.17213655,-0.7298091,0.22450891,0.011090899,0.06944974,-0.23459706,0.21182862,0.0662113,0.16537605,0.87739944,0.058831412,0.20044547,0.5352279,-0.35344103,0.07724993,0.08068549,-0.06977398,-0.03854713,-0.23405805,-0.30112013,-0.03965629,0.24034803,-0.41153947,0.13960491,0.047137614,0.3198864,-0.004935928,0.3833079,0.48931217,0.06920083,0.16162074,0.08305288,0.04929948,-0.51664674,-0.02848231,0.11647721,0.16386884,0.29700702,0.14480972,0.114077546,0.26466176,0.1540305,-0.42232567,0.14887837,0.21241516,-0.12589274,-0.1385363,0.22899057,0.1754942,-0.001610935,-0.09167011,0.31281343,0.23383103,0.23725297,-0.15140876,-0.06457938,-0.2092619,0.027788898,0.03849793,0.12911667,0.073864356,0.02569514,0.30132613,-0.16152883,0.09241511,-0.21434812,0.28641832,-0.14441438,0.42038548,0.03165292,0.16714661,-0.3595646,-0.27779514,-0.05331014,-0.0144102685,-0.60317564,-0.89467067,-0.1101515,-0.062322725,0.21806265,0.10746196,-0.0052354364,0.26733005,0.032889463,-0.17919326,-0.3702576,0.10133556,-0.13682121,0.16107766,-0.14125341,-0.092357956,-0.07288634,-0.041204058,-0.04995928,-0.5001061,-0.21386757,-0.031189596,0.74547356,-0.062618405,0.044276934,-0.6500515,0.28461608,-0.19232982,0.18458274,-0.30254847,0.03408692,-0.12681729,0.3134953,0.2421916,-0.00806361,0.13823688,-0.07596104,-0.14156976,0.021131556,-0.011425262,-0.104073584,-0.016315851,-0.5934271,0.12957945,-0.16419356,0.1977636,-0.09524072,-0.04091996,-0.103663415,0.6693548,-0.099880286,-0.17259939,0.060912862,-0.19427575,-0.07614804,0.059892308,0.15560077,0.20663792,0.081209354,-0.070665896,-0.13677178,0.15945075,0.14214537,0.23448575,0.36437958,-0.10614472,-0.047415137,0.107687525,0.4921844,-0.069188364,-0.10220151,0.04649715,0.43255246,-0.121921375,0.37975118,0.20179218,-0.1132045,0.01641466,0.29519385,0.94602215,1.0319602,0.07791179,-0.112141326,-0.02854497,-0.288187,-0.11533934,-0.16644502,-0.35828966,-0.07993586,-0.37588057,-0.8562668,-0.032289587,-0.22325353,-0.25326046,0.087951,0.003923625,0.5401363,-0.07718765,-0.017874304,0.12669098,0.14020514,0.20484732,-0.2736415,0.08948939,0.20662457,-0.23087785,0.12978435,0.15067253,0.022518916,-0.63278615,0.10520604,0.017002968,0.075222336,0.24965005,-0.14836562,-0.36485457,-0.04805594,0.34843847,-0.15303403,0.24461481,-0.026397493,-0.32040784,0.063567355,-0.018904967,0.1332086,-0.4117147,0.016162895,-0.015199589,-0.13439642,1.3182123,-0.10266274,0.03986535,0.14836016,-0.22432303,-0.01451243,-0.34624287,0.011859323,0.12844782,-0.04865998,0.14380267,0.5940309,0.044440553,-0.11653898,0.16540283,0.038822364,0.026207307,-0.42363536,0.16622245,-0.28786066,0.0828587,-0.1624797,-0.124076255,0.05657874,0.016274534,0.16105016,-0.18678147,-0.28174862,0.19434114,-0.008326217,0.05696607,0.30944824,-0.14727491,0.6559216,-0.009790377,-0.15321067,0.24866055,0.08840706,0.004497005,0.09479683,-0.401851,0.26217073,0.32779002,-0.2764387,-0.09082786,-0.30004627,-0.10155506,-0.33403322,0.023279978,0.17012407,-0.08501666,-0.16732582,-0.3203609,-0.2583847,0.03425716,0.046082906,-0.007618768,0.035593834,0.048666477,-0.17955452,-0.044944562,0.20276631,-0.23540635,0.18233351,-0.5877897,-0.26400775,0.57042927,0.06573047,-0.15241238,-0.69963753,0.51219094,-0.112948656,0.17523329,-0.23757605,0.520973,-0.5545929,-0.07252337,0.60674894,-0.05062362,0.004273644,-0.06728118,-0.7873932,0.27023616,-0.30573678,-0.0035267537,-0.20032813,0.20632489,-0.06557208,-0.10780717,0.34525114,-0.005276053,-0.08520475,-0.5033373,0.025739593,-0.05634982,0.16743107,0.9557041,0.42464122,0.055298794,-0.12765959,-0.19836906,0.10828202,0.25476202,0.0017181868,1.0195638,0.34916103,-0.23021746,-0.5218341,-0.020851968,-0.086851984,0.32563692,-0.14376943,0.26435542,0.043165777,0.02607232,0.24258614,-0.06915803,-0.26407424,0.116329804,-0.41735253,-0.14211142,-0.42454714,0.057618402,0.13379411,0.0057969196,0.30467373,-1.4540867,0.33375406,-0.26871258,0.570786,0.07409452,-0.04181089,-0.086059436,0.30099103,0.041802533,-0.072245,0.058996227,0.3362392,0.026431207,-0.42120418,-0.07941024,0.021180613,0.01408445,0.2356899,0.17763402,0.077194355,0.20941424,-0.4720518,-0.050526842,-0.07778518,0.50725967,-0.12214222,0.97461563,-0.20473829,-0.2931006,-0.0668577,0.15062067,0.2576729,-0.1317592,-0.052191067,-0.15523386,0.12743735,0.018714208,0.42132124,-0.2775622,0.14695837,0.08690835,-0.062290393,0.061270017,0.22073437,-0.13027447,-0.0030558843,-0.0923196,-0.045780573,0.36048195,-0.09274977,0.05379616,0.16382258,-0.3680383,-0.13831171,0.023107389,0.1977949,0.017314808,0.11002092,0.21395768,-0.09158657,0.023340205,0.13969508,0.6850277,0.31150874,0.0047289487,-0.15273316,0.12139553,0.13733679,-1.3100277,0.52709633,0.13479765,0.21025315,-0.11089423,0.17321989,0.5445328,0.092615284,0.36657056,0.008209655,-0.12743966,-0.14184783,-1.0880021,0.09640632,-0.08812953,-0.17324401,0.38142416,-0.37877974,0.17783499,0.06922099,0.3603379,0.024402335,-0.011225006,-0.12526977,1.0356913,-0.12978436,0.8683097,-0.1114949,-0.16237459,0.14547087,-0.33432046,-0.15908895,0.01999675,0.04501981,0.068816856,-0.049858242,-0.06586867,-0.37091285,-0.285407,0.03706672,0.15533288,0.37864557,0.016135983,0.051961154,0.26992455,-0.047435835,0.42777106,0.08004117,0.16636509,0.23102713,1.0245355,0.019766057,-0.14443696,-0.06270518,0.4531864,-0.10891786,-0.34801403,-0.20319264,0.21656261,0.47902617,-0.0118665965,-0.15765232,0.116674975,-0.01617293,-0.174435,-0.21614136,0.6632663,0.037587482,0.014411904,-0.21527028,-0.00853919,1.0262185,-0.09303799,-0.53149515,-0.41755027,-0.049382906,-0.36672843,-0.23269483,-0.28955856,-0.010946865,0.07327527,-0.07024633,0.13726768,-0.13078642,-0.14042488,0.08558945,0.12070156,0.06553207,-0.13819739,0.54710364,0.0153637305,0.311316,-0.26351482,-0.12284124,-0.6989367,0.048406027,0.0368489,-0.13064764,-0.52320814,-0.23734209,0.16193059,0.26542154,-0.041502926,-0.3129555,0.4930814,-0.0016714399,0.18258089,-0.4233558,-0.12913865,0.121219195,-0.012615365,0.15828899,-0.07256803,-0.17853154,-0.11811513,0.083797164,0.04354185,-1.0586381,0.0905638,-0.20705321,0.25139365,0.37606013,0.21627267,0.7381715,-0.09829341,0.026530638,0.001036078,-0.055601686,0.7665987,0.1294775,-0.34361416,0.10649924,0.23656276,0.14315462,0.26899412,13.842571,-0.16509062,0.54376554,0.37431896,-0.014674683,0.12764145,-0.49850246,-0.23082218,0.038403653,-0.07095351,-0.03436773,-0.1050488,-0.028121289,-0.16754356,0.4970276,-0.29209232,-0.08079214,-0.12008712,-0.01371985,0.14473909,-0.06019383,0.20387672,0.46811613,-0.3087838,0.103648916,0.27730525,0.09969886,0.2507062,0.056193814,-0.19300975,-0.09800225,0.38881338,-0.030438937,-0.033446763,0.09263964,0.54791963,0.18075281,-0.10810264,-0.028508015,-0.57475585,0.13650578,-0.078101836,0.22136721,-0.07843056,0.066920675,0.23853785,-0.4077316,0.28924084,0.22508991,-0.4270276,0.01541283,0.5024435,0.22460148,-0.1303739,0.16196135,-0.25777653,-0.30105197,-0.004993819,-0.55410993,0.12392135,0.13930464,-0.008772898,0.0054627415,-0.76076514,0.00026922143,-0.03188458,-0.07584647,0.006321902,-0.014698872,0.30076155,1.0130022,0.633675,-0.03700748,-0.12054642,-0.25876006,0.11061199,-0.0029060051,-0.03469529,0.046593424,-0.5295139,0.10074286,0.052556526,-0.105773315,-0.26737034,-0.41452754,0.1583012,-0.19561295,0.12930143,0.9836466,0.008118814,-0.26036197,-0.15170556,-0.7109809,-0.12018784,0.2435819,-0.33170158,-0.74779224,0.054583,0.038307246,0.07494121,-0.26236877,0.105488405,-0.16203526,0.23530994,-0.15361074,-0.38034022,0.14724937,-0.06448359,0.03007993,0.06393681,-0.11625602,-0.28789607,-0.19130675,-0.14585851,1.118412,-0.023621656,0.06999911,-0.1480822,0.15608338,0.14955342,-0.107482776,0.5783895,-0.26900193,-0.09911254,0.13719994,-0.0011398572,0.13608122,0.037200827,-0.07632749,0.2506584,-0.22765005,0.049215242,0.11881526,1.3412472,0.059535734,0.041195486,-0.5677565,-0.013481034,0.27288693,-0.12036815,-0.33090204,-0.017198795,0.17522654,-0.107448846,-0.64089024,-0.12631801,0.5127178,-0.0494482,-0.14958765,0.021392986,-0.00060622295,0.12020726,-0.13478215,-0.18507928,-0.057837322,0.08758862,0.066989176,0.9317408,0.2155026,0.04729273,0.39929095,-0.8021238,0.011422415,-0.4031375,-0.07746442,0.10505209,0.29452392,0.046360258,0.29810882,0.036018394,0.049513526,-0.020981384,-0.25366828,0.21387145,-0.030095913,-0.009008823,0.5105276,-0.6020075,-0.0639573,0.19210294
com.rafsan.inventory.controller.category.EditController;-1;0.015696587,0.325845,0.0057270923,0.011507164,0.040488005,-0.07891718,0.11167333,0.3097128,0.2334863,-0.0341565,0.31414795,0.21623917,-0.0041553867,0.21221782,0.06259907,0.015034939,0.20331039,0.26606292,-0.15214197,0.10323686,0.10293258,-0.019126339,0.015762722,-0.16781671,0.22290976,-0.09779287,0.16602515,-0.0059433077,0.1836877,0.27015367,0.20279908,-0.09104671,1.0683231,-0.20825101,-0.036613315,-0.35158658,0.17868702,0.0805305,-0.05656819,0.0358534,-0.2588713,-0.08549711,-0.5279744,0.21739875,0.067117006,-0.16369134,0.25678873,0.14960697,-0.1694039,0.031080747,0.07802773,0.18343313,-0.51016635,-0.04188479,0.05675487,0.17104964,-0.7291875,0.22240509,0.011178221,0.070497155,-0.2367096,0.21356368,0.06652696,0.16463922,0.8778855,0.058937985,0.20164941,0.5342844,-0.35410428,0.07686195,0.08076189,-0.067750745,-0.039557576,-0.23574828,-0.30013075,-0.04421401,0.24012738,-0.41388237,0.14190896,0.04603943,0.3217044,-0.004647562,0.3848087,0.49041116,0.07043763,0.15969415,0.08386537,0.0495349,-0.517533,-0.029070081,0.11779054,0.1636398,0.29973966,0.14560147,0.11536706,0.26331988,0.15701845,-0.4195539,0.14913924,0.21426089,-0.12640347,-0.13725114,0.23131812,0.1747663,0.0018983809,-0.091757596,0.31183589,0.23303981,0.23565626,-0.15304436,-0.06318962,-0.21281993,0.026985494,0.03645256,0.12877473,0.07641374,0.027013749,0.30117393,-0.16058403,0.093172014,-0.21116179,0.28689554,-0.14528354,0.4223052,0.03033992,0.16592823,-0.3607968,-0.2789585,-0.054416854,-0.013475635,-0.6023138,-0.89100486,-0.109507166,-0.06319213,0.21674852,0.10744724,-0.0048266966,0.26830396,0.03244118,-0.1807699,-0.36855158,0.1021784,-0.1370588,0.16066097,-0.14406206,-0.09239903,-0.075188786,-0.04218772,-0.04874446,-0.50059146,-0.21353878,-0.027726218,0.7432563,-0.060801327,0.04405442,-0.6532379,0.28629503,-0.19368489,0.18595119,-0.3023681,0.032223,-0.1258831,0.31369695,0.24327743,-0.006913153,0.1387071,-0.07748384,-0.14166237,0.019218551,-0.013358582,-0.102302946,-0.015786676,-0.59246206,0.12988366,-0.1622081,0.19842978,-0.0932974,-0.040965177,-0.10359067,0.666398,-0.09969417,-0.17476983,0.062232703,-0.19318356,-0.07399758,0.059101928,0.1566091,0.20539682,0.0802515,-0.071992725,-0.13496177,0.15957181,0.14325993,0.23928152,0.3658271,-0.105552636,-0.046919286,0.10746112,0.49333093,-0.070212685,-0.10485029,0.049074512,0.4324275,-0.1216312,0.38049316,0.20180951,-0.11401863,0.016083734,0.2949101,0.9467437,1.0315788,0.076088496,-0.11331437,-0.027024074,-0.2884853,-0.11530351,-0.16917656,-0.36262593,-0.080849595,-0.3772335,-0.8555717,-0.03174473,-0.22138001,-0.25523666,0.09064358,0.0037138816,0.5405209,-0.076619655,-0.0167546,0.12684076,0.14146863,0.20329905,-0.2758322,0.08860648,0.20685399,-0.23054741,0.12776835,0.14991869,0.024463033,-0.6338943,0.10441803,0.017833112,0.07270739,0.24883652,-0.14723115,-0.36353955,-0.047268465,0.3461773,-0.15514766,0.24309166,-0.02815782,-0.3195986,0.06488272,-0.017854802,0.13496055,-0.4114015,0.015763944,-0.014471132,-0.1356716,1.3169562,-0.10339636,0.039497036,0.14705354,-0.22347671,-0.014152799,-0.34788808,0.0106219025,0.12932537,-0.047952916,0.14324707,0.5944415,0.04521368,-0.1174059,0.16734827,0.03756513,0.025087357,-0.42706907,0.16701876,-0.28747436,0.08354968,-0.16131562,-0.12326857,0.05565336,0.016150618,0.15922092,-0.18665326,-0.28565446,0.19327219,-0.008964698,0.057265658,0.308385,-0.14498715,0.658312,-0.010636677,-0.15517198,0.24917965,0.087232284,0.0051078233,0.09644244,-0.40321586,0.26223445,0.32948494,-0.27789584,-0.09073794,-0.30211985,-0.100277014,-0.3353872,0.024078988,0.16714208,-0.08390767,-0.16569209,-0.32009697,-0.2590424,0.03357114,0.047775168,-0.007867924,0.035090648,0.04700157,-0.18161184,-0.044847418,0.20489363,-0.23675925,0.18150842,-0.58890903,-0.2625089,0.5693171,0.06569377,-0.1517904,-0.6995141,0.5117092,-0.112709284,0.17320104,-0.23601003,0.5198688,-0.5534102,-0.07356539,0.6066745,-0.04981832,0.0018395474,-0.065692835,-0.7866893,0.269335,-0.30753404,-0.0028911314,-0.20124944,0.20684017,-0.06761871,-0.106960565,0.34443307,-0.005117447,-0.083945274,-0.50335246,0.025163263,-0.056362342,0.16679758,0.9545911,0.42294106,0.05785957,-0.12707122,-0.20210709,0.1112278,0.25417736,0.0005143764,1.0162946,0.34946862,-0.23166233,-0.52058536,-0.022953324,-0.08748884,0.32634553,-0.14519113,0.26712665,0.041251086,0.025492368,0.24154548,-0.06798593,-0.2637788,0.11992186,-0.41635916,-0.14294755,-0.42505422,0.058197334,0.13411997,0.006388884,0.30192575,-1.4518763,0.33357978,-0.26922283,0.5717518,0.07485325,-0.041275874,-0.08491748,0.30000138,0.042877782,-0.072274394,0.05720532,0.33801875,0.022878533,-0.42209804,-0.07772043,0.022881417,0.014606021,0.2363314,0.17893183,0.07878669,0.20719369,-0.47296908,-0.04837853,-0.07672579,0.5076431,-0.12126676,0.9741247,-0.20624326,-0.295058,-0.06670806,0.15043439,0.25759974,-0.13088964,-0.05255953,-0.15475994,0.12662001,0.020527704,0.42227662,-0.27814922,0.14596422,0.086975165,-0.06299779,0.06073601,0.2242037,-0.13153742,-0.0015933402,-0.09414505,-0.045500148,0.36172128,-0.09203335,0.053754266,0.16431822,-0.36656165,-0.1370975,0.022118995,0.1974905,0.015966833,0.106357075,0.2137032,-0.0918609,0.024480162,0.14196719,0.6825907,0.3111426,0.0038340203,-0.1519591,0.11979917,0.13684066,-1.322069,0.52756184,0.1352347,0.21190847,-0.11047288,0.17161785,0.54373914,0.09434379,0.3655717,0.0058349767,-0.1256119,-0.14107333,-1.0891684,0.09639257,-0.08789257,-0.17441475,0.38167706,-0.37789527,0.17815812,0.07020601,0.36133623,0.024185603,-0.011413322,-0.1253886,1.0361768,-0.13002771,0.86724025,-0.11154639,-0.16172259,0.14721505,-0.3336762,-0.15881826,0.019243332,0.044036355,0.06880566,-0.05068724,-0.06772313,-0.37220952,-0.28733268,0.036849752,0.15616004,0.37875685,0.015872238,0.051495105,0.2725663,-0.046581846,0.42719886,0.08125112,0.1668327,0.22970034,1.0233623,0.019929761,-0.1443594,-0.06110598,0.45336333,-0.10941128,-0.34675252,-0.20341982,0.2176917,0.47910848,-0.012054102,-0.15890718,0.116986744,-0.016370544,-0.17437239,-0.21733241,0.66359967,0.03827321,0.014163122,-0.2140411,-0.007377096,1.0247397,-0.09434537,-0.5311665,-0.4179268,-0.0500989,-0.36389843,-0.23441647,-0.28784028,-0.011194017,0.07317497,-0.0688546,0.1381398,-0.13060398,-0.14009838,0.08331624,0.11968877,0.06567653,-0.13905375,0.5454563,0.015182331,0.30847585,-0.26381877,-0.12232667,-0.6975243,0.048412636,0.036888745,-0.13088633,-0.52131623,-0.23514545,0.16274077,0.2680014,-0.039917693,-0.31306794,0.4910147,-0.00048414533,0.1815596,-0.4232153,-0.12891787,0.12250694,-0.012465595,0.15833692,-0.073264964,-0.17893593,-0.11813766,0.08439461,0.042264756,-1.0549752,0.08964059,-0.20663919,0.25551164,0.3755857,0.21568125,0.7380331,-0.098374106,0.023141215,0.0019214926,-0.05584936,0.7633941,0.13129158,-0.34295693,0.10823717,0.23425591,0.14447343,0.2703338,13.839427,-0.16392131,0.54336303,0.37435743,-0.014860768,0.1273896,-0.49779972,-0.23262312,0.039166093,-0.06981274,-0.034509927,-0.1044248,-0.029393813,-0.16678266,0.49684644,-0.29198453,-0.07992946,-0.120456524,-0.012726239,0.14334615,-0.058905423,0.20428628,0.4690965,-0.30985382,0.10429901,0.27927056,0.0982193,0.25272593,0.05701523,-0.1917146,-0.09841439,0.39032936,-0.030006127,-0.033207104,0.09167174,0.54780346,0.18086314,-0.10847872,-0.02919235,-0.57394546,0.13761003,-0.07646999,0.22201478,-0.0782095,0.06615084,0.24019913,-0.40517572,0.29023418,0.22563969,-0.42619824,0.015777431,0.5018123,0.22570719,-0.13226679,0.16160978,-0.25913915,-0.30139887,-0.0048679854,-0.5542013,0.12424562,0.14022577,-0.008773492,0.0071883644,-0.7602833,-0.0007225992,-0.03371671,-0.076038964,0.0076692426,-0.014714149,0.30138698,1.011492,0.6316106,-0.037372347,-0.1203408,-0.26033187,0.111401536,-0.00068699784,-0.032877408,0.046210427,-0.5303536,0.09876525,0.05147421,-0.1042079,-0.26651904,-0.41527426,0.15788043,-0.19711186,0.12893204,0.9843679,0.005676122,-0.26121342,-0.15184933,-0.7123725,-0.12116272,0.24347097,-0.33268955,-0.74493724,0.054595824,0.039410684,0.07494254,-0.26161888,0.105188675,-0.16315624,0.23453768,-0.15261431,-0.38125527,0.14811614,-0.061945617,0.026864478,0.06474795,-0.116241515,-0.29112002,-0.19127332,-0.14434561,1.1159664,-0.021962306,0.069780074,-0.14625455,0.15696281,0.14947726,-0.10795987,0.57858974,-0.26786837,-0.098409675,0.13553087,-0.0011764439,0.13578142,0.036419805,-0.07640308,0.2520541,-0.22795857,0.04988432,0.12023071,1.3404056,0.059503675,0.038655255,-0.5673889,-0.013530876,0.2745663,-0.11821535,-0.3329023,-0.015547067,0.17493196,-0.10898814,-0.64100575,-0.12904479,0.5121763,-0.049650166,-0.15031397,0.02244456,0.000741062,0.120240696,-0.13813986,-0.18742847,-0.058827385,0.08846066,0.06646637,0.9303171,0.2139852,0.04820369,0.3987948,-0.80297565,0.013500035,-0.4040041,-0.07779235,0.10492605,0.29437697,0.04779828,0.29888454,0.035709575,0.048572853,-0.020760693,-0.25551465,0.21269315,-0.031842563,-0.0098709995,0.51189107,-0.6009285,-0.06322843,0.19032808
com.rafsan.inventory.controller.employee.AddController;-1;0.016417235,0.32703602,0.006335754,0.013566293,0.04088276,-0.07848536,0.1113447,0.31118733,0.23545294,-0.033280715,0.31336585,0.21707502,-0.0049628387,0.21263856,0.06261398,0.017654354,0.20541064,0.26741004,-0.15371987,0.10420258,0.10161311,-0.02042911,0.017049523,-0.16978505,0.22250889,-0.09631757,0.16651294,-0.0058715153,0.18247738,0.27212805,0.2026716,-0.09368926,1.0677586,-0.2083114,-0.037436694,-0.35260165,0.17800906,0.08037922,-0.055484526,0.035278708,-0.26109648,-0.08614172,-0.5285553,0.21700929,0.067702666,-0.16287205,0.25546557,0.14781421,-0.17064054,0.029697455,0.07679049,0.18606803,-0.50985897,-0.04311096,0.0575548,0.17113101,-0.7292551,0.22332315,0.013608415,0.06962018,-0.23684818,0.2121787,0.06771199,0.16213906,0.8779134,0.058690615,0.20158632,0.53544056,-0.35270825,0.07636764,0.07942523,-0.069458544,-0.040190995,-0.2335583,-0.3009517,-0.0436759,0.23903306,-0.41317654,0.14400618,0.047684446,0.3208759,-0.008166332,0.38483503,0.49011207,0.069038585,0.15860417,0.08405165,0.04964093,-0.515164,-0.030871622,0.11769761,0.16515957,0.2978735,0.14534622,0.11427656,0.26602238,0.15635096,-0.41988528,0.14834248,0.21291006,-0.12661901,-0.13628584,0.22885245,0.17435756,0.0011840654,-0.0916006,0.31030273,0.23281789,0.23826373,-0.15230946,-0.0625768,-0.21239267,0.026449557,0.035177127,0.12923105,0.074849635,0.02587695,0.30188277,-0.16152269,0.09462662,-0.2134765,0.2867231,-0.14540493,0.42174652,0.031736445,0.16801754,-0.361625,-0.27880642,-0.054787748,-0.013883046,-0.60495734,-0.89006054,-0.11112134,-0.06245794,0.21602093,0.107544445,-0.0048911506,0.2676313,0.033450693,-0.1806686,-0.36720222,0.10099709,-0.1360111,0.15893877,-0.1459234,-0.09305166,-0.07496263,-0.04161623,-0.050081536,-0.5009645,-0.21431625,-0.027509216,0.74509114,-0.06267894,0.04762172,-0.65376914,0.28572443,-0.19205779,0.18651135,-0.30172426,0.031687457,-0.12683564,0.31398636,0.24321216,-0.0043128375,0.13904394,-0.078164056,-0.14503258,0.020330522,-0.012212126,-0.104078785,-0.015596364,-0.59178877,0.13192773,-0.16206571,0.19735408,-0.0942249,-0.041207675,-0.1029028,0.66696995,-0.09856417,-0.1761997,0.060588222,-0.19548799,-0.07554135,0.060110196,0.15673888,0.20650259,0.080724925,-0.069836736,-0.1340498,0.1617925,0.14248508,0.23907335,0.36401302,-0.105565384,-0.046705566,0.107287034,0.49192983,-0.06895844,-0.10689472,0.048991926,0.43325496,-0.1181266,0.38308856,0.20258646,-0.11335418,0.014210528,0.29576093,0.94759667,1.0311295,0.076674014,-0.1144823,-0.02843428,-0.29037207,-0.11484076,-0.16905566,-0.36171284,-0.08102341,-0.3774073,-0.8574724,-0.030599847,-0.22041881,-0.25546062,0.090501264,0.0033488094,0.5412385,-0.07578015,-0.016234525,0.1271816,0.14063531,0.20403382,-0.27740514,0.0914377,0.20744333,-0.23082702,0.1271525,0.1491171,0.024022387,-0.6343618,0.10400244,0.016913483,0.07383681,0.24851479,-0.14844164,-0.3629334,-0.046130806,0.34355962,-0.15324605,0.24393466,-0.03024903,-0.3195943,0.0640017,-0.017502153,0.1360166,-0.41187346,0.015216959,-0.014948766,-0.13515487,1.3124863,-0.101708874,0.03920991,0.14697516,-0.22428255,-0.0141692,-0.34663305,0.009734802,0.12895747,-0.047367543,0.14298229,0.5965443,0.044976432,-0.1187076,0.16750103,0.036659554,0.024798363,-0.42557466,0.16679999,-0.28672796,0.08513951,-0.16141412,-0.12211416,0.056673903,0.016655013,0.15994763,-0.18699238,-0.28609532,0.19195098,-0.0071931444,0.056238405,0.31025815,-0.14510947,0.6576694,-0.010195992,-0.15577136,0.24949083,0.087354764,0.007119311,0.09736217,-0.40300587,0.2628336,0.32990903,-0.27909604,-0.09041177,-0.30121565,-0.10195592,-0.3320374,0.024151463,0.1680298,-0.08353854,-0.16651723,-0.3198879,-0.2594747,0.03615485,0.046478715,-0.0076653697,0.035913575,0.048249606,-0.18164724,-0.044920668,0.20420626,-0.23591946,0.18266675,-0.5867296,-0.26354834,0.5672633,0.06432387,-0.15220164,-0.7006848,0.5124388,-0.10992412,0.17638147,-0.23431678,0.5202725,-0.5544301,-0.07115787,0.6062707,-0.0497728,0.002725893,-0.06368283,-0.78632647,0.26857218,-0.3080496,-0.003435031,-0.20020677,0.20586973,-0.06968299,-0.10633218,0.3461174,-0.0048794313,-0.0852436,-0.5042731,0.02656165,-0.057030894,0.16840807,0.9559758,0.4235622,0.056992836,-0.1275801,-0.204616,0.1084701,0.25404906,0.001098775,1.0175552,0.348377,-0.23071353,-0.5213947,-0.021958638,-0.08737338,0.32619938,-0.14671238,0.26802385,0.04167056,0.02531982,0.2433275,-0.069411896,-0.26173005,0.12031767,-0.41566032,-0.14430164,-0.42501897,0.058350362,0.13550022,0.0065166503,0.3019535,-1.4509304,0.33225197,-0.26804724,0.5715045,0.074194185,-0.042423338,-0.08395229,0.30250338,0.04100769,-0.071622185,0.058167834,0.339352,0.025018474,-0.42304713,-0.079309545,0.02358214,0.014450405,0.23716365,0.17645028,0.07930657,0.20715877,-0.47087067,-0.049795937,-0.07723062,0.50911605,-0.12032963,0.9741502,-0.20623794,-0.2957668,-0.0671865,0.14914255,0.25795212,-0.13260674,-0.052362584,-0.15658219,0.1275649,0.020500071,0.4242064,-0.2774551,0.14800538,0.086810246,-0.060402296,0.060560584,0.22433667,-0.13140216,-0.0015747966,-0.09590036,-0.045646816,0.36139694,-0.09142149,0.05175993,0.16409823,-0.36684558,-0.13845822,0.02221749,0.19795687,0.017606359,0.10815905,0.21198349,-0.090107694,0.024945049,0.13927592,0.6816051,0.30973804,0.0035812682,-0.15409164,0.11878219,0.13418707,-1.3185701,0.5282694,0.13825148,0.21104074,-0.11114649,0.1704976,0.54495275,0.09473809,0.36377108,0.006262691,-0.12514998,-0.14086322,-1.0906141,0.0963396,-0.08741976,-0.17513853,0.38211071,-0.37961715,0.1773562,0.069627464,0.35937098,0.023603147,-0.012568953,-0.12564065,1.0368204,-0.13008893,0.8707333,-0.11056782,-0.16075091,0.14436671,-0.33537525,-0.16065684,0.01972382,0.04379196,0.07018661,-0.051100545,-0.06778447,-0.37255794,-0.2846917,0.036573302,0.1568279,0.37857673,0.016456231,0.05123388,0.27284926,-0.047039695,0.42726016,0.082023926,0.16629608,0.22957042,1.0250638,0.021333063,-0.14506757,-0.06020153,0.45226374,-0.10675129,-0.34682044,-0.20334542,0.21481532,0.48043552,-0.011566972,-0.15916926,0.116727546,-0.017505037,-0.17537358,-0.21743257,0.6655104,0.037576873,0.016274245,-0.21449986,-0.007119361,1.0244662,-0.09467826,-0.53309333,-0.41785023,-0.049726073,-0.36521515,-0.23516542,-0.2887466,-0.0096677225,0.07244283,-0.06902993,0.13874325,-0.12939529,-0.13898934,0.08670652,0.11939018,0.065097496,-0.13820994,0.54503816,0.0153343305,0.3092779,-0.26044783,-0.12328322,-0.69708973,0.04796784,0.035896853,-0.1285115,-0.52236307,-0.23598477,0.16293749,0.26736555,-0.039250232,-0.31451356,0.49154216,-0.0010005557,0.18085974,-0.4233204,-0.12607658,0.12334353,-0.01243572,0.16009265,-0.074306406,-0.17909457,-0.1176451,0.08282489,0.042679016,-1.0565195,0.090609014,-0.20522717,0.25660434,0.37799296,0.21594016,0.73799074,-0.09888836,0.02648738,0.0025487433,-0.053143315,0.76119125,0.13179246,-0.34201708,0.10853261,0.23660108,0.14406188,0.27095076,13.844537,-0.16477466,0.5434552,0.37471697,-0.015411144,0.12768917,-0.49898678,-0.23466758,0.03811185,-0.07144866,-0.03534408,-0.104372285,-0.028799701,-0.16565248,0.4988954,-0.29091945,-0.08048371,-0.120148346,-0.011926469,0.14395656,-0.058523018,0.20310296,0.4686919,-0.30993435,0.10102247,0.27781907,0.09857819,0.25121254,0.058012243,-0.1900132,-0.09736877,0.3912546,-0.032903686,-0.034046162,0.09072441,0.54862696,0.1815415,-0.1114177,-0.030280508,-0.57492894,0.13780499,-0.07632657,0.22362208,-0.07829222,0.065708004,0.24012989,-0.40319762,0.29075226,0.2232331,-0.42658782,0.015799128,0.50307673,0.22501038,-0.13469046,0.16192901,-0.25938866,-0.30285034,-0.0057031815,-0.55406946,0.12225801,0.14035322,-0.007827008,0.004996282,-0.7611218,-0.0010153984,-0.032656197,-0.07781313,0.0059112087,-0.013990939,0.30075172,1.0132966,0.6323806,-0.035168823,-0.11951787,-0.2589665,0.10860234,-0.0039884485,-0.03317169,0.04563065,-0.52892447,0.100319356,0.050606214,-0.105297185,-0.26625216,-0.41490245,0.15671763,-0.19638664,0.12889113,0.98305476,0.0051175347,-0.25931638,-0.15193681,-0.7116269,-0.122288674,0.24403031,-0.333661,-0.745923,0.054924134,0.03920854,0.07775066,-0.26285058,0.10631125,-0.16322672,0.23558891,-0.15259552,-0.38235074,0.14801033,-0.06383048,0.027049584,0.06364243,-0.11766792,-0.29200903,-0.19032454,-0.14483625,1.1173369,-0.023231689,0.068648435,-0.14592803,0.15698744,0.1490851,-0.10825253,0.5813515,-0.269351,-0.098867536,0.13537778,-0.0017949333,0.13664861,0.035304464,-0.07704001,0.2532224,-0.22928903,0.05040785,0.11993095,1.3401496,0.058424056,0.040277224,-0.56904995,-0.013626804,0.27467385,-0.11974943,-0.33231577,-0.015951185,0.17519236,-0.109191716,-0.6386906,-0.12632342,0.5131297,-0.049615946,-0.14854877,0.023466287,0.00014234026,0.12087844,-0.13912928,-0.1867113,-0.056377813,0.08631245,0.06740835,0.92879415,0.21576375,0.049269423,0.3987088,-0.8021773,0.013633456,-0.40465125,-0.07556286,0.10507596,0.29435498,0.046857253,0.30004093,0.03552192,0.047443125,-0.02175512,-0.256136,0.21324597,-0.03193836,-0.009418038,0.5097879,-0.5996853,-0.06379948,0.19050929
com.rafsan.inventory.controller.employee.EditController;-1;0.01579235,0.32599425,0.0057190917,0.0141073605,0.04036632,-0.07937812,0.111870065,0.31243947,0.23544025,-0.03406728,0.31209463,0.21675776,-0.0029846975,0.21346138,0.0625324,0.0146094905,0.20311266,0.26576725,-0.15263115,0.10148497,0.101438805,-0.021229848,0.014927769,-0.16962983,0.22334184,-0.09743665,0.16653594,-0.0053657596,0.18426457,0.27218673,0.20117036,-0.094237,1.0696323,-0.20734918,-0.038048573,-0.35258967,0.17682719,0.08185321,-0.057206243,0.035893165,-0.25997218,-0.08287777,-0.52768624,0.21748254,0.06608198,-0.16233893,0.25810227,0.14728273,-0.170324,0.028947484,0.07759774,0.18424004,-0.5099853,-0.042004228,0.058286328,0.17185657,-0.72996014,0.22334608,0.011920748,0.06973117,-0.2351637,0.21216534,0.065875635,0.16296981,0.87714285,0.05832624,0.20114654,0.5357844,-0.3536169,0.07663584,0.080005184,-0.068902016,-0.038373675,-0.23403497,-0.30106288,-0.04130113,0.23961079,-0.4123051,0.14027628,0.046968885,0.3197173,-0.0060999086,0.38338894,0.48847693,0.06929865,0.16050811,0.08292373,0.050030675,-0.51661,-0.028535973,0.116574146,0.16433947,0.29856157,0.14496028,0.11434689,0.26505777,0.15544668,-0.4210375,0.14920375,0.21283329,-0.1261022,-0.13764055,0.22838373,0.1748259,0.00026860586,-0.091551214,0.31268343,0.23366457,0.23708624,-0.15123829,-0.0636122,-0.21169567,0.027958749,0.036665343,0.12901863,0.074274674,0.025740204,0.30084097,-0.16062123,0.0932315,-0.21451014,0.28645045,-0.144393,0.4220517,0.03132234,0.16787916,-0.35951,-0.27742743,-0.054646652,-0.013700059,-0.60372305,-0.8920457,-0.109887965,-0.062355414,0.21711686,0.10725958,-0.0046834517,0.2677312,0.032876413,-0.17885804,-0.36939675,0.10151872,-0.13645992,0.1607347,-0.14260787,-0.092216715,-0.07436192,-0.041767165,-0.049882703,-0.49959618,-0.21456261,-0.029856069,0.7453276,-0.06261339,0.045044553,-0.6511825,0.2849642,-0.19273904,0.18503952,-0.3027385,0.032866664,-0.12550241,0.31372944,0.2428276,-0.0066395644,0.13737062,-0.077175945,-0.1423384,0.02099603,-0.010297186,-0.103070945,-0.017004391,-0.5926829,0.1302319,-0.16430157,0.19791225,-0.09478152,-0.041135736,-0.10333276,0.6691805,-0.0997586,-0.17353848,0.06087254,-0.19390456,-0.07624733,0.06007018,0.15557945,0.20556147,0.08162517,-0.070240416,-0.13488956,0.1606933,0.14217609,0.23657942,0.36527017,-0.10584363,-0.047776476,0.106979765,0.4919415,-0.06980241,-0.10480143,0.04644902,0.43237275,-0.12145157,0.38023436,0.20131026,-0.11353284,0.01553335,0.29455864,0.94690007,1.0324669,0.077430345,-0.11321919,-0.0283759,-0.28848326,-0.115061596,-0.16733891,-0.3582673,-0.0806884,-0.37569487,-0.85688233,-0.0324336,-0.22396296,-0.25413457,0.08738281,0.004166588,0.5410978,-0.07575068,-0.017475951,0.12729397,0.14010921,0.20522633,-0.27505407,0.089374244,0.20583878,-0.23049578,0.12939534,0.14986221,0.023052596,-0.63468826,0.10397452,0.016808163,0.07474204,0.24972028,-0.14807685,-0.36470866,-0.046951883,0.34675676,-0.15353902,0.24359453,-0.026887655,-0.31923062,0.06349699,-0.01877589,0.13309467,-0.41088557,0.016440734,-0.014694137,-0.133983,1.3178263,-0.10220337,0.040695075,0.14716348,-0.22475177,-0.014189945,-0.3469454,0.010488917,0.12851751,-0.04816559,0.14482602,0.5952455,0.044815533,-0.115724295,0.16565669,0.03770037,0.025543619,-0.42381614,0.16699882,-0.28765228,0.083166555,-0.16134763,-0.12363386,0.056622602,0.01636138,0.16034064,-0.18533225,-0.28320962,0.19383562,-0.008443562,0.057031047,0.30855584,-0.14600727,0.6558066,-0.009869142,-0.1543822,0.24942406,0.08895488,0.00535134,0.09566671,-0.40204227,0.26277986,0.32660514,-0.27664098,-0.09017561,-0.30000645,-0.101155065,-0.33408666,0.024216654,0.16875334,-0.085096955,-0.16641888,-0.31974325,-0.25909606,0.034613483,0.046617255,-0.0066702226,0.035202634,0.048036143,-0.17969213,-0.04481999,0.2033087,-0.23537005,0.18229681,-0.58751583,-0.26509678,0.5692489,0.067027554,-0.15207613,-0.70025504,0.5125083,-0.113812156,0.17425598,-0.23664045,0.5199516,-0.55469096,-0.07293947,0.60605955,-0.050522476,0.0025954496,-0.065566905,-0.7870059,0.26987866,-0.3063182,-0.0025733109,-0.20045806,0.20701197,-0.06680435,-0.10660256,0.34586695,-0.0058513773,-0.08538196,-0.5037112,0.026216924,-0.05722238,0.16776197,0.9570479,0.42359185,0.05596394,-0.12768628,-0.20073497,0.10826739,0.25462744,0.0012429862,1.0179787,0.34870082,-0.2300635,-0.522139,-0.021361683,-0.08685693,0.3249867,-0.1449689,0.2657445,0.042954005,0.02539699,0.24350902,-0.06860283,-0.26349688,0.11752851,-0.4177173,-0.14246553,-0.42443132,0.05792366,0.13433091,0.0054629035,0.30357832,-1.4526658,0.33281192,-0.26779053,0.5719808,0.074628994,-0.042069495,-0.085543275,0.30194506,0.04128273,-0.07248866,0.059774578,0.33769995,0.025799917,-0.4216229,-0.07923082,0.021491542,0.013736753,0.23636976,0.17882407,0.07870156,0.20757839,-0.47306532,-0.050681315,-0.07831317,0.50732005,-0.12195313,0.97532403,-0.20566654,-0.29422876,-0.06619482,0.15019804,0.25748667,-0.13214451,-0.05214356,-0.1556302,0.1272822,0.019468319,0.42209285,-0.27762538,0.14699255,0.086539686,-0.061681874,0.06040918,0.22154763,-0.13102886,-0.0015048638,-0.09379329,-0.04498888,0.35965526,-0.09264737,0.053314656,0.16396844,-0.36707607,-0.13812487,0.022541415,0.19718966,0.016926413,0.109153636,0.21370843,-0.091179244,0.024590477,0.14001182,0.6848613,0.3104809,0.004082317,-0.15361759,0.12060845,0.13648638,-1.3126278,0.52699137,0.13478224,0.21056193,-0.11111476,0.17209144,0.5449426,0.0934649,0.36559242,0.007949778,-0.12643708,-0.14176273,-1.0885012,0.09642021,-0.08851752,-0.17322354,0.3814902,-0.3797449,0.17801678,0.06963363,0.36041626,0.024390724,-0.01080622,-0.12635928,1.0361804,-0.13033327,0.8694289,-0.11127367,-0.16170117,0.14448977,-0.33416915,-0.15942281,0.01893076,0.04443519,0.06879518,-0.051522296,-0.06755159,-0.37081215,-0.28533772,0.036873534,0.15498276,0.37873313,0.016150024,0.05179251,0.27094513,-0.046677753,0.42767805,0.08073484,0.16643596,0.2300742,1.0243422,0.019546783,-0.14316869,-0.062070314,0.45283112,-0.10832006,-0.3466379,-0.20294115,0.21628577,0.47896343,-0.011199959,-0.15821946,0.11628425,-0.016362645,-0.17494573,-0.21633327,0.6629015,0.036834396,0.013914216,-0.21580736,-0.008094138,1.0256536,-0.093699425,-0.5326032,-0.41751978,-0.049003713,-0.3662303,-0.23449546,-0.28901473,-0.011372611,0.07226869,-0.06999236,0.13753723,-0.1313522,-0.13968506,0.086596675,0.120168485,0.06664239,-0.13883242,0.5461781,0.015301462,0.3104615,-0.26234972,-0.12261086,-0.69783646,0.048467863,0.037130494,-0.13071993,-0.52335167,-0.2357247,0.16302142,0.26533365,-0.040741883,-0.31352207,0.49256122,-0.0010855995,0.18236357,-0.42220443,-0.12832053,0.12148982,-0.011870822,0.15810126,-0.07292485,-0.17831978,-0.11796597,0.08335417,0.04326668,-1.0570011,0.089725435,-0.20593728,0.2534303,0.37491876,0.21599758,0.7381629,-0.0981459,0.026473226,0.0024047978,-0.055115175,0.76565117,0.12990808,-0.34402522,0.10762566,0.23515394,0.14332308,0.26913393,13.837641,-0.1647225,0.5446818,0.3736699,-0.015039668,0.12650232,-0.49910477,-0.23133084,0.038490627,-0.07074479,-0.034513533,-0.10445114,-0.028320353,-0.16701768,0.49783656,-0.29222125,-0.08102725,-0.11971183,-0.014190278,0.14426318,-0.05840983,0.20289494,0.46968558,-0.30974817,0.1032676,0.27731612,0.09891434,0.25097546,0.056582585,-0.19212005,-0.09857838,0.38845843,-0.031495776,-0.033146188,0.09224858,0.54768467,0.18098739,-0.109924026,-0.02976304,-0.5745019,0.13707483,-0.07731003,0.22222516,-0.0770867,0.06630981,0.23929311,-0.40573332,0.28866196,0.22417967,-0.42661753,0.015778104,0.5027055,0.22540407,-0.13208973,0.16160735,-0.25821286,-0.30232432,-0.0048021018,-0.55355716,0.12312265,0.13970673,-0.008870072,0.0056620357,-0.76149404,0.0010327721,-0.031390518,-0.07699877,0.006049028,-0.014186829,0.30046308,1.0131447,0.6333702,-0.03552214,-0.12066044,-0.25949666,0.110596485,-0.0025929408,-0.03438393,0.04650311,-0.52934754,0.10013505,0.05139992,-0.10548766,-0.26587763,-0.41477036,0.15822093,-0.19542709,0.1304059,0.9839134,0.006469806,-0.26008138,-0.1512221,-0.71133095,-0.120951965,0.24360082,-0.3318646,-0.74722946,0.0542591,0.03862512,0.07512441,-0.2619403,0.105246745,-0.16291256,0.23507756,-0.15246052,-0.3816532,0.1463907,-0.063705586,0.029000396,0.063978314,-0.11639378,-0.28948694,-0.19070877,-0.14480203,1.1183761,-0.022762764,0.0696169,-0.1469436,0.15596391,0.15032195,-0.10752355,0.5785016,-0.26783377,-0.09852615,0.1372928,-0.002193581,0.13535728,0.035804033,-0.07633023,0.25147146,-0.22864139,0.04893079,0.11878506,1.3410041,0.059491083,0.040204216,-0.5675782,-0.013152497,0.2737387,-0.119390614,-0.33119696,-0.016340908,0.17553456,-0.10786945,-0.63975096,-0.12710814,0.51358426,-0.049780346,-0.1497483,0.022931399,-0.00052288175,0.11971813,-0.13606414,-0.18556334,-0.05888979,0.08756596,0.06652162,0.9310978,0.21483138,0.047209956,0.3993489,-0.80180717,0.01083621,-0.40269533,-0.07707699,0.1056741,0.29326397,0.046383586,0.2983638,0.036519155,0.048383392,-0.020693727,-0.25363666,0.21505094,-0.029710978,-0.008830158,0.51004994,-0.60090697,-0.06406836,0.19123985
com.rafsan.inventory.controller.employee.EmployeeController;-1;0.015752114,0.32616344,0.005322616,0.012644433,0.03998145,-0.08045275,0.11256436,0.31060112,0.23554224,-0.033476755,0.3123551,0.21437764,-0.0035111825,0.2127791,0.061736543,0.014475435,0.20328942,0.2663404,-0.15155421,0.101569146,0.10135055,-0.020293472,0.015741486,-0.16818894,0.22233595,-0.0984359,0.1661085,-0.0054612756,0.18375689,0.2727649,0.20214811,-0.09383426,1.0694995,-0.20760645,-0.03893043,-0.3516533,0.17761941,0.081526555,-0.057579994,0.034745708,-0.2588487,-0.08321611,-0.52757746,0.2173553,0.066216856,-0.16171938,0.25834402,0.14759158,-0.17010638,0.02871076,0.078157134,0.18459485,-0.5100782,-0.041482754,0.05774566,0.17170626,-0.72936344,0.22381788,0.011751051,0.06959173,-0.23512179,0.21209745,0.06621419,0.16508675,0.87740767,0.059077423,0.20040537,0.53454745,-0.35319364,0.0773559,0.08042547,-0.069768876,-0.03894745,-0.23424421,-0.30114833,-0.040852416,0.24024694,-0.41227424,0.14059247,0.04677055,0.3203253,-0.005195438,0.3839818,0.48984098,0.06969891,0.16080165,0.083236165,0.049522728,-0.516684,-0.029121168,0.117209926,0.16413125,0.29761478,0.14474441,0.11451599,0.26470444,0.15505615,-0.42164993,0.14873531,0.21284184,-0.1260391,-0.13789612,0.22870119,0.1754774,-0.000999584,-0.09166459,0.31255987,0.23347123,0.23717006,-0.1517475,-0.064024284,-0.21023533,0.027592912,0.037959863,0.129366,0.074333586,0.025668433,0.30174643,-0.1614212,0.092877,-0.21373084,0.2862512,-0.1445538,0.4208963,0.031569354,0.16695172,-0.36015472,-0.27824396,-0.05410035,-0.014256075,-0.6032069,-0.89349174,-0.11036159,-0.06288832,0.21752326,0.10748817,-0.0051183384,0.26760402,0.033192746,-0.17957252,-0.36939982,0.10114337,-0.13684088,0.16068667,-0.14240439,-0.092547745,-0.07335678,-0.041719932,-0.050086513,-0.50017256,-0.21389312,-0.030136708,0.74517167,-0.062417015,0.0447859,-0.6510146,0.28548664,-0.19268359,0.1851505,-0.3023824,0.03390993,-0.1264495,0.3135497,0.24261247,-0.007426429,0.13856047,-0.076008536,-0.14204095,0.020896368,-0.011666349,-0.103811115,-0.015981164,-0.593271,0.12988752,-0.1633202,0.19794118,-0.0945338,-0.041027293,-0.10356549,0.6683387,-0.09969942,-0.17327467,0.06130245,-0.19405916,-0.0759272,0.05992345,0.15653084,0.20657504,0.081022695,-0.07060607,-0.13619573,0.15966882,0.14249244,0.23590353,0.3648152,-0.10629639,-0.047071178,0.10760094,0.4921956,-0.06942252,-0.10314105,0.0472921,0.43280718,-0.12166074,0.38023752,0.201643,-0.1135617,0.015931634,0.29535258,0.94617015,1.0314488,0.077577375,-0.11259169,-0.027918048,-0.288727,-0.115545005,-0.16671598,-0.35946947,-0.08040951,-0.37621012,-0.8562997,-0.032155946,-0.22236961,-0.25362,0.088964954,0.0041408576,0.54003614,-0.07694308,-0.017440727,0.12699528,0.14044422,0.20460576,-0.2745294,0.090033256,0.20693527,-0.23102485,0.12927245,0.1507366,0.022869132,-0.6330411,0.10450958,0.017210685,0.0747402,0.24929404,-0.14835107,-0.36416602,-0.04781173,0.347582,-0.1537692,0.24421719,-0.026902901,-0.3203758,0.06339415,-0.018822167,0.13355407,-0.41186878,0.015831385,-0.015454385,-0.13497585,1.3171523,-0.10242032,0.039860945,0.1479798,-0.22361572,-0.014222875,-0.3464403,0.011363114,0.1285095,-0.04873985,0.14372571,0.59429675,0.044554867,-0.11708207,0.16576318,0.038343143,0.02594472,-0.42438424,0.16650724,-0.28757557,0.08345724,-0.16259564,-0.123725906,0.056315772,0.016526954,0.16047662,-0.18686543,-0.28254598,0.19388798,-0.008140723,0.057071455,0.30940425,-0.14681865,0.65644896,-0.010072132,-0.15362805,0.2488436,0.08807927,0.004974282,0.095283106,-0.40198556,0.2626013,0.32822147,-0.2766287,-0.090913124,-0.30034098,-0.10102255,-0.33442962,0.023554496,0.16946252,-0.08457665,-0.16697758,-0.31990284,-0.25840676,0.034569427,0.0465758,-0.0073513933,0.03521571,0.04868943,-0.18009706,-0.044901446,0.20319398,-0.23564938,0.1819036,-0.5875503,-0.26377973,0.57005525,0.06550276,-0.15257812,-0.69992924,0.5120411,-0.11234637,0.1754153,-0.23715633,0.520127,-0.5545202,-0.072675854,0.60656494,-0.05035339,0.0037575369,-0.0663905,-0.7873287,0.2698528,-0.3063838,-0.0031449834,-0.20056915,0.2061771,-0.06631633,-0.10789343,0.344939,-0.0053203423,-0.08520256,-0.50349367,0.025748163,-0.056626245,0.1672334,0.9553454,0.42422163,0.055941656,-0.12755316,-0.19999883,0.108579874,0.25468376,0.0015192344,1.0187458,0.34906074,-0.23061848,-0.52139133,-0.021383788,-0.08691198,0.3258851,-0.14441013,0.2652864,0.042803038,0.025901198,0.24254316,-0.068876624,-0.26407993,0.11725925,-0.41697156,-0.14273384,-0.4244336,0.05785711,0.1341825,0.0058936956,0.3040589,-1.4531065,0.33374548,-0.26867622,0.5713632,0.07445685,-0.04182574,-0.08548056,0.3013518,0.042427007,-0.0720051,0.05828999,0.33690602,0.025711793,-0.4218211,-0.07904414,0.021602321,0.01408111,0.23598364,0.17767201,0.077543266,0.20860259,-0.4715841,-0.04989705,-0.07708977,0.5074323,-0.12151991,0.9743384,-0.20498691,-0.29361963,-0.0667716,0.15043153,0.2578712,-0.1316482,-0.05248208,-0.1554031,0.12750342,0.018977024,0.4217864,-0.2777347,0.14700317,0.08707094,-0.06217718,0.060876627,0.22160831,-0.13088128,-0.0026198518,-0.09315881,-0.045761872,0.3608145,-0.09243314,0.05363164,0.16371642,-0.36756313,-0.13830997,0.022971364,0.19785309,0.017613985,0.10931248,0.21392708,-0.09171182,0.023640431,0.14030696,0.6839931,0.31138232,0.004764887,-0.15319489,0.12114762,0.13688473,-1.3132287,0.5272217,0.13538572,0.21075624,-0.11063521,0.17255878,0.54466444,0.09289347,0.36646816,0.007232817,-0.12668723,-0.14189182,-1.0882714,0.09658185,-0.0875215,-0.17360847,0.38132247,-0.37861216,0.17794171,0.06934244,0.3606228,0.02422733,-0.011175614,-0.12544578,1.0355719,-0.12958132,0.86823356,-0.11159073,-0.16223855,0.1454439,-0.33426398,-0.15903977,0.020304753,0.04476725,0.069060475,-0.050103996,-0.06584961,-0.37099302,-0.28540245,0.0365819,0.1556006,0.37865058,0.016202163,0.051635675,0.27050197,-0.047445163,0.42729566,0.08060667,0.16647546,0.23058684,1.0242357,0.019876268,-0.14452857,-0.06213412,0.45322746,-0.10889937,-0.34779584,-0.2034827,0.21625277,0.47952,-0.011914389,-0.15814708,0.116775766,-0.016603865,-0.1743194,-0.2163802,0.66371846,0.03778339,0.014796845,-0.21507528,-0.008270184,1.0255766,-0.093391925,-0.5316448,-0.41778913,-0.049635097,-0.36607766,-0.2330281,-0.28948706,-0.01050469,0.073308244,-0.06993841,0.13748154,-0.13023554,-0.14007244,0.08534458,0.12019184,0.06535545,-0.1384483,0.5464891,0.015281922,0.31094128,-0.26317823,-0.12315585,-0.69858724,0.04841768,0.036924507,-0.13034616,-0.522752,-0.23701477,0.1622354,0.26595756,-0.040927477,-0.31345442,0.49251428,-0.0010892297,0.18223639,-0.4233441,-0.12859073,0.12191587,-0.012660206,0.1583306,-0.07317194,-0.17875674,-0.11802842,0.083675,0.043347444,-1.0575998,0.09041312,-0.20689164,0.25242537,0.37631404,0.21612951,0.7380713,-0.09852333,0.02590845,0.0013131336,-0.055143327,0.76549953,0.12984563,-0.34307984,0.10692628,0.23620288,0.14316219,0.26914784,13.843194,-0.16492847,0.5433822,0.3740257,-0.014875159,0.12772481,-0.4984829,-0.2316995,0.038189206,-0.07121554,-0.03459864,-0.10491027,-0.028192682,-0.16706122,0.4972328,-0.29208675,-0.081068225,-0.11996239,-0.013638788,0.14466429,-0.059708025,0.20364189,0.46821266,-0.30898416,0.1036639,0.2780987,0.0994918,0.2510575,0.056300037,-0.19276257,-0.09774959,0.38913807,-0.030507399,-0.03301464,0.09236621,0.54761195,0.18058233,-0.10878223,-0.02863016,-0.5749643,0.1368495,-0.07724798,0.22188038,-0.078456014,0.06677342,0.23936129,-0.40665397,0.28936014,0.22502393,-0.42754328,0.015388108,0.50226384,0.22483942,-0.1310336,0.16181761,-0.25851312,-0.3013006,-0.0050127176,-0.5543244,0.12415651,0.13960785,-0.0089313155,0.005718396,-0.76046056,-0.00017482202,-0.032145217,-0.076062135,0.0063876966,-0.014699176,0.3011126,1.0128403,0.63308996,-0.03676702,-0.12047771,-0.25926983,0.11039805,-0.0026291928,-0.033959836,0.04636829,-0.5297239,0.100263424,0.052116886,-0.10548718,-0.26743695,-0.41476873,0.15799153,-0.1962892,0.1293187,0.9836061,0.00780901,-0.25998846,-0.15183039,-0.71114516,-0.12078646,0.24384516,-0.33232078,-0.7473586,0.054869313,0.038862932,0.0752629,-0.2623346,0.10601452,-0.16258003,0.23548473,-0.15345128,-0.3806849,0.14715809,-0.06407167,0.028926415,0.06385502,-0.11665303,-0.2890014,-0.1911785,-0.14546719,1.1173333,-0.023525754,0.06974204,-0.14782698,0.1562248,0.14896949,-0.10782446,0.5788012,-0.2690649,-0.0988657,0.13682185,-0.0012830406,0.13627774,0.037269432,-0.07639137,0.2509581,-0.22861706,0.049505394,0.1191286,1.3412043,0.05952503,0.04082136,-0.5681665,-0.013397734,0.2733432,-0.11988848,-0.3314611,-0.016874747,0.17522849,-0.107885115,-0.6407374,-0.12681192,0.51239353,-0.04946597,-0.1496387,0.021959487,-0.00041433386,0.12032405,-0.135462,-0.18564534,-0.05782268,0.087945975,0.06682965,0.9310417,0.21555573,0.047752075,0.39912102,-0.80207133,0.011596448,-0.40390196,-0.07713543,0.10512733,0.2943822,0.046553794,0.29830658,0.035756618,0.04894121,-0.020857902,-0.2538825,0.21358575,-0.030748643,-0.0092607625,0.51064295,-0.6017241,-0.06386706,0.19163308
com.rafsan.inventory.controller.login.LoginController;-1;0.014862344,0.32571617,0.0055937907,0.015812527,0.040342264,-0.07811395,0.11204861,0.31308195,0.23562853,-0.03490889,0.31215006,0.2176444,-0.0023852412,0.21421027,0.06260231,0.015010638,0.20236613,0.26569802,-0.15384221,0.100727424,0.10156859,-0.022073615,0.014186907,-0.16996305,0.22329816,-0.09724893,0.16805983,-0.0055591445,0.18522221,0.27273834,0.20027909,-0.09529962,1.069586,-0.2067143,-0.038866922,-0.3524562,0.17596881,0.08296371,-0.05792012,0.036013205,-0.26065147,-0.0823853,-0.52832997,0.21763973,0.0654246,-0.16167977,0.25757372,0.14591023,-0.17104244,0.027649503,0.07718433,0.18462116,-0.5103382,-0.041953065,0.058566008,0.17206292,-0.7308792,0.22326306,0.012402472,0.06945622,-0.2341039,0.21173099,0.06483644,0.16207598,0.87624824,0.057785656,0.20167182,0.5373555,-0.3540916,0.076618925,0.07972322,-0.06941016,-0.036932513,-0.23440918,-0.30129346,-0.039572686,0.23866291,-0.4108144,0.13953352,0.04673843,0.318038,-0.006661268,0.38169438,0.486444,0.06840582,0.15973698,0.082230926,0.049834184,-0.5157336,-0.02769472,0.11563612,0.16499247,0.29873443,0.14486408,0.114552185,0.26560602,0.1537895,-0.41928652,0.1495008,0.212398,-0.12511587,-0.13790473,0.22589561,0.17393792,-0.000745732,-0.09155688,0.31308487,0.23400584,0.23699683,-0.14998497,-0.063671894,-0.2106888,0.02870428,0.03626647,0.12920487,0.07258004,0.025701057,0.3000837,-0.16033402,0.09317495,-0.21560034,0.28691766,-0.14384669,0.4222756,0.03211147,0.16875888,-0.3587031,-0.27705425,-0.05407952,-0.012584939,-0.60358894,-0.8917355,-0.10992987,-0.06191028,0.2169129,0.106748775,-0.004860534,0.2670555,0.03399602,-0.17655703,-0.36948603,0.102368735,-0.13548742,0.16055904,-0.14175968,-0.092325985,-0.07354692,-0.041093983,-0.04959196,-0.4991085,-0.21482134,-0.030439822,0.7457253,-0.06406414,0.044765666,-0.64977986,0.2836179,-0.19314009,0.1833739,-0.30305743,0.03349199,-0.12566948,0.3137931,0.24258119,-0.0056081223,0.1368094,-0.07669627,-0.14340723,0.021721814,-0.008785717,-0.103148095,-0.018172357,-0.5924789,0.13014752,-0.16467291,0.19727486,-0.09550901,-0.040767834,-0.1021466,0.6701731,-0.09982993,-0.1725761,0.060100973,-0.19371545,-0.0775834,0.06052834,0.15482515,0.20498204,0.08291164,-0.06968433,-0.13520609,0.16051942,0.141639,0.2350528,0.36430466,-0.105672106,-0.048472345,0.106980786,0.49256772,-0.06950785,-0.10481843,0.0444875,0.43169945,-0.12136895,0.38002518,0.20058551,-0.114354365,0.01589427,0.29426083,0.9471071,1.0329216,0.077508986,-0.11369065,-0.029136166,-0.2888729,-0.1147897,-0.16625342,-0.35542667,-0.08069332,-0.37460268,-0.8576337,-0.031782694,-0.22515112,-0.25266367,0.08411931,0.004854534,0.5407544,-0.07519874,-0.01841975,0.1258897,0.1393986,0.20630449,-0.27519587,0.088999614,0.20449394,-0.2300443,0.13030402,0.14989501,0.021783723,-0.6355245,0.10285802,0.016199868,0.07449961,0.25026822,-0.14926347,-0.36497417,-0.046605665,0.34713373,-0.15343064,0.24285613,-0.026668822,-0.31888622,0.06340921,-0.019047776,0.13173024,-0.41037467,0.01700731,-0.014688907,-0.13318193,1.3179944,-0.101786695,0.040591333,0.14721036,-0.22603697,-0.013777152,-0.34640372,0.009937089,0.128402,-0.048337925,0.14600863,0.5962878,0.044437476,-0.11504394,0.16544908,0.03766401,0.025885938,-0.42224237,0.16695198,-0.28752798,0.083568454,-0.16101272,-0.122921504,0.056829233,0.016079662,0.15958796,-0.18448484,-0.28233802,0.19405022,-0.008991745,0.056327917,0.30900276,-0.1463805,0.6540499,-0.00969038,-0.15425779,0.24941413,0.089727566,0.004981027,0.09504274,-0.40111083,0.26406473,0.32458675,-0.27637497,-0.09008001,-0.29828733,-0.10070005,-0.3333435,0.024192438,0.17005123,-0.084850855,-0.16716608,-0.31965804,-0.258622,0.034471814,0.045468137,-0.005773903,0.03493837,0.04846991,-0.17926419,-0.04500787,0.20321785,-0.2336197,0.18208966,-0.58817905,-0.26644462,0.56947964,0.06793116,-0.15228346,-0.700309,0.512282,-0.11368158,0.17451532,-0.2368843,0.5199409,-0.5549791,-0.0727662,0.605657,-0.05024715,0.0026836894,-0.06495914,-0.786828,0.26983348,-0.30581367,-0.0020841681,-0.20030048,0.20749539,-0.06613344,-0.106043965,0.34658837,-0.005971443,-0.085411824,-0.5043036,0.026067201,-0.057265356,0.16791964,0.9591532,0.4234265,0.054983128,-0.12733483,-0.20148541,0.10670808,0.25384742,0.001802177,1.0171103,0.3486922,-0.2302597,-0.5228506,-0.020899983,-0.08667511,0.324873,-0.14491804,0.2641696,0.04345841,0.025534693,0.24458118,-0.068551704,-0.26436073,0.1164268,-0.41793793,-0.14118221,-0.4238762,0.057330612,0.13409147,0.004569963,0.30389678,-1.4533584,0.33275226,-0.26608413,0.57199216,0.074659914,-0.04201276,-0.08478406,0.30247268,0.040706996,-0.07179199,0.061239783,0.33758652,0.02661401,-0.42164367,-0.0800342,0.020725394,0.013595687,0.23674704,0.17936017,0.07771004,0.20629792,-0.47337025,-0.050513495,-0.0780632,0.50641555,-0.12240888,0.9750947,-0.20620635,-0.29328722,-0.06674122,0.14978524,0.25752684,-0.13153724,-0.05234059,-0.15481219,0.12805845,0.018768346,0.42232817,-0.27716148,0.1464168,0.08613104,-0.060774297,0.059747323,0.22037835,-0.13091838,-0.0014317916,-0.09267409,-0.04450657,0.35786784,-0.09326577,0.05358138,0.16330895,-0.3667807,-0.13811609,0.022529703,0.19698976,0.01659667,0.11012329,0.21368226,-0.09184314,0.025668046,0.13934371,0.68556285,0.31073648,0.0033285255,-0.1544509,0.12208886,0.13547786,-1.3083315,0.5282853,0.13331579,0.20931785,-0.1108354,0.17209716,0.54617596,0.092876054,0.36572242,0.008804349,-0.12659913,-0.14171737,-1.0881536,0.09683384,-0.08915405,-0.17179656,0.38156483,-0.38045847,0.17777717,0.06874337,0.3597054,0.024635592,-0.010559818,-0.12670264,1.0359869,-0.13041405,0.87051797,-0.11024633,-0.16172954,0.14294477,-0.33445245,-0.15961413,0.01886348,0.044300865,0.06880193,-0.051684845,-0.068167,-0.3697773,-0.28492716,0.037787456,0.15442134,0.3787843,0.01687977,0.051787324,0.27076986,-0.047586925,0.42837435,0.081073254,0.16616878,0.23086086,1.0243151,0.019391038,-0.1417009,-0.061969645,0.45246303,-0.10830573,-0.34600118,-0.20279397,0.21548577,0.47802156,-0.010825991,-0.15815726,0.115682065,-0.016428681,-0.17576689,-0.216361,0.6632442,0.03744643,0.012760669,-0.21657199,-0.007349969,1.0259566,-0.09349758,-0.5336218,-0.4170697,-0.04913191,-0.36675608,-0.23534955,-0.28805792,-0.01177698,0.071496114,-0.070588276,0.13727713,-0.13067076,-0.13967615,0.0869864,0.11942087,0.06696133,-0.1393962,0.54692936,0.014655008,0.31142774,-0.26132786,-0.12259916,-0.6972336,0.048777107,0.03675008,-0.13079225,-0.5248506,-0.23575576,0.16277952,0.26336652,-0.040927358,-0.31359667,0.4925184,-0.0018939613,0.18236244,-0.4219767,-0.12825239,0.12133196,-0.011531682,0.15772882,-0.07279292,-0.17686543,-0.11879979,0.082792416,0.043968953,-1.0570537,0.090122886,-0.20640431,0.25153548,0.37432277,0.21607627,0.7380694,-0.09829853,0.027753482,0.001990392,-0.053951822,0.7667988,0.12915027,-0.34430164,0.10732109,0.23569638,0.14306699,0.26786584,13.836683,-0.16485809,0.54530436,0.37318662,-0.015105194,0.12676424,-0.49968025,-0.23067121,0.038728166,-0.07047582,-0.034521002,-0.10392206,-0.027859824,-0.16643623,0.49900603,-0.29219735,-0.08040594,-0.11964521,-0.014684681,0.14435579,-0.057551462,0.20239986,0.46916085,-0.30991125,0.103387795,0.2764617,0.098370016,0.24959122,0.056775197,-0.1917926,-0.099126525,0.38768,-0.03279837,-0.032488108,0.09197198,0.5479347,0.18207283,-0.11099362,-0.031394966,-0.57368004,0.13637306,-0.077247165,0.22240819,-0.076455414,0.066336244,0.23913483,-0.40630442,0.28717506,0.22409308,-0.42653763,0.014838766,0.5024807,0.22512066,-0.1318835,0.16174346,-0.25728434,-0.30219704,-0.0046664914,-0.55295455,0.1231386,0.13950238,-0.008164338,0.0062870495,-0.76248956,0.0009874656,-0.029961552,-0.07737027,0.0049131215,-0.014496469,0.30023277,1.0143003,0.63438237,-0.03388877,-0.12178301,-0.25837952,0.10994647,-0.0036316423,-0.03528907,0.04705504,-0.5294949,0.09989311,0.051493283,-0.10642299,-0.26557782,-0.41427845,0.15833482,-0.19320185,0.13141751,0.9839412,0.0071769385,-0.25942358,-0.15110296,-0.71059126,-0.12055901,0.24281843,-0.32987005,-0.7480798,0.053281844,0.037906323,0.07455543,-0.26263496,0.104861945,-0.16241492,0.23466349,-0.15264417,-0.3815019,0.14622301,-0.06360768,0.029383304,0.06411826,-0.11627709,-0.28835863,-0.19070409,-0.14433822,1.1199884,-0.022638606,0.06956178,-0.1473371,0.15621193,0.15038496,-0.10735938,0.577935,-0.2667544,-0.09854694,0.13828224,-0.003041554,0.13458793,0.035130784,-0.076834746,0.2512328,-0.22948107,0.04880388,0.118335366,1.3409827,0.05999988,0.041168854,-0.56703544,-0.012129087,0.27260768,-0.11915259,-0.3308912,-0.016730994,0.17515662,-0.107778996,-0.6392763,-0.12586783,0.5139152,-0.048987344,-0.1507072,0.02365495,2.8691458e-05,0.12009651,-0.13498148,-0.1854133,-0.05960197,0.08736991,0.066988565,0.9322532,0.21553075,0.04605122,0.3994035,-0.80014277,0.009119334,-0.40134385,-0.077266954,0.10665025,0.29277465,0.045494683,0.29765704,0.037076145,0.047816694,-0.020662464,-0.25195792,0.21604484,-0.029656896,-0.0077646025,0.50928307,-0.60136825,-0.064262316,0.19195664
com.rafsan.inventory.controller.pos.ConfirmController;-1;0.015528468,0.32506537,0.0050074942,0.0097534545,0.039643757,-0.08051981,0.11304611,0.30786255,0.23225316,-0.03398095,0.31371322,0.21460292,-0.0042642,0.21149027,0.06290681,0.011993645,0.20232889,0.2646407,-0.14934364,0.1027517,0.103781745,-0.017735455,0.015350767,-0.16474675,0.22170724,-0.100451455,0.16478945,-0.0064468514,0.18348482,0.2691575,0.20460117,-0.08859563,1.0671649,-0.20956844,-0.037320204,-0.34983647,0.18020612,0.08042878,-0.057327792,0.03478392,-0.25562283,-0.08513561,-0.5273036,0.21802211,0.06662257,-0.16318616,0.25866884,0.15052462,-0.16838215,0.032046236,0.07956517,0.18334922,-0.51048076,-0.040649123,0.055973366,0.17052315,-0.72842467,0.2239053,0.009976804,0.07075819,-0.23659137,0.21420634,0.06637784,0.16941729,0.8780303,0.061208285,0.20052448,0.53167915,-0.35592973,0.07816369,0.08131803,-0.06778166,-0.039011057,-0.23742585,-0.29976094,-0.043876875,0.24247134,-0.41586757,0.14153805,0.04423745,0.32290244,-0.000927608,0.38468716,0.49195302,0.071252786,0.16006891,0.08442968,0.04912126,-0.5183809,-0.028351292,0.11854392,0.16102043,0.29952377,0.14673427,0.11545716,0.2614895,0.15695262,-0.42142564,0.14898649,0.21509019,-0.12589125,-0.13733351,0.23412633,0.1770589,0.001234577,-0.09165074,0.31222194,0.23402604,0.23352334,-0.15449797,-0.06391126,-0.21090643,0.025451545,0.0399343,0.12721363,0.077720955,0.02777087,0.30204028,-0.1600083,0.091932505,-0.20897882,0.28656286,-0.14632082,0.4232223,0.029958844,0.16355756,-0.3603204,-0.27849856,-0.05478782,-0.013818596,-0.59906906,-0.8941387,-0.10982982,-0.06318079,0.21647485,0.1082978,-0.004596031,0.2694263,0.031198805,-0.18264684,-0.36958653,0.102055304,-0.13738158,0.16210526,-0.14160444,-0.09186931,-0.073852494,-0.04235541,-0.048402987,-0.5008526,-0.21178943,-0.029110383,0.74201316,-0.05957931,0.041791447,-0.65244466,0.28732598,-0.1952146,0.18699676,-0.30107656,0.03430008,-0.1266352,0.3141451,0.24252732,-0.0090686185,0.13984486,-0.07800021,-0.13954848,0.01742258,-0.016010126,-0.101961285,-0.014771352,-0.59381104,0.12874302,-0.1614703,0.19851914,-0.09346978,-0.040030416,-0.1044357,0.6647719,-0.10035618,-0.17284405,0.0639548,-0.19239414,-0.072579175,0.058531687,0.15765038,0.20420194,0.078797,-0.07345738,-0.13703898,0.15819842,0.14385328,0.2376467,0.3664583,-0.10591677,-0.047064677,0.10772948,0.49404764,-0.07001476,-0.10193631,0.04922796,0.43165016,-0.12394802,0.3795622,0.20077766,-0.114734694,0.017719049,0.295568,0.9445468,1.031728,0.077479824,-0.11276299,-0.025612162,-0.28808045,-0.11543058,-0.16871387,-0.36470702,-0.08074524,-0.37828755,-0.85345185,-0.03252455,-0.2219187,-0.2533059,0.092483744,0.0036842963,0.5382891,-0.07766193,-0.01727242,0.12733924,0.14289834,0.20255724,-0.27459502,0.08642276,0.20685029,-0.2309062,0.12745981,0.15121293,0.024236247,-0.63249373,0.106217936,0.018461889,0.07236196,0.2481474,-0.14727947,-0.3637278,-0.048575908,0.3490395,-0.15591693,0.2422938,-0.026031068,-0.32150263,0.06682269,-0.017691612,0.13571109,-0.41269535,0.016284145,-0.014921222,-0.13735138,1.3194116,-0.10494548,0.039667733,0.14749178,-0.22137198,-0.013469171,-0.34782583,0.012035336,0.12981457,-0.048106782,0.14298108,0.59111947,0.04512373,-0.11712998,0.16687906,0.038669635,0.02631163,-0.42882323,0.16724753,-0.28775066,0.08238807,-0.16297525,-0.12369083,0.05596894,0.016159434,0.15915827,-0.18728408,-0.28455728,0.19373068,-0.009622369,0.057252873,0.30857325,-0.1453126,0.65907776,-0.01094272,-0.15321678,0.24774936,0.08730641,0.0037289932,0.09490956,-0.4036918,0.26123017,0.33089548,-0.27583763,-0.092895836,-0.3023892,-0.09906407,-0.33855167,0.024011109,0.16793463,-0.084242046,-0.16592705,-0.31913114,-0.25883448,0.031598777,0.04847901,-0.0074942885,0.034270763,0.047546897,-0.18175188,-0.045248196,0.20509848,-0.23800771,0.18064961,-0.58994234,-0.26083207,0.5718689,0.06601802,-0.15215889,-0.69734097,0.5101618,-0.11260952,0.17238092,-0.23762044,0.5189522,-0.55207187,-0.07481083,0.6069807,-0.050008252,0.0030475412,-0.06824755,-0.7883267,0.269795,-0.30724573,-0.003520804,-0.20200342,0.20776996,-0.06599787,-0.1082596,0.34194088,-0.005161885,-0.08236273,-0.5021753,0.024233067,-0.054626636,0.16446614,0.9520802,0.423246,0.056987975,-0.12708181,-0.19893657,0.11347835,0.25518733,0.0018944351,1.0168402,0.3485295,-0.23258503,-0.5183201,-0.023080382,-0.08716857,0.3270884,-0.14402092,0.26662588,0.041140575,0.025393311,0.23916885,-0.06763772,-0.26532495,0.11945142,-0.41705772,-0.14293751,-0.42525563,0.057517968,0.13319334,0.0071413475,0.30268282,-1.4524848,0.3344884,-0.27033937,0.5706314,0.07489745,-0.04153171,-0.08593392,0.29812774,0.046218887,-0.07277449,0.055851564,0.33604047,0.02334503,-0.42194116,-0.07588882,0.021245118,0.014209943,0.23543887,0.17937472,0.078321904,0.20787647,-0.47328135,-0.047068655,-0.07481709,0.50776154,-0.12222085,0.9716598,-0.20556389,-0.2945568,-0.067053236,0.15085295,0.25757682,-0.1281269,-0.052809842,-0.1546631,0.12601681,0.019949479,0.42023337,-0.27871478,0.14452407,0.087995686,-0.064679965,0.06126742,0.22365898,-0.13136004,-0.00206241,-0.09303354,-0.045432683,0.36227202,-0.092554554,0.054251447,0.16404536,-0.3677677,-0.13647783,0.023528997,0.19819726,0.01711713,0.10648669,0.21509874,-0.09234744,0.02250155,0.1439434,0.6824194,0.31194478,0.00448451,-0.15128785,0.121684685,0.13999602,-1.3250957,0.5268,0.13425303,0.21337497,-0.1095398,0.17361626,0.5430771,0.09395305,0.3680255,0.0061107418,-0.12658587,-0.14069521,-1.0876988,0.09572467,-0.087744355,-0.17364404,0.38136375,-0.3749966,0.17954925,0.070237495,0.36334938,0.024429005,-0.011170981,-0.12308312,1.0356845,-0.13016978,0.8629912,-0.11229712,-0.16254017,0.1501673,-0.33279312,-0.15825792,0.02081033,0.044423364,0.0683393,-0.05037178,-0.06556791,-0.3714702,-0.28873044,0.03674289,0.1553379,0.37881434,0.015355768,0.05082086,0.27272743,-0.04869336,0.42635566,0.08004692,0.16712259,0.23069799,1.0225856,0.018947802,-0.14564879,-0.06179347,0.45395187,-0.111104935,-0.34823495,-0.20464861,0.21872112,0.47859067,-0.013402981,-0.15937372,0.11643739,-0.015645452,-0.17497249,-0.21692067,0.6626257,0.038589075,0.013353134,-0.21293552,-0.008538536,1.0242763,-0.093715996,-0.5283133,-0.41821164,-0.05126204,-0.36341292,-0.23251855,-0.28797033,-0.010693854,0.07517674,-0.06962056,0.13857761,-0.13076168,-0.14078087,0.08053873,0.120391786,0.06312959,-0.13812912,0.54576683,0.014897082,0.3093717,-0.26724866,-0.122378096,-0.6986195,0.04885398,0.038931243,-0.13190609,-0.51955795,-0.23554072,0.16195527,0.26857206,-0.041360643,-0.3128234,0.4906075,-0.00027460675,0.18268993,-0.42387754,-0.13044168,0.122414656,-0.012354134,0.15771763,-0.07285486,-0.18040796,-0.11862752,0.08585425,0.042397846,-1.0546021,0.08889797,-0.20842835,0.25406915,0.37605056,0.2160735,0.7381321,-0.097785465,0.019593349,0.00023682805,-0.05771884,0.76368684,0.13034697,-0.34246308,0.10773239,0.23328117,0.14489472,0.26890284,13.842699,-0.16388687,0.54207826,0.37434337,-0.015199521,0.12806037,-0.49721253,-0.2310169,0.040132456,-0.069815755,-0.034257963,-0.10548205,-0.02936801,-0.16821936,0.49557287,-0.29213798,-0.07925864,-0.11989916,-0.012235062,0.14401746,-0.060238406,0.20584586,0.4680689,-0.30831885,0.10729668,0.28006506,0.09865364,0.25523645,0.05614601,-0.19338821,-0.09863507,0.38982767,-0.027353764,-0.03190419,0.092109755,0.5458119,0.18013877,-0.10566771,-0.027236942,-0.5749099,0.13720718,-0.076715,0.22040448,-0.07908803,0.066928566,0.24035163,-0.40624335,0.28984332,0.2281675,-0.42708588,0.015507817,0.500707,0.22499058,-0.13008681,0.16149929,-0.2583208,-0.29783532,-0.0051869536,-0.55480146,0.12729716,0.13901627,-0.009354113,0.008110108,-0.75862736,-0.0006603622,-0.034504443,-0.07220979,0.00881091,-0.014915849,0.3018577,1.0094776,0.6308862,-0.0394687,-0.12071191,-0.26173127,0.11233802,0.0014221298,-0.031105202,0.047261737,-0.53212905,0.09871288,0.052932393,-0.1029588,-0.26866055,-0.41566864,0.15814674,-0.19927095,0.12755176,0.9852006,0.0077098906,-0.26163423,-0.15211189,-0.7123365,-0.11921842,0.24240527,-0.33274996,-0.7442825,0.055980623,0.04066918,0.07270113,-0.26091003,0.10591375,-0.1636746,0.23578095,-0.15215622,-0.37862664,0.14986557,-0.06231143,0.026761198,0.06576444,-0.11488698,-0.2896693,-0.19381616,-0.14468119,1.1128091,-0.021427661,0.06988527,-0.14795998,0.15754747,0.147345,-0.10837218,0.5764454,-0.26845506,-0.099494115,0.136266,-8.629571e-05,0.13445714,0.03819596,-0.07716245,0.25027543,-0.22725062,0.05003258,0.12044066,1.3404953,0.06000103,0.036984652,-0.5668564,-0.013758365,0.2741743,-0.117253914,-0.3341707,-0.016310224,0.17394733,-0.10952775,-0.64261043,-0.12921458,0.5101309,-0.049959905,-0.15095933,0.020485412,0.0008833262,0.119456455,-0.13675621,-0.18840659,-0.05975589,0.090352274,0.06637171,0.9306809,0.2135163,0.048039228,0.39912778,-0.8041805,0.012765326,-0.40561202,-0.079583704,0.10461345,0.29539204,0.048301317,0.29829198,0.035179913,0.049676158,-0.020458125,-0.25545704,0.21056686,-0.03126753,-0.010739671,0.5139185,-0.60198045,-0.062874414,0.19075772
com.rafsan.inventory.controller.pos.InvoiceController;-1;0.015606711,0.3258105,0.005073336,0.013148097,0.040024705,-0.07979896,0.1126266,0.31047052,0.23500614,-0.033817887,0.31250045,0.21558371,-0.0033500562,0.21350834,0.0616711,0.014860232,0.20223399,0.26598158,-0.15201882,0.10212581,0.10197079,-0.020857815,0.014556766,-0.16763988,0.22257078,-0.09838625,0.16626105,-0.006288968,0.18449208,0.272507,0.20184222,-0.093246505,1.0689495,-0.20775178,-0.038731135,-0.35144743,0.17805739,0.08177558,-0.0577297,0.03496928,-0.2581933,-0.083732456,-0.5274614,0.21782184,0.065966286,-0.1619011,0.258084,0.14743409,-0.17018124,0.028925588,0.07823171,0.1840517,-0.510156,-0.041655198,0.05783183,0.17146532,-0.7296154,0.22355601,0.011853506,0.06965235,-0.23502776,0.21215203,0.06602806,0.16507259,0.8769347,0.059215583,0.2005537,0.5345834,-0.35405773,0.07749953,0.08077145,-0.06926577,-0.03819616,-0.23522992,-0.30106992,-0.040985208,0.23992738,-0.41355696,0.14011438,0.045997314,0.31975645,-0.004695195,0.38341206,0.48975033,0.069683366,0.16056038,0.08286862,0.05000145,-0.5168602,-0.028471604,0.11739538,0.16456121,0.29818326,0.14526658,0.11479201,0.26400867,0.15539883,-0.42090893,0.14906695,0.21372262,-0.12538607,-0.13764638,0.22855446,0.17531931,-0.0006327188,-0.0912459,0.31260878,0.23374525,0.23635772,-0.15128681,-0.06378643,-0.21023591,0.027133713,0.037799586,0.12931725,0.07450539,0.026203435,0.3016699,-0.16069376,0.092946075,-0.2133975,0.28615132,-0.1446568,0.42165595,0.0318949,0.1668361,-0.35974368,-0.27819946,-0.054468177,-0.013519265,-0.6018947,-0.89247704,-0.10992122,-0.06290957,0.2168692,0.10749209,-0.0046099382,0.26771146,0.033718754,-0.17864726,-0.36949804,0.10135136,-0.13650075,0.16098937,-0.1417937,-0.09267904,-0.07357915,-0.04155094,-0.04967179,-0.5000142,-0.21351707,-0.030417968,0.74411976,-0.062364858,0.04397151,-0.65112895,0.28518695,-0.19345412,0.18486974,-0.30194774,0.034012597,-0.12618062,0.31407148,0.2430321,-0.0066294135,0.13792464,-0.076115884,-0.14189045,0.020457791,-0.011970739,-0.102816656,-0.016791724,-0.5931727,0.12987173,-0.16323207,0.19757979,-0.09483521,-0.04055398,-0.10316412,0.66813993,-0.10023536,-0.17278607,0.06176243,-0.19307622,-0.07579355,0.060032856,0.15683195,0.20563546,0.08079958,-0.07104576,-0.13594565,0.15965077,0.1422569,0.23589227,0.3651318,-0.10595342,-0.047143064,0.107661664,0.49260974,-0.06985457,-0.1033481,0.046798848,0.4323452,-0.122008644,0.37987345,0.2006541,-0.11450024,0.0160006,0.29468733,0.9460138,1.0316699,0.07736801,-0.113088235,-0.02783749,-0.28856808,-0.11514415,-0.16678998,-0.35918838,-0.08032244,-0.37597156,-0.8562254,-0.03252886,-0.22319007,-0.25242645,0.0878736,0.0038343086,0.5395142,-0.076556005,-0.017458256,0.12609309,0.14048722,0.20493457,-0.27475825,0.089325726,0.20658016,-0.23067638,0.12966686,0.15058175,0.022553286,-0.6338528,0.1039988,0.01734507,0.073558584,0.24916983,-0.14857668,-0.36447838,-0.047238316,0.34752384,-0.15435115,0.24332364,-0.026635688,-0.32034862,0.063850924,-0.01854962,0.1335282,-0.4111863,0.016240653,-0.015404408,-0.13478658,1.3179246,-0.102494076,0.040304087,0.14784773,-0.2233314,-0.014328798,-0.34648925,0.011133459,0.12859105,-0.048902318,0.14415136,0.5938455,0.044362262,-0.11593883,0.16609718,0.038115643,0.0258332,-0.42500845,0.16665995,-0.2874401,0.08320988,-0.16232136,-0.123450615,0.0558488,0.016446412,0.16019256,-0.1863269,-0.282445,0.19372237,-0.008655903,0.05723114,0.30925465,-0.146494,0.65613115,-0.010152379,-0.15326884,0.2486633,0.08823502,0.0046943184,0.094990045,-0.40173393,0.26346874,0.3270666,-0.2766406,-0.09118938,-0.300007,-0.10007938,-0.33506703,0.0235058,0.16905192,-0.084648795,-0.16679457,-0.3195414,-0.2584237,0.03368678,0.047000624,-0.0063972264,0.034587204,0.04869904,-0.17970438,-0.0451883,0.20346606,-0.23532839,0.18165466,-0.5882471,-0.26479295,0.57027924,0.06655346,-0.1525903,-0.6992334,0.5115552,-0.111959,0.17461438,-0.23755832,0.51901203,-0.55424196,-0.07322454,0.6058849,-0.050345086,0.0034924336,-0.06664092,-0.78711635,0.26934218,-0.30611417,-0.0029699036,-0.2004135,0.2067078,-0.066439934,-0.10773907,0.344148,-0.005701722,-0.08464058,-0.5031837,0.025371179,-0.055732988,0.16660103,0.9553741,0.42352057,0.05584855,-0.1274352,-0.20096366,0.10923135,0.25449565,0.001564734,1.0173684,0.34877843,-0.23123017,-0.5210444,-0.02174542,-0.08679063,0.32529283,-0.14462918,0.26497132,0.043033488,0.025916416,0.2427648,-0.06809403,-0.26484364,0.117439106,-0.41768402,-0.14218198,-0.4240672,0.05771138,0.13432102,0.0057176324,0.30346742,-1.4532788,0.33366182,-0.26696208,0.57152647,0.07488267,-0.04199472,-0.08536436,0.30166134,0.043163907,-0.071560815,0.05892693,0.33723202,0.025598466,-0.42210847,-0.07823247,0.021369096,0.013623958,0.23694535,0.17913644,0.07727222,0.20720765,-0.47207317,-0.04916678,-0.07691907,0.5065715,-0.121930435,0.9738191,-0.20536181,-0.29366332,-0.067494,0.15019146,0.2580657,-0.13065307,-0.0528393,-0.15475921,0.1277999,0.018880118,0.4214317,-0.27733183,0.14565729,0.087112434,-0.062581226,0.06085671,0.22150986,-0.1305507,-0.00183812,-0.09302805,-0.045203038,0.36006257,-0.09247651,0.054038923,0.16376019,-0.36738864,-0.13798925,0.023506507,0.19757697,0.0171448,0.10899675,0.21419244,-0.09213606,0.024016418,0.1410021,0.6840045,0.31131354,0.0041718557,-0.15338376,0.12188993,0.13700913,-1.315364,0.52819157,0.13416389,0.2106413,-0.11010055,0.17304203,0.5451266,0.09296453,0.3665927,0.00698101,-0.12644069,-0.1414974,-1.0883377,0.09631912,-0.08791001,-0.17348525,0.38161546,-0.37829778,0.17858052,0.06929599,0.36135802,0.024343934,-0.0106865745,-0.125987,1.0351378,-0.13001665,0.8673814,-0.11114888,-0.16219258,0.1453719,-0.3338779,-0.15861817,0.01965492,0.044884782,0.068388864,-0.0506696,-0.06606196,-0.37047687,-0.28617916,0.036411785,0.15472445,0.37876478,0.016079808,0.05100716,0.27060294,-0.047968186,0.4272286,0.081053615,0.16632387,0.23049803,1.0235275,0.019219305,-0.1437507,-0.06233694,0.45263106,-0.10925808,-0.34738,-0.2037806,0.21676116,0.47861534,-0.011878969,-0.15851046,0.116225146,-0.016807823,-0.17482445,-0.21667972,0.6627528,0.037996866,0.013108432,-0.21504132,-0.008142475,1.025717,-0.093866035,-0.53145725,-0.41720304,-0.05017377,-0.36570984,-0.23347819,-0.28814363,-0.010859234,0.07359409,-0.07062282,0.13773794,-0.1300973,-0.13998678,0.084617615,0.11987283,0.06615273,-0.13899282,0.5462553,0.015179646,0.31106076,-0.2632021,-0.12290853,-0.6976821,0.048780907,0.037384104,-0.13107735,-0.5223493,-0.23640499,0.1624104,0.26496968,-0.041085746,-0.3140809,0.49208894,-0.00056622864,0.18213168,-0.42304212,-0.13000357,0.12218225,-0.012035238,0.15788528,-0.07329979,-0.17762499,-0.118511304,0.0837888,0.043840144,-1.0563791,0.09029441,-0.20744236,0.25209466,0.37565064,0.21629927,0.73795426,-0.098212674,0.02521441,0.00092250697,-0.05536558,0.765721,0.12986323,-0.3431669,0.10682031,0.23527956,0.14338829,0.26843935,13.840861,-0.16454206,0.5436676,0.37346017,-0.014952347,0.12751445,-0.4980932,-0.23099539,0.038407736,-0.070906095,-0.03423705,-0.10490739,-0.028312728,-0.16692162,0.49782467,-0.29244956,-0.08019602,-0.11940203,-0.013757801,0.1444756,-0.059217162,0.20409198,0.4685197,-0.30931252,0.10421976,0.2780419,0.09878673,0.25128317,0.05650729,-0.19203213,-0.09890457,0.388527,-0.030457143,-0.032272346,0.092135884,0.5464736,0.18064141,-0.10895236,-0.02886406,-0.5743415,0.13662648,-0.07694623,0.22145572,-0.0780257,0.06665619,0.23945609,-0.40593395,0.2886048,0.2260879,-0.42724314,0.014816461,0.501777,0.22521153,-0.13064894,0.16163221,-0.2583336,-0.3003783,-0.0047075613,-0.55405325,0.12469661,0.13976891,-0.0088830795,0.006323556,-0.76047176,-0.00045087785,-0.032054555,-0.07563759,0.006351877,-0.015212919,0.30077463,1.0127928,0.63252234,-0.036271106,-0.12081943,-0.2595016,0.110751465,-0.0016774416,-0.034028985,0.04722098,-0.52997375,0.09966327,0.051917214,-0.10522833,-0.26692387,-0.41545177,0.15797536,-0.19555947,0.12976241,0.9835433,0.008023982,-0.26002568,-0.152386,-0.71132,-0.120393,0.24290366,-0.3312898,-0.747115,0.05478562,0.03908841,0.07449414,-0.26234877,0.10579912,-0.1632202,0.23539624,-0.15297934,-0.38062793,0.1472192,-0.0630936,0.028244924,0.06437733,-0.1163453,-0.28903544,-0.19166255,-0.14502099,1.1171526,-0.022984002,0.06988403,-0.14790897,0.15615714,0.148956,-0.10804796,0.57780874,-0.26812857,-0.09855644,0.13693884,-0.0018225058,0.13535543,0.036908966,-0.07723229,0.25070283,-0.22914729,0.049775876,0.11876653,1.341567,0.05971224,0.04027757,-0.56707585,-0.013125172,0.27303332,-0.11873857,-0.33197007,-0.016548416,0.17486753,-0.108283356,-0.6406292,-0.12686127,0.5120296,-0.049153958,-0.15032238,0.022283286,8.4820356e-05,0.12038527,-0.13547714,-0.18649054,-0.05881228,0.08896104,0.06668855,0.93146145,0.2149311,0.04747306,0.39966866,-0.80175227,0.010768449,-0.4033789,-0.07832007,0.105742075,0.29390985,0.046690874,0.297648,0.03641493,0.048987523,-0.020417381,-0.25336215,0.2137653,-0.030649882,-0.009244916,0.51111805,-0.6022587,-0.06365846,0.19146587
com.rafsan.inventory.controller.pos.PosController;-1;0.015571256,0.32596523,0.0052294536,0.012669943,0.03980043,-0.080247656,0.11266965,0.31072292,0.23511295,-0.033850588,0.31192335,0.21452351,-0.003214925,0.21331653,0.06165544,0.013618345,0.20184585,0.26510376,-0.1508626,0.10055246,0.101412416,-0.019871442,0.014719255,-0.16804105,0.22246742,-0.09943662,0.16630347,-0.005290668,0.18414244,0.27240863,0.20177166,-0.09340121,1.0698979,-0.20790152,-0.03888891,-0.351621,0.177746,0.08224138,-0.058552932,0.03517601,-0.25807303,-0.082756504,-0.5278154,0.21753645,0.06582664,-0.16198567,0.25901315,0.14717494,-0.17000823,0.028570596,0.0787286,0.18423985,-0.51007044,-0.04125963,0.057946593,0.17203686,-0.7296492,0.22420065,0.010930114,0.06984844,-0.23460631,0.21185629,0.06575939,0.16525014,0.87695724,0.059180073,0.20052414,0.5352874,-0.35397154,0.07729698,0.08129532,-0.069065236,-0.038260974,-0.23551719,-0.30097622,-0.04005725,0.24038847,-0.41269675,0.13982286,0.046471428,0.31976464,-0.004383578,0.38314432,0.48966345,0.069106005,0.1610434,0.08264968,0.049560726,-0.5166452,-0.028003942,0.116841055,0.16368301,0.29768127,0.14494398,0.11436458,0.26367825,0.15542746,-0.4220081,0.14958917,0.2125293,-0.12528555,-0.1386238,0.22890325,0.175397,-0.0011621247,-0.091389924,0.3127047,0.23367873,0.23655693,-0.1515425,-0.06421107,-0.20951727,0.0272494,0.03859278,0.12902722,0.07434071,0.026049346,0.30108768,-0.16111308,0.09226604,-0.21354179,0.28654847,-0.14421776,0.42080775,0.031705797,0.1666086,-0.35888654,-0.27789488,-0.053745754,-0.014043686,-0.60175794,-0.8936083,-0.10958692,-0.0629607,0.21710801,0.10782673,-0.0046491935,0.26744276,0.033183627,-0.17900902,-0.37031668,0.10152167,-0.13640621,0.16153914,-0.1413056,-0.09269089,-0.072985694,-0.041467138,-0.049587037,-0.50021344,-0.21381378,-0.030881261,0.74448,-0.06232356,0.04352221,-0.6510462,0.28441888,-0.193367,0.18471886,-0.30244464,0.033918314,-0.12655073,0.31372398,0.2421782,-0.007870147,0.1382455,-0.07618897,-0.14165822,0.020660754,-0.012068979,-0.102927744,-0.016471783,-0.59317166,0.12927409,-0.16378286,0.19781657,-0.09496624,-0.04098689,-0.10361407,0.66870064,-0.10043208,-0.1725059,0.061590027,-0.19329771,-0.075875886,0.059669495,0.15584384,0.20525911,0.08120532,-0.07105952,-0.13615608,0.15967967,0.14258543,0.2354476,0.36468858,-0.10598258,-0.047403444,0.107718885,0.49266624,-0.070050746,-0.10213915,0.04665469,0.43203768,-0.122203805,0.3788913,0.20104066,-0.11375354,0.016264912,0.29501352,0.9464594,1.0322187,0.077383965,-0.11224444,-0.027965408,-0.28837577,-0.11567293,-0.16673324,-0.35886022,-0.079542205,-0.37614727,-0.85581857,-0.0324209,-0.22315422,-0.25277373,0.087927334,0.004068601,0.5396687,-0.076873906,-0.017857615,0.12613162,0.14030074,0.20467243,-0.27353656,0.088780835,0.2064273,-0.23113115,0.1298673,0.15094787,0.022264168,-0.6333658,0.10451396,0.01733699,0.07441027,0.24934044,-0.14838214,-0.36493838,-0.047480784,0.34854257,-0.15372911,0.24363415,-0.026014572,-0.32015723,0.06381738,-0.018539803,0.13356659,-0.41128144,0.016207634,-0.015447466,-0.13491489,1.318984,-0.102838896,0.040433742,0.14820527,-0.22424288,-0.014115323,-0.34709874,0.011560189,0.12874894,-0.048687067,0.14442566,0.5936617,0.044277806,-0.11610917,0.16548231,0.038428854,0.025762862,-0.42459732,0.16658415,-0.28800666,0.08285655,-0.16184059,-0.12395505,0.055845827,0.016241591,0.16060355,-0.18642126,-0.28153393,0.19462952,-0.008778652,0.057065893,0.3091603,-0.14688969,0.6565396,-0.010144616,-0.15310791,0.24869666,0.08863954,0.0043856846,0.094447926,-0.40182295,0.26271147,0.32723135,-0.27654725,-0.091069445,-0.29985812,-0.10050154,-0.33508795,0.023875277,0.1693521,-0.08507402,-0.16697167,-0.32012102,-0.2584192,0.033654395,0.046751793,-0.006641928,0.035379585,0.048432697,-0.17964408,-0.04506215,0.20294781,-0.23538479,0.18204269,-0.58839846,-0.2642147,0.5708454,0.066272184,-0.15242808,-0.69921434,0.5115159,-0.11319852,0.17453882,-0.23776671,0.5203806,-0.55437773,-0.073409684,0.60649216,-0.050424427,0.0037579108,-0.067606226,-0.7870161,0.27021533,-0.30606696,-0.0032563563,-0.20045643,0.20661183,-0.06561077,-0.10779878,0.3444578,-0.0053493385,-0.08459183,-0.50317883,0.025706852,-0.055445485,0.16685247,0.95510274,0.4239758,0.05567647,-0.12767002,-0.1996369,0.10961471,0.25434178,0.0018865889,1.0186131,0.34919718,-0.2308762,-0.52153957,-0.021257775,-0.08710954,0.325349,-0.14380585,0.26460207,0.04291236,0.025902772,0.24237669,-0.06837298,-0.26485825,0.1171414,-0.41720986,-0.14168765,-0.42459688,0.057472367,0.13346565,0.005860942,0.3040198,-1.4542682,0.33344373,-0.26800504,0.571169,0.074472085,-0.041514765,-0.0861988,0.3011062,0.042652436,-0.07203436,0.058594514,0.3367447,0.02549234,-0.42154303,-0.07833871,0.021403838,0.013865821,0.2358903,0.17825112,0.07748213,0.20828974,-0.47251573,-0.049848862,-0.077319995,0.5069627,-0.12269206,0.9742853,-0.20493948,-0.29347366,-0.067242734,0.15055868,0.25779688,-0.13060519,-0.052228987,-0.15456323,0.1269519,0.018870959,0.4209791,-0.2776261,0.14606562,0.08688966,-0.06235739,0.06164185,0.2206715,-0.1307338,-0.0022600072,-0.09260227,-0.045747183,0.3603136,-0.09296431,0.05422031,0.16408691,-0.36751273,-0.13801919,0.023140216,0.19715428,0.01694631,0.10908119,0.21445398,-0.09200368,0.023563571,0.14068905,0.68477523,0.31173077,0.0043988707,-0.1528774,0.12188218,0.13789472,-1.313236,0.52747136,0.13394834,0.21061817,-0.11029367,0.17347269,0.5446549,0.0931022,0.36685446,0.007887059,-0.12685326,-0.14161502,-1.0875106,0.09652932,-0.08815129,-0.17362246,0.38111028,-0.37864393,0.178287,0.06948308,0.3610633,0.024696177,-0.010737127,-0.12583862,1.0353775,-0.1299921,0.8672368,-0.11131682,-0.16222498,0.14602864,-0.33370468,-0.15856168,0.020092592,0.044630267,0.06820479,-0.050139796,-0.06598219,-0.3706387,-0.28602695,0.03681289,0.15507628,0.37873405,0.015959453,0.0513631,0.2702648,-0.0477542,0.42752552,0.08032813,0.1666214,0.23068845,1.0239732,0.019358905,-0.14412004,-0.06265856,0.45331082,-0.1092149,-0.34767506,-0.2035748,0.21703954,0.4786384,-0.011820184,-0.15806976,0.11631447,-0.016028462,-0.17473628,-0.21654797,0.6628939,0.037782952,0.013505709,-0.2150323,-0.00835157,1.02613,-0.09358283,-0.5307771,-0.41759777,-0.049956296,-0.36632648,-0.23334448,-0.28869063,-0.011476431,0.07365208,-0.06991705,0.1374976,-0.13042386,-0.1400166,0.08463702,0.12069081,0.06618156,-0.13828984,0.5467033,0.015161255,0.31092495,-0.26368096,-0.122796595,-0.69869715,0.048691697,0.037233837,-0.13116392,-0.52291244,-0.23649296,0.16200832,0.2655353,-0.04169603,-0.31309038,0.49254233,-0.00091620424,0.18221764,-0.42299008,-0.1297598,0.12174964,-0.012473119,0.15755345,-0.0727779,-0.17821732,-0.11869979,0.083863325,0.043655787,-1.0579689,0.09034566,-0.20754817,0.25210625,0.37511617,0.21632142,0.7381805,-0.09812758,0.025293922,0.0010891899,-0.055947058,0.7666098,0.12956777,-0.34359628,0.10682406,0.23474868,0.14322393,0.26820344,13.839862,-0.16502543,0.5437611,0.37401992,-0.014914205,0.1276363,-0.49831575,-0.23093037,0.038677372,-0.071040735,-0.034014434,-0.10528587,-0.028302213,-0.16708454,0.49701777,-0.29247922,-0.080576584,-0.119913794,-0.01355076,0.14446148,-0.059639953,0.20408317,0.4685696,-0.30930933,0.10442579,0.27800006,0.098951384,0.25169,0.055928864,-0.19299631,-0.09897507,0.38879743,-0.030163523,-0.032842826,0.09279846,0.54723644,0.18062584,-0.10842611,-0.028683817,-0.5744109,0.13660243,-0.077367455,0.22127323,-0.0782146,0.06672467,0.23888096,-0.40703693,0.28872377,0.2257338,-0.426861,0.015057841,0.5019708,0.22489455,-0.13001424,0.1615954,-0.25778526,-0.300816,-0.0049278783,-0.55418575,0.12511072,0.13958457,-0.008825647,0.006289518,-0.76053804,-3.718841e-05,-0.03179661,-0.07574178,0.0067553944,-0.015029189,0.30071706,1.0130482,0.63367045,-0.036683887,-0.12091641,-0.25879106,0.11116751,-0.0015881446,-0.034206275,0.047403764,-0.53040636,0.100044586,0.052348413,-0.105368495,-0.26689616,-0.41508788,0.15844628,-0.19598863,0.12915656,0.98407745,0.008042124,-0.26081198,-0.15204017,-0.7114808,-0.11983117,0.2429333,-0.3315286,-0.74727964,0.054519616,0.038644392,0.074277855,-0.26214817,0.10533713,-0.16250958,0.23499253,-0.15283135,-0.38034603,0.14707588,-0.06410824,0.029047852,0.06452422,-0.11590421,-0.28801316,-0.19159439,-0.14570154,1.1179289,-0.023039714,0.06989688,-0.14799914,0.1562176,0.14933498,-0.10749266,0.577805,-0.26826066,-0.09855211,0.13735498,-0.001487376,0.13534293,0.0377253,-0.07668863,0.25044042,-0.22779584,0.04948521,0.11889174,1.3416917,0.059918903,0.040625554,-0.56765175,-0.012924942,0.27303165,-0.119602285,-0.33147067,-0.016532356,0.1749704,-0.10833416,-0.6406319,-0.12708738,0.51243395,-0.049334127,-0.15030041,0.022091735,-0.0002705738,0.12022953,-0.13467968,-0.18559623,-0.058742404,0.08866775,0.06663897,0.9321249,0.21511886,0.04703614,0.39954466,-0.8028051,0.010698369,-0.40275806,-0.0783471,0.105292335,0.29394275,0.04645065,0.29778713,0.035817686,0.04971536,-0.020621648,-0.25287846,0.2138726,-0.030045262,-0.009226639,0.5103344,-0.60270226,-0.06341321,0.19171241
