net.jforum.actions.extensions.TopicWatchExtension;-1;0.01819941,0.32774293,0.0032782415,0.018988946,0.041057635,-0.087066755,0.11357981,0.31171834,0.24331594,-0.028928695,0.31170756,0.21400347,-0.0041309264,0.20965424,0.06380094,0.018853122,0.20924366,0.27489054,-0.15512519,0.10487424,0.10096285,-0.027903311,0.019762795,-0.1655485,0.22281188,-0.09712142,0.16399911,-0.009537492,0.17901626,0.2801084,0.20563248,-0.1005265,1.0666442,-0.20606941,-0.042660397,-0.3503025,0.17837876,0.07984741,-0.0528934,0.030580975,-0.26377308,-0.08492093,-0.5267336,0.2170406,0.06794555,-0.15558866,0.2571097,0.14260876,-0.17310151,0.02353381,0.07737515,0.1852073,-0.51202154,-0.044775102,0.058499977,0.17047684,-0.7292987,0.2293675,0.017903106,0.06458479,-0.23707196,0.21196377,0.07381178,0.16331092,0.88026047,0.05964784,0.19778311,0.5346101,-0.34907234,0.08032149,0.07592482,-0.07573891,-0.040740013,-0.22330433,-0.30493194,-0.04123056,0.24067697,-0.41232038,0.14116615,0.05000581,0.3214935,-0.010048265,0.38310724,0.48832986,0.071866296,0.16104263,0.08562185,0.05313541,-0.5142941,-0.035312053,0.11769596,0.16894463,0.29256296,0.14587113,0.113043174,0.27063373,0.14809199,-0.42440045,0.14186975,0.21529523,-0.12825112,-0.13379446,0.22733116,0.1759349,-0.0032787968,-0.0898598,0.31213945,0.23661424,0.24411917,-0.14760236,-0.061941847,-0.21072671,0.02704228,0.036107868,0.13267997,0.07088983,0.023659097,0.30771083,-0.16240498,0.097929105,-0.22035275,0.2816459,-0.14870772,0.42106152,0.034892924,0.1727041,-0.36751425,-0.279774,-0.05322811,-0.01446712,-0.6107516,-0.8947099,-0.115686476,-0.05772377,0.22063908,0.10606416,-0.009419642,0.2701421,0.033755057,-0.17928219,-0.36796165,0.09558864,-0.13902305,0.15762687,-0.14190914,-0.0913804,-0.07287498,-0.039317675,-0.054139093,-0.5019361,-0.21260303,-0.0332115,0.7511064,-0.06574564,0.05339682,-0.6463802,0.28780067,-0.18908113,0.18626627,-0.29928124,0.031397015,-0.12801509,0.3157184,0.24845907,-0.0030401952,0.1362195,-0.07257648,-0.1428481,0.022174133,-0.008455877,-0.11091149,-0.015510899,-0.59546006,0.13367581,-0.16404463,0.19537047,-0.09879919,-0.04016596,-0.102781795,0.6715912,-0.096282706,-0.17398313,0.05774001,-0.19958124,-0.079654634,0.06332967,0.16010198,0.21731804,0.079091266,-0.065656595,-0.13707508,0.16165754,0.13668826,0.22871834,0.36440414,-0.1080067,-0.04583133,0.11084459,0.4856614,-0.06259698,-0.10778735,0.045963947,0.43827415,-0.11891538,0.39143148,0.20591716,-0.11371991,0.012247069,0.2940004,0.9395982,1.029635,0.08518575,-0.1167128,-0.033727776,-0.28762278,-0.11040788,-0.16480878,-0.35635465,-0.08674061,-0.37482822,-0.8620489,-0.03436452,-0.22494084,-0.2518465,0.0891826,-0.002242237,0.54328144,-0.076743096,-0.014050364,0.13282806,0.13803461,0.20767677,-0.28027713,0.099164315,0.21024014,-0.22792043,0.12836035,0.14633203,0.024884269,-0.6309888,0.10775119,0.015548567,0.076379016,0.24793664,-0.14924327,-0.36500353,-0.048016,0.34103823,-0.14939508,0.2517522,-0.03168042,-0.3245889,0.061506744,-0.020063203,0.13205555,-0.4126668,0.018436592,-0.013353679,-0.12904984,1.3099041,-0.09823243,0.03874028,0.14850073,-0.21979746,-0.021391734,-0.3372689,0.012953296,0.12575158,-0.051062938,0.13965356,0.5944681,0.045603663,-0.11536878,0.16691056,0.041589007,0.027247306,-0.42221072,0.16305965,-0.28406265,0.083121,-0.16940328,-0.12449029,0.05871021,0.017009573,0.1661736,-0.19125004,-0.28450972,0.19163498,-0.0036127332,0.05588322,0.31318352,-0.1482266,0.65349096,-0.007891101,-0.15253353,0.24665913,0.08291794,0.005424282,0.099445924,-0.40214303,0.2615955,0.3295589,-0.27491152,-0.091666736,-0.2994212,-0.107513055,-0.32602096,0.02045785,0.17175221,-0.08341486,-0.16961513,-0.31702033,-0.26187003,0.040273875,0.045143433,-0.010290234,0.036005132,0.051515646,-0.17831089,-0.044723123,0.19964758,-0.2339138,0.18382758,-0.57814467,-0.26779842,0.5654622,0.064885184,-0.15371692,-0.7033963,0.5179659,-0.10517207,0.18413761,-0.23596108,0.5181271,-0.5565438,-0.06546312,0.6057664,-0.053768888,0.009071159,-0.06510146,-0.78895533,0.26436752,-0.3054189,-0.004325563,-0.19840711,0.20412692,-0.068912625,-0.110082835,0.34466082,-0.007866148,-0.09286368,-0.5027715,0.027307637,-0.06120391,0.16958702,0.9592066,0.42624313,0.050994903,-0.12872577,-0.19658971,0.09950196,0.2588122,0.00095878314,1.0233777,0.3459506,-0.22722442,-0.5216588,-0.019202467,-0.082836226,0.32449993,-0.15029109,0.26684263,0.046400473,0.028375503,0.2482443,-0.07170488,-0.2578715,0.11220175,-0.42088872,-0.14983135,-0.42137215,0.057649877,0.14171237,0.0059881248,0.3117606,-1.4477873,0.335958,-0.2652732,0.5714778,0.07386157,-0.04964815,-0.085495815,0.30741692,0.036315024,-0.07123847,0.06261453,0.33601138,0.036439423,-0.42199785,-0.08224886,0.01930838,0.013538607,0.24054858,0.17441452,0.075004116,0.21161474,-0.46578175,-0.054276835,-0.08003065,0.5084833,-0.11766972,0.9726922,-0.20356646,-0.29469395,-0.065678306,0.14652693,0.25864482,-0.13933557,-0.052825667,-0.16246295,0.13558033,0.017900147,0.4263488,-0.2741801,0.15169522,0.085165165,-0.06288655,0.057787903,0.22512174,-0.12367059,-0.0052138856,-0.09392306,-0.040990442,0.3617558,-0.08831714,0.047214437,0.16135365,-0.3739655,-0.14054382,0.027238518,0.20243976,0.02283225,0.118524075,0.20767465,-0.090359375,0.021772372,0.13661954,0.68204844,0.3089384,0.0065714503,-0.15425543,0.11843531,0.1312879,-1.3037195,0.5307745,0.14310461,0.20797576,-0.114304915,0.17188552,0.54686093,0.09073046,0.36269426,0.006262628,-0.12928534,-0.14291081,-1.0957527,0.096099034,-0.08890414,-0.17330042,0.38578928,-0.37698507,0.17894222,0.06696409,0.3565117,0.021058302,-0.012596369,-0.12611333,1.0349987,-0.12794934,0.87403595,-0.11105887,-0.16508597,0.13841687,-0.33966017,-0.16300526,0.016998501,0.05010017,0.07400571,-0.0514346,-0.0648156,-0.37307888,-0.28146872,0.034647357,0.15379563,0.37813613,0.01691949,0.051931396,0.26896045,-0.050067794,0.42843115,0.082574025,0.16360518,0.23145092,1.0251782,0.022069532,-0.14805947,-0.061572857,0.44664326,-0.10646324,-0.3507944,-0.20301592,0.21442246,0.48223147,-0.013802271,-0.15725306,0.11557028,-0.02052486,-0.17544985,-0.21279705,0.66444665,0.03567113,0.0197045,-0.21744864,-0.011262177,1.0254304,-0.09293425,-0.53824615,-0.41542745,-0.04791043,-0.36741346,-0.2293135,-0.29160196,-0.005523102,0.07242687,-0.07637176,0.13890284,-0.12979907,-0.14329304,0.09298895,0.11878313,0.063026786,-0.13821015,0.5464833,0.019461233,0.31959242,-0.25822306,-0.12590271,-0.6964457,0.04754635,0.03476139,-0.12625569,-0.52139735,-0.24485505,0.16304871,0.26155606,-0.039232835,-0.31982335,0.49733955,-0.0014824622,0.18323177,-0.42665353,-0.12935472,0.1200649,-0.010427297,0.16458377,-0.07355416,-0.17904866,-0.11218031,0.08331081,0.04584948,-1.0635347,0.09102461,-0.20066015,0.2492798,0.38535023,0.21770738,0.73890793,-0.09974382,0.036939938,0.00022744061,-0.051682003,0.7615515,0.13033599,-0.3407479,0.10471405,0.24634303,0.14033473,0.27279818,13.862592,-0.16557193,0.5426896,0.37278444,-0.012144303,0.12486257,-0.4991485,-0.22830969,0.032560248,-0.07399452,-0.037093546,-0.10313813,-0.026865512,-0.16780634,0.50216705,-0.28856596,-0.08153401,-0.115669966,-0.015899403,0.14701109,-0.06404063,0.20444031,0.46736783,-0.30550176,0.09713553,0.2713908,0.103825055,0.244461,0.060430698,-0.18791068,-0.09200312,0.3907218,-0.033092637,-0.034154676,0.08977156,0.5453663,0.17950433,-0.1096548,-0.025760286,-0.5819291,0.13452256,-0.08329567,0.22479913,-0.07928239,0.068945095,0.23763244,-0.40576828,0.2898711,0.22541429,-0.43163246,0.015283816,0.50512123,0.22388412,-0.13238855,0.1648737,-0.2622398,-0.30043972,-0.004342011,-0.5544148,0.112427235,0.13909689,-0.010791957,-0.004037994,-0.7590118,0.0010726715,-0.035153028,-0.07366331,0.003148655,-0.011667143,0.29814374,1.0135303,0.62769544,-0.037637137,-0.117677696,-0.26088327,0.10502714,-0.011461027,-0.03687051,0.04327567,-0.5210494,0.10586833,0.050387792,-0.10732878,-0.27000064,-0.41142663,0.15508136,-0.19403666,0.13288184,0.97807485,0.009840956,-0.25290406,-0.1533857,-0.7084966,-0.1238007,0.24598655,-0.33403546,-0.7498996,0.05857046,0.03874714,0.078576766,-0.26658547,0.10817629,-0.16328526,0.23981282,-0.15782048,-0.3811679,0.14903568,-0.063886955,0.032659285,0.059304498,-0.120602325,-0.2912022,-0.18871897,-0.14847232,1.118803,-0.030582167,0.0715078,-0.15061657,0.15451846,0.14835325,-0.10987209,0.5835915,-0.27394742,-0.10259483,0.13393487,-0.0013713265,0.1413341,0.031902626,-0.07686648,0.25197878,-0.23128161,0.047368266,0.11761215,1.3401399,0.054110676,0.043054145,-0.5651299,-0.018440638,0.27210116,-0.12164181,-0.32993487,-0.020609027,0.1774697,-0.10293353,-0.6404809,-0.11968771,0.5127604,-0.04982447,-0.14414346,0.01877952,-0.002532986,0.12128456,-0.13949594,-0.18525842,-0.051261805,0.08352754,0.06774579,0.9264332,0.21918795,0.05086188,0.40222704,-0.7971202,0.01360168,-0.40815455,-0.07410864,0.10644021,0.29793918,0.04543595,0.29726765,0.04037018,0.047367334,-0.021103231,-0.2652579,0.21355739,-0.03264583,-0.007905368,0.5138686,-0.5943341,-0.06767233,0.19403884
net.jforum.actions.helpers.Actions;-1;0.01793306,0.32834595,0.003382592,0.019217772,0.0403719,-0.08607022,0.11297757,0.31230816,0.2424723,-0.029315913,0.3117761,0.21277015,-0.0047519915,0.20775262,0.064144626,0.01846937,0.20982252,0.27484164,-0.1534245,0.10653333,0.10048783,-0.026789377,0.021656914,-0.16621117,0.222741,-0.09854086,0.16525239,-0.007853391,0.17983806,0.2806839,0.20545071,-0.10117205,1.0675437,-0.2061967,-0.04196928,-0.3503643,0.17743668,0.079724245,-0.0524799,0.031270526,-0.26347816,-0.08502719,-0.5267442,0.21671765,0.06835922,-0.15616491,0.2578943,0.14362516,-0.17247835,0.023682201,0.07684642,0.18511856,-0.5115114,-0.045147758,0.05849219,0.17091392,-0.72846574,0.22975391,0.01708621,0.06492408,-0.23730575,0.21256623,0.07260551,0.16148302,0.8804924,0.058941457,0.19763513,0.5357241,-0.34999165,0.08075416,0.076239586,-0.07549957,-0.04098329,-0.22479421,-0.305749,-0.040444333,0.24031915,-0.4116286,0.1405627,0.048893984,0.32257766,-0.010877014,0.38426727,0.48909846,0.07261384,0.16032122,0.08449492,0.05392672,-0.51406515,-0.03553829,0.11850537,0.16820101,0.29254022,0.14528865,0.113473065,0.27018616,0.14936699,-0.42544103,0.14243355,0.21276693,-0.12714985,-0.13398987,0.22738627,0.17527802,-0.003574677,-0.089626014,0.3124472,0.23562108,0.24397029,-0.14755692,-0.061465394,-0.2124048,0.02737978,0.03646956,0.13382442,0.07183477,0.023755474,0.30740136,-0.1622095,0.09782668,-0.21988413,0.2809656,-0.14909635,0.42191967,0.032527007,0.17194365,-0.36776817,-0.2793835,-0.05436418,-0.01466659,-0.61102456,-0.8939863,-0.11508246,-0.057568505,0.22041562,0.105436616,-0.010215769,0.2708612,0.03371331,-0.1795921,-0.3674947,0.0959332,-0.13859777,0.15860124,-0.14268681,-0.091917485,-0.07316525,-0.039853815,-0.054752965,-0.50125223,-0.21477693,-0.03255577,0.7518901,-0.06583461,0.054811034,-0.6466788,0.28655237,-0.18946132,0.18622057,-0.30008015,0.031069746,-0.12786877,0.3157937,0.24709944,-0.0032643708,0.13669424,-0.07207995,-0.14358015,0.023254018,-0.008659006,-0.110064425,-0.015432408,-0.5953518,0.1330333,-0.16396348,0.19679728,-0.09820375,-0.040963065,-0.10281524,0.6720198,-0.09637448,-0.17457205,0.057972256,-0.19945106,-0.08004945,0.062827304,0.16036026,0.2160345,0.08140511,-0.06487431,-0.135476,0.16150026,0.13755105,0.22901154,0.3647581,-0.10723139,-0.046314444,0.11106215,0.48527122,-0.06396512,-0.108398765,0.047156308,0.4375502,-0.1189028,0.38997906,0.20695432,-0.11362445,0.011905951,0.2945825,0.94075346,1.0303015,0.08475717,-0.116032735,-0.03237144,-0.28819713,-0.11028776,-0.16451348,-0.35377562,-0.086390674,-0.37340984,-0.8620228,-0.033487786,-0.22436158,-0.25224635,0.090072446,-0.0014988979,0.5435413,-0.07634421,-0.013658972,0.13329959,0.13747735,0.2086744,-0.2800582,0.09943046,0.21007025,-0.22764248,0.12784089,0.14664623,0.02406074,-0.63204354,0.10742554,0.016550692,0.076230615,0.24751498,-0.14879984,-0.3660578,-0.049141303,0.3399485,-0.14899248,0.25193638,-0.0321966,-0.32412928,0.06113232,-0.0194424,0.1308401,-0.4125593,0.017897494,-0.013739997,-0.12898538,1.3104839,-0.09908135,0.039637502,0.14953388,-0.22058053,-0.020377403,-0.3388517,0.013060476,0.12624995,-0.050847903,0.1411171,0.5954404,0.046448316,-0.11526242,0.16653326,0.040828384,0.026804453,-0.42124036,0.16292779,-0.28518936,0.0834842,-0.16863397,-0.12541857,0.0595983,0.016667731,0.16512337,-0.19061193,-0.28340375,0.19206285,-0.0041139917,0.055890657,0.31205902,-0.14779647,0.65452915,-0.007823875,-0.15328321,0.24665281,0.08336776,0.0049366364,0.09901855,-0.40241668,0.26031703,0.329732,-0.27403697,-0.09092366,-0.29859862,-0.108304344,-0.32674906,0.021714533,0.17263313,-0.08353185,-0.16923718,-0.31577396,-0.2627849,0.040062696,0.047237564,-0.00996406,0.036657456,0.050400227,-0.17966227,-0.044797316,0.19843106,-0.23441249,0.18379965,-0.5776682,-0.26682514,0.56491137,0.06367653,-0.15370676,-0.70397013,0.51750946,-0.10667082,0.18537067,-0.23573002,0.51786935,-0.5577821,-0.06659477,0.6065139,-0.054287855,0.008498159,-0.06588008,-0.78859836,0.26493746,-0.30635297,-0.004275862,-0.19851905,0.20456462,-0.06858788,-0.11011512,0.34575397,-0.0069274413,-0.09308273,-0.5032112,0.028753296,-0.061756838,0.17073251,0.9593595,0.42616385,0.051725022,-0.12904786,-0.19760549,0.099424474,0.25902683,0.0017650697,1.0247319,0.34639522,-0.22864749,-0.52300256,-0.01904124,-0.0832192,0.32515162,-0.15080696,0.26789612,0.04597301,0.027816862,0.24849844,-0.07205396,-0.2583168,0.11265326,-0.41946438,-0.1494468,-0.4216308,0.056914724,0.1412037,0.005825973,0.3120635,-1.4481807,0.33647734,-0.26672888,0.5724022,0.07315585,-0.048325926,-0.08655748,0.30789262,0.037155904,-0.071596816,0.062265486,0.33537656,0.036023952,-0.42057467,-0.08221688,0.020007573,0.013248977,0.23939082,0.17337745,0.07649344,0.21051356,-0.46603808,-0.054753866,-0.080559626,0.5086894,-0.11842802,0.97330177,-0.20336062,-0.2953235,-0.06429896,0.1467761,0.25836438,-0.13945551,-0.0528329,-0.1622943,0.13459425,0.018112285,0.42704284,-0.2749338,0.15204056,0.085194565,-0.062704585,0.057546448,0.22516502,-0.12434389,-0.0049254587,-0.094129555,-0.042151783,0.36276665,-0.088681296,0.047279235,0.16054323,-0.3734315,-0.14127082,0.026503613,0.20158716,0.022613313,0.1169276,0.20908658,-0.0909453,0.02193675,0.13775706,0.681564,0.30916834,0.007034785,-0.1550329,0.118024975,0.1320017,-1.3037796,0.53000426,0.14356895,0.20852692,-0.11435095,0.17168078,0.54689914,0.09092785,0.36356458,0.0063824565,-0.12951882,-0.1435328,-1.0948745,0.096672624,-0.08888205,-0.17451325,0.38385257,-0.3776837,0.17884214,0.066517636,0.35562256,0.021426963,-0.012548383,-0.1262281,1.0353843,-0.12781054,0.87529,-0.112342045,-0.16462949,0.13954596,-0.33907634,-0.16142878,0.01754252,0.048553504,0.07366272,-0.05158251,-0.064680375,-0.37184545,-0.28097945,0.034589864,0.15407005,0.37812454,0.01705124,0.051793497,0.26814765,-0.0492789,0.42825764,0.08257545,0.16357493,0.2298587,1.0252489,0.022460893,-0.14851351,-0.061925787,0.4468613,-0.10667698,-0.35079214,-0.20271051,0.2153588,0.48256963,-0.013534287,-0.15763243,0.11503991,-0.019916963,-0.17552483,-0.2125551,0.665453,0.035986,0.020513082,-0.21758057,-0.010746711,1.0249344,-0.0941329,-0.5385522,-0.41599873,-0.04777975,-0.36637843,-0.22967973,-0.29182273,-0.0068732137,0.0723127,-0.07419769,0.13855734,-0.12873584,-0.14326032,0.09310376,0.119626515,0.06452276,-0.13755225,0.54656714,0.019802578,0.3193084,-0.25773895,-0.12573525,-0.6973682,0.047253326,0.034142327,-0.12615672,-0.5229165,-0.24347521,0.16231357,0.26108116,-0.039231863,-0.31941098,0.49739555,-0.0012504843,0.18318032,-0.42632362,-0.12947136,0.12066355,-0.010898415,0.16335598,-0.07348587,-0.17940372,-0.11263681,0.082638256,0.04585503,-1.0650425,0.09125429,-0.20126028,0.25019228,0.38306987,0.21749914,0.7395175,-0.09993311,0.03725398,0.0008420828,-0.051154774,0.7622359,0.128882,-0.3411934,0.10518783,0.24484259,0.13920084,0.27370214,13.857854,-0.1663729,0.54263026,0.3722233,-0.012371853,0.124441594,-0.50086206,-0.2295147,0.03321938,-0.0742975,-0.037354372,-0.10321461,-0.026546165,-0.16738638,0.50147504,-0.28861135,-0.082107455,-0.11600899,-0.016556706,0.14593764,-0.06436189,0.20400763,0.46830326,-0.305582,0.097659566,0.27205062,0.10284018,0.24450324,0.060268946,-0.18979757,-0.09230885,0.39250702,-0.03303103,-0.034157094,0.08960599,0.5471592,0.17906378,-0.111257724,-0.026692674,-0.58334696,0.13458678,-0.08351044,0.22597063,-0.07920878,0.06943129,0.23847683,-0.40509745,0.29046392,0.22548051,-0.4316009,0.014837995,0.5053734,0.22354372,-0.13342653,0.16575927,-0.26254013,-0.302042,-0.0038030443,-0.5546718,0.111341216,0.13955529,-0.011441502,-0.0032726708,-0.75945073,0.0026592496,-0.034751654,-0.074547514,0.004834025,-0.010882307,0.29846674,1.0147961,0.6283384,-0.03700099,-0.118571475,-0.26066858,0.105936095,-0.013213448,-0.03672917,0.04392959,-0.5224211,0.10542308,0.050420456,-0.10758808,-0.26936236,-0.41027537,0.156306,-0.19379105,0.13279957,0.97871137,0.010319831,-0.2525996,-0.15154581,-0.7094667,-0.12456612,0.24634801,-0.33424982,-0.7504008,0.05843898,0.039064206,0.07834492,-0.26624954,0.10737567,-0.1634088,0.23909464,-0.15810336,-0.38132012,0.14744245,-0.064246394,0.032627568,0.059384014,-0.12017667,-0.29217207,-0.18871021,-0.14921573,1.1189215,-0.030482065,0.07118164,-0.15074567,0.15521295,0.14785331,-0.109376304,0.58432025,-0.27376994,-0.10136459,0.13361047,-0.0017212494,0.14130083,0.032967042,-0.07617402,0.2515194,-0.2311603,0.046540435,0.11726067,1.3411722,0.054623332,0.04373678,-0.5664593,-0.017588628,0.2727416,-0.122126296,-0.3301916,-0.018372938,0.17831405,-0.10379273,-0.6398617,-0.120259784,0.5131058,-0.050404884,-0.14463323,0.02051163,-0.0019336833,0.12082192,-0.13832466,-0.18500711,-0.052826,0.08406115,0.06658728,0.9271895,0.21956411,0.05012891,0.40166783,-0.7991861,0.014221713,-0.4080704,-0.0741961,0.106701285,0.2981666,0.044669803,0.29684004,0.04023236,0.047783397,-0.02110708,-0.26546356,0.21415703,-0.032469004,-0.007700038,0.51384807,-0.59522825,-0.0670243,0.1942343
net.jforum.actions.helpers.ActionUtils;-1;0.017723933,0.32834104,0.0041592913,0.018879518,0.04059736,-0.086008966,0.112830676,0.3117133,0.24246216,-0.029976126,0.3119459,0.21330498,-0.0041484395,0.20921233,0.063643314,0.018138973,0.20914616,0.2741404,-0.1544662,0.10557555,0.10025478,-0.026636772,0.020773044,-0.16712436,0.22258294,-0.09863629,0.16553055,-0.006881288,0.17941433,0.2798929,0.20499924,-0.101013474,1.0682837,-0.20537904,-0.041760486,-0.35065714,0.1770543,0.079879396,-0.053554036,0.031855367,-0.2636158,-0.08498028,-0.5276788,0.21668626,0.06792936,-0.15666531,0.25742632,0.14268027,-0.1723373,0.02345567,0.076605864,0.18512107,-0.51215786,-0.044984564,0.05884127,0.17095102,-0.72930264,0.22850314,0.016776923,0.064840734,-0.23637523,0.21307068,0.07253516,0.16224879,0.88072073,0.05855583,0.19836271,0.5367989,-0.34963587,0.07998779,0.076978095,-0.07436156,-0.041078642,-0.22526635,-0.3051622,-0.04005044,0.24012546,-0.41090104,0.14037815,0.05016976,0.32139546,-0.010780602,0.38288215,0.48808897,0.07168925,0.16125286,0.084643975,0.052680645,-0.5142501,-0.03499942,0.117549956,0.16812812,0.29254845,0.14552133,0.11360838,0.2704067,0.14927554,-0.42464855,0.14305337,0.2125422,-0.12669836,-0.13543223,0.22684167,0.17452215,-0.0034145087,-0.08996215,0.3119347,0.23646647,0.24414745,-0.14788797,-0.061214473,-0.21128611,0.02728781,0.035958417,0.13389748,0.07123802,0.02455277,0.3062584,-0.1623001,0.09776477,-0.22001936,0.28225994,-0.1480571,0.4215252,0.033524226,0.17130148,-0.36685812,-0.27869147,-0.052706186,-0.014621356,-0.6110764,-0.894069,-0.11492288,-0.058228165,0.2204383,0.10558337,-0.01004161,0.26982817,0.034091968,-0.1792374,-0.3678766,0.09606798,-0.13856028,0.15849124,-0.1438299,-0.09229016,-0.07238014,-0.039383747,-0.053545613,-0.5016326,-0.21466422,-0.031690646,0.7513546,-0.06603547,0.053980984,-0.6474059,0.28618383,-0.18890758,0.18575874,-0.30049953,0.030829314,-0.1280424,0.31568888,0.2472006,-0.0040642214,0.13616823,-0.07280557,-0.14370307,0.022173442,-0.0076333513,-0.109999254,-0.0153228035,-0.59507805,0.13286525,-0.16464531,0.19678463,-0.09831282,-0.040850148,-0.10228359,0.67220056,-0.09700052,-0.17494223,0.05806897,-0.1997397,-0.07976699,0.0630237,0.15965839,0.21568318,0.08166261,-0.06481681,-0.13532175,0.16135544,0.13709192,0.22914736,0.36412212,-0.10689462,-0.046073657,0.11037151,0.4866342,-0.06348668,-0.1078705,0.0468144,0.4370659,-0.11872334,0.38937086,0.20658983,-0.11298437,0.012006729,0.29453567,0.94148606,1.0305552,0.08395137,-0.116058685,-0.033142626,-0.28820708,-0.11042878,-0.164566,-0.35459864,-0.08517765,-0.374512,-0.86205864,-0.033303086,-0.22397697,-0.25280106,0.0889216,-0.0012400191,0.5438588,-0.07682384,-0.013922442,0.13265026,0.13782382,0.20767064,-0.27972904,0.09842857,0.20982066,-0.2278455,0.12805125,0.14687353,0.023710083,-0.63205224,0.10702785,0.01565597,0.07636012,0.24768546,-0.14852329,-0.36568922,-0.048906077,0.34116322,-0.14844063,0.25118172,-0.032444935,-0.32367325,0.060785,-0.019909985,0.13141167,-0.41234198,0.017767562,-0.01338863,-0.12956981,1.3104659,-0.099175915,0.038805325,0.14899147,-0.22189699,-0.021064622,-0.33897057,0.012535825,0.12610418,-0.050543934,0.14144643,0.59599686,0.045411706,-0.1152405,0.16643305,0.040755287,0.025931025,-0.42176533,0.16286492,-0.28493965,0.083760016,-0.16758607,-0.12411777,0.059321832,0.016864972,0.16565305,-0.19001512,-0.2838256,0.19236496,-0.0046478915,0.055733465,0.31254596,-0.14793748,0.65487367,-0.007623942,-0.15402116,0.2470464,0.08368504,0.0050153323,0.0991274,-0.40229595,0.26022086,0.3297963,-0.27453765,-0.09094113,-0.29918456,-0.108112514,-0.32659903,0.021454696,0.17173305,-0.082782745,-0.16908993,-0.3164683,-0.2623469,0.039595712,0.04550434,-0.010397531,0.0366869,0.050084848,-0.17942238,-0.044952,0.19896841,-0.23352109,0.18435557,-0.57839113,-0.26651147,0.56522834,0.06421192,-0.15277398,-0.70412105,0.51737374,-0.10622945,0.18457259,-0.2354095,0.51975477,-0.55724597,-0.065509506,0.6063119,-0.053732067,0.007922636,-0.065986484,-0.7881429,0.26576012,-0.30522898,-0.0042407843,-0.19820502,0.20487426,-0.06848258,-0.10970637,0.34636405,-0.0064236615,-0.09267296,-0.50366527,0.028282564,-0.061327767,0.1709793,0.95920926,0.42651188,0.050538998,-0.12894154,-0.19779812,0.0992992,0.2578252,0.0018130621,1.0246762,0.34620753,-0.22830783,-0.52310264,-0.018684303,-0.08361605,0.3248223,-0.14940329,0.26748556,0.045147695,0.028214619,0.24870767,-0.07197749,-0.25825384,0.11309976,-0.41910693,-0.14852266,-0.422497,0.05709608,0.14043353,0.005964624,0.31105083,-1.4485201,0.33595487,-0.26730856,0.5714863,0.07308346,-0.047716312,-0.08588024,0.30777758,0.035841215,-0.07179258,0.06184528,0.33574492,0.034535374,-0.4207157,-0.0825002,0.021027284,0.014156807,0.23921816,0.17313689,0.07593105,0.21142553,-0.46709624,-0.054319948,-0.07984062,0.5083963,-0.118268155,0.9733088,-0.20413688,-0.29505324,-0.06449465,0.14669225,0.25806287,-0.1391148,-0.05235237,-0.16129553,0.13384359,0.018669913,0.4269337,-0.27460018,0.15275423,0.084062904,-0.06256778,0.058040988,0.22479239,-0.12454069,-0.0051807775,-0.0937448,-0.04212805,0.36182994,-0.08948336,0.047652088,0.1617729,-0.37338045,-0.14032675,0.02525742,0.20081078,0.021890214,0.11692532,0.20789237,-0.09100536,0.023096299,0.13695054,0.6824454,0.30926737,0.0067401654,-0.15377691,0.11867164,0.13126218,-1.3017966,0.53049546,0.14262398,0.20799866,-0.1140234,0.17159851,0.5466747,0.09131762,0.36262655,0.007407676,-0.12937152,-0.14339244,-1.0948468,0.096835904,-0.08899019,-0.17457503,0.38451734,-0.37913123,0.17877357,0.067220606,0.35524163,0.020935003,-0.012468865,-0.12604916,1.0351533,-0.12811172,0.87597257,-0.11179154,-0.16490221,0.13973323,-0.33935305,-0.16171682,0.017471338,0.047932547,0.07345107,-0.051005412,-0.06533426,-0.372234,-0.2814497,0.03527081,0.15374377,0.37814993,0.016847124,0.05225363,0.26837128,-0.048670366,0.42919433,0.082238466,0.16407295,0.23023528,1.0257152,0.022281738,-0.14857647,-0.061513614,0.4478989,-0.10610871,-0.349961,-0.20241246,0.21476169,0.482124,-0.013243561,-0.15682244,0.11565334,-0.019687006,-0.17535205,-0.21381307,0.66596514,0.03603831,0.01987496,-0.21682823,-0.010506665,1.0256073,-0.094217405,-0.5387651,-0.41607267,-0.048688293,-0.3662528,-0.22990099,-0.29043815,-0.006905067,0.072101526,-0.07439636,0.13849834,-0.1283605,-0.14308913,0.09314029,0.118603066,0.0637537,-0.13769138,0.54723895,0.019080974,0.3189915,-0.25759512,-0.12561306,-0.6970922,0.047232486,0.033376217,-0.12561294,-0.5226315,-0.24364938,0.16213986,0.26079124,-0.0392343,-0.31842372,0.49734163,-0.0018578344,0.18227263,-0.42620495,-0.12864386,0.120447464,-0.01135481,0.16337475,-0.073655844,-0.17911008,-0.113063276,0.08289021,0.045058616,-1.0644573,0.09117228,-0.2012141,0.2501341,0.3830021,0.21718185,0.73928183,-0.09985401,0.036298662,0.00045913077,-0.05104679,0.76212806,0.12934001,-0.34076768,0.105246425,0.2449691,0.13917005,0.2736999,13.856046,-0.16604427,0.54319125,0.37250262,-0.012490603,0.12494942,-0.5007302,-0.22962971,0.033073273,-0.07395051,-0.03682438,-0.1031839,-0.027548358,-0.16673362,0.501704,-0.2887351,-0.08138965,-0.11598878,-0.015526357,0.1456988,-0.06354575,0.20373936,0.46815583,-0.30633128,0.09742185,0.27274293,0.102204636,0.24427515,0.060264863,-0.18919817,-0.09134809,0.39244464,-0.033554997,-0.034939498,0.088886514,0.54822695,0.17980336,-0.11173025,-0.027388789,-0.58189785,0.13436827,-0.08304657,0.22592407,-0.0784832,0.06857337,0.23729302,-0.40571737,0.29016352,0.2252533,-0.43027264,0.015164962,0.5053269,0.22375412,-0.13269226,0.16483723,-0.26212183,-0.30278537,-0.0037392594,-0.5546139,0.11241378,0.13919815,-0.01082527,-0.0031130847,-0.7602168,0.0016784369,-0.034785427,-0.07514463,0.004351141,-0.0115054445,0.298014,1.0150492,0.6296494,-0.03691146,-0.11861115,-0.26056567,0.10571836,-0.013159205,-0.037240785,0.043476403,-0.52248263,0.10554603,0.050612222,-0.10726761,-0.26881883,-0.41090637,0.15612298,-0.19275211,0.13280065,0.9789659,0.00978403,-0.2527291,-0.15097465,-0.7097346,-0.12403898,0.24662755,-0.33391,-0.7508416,0.057399765,0.03847825,0.07853383,-0.26679218,0.10785878,-0.16233085,0.2386074,-0.1580573,-0.3814255,0.14761539,-0.06375358,0.03269555,0.05946979,-0.12020744,-0.29113546,-0.18836631,-0.14871171,1.1203328,-0.029522555,0.07078199,-0.14961155,0.15513931,0.14857277,-0.109223336,0.58452743,-0.27317777,-0.10173809,0.13419922,-0.0013446263,0.14126647,0.032224953,-0.075548805,0.2522034,-0.23037924,0.046821415,0.11759276,1.3406999,0.05493525,0.043828737,-0.5666433,-0.017327089,0.27267665,-0.121803604,-0.33006704,-0.019452097,0.17772268,-0.10396358,-0.6392448,-0.12070924,0.51285905,-0.049735136,-0.14400858,0.020046437,-0.0013017888,0.12111233,-0.13889547,-0.1844755,-0.05282058,0.08318718,0.06694326,0.92772883,0.21935864,0.05001185,0.402047,-0.79935795,0.013194459,-0.40739405,-0.07453485,0.10633608,0.29775307,0.044706132,0.29645142,0.040389456,0.04775886,-0.021101382,-0.26386136,0.2142408,-0.03273278,-0.007325288,0.5131534,-0.5952775,-0.06739259,0.19367173
net.jforum.actions.helpers.ApproveInfo;-1;0.01693702,0.3247278,0.0024458314,0.012909695,0.039961535,-0.084071375,0.11533625,0.3104206,0.23932183,-0.031368256,0.31276417,0.21294639,-0.0038617707,0.2128529,0.06364569,0.012998213,0.20263727,0.27035892,-0.14795202,0.10433509,0.10385782,-0.0249301,0.017163796,-0.16294076,0.22042923,-0.10213496,0.1637558,-0.0077788406,0.18314634,0.2738995,0.2082159,-0.09576646,1.0650377,-0.20677632,-0.044142187,-0.34986138,0.1795701,0.0808005,-0.058537275,0.029572282,-0.25562754,-0.08608021,-0.52470464,0.21888418,0.06631238,-0.15764792,0.2619645,0.14563745,-0.17125276,0.027880779,0.0784253,0.18345954,-0.51279163,-0.042192332,0.056160234,0.17035288,-0.72751045,0.22698829,0.01373078,0.0660986,-0.2387019,0.21138293,0.068134,0.17051814,0.8767342,0.061516486,0.19869874,0.53013134,-0.35515982,0.08149874,0.077576056,-0.07400482,-0.03558713,-0.23057884,-0.3023413,-0.040337473,0.2431578,-0.41255903,0.13875486,0.045477442,0.3215981,-0.0035112777,0.38452774,0.49112278,0.07026028,0.16247892,0.08617044,0.051898755,-0.5174561,-0.032151084,0.11944081,0.16365217,0.29591155,0.14730503,0.11477352,0.26708317,0.14996862,-0.42395625,0.14434741,0.21536107,-0.1262105,-0.13675742,0.2292375,0.17880866,-0.004436414,-0.090360686,0.31455886,0.23682378,0.2357126,-0.14844336,-0.06253301,-0.20608133,0.025902538,0.039979935,0.13130517,0.074480906,0.025896955,0.30732656,-0.16097386,0.09398926,-0.21191047,0.2840471,-0.14744796,0.42186108,0.032553162,0.1670274,-0.36553136,-0.2773281,-0.05496724,-0.014780549,-0.60230374,-0.8976986,-0.11488713,-0.06173013,0.22022982,0.10756499,-0.008581257,0.27161726,0.03371653,-0.18049654,-0.3719448,0.09638079,-0.13828301,0.16174838,-0.1392562,-0.09277202,-0.07295118,-0.041373156,-0.050554875,-0.50282496,-0.21080114,-0.03431424,0.74585277,-0.06261223,0.046796106,-0.64620817,0.29050705,-0.19586922,0.18549335,-0.29782528,0.038123704,-0.12549259,0.31634063,0.24571301,-0.008302049,0.13741861,-0.07470864,-0.14027208,0.021779718,-0.011795448,-0.10754529,-0.017086692,-0.5975899,0.12920886,-0.16149734,0.1956675,-0.09612614,-0.037458017,-0.10327571,0.6667069,-0.097329736,-0.16988036,0.0632219,-0.19330384,-0.07479123,0.060939055,0.162253,0.21139537,0.07663639,-0.07045252,-0.14028838,0.15922825,0.14013304,0.22861835,0.3664352,-0.108039886,-0.046642818,0.10884145,0.49165183,-0.065967806,-0.10080151,0.045862574,0.438858,-0.12511952,0.385972,0.20131433,-0.11717184,0.01621225,0.2952424,0.93866915,1.0288516,0.08624111,-0.11496122,-0.026367012,-0.28858995,-0.11280478,-0.16473797,-0.36169583,-0.08496333,-0.37736085,-0.8564363,-0.03446811,-0.224239,-0.24668914,0.09163568,0.0016313215,0.53854203,-0.07788194,-0.016597306,0.13021997,0.14249608,0.20233396,-0.27793327,0.09208726,0.208938,-0.23044842,0.12955806,0.15161367,0.02220005,-0.62908465,0.10728005,0.01745584,0.07607037,0.2471955,-0.1491587,-0.3639162,-0.050253224,0.3503708,-0.15179552,0.24595338,-0.02527454,-0.32595664,0.06352958,-0.021027269,0.13297604,-0.41386566,0.017823845,-0.015548482,-0.13507652,1.3137714,-0.102087624,0.038635388,0.15082076,-0.21772848,-0.015812999,-0.3406083,0.01436847,0.12736715,-0.05252926,0.1415523,0.58864486,0.04508116,-0.11685029,0.16627936,0.043422524,0.026735693,-0.42832932,0.16550691,-0.2854732,0.08353599,-0.16848835,-0.1252119,0.05716892,0.017775876,0.163442,-0.18930541,-0.28232947,0.1935802,-0.005990691,0.05728314,0.31345722,-0.14684096,0.6552454,-0.009302512,-0.14979963,0.24476565,0.08526249,0.0035626069,0.095808774,-0.40211466,0.2634505,0.33107722,-0.27411264,-0.09486644,-0.29976234,-0.101638675,-0.3359971,0.022103544,0.17065613,-0.08694028,-0.1691466,-0.31700847,-0.26079023,0.034416202,0.047890536,-0.0071283476,0.03134369,0.052313905,-0.17803164,-0.045366235,0.20126966,-0.23497325,0.18036164,-0.58456004,-0.26376638,0.57404613,0.06781682,-0.15416615,-0.6988633,0.5128148,-0.10609124,0.18088408,-0.24120007,0.5146438,-0.5533616,-0.06964161,0.60486394,-0.052724935,0.009936859,-0.06876127,-0.79052365,0.26686385,-0.3067435,-0.0039688624,-0.19959,0.20726079,-0.06400973,-0.11239869,0.34056455,-0.007173509,-0.08676699,-0.5019081,0.025203636,-0.058011208,0.1650077,0.952964,0.42517796,0.053460516,-0.12895618,-0.19606517,0.10658928,0.2598817,0.0019295787,1.0184783,0.34595034,-0.23053308,-0.51837057,-0.01940835,-0.08398367,0.3262637,-0.14600854,0.26591572,0.04734784,0.026067507,0.24371165,-0.06913461,-0.26508585,0.115000226,-0.42052177,-0.1459983,-0.42033267,0.056267913,0.1378957,0.0064623174,0.30889794,-1.448377,0.3376474,-0.26658967,0.5707629,0.07515863,-0.046946134,-0.08677038,0.30021638,0.042485587,-0.07181269,0.059836905,0.335846,0.030520307,-0.42237803,-0.077392384,0.016929919,0.014653319,0.23740757,0.1765658,0.07334602,0.20867756,-0.4694419,-0.04984881,-0.07444953,0.5066406,-0.121027656,0.9663906,-0.20424344,-0.2949374,-0.06773361,0.14833184,0.25731018,-0.13138203,-0.057078704,-0.15788513,0.13309915,0.01634179,0.4221485,-0.2772213,0.14599423,0.0850452,-0.06603504,0.059379343,0.22350264,-0.12878081,-0.0033732748,-0.090521686,-0.04076361,0.36059827,-0.09116095,0.05215453,0.1625645,-0.37234548,-0.13903032,0.029070804,0.20313102,0.020465406,0.11402287,0.2135641,-0.0939139,0.020959856,0.14369749,0.6819678,0.3112169,0.006080627,-0.15182744,0.12511483,0.13713524,-1.3141077,0.5298002,0.13539912,0.2116976,-0.10976086,0.17237553,0.5474578,0.09096645,0.3687969,0.0056959153,-0.12866929,-0.14174187,-1.0882428,0.09616452,-0.087878406,-0.17054872,0.38549814,-0.3728629,0.1806684,0.06720747,0.3608388,0.022387696,-0.011103201,-0.12259033,1.0338649,-0.12878406,0.8626831,-0.11202252,-0.16521035,0.14541546,-0.33502978,-0.16029428,0.018354334,0.048988048,0.07061987,-0.049735475,-0.060894534,-0.36826903,-0.28555697,0.034204766,0.1514499,0.37843296,0.014761719,0.051465057,0.26967612,-0.051652797,0.42741117,0.083073914,0.165113,0.23360863,1.0253992,0.01974306,-0.14653593,-0.061785907,0.4511313,-0.11082546,-0.3513235,-0.20530817,0.2145665,0.48128942,-0.01585463,-0.15947403,0.11475699,-0.01695685,-0.17417328,-0.21624567,0.6633381,0.03822383,0.015580234,-0.21490029,-0.011240753,1.0244006,-0.092436455,-0.531325,-0.4170997,-0.048076097,-0.36496106,-0.2262007,-0.29010963,-0.007674074,0.07492518,-0.075034745,0.13932475,-0.12980093,-0.14330745,0.08552293,0.120004214,0.06274178,-0.1358459,0.54721934,0.017079717,0.3195992,-0.2641505,-0.12659386,-0.69766796,0.050228905,0.04077791,-0.12911089,-0.52160996,-0.24141407,0.16252212,0.26405138,-0.041186225,-0.31710386,0.49478278,0.0003266028,0.18390661,-0.4258359,-0.12937105,0.1214574,-0.011584635,0.1594043,-0.07328522,-0.1804504,-0.11738627,0.0855798,0.044872813,-1.0594727,0.09091008,-0.2081085,0.24975479,0.38043532,0.21660365,0.7400621,-0.09960924,0.02737287,-0.00280764,-0.0565078,0.7645402,0.12874106,-0.34202474,0.10383048,0.23858736,0.14260179,0.2657291,13.864763,-0.16415244,0.54171574,0.37209326,-0.013737351,0.12638608,-0.4978869,-0.22758453,0.03685231,-0.073867716,-0.036907803,-0.10420707,-0.02746841,-0.16855127,0.49898323,-0.29329014,-0.081660576,-0.11789567,-0.015115483,0.14761882,-0.062958226,0.2051111,0.4646266,-0.30618453,0.103043936,0.2762113,0.10229425,0.2519073,0.057280626,-0.19255313,-0.09424015,0.3877854,-0.02807037,-0.030934649,0.09037942,0.54321116,0.18096939,-0.10727968,-0.026414225,-0.5799815,0.13660868,-0.07988387,0.22076,-0.08039177,0.06786513,0.23900825,-0.40593565,0.28863215,0.22744434,-0.43333125,0.014166897,0.5018842,0.22549962,-0.12768216,0.16288327,-0.26133746,-0.29481086,-0.003959486,-0.5546023,0.12350771,0.136031,-0.010286575,0.002103582,-0.75796884,-0.0018406274,-0.032426693,-0.06796423,0.0022280572,-0.015259341,0.30164254,1.0102918,0.62869817,-0.039648134,-0.12013335,-0.26309592,0.10960662,-0.0022445496,-0.033190534,0.044430338,-0.52787405,0.101368695,0.05356694,-0.10630563,-0.27315414,-0.4160042,0.15725295,-0.19698517,0.13132097,0.9814882,0.011832403,-0.25704077,-0.15455392,-0.7094028,-0.11999737,0.24179292,-0.3319176,-0.74575037,0.059070226,0.041864797,0.07454402,-0.2642669,0.10786753,-0.16370761,0.24023461,-0.15510911,-0.3785129,0.1506399,-0.06437342,0.029140366,0.062181294,-0.11716736,-0.2870232,-0.19455583,-0.14727381,1.1113341,-0.025400728,0.07071246,-0.15405942,0.15558116,0.14426635,-0.111382306,0.57877034,-0.27190548,-0.10366463,0.1349403,0.0007855696,0.1377454,0.03738272,-0.0792055,0.24652098,-0.23111506,0.047797468,0.11904459,1.3415647,0.057832174,0.041249063,-0.5668676,-0.015742658,0.27039716,-0.11966559,-0.3312302,-0.018685557,0.1731882,-0.10661815,-0.6423809,-0.12388952,0.50867224,-0.049092956,-0.1476069,0.017292367,-0.00062120537,0.11928429,-0.13299154,-0.1885794,-0.054896437,0.08964871,0.06756034,0.9299965,0.2179806,0.05090488,0.39861026,-0.798914,0.013323884,-0.41058,-0.078668736,0.10489228,0.29675657,0.044080697,0.29661036,0.03841977,0.049959987,-0.020972047,-0.25842032,0.2086053,-0.030768126,-0.007728493,0.51597023,-0.5973558,-0.06573037,0.19329527
net.jforum.actions.helpers.AttachedFile;-1;0.01942515,0.32817477,0.004548704,0.009947397,0.04240795,-0.08552862,0.11234413,0.30578738,0.23534508,-0.027124533,0.31589097,0.21066765,-0.008758838,0.20658913,0.06288891,0.020837469,0.20995167,0.2760262,-0.15299241,0.11461454,0.10494362,-0.021378463,0.023627976,-0.16156833,0.21731614,-0.09680029,0.16371697,-0.009198593,0.178167,0.2756897,0.21056578,-0.093853325,1.0622844,-0.21034923,-0.037795708,-0.3485836,0.18388195,0.07243128,-0.049491886,0.029421644,-0.25814784,-0.09385446,-0.52374834,0.21694508,0.073222294,-0.16087863,0.2543152,0.15348572,-0.1704954,0.033641484,0.0771936,0.18377544,-0.51235366,-0.045686364,0.05555191,0.1666903,-0.7256809,0.22470716,0.017736988,0.06591814,-0.24283029,0.21517687,0.07713267,0.1680881,0.88185644,0.06479783,0.19558099,0.52437663,-0.35159042,0.08142568,0.07860355,-0.074883886,-0.04494484,-0.22744268,-0.30303508,-0.051471137,0.24282749,-0.42216912,0.14951658,0.044363745,0.32839626,-0.006801357,0.39192683,0.49928296,0.07608957,0.15742078,0.09083494,0.0517365,-0.5163686,-0.040247705,0.12414556,0.16497359,0.29894328,0.14845389,0.11524893,0.26574177,0.15970978,-0.4238487,0.14183052,0.2179948,-0.13009848,-0.13157593,0.23590611,0.17759402,0.0030461333,-0.08907616,0.31048656,0.23384857,0.23811463,-0.15406354,-0.059598677,-0.21256971,0.021715889,0.036076423,0.13157056,0.07889667,0.027060682,0.31062773,-0.16261156,0.097811155,-0.21000534,0.28168875,-0.15088113,0.42562908,0.029965121,0.1651208,-0.3717043,-0.2829775,-0.057625633,-0.015557028,-0.60792446,-0.8909429,-0.11766724,-0.06521952,0.21576354,0.10955352,-0.009337151,0.27177018,0.031907346,-0.18914047,-0.36369294,0.09315616,-0.14013784,0.15695673,-0.14950128,-0.093945526,-0.07739293,-0.0423927,-0.05161103,-0.50694555,-0.20980722,-0.026007805,0.74647576,-0.059740923,0.0551379,-0.6553938,0.29887193,-0.19360253,0.19285595,-0.29754096,0.030332439,-0.12682498,0.31430808,0.24862292,-0.0026778274,0.14127193,-0.07331361,-0.1433339,0.018076943,-0.017900996,-0.10838451,-0.010393083,-0.5942386,0.13428809,-0.15445021,0.19698235,-0.0916959,-0.040610325,-0.1052197,0.65828866,-0.09575295,-0.17859489,0.06474028,-0.19789992,-0.0733989,0.059929047,0.16600958,0.21596888,0.07423071,-0.0697047,-0.13548924,0.16182937,0.1413293,0.24037439,0.36710653,-0.108399674,-0.040627528,0.11083253,0.49028212,-0.06511025,-0.1098177,0.055714782,0.44028246,-0.121830165,0.39362258,0.20648803,-0.11419989,0.012119438,0.29673555,0.9399492,1.0244346,0.08283103,-0.11741655,-0.024943098,-0.289631,-0.113159835,-0.16896349,-0.37330842,-0.086974695,-0.38094962,-0.85811764,-0.031951148,-0.21647538,-0.25561222,0.10463629,-0.0015170365,0.539698,-0.07819363,-0.011563466,0.13405275,0.14359793,0.2012197,-0.2850408,0.100325584,0.21495765,-0.23026782,0.123121,0.14894885,0.029604679,-0.62994766,0.10882256,0.01807722,0.07115942,0.24442948,-0.14547868,-0.35853755,-0.04912827,0.3378847,-0.15451688,0.25031772,-0.03362323,-0.32544535,0.06622754,-0.01711868,0.13984469,-0.4158765,0.013897529,-0.015244436,-0.13801551,1.3032237,-0.10092064,0.037360616,0.14889053,-0.20971534,-0.017820496,-0.3401764,0.01377543,0.12900412,-0.050167684,0.13558161,0.59126204,0.046316404,-0.12340479,0.16906162,0.039593693,0.025736509,-0.4337805,0.1639375,-0.28461114,0.08833255,-0.1678155,-0.12189458,0.054229546,0.019455213,0.16394985,-0.19248027,-0.2929513,0.18948606,-0.0039295238,0.058093887,0.3142612,-0.14400424,0.66322136,-0.011156652,-0.15558386,0.24722984,0.08006136,0.0056636995,0.10300137,-0.4068414,0.2619365,0.34187433,-0.27885363,-0.09470183,-0.30563694,-0.10399515,-0.33599874,0.023258762,0.1656188,-0.08290994,-0.16635832,-0.31908986,-0.2603568,0.038337167,0.052067257,-0.009607291,0.033337254,0.05054589,-0.18285029,-0.04404928,0.20295677,-0.23961632,0.18188103,-0.5801899,-0.25760296,0.5649897,0.06326725,-0.1550197,-0.70168644,0.5145642,-0.09785925,0.18333589,-0.23458654,0.51364416,-0.5537437,-0.06876535,0.60677636,-0.05314086,0.0063812174,-0.06263918,-0.7889906,0.26404154,-0.3089334,-0.0068465723,-0.20008361,0.20299904,-0.07362425,-0.11277996,0.33952096,-0.007918045,-0.08846278,-0.5038224,0.023870261,-0.058537874,0.16775116,0.947649,0.42489797,0.057450842,-0.12882887,-0.2046731,0.10890869,0.25934026,-0.0006355789,1.0196029,0.34597367,-0.23366131,-0.5166685,-0.02442234,-0.08587482,0.33070686,-0.15248205,0.27496877,0.040623132,0.025058283,0.24370939,-0.06975527,-0.26162198,0.12367475,-0.4186303,-0.1551998,-0.4230967,0.058994126,0.13883954,0.010207912,0.30558422,-1.4436439,0.33799472,-0.27242488,0.57242674,0.074680336,-0.04890536,-0.088008195,0.30016255,0.042575397,-0.06919027,0.052580003,0.33949113,0.027984396,-0.42705497,-0.07552269,0.025804142,0.016448509,0.2404175,0.17087875,0.07783255,0.20689818,-0.46057296,-0.04822434,-0.07201357,0.51049536,-0.11619522,0.9697539,-0.20425157,-0.3006144,-0.06690559,0.14655915,0.26029417,-0.13581939,-0.057096455,-0.16129749,0.13200982,0.02167797,0.42682788,-0.27535373,0.1525466,0.088924214,-0.06503677,0.059258237,0.23177329,-0.12794103,-0.002993548,-0.09984908,-0.042363636,0.3680323,-0.08748125,0.047585424,0.16310385,-0.37244177,-0.140875,0.028980438,0.2032176,0.023117788,0.107609116,0.21026991,-0.09057812,0.019493261,0.14315075,0.673486,0.30762288,0.008079701,-0.1524178,0.11587331,0.1341305,-1.3405931,0.53185993,0.14738609,0.21455331,-0.109826334,0.16940431,0.54539627,0.09411746,0.36632818,-0.0023781513,-0.12416848,-0.14215568,-1.0976429,0.09438044,-0.08427562,-0.17833887,0.38680932,-0.36793345,0.18191722,0.072186075,0.36131263,0.020448606,-0.014438279,-0.123971894,1.0358132,-0.12620719,0.86437625,-0.113254234,-0.16247961,0.14608838,-0.33871415,-0.16028889,0.019459562,0.049568348,0.07456182,-0.050135296,-0.060813393,-0.37391627,-0.28434992,0.02947987,0.15686898,0.37793902,0.013174479,0.04764555,0.2734757,-0.049061637,0.4235282,0.08373318,0.16690125,0.22968216,1.0205861,0.021659987,-0.15536705,-0.056956142,0.44930616,-0.10743686,-0.3518302,-0.20672601,0.21451488,0.4862103,-0.016884955,-0.161762,0.11681761,-0.022114942,-0.17434907,-0.21667868,0.67117304,0.03796383,0.020596975,-0.21204565,-0.009667757,1.0214978,-0.09472068,-0.53092474,-0.41731268,-0.05238608,-0.3578673,-0.22669311,-0.29112118,-0.0025988044,0.07580611,-0.071227044,0.14312787,-0.12644742,-0.14278547,0.0834811,0.11862371,0.05910517,-0.13656464,0.5409444,0.01926633,0.31373745,-0.2631292,-0.12869377,-0.6972179,0.04868787,0.038905088,-0.121408,-0.5150767,-0.24071074,0.16388632,0.27080896,-0.03492839,-0.32064992,0.4918266,0.002984823,0.18086836,-0.42973837,-0.1283868,0.12534101,-0.014196414,0.16451648,-0.077305816,-0.18335278,-0.11229846,0.08446756,0.042981733,-1.0588975,0.09005291,-0.20531738,0.25752363,0.3868843,0.21480724,0.73960507,-0.10296832,0.023163067,-0.0014187949,-0.05199978,0.75296754,0.13291916,-0.337692,0.1083543,0.2414552,0.14436652,0.27505228,13.877769,-0.1634633,0.5393656,0.3744264,-0.012643493,0.12802698,-0.49443918,-0.23483193,0.035159495,-0.07511345,-0.03790504,-0.10369392,-0.029592069,-0.1684422,0.49854353,-0.2875975,-0.08214374,-0.11303945,-0.01458667,0.14460327,-0.06365267,0.205386,0.46677858,-0.30741826,0.09804585,0.28027862,0.10128291,0.25426522,0.061037835,-0.18716756,-0.0918363,0.39655057,-0.028074902,-0.03382698,0.08740568,0.5412949,0.1787828,-0.109836325,-0.023469256,-0.5839042,0.13968824,-0.07821317,0.22637708,-0.08355062,0.06781219,0.24216937,-0.40053576,0.29590002,0.22991411,-0.43579257,0.018214189,0.50383073,0.22682023,-0.13301145,0.16288616,-0.27016523,-0.29742807,-0.0052873,-0.5584311,0.118883274,0.1407776,-0.01173162,-0.0023138584,-0.7545641,-0.0044161244,-0.04007727,-0.070312686,0.0062905285,-0.01449682,0.30174217,1.009177,0.621276,-0.044143885,-0.11618048,-0.2653375,0.10768601,-0.004652772,-0.027250255,0.042154644,-0.52625006,0.10066038,0.052178312,-0.10377765,-0.27286834,-0.41478595,0.15508747,-0.20425114,0.1288266,0.98068243,0.007206341,-0.25633124,-0.15728143,-0.71227485,-0.12610307,0.24712636,-0.34128788,-0.7407889,0.06192112,0.04465233,0.08075365,-0.2672418,0.110752165,-0.16334203,0.24323186,-0.15713798,-0.38187805,0.15357032,-0.061194565,0.020862775,0.059658427,-0.120519534,-0.3005322,-0.19056973,-0.14669207,1.1045719,-0.0286923,0.07020076,-0.14945805,0.15603822,0.1425399,-0.11125833,0.5846701,-0.27407113,-0.10260298,0.12841477,0.0021034896,0.14487976,0.035657,-0.07620892,0.2534661,-0.23463783,0.05077271,0.12045807,1.3405288,0.055191427,0.03799643,-0.5678427,-0.017476644,0.2776458,-0.119150735,-0.33397225,-0.015875686,0.17748252,-0.11044552,-0.6434111,-0.12926234,0.5069552,-0.050790302,-0.14569832,0.0187935,-0.0011925267,0.12117616,-0.1447867,-0.19102968,-0.050083507,0.08855232,0.06639448,0.9225702,0.21698813,0.058413174,0.40079632,-0.8032119,0.019879699,-0.41616777,-0.073128626,0.10222674,0.29999202,0.04912478,0.29948533,0.034826357,0.047841128,-0.020905733,-0.26911268,0.20561413,-0.03685907,-0.012713229,0.5191481,-0.59329766,-0.063247375,0.19093479
net.jforum.actions.helpers.Domain;-1;0.020989645,0.33454096,0.00705626,0.015726564,0.04174058,-0.081205636,0.10743137,0.3100773,0.24110153,-0.02559045,0.30996534,0.21847472,-0.010695115,0.20909771,0.06420587,0.029941197,0.21297024,0.2753325,-0.15700178,0.115144596,0.10006656,-0.02494062,0.028405331,-0.17084065,0.2229163,-0.09502363,0.1658362,-0.003642889,0.17222348,0.28138104,0.20833185,-0.099104285,1.0626931,-0.20697092,-0.034116242,-0.35280418,0.18123345,0.07355061,-0.04760386,0.030048383,-0.27051,-0.09370166,-0.5290104,0.21190582,0.073357865,-0.16087317,0.24953458,0.14372388,-0.17563316,0.02690687,0.07481387,0.1935715,-0.5101323,-0.048558954,0.055430874,0.1690412,-0.7295685,0.22693798,0.019643553,0.06618351,-0.24485475,0.20803547,0.07998576,0.15641671,0.8808868,0.060654927,0.20213816,0.53373086,-0.34718823,0.07737922,0.07273902,-0.07583037,-0.04945117,-0.22172403,-0.3036764,-0.052115507,0.24070051,-0.41241634,0.15340002,0.05641795,0.32526183,-0.022039957,0.39046216,0.4945185,0.071854256,0.15115575,0.08978093,0.052235343,-0.5100891,-0.04334628,0.121942565,0.17196578,0.29252142,0.14492795,0.10953232,0.27144128,0.15930083,-0.41984135,0.1417065,0.21470416,-0.12757003,-0.13025305,0.23036665,0.17273933,0.0023654462,-0.089424714,0.3094247,0.23042376,0.24988449,-0.1530452,-0.058805823,-0.21577846,0.025332164,0.02799905,0.13512465,0.074091345,0.02784406,0.3084396,-0.16482359,0.1002549,-0.21507287,0.28373295,-0.14918604,0.41746527,0.030646568,0.17549822,-0.36988315,-0.2842666,-0.0547008,-0.014382424,-0.61324453,-0.8864568,-0.11533745,-0.06027449,0.21548453,0.10581562,-0.0075935842,0.26949045,0.033950247,-0.18695787,-0.3635499,0.09403074,-0.13714634,0.15021895,-0.15673271,-0.09479508,-0.07575141,-0.03857834,-0.054839075,-0.5063957,-0.21278948,-0.02381574,0.7485396,-0.06571634,0.06492723,-0.65511453,0.29048604,-0.18776858,0.19351313,-0.29803693,0.027000196,-0.13174725,0.31842357,0.24490029,0.001195051,0.14139028,-0.078551486,-0.15154056,0.021234743,-0.013617592,-0.112333074,-0.013032409,-0.586176,0.13980213,-0.16037127,0.19254917,-0.09437426,-0.043850645,-0.104789324,0.6653091,-0.09171535,-0.18057632,0.058733366,-0.20702162,-0.0791816,0.059961118,0.15868673,0.21356925,0.07770029,-0.060952082,-0.1328305,0.16598085,0.14359397,0.24073914,0.3585764,-0.10700314,-0.042021345,0.110221595,0.48413438,-0.063130274,-0.11777209,0.054237835,0.43904823,-0.11002573,0.39893752,0.20918685,-0.1139787,0.0074405055,0.2975725,0.9470687,1.0256344,0.07638061,-0.12147601,-0.032815732,-0.29333454,-0.1151745,-0.16749401,-0.36852646,-0.085603304,-0.38188687,-0.8597709,-0.02844675,-0.21298334,-0.2603944,0.102792434,-0.002317031,0.5443948,-0.076431334,-0.010368881,0.13226236,0.14099807,0.20188305,-0.2857359,0.10421949,0.21491669,-0.22837354,0.118537515,0.1415075,0.030449465,-0.629351,0.10654856,0.017364588,0.07603853,0.24722573,-0.1472666,-0.3611157,-0.04304879,0.3287292,-0.14738062,0.25179005,-0.040878616,-0.32108617,0.0610622,-0.013212215,0.13905364,-0.41368186,0.014764681,-0.014817702,-0.1301358,1.296247,-0.10068439,0.036779508,0.14670363,-0.22384462,-0.019993111,-0.3407495,0.01110647,0.13087712,-0.04492181,0.13423213,0.60249025,0.04661228,-0.124735534,0.17048778,0.036046818,0.024928037,-0.42349344,0.16301176,-0.2872209,0.091826126,-0.16504,-0.123840034,0.05343164,0.018527735,0.16256934,-0.19281214,-0.29254973,0.18674639,-0.00061557244,0.054705814,0.31315997,-0.14295241,0.6610272,-0.010778095,-0.15832657,0.25021094,0.08017321,0.012850768,0.106000975,-0.40433407,0.26125446,0.33933556,-0.28597307,-0.08698012,-0.30111194,-0.10806453,-0.3213634,0.02410267,0.16580656,-0.07966239,-0.16343194,-0.32172725,-0.26123625,0.04511354,0.046735764,-0.009873219,0.04060573,0.049620338,-0.18250632,-0.043597054,0.19851148,-0.23403497,0.1856513,-0.57812464,-0.2591079,0.5564029,0.058810927,-0.15425748,-0.70260006,0.51900554,-0.095216796,0.18728352,-0.22598252,0.52318835,-0.5575739,-0.061662823,0.6028419,-0.050508797,0.008422976,-0.06126018,-0.78346956,0.2625385,-0.3086145,-0.0076616746,-0.19654253,0.20385975,-0.076180026,-0.10815644,0.35018134,-0.0028217563,-0.091146454,-0.5049651,0.02896814,-0.060224637,0.17416918,0.95460033,0.42465502,0.058821313,-0.12745816,-0.2093691,0.10419847,0.25465852,0.0017608986,1.0229712,0.34415656,-0.22973178,-0.52287376,-0.018354883,-0.08579115,0.32720655,-0.15493172,0.27417624,0.04165938,0.023655273,0.24438088,-0.072067775,-0.24953379,0.12578724,-0.41224158,-0.15031295,-0.42596185,0.056714453,0.13911252,0.008643834,0.3027777,-1.4433935,0.33096564,-0.2657379,0.5711437,0.071981855,-0.044357415,-0.08314994,0.304883,0.036094565,-0.06968336,0.056328136,0.34195584,0.029989567,-0.42313302,-0.08174008,0.02932702,0.018504117,0.2397609,0.16753124,0.08186306,0.20785806,-0.46132112,-0.05351666,-0.078997836,0.51705396,-0.11525598,0.97256994,-0.2056745,-0.30064186,-0.06637221,0.13882326,0.2614979,-0.14244637,-0.048380464,-0.16170672,0.13349804,0.022876158,0.42956817,-0.27450573,0.15896924,0.086832285,-0.054550506,0.059297398,0.22968267,-0.1276121,-0.0025048926,-0.102449596,-0.049425244,0.36993614,-0.0875086,0.041257605,0.16581544,-0.37127382,-0.14266068,0.022889731,0.20668748,0.02297532,0.11527197,0.20583725,-0.08605643,0.024920067,0.13560754,0.674279,0.30509964,0.0070083337,-0.15443052,0.11215601,0.12647553,-1.327688,0.53236884,0.15084985,0.21209481,-0.115122825,0.16528505,0.54705954,0.09636371,0.35820132,0.0018960675,-0.12567477,-0.13942893,-1.10334,0.09439626,-0.08828554,-0.17645937,0.38547954,-0.38153788,0.17476144,0.06875907,0.35569727,0.019600334,-0.018770486,-0.12457624,1.0404186,-0.1274005,0.8796736,-0.111375704,-0.15881127,0.13969582,-0.3406741,-0.1647881,0.017166767,0.043916456,0.078243956,-0.047904763,-0.06782073,-0.37880987,-0.28304136,0.034854673,0.1622541,0.37789792,0.015014871,0.052249487,0.27384418,-0.05144623,0.42919457,0.08520833,0.16445164,0.22653413,1.0287884,0.025399689,-0.15483926,-0.055484638,0.44667608,-0.09815952,-0.34834307,-0.2025369,0.20788366,0.48476154,-0.012967493,-0.159822,0.12063725,-0.022121064,-0.18071653,-0.21488085,0.67456347,0.037226513,0.02245589,-0.21308699,-0.00814535,1.0226688,-0.09752707,-0.5429884,-0.4165397,-0.05095287,-0.3650912,-0.23221144,-0.29148674,-0.0014091377,0.070913926,-0.06856997,0.14268255,-0.12598743,-0.13569537,0.09118746,0.12119967,0.05981003,-0.13688669,0.5422995,0.01943114,0.3131683,-0.25157502,-0.12645474,-0.6928724,0.044252567,0.03153663,-0.12056595,-0.52342695,-0.24045587,0.1585528,0.27144247,-0.034731854,-0.3191267,0.4901291,-0.00015076797,0.17541246,-0.42557108,-0.12162217,0.12578116,-0.013684873,0.17087707,-0.07640478,-0.18376489,-0.11118476,0.08189455,0.042815126,-1.0668197,0.095818356,-0.19797876,0.26087412,0.3894148,0.21220648,0.73685163,-0.09931444,0.039156295,0.0029506828,-0.044823244,0.7514149,0.13622147,-0.338821,0.109329775,0.24838583,0.14302015,0.27989155,13.8661585,-0.1658313,0.5403992,0.37557033,-0.011866836,0.12858209,-0.49840844,-0.2406395,0.03540436,-0.07697569,-0.03954941,-0.102546155,-0.03130376,-0.16669047,0.5054586,-0.28538108,-0.08033773,-0.119724914,-0.008029427,0.14237452,-0.056227244,0.2020218,0.46702158,-0.3058777,0.089680135,0.27491778,0.10002153,0.25127035,0.064641386,-0.1821247,-0.08911066,0.3975445,-0.038483344,-0.03791705,0.08674145,0.54666555,0.1805329,-0.11691621,-0.031591028,-0.582985,0.13815756,-0.08208605,0.22982535,-0.08687022,0.06447675,0.236797,-0.3964318,0.2957056,0.21976776,-0.42844766,0.018331772,0.5057065,0.22178766,-0.14580986,0.1629009,-0.26453865,-0.30418825,-0.008691389,-0.55755377,0.11014709,0.14403048,-0.00853272,-0.004421218,-0.76292646,-0.004978162,-0.037229367,-0.08211416,0.0029344289,-0.014896167,0.2958265,1.0161426,0.62660074,-0.037550192,-0.11176866,-0.2543018,0.10105276,-0.010495801,-0.03324117,0.039071918,-0.5166289,0.1075443,0.04848387,-0.10926694,-0.26728356,-0.41357774,0.15338263,-0.19681966,0.12671426,0.97726697,-0.002371173,-0.25475195,-0.15431164,-0.7136766,-0.12566844,0.24351048,-0.33637413,-0.74031603,0.059738863,0.040268958,0.08570261,-0.26313296,0.10952012,-0.16405606,0.24024212,-0.1570069,-0.38312954,0.14914794,-0.06032385,0.027077073,0.058260977,-0.123476945,-0.30235165,-0.18602541,-0.15067542,1.1174893,-0.030927815,0.06673722,-0.14657125,0.1559082,0.14547288,-0.11092103,0.59427947,-0.27624506,-0.100108325,0.1301235,-0.00020754547,0.14293978,0.027748149,-0.07874811,0.25956124,-0.23329332,0.05070146,0.12064567,1.3371363,0.04934774,0.042975545,-0.5708493,-0.015585382,0.283082,-0.119905666,-0.330474,-0.012918286,0.17904499,-0.109116614,-0.6303278,-0.122929685,0.5128479,-0.05375258,-0.146004,0.0208611,-0.004180955,0.120814726,-0.15014675,-0.18741432,-0.047299393,0.08167692,0.06828889,0.92064726,0.21787554,0.055098575,0.4022208,-0.8025506,0.01855288,-0.40958184,-0.06766064,0.1056459,0.29736453,0.048551664,0.29918078,0.034436926,0.04518926,-0.027679365,-0.27239215,0.20973587,-0.036942504,-0.01218324,0.5066709,-0.5957458,-0.06410027,0.19021326
net.jforum.actions.helpers.PostFormOptions;-1;0.018318182,0.3291454,0.0060334033,0.014402697,0.04120247,-0.082656085,0.1111906,0.30804685,0.23740666,-0.028405108,0.31412926,0.21468665,-0.006211254,0.2085275,0.06288174,0.02124314,0.20939857,0.27417654,-0.15394653,0.111472994,0.10295445,-0.022549074,0.021010045,-0.16528422,0.21947426,-0.09695184,0.16599011,-0.007471443,0.17878336,0.27769738,0.20720619,-0.095194764,1.0644689,-0.20810959,-0.039697967,-0.35105783,0.18170224,0.075172946,-0.051422834,0.031505276,-0.26055872,-0.09021393,-0.5272784,0.21640162,0.07059389,-0.16029206,0.254527,0.14860809,-0.17206374,0.030179657,0.0763213,0.18590838,-0.5111023,-0.045748785,0.056982998,0.16830817,-0.72733545,0.22545938,0.018670771,0.06648881,-0.23982124,0.21270397,0.07419677,0.16336623,0.8807292,0.06382874,0.19723359,0.5311167,-0.35105422,0.080646805,0.07861185,-0.07414347,-0.043134317,-0.22944197,-0.30359077,-0.04747978,0.2412601,-0.41730455,0.1467771,0.04750894,0.32481754,-0.009161021,0.38919172,0.49390215,0.07449651,0.15884145,0.087424785,0.05164636,-0.5143396,-0.037682578,0.12165813,0.16582713,0.29611585,0.14725338,0.11419068,0.26685107,0.15689,-0.42188078,0.1442983,0.21346614,-0.12709673,-0.13338315,0.23053804,0.1757049,0.00052070257,-0.089143306,0.3104764,0.23361792,0.24105942,-0.15275557,-0.06026219,-0.21269852,0.023892606,0.03579676,0.13283256,0.07464658,0.027380418,0.30737504,-0.16283864,0.09746358,-0.21396889,0.28334227,-0.14944506,0.42312855,0.031359214,0.16743866,-0.3687722,-0.2808924,-0.054751307,-0.013615354,-0.6067985,-0.89065397,-0.11549681,-0.06298621,0.21516451,0.10832061,-0.007846438,0.27011573,0.03332284,-0.18510431,-0.36514843,0.095406525,-0.13848355,0.15771648,-0.14845869,-0.09306426,-0.07533425,-0.041561957,-0.051606707,-0.504949,-0.2125425,-0.0265055,0.74666,-0.06316054,0.05489435,-0.65451014,0.2907094,-0.19186956,0.19040541,-0.29833114,0.030095343,-0.12867808,0.31570473,0.24856472,-0.0026955188,0.1397619,-0.07464944,-0.14441246,0.019542957,-0.01404933,-0.10668945,-0.013049824,-0.5934217,0.1340472,-0.15926018,0.1967555,-0.0935276,-0.04134725,-0.103896216,0.66432095,-0.097551204,-0.17749639,0.06195976,-0.19837543,-0.07707017,0.061146744,0.16152678,0.21336007,0.07822129,-0.066905946,-0.13441505,0.16220044,0.14051378,0.237448,0.3646521,-0.10680058,-0.042958617,0.109637275,0.4897126,-0.065369576,-0.108744785,0.052553695,0.43698466,-0.118576705,0.39095056,0.20626459,-0.11418828,0.011922078,0.29637134,0.9427748,1.0272291,0.08075311,-0.116773084,-0.028985314,-0.28943893,-0.11344366,-0.1685258,-0.36629835,-0.084482916,-0.37912774,-0.8595922,-0.031391658,-0.21809816,-0.25566202,0.09683435,-0.0020167502,0.5419505,-0.077667534,-0.013324015,0.1312212,0.14063735,0.2030414,-0.2821434,0.09840648,0.21251935,-0.23001024,0.12412637,0.14776188,0.027094088,-0.6319856,0.10728347,0.01625952,0.07215592,0.2459951,-0.14691642,-0.36131683,-0.047775872,0.33788675,-0.15272012,0.24868566,-0.032755766,-0.32407838,0.06392554,-0.017123196,0.13802575,-0.41329533,0.015740514,-0.014805552,-0.13473782,1.3065516,-0.10049588,0.038403556,0.14884716,-0.21767136,-0.018226504,-0.34113908,0.012539543,0.12855908,-0.04974504,0.1382722,0.5943135,0.045565315,-0.12069929,0.1678432,0.03955151,0.02505111,-0.42984658,0.16400337,-0.2849263,0.08683989,-0.1672785,-0.12178241,0.055268325,0.018301625,0.16348809,-0.19154078,-0.28910318,0.19088781,-0.0040602004,0.056089647,0.3134905,-0.14461406,0.660045,-0.0090342425,-0.1559394,0.24794215,0.08227906,0.0068029347,0.10124779,-0.4042842,0.26206008,0.33550873,-0.27871522,-0.092105314,-0.3024403,-0.103838034,-0.3313267,0.023753624,0.16726962,-0.08254027,-0.16629434,-0.31885397,-0.26066566,0.039354615,0.04949127,-0.008616667,0.035498217,0.04925438,-0.18230736,-0.04466626,0.20147046,-0.23728395,0.1830081,-0.5811908,-0.26120806,0.5642424,0.06341782,-0.15397611,-0.7019266,0.5143274,-0.10136558,0.18321416,-0.23343167,0.51668876,-0.5554464,-0.0671081,0.6065408,-0.051897444,0.006521362,-0.06509602,-0.78825706,0.26515073,-0.30765522,-0.0052287136,-0.1993113,0.20415664,-0.0717784,-0.11071938,0.3424645,-0.006478746,-0.08936478,-0.50391835,0.025939438,-0.058151737,0.16948335,0.95309293,0.42583466,0.05413582,-0.1285033,-0.20573084,0.10668908,0.25686258,0.0011050293,1.0206714,0.34488046,-0.23166075,-0.51895034,-0.02236696,-0.08553167,0.3277114,-0.15102409,0.27215135,0.04098282,0.02607916,0.24480307,-0.06958614,-0.2597524,0.121264845,-0.41578233,-0.15172191,-0.42371932,0.057357363,0.13805398,0.008538106,0.30661768,-1.4461045,0.33637092,-0.26966533,0.57257307,0.073717475,-0.047015652,-0.08559966,0.30380112,0.03994427,-0.070591584,0.05555205,0.33954254,0.027769212,-0.42524266,-0.077598825,0.023712836,0.016147953,0.24137565,0.17120884,0.07800299,0.20757657,-0.4638377,-0.04993324,-0.07503955,0.51112413,-0.117477804,0.97123736,-0.20541808,-0.29949486,-0.06696266,0.14574267,0.26074558,-0.13668688,-0.053949267,-0.15940213,0.13246295,0.021619342,0.42738965,-0.27471682,0.15224653,0.08629799,-0.062873274,0.059680305,0.22753328,-0.12820965,-0.0029381672,-0.09729289,-0.04455287,0.36559933,-0.088706166,0.04814858,0.16315246,-0.37129977,-0.14005992,0.025606724,0.20135345,0.022143561,0.11081204,0.2099721,-0.09081339,0.021926068,0.14121443,0.6770619,0.30861223,0.0076942774,-0.15365836,0.117446184,0.1316672,-1.3278389,0.53228796,0.14524215,0.21220462,-0.11091645,0.1712762,0.54659164,0.09399394,0.36422926,0.0020249763,-0.12569888,-0.14192271,-1.0953853,0.09635778,-0.08694272,-0.17796853,0.38524348,-0.3730089,0.17939764,0.069549456,0.3581919,0.021174308,-0.013510918,-0.12506272,1.0360686,-0.12752591,0.8702325,-0.11134598,-0.16277584,0.14382124,-0.33854315,-0.16113745,0.020198308,0.04780545,0.0734028,-0.049653515,-0.06384267,-0.37335318,-0.28322074,0.03170702,0.1569331,0.37812907,0.014945965,0.049250823,0.2717741,-0.050118748,0.42553216,0.0831607,0.1662242,0.22861591,1.0224361,0.021760132,-0.15246087,-0.058305178,0.44924772,-0.10572072,-0.34975117,-0.20612773,0.21360962,0.4835932,-0.013982663,-0.16014771,0.116161436,-0.021613091,-0.17561823,-0.21717912,0.6694224,0.03710497,0.019190304,-0.21407908,-0.008707553,1.0231266,-0.09528964,-0.5345339,-0.41659665,-0.05210062,-0.3613888,-0.23027685,-0.28930807,-0.0044381926,0.074307606,-0.07223702,0.14157581,-0.12630844,-0.14220709,0.086244226,0.11826004,0.061579075,-0.13794722,0.54357886,0.01897934,0.31528944,-0.2594741,-0.1266649,-0.69696295,0.047596354,0.0355575,-0.12258527,-0.51939964,-0.24019003,0.16248491,0.26746404,-0.036587108,-0.31911814,0.49243295,0.0007665546,0.1806644,-0.4282692,-0.12687913,0.12474105,-0.012986748,0.16352573,-0.07646838,-0.18134096,-0.11400447,0.084194094,0.042544417,-1.0608126,0.09133126,-0.20393918,0.2558964,0.3843481,0.21596934,0.7383728,-0.10186809,0.026717745,0.00043247163,-0.051907927,0.75660646,0.1320112,-0.33843994,0.108491294,0.2408956,0.14244628,0.27362907,13.863602,-0.16453823,0.54119325,0.3735729,-0.012878975,0.12740664,-0.49757385,-0.23411748,0.034127533,-0.073826194,-0.03746641,-0.103960186,-0.030320354,-0.16538203,0.50025856,-0.28890005,-0.082539916,-0.11509466,-0.014058152,0.14437059,-0.061594516,0.20513822,0.46694294,-0.3072806,0.09768847,0.27867752,0.09943762,0.25086927,0.060523015,-0.18743095,-0.09293975,0.3944173,-0.030609246,-0.034466334,0.087964356,0.5447397,0.18068147,-0.11237058,-0.026380286,-0.5827328,0.13778628,-0.07946551,0.22684073,-0.08114827,0.066288695,0.23987553,-0.40143865,0.2922983,0.22880578,-0.43182755,0.015831614,0.5038466,0.22424035,-0.13478678,0.16313928,-0.26495308,-0.30060443,-0.005643031,-0.55745953,0.11789276,0.14103174,-0.010539652,-0.0015605704,-0.75766456,-0.0028716358,-0.03746291,-0.07407652,0.0063162353,-0.014124816,0.2999781,1.0128003,0.6263503,-0.040099084,-0.116841465,-0.2619099,0.10673611,-0.0076396717,-0.032160446,0.043896515,-0.5267133,0.10209787,0.051134855,-0.104578495,-0.2700186,-0.4135567,0.15523824,-0.19967377,0.12900183,0.9801556,0.0068454957,-0.25484097,-0.15500417,-0.71169156,-0.12423062,0.24666171,-0.33717012,-0.7448971,0.05964541,0.041806404,0.07940568,-0.26684248,0.10984303,-0.1637228,0.24101177,-0.15574944,-0.38206667,0.15056747,-0.061452232,0.025018953,0.059840567,-0.11974113,-0.29672527,-0.1905596,-0.14767015,1.112459,-0.028032761,0.07006638,-0.14742763,0.15668648,0.14499068,-0.11039388,0.58434343,-0.27226347,-0.102057084,0.13219875,0.0004873855,0.14199618,0.03451917,-0.075971544,0.25454336,-0.23270358,0.050698873,0.11932182,1.3413659,0.054682057,0.040610217,-0.56749356,-0.01614485,0.2753393,-0.11989026,-0.33271462,-0.016370634,0.1765264,-0.10949761,-0.64060783,-0.1270988,0.5104011,-0.05072232,-0.14529914,0.02156114,-0.0002449368,0.12102099,-0.14338106,-0.18868549,-0.051153246,0.08577311,0.066941485,0.9248866,0.21878806,0.054831102,0.40060705,-0.8021886,0.0161006,-0.41140908,-0.07488806,0.10443252,0.29818693,0.046744175,0.29808682,0.036273535,0.04847379,-0.020883296,-0.26428965,0.21009688,-0.034464177,-0.0110336,0.5131445,-0.5954288,-0.06440993,0.19207484
net.jforum.actions.interceptors.ControllerSecurityInterceptor;-1;0.01864618,0.32968044,0.0031407953,0.02146395,0.040600695,-0.08901758,0.112618156,0.31195557,0.24462102,-0.027703414,0.31255513,0.21390992,-0.0051864707,0.20645176,0.06422027,0.022469558,0.21318537,0.27881074,-0.15846275,0.107188866,0.100514695,-0.02854748,0.022193523,-0.16477801,0.22343373,-0.095722914,0.16513062,-0.011680789,0.17655018,0.28304917,0.2059769,-0.10213239,1.0661173,-0.20593892,-0.0420694,-0.35025313,0.17989005,0.07873577,-0.04855538,0.031009287,-0.26734528,-0.087027304,-0.52743757,0.21660466,0.070246875,-0.15364571,0.25483486,0.14168479,-0.17352027,0.022510368,0.076500036,0.1863272,-0.5122051,-0.045593444,0.05857339,0.1698815,-0.72971207,0.23085867,0.020284738,0.0631631,-0.23689915,0.2136299,0.077582285,0.15996285,0.8817011,0.059636123,0.19672333,0.5365776,-0.34620133,0.080602795,0.07451063,-0.07696712,-0.043649647,-0.22109914,-0.3061507,-0.042821165,0.23928504,-0.41323948,0.1433654,0.050456293,0.32207426,-0.013284915,0.3820439,0.48726076,0.07419053,0.1594857,0.08600899,0.054186225,-0.5127986,-0.038278375,0.117491625,0.1708497,0.29063416,0.14619204,0.11220314,0.27134886,0.1472936,-0.42523134,0.13983257,0.21566421,-0.12947866,-0.13118163,0.22797446,0.17504188,-0.0023830375,-0.08857867,0.31023994,0.23726597,0.24699321,-0.1469392,-0.06170629,-0.2135366,0.0273992,0.034324534,0.1336828,0.069663025,0.023341436,0.30910793,-0.16265939,0.101069905,-0.22292188,0.28007495,-0.15081741,0.421673,0.0354199,0.17524809,-0.3703159,-0.2823773,-0.052949827,-0.014309721,-0.6142152,-0.893013,-0.11735281,-0.055681705,0.22119461,0.1057482,-0.010954629,0.26981175,0.032980107,-0.17877533,-0.36528328,0.09448835,-0.1389324,0.15531328,-0.14424273,-0.09051751,-0.07341989,-0.037783816,-0.0564088,-0.50222176,-0.21248955,-0.032508615,0.7538145,-0.06652516,0.057557322,-0.6454183,0.28746578,-0.18673374,0.18660833,-0.29904404,0.028141396,-0.12995128,0.3162239,0.25061044,0.0006343653,0.1363325,-0.07008346,-0.14385809,0.02177414,-0.0077313553,-0.11264524,-0.015005343,-0.59407914,0.13655683,-0.16426252,0.19558698,-0.10073138,-0.041232336,-0.10274698,0.67276305,-0.09535436,-0.1762983,0.05593739,-0.20187712,-0.081429414,0.06400844,0.16053686,0.22107843,0.08005693,-0.06328381,-0.13464896,0.16283943,0.13413218,0.22944649,0.36361334,-0.10803878,-0.04474071,0.11259915,0.48178196,-0.060388155,-0.111981615,0.04629191,0.43827313,-0.11556937,0.39577,0.2091019,-0.11338348,0.00934354,0.293548,0.93901795,1.0292507,0.085846364,-0.11805739,-0.036923394,-0.28849855,-0.108315356,-0.16446261,-0.35420695,-0.08834739,-0.37375006,-0.86460054,-0.033096816,-0.22595058,-0.25368905,0.08947702,-0.005684551,0.545751,-0.07590894,-0.012396554,0.13550703,0.13623784,0.21102124,-0.2827711,0.10352482,0.21217656,-0.2266462,0.12651265,0.14322731,0.026144676,-0.6316563,0.108899534,0.015421104,0.07485212,0.24666873,-0.14925842,-0.36454502,-0.047346443,0.33453813,-0.1488232,0.25508448,-0.035760194,-0.3251219,0.06188722,-0.019820808,0.1320815,-0.41272315,0.019136166,-0.012025945,-0.12670393,1.3060522,-0.096189,0.038661677,0.14792551,-0.21937037,-0.024207592,-0.33531484,0.013257144,0.12528454,-0.050987933,0.13819382,0.596534,0.04617995,-0.11487313,0.16768003,0.040985923,0.02723107,-0.42049432,0.16186032,-0.2834112,0.083286405,-0.17027505,-0.12373613,0.0596794,0.017642424,0.16776638,-0.192492,-0.28710073,0.18950336,-0.0029069805,0.054153617,0.31440264,-0.14868622,0.6534205,-0.008026403,-0.15389031,0.2466462,0.080366954,0.006505822,0.10184964,-0.40246567,0.26069266,0.3305965,-0.27459386,-0.09134174,-0.29914436,-0.11110784,-0.3222745,0.02022711,0.17264517,-0.08197533,-0.17058897,-0.31683177,-0.2632854,0.04295677,0.04491851,-0.011765863,0.03878289,0.051133215,-0.17927301,-0.044464894,0.1987093,-0.23367737,0.18520905,-0.5744036,-0.26844645,0.5608778,0.06296247,-0.15368204,-0.7064314,0.51991254,-0.10327126,0.1870299,-0.23278049,0.51809543,-0.558076,-0.06339432,0.6063687,-0.054867815,0.009294951,-0.06290074,-0.78810656,0.26246828,-0.30556965,-0.0051250323,-0.19781817,0.20276293,-0.071426466,-0.10990637,0.34520382,-0.007853113,-0.09697371,-0.50308985,0.028689073,-0.0635602,0.17174181,0.96134555,0.42647037,0.050119124,-0.12837607,-0.1966616,0.09603303,0.25953823,0.00085158704,1.0261089,0.34543917,-0.22657593,-0.5224029,-0.019403102,-0.08202625,0.32425767,-0.15368134,0.26846352,0.045330524,0.028895913,0.2503292,-0.07292033,-0.25435928,0.11115208,-0.42158702,-0.15325569,-0.42128733,0.05773803,0.14430442,0.006211241,0.31399432,-1.4454254,0.33535516,-0.2650898,0.5712339,0.07295273,-0.052424263,-0.08519809,0.31104255,0.033956077,-0.070641786,0.0637291,0.33653224,0.03993781,-0.4219114,-0.08423924,0.020028245,0.012654397,0.24314198,0.17342502,0.076739766,0.21150173,-0.463287,-0.055770125,-0.08207388,0.510574,-0.115953326,0.9747045,-0.20273873,-0.29541963,-0.06559761,0.14531252,0.25946352,-0.14313914,-0.051215447,-0.16503003,0.13724074,0.01941066,0.42880955,-0.27277455,0.15502758,0.085858725,-0.061990477,0.056335125,0.22648141,-0.12104125,-0.0056261234,-0.09620846,-0.039943382,0.36319456,-0.08677208,0.044280212,0.16012062,-0.3754499,-0.14155772,0.027871132,0.2032108,0.025334634,0.120575026,0.20463704,-0.088560455,0.021530487,0.13491692,0.6807645,0.3081256,0.006466908,-0.15577814,0.11517945,0.12912503,-1.30345,0.5322309,0.14809512,0.20661394,-0.1161491,0.171776,0.54670155,0.09029203,0.3609091,0.004855794,-0.1294196,-0.14371537,-1.100254,0.095406316,-0.089198284,-0.17527835,0.38553593,-0.37637946,0.17907038,0.065996215,0.35400066,0.020047458,-0.014154243,-0.1268964,1.035865,-0.12771007,0.87865293,-0.11096142,-0.16490272,0.1351335,-0.34261352,-0.16459528,0.016486319,0.050914604,0.07588234,-0.053167246,-0.066615164,-0.37579513,-0.27939892,0.033803236,0.15487447,0.37796402,0.017906597,0.051725585,0.26866874,-0.051044796,0.42909047,0.08268358,0.16289131,0.2294744,1.0248508,0.023092372,-0.1493654,-0.060596902,0.443409,-0.104024015,-0.35130012,-0.20278344,0.21524134,0.4838609,-0.013883856,-0.1570017,0.11519085,-0.022935161,-0.17749912,-0.21070834,0.6665808,0.034721125,0.02218386,-0.21835275,-0.011123518,1.0254064,-0.093989976,-0.5411498,-0.41446498,-0.04845877,-0.36684227,-0.23004852,-0.29101536,-0.0044368026,0.071922295,-0.07694348,0.13945228,-0.12861252,-0.14391126,0.09601138,0.11785813,0.061335802,-0.13877325,0.5458116,0.021801982,0.3208794,-0.25481302,-0.12556806,-0.69524825,0.046980947,0.031626716,-0.12381939,-0.52055895,-0.24639311,0.1635865,0.2611443,-0.037836667,-0.32183564,0.49724835,-0.001978548,0.18225779,-0.4271783,-0.13101676,0.11989439,-0.009701208,0.16747198,-0.07430114,-0.17846546,-0.10936535,0.081946276,0.046141762,-1.0654172,0.09187239,-0.19805545,0.24909672,0.38800725,0.21864302,0.7387236,-0.099844135,0.040582273,0.00088458805,-0.04920891,0.75867844,0.13017741,-0.3392671,0.104653515,0.25135052,0.13995251,0.27613795,13.86526,-0.16602968,0.5420177,0.37261084,-0.010969181,0.12403555,-0.50035155,-0.22986774,0.030480789,-0.074417815,-0.037579495,-0.102477394,-0.026233267,-0.16707617,0.50422865,-0.2859757,-0.081140555,-0.11368907,-0.017249143,0.14639087,-0.065743014,0.2043473,0.4681796,-0.30481213,0.09457723,0.2690739,0.10434227,0.24218874,0.062437028,-0.18527871,-0.09146789,0.39382207,-0.034608424,-0.035032332,0.08739469,0.5457972,0.17846723,-0.110978,-0.025027059,-0.58434004,0.13364282,-0.0846601,0.22714153,-0.07937243,0.07039536,0.23773983,-0.40473798,0.29091018,0.22633995,-0.43135944,0.015547799,0.50636005,0.22323242,-0.13446555,0.1662773,-0.26330817,-0.30209744,-0.0038927556,-0.5541293,0.10579293,0.14100765,-0.011365034,-0.006768402,-0.75828564,0.0026786618,-0.03760613,-0.07497594,0.003619619,-0.009283718,0.2963353,1.0138166,0.6249459,-0.037474144,-0.116313525,-0.25938576,0.10260139,-0.016934302,-0.037850123,0.042762365,-0.5174017,0.10798339,0.048801962,-0.1087818,-0.26876056,-0.4096217,0.15388957,-0.19333026,0.13410199,0.9762004,0.009210887,-0.2499454,-0.15276177,-0.7078309,-0.12580244,0.24792725,-0.33559793,-0.7513928,0.05973846,0.0381152,0.080190085,-0.2680716,0.108032815,-0.16388609,0.23992836,-0.16007455,-0.3823568,0.14866398,-0.06259743,0.033480037,0.057849564,-0.12207569,-0.294796,-0.18628775,-0.14939435,1.1203216,-0.033304714,0.07175981,-0.14983684,0.1543647,0.14996915,-0.10989036,0.5854857,-0.2749068,-0.101875074,0.13200268,-0.0011674045,0.14373632,0.028654804,-0.07612492,0.2537742,-0.23232193,0.04718844,0.116664045,1.3389032,0.052152745,0.04368745,-0.56313604,-0.019633677,0.27261835,-0.122522615,-0.32987767,-0.021405946,0.17980596,-0.10162397,-0.64064115,-0.11828081,0.5140046,-0.05018438,-0.1424197,0.018973198,-0.0029237124,0.122757845,-0.1423869,-0.18511504,-0.04936508,0.080647275,0.06790318,0.92369145,0.2201771,0.051694322,0.40374357,-0.79689103,0.015693057,-0.40810552,-0.07207954,0.10716683,0.2992987,0.046289038,0.29816112,0.041156493,0.045531556,-0.021435376,-0.27132323,0.21470469,-0.033971637,-0.008138035,0.5144603,-0.5920668,-0.06814151,0.19472934
net.jforum.actions.interceptors.ExtendsAnnotationInterceptor;-1;0.018992662,0.32982397,0.0037909478,0.01972058,0.040117633,-0.08796577,0.11200662,0.31149757,0.24291432,-0.027444484,0.31284785,0.2126983,-0.0055763004,0.20559709,0.06381241,0.021784721,0.21310373,0.27818203,-0.15765631,0.108199015,0.10061346,-0.027046423,0.022709375,-0.16518286,0.2230296,-0.09541304,0.16487725,-0.010455224,0.17645714,0.28112122,0.20584416,-0.10130212,1.0662333,-0.20632118,-0.040452614,-0.35002246,0.17947736,0.07778259,-0.04856406,0.031784408,-0.26607507,-0.08758399,-0.5272333,0.21670659,0.07046556,-0.15578096,0.25435093,0.14385542,-0.17244202,0.0241645,0.07663529,0.18603416,-0.51195383,-0.045547884,0.058527764,0.16939817,-0.729097,0.22998814,0.019291185,0.06355537,-0.2379055,0.21461396,0.077737376,0.16047168,0.88213015,0.059723224,0.19664161,0.5345588,-0.34630585,0.080310464,0.07524839,-0.07554955,-0.044440713,-0.22199674,-0.30572394,-0.043794043,0.23942176,-0.41448358,0.14408101,0.04943682,0.32306787,-0.012638015,0.38348904,0.48846358,0.074585006,0.16000727,0.08670402,0.054107994,-0.51313055,-0.038532883,0.11871292,0.17014971,0.2918507,0.14616881,0.11277711,0.27008408,0.15006158,-0.42571336,0.14033586,0.21521944,-0.12987658,-0.13166045,0.22905225,0.1755439,-0.0014239987,-0.0891606,0.31033328,0.23634909,0.24579081,-0.14775391,-0.061248742,-0.21441534,0.026244087,0.03435166,0.13377194,0.07170263,0.024051992,0.3086013,-0.16274185,0.10009694,-0.22170371,0.279798,-0.15081455,0.42264566,0.034236148,0.17332141,-0.3700042,-0.28213754,-0.053428937,-0.014422423,-0.6140851,-0.8925802,-0.117031194,-0.057021167,0.22042957,0.106073335,-0.010854225,0.27026293,0.032790434,-0.18006383,-0.36464372,0.09466626,-0.13944618,0.15569057,-0.14491895,-0.09063307,-0.07428205,-0.03868553,-0.055870097,-0.5027136,-0.21293014,-0.031016717,0.75307643,-0.065099575,0.057781067,-0.64731795,0.2889508,-0.18770844,0.18715541,-0.2996458,0.027964802,-0.12952271,0.3152211,0.24966557,-1.58156e-05,0.13674407,-0.07027883,-0.14371003,0.021607056,-0.009463078,-0.11173909,-0.014198248,-0.59405285,0.13661611,-0.16298664,0.19642869,-0.09885885,-0.041720916,-0.10300106,0.6708981,-0.09563413,-0.17719762,0.057317164,-0.20148033,-0.0800651,0.06318829,0.16084792,0.2198662,0.07991885,-0.06455721,-0.13397129,0.1625508,0.13515835,0.2320721,0.36406466,-0.10718467,-0.044300836,0.11193545,0.4828873,-0.0619668,-0.112329654,0.048651457,0.43823895,-0.11669869,0.3946576,0.20884918,-0.11224988,0.009536841,0.29407156,0.9397528,1.0283643,0.08465617,-0.117157176,-0.035018943,-0.28863811,-0.109277956,-0.16544682,-0.35604382,-0.08749205,-0.37424365,-0.86349356,-0.033199444,-0.22473393,-0.25502717,0.091404766,-0.004664166,0.5452996,-0.075847074,-0.011851594,0.13526356,0.13703848,0.21030018,-0.2829375,0.103104286,0.2124847,-0.227179,0.12588134,0.14404523,0.026794337,-0.63194084,0.10837463,0.01585153,0.07455763,0.24670416,-0.14824854,-0.3641572,-0.048264142,0.33493662,-0.14874144,0.25456223,-0.036001757,-0.32399023,0.06243229,-0.019589078,0.13318056,-0.41327137,0.018016746,-0.012353351,-0.1283947,1.305873,-0.096448764,0.038650505,0.14803128,-0.21795239,-0.022988131,-0.33711803,0.013122431,0.12603116,-0.050801486,0.13785532,0.5958713,0.046119366,-0.11545091,0.16816641,0.04017042,0.02716703,-0.4216549,0.16227353,-0.2846896,0.0840889,-0.1693074,-0.12351703,0.05929632,0.017591799,0.16738118,-0.19199485,-0.28866926,0.18902569,-0.0033211142,0.054983072,0.3138351,-0.14810066,0.65503514,-0.008620677,-0.15435512,0.24743636,0.08086858,0.005736222,0.10173843,-0.4024692,0.25983053,0.3321818,-0.27483898,-0.091298275,-0.30043972,-0.1108092,-0.3240953,0.020460727,0.17145152,-0.08190136,-0.1696025,-0.3169052,-0.26279083,0.042287543,0.04640882,-0.01174819,0.03776324,0.050171334,-0.18031906,-0.04442304,0.19913815,-0.23449963,0.18518558,-0.57488286,-0.26696435,0.5605384,0.062527195,-0.15331692,-0.70635235,0.5195743,-0.10342048,0.1859931,-0.23273912,0.5176201,-0.55783147,-0.064907625,0.6067716,-0.05460772,0.007898252,-0.06273381,-0.7881303,0.26360038,-0.30564064,-0.0053371834,-0.19782378,0.20234148,-0.07251289,-0.10934292,0.3454815,-0.0075819087,-0.095619984,-0.50338244,0.028546225,-0.06281889,0.17175078,0.9591423,0.4262258,0.051053673,-0.1285718,-0.19815175,0.09778205,0.25936133,5.9201047e-05,1.0255904,0.34555948,-0.22719495,-0.5215247,-0.020007698,-0.08273783,0.32501268,-0.15325867,0.26984763,0.044092942,0.028803542,0.24997239,-0.072697334,-0.25516254,0.11318742,-0.42106113,-0.15361474,-0.421984,0.057985984,0.1434657,0.006493341,0.3124487,-1.445493,0.33566153,-0.26687792,0.57163185,0.072896294,-0.05118763,-0.0858698,0.3095128,0.03482077,-0.07077168,0.061763797,0.33635977,0.03751612,-0.42169583,-0.08293335,0.02200383,0.012975238,0.24266768,0.17306761,0.07701813,0.21071784,-0.46304965,-0.055120382,-0.08127352,0.5100274,-0.11604914,0.9749288,-0.20292461,-0.29652855,-0.065217614,0.14591806,0.25920653,-0.1425234,-0.052121747,-0.16432479,0.1360668,0.019531911,0.428433,-0.27356339,0.1558516,0.08657376,-0.062154632,0.05712102,0.22725616,-0.12181642,-0.005151209,-0.0968721,-0.041021954,0.36427894,-0.08721631,0.045197308,0.16037099,-0.37478027,-0.14206424,0.02734071,0.20222552,0.02484549,0.11810286,0.20562437,-0.08869242,0.021125225,0.13583395,0.6800773,0.30770865,0.007095602,-0.15515146,0.114324585,0.1297406,-1.307863,0.53122824,0.14786385,0.2075406,-0.11557554,0.17134939,0.54593796,0.091293156,0.3613561,0.0038328343,-0.12856647,-0.14411135,-1.1002134,0.09574702,-0.088281915,-0.1766094,0.3851135,-0.37558788,0.17948434,0.066990346,0.35449684,0.020475198,-0.013890097,-0.12770517,1.0361696,-0.1274637,0.87768066,-0.11204619,-0.1644049,0.13662542,-0.34196806,-0.16310625,0.016986351,0.05050568,0.075652435,-0.052706167,-0.066219226,-0.37507394,-0.28051487,0.03269152,0.15509778,0.3779997,0.017002096,0.051169902,0.26910365,-0.0495129,0.42818695,0.08259225,0.16367343,0.22878142,1.0244125,0.023233948,-0.15017462,-0.060199354,0.4443924,-0.104402445,-0.3511003,-0.20277107,0.21585803,0.48385176,-0.013938596,-0.15743823,0.11584905,-0.022536913,-0.17635417,-0.21126802,0.66704977,0.03459411,0.021929806,-0.21727243,-0.010628551,1.0247036,-0.09443504,-0.53966,-0.41472036,-0.049179036,-0.36466578,-0.22973394,-0.2912465,-0.0045664366,0.0719377,-0.075014286,0.13980062,-0.12841882,-0.14333756,0.094261,0.118342884,0.061537985,-0.13828634,0.5448369,0.021392202,0.3189892,-0.25606808,-0.12571149,-0.69657785,0.04691259,0.031848583,-0.12295784,-0.51980454,-0.24500981,0.16357811,0.2623786,-0.037212018,-0.32132164,0.49635848,-0.0015949829,0.18221138,-0.42734104,-0.13084197,0.12080896,-0.010604326,0.16670379,-0.07443483,-0.17883594,-0.109909825,0.081941046,0.045300268,-1.0640664,0.09119974,-0.19892605,0.25019524,0.38731906,0.21770376,0.7383226,-0.09996701,0.03776844,0.00085581926,-0.049723364,0.75886667,0.13001542,-0.3393784,0.10564947,0.2503132,0.13968569,0.2776888,13.863632,-0.16576426,0.5421522,0.37307563,-0.011107588,0.12452561,-0.49944785,-0.23030508,0.03121812,-0.07444486,-0.037556514,-0.10237905,-0.027096959,-0.1674439,0.5032275,-0.28570807,-0.08154815,-0.11297081,-0.017242854,0.145523,-0.065219246,0.20474812,0.46834806,-0.30533165,0.09507144,0.27115563,0.10387397,0.24301057,0.062127538,-0.18557468,-0.091610774,0.39516094,-0.033459876,-0.034872293,0.08712107,0.54537445,0.17776248,-0.111464016,-0.024837127,-0.58459604,0.13438426,-0.08365858,0.2275895,-0.0796334,0.07020451,0.23845701,-0.40450233,0.2922952,0.22676077,-0.4312707,0.016272115,0.50592464,0.2240179,-0.13456139,0.16603588,-0.26456755,-0.3026606,-0.0034347414,-0.55459493,0.106762595,0.14113048,-0.011441077,-0.00629272,-0.7582369,0.0021178059,-0.038172808,-0.074978195,0.0046414253,-0.009765783,0.29739517,1.013517,0.62442136,-0.03820344,-0.116420984,-0.26042533,0.10325603,-0.015673425,-0.036622822,0.04249968,-0.5186791,0.10658748,0.04937163,-0.108162545,-0.2686806,-0.40977505,0.15432869,-0.19376436,0.1335242,0.97694355,0.0089031365,-0.25040168,-0.15244743,-0.7089247,-0.12670198,0.24834883,-0.3365885,-0.7501219,0.059319153,0.0390146,0.08019562,-0.26744446,0.107843146,-0.16313727,0.239957,-0.15951523,-0.38241437,0.14903724,-0.06218049,0.03172963,0.057965994,-0.12222397,-0.2962626,-0.18648788,-0.14901355,1.1185623,-0.032532122,0.071929716,-0.1491826,0.15444714,0.14947635,-0.10936951,0.5858859,-0.27477375,-0.101314545,0.13137603,-0.000944223,0.14422151,0.02959476,-0.07486809,0.25400934,-0.2320381,0.04762838,0.117258534,1.3390601,0.052523382,0.042459063,-0.56435186,-0.019105943,0.27374518,-0.12196722,-0.33000997,-0.020203264,0.1801677,-0.10280044,-0.6410673,-0.120034635,0.5126558,-0.050302733,-0.14288314,0.019601116,-0.0032654756,0.12200373,-0.1429086,-0.1850203,-0.04988979,0.0816203,0.06712512,0.9236578,0.21951027,0.05246754,0.40348682,-0.79841256,0.01599342,-0.40869287,-0.07215001,0.10623706,0.2999924,0.046683893,0.2985264,0.040067606,0.046581563,-0.021481205,-0.27072793,0.21423407,-0.034253728,-0.008660517,0.51560944,-0.59230804,-0.067153946,0.19403885
net.jforum.actions.interceptors.MethodSecurityInterceptor;-1;0.016229412,0.33869326,-0.0068708276,0.015434469,0.049624436,-0.06571748,0.10658591,0.30777657,0.24451357,-0.025746332,0.30134884,0.23565227,-0.009067624,0.23208496,0.04551015,0.048708927,0.23101363,0.28053737,-0.15610257,0.12816583,0.1094002,-0.051326394,0.014796347,-0.1682944,0.2176655,-0.07881284,0.1704604,-0.012570948,0.17801481,0.28448868,0.18990174,-0.11727814,1.071844,-0.18236634,-0.05764974,-0.33456287,0.17026125,0.10243559,-0.04904822,0.020657577,-0.26302904,-0.08637777,-0.54315877,0.22121716,0.05055051,-0.13663672,0.23664503,0.11641084,-0.17890956,0.013003355,0.07002547,0.18694958,-0.5083357,-0.03678078,0.060155194,0.17252983,-0.7294934,0.20943585,0.00924511,0.06437842,-0.20188172,0.16470882,0.070803724,0.13466482,0.870778,0.055475604,0.20344347,0.54574305,-0.3252955,0.06390907,0.06471086,-0.057443395,-0.02224111,-0.21440527,-0.29785922,-0.021828715,0.21823026,-0.3940065,0.13778299,0.057108086,0.30141374,-0.0436166,0.37571746,0.49000543,0.049022235,0.1559,0.08111413,0.06282174,-0.5245442,-0.035635523,0.10757708,0.18991207,0.2899633,0.12432844,0.10531253,0.27738187,0.13493861,-0.4046961,0.13704157,0.22974102,-0.11387779,-0.12852204,0.22084817,0.1640005,-0.021863544,-0.10619088,0.31369004,0.23372611,0.254193,-0.12606516,-0.057230495,-0.19938633,0.021985767,0.019129392,0.14666735,0.03608055,0.00892279,0.3120373,-0.16887783,0.11877601,-0.23298006,0.29224154,-0.12661725,0.41061878,0.05872344,0.18182686,-0.35230434,-0.28227073,-0.044460658,-0.015260439,-0.6130078,-0.8845818,-0.119816676,-0.068632945,0.2474102,0.09315055,-0.004961516,0.2555688,0.0660537,-0.16251029,-0.37485796,0.10191955,-0.12816076,0.14182527,-0.13296266,-0.105246045,-0.06954522,-0.033606134,-0.054109942,-0.49379018,-0.21312606,-0.022974476,0.7547058,-0.082226306,0.06073894,-0.65125996,0.27151898,-0.17037204,0.17194061,-0.31210414,0.052838042,-0.14272676,0.3124937,0.25087437,0.013746864,0.12033492,-0.0661804,-0.1477013,0.038201664,0.008760659,-0.11289385,-0.012914436,-0.58336294,0.12175028,-0.15268944,0.19357422,-0.111332454,-0.034041308,-0.086932875,0.676945,-0.110316806,-0.17498967,0.06594558,-0.19395795,-0.08695806,0.08143751,0.15738058,0.2044947,0.086696476,-0.060424436,-0.13312007,0.16043471,0.13207799,0.22376388,0.34625962,-0.10040004,-0.022194497,0.11207771,0.49061054,-0.051185362,-0.11244366,0.024554556,0.43381923,-0.09788348,0.39094317,0.1948924,-0.14124136,0.0060318774,0.27814052,0.952265,1.0188682,0.089453936,-0.12298958,-0.04313387,-0.28370032,-0.107425325,-0.14324288,-0.3603783,-0.096451655,-0.3827892,-0.8622539,-0.041290164,-0.24010108,-0.25241867,0.07648387,-0.0009739916,0.532715,-0.07863249,-0.013810239,0.12790148,0.13945948,0.2107027,-0.27741572,0.10559875,0.20178285,-0.22265108,0.14534791,0.14426164,0.0061230115,-0.6351607,0.08535083,-0.0094210375,0.09795991,0.24370112,-0.17025751,-0.34929854,-0.03489324,0.36860687,-0.14156929,0.24051033,-0.04142639,-0.3081322,0.039668806,-0.0011204783,0.10304483,-0.40854526,0.0038990774,-0.029985853,-0.13084786,1.2886963,-0.08371486,0.031670168,0.15583089,-0.24454981,-0.027977878,-0.33850533,0.005173876,0.11360985,-0.05063912,0.15079063,0.6103434,0.038259216,-0.12930064,0.16230139,0.038395476,0.027391337,-0.41712543,0.17272373,-0.2653216,0.07949602,-0.15818739,-0.13475585,0.048056874,0.024763962,0.17836615,-0.17831221,-0.26708314,0.18601981,0.0064803725,0.051361244,0.30997577,-0.15677759,0.62941676,-0.014921239,-0.15850417,0.2604901,0.08925749,0.008867396,0.09447259,-0.39503673,0.2826192,0.2865611,-0.2693258,-0.086765155,-0.2975747,-0.10020846,-0.31480098,0.014140694,0.17882176,-0.07520776,-0.17277361,-0.3014335,-0.2432606,0.04279871,0.026883757,-0.017638387,0.029038582,0.07091144,-0.1797434,-0.049421206,0.20278013,-0.22737765,0.15803587,-0.57955825,-0.27991658,0.5531002,0.074912295,-0.15438971,-0.69758874,0.5049267,-0.124470696,0.18461892,-0.2315572,0.52338,-0.56485724,-0.05406746,0.60325897,-0.04506488,0.010911521,-0.055137,-0.7738632,0.25619996,-0.28253376,0.007945461,-0.1940607,0.21239913,-0.067408286,-0.1034767,0.33459857,-0.011843558,-0.10006681,-0.5050311,0.022623042,-0.0698345,0.179371,0.9645845,0.42808875,0.04413302,-0.1288868,-0.21069103,0.09294802,0.26545665,-0.012601426,1.0156054,0.3504648,-0.23524424,-0.53839225,-0.012833787,-0.078243785,0.32437545,-0.14076026,0.23925683,0.06735681,0.039383613,0.26951018,-0.06031326,-0.28279418,0.11920299,-0.39600787,-0.1332521,-0.41118002,0.05723695,0.14814584,0.0036448657,0.32259223,-1.4283262,0.33599558,-0.2239746,0.5629058,0.07250723,-0.054749023,-0.047239546,0.31438503,0.021787979,-0.059463028,0.06786108,0.35203657,0.078730755,-0.4301236,-0.099586606,0.018776724,0.008067821,0.24166603,0.18039879,0.07731856,0.23536669,-0.45984498,-0.050662994,-0.06910593,0.49015534,-0.12392573,0.98351187,-0.20897374,-0.27218583,-0.07996455,0.1569931,0.25481483,-0.1553255,-0.064544864,-0.14639895,0.14760089,0.0053452705,0.43487665,-0.25664982,0.16469187,0.087758414,-0.0462823,0.052080132,0.2092459,-0.11541485,0.005382685,-0.1015369,-0.02876848,0.3379637,-0.08946666,0.047272723,0.14714351,-0.36760944,-0.13324685,-0.0021130936,0.19592749,0.021433542,0.1311295,0.21667252,-0.10057418,0.029436966,0.122385174,0.6845273,0.3050009,0.0081639,-0.14930715,0.13224487,0.115040615,-1.2664257,0.52024686,0.12766534,0.16666089,-0.09361995,0.17554544,0.5497387,0.06638276,0.35014102,-0.009662673,-0.12216513,-0.14083335,-1.0754513,0.09397004,-0.089710295,-0.1640581,0.38150254,-0.3794063,0.16699867,0.055444952,0.36052182,0.0095898975,-0.03605281,-0.12260562,1.0228683,-0.14176132,0.88179755,-0.10906325,-0.1736623,0.12202528,-0.3495649,-0.15968731,0.023239037,0.04087167,0.08177931,-0.03828259,-0.056716792,-0.3803785,-0.25724262,0.03911355,0.15010102,0.3804358,0.019373095,0.062189512,0.24871303,-0.07706217,0.42867848,0.08489478,0.1598661,0.22640026,1.0205264,0.006633324,-0.13564017,-0.07177671,0.44983742,-0.100523375,-0.34122008,-0.19822015,0.21375665,0.46719444,-0.011110008,-0.16544421,0.10301995,-0.02990175,-0.1568702,-0.21755786,0.662805,0.049460985,0.0004753312,-0.20849068,-0.00040625938,1.0411246,-0.0815172,-0.55082643,-0.4207624,-0.03538854,-0.38060454,-0.21567345,-0.2916058,-0.009014305,0.072375685,-0.062808715,0.122920096,-0.11842686,-0.13685685,0.07926899,0.116162084,0.06930689,-0.13824038,0.541373,0.0132438,0.31505027,-0.23047428,-0.11767529,-0.67780155,0.041063834,0.017887922,-0.13605282,-0.5361172,-0.25478166,0.16325442,0.2575558,-0.036193613,-0.3087024,0.4902782,-0.015374849,0.18778446,-0.40795165,-0.13049506,0.11991153,-0.019635411,0.15597478,-0.08242544,-0.15854213,-0.10831719,0.07255073,0.06000718,-1.0382457,0.10062489,-0.19344363,0.22137086,0.3822437,0.21765605,0.732208,-0.09121265,0.08995115,-0.0039583826,-0.035295002,0.7687743,0.13830994,-0.33045596,0.09459333,0.25397688,0.13915113,0.27115145,13.827979,-0.16899145,0.5266756,0.3673269,-0.022639783,0.11164046,-0.4992452,-0.22908421,0.02344822,-0.076932214,-0.033160698,-0.110409066,-0.02207027,-0.14375718,0.52029574,-0.28791013,-0.081272095,-0.119526595,-0.011533912,0.14633182,-0.061399236,0.1999935,0.43645263,-0.31768516,0.086455785,0.2661541,0.113417916,0.22110263,0.0670126,-0.16854186,-0.09620242,0.3819217,-0.046921734,-0.029267887,0.09009122,0.56028795,0.17002177,-0.13247634,-0.03725291,-0.5671602,0.11658198,-0.093887195,0.22081251,-0.068221904,0.07352524,0.23200558,-0.3972986,0.27817157,0.19350033,-0.45080274,0.0074963146,0.4877418,0.21941625,-0.11004135,0.16235511,-0.28603804,-0.28869814,-0.0007594819,-0.55835783,0.11973236,0.13887008,-0.0022769093,-0.003126125,-0.7477305,-0.014514615,-0.024796518,-0.09622872,-0.012095967,-0.0016800559,0.3054997,1.0264453,0.64368933,-0.023552645,-0.12602976,-0.23749575,0.11217398,-0.019112626,-0.049368914,0.03371871,-0.49969915,0.11059699,0.05140302,-0.114761904,-0.26777273,-0.41156796,0.14880267,-0.16083182,0.1264971,0.9668492,-0.000968676,-0.25792444,-0.17932506,-0.71624315,-0.12293778,0.25401306,-0.33328232,-0.75021195,0.041920483,0.03064367,0.07509044,-0.25282493,0.1348074,-0.1555821,0.22968867,-0.16909684,-0.36691922,0.12294407,-0.07177118,0.043668337,0.058323655,-0.116028816,-0.27534017,-0.17573832,-0.13894442,1.1243271,-0.046872094,0.059893932,-0.14962038,0.13900857,0.14860347,-0.1188574,0.58489215,-0.26406124,-0.09331193,0.12688234,0.005030554,0.1334029,0.022786992,-0.08649988,0.26191536,-0.25417686,0.040165983,0.1093055,1.3207896,0.052193742,0.054122917,-0.5658357,-0.014221124,0.26336157,-0.10515879,-0.31873068,-0.01693245,0.17722595,-0.087997235,-0.61527014,-0.095284365,0.533214,-0.047301214,-0.16364764,0.030887624,0.015163186,0.1460124,-0.1269459,-0.19671759,-0.039111394,0.08103641,0.08230031,0.91677576,0.22271073,0.047921274,0.38386005,-0.7592224,0.0056147324,-0.38649327,-0.068489924,0.1165902,0.2920215,0.03504679,0.26394448,0.049581315,0.04731157,-0.024704967,-0.24092002,0.20834865,-0.0449331,0.0018486793,0.48893026,-0.58209854,-0.06687862,0.20920494
net.jforum.actions.interceptors.SecurityInterceptor;-1;0.019121943,0.33012283,0.0043745595,0.015142064,0.040845897,-0.08371512,0.11170686,0.30868956,0.23970552,-0.027617788,0.3132366,0.21452741,-0.0068388097,0.20973359,0.06269101,0.022263823,0.21074235,0.27528298,-0.15532084,0.11036893,0.101650454,-0.024778642,0.022141082,-0.16583508,0.22081463,-0.096443154,0.16380101,-0.007965476,0.17758185,0.27791747,0.20728792,-0.09725573,1.0642399,-0.2074775,-0.04042233,-0.3508207,0.18071592,0.076273076,-0.05059914,0.030882597,-0.2636675,-0.0902768,-0.5270249,0.2160666,0.07065007,-0.15824932,0.2535346,0.14552729,-0.17275448,0.027573103,0.07654768,0.18704933,-0.5113961,-0.046162758,0.05718252,0.16863026,-0.72857505,0.22726345,0.017509026,0.06611707,-0.2393127,0.2116497,0.07583123,0.16351165,0.8812154,0.061220776,0.1987076,0.53208494,-0.3485621,0.0795261,0.076128855,-0.07503586,-0.044371437,-0.22536261,-0.3037993,-0.045918237,0.24051273,-0.41457525,0.14675254,0.049997415,0.3238459,-0.011557896,0.38795373,0.49328938,0.07179458,0.15857798,0.087259434,0.052504767,-0.5142483,-0.037232473,0.12032378,0.16842079,0.2936031,0.14604856,0.11313965,0.2688193,0.1543693,-0.42302522,0.14295949,0.21534954,-0.12793732,-0.13259894,0.22987632,0.17546807,-0.0003215843,-0.09025371,0.3104239,0.23478638,0.24435838,-0.15092055,-0.059628323,-0.2128266,0.024107391,0.034187723,0.13285534,0.07367733,0.025523031,0.3088427,-0.16371016,0.099007785,-0.2163031,0.2830089,-0.14994039,0.42084178,0.033798803,0.17057168,-0.36931777,-0.28182104,-0.054086316,-0.014389527,-0.61020803,-0.89139795,-0.11593873,-0.060163576,0.21876939,0.1070304,-0.009269946,0.26977447,0.033759084,-0.1832933,-0.36538395,0.0946339,-0.13826662,0.1555473,-0.1484407,-0.09377954,-0.073923536,-0.04037082,-0.052795183,-0.50475436,-0.21272385,-0.027783385,0.7487683,-0.06402419,0.055604164,-0.65146685,0.29040268,-0.1895417,0.19017465,-0.29823992,0.03034708,-0.12930037,0.31616345,0.24773078,-0.0013158978,0.13903761,-0.0738005,-0.1458215,0.020036545,-0.012292326,-0.1104272,-0.012634866,-0.5934425,0.13511916,-0.1602546,0.19620807,-0.096172005,-0.04139494,-0.10297396,0.6662474,-0.09578609,-0.17796956,0.060251743,-0.20039897,-0.077803336,0.062101632,0.1619262,0.21610975,0.07768103,-0.066250764,-0.13498642,0.16244699,0.13907848,0.23638807,0.36358416,-0.10742391,-0.0426261,0.110267125,0.48702154,-0.063430585,-0.1096111,0.05210711,0.43819925,-0.116174676,0.39281723,0.20674686,-0.1136238,0.010846179,0.29637298,0.9428653,1.0273262,0.08177238,-0.117712975,-0.032021023,-0.2908304,-0.11245523,-0.16792075,-0.3640835,-0.08469466,-0.3781015,-0.861034,-0.031637814,-0.21910143,-0.25554624,0.09736811,-0.0023183746,0.5430286,-0.07742372,-0.0119700795,0.13211332,0.13995361,0.2049098,-0.28176567,0.10048494,0.2128857,-0.22928335,0.12427009,0.14644216,0.026223937,-0.63051474,0.1078189,0.01629997,0.07486952,0.2458822,-0.14848983,-0.36160776,-0.04714432,0.3364414,-0.14947689,0.25080904,-0.035537552,-0.32400686,0.062259305,-0.017387707,0.13710254,-0.41414675,0.015210737,-0.014169045,-0.13240284,1.3042899,-0.099190354,0.037249595,0.14773889,-0.21897596,-0.019507406,-0.33994272,0.011960792,0.12825052,-0.04970057,0.1375344,0.59575874,0.045496676,-0.11997676,0.16907948,0.03885771,0.025526518,-0.42622057,0.16309851,-0.28528103,0.0870892,-0.16708769,-0.12343362,0.056599658,0.018790836,0.16479352,-0.1929958,-0.2891706,0.18905689,-0.0027563998,0.055533957,0.3133849,-0.14632331,0.65854514,-0.009727823,-0.1548167,0.24798669,0.081599645,0.007550203,0.10149429,-0.40369025,0.2612502,0.3352534,-0.27866033,-0.09190226,-0.30187264,-0.106163196,-0.32763657,0.021780225,0.16944271,-0.0812623,-0.16812877,-0.31882843,-0.26068133,0.040807977,0.046452284,-0.0106676025,0.036946688,0.050741643,-0.1819592,-0.045072105,0.20077543,-0.23588248,0.18409272,-0.5790003,-0.2634988,0.5624214,0.06224532,-0.15405563,-0.7030535,0.5167108,-0.10064056,0.18457086,-0.23254299,0.51983863,-0.5558097,-0.06455756,0.60570735,-0.052142296,0.008584537,-0.06334049,-0.7877622,0.26465094,-0.3075107,-0.0055289515,-0.1988054,0.203637,-0.07301566,-0.11026137,0.3447906,-0.0063129663,-0.09138438,-0.5037606,0.027056077,-0.059783127,0.16991396,0.95392734,0.4257218,0.05457139,-0.12864526,-0.20324588,0.10297612,0.25721118,0.0009846889,1.0226363,0.3454399,-0.22948863,-0.520377,-0.02031297,-0.08519698,0.3275237,-0.15113735,0.271327,0.042772185,0.026453754,0.2454562,-0.071262516,-0.2577903,0.11880344,-0.41615176,-0.15120326,-0.42382216,0.057755888,0.14067578,0.007844666,0.30718827,-1.4459177,0.33513436,-0.2675911,0.5715708,0.07327074,-0.047643106,-0.08433768,0.30580541,0.0381572,-0.07040945,0.058029305,0.339305,0.031327635,-0.42443,-0.08002836,0.023737818,0.015530043,0.24057175,0.17107034,0.07765821,0.20939164,-0.46333942,-0.051999856,-0.07664776,0.5113964,-0.11599785,0.9718726,-0.20486848,-0.29709694,-0.06713583,0.14511551,0.25968745,-0.13866173,-0.052982662,-0.16169615,0.13329904,0.021021059,0.4284763,-0.27491608,0.15343304,0.086493224,-0.061081592,0.059071172,0.22738452,-0.12679318,-0.0044485186,-0.09791892,-0.044209134,0.3652371,-0.08829088,0.046737175,0.16303001,-0.37228394,-0.14069772,0.025742866,0.20247121,0.022557164,0.1147333,0.20837586,-0.08901631,0.02170966,0.13737364,0.6776373,0.30873597,0.0061600073,-0.15434921,0.116499685,0.13007104,-1.3205696,0.5314094,0.14621663,0.21017976,-0.11267849,0.17047076,0.5463743,0.09379075,0.36242366,0.0027354157,-0.12625118,-0.14195858,-1.0977582,0.09611175,-0.08610755,-0.17677361,0.38501456,-0.37565395,0.17868252,0.0683518,0.3572198,0.020020619,-0.015013668,-0.12531377,1.0358458,-0.12743382,0.87389344,-0.11156857,-0.16240592,0.14117992,-0.33981183,-0.16257757,0.019410755,0.04758225,0.07451243,-0.049944986,-0.06462097,-0.37556267,-0.28256264,0.033403877,0.15757118,0.37798432,0.016448773,0.05086455,0.27184007,-0.050708372,0.42690697,0.083960034,0.16528082,0.22928321,1.0255561,0.022807231,-0.15145572,-0.058756858,0.4479537,-0.10412326,-0.3501637,-0.20445083,0.2134945,0.48402175,-0.013783391,-0.15940575,0.117129534,-0.021767484,-0.17586082,-0.21582155,0.6696301,0.03701715,0.02052988,-0.21368176,-0.009443166,1.0242715,-0.094808735,-0.5374686,-0.41658616,-0.049958292,-0.3644463,-0.23057956,-0.29062188,-0.0036430229,0.07312463,-0.0730862,0.14049965,-0.12744965,-0.14145832,0.08926492,0.118033625,0.06008609,-0.13701816,0.5446798,0.019225432,0.31546235,-0.25747052,-0.12755102,-0.69626564,0.04673783,0.0341462,-0.123664625,-0.52040416,-0.24280922,0.16211532,0.26746187,-0.037039336,-0.31934527,0.49392673,-0.0003554423,0.17922492,-0.4269383,-0.12604664,0.12304529,-0.0123669235,0.16526167,-0.075908475,-0.18116723,-0.11223903,0.08267606,0.044034433,-1.0616685,0.09208962,-0.20121598,0.2557486,0.38719323,0.21624939,0.7388072,-0.10020098,0.032833517,0.00058529543,-0.050290346,0.75604653,0.13315791,-0.3382665,0.10701225,0.24604857,0.142767,0.27520898,13.867645,-0.16560338,0.5405546,0.37428465,-0.012898169,0.12723497,-0.49820194,-0.23491305,0.033206094,-0.07445602,-0.03722861,-0.10382328,-0.028628318,-0.16653107,0.50164074,-0.28791812,-0.081918776,-0.11646897,-0.012455226,0.14526816,-0.062469423,0.20295857,0.46684468,-0.30605564,0.095677406,0.2750917,0.10201428,0.24832554,0.061168414,-0.18639599,-0.09166636,0.3956937,-0.03392392,-0.03498381,0.08709467,0.546046,0.18008858,-0.11240085,-0.026282618,-0.58213335,0.13651939,-0.080498,0.22655843,-0.08274946,0.067257695,0.23866206,-0.40186444,0.29321787,0.22522517,-0.431277,0.016422577,0.5048042,0.22407961,-0.13577004,0.16356516,-0.26514217,-0.30147547,-0.0055680447,-0.55699563,0.11440379,0.14076507,-0.009735274,-0.002665464,-0.7583459,-0.0020548955,-0.03769816,-0.07603674,0.004725669,-0.012268382,0.29866734,1.0131112,0.62621456,-0.03787282,-0.11516819,-0.259075,0.104523785,-0.010447021,-0.033354346,0.042375054,-0.5225697,0.104671,0.05000204,-0.106381424,-0.27025005,-0.41331807,0.15417,-0.1967255,0.12950231,0.97876626,0.0063726646,-0.25408167,-0.15485243,-0.71087813,-0.12475558,0.2466396,-0.3372394,-0.74638224,0.05900586,0.04049704,0.08096982,-0.26659727,0.10998402,-0.16355602,0.24004523,-0.15704106,-0.38199592,0.15033358,-0.06267336,0.027699217,0.059961732,-0.12148463,-0.29646707,-0.18839554,-0.14834528,1.1152345,-0.029677158,0.06930441,-0.14910014,0.15515101,0.14574517,-0.111035466,0.58671254,-0.27477905,-0.1017299,0.13177466,0.00043842779,0.14306642,0.03272101,-0.077264644,0.25439903,-0.23239964,0.050160095,0.11965766,1.3398557,0.054024566,0.041904468,-0.5682916,-0.017405549,0.27567273,-0.120613046,-0.3318353,-0.017952867,0.17697932,-0.10722468,-0.6386416,-0.123164624,0.5108204,-0.05082349,-0.14390811,0.01977717,-0.0018591856,0.12231752,-0.14372459,-0.18796152,-0.05046775,0.084034584,0.06794391,0.9239392,0.2195226,0.053751517,0.40166393,-0.8011283,0.017287387,-0.410502,-0.07217055,0.10485557,0.29859588,0.047111463,0.29868415,0.037008837,0.04752022,-0.022058628,-0.26648128,0.21047916,-0.035072055,-0.00973632,0.5130384,-0.5937174,-0.065648735,0.19215529
