net.java.cargotracker.application.ApplicationEvents;0;-0.17388542,0.057103988,-0.1438167,0.30756703,0.18000121,-0.22873233,0.35424098,-0.077909626,0.13794804,-0.59126145,0.24521668,0.15919709,0.01069781,-0.04207217,0.5551345,-0.07158296,-0.38247693,-0.14584534,0.07454082,-0.2674127,-0.12652916,-0.28786635,0.1477384,0.118972756,0.3762272,0.067685775,0.43436682,0.65699446,0.27931556,1.1403406,-0.14999111,-0.07772631,2.3240955,-0.2776766,0.111416034,0.1470818,-0.05989176,-0.048540518,0.38986066,-0.0629323,-0.3111807,0.06760132,-1.3830972,0.103622794,0.40479466,-0.14117298,0.00015851791,0.64691144,0.12860593,0.15446547,-0.12312426,-0.13968806,-0.9362575,-0.017360209,-0.18727918,0.4734643,-1.0276557,0.32855248,0.32290193,-0.102497645,-0.372729,-0.39832613,0.15758163,0.02111418,1.8161762,-0.3631194,0.8403432,1.7838017,0.2790142,-0.29864645,-0.051516354,0.37957177,0.072468005,-0.73253345,-0.46524012,-0.27754843,-0.10697299,-1.2683638,-0.71299595,0.20064415,0.5431184,0.16920966,0.17558672,0.3446686,0.16280451,-0.48174077,0.12850536,-0.0018085651,-0.87846464,0.43921375,0.33071148,-0.100823596,1.2874092,0.07628969,0.36543566,0.57101154,0.051776614,-1.069734,-0.17998834,-0.23972395,0.24485359,-0.783161,-0.49808192,-0.7746164,0.26851642,-0.019986512,0.5492156,-0.035814602,-0.07230109,-0.13593212,0.149485,0.17815046,0.074926995,-0.19921552,-0.06948968,0.06429867,0.14906506,0.07898331,-0.1114097,0.28994307,-1.4380329,-0.16629253,-0.38426057,0.9368502,0.1309162,0.090639584,-0.1336377,-0.38171,0.58569574,0.014069589,-1.6149951,-0.7689957,-0.3212854,-0.032919012,0.36856788,-0.07998873,-0.48347887,-0.16895942,-0.36577004,0.254221,-0.99455017,-0.20685042,0.24155691,0.2721544,0.2811321,0.061748195,0.2041001,0.012441521,0.16340601,-0.3088173,-0.9237191,-0.20630549,1.5641491,-0.55032873,-0.5323851,-1.1803147,0.42685524,-0.5415891,-0.2470389,-0.9820333,0.38330436,-0.14230138,0.23726188,0.8314707,0.1941702,0.6526795,0.13726105,-0.53293926,0.055342034,0.47684327,-0.0985609,-0.20584089,-0.9822588,0.3312115,-0.013910618,0.42994818,-0.060178872,0.30181554,0.18678394,2.3771122,-0.16136259,0.1465042,0.08644473,0.20303605,-0.041712552,0.21245377,-0.55942184,-0.05144727,0.27115464,0.09972176,-0.18162772,-0.00869838,0.05774092,-0.006656435,-0.15622582,0.12092095,0.19611411,0.30134484,1.6584955,-0.19572188,-0.061671503,0.00050476764,-0.28887466,-0.22062725,-0.25151017,0.6394574,-0.21514586,0.4143733,0.50584304,1.3425304,2.235914,0.463608,0.3007132,-0.33441526,-1.4285482,0.21632415,-0.32922667,-0.107241675,-0.11392672,-0.34595862,-1.7185438,0.24183846,-0.1968704,-0.5695984,0.09224805,0.35803446,0.14251183,0.43013036,0.15562025,-0.100776166,0.002976741,-0.11215708,0.08064524,0.3204807,-0.9080418,-0.06706898,0.052473996,-0.1998825,-0.28699324,-1.4169796,-0.055877093,-0.072901465,0.3353718,0.5900013,0.60147953,-0.8552119,-0.3770732,0.15677552,-0.30955306,0.33090705,-0.24294205,-0.29452664,0.0596593,0.2541417,-0.5282497,-0.030694434,0.035385348,0.1040365,0.0047131814,2.7502377,-0.2532315,0.52270883,-0.08079839,-0.5957414,-0.05682428,-1.4432441,-0.31086406,-0.12928496,0.6499422,0.62824357,1.787052,0.22574739,0.38944128,0.12527223,-0.3551215,-0.36130884,0.66986907,-0.3915526,-0.83810997,-0.011647314,0.035928257,0.34702703,-0.18898658,0.028024051,0.2223445,-0.19841674,-0.3578017,-0.37008163,-0.12282023,0.28079644,0.722672,-0.7325186,1.5054069,-0.07279269,-0.19628035,-0.19175193,0.053811,0.26388925,0.0024280562,-0.3374879,-0.26706365,0.5330389,0.17456916,-0.40604457,-0.80395275,-0.16728611,-0.7248058,-0.16658685,-0.013748926,-0.091491625,0.3674401,-1.1331977,-0.041354522,-0.08202189,-0.29398063,0.28406683,0.16838887,0.16386564,-0.117938474,0.03248264,-0.0894117,-0.21051411,1.1644723,-1.4652367,-0.093604885,1.0711585,0.29834947,0.08207945,-2.0622115,0.88297904,-0.21780601,-0.21312891,-0.09584985,1.4031882,-1.2973405,-0.12331665,0.56176436,-0.39936462,0.6236327,-0.024635933,-1.5399984,-0.12243265,-0.5522195,0.4793952,-0.14553405,1.3678136,0.13314791,-0.4895811,1.313552,0.17368905,-0.6433174,-0.8375618,-0.20572998,-0.13871798,-0.4250797,2.9135122,0.11621817,-0.28955135,-0.42486766,-0.30270174,0.40589494,0.2167945,-0.31997743,1.983514,0.88519084,-0.5601818,-0.88081986,-0.27697483,0.32537532,-0.07766316,0.25938302,0.053674854,-0.124079145,-0.24839333,0.45388368,-0.40069377,-0.25348604,0.4575618,-0.18022934,-0.29258525,-1.2623839,-0.052712448,-0.2539529,0.31294504,-0.30568683,-2.6899247,0.4270605,0.0014463953,1.5920211,0.43933174,-0.19839452,-0.451266,0.19173521,0.271685,0.062465303,-0.080718406,-0.3400771,-0.09694908,-1.1374656,-0.23138337,-0.01404032,-0.14072561,0.23359188,0.5082653,0.20109455,0.5915214,-0.1776953,-0.18721181,0.12874171,0.4515843,-0.41654328,2.1246643,-0.02637192,0.19307022,-0.15110582,0.41048524,0.36311722,0.1525457,-0.24537005,0.36553755,-0.14142376,0.3257315,0.7535655,-0.21378136,-0.30790883,0.2277732,-0.014334694,-0.11629568,-0.26546866,-0.40633938,-0.011085348,0.66366,0.4144403,0.032184906,-0.11584582,-0.24862312,-0.10084641,-0.39281845,0.7166954,-0.045293607,0.27069512,-0.0691223,0.0036898835,-0.040155075,-1.1104636,0.28176934,0.5803215,2.0727065,-0.17369588,0.18854521,-0.1425609,0.024018783,-0.16334052,-0.1124302,0.7353548,-0.11866706,-0.08759477,0.19104192,0.2389532,0.32573205,0.12331012,-0.3087118,-0.22290345,-0.31319514,0.08736295,-1.7925681,0.28387687,-0.3345622,-0.35612985,0.1635473,-1.114485,0.74947083,-0.13643308,-0.30182946,0.14110321,0.035265796,-0.2033506,1.5421174,0.48567817,2.1701653,0.20918514,0.034048613,0.6377825,-1.2874606,0.41741723,-0.60006094,0.45606703,0.26136833,-0.39743268,-0.7805129,0.056082934,0.45337015,0.32101133,0.23597999,-0.28582904,0.40860713,-0.6603466,0.8232895,0.0054732184,0.99148536,0.5035954,0.18601787,0.4720972,1.5542741,0.18828666,-0.11752572,-0.011363014,1.7161231,0.11938407,-0.30555987,0.08794812,0.0024337533,1.0084863,0.5073899,-0.07936148,0.1175536,-0.33858916,-0.20768404,0.14701611,1.6357181,0.036254488,0.16434176,0.094700836,0.45562208,1.798169,-0.08548764,-1.1792436,-0.6217723,0.57433337,-0.54399943,0.043896984,0.03675066,0.0073394454,-0.3071581,0.9731043,0.016291758,0.2783377,-0.64959866,0.13693643,-0.31709525,0.32086417,0.06822241,1.3652532,-0.06936303,0.50387704,-0.23742527,-0.027555866,-1.9273467,-0.1395662,-0.23376442,-0.35302562,-0.085787214,-0.26366362,-0.2486856,0.20236209,0.103592105,0.35537156,0.18332198,-0.30559865,0.4553407,-0.24742252,0.14104338,0.2508337,-0.042778507,-0.13307303,-0.005387078,0.13436092,0.041507494,-0.056140475,-0.034463108,-2.3304253,-0.16826838,0.016289528,0.375154,-0.056740355,0.3174183,1.2876627,-0.09488098,-0.2072655,0.87927526,-0.4620546,2.017676,-0.0023012299,-0.5908155,0.10323918,0.3510922,-0.686785,0.8271834,13.5767,-0.14152583,1.6064829,0.85498637,0.15828581,0.11288494,-1.5238912,-0.07654554,-0.15095371,0.07033811,0.040765505,0.107894644,0.00063861697,0.37566844,0.4026388,-0.19518724,-0.48201677,0.38454887,-0.16575855,0.10020582,-0.3578561,-0.0024006409,0.7509492,-0.67969376,-0.18054469,-0.21110597,0.028079081,0.21142465,-0.35522795,0.25732636,0.31098586,0.32803544,-0.29107675,-0.09358754,-0.0494744,1.7009345,0.11273059,-0.37531608,0.43488652,-1.9408311,0.2609028,-1.3502266,0.18727814,0.308799,0.3963731,0.32008493,-0.7898629,0.1828027,0.553587,0.100454345,-0.21855363,0.6193197,0.2190396,0.19411312,0.1353033,-0.22195172,-1.1598616,0.060923997,-1.0239283,0.31056267,-0.20622976,0.14988339,-0.10498191,-2.048666,-0.37157133,0.27769604,0.17306465,0.18558992,-0.11869385,0.18675035,2.2273746,1.3668839,0.120507285,-0.343199,-0.8595384,-0.22937326,-0.20021181,-0.20058304,0.20856203,-0.1078913,0.113366544,-0.05414315,0.058543414,-0.40261102,-0.21461469,0.0700396,0.6653374,0.57637423,1.2512577,0.11767301,0.028351292,0.36749038,-1.4409167,-0.061449327,0.3719392,0.16896175,-1.6344436,-0.056919042,-0.0026719098,0.33365446,-0.057448916,-0.45402223,0.18245265,0.36688274,-0.82119465,-1.3012456,0.53826296,0.033092942,0.25623408,-0.0974396,-0.5056922,-0.07827933,0.6118279,-0.3616093,2.0192533,-0.13242675,-0.17210281,0.13560991,0.62464076,-0.008044076,0.05756898,1.423371,-0.15119608,-0.43889752,-0.30441618,0.41274655,0.21236876,0.47053912,0.6347788,0.55170244,-0.16214846,0.070767015,0.06569114,2.1172173,0.19531631,-0.0057020453,-1.0005223,-0.20925388,-0.20576015,-0.6261183,0.10653818,-0.2860973,0.22966899,-0.46928126,-1.3629493,0.18847334,0.26094496,0.06678446,0.1311991,0.19797383,-0.11318406,0.010284315,0.56432414,0.09563727,0.06320824,-0.25094688,-0.37187636,1.2651399,0.5343318,-0.79723954,0.5492958,-1.5154337,0.7915748,-0.29034892,0.035597898,-0.26357365,0.20775352,-0.21200499,0.15806945,-0.7498117,0.12654676,0.0013167261,-0.47889495,1.2405735,-0.22456454,0.07502933,0.68799096,-0.09187118,-0.5737885,0.53204596
net.java.cargotracker.application.BookingService;0;-0.11729929,0.023502199,-0.1258446,0.2867717,0.15579307,-0.19220738,0.29791147,0.05057247,0.27148774,-0.4833489,0.2703334,0.276162,-0.06964506,-0.0019094988,0.5890417,-0.067585506,-0.26565963,-0.094930895,0.13378826,-0.3494628,-0.18184476,-0.32225358,0.24386238,0.10652186,0.28136852,0.06653445,0.44826967,0.58681756,0.14397669,1.0718622,-0.17222323,-0.090561815,2.2743928,-0.14269622,0.07920064,0.09627258,-0.018745895,-0.007023832,0.2765341,0.14410037,-0.27028608,-0.10279261,-1.3912464,0.06548758,0.48670635,-0.03571542,0.03742155,0.56664693,0.07174484,0.21800272,-0.16885288,-0.19409537,-0.8744974,0.06214423,-0.13752866,0.52313346,-1.02114,0.21161544,0.21157528,-0.16772154,-0.35167295,-0.3396188,0.08894726,-0.049407475,1.8327223,-0.246794,0.8147446,1.7781603,0.228521,-0.27097955,-0.13677716,0.36321458,0.04995001,-0.86963814,-0.56394756,-0.2889167,-0.1119712,-1.3977486,-0.79434687,0.120499454,0.39221612,0.17356367,0.021740137,0.30849245,0.28096506,-0.39297128,0.18211752,0.04069084,-0.8710132,0.41589957,0.2462827,-0.045996323,1.3050784,0.09157851,0.41785786,0.5890483,0.041674607,-1.1201057,-0.15492553,-0.302618,0.2910036,-0.80260056,-0.42684767,-0.73218113,0.31066534,-0.07534604,0.50662285,-0.11395592,-0.054968808,-0.10821257,0.22528918,0.21740471,0.060356624,-0.20265998,-0.10425899,0.095464446,0.19130164,0.15005527,-0.10242223,0.22018337,-1.4427392,-0.09707112,-0.42504603,0.9087377,0.24306403,0.0764581,-0.13161959,-0.31747273,0.4838531,0.058548614,-1.6731809,-0.84774065,-0.24962892,-0.11637318,0.31649566,-0.1034603,-0.4438598,-0.19200799,-0.3149639,0.25216043,-0.896161,-0.34773543,0.18620506,0.28200436,0.1544859,0.11794799,0.2520842,0.064956866,0.21873516,-0.34963143,-0.8796441,-0.19704688,1.5643243,-0.46859062,-0.40899676,-1.2543151,0.3884291,-0.58796716,-0.3081441,-1.0181668,0.3707404,-0.18662135,0.19994508,0.73360676,0.20211408,0.51558167,0.08427841,-0.53549665,-0.05570138,0.5309907,-0.22363059,-0.3233286,-0.9396735,0.33426923,-0.19331945,0.4834335,-0.09317493,0.35162053,0.17400311,2.2479403,-0.13188498,0.055521093,0.1200271,0.08325467,-0.0748777,0.29059765,-0.45971593,-0.0075377794,0.20412512,0.01707734,-0.07306135,0.010155845,0.0788282,-0.09626458,-0.0093733445,0.085344926,0.10825365,0.24637136,1.540365,-0.2228346,0.06553908,0.08469584,-0.24744272,-0.18806817,-0.2734323,0.57029945,-0.2370631,0.3652715,0.5196052,1.3996426,2.3037107,0.48051453,0.35572258,-0.23425734,-1.5409856,0.23642741,-0.26957577,-0.060096566,-0.10864339,-0.33734208,-1.7290392,0.24487643,-0.11778037,-0.5701798,0.12401449,0.3113296,0.09437643,0.24289909,0.031749733,-0.043502383,-0.0017090228,-0.12587242,0.078398384,0.39206547,-0.79365855,-0.14540203,0.07620851,-0.1469591,-0.33104852,-1.4209988,-0.21624285,-0.12573312,0.13882114,0.57127506,0.54990906,-0.8981065,-0.28411415,0.10180188,-0.19243418,0.39713565,-0.18176639,-0.3701273,0.040576153,0.20190844,-0.44943413,-0.04881092,0.08733099,0.16736588,-0.0692541,2.6421235,-0.12300209,0.55016005,-0.03803655,-0.5741618,-0.06868008,-1.3185395,-0.32604787,-0.2572444,0.69445324,0.77531964,1.7904214,0.23205358,0.25329623,0.07865618,-0.29548457,-0.24972153,0.71904355,-0.3678192,-0.85449845,0.00773603,0.036870018,0.35996985,-0.2323166,0.05009568,0.2727914,-0.07900935,-0.40950775,-0.38442218,-0.17481707,0.18642892,0.71508175,-0.8315657,1.4605825,-0.060931202,-0.20685644,-0.15256816,0.14271055,0.32341382,-0.051559657,-0.3103494,-0.13412401,0.5139026,0.14833286,-0.39129272,-0.86354804,-0.08652108,-0.7313974,-0.11509921,0.035561472,-0.11899842,0.45985225,-1.1026007,-0.025285589,-0.10052173,-0.321892,0.35264933,0.1294553,0.32681492,-0.17898314,-0.040968407,-0.043741386,-0.13071059,1.2379496,-1.5966477,0.048463818,1.1454316,0.2143533,0.07814404,-2.0783966,0.80588627,-0.02228309,-0.106716104,-0.06464768,1.4486006,-1.3313626,-0.18211749,0.6203165,-0.3970147,0.57649547,0.07352139,-1.5625082,-0.20292376,-0.5812287,0.48422477,-0.058984295,1.3773623,0.10263258,-0.42896652,1.3727387,0.13838305,-0.51403666,-0.8753132,-0.13744003,-0.18271337,-0.25624698,2.7263765,0.26577315,-0.23005965,-0.49064758,-0.29958498,0.41291115,0.100898944,-0.2877541,2.057825,0.8212099,-0.6408714,-0.8378621,-0.2567761,0.33087084,0.0035563344,0.345166,0.12545624,-0.12623835,-0.2294838,0.42936584,-0.32313004,-0.25479007,0.31920788,-0.04889516,-0.2716807,-1.2964582,-0.10639311,-0.18354197,0.29191998,-0.21295685,-2.6191936,0.47706732,-0.0658767,1.6867044,0.3961999,-0.24384698,-0.36347046,0.21813038,0.15412925,0.10389492,0.002202283,-0.4020256,-0.038035586,-1.0642321,-0.2608348,0.061328072,-0.239447,0.14523531,0.45821652,0.14983813,0.53968054,-0.4064683,-0.16887838,0.12651435,0.5439142,-0.42185658,2.2097952,-0.13564624,0.07402618,-0.2103193,0.40296873,0.38679802,0.11611961,-0.33478573,0.40336657,-0.073559396,0.4059091,0.90635306,-0.15971297,-0.15664783,0.17487627,-0.028466767,-0.21858525,-0.22237763,-0.49540138,-0.053017206,0.6514856,0.5240484,0.1202402,-0.071850635,-0.13570695,-0.1766639,-0.35598233,0.65998137,0.032752536,0.2875473,-0.06322956,0.10575147,0.07928193,-1.0146708,0.27182114,0.46246406,2.1181722,-0.11636467,-0.034495633,-0.05279283,0.020897103,-0.12611449,-0.24796478,0.68898535,0.047312647,0.037016038,0.15120274,0.15380186,0.37496787,0.09299449,-0.22474644,-0.11675227,-0.2803476,0.08663981,-1.828776,0.24794888,-0.23114374,-0.30422127,0.072489366,-1.1701035,0.67160374,-0.13640274,-0.36024275,0.09828333,0.077643104,-0.099504575,1.574668,0.44166163,2.1199386,0.11541424,-0.017530084,0.54949856,-1.2243702,0.45679668,-0.619576,0.39198086,0.21892034,-0.25514975,-0.62873316,-0.049360845,0.4003364,0.29865986,0.2784119,-0.2656809,0.34126368,-0.67536646,0.8392576,-0.050490927,0.94755507,0.46678743,0.24121255,0.5458562,1.6897733,0.10730429,-0.107846856,0.0020296543,1.767874,-0.01433031,-0.33606935,-0.053254213,-0.073793754,0.99353474,0.471867,-0.10156588,0.15406708,-0.22813243,-0.2136232,-0.0054797996,1.6501667,-0.010505783,0.2107425,0.024501583,0.44697413,1.9391826,-0.027200758,-1.2205695,-0.71535933,0.35601333,-0.53112227,-0.036469646,0.09725697,0.00034318806,-0.2469131,0.81687754,-0.03656381,0.28622952,-0.71782583,0.022278812,-0.31513232,0.30090043,0.07185046,1.3368145,-0.11361022,0.55997306,-0.24395385,-0.046163205,-1.9276276,-0.08796101,-0.22048524,-0.3434017,-0.025882944,-0.2771977,-0.2177366,0.19774446,-0.024826115,0.37942642,0.22140943,-0.3976077,0.65446824,-0.31667244,0.19554827,0.21854198,-0.1484418,-0.12989458,-0.07045591,0.2524217,0.051983792,-0.026978426,-0.061485466,-2.285572,-0.060674787,-0.063595064,0.38301393,-0.08305432,0.31045714,1.1825975,-0.08791737,-0.25514084,0.85323,-0.35035384,2.012944,-0.14092314,-0.58488303,0.08927489,0.32723334,-0.5372825,0.8635927,13.255942,-0.19062972,1.5513299,0.79483193,0.20294806,0.13735574,-1.5926265,0.009870659,-0.12646636,0.06085826,0.045004677,0.00953667,0.051929034,0.38762504,0.4215657,-0.15133868,-0.3162402,0.50538117,-0.2796804,0.026997192,-0.27551198,0.038032662,0.7201651,-0.63828164,-0.17907695,-0.3348534,-0.08501988,0.25404403,-0.40008494,0.1762948,0.26941392,0.33769608,-0.22793116,-0.12863445,-0.19599403,1.7459234,0.100192904,-0.39260706,0.23046437,-2.0258083,0.33083415,-1.3538309,0.28062963,0.2536589,0.3540164,0.26588282,-0.7862398,0.26320857,0.42888033,0.13775498,-0.17576192,0.73322403,0.16518989,0.17316097,0.22693975,-0.110087,-1.1869854,0.024094382,-1.0045533,0.26066196,-0.18885751,0.15300597,0.004154712,-2.0431,-0.3684155,0.19773586,0.119403616,0.23140405,-0.14335689,0.12975132,2.2310712,1.4298662,0.16507049,-0.19467515,-0.8864146,-0.16687655,-0.18012439,-0.29825625,0.27106908,-0.30613437,0.13750492,-0.0649579,0.01804017,-0.36336115,-0.22511043,0.15278283,0.6426728,0.4865833,1.3541708,0.21328019,0.06381541,0.44621965,-1.4215505,-0.04324862,0.31962603,0.11734427,-1.7689677,-0.14874323,-0.013281451,0.4089279,-0.0072390824,-0.44282594,0.27495417,0.3795047,-0.74825555,-1.3441128,0.52463293,-0.105150074,0.27300015,0.0070093274,-0.4668136,-0.19326988,0.5661967,-0.17373052,2.1267824,-0.105685554,-0.10395985,0.10396893,0.63888985,-0.036386747,0.08489664,1.3737029,-0.20025802,-0.40735462,-0.17609051,0.32049844,0.23738436,0.48409972,0.55538607,0.52661353,-0.044090945,0.031469323,0.07922078,2.0740435,0.20077896,-0.013809089,-1.1426393,-0.23646247,-0.2067177,-0.61107594,0.16611566,-0.23451304,0.2411278,-0.52351636,-1.4807512,0.09602056,0.3515776,0.023862189,-0.02754905,0.16826439,-0.093798585,0.10362057,0.57321346,0.17281668,0.024182966,-0.23815373,-0.28035185,1.430738,0.6713075,-0.932776,0.48041937,-1.5789902,0.75435567,-0.3134478,-0.14863683,-0.12575826,0.12705591,-0.13228151,0.17465118,-0.6323546,0.01955799,0.0031898129,-0.43324673,1.1799922,-0.20629509,0.08397019,0.68401885,-0.07191957,-0.56499064,0.4522978
net.java.cargotracker.application.BookingServiceTest;-1;-0.184474,-0.01644051,-0.11479178,0.30236182,0.2796732,-0.33235064,0.31985345,0.040344536,0.1948306,-0.51699966,0.25299403,0.33938614,-0.15040848,0.015350437,0.6503196,-0.0055020126,-0.34445,-0.07467275,0.14908561,-0.52286714,-0.08023612,-0.1733726,0.32419732,0.015173465,0.18673119,0.12502517,0.29638794,0.5662871,0.08572909,1.0533305,-0.045753516,-0.08900951,2.2306364,0.031580772,0.12600964,0.11094856,-0.08551496,-0.0803616,0.41619408,0.060072742,-0.115555525,-0.16774726,-1.3319862,0.017320879,0.46267536,-0.06413689,0.01906572,0.616728,0.23145348,0.2259706,-0.15751888,-0.12295043,-0.7969509,-0.078084104,-0.1440249,0.5816771,-0.9567293,0.3017194,0.12444446,-0.19569477,-0.36414042,-0.17742497,0.22660464,-0.10313065,1.7924393,-0.24419451,0.9920059,1.5938892,0.23864885,-0.36700228,-0.23860659,0.3092058,0.09452235,-0.9253063,-0.6839443,-0.3564068,-0.17949253,-1.426725,-0.7088665,0.15435012,0.30142033,0.068551436,-0.17586838,0.21094109,0.09937949,-0.557525,0.15917452,0.06530219,-1.0284611,0.37085173,0.21866459,-0.32160038,1.3706473,0.106271274,0.5419538,0.44042206,0.1327344,-1.2860273,-0.17501704,-0.37647736,0.37940395,-0.88925207,-0.52487034,-0.820091,0.35213768,-0.060089413,0.60566187,-0.19410348,-0.010283171,-0.21003908,0.2500529,0.24941711,0.14384228,-0.23403086,-0.10266619,-0.037017986,0.1057095,0.2710243,0.005457573,0.3257539,-1.5033783,-0.07655306,-0.48161334,0.88994175,0.24142207,-0.06205071,-0.042982515,-0.3448067,0.43125507,0.059833776,-1.7835135,-0.90659326,-0.16250648,-0.061002053,0.26725534,0.011813188,-0.4532935,-0.19135107,-0.28066814,0.17093068,-0.7466579,-0.25858784,0.1379212,0.33655268,0.17916407,-0.08992522,0.28727862,0.0035157672,0.25640476,-0.21340357,-0.9114908,-0.22290887,1.6383445,-0.37793538,-0.3772731,-1.1325665,0.67856574,-0.64140165,-0.40234563,-0.97824746,0.5019713,-0.26333097,0.2186361,0.7141691,0.24755014,0.609715,0.14013289,-0.66279083,-0.295324,0.5457748,-0.23212332,-0.4109915,-0.82974297,0.30619013,-0.14614631,0.57025373,0.011118719,0.4508971,0.33595514,2.0495086,-0.0150923105,0.16575603,0.18622635,0.037610482,-0.3186265,0.3078389,-0.4595395,0.018377969,0.22348475,0.09173517,-0.047039215,0.03316659,0.14246069,0.014640793,-0.0029900928,-0.10312135,0.17434558,0.17865297,1.5336727,-0.31124797,-0.028980784,0.12290805,-0.21833281,-0.3320569,-0.22459863,0.5032415,-0.16438161,0.3548766,0.45084572,1.3629638,2.2112346,0.48319018,0.30094025,-0.19718184,-1.3280208,0.10242395,-0.14560664,-0.20529895,-0.19694181,-0.45190355,-1.6121081,0.24966103,-0.066962585,-0.58429736,0.15513842,0.479469,0.046720434,0.36256343,0.016718376,0.0033996215,0.05550569,-0.11732443,0.19854058,0.5740174,-0.7386787,-0.18224248,-0.0044446527,-0.14484978,-0.2992099,-1.4793067,-0.26103806,-0.20965932,0.028600479,0.43104923,0.59290624,-0.77221006,-0.26166344,0.16945733,-0.19734989,0.4419551,-0.18356818,-0.49996567,0.030899744,0.29248178,-0.3967508,-0.15073735,0.0021161993,0.23651706,-0.006286974,2.7602546,0.10495698,0.54802936,-0.0026341628,-0.6693668,-0.082308084,-1.1298407,-0.3076742,-0.12644725,0.7960463,0.5631562,1.8120639,0.2468716,0.14460263,0.118751794,-0.21199794,-0.25855568,0.8101558,-0.34229648,-0.96680564,0.07146629,-0.06110735,0.45565403,-0.17794818,0.04933134,0.1880443,-0.0072082747,-0.5419741,-0.4162833,-0.23110698,0.20603009,0.69964576,-0.7847288,1.4455613,-0.18954684,-0.32285216,-0.12771478,0.24164596,0.26898602,0.08527794,-0.21387798,-0.06881316,0.58355135,0.24564928,-0.45126754,-0.7627706,-0.055141773,-0.8047062,-0.028035749,0.091037065,-0.08369505,0.40738583,-1.10532,-0.02068708,-0.11275803,-0.29696602,0.32918474,0.1112154,0.5507521,-0.10174129,-0.071217835,-0.12958944,-0.05938196,1.2694932,-1.5342624,0.18057808,1.1462207,0.16037983,-0.04516484,-2.1779342,0.87222654,-0.12436626,-0.26439163,-0.14938998,1.6254634,-1.2976457,-0.09636326,0.51843435,-0.40198526,0.55097485,0.15416373,-1.5867985,-0.06972886,-0.40017053,0.475562,-0.14997664,1.6905651,0.043170676,-0.48598212,1.3291459,-0.018974492,-0.6352524,-0.85851,-0.16231371,-0.30521822,-0.22499691,2.625245,0.39467958,-0.20900145,-0.54322076,0.060434703,0.26747993,-0.050495293,-0.25990713,1.9237305,0.8010136,-0.6280512,-0.97753054,-0.26122138,0.10941375,-0.076919794,0.4475126,0.13556613,-0.08209449,-0.2346978,0.4383105,-0.24267675,-0.23129533,0.24891935,0.01369159,-0.32413194,-1.4584259,-0.11409595,-0.2718603,0.31124553,-0.13543297,-2.8054478,0.5467097,-0.22979201,1.73555,0.39347193,-0.22418414,-0.42833292,0.14484595,0.30941704,-0.029864289,0.04201621,-0.57338274,-0.36885735,-1.1602055,-0.16546094,0.20715338,-0.21712135,0.118989915,0.4566119,0.2858752,0.5816957,-0.5565636,-0.19141775,0.024480762,0.52194077,-0.4981642,2.2196538,-0.15805763,0.014950702,-0.21019696,0.26980978,0.41409558,-0.025500862,-0.31382096,0.51948315,-0.03451061,0.4531879,0.9203722,-0.15753573,-0.12660375,0.15966083,0.03810823,-0.26630816,-0.18412222,-0.6195783,-0.029975725,0.6134756,0.62816375,0.17969385,-0.13030744,-0.26250637,-0.23853157,-0.46379155,0.7434439,0.09836977,0.31915948,-0.10356534,0.16865146,0.026160164,-1.0574502,0.39457673,0.40978727,2.149343,-0.12127972,-0.16941272,-0.20826645,0.1860939,-0.020962777,-0.29224825,0.6883241,0.05980438,-0.004605898,0.19577256,0.10066147,0.39463586,0.20607485,-0.34080884,-0.1445006,-0.18246946,0.058314458,-1.8967144,0.22065872,-0.07535199,-0.24190216,0.09657535,-1.1226496,0.66967213,-0.13156904,-0.3294667,0.17420632,0.11233591,-0.13036808,1.6562511,0.36963674,2.0341785,0.0700106,0.013467732,0.37846482,-1.191308,0.51604515,-0.5537006,0.40787685,0.32501742,-0.17853256,-0.65762067,-0.10241706,0.35453367,0.31485584,0.21591282,-0.3644232,0.20800203,-0.7117811,0.8653349,-0.140351,0.877368,0.6087029,0.16602741,0.6871128,1.6592435,0.0632066,-0.18761449,0.033885565,1.9028615,0.12948504,-0.3010476,-0.0065138694,-0.15090396,0.90014535,0.4095131,-0.09362555,0.16203947,-0.21369094,-0.2343287,0.04724056,1.7312539,0.08699082,0.2289463,-0.073767096,0.56191754,2.020756,-0.082260974,-1.3319668,-0.81233615,0.4204708,-0.3684781,-0.024021506,0.08634618,0.029201353,-0.32705837,0.9148628,0.058325373,0.21359767,-0.56012356,-0.15712927,-0.3242278,0.1592188,-0.00038987535,1.3779427,-0.24697155,0.6261364,-0.022777837,-0.17150004,-2.0827172,-0.24681903,-0.2586235,-0.3041138,0.19208093,-0.27762115,-0.10983829,0.22152424,-0.0625007,0.29935756,0.13552113,-0.36806545,0.6742848,-0.27534893,0.38080403,0.34294713,-0.17377995,-0.18174946,-0.09048224,0.27343693,0.13169022,0.09459512,-0.034664888,-2.2904196,-0.09151194,-0.00720177,0.4433137,-0.049231652,0.29067346,1.1229887,-0.16365074,-0.18356104,0.9466417,-0.1423888,2.1083696,-0.2637744,-0.6912907,0.011040762,0.42734572,-0.43120068,0.9305677,12.7152195,-0.13566913,1.496727,0.73589283,0.29758766,0.09816261,-1.522638,0.10907643,-0.09023083,-0.054691125,0.13513857,-0.030499507,0.030702729,0.394952,0.34797958,-0.17909585,-0.21579532,0.49471948,-0.31740844,-0.031899586,-0.072482534,-0.21014859,0.7907681,-0.5689201,-0.2030558,-0.29680952,-0.2644443,0.11065381,-0.3664529,0.42996588,0.18227519,0.3640994,-0.14534639,-0.07519831,-0.20702596,1.6506763,0.006248301,-0.5071637,0.13005164,-2.0242271,0.24539937,-1.2563468,0.2891105,0.3258715,0.46005413,0.2515517,-0.6591008,0.2508396,0.3087552,0.13113116,-0.061238218,0.6197797,0.17588575,0.2967101,0.2643325,-0.20197235,-1.240206,-0.0680136,-1.1441379,0.22306018,-0.111758426,0.1588008,-0.135422,-2.0060518,-0.32205546,0.2721156,-0.0312661,0.34361628,-0.24474278,0.13498141,2.162613,1.5905011,0.14333369,-0.041692946,-0.87242454,-0.18123558,-0.2026055,-0.33224487,0.27142242,-0.30224928,0.13089049,0.028003348,0.098800175,-0.32441163,0.02459448,0.07247314,0.8100155,0.5260195,1.3720987,0.28565687,0.18273443,0.3638284,-1.3881911,-0.050489213,0.38733032,0.20483075,-1.825272,-0.22825836,-0.016833847,0.5121563,0.062645026,-0.5055425,0.26202068,0.47932675,-0.6444698,-1.1676658,0.5384058,-0.15501922,0.30846205,0.057850122,-0.5566998,-0.3898573,0.60453504,-0.16037898,2.1609402,-0.15648586,-0.1309467,0.09904366,0.7192921,-0.07699687,0.13731812,1.6890292,-0.14727582,-0.41377792,-0.22955433,0.35290286,0.33556113,0.49417916,0.641382,0.6319743,-0.093870096,0.04810374,0.18105161,1.9674171,0.12959121,-0.16898218,-1.167077,-0.029507352,-0.14443563,-0.5931011,0.2723192,-0.29689968,0.26031506,-0.39040682,-1.3684895,0.13444528,0.3251787,-0.15400475,0.016097715,0.19135757,-0.077264726,0.030372284,0.60396683,0.124255516,-0.067465305,-0.06994689,-0.37936717,1.2990146,0.6810383,-0.8620634,0.73292196,-1.8338768,0.86170006,-0.30544817,-0.12872829,-0.06261396,0.15558295,-0.14166957,0.17582478,-0.8047399,0.23517938,-0.037837375,-0.34235433,1.1208755,-0.11169165,-0.021643193,0.86361176,-0.09228639,-0.5080526,0.50125
net.java.cargotracker.application.BookingServiceTestDataGenerator;-1;-0.2029645,0.031387616,-0.046999495,0.3613409,0.20752676,-0.29701054,0.37700844,0.120781206,0.2405994,-0.5720063,0.19771524,0.26640564,-0.10943065,0.01762166,0.6186767,-0.035293072,-0.26395276,-0.10485653,0.073941976,-0.46314597,-0.12973444,-0.14684059,0.31954858,0.07591519,0.15959357,0.04242396,0.404803,0.6028177,0.16875005,1.0621859,-0.07403216,-0.028826943,2.2732613,-0.11983552,0.15292832,-0.03168095,-0.107089065,-0.06864304,0.37458193,0.026427416,-0.23730399,-0.1399691,-1.3934407,-0.0015140767,0.40482268,-0.064052194,0.082057334,0.60794634,0.20922582,0.301515,-0.056668293,-0.2686167,-0.8782797,-0.07324403,-0.0667789,0.5416177,-0.94518995,0.34635234,0.11281995,-0.15935333,-0.4754707,-0.19337781,0.15128176,-0.12174068,1.8037357,-0.20602538,0.8020914,1.5911908,0.28521094,-0.3533584,-0.2509292,0.4052678,0.1525575,-1.0066857,-0.62890214,-0.25936505,-0.14754145,-1.4017376,-0.70828575,0.14354727,0.3241472,0.113219805,-0.17571604,0.3363887,0.15971716,-0.5600022,0.12257284,-0.010191102,-0.98776954,0.34017253,0.21429497,-0.16716337,1.2343158,0.16768567,0.5066363,0.44326243,0.07518505,-1.2429557,-0.29434016,-0.2005986,0.34093496,-0.80020386,-0.5426195,-0.77432126,0.24416517,-0.047934953,0.50717634,-0.16929446,-0.07382911,-0.17193939,0.2097305,0.2743074,0.17930008,-0.19249462,-0.10655286,7.295795e-05,0.14745371,0.21746369,-0.051537156,0.2911187,-1.4881057,-0.09695914,-0.38632378,0.9206361,0.1420991,-0.022496805,-0.08664445,-0.43123877,0.40330553,-0.009952064,-1.7068868,-0.786061,-0.16273977,-0.025075212,0.36868295,-0.14427263,-0.3652409,-0.20569484,-0.26859567,0.18560326,-0.7943955,-0.2663121,0.1672252,0.33126444,0.10002366,0.010495546,0.20393491,0.01231492,0.34836054,-0.35071138,-0.961705,-0.3530637,1.7111565,-0.42846766,-0.30631277,-1.2176071,0.58145934,-0.5724594,-0.38179386,-1.0040904,0.40637085,-0.16391975,0.22791857,0.7349313,0.27380687,0.6870761,0.15312059,-0.5887301,-0.20891632,0.48284182,-0.2617054,-0.4671828,-0.882469,0.43341923,0.008273161,0.5476148,-0.042225335,0.29569438,0.19167052,2.1351528,-0.02232407,0.10940885,0.11243272,-0.0010495608,-0.25736794,0.1960242,-0.5040876,0.009320027,0.22212546,-0.0065832064,-0.07635883,-0.03454807,0.06895494,-0.022034325,-0.06321319,-0.06851146,0.16608596,0.21823923,1.5407972,-0.24370146,-0.033066362,0.11765806,-0.14097105,-0.34216985,-0.18734916,0.49768457,-0.21329622,0.34992173,0.4041742,1.3999953,2.2590415,0.25182918,0.26577112,-0.33914772,-1.3980227,0.134802,-0.0776246,-0.13279457,-0.20620972,-0.40630174,-1.5026116,0.22475873,-0.032721277,-0.60010356,0.12123283,0.482596,0.04504836,0.29551998,0.04785425,0.0120880855,0.07612596,-0.052845005,0.12569799,0.43424892,-0.79105526,-0.07435939,-0.018977279,-0.09283629,-0.29297188,-1.466148,-0.15335624,-0.13071577,0.11057854,0.48805603,0.5436534,-0.76187986,-0.2514548,0.14997204,-0.25164497,0.30270872,-0.14586253,-0.4858562,0.053906914,0.19451702,-0.40212443,-0.18189986,0.1081045,0.3709036,-0.076789804,2.838136,0.029312357,0.5772292,0.03085275,-0.7283123,-0.07374218,-1.2422727,-0.2723513,-0.19472976,0.7145317,0.60654,1.8327131,0.10304499,0.2731218,0.09013977,-0.22065143,-0.27669278,0.784126,-0.2380941,-0.8995287,-0.0142303705,0.04212847,0.3993615,-0.23855115,0.0708622,0.24234717,-0.15864037,-0.58824533,-0.24328686,-0.09094861,0.21411659,0.7842166,-0.7458894,1.3986086,-0.113629155,-0.28840083,-0.090237014,0.20120676,0.27804577,0.11063083,-0.2830976,-0.17367917,0.5840622,0.13459474,-0.3999808,-0.7760356,-0.056286197,-0.72961855,-0.09523111,0.080911644,-0.04586312,0.41408932,-1.0775847,0.041525718,-0.19030012,-0.28360248,0.44557533,0.1242614,0.41904935,-0.20437138,-0.06636926,-0.112359874,-0.04478099,1.2676841,-1.5289177,0.2010593,1.1672411,0.15587476,-0.045557395,-2.2112668,0.84759027,-0.21646188,-0.22977005,-0.18323235,1.4366089,-1.3877662,-0.12480811,0.5461374,-0.34755072,0.61938536,0.11188686,-1.5968825,-0.19013195,-0.44259605,0.4873635,-0.033639196,1.6003934,0.040437363,-0.5138104,1.2850989,-0.020032162,-0.63686895,-0.7776503,-0.20352323,-0.28820595,-0.37866816,2.639175,0.29598728,-0.2612723,-0.605781,0.093001805,0.31278792,0.078149535,-0.2781355,2.0626724,0.83533937,-0.60255665,-0.9608155,-0.21137805,0.18001354,-0.009583165,0.49020717,0.13532697,-0.095282204,-0.17407356,0.44576657,-0.23750919,-0.28020123,0.2903305,-0.01764915,-0.33779407,-1.429022,-0.08674908,-0.2222628,0.29341367,-0.10685834,-2.7248352,0.5571583,-0.1848135,1.6587535,0.4021958,-0.2313168,-0.38881454,0.045911882,0.3257945,-0.08766035,0.014273607,-0.43612897,-0.27216944,-1.0945907,-0.18527013,0.22850035,-0.2549111,0.17353706,0.4986023,0.32259738,0.4872328,-0.54197365,-0.15950762,0.04354012,0.44689885,-0.51128376,2.2760742,-0.13673182,0.097894765,-0.15539084,0.3198888,0.3633349,0.02253934,-0.3507761,0.5296011,0.03578676,0.43170336,0.8020235,-0.15171473,-0.12934494,0.20808567,-0.051041733,-0.16325873,-0.30448008,-0.5189163,0.06554397,0.6642324,0.5088045,0.15296336,-0.08882016,-0.3985404,-0.22385705,-0.47834787,0.6892336,0.11831325,0.3199462,-0.048668165,0.18744574,0.15704529,-1.0114721,0.22452843,0.47504696,2.2327082,0.046669673,-0.08646161,-0.08600158,0.09978065,0.026067616,-0.27479097,0.78140664,0.116476424,0.01176409,0.1685834,0.19531155,0.47180066,0.20321645,-0.30503178,-0.20234345,-0.27998173,0.15455382,-1.8436704,0.34912452,-0.12706529,-0.2494,0.12197199,-1.2581449,0.62850493,-0.14338994,-0.3788559,0.062181067,-0.049004722,-0.029244816,1.6258768,0.45682153,2.0202549,0.09102104,-0.07062926,0.4630861,-1.2600722,0.56769663,-0.672916,0.4644489,0.34531698,-0.17257531,-0.73365355,-0.026029052,0.3108156,0.2919846,0.26977104,-0.33036947,0.2263066,-0.64447767,0.9342494,-0.05497271,1.0149217,0.6206879,0.13299648,0.6351332,1.5935742,0.07199047,-0.24817705,0.041574474,1.8862702,-0.093067765,-0.3326744,0.045722917,-0.13566713,0.91170245,0.42757174,-0.1551227,0.10040476,-0.3299968,-0.2006117,0.00040847622,1.7111169,0.11221215,0.14367978,-0.025536522,0.49436855,2.0443068,0.0071590245,-1.2154466,-0.7563286,0.48776913,-0.4701867,0.031384256,-0.033040363,0.07210585,-0.28634235,0.91509,0.021451766,0.22203994,-0.59783673,-0.12641384,-0.22591735,0.2526478,0.014389831,1.2490745,-0.12506774,0.59372157,-0.1614871,-0.067461394,-2.0162442,-0.10594156,-0.27054414,-0.30869853,0.05633624,-0.32282993,-0.16034703,0.23910542,-0.07718095,0.2389797,0.079595946,-0.4412124,0.6477082,-0.22051243,0.31743237,0.39446878,-0.10623345,-0.17460072,-0.05239879,0.3070811,0.12720062,-0.0115259895,-0.12909375,-2.138593,-0.06999548,0.006376455,0.42197117,-0.22389732,0.35830724,1.1604596,-0.21231811,-0.24955286,0.8747274,-0.16822527,2.104741,-0.13203391,-0.6602745,0.010867427,0.274009,-0.34768626,0.8890683,12.98976,-0.0918875,1.5707484,0.6571712,0.3248903,0.10119795,-1.478556,0.1611837,-0.009479748,-0.11715371,0.15285878,0.005753485,-0.006511645,0.42680025,0.440855,-0.13088436,-0.19221063,0.3525894,-0.36069468,0.06346955,-0.20107226,-0.1267448,0.76445454,-0.62397504,-0.16846699,-0.34438944,-0.20811649,0.07888445,-0.34484503,0.35203004,0.10161281,0.33183563,-0.06491941,-0.20995276,-0.1652383,1.6450566,-0.045893867,-0.38479218,0.15059073,-2.011795,0.22418721,-1.3443722,0.36531472,0.36160716,0.4089836,0.32363304,-0.740567,0.1639174,0.37016952,0.061428454,-0.053118676,0.6906335,0.14772631,0.2333901,0.21873729,-0.20726545,-1.1221052,-0.10782516,-1.1095803,0.22138979,-0.11214278,0.15544751,-0.05300662,-2.0798523,-0.35051763,0.35475788,0.007305192,0.38494793,-0.2556113,0.14047234,2.059755,1.5588597,0.15635706,-0.16030101,-0.9805954,-0.07133057,-0.24700971,-0.39121512,0.2066006,-0.31232908,0.14614855,-0.0025581156,0.060422644,-0.28801203,-0.09767123,0.10449705,0.7676325,0.5037996,1.3469386,0.17005496,0.22522049,0.36348495,-1.4180454,-0.03445455,0.39548537,0.17338432,-1.7451792,-0.17541255,-0.092455305,0.41625702,-0.012645856,-0.5248255,0.22351508,0.37558863,-0.63778895,-1.1617557,0.61705667,-0.082206525,0.3728237,0.035163738,-0.4585371,-0.39835253,0.67464334,-0.18175274,2.0266225,-0.25086915,-0.18203878,0.108353734,0.7515481,-0.0054621906,0.16001429,1.5383724,-0.19554985,-0.41107276,-0.26648885,0.26706132,0.29704547,0.47498333,0.58163613,0.5813838,-0.0137839625,0.019973041,0.12055264,2.114086,0.16166072,-0.18134765,-1.1267136,-0.032866284,-0.12845935,-0.7068939,0.19204374,-0.27377883,0.25399175,-0.42066905,-1.5041639,0.23632681,0.35223642,-0.05080435,-0.03213908,0.20589669,-0.016773243,0.027503185,0.5401845,0.07949095,-0.026153686,-0.029178364,-0.31263837,1.3818712,0.6988816,-0.9369214,0.6526863,-1.7495509,0.8713777,-0.33439782,-0.06289681,-0.079437785,0.13469805,-0.04817303,0.22502331,-0.68765354,0.22401083,-0.023787469,-0.36797354,1.1944813,0.011910872,-0.045629267,0.82901955,-0.23366503,-0.6258704,0.4343253
net.java.cargotracker.application.BookingServiceTestRestConfiguration;-1;-0.10949963,0.08439706,-0.00012278321,0.21529248,0.28414702,-0.24697518,0.254529,0.01908735,0.30392954,-0.39896458,0.2844,0.2984269,-0.10246568,-0.031581618,0.5631353,-0.05139846,-0.22373648,-0.09306286,0.13787512,-0.3052804,-0.0668569,-0.2272082,0.29013586,0.02834032,0.3501594,0.15691498,0.33239597,0.58149195,0.108950496,0.9433495,-0.13408409,-0.07852699,2.1724403,-0.22787099,0.15641339,0.13791156,-0.031508576,-0.11416253,0.38482755,0.055032514,-0.30086455,-0.124776624,-1.4300425,-0.0225288,0.49601498,-0.009812257,0.022488598,0.54275554,-0.0057156216,0.19478524,-0.1628984,-0.13801241,-0.86565113,0.018314749,-0.16231842,0.4886454,-1.0289171,0.1492445,0.21177347,-0.13520217,-0.37659508,-0.23313011,0.14533502,-0.03242656,1.8744234,-0.24401234,0.7442415,1.6294491,0.30295184,-0.3632771,-0.1966777,0.2559796,0.014358423,-0.8215655,-0.49383408,-0.24881916,-0.09813609,-1.2468581,-0.73985523,0.0930711,0.49292824,0.060505748,0.07960349,0.3203275,0.18268046,-0.3991002,0.18229972,-0.069319814,-0.9052495,0.41924328,0.25806215,-0.1628707,1.190799,0.112129726,0.43075073,0.5561322,0.08724206,-1.2491211,-0.19675767,-0.19092764,0.26853126,-0.79007185,-0.44231832,-0.6357425,0.3140328,-0.07800736,0.4914665,-0.07595218,0.022638205,-0.09110855,0.26964754,0.19916682,0.09752152,-0.25566146,-0.085935295,-0.047464732,0.1691973,0.1362342,-0.14184609,0.15671982,-1.5143301,-0.19282854,-0.39881876,0.9160458,0.18199338,0.06422586,-0.074751265,-0.33010826,0.48498026,0.11874221,-1.6829696,-0.86359704,-0.124026395,-0.13406414,0.26887095,-0.00035480596,-0.44717556,-0.19274236,-0.29443973,0.2298947,-0.8231297,-0.26591483,0.23275204,0.2837606,0.22072138,0.08263227,0.21503365,0.021294052,0.3091412,-0.38029176,-0.87352073,-0.3265816,1.5228271,-0.44964257,-0.45414442,-1.1679854,0.53410685,-0.62682027,-0.3094599,-0.98413795,0.33870322,-0.18909316,0.255742,0.8101247,0.26530764,0.64692754,0.08697658,-0.5652115,0.010711433,0.43088678,-0.21957049,-0.30695108,-0.8714195,0.38159305,-0.14942935,0.47103786,-0.07514951,0.37874085,0.28667963,2.203037,-0.16748522,0.008940329,0.14587232,0.07438163,-0.08707305,0.30968118,-0.552821,-0.11903216,0.17564735,0.17359653,-0.07398115,0.026852438,0.014266914,0.07979467,-0.07240475,0.049256884,0.1162813,0.33001554,1.4549286,-0.26307753,-0.025800796,0.19191283,-0.24032603,-0.2087512,-0.2750542,0.66860664,-0.21278416,0.43236703,0.5447485,1.2872956,2.2858367,0.43186092,0.32249966,-0.27979064,-1.5444015,0.25345564,-0.25056988,-0.17997918,-0.1753234,-0.41969696,-1.7166778,0.20895828,-0.051863734,-0.5350145,0.1136731,0.38852072,0.16802296,0.32033598,0.10988012,-0.11694783,0.015571308,-0.19373247,0.18020128,0.45111877,-0.792551,-0.18476498,0.040759783,-0.119641095,-0.2724159,-1.4426429,-0.16418004,-0.116741754,0.22528364,0.5568137,0.6754479,-0.79757744,-0.37669274,0.17034328,-0.22269994,0.39073336,-0.20545411,-0.36199006,0.036384743,0.23890623,-0.33695793,-0.14529042,0.07415934,0.21232219,-0.03313085,2.737161,-0.114237495,0.60618836,-0.020644313,-0.64351714,-0.11448415,-1.3397533,-0.30718288,-0.15787579,0.6014102,0.6026838,1.7557834,0.14516576,0.34541383,0.08129036,-0.26837108,-0.2124371,0.8309696,-0.3117028,-0.957441,0.050044,0.02420514,0.43046516,-0.1527662,0.15543562,0.24892418,-0.19125235,-0.4027955,-0.32267395,-0.21934818,0.23585176,0.65213996,-0.8291787,1.4821779,-0.04185742,-0.218654,-0.086779,0.18329047,0.3588605,-0.026572475,-0.27928004,-0.17278689,0.41276643,0.19011703,-0.4595459,-0.8836011,-0.006851547,-0.6092165,-0.13880835,0.040974967,-0.066316,0.42334569,-1.0738713,-0.08139619,-0.11659175,-0.23905557,0.31126964,0.09441086,0.2794842,-0.15007927,0.007839205,-0.07255596,-0.15766127,1.2947503,-1.5291771,0.11809321,1.0357044,0.21258867,0.016822448,-2.0971043,0.819142,-0.19475801,-0.06605838,-0.06190024,1.4197431,-1.3895248,-0.16503532,0.622716,-0.46104658,0.5618845,0.0095298765,-1.5583168,-0.18854171,-0.5807806,0.5146228,-0.08522537,1.3979362,0.09734206,-0.35666385,1.3552893,0.114215806,-0.63203186,-0.81715953,-0.20919196,-0.1427833,-0.26545894,2.7524166,0.3189354,-0.2153399,-0.4824409,-0.17777483,0.45722222,0.05011168,-0.27107525,2.0398407,0.92958057,-0.66523165,-0.9649114,-0.22117884,0.2979715,0.023403805,0.37369412,0.22074518,-0.21072029,-0.18706729,0.42319974,-0.39054006,-0.23542689,0.38047478,-0.09953568,-0.14544734,-1.3456025,-0.11784815,-0.2709731,0.23103827,-0.13732152,-2.626521,0.46661755,0.00898088,1.6634642,0.3793725,-0.33588994,-0.40536484,0.22618194,0.15963306,0.089782074,-0.056168325,-0.44695815,-0.13946497,-1.0723898,-0.25886196,0.031201258,-0.28069192,0.21264201,0.42832148,0.17056401,0.6169611,-0.5433758,-0.17148946,0.07256694,0.54845524,-0.42123762,2.1537914,-0.116909385,0.17611188,-0.14249389,0.3918579,0.39909127,0.1623176,-0.25424424,0.37300584,-0.09897179,0.40823305,0.8754159,-0.15147516,-0.098405056,0.23390688,-0.006821975,-0.22946467,-0.20819736,-0.5628212,-0.12501349,0.7062359,0.48267144,0.13332725,-0.14504473,-0.19794604,-0.20767269,-0.4331146,0.65262115,0.08977125,0.2887704,-0.14257236,0.14162254,0.10525892,-1.1247572,0.2622567,0.45598754,2.1815617,-0.16730084,-0.0061858394,-0.17529608,0.10251422,-0.11700706,-0.35377994,0.77775776,0.02958714,0.08394067,0.1517266,0.2407844,0.29451916,0.07210518,-0.28519997,-0.07202496,-0.25079355,0.18584818,-1.7709992,0.31619942,-0.21359165,-0.3194366,0.10161836,-1.1701746,0.64041525,-0.17240708,-0.3443184,0.11489269,0.08065512,-0.109431244,1.585359,0.42626902,2.0571027,0.12393155,-0.040286887,0.5479017,-1.234633,0.47627595,-0.64587855,0.42892757,0.29485354,-0.3333868,-0.66413796,-0.13788341,0.25802433,0.27559653,0.23302898,-0.28692436,0.2768315,-0.61172307,0.82247955,-0.10356115,0.95230573,0.4624694,0.20249835,0.44892693,1.7502391,0.17501593,-0.058544807,0.05025673,1.8181901,0.021065388,-0.33941916,-0.078211635,-0.124466285,0.94437563,0.51793385,-0.1602514,0.1114245,-0.2858628,-0.15132335,0.06434452,1.6498864,-0.08217057,0.24176143,-0.020040082,0.4369296,1.9620321,-0.0696488,-1.1657523,-0.7545512,0.3420873,-0.54946035,-0.06367611,-0.01594066,0.028714418,-0.26427457,0.8092266,0.020244595,0.14993015,-0.50380886,0.03826304,-0.3406005,0.3411551,-0.036292065,1.2966609,-0.17201695,0.57227665,-0.13151436,-0.10714888,-1.9648598,-0.16902488,-0.19557913,-0.2529098,-0.012398767,-0.29010996,-0.13220915,0.2106777,-0.023654211,0.31676835,0.33518335,-0.29117143,0.62578213,-0.18164963,0.27015182,0.29152343,-0.096817285,-0.16769668,-0.04223141,0.25797948,0.0358097,-0.03915692,-0.018382134,-2.2808824,-0.019834869,-0.10898468,0.37475058,-0.054436542,0.37888607,1.230722,-0.14741011,-0.25567356,0.8837476,-0.28364682,1.9928741,-0.12351962,-0.6116579,0.074497156,0.47448578,-0.5967309,0.9469906,13.654101,-0.22856176,1.5570203,0.772381,0.19602917,0.07030392,-1.5548893,-0.10096817,-0.14794321,-0.0019213454,0.08801512,-0.014377261,0.06473297,0.367332,0.36489704,-0.16460502,-0.23321383,0.45595106,-0.2872845,-0.025231192,-0.18800169,-0.033694986,0.7515875,-0.6496028,-0.2775129,-0.20842206,-0.09903139,0.20002274,-0.39231583,0.20296295,0.20704582,0.31748837,-0.30940446,-0.15911014,-0.25285408,1.7480831,0.15255323,-0.40083617,0.3199559,-2.009101,0.28722316,-1.2740567,0.25686714,0.24846967,0.42260584,0.23212016,-0.69244665,0.20045733,0.3791074,0.12526956,-0.19262625,0.77200556,0.19439547,0.111348994,0.11426447,-0.13005747,-1.2479064,-0.08596102,-1.0240338,0.18173021,-0.15858226,0.223933,0.029737853,-2.014633,-0.34983537,0.20518714,-0.007153476,0.18641381,-0.26521677,0.13633278,2.16896,1.4963036,0.13732564,-0.1471428,-0.8949806,-0.106366515,-0.20509224,-0.36180848,0.22911854,-0.18532938,0.2370833,-0.02299671,0.016674371,-0.31871042,-0.1695544,0.10886975,0.5428836,0.5597568,1.3731285,0.13271233,0.11854727,0.40632585,-1.3980864,-0.054673806,0.34914726,0.12408038,-1.720013,-0.14522494,-0.069784306,0.42753592,-0.15593646,-0.4726706,0.26475787,0.35518315,-0.70828795,-1.2908349,0.57170844,-0.071954764,0.22507109,0.017754143,-0.5828432,-0.21305215,0.61177975,-0.1280189,2.1019363,-0.086019084,-0.13197805,0.16042589,0.6570812,0.018977098,0.065991886,1.524156,-0.23807828,-0.42438012,-0.2412504,0.34019786,0.21853574,0.4557462,0.518017,0.6454169,-0.073116384,0.0124274045,0.058228374,2.1190565,0.13903949,-0.09536606,-1.0726347,-0.12524647,-0.18540414,-0.61867744,0.19068094,-0.41527408,0.31575927,-0.44882876,-1.3937755,0.08655134,0.2980084,0.0034802414,-0.10380917,0.17505683,-0.16132912,0.07042261,0.6647323,0.09949029,-0.026597043,-0.1365845,-0.32463622,1.3012006,0.63486695,-0.90159607,0.5717085,-1.7564949,0.8496164,-0.26455623,-0.08245478,-0.10841453,0.14765942,-0.10627918,0.28500822,-0.661973,0.016624294,0.020290134,-0.38255614,1.182246,-0.21977124,0.06599399,0.71366006,-0.028792243,-0.6006628,0.47164658
net.java.cargotracker.application.CargoInspectionService;0;-0.100875124,0.15805617,-0.04551412,0.24727185,0.33087024,-0.21921818,0.2690537,-0.05881869,0.34017012,-0.48575184,0.27594948,0.2561275,-0.16108984,0.017818896,0.48576084,-0.05669427,-0.21267347,-0.094512224,0.09850152,-0.101660274,-0.16981907,-0.26366183,0.1721144,0.2029007,0.3581793,0.09250712,0.49338406,0.46909192,0.16960064,1.0224608,-0.17659499,-0.07259859,2.1303678,-0.1630478,0.19600286,0.13460544,-0.0070771226,0.06526357,0.30925477,0.07822064,-0.43188077,-0.054305542,-1.3327361,0.06677815,0.43979195,-0.02498845,0.0025116506,0.66539,-0.054459877,0.1948923,-0.08338476,-0.23426726,-0.77206105,0.061929904,-0.09715033,0.46070012,-0.96577907,0.23316509,0.1278576,-0.2019693,-0.42780796,-0.19340836,0.10023101,-0.06876825,1.7495816,-0.22955203,0.67795277,1.5432861,0.28657284,-0.2598402,-0.06403277,0.35645482,-0.013135688,-0.822475,-0.64693373,-0.26291856,-0.08888385,-1.0102267,-0.6779032,0.1793246,0.43518892,0.109425746,0.19278057,0.31852585,0.21651646,-0.30663002,0.07194073,-0.0020301652,-0.80264074,0.457396,0.29095194,0.021308228,1.1664063,0.09197358,0.36561662,0.69968796,-0.012102877,-1.0070578,-0.11342867,-0.14263196,0.18562952,-0.73448163,-0.37048864,-0.5788778,0.25005916,-0.1336099,0.42973885,0.014510168,0.034960736,-0.053456448,0.19594742,0.21060225,0.047544874,-0.2423392,-0.09720766,0.119327426,0.14480905,0.06385817,-0.16824944,0.1577831,-1.3617582,-0.09355667,-0.34930596,0.86029893,0.15426414,0.108312145,-0.13383533,-0.3062443,0.41428062,0.117255576,-1.5115513,-0.81064516,-0.2576398,-0.03856487,0.38596094,-0.107157215,-0.41268045,-0.10058661,-0.22254013,0.19858608,-0.84605664,-0.22155634,0.22139537,0.18075998,0.27076888,0.12912293,0.24197811,0.10329007,0.24838373,-0.28688782,-0.792196,-0.17185934,1.3974823,-0.49847695,-0.29886013,-1.0212135,0.4527351,-0.54572606,-0.26851487,-0.95895064,0.2971058,-0.12597032,0.20080063,0.67480844,0.22389121,0.51459944,-0.03996733,-0.5279552,0.023152266,0.4555862,-0.19654079,-0.2357612,-0.85708106,0.24522914,-0.09104942,0.3060233,-0.2139645,0.2576599,0.15605424,2.1104095,-0.11955448,-0.06427048,0.14169112,0.023577547,-0.022266109,0.12772368,-0.42108715,-0.0413755,0.14570113,0.042919558,-0.072797745,0.13525571,0.008680287,-0.103572294,0.042249653,0.11574925,0.114371695,0.26740828,1.3927469,-0.20728475,-0.020990018,0.16775593,-0.2573774,-0.17274158,-0.11015403,0.60426456,-0.25085327,0.30223653,0.50473,1.2933365,2.1961353,0.4069278,0.18342575,-0.2822506,-1.3738508,0.19418184,-0.38348255,-0.008215314,-0.19316387,-0.2370243,-1.6425366,0.25853422,-0.15991372,-0.5254143,0.034626637,0.267764,0.15272084,0.23604283,0.052639555,-0.071123436,0.070677266,-0.15826914,0.0015453271,0.25378263,-0.8377613,-0.17830607,0.008650987,-0.1408977,-0.36567155,-1.3816608,-0.10065973,-0.0758196,0.25775257,0.5538523,0.38405037,-0.7652899,-0.2239925,0.054181214,-0.12515484,0.31386152,-0.11269284,-0.1896821,-0.00095743313,0.15376097,-0.33832887,-0.11770795,0.03905201,0.15757784,0.052023463,2.4662406,-0.17002545,0.5309683,-0.06455217,-0.58375263,-0.04682674,-1.4309494,-0.28080007,-0.28915384,0.6659941,0.6480924,1.6046069,0.2821958,0.3226235,0.04770477,-0.35463694,-0.21916752,0.59763956,-0.3107826,-0.830717,0.007413957,-0.052355062,0.23833938,-0.1650424,0.13772549,0.07233263,-0.1377996,-0.40435097,-0.31582543,-0.12219015,0.17627342,0.61433566,-0.6970235,1.4221032,0.050730266,-0.2891162,-0.0477359,0.09371277,0.34125784,0.0046075163,-0.29997286,-0.18141814,0.36124766,0.12292988,-0.46099234,-0.6824863,-0.14281501,-0.6349112,-0.1856361,0.18429777,-0.14228594,0.45350823,-1.0034858,-0.13398331,-0.06137203,-0.2860487,0.32010087,0.08637395,0.113467336,-0.11841691,-0.06792961,0.049206585,-0.28228745,1.0554909,-1.5780741,0.028034484,1.0004245,0.26184672,0.111076094,-1.8973073,0.9073739,-0.19674212,-0.094956584,-0.13494931,1.183924,-1.282332,-0.20439026,0.56107515,-0.3752729,0.5402264,-0.008507232,-1.5029441,-0.27235937,-0.5942815,0.56098664,-0.059209798,1.283374,0.12007009,-0.42677295,1.2310089,0.17656073,-0.5550767,-0.7043297,-0.24651787,-0.18403892,-0.28015336,2.6587617,0.27560887,-0.22920653,-0.37033075,-0.29925844,0.39851007,0.13337912,-0.2593734,1.8332355,0.76630473,-0.6615969,-0.7885128,-0.23957586,0.29347125,-0.13775112,0.35756055,0.21789931,-0.1251914,-0.20291191,0.35259655,-0.3742152,-0.28345975,0.27658933,-0.13573772,-0.2108383,-1.2590605,-0.1326374,-0.10389766,0.26129878,-0.2260882,-2.6527815,0.41760847,-0.038467653,1.5707017,0.29637152,-0.2303512,-0.33596167,0.15945226,0.110084504,0.08003468,0.040328007,-0.3020127,-0.044629313,-1.0780997,-0.3184345,-0.027667716,-0.13768508,0.14582567,0.38786003,0.061201625,0.5314026,-0.3580374,-0.21374623,0.119948834,0.38770658,-0.349585,2.0148635,-0.09667486,0.2800295,-0.08281371,0.38947448,0.37944505,0.10922376,-0.4283227,0.24380812,-0.014773235,0.31704038,0.82774997,-0.2221701,-0.19935189,0.17019181,-0.017342731,-0.16907585,-0.04112992,-0.3228246,-0.12988666,0.63353205,0.348779,0.034621663,-0.1646635,-0.21719562,-0.20142004,-0.29318652,0.6964795,0.0012481058,0.23227255,-0.11961442,0.036087338,0.042118046,-0.7768636,0.34506702,0.51175123,1.876723,-0.13773131,-0.059396252,-0.07582171,0.047138505,-0.16316667,-0.1144354,0.5693269,0.052033324,-0.040417198,0.11482296,0.17420767,0.34513023,0.027221803,-0.22330846,0.0013056378,-0.27056146,0.09152254,-1.7980596,0.3573705,-0.2504943,-0.29895493,0.18626344,-1.1297555,0.6327967,-0.056376282,-0.44474256,0.00036164268,0.07673422,-0.03721674,1.496537,0.26900533,2.1192133,0.04026205,-0.105847895,0.5314804,-1.0733744,0.27483913,-0.51434755,0.45340815,0.28673685,-0.2533748,-0.550391,0.0055872244,0.32101235,0.21991244,0.19035581,-0.1268205,0.38470745,-0.5407579,0.6809107,0.14376105,0.8553411,0.4139751,0.16866744,0.5618747,1.5123858,0.081986435,-0.1196905,-0.01382929,1.5137161,-0.018237153,-0.20527627,-0.1098388,-0.07938768,0.96146274,0.41943938,-0.12336282,0.09848207,-0.32895285,-0.2260695,0.09161774,1.5028276,-0.001088569,0.0641601,0.020306135,0.44227427,1.8321255,-0.017218504,-1.1082567,-0.71382827,0.52224797,-0.46639812,-0.010326216,0.04970747,0.04025327,-0.17320827,0.83603805,-0.049165677,0.22630993,-0.5665334,0.23152143,-0.30807927,0.29689935,-0.047016848,1.3113444,-0.14957947,0.5067956,-0.15591137,-0.045484982,-1.757136,-0.0980697,-0.21847819,-0.29259297,-0.27472788,-0.21452199,-0.16762328,0.18380293,-0.024205722,0.36737946,0.2488116,-0.274815,0.45731857,-0.29865307,0.15858972,0.33277115,-0.021443488,-0.17442447,0.108998686,0.23357178,-0.052562464,-0.105264366,-0.06941666,-2.1117327,-0.102917336,-0.07306436,0.40165034,0.090212464,0.33640778,1.1214656,-0.16697776,-0.10476156,0.7365488,-0.34525037,1.8598831,-0.13692401,-0.5882681,0.06076891,0.39263177,-0.3663884,0.85466987,14.219274,-0.20778319,1.4938742,0.7961642,0.19993654,0.09303155,-1.4551047,-0.099790156,-0.21834913,0.053201053,0.07878559,0.0036333038,0.09711401,0.16966337,0.5116486,-0.17888671,-0.26650143,0.37404135,-0.24214184,0.028547795,-0.35584065,0.047971133,0.7071625,-0.7421183,-0.13425392,-0.27574176,0.041877225,0.23658247,-0.31031907,0.13294837,0.25495076,0.32892352,-0.33340904,-0.19289078,-0.19883762,1.6778638,0.08237265,-0.34652683,0.30769008,-1.8721731,0.31884632,-1.1556491,0.3253961,0.13780575,0.43755713,0.14948948,-0.70178354,0.25362834,0.31568956,0.04940412,-0.19704029,0.75113916,0.17719701,0.13430619,0.14059466,-0.24976021,-0.98594534,-0.02465752,-0.9384308,0.23129572,-0.19036226,0.1632913,0.031562623,-2.0050952,-0.33236295,0.28110322,0.08457286,0.25140762,-0.17168903,0.063138224,2.0975933,1.4145145,0.12998167,-0.26267865,-0.64879775,-0.23604599,-0.06417479,-0.34477398,0.1655197,-0.2394684,0.1227203,-0.03783435,0.07107988,-0.33367264,-0.26980656,0.1823718,0.48876262,0.4390649,1.3143793,0.22155538,0.02535026,0.36353612,-1.3944278,-0.039340876,0.23831317,0.07930692,-1.543172,-0.13880098,0.010089001,0.308663,0.013715692,-0.33855826,0.2507232,0.34318975,-0.69697374,-1.1845179,0.525759,-0.06144273,0.2029482,0.009970855,-0.3920826,-0.064957,0.4978371,-0.25760582,2.0654955,-0.099464186,-0.11170089,0.07538488,0.6090882,-0.0035959336,0.037446335,1.2897948,-0.30851,-0.4264879,-0.08631753,0.31041798,0.1675386,0.48968762,0.48005763,0.47781646,-0.13168012,-0.029244909,0.059875373,1.9674909,0.15027374,0.09816122,-1.12237,-0.3446579,-0.17073567,-0.55032915,0.1886093,-0.23674771,0.17382152,-0.47710526,-1.3616418,0.19706929,0.44272295,0.11984654,-0.039643336,0.12969199,-0.09212163,0.09001053,0.5247863,0.052679576,-0.05343187,-0.25087723,-0.309532,1.3892003,0.5499573,-0.8288024,0.49060157,-1.4418563,0.64360976,-0.21045038,-0.0046134363,-0.14431748,0.22051351,0.00025252887,0.30859208,-0.60182804,0.018262682,-0.049228314,-0.58050835,1.107294,-0.12790667,0.0023804572,0.5962784,-0.044750277,-0.52296394,0.4637267
net.java.cargotracker.application.HandlingEventService;0;-0.1397649,-0.016623463,-0.14154574,0.21744928,0.2554192,-0.19522604,0.27546272,-0.011412926,0.3463879,-0.442654,0.17033595,0.26954997,-0.0505793,0.022656977,0.5420278,0.03897282,-0.28582665,-0.08234541,0.058906335,-0.4374109,-0.20364334,-0.31535575,0.2477938,0.10871665,0.33297968,0.08950073,0.3141778,0.5900938,0.091046005,1.1563225,-0.15562375,-0.09663495,2.2756662,-0.13631962,0.13829562,0.13062182,-0.1105742,0.06496187,0.40592223,0.14731894,-0.23263368,-0.117968954,-1.393454,0.026941568,0.48999712,-0.024534166,0.008330984,0.6742904,0.04933843,0.20947875,-0.22249027,-0.15141566,-0.7095994,-0.0033415582,-0.1422987,0.6302899,-0.96663046,0.27641436,0.19954774,-0.15649912,-0.42179528,-0.31255805,0.1296829,-0.017074857,1.8415825,-0.28859344,0.7943632,1.7348295,0.28033414,-0.26737368,-0.2049317,0.3504379,0.017348802,-0.85645044,-0.47975254,-0.28251857,-0.15285306,-1.2029757,-0.78443277,0.23835328,0.46172798,0.14607877,0.13671952,0.27942896,0.11173117,-0.2624688,0.028266847,0.06627702,-0.7985786,0.42649657,0.25113767,-0.1045391,1.2271216,0.09551572,0.4543419,0.6370465,0.036695942,-1.0998958,-0.16665168,-0.34755588,0.2722493,-0.7660334,-0.48315755,-0.70078295,0.22174828,-0.098460145,0.5028732,-0.08297904,0.008908937,-0.14891574,0.17346157,0.2609524,0.067209356,-0.16025442,-0.017926347,0.048472084,0.15523401,0.16665514,-0.19871844,0.22770071,-1.4264865,-0.05100621,-0.40558335,0.8280127,0.30739182,-0.019434823,-0.153765,-0.31649232,0.42029282,-0.012678168,-1.7305684,-1.0441401,-0.26835975,-0.087127514,0.33665666,-0.07976586,-0.45084238,-0.1313876,-0.34068292,0.1922663,-0.86022377,-0.3085205,0.16887651,0.296593,0.1968047,0.078605585,0.21367711,0.048531994,0.16246831,-0.3276301,-0.90864795,-0.1622562,1.555258,-0.41744703,-0.42642555,-1.1243961,0.47674248,-0.6249122,-0.3323727,-0.9524964,0.3693186,-0.2245614,0.1913544,0.7285855,0.23215409,0.580746,0.2077772,-0.52222615,-0.024545347,0.5384421,-0.192608,-0.3486445,-0.86649305,0.3241713,-0.07891569,0.40034798,-0.13410583,0.35024753,0.16663198,2.1700695,-0.14784046,0.012141478,0.064185835,0.019344494,-0.1295143,0.22851613,-0.551982,-0.0043515246,0.23406471,0.09504969,-0.07334679,-0.010523525,0.07917261,-0.0665201,0.059367776,0.09855514,0.15070924,0.23071189,1.5177624,-0.25444016,-0.010634008,0.060615197,-0.32812718,-0.26938045,-0.17879231,0.5370552,-0.23395361,0.4601985,0.45434576,1.3759176,2.1962965,0.49008575,0.3489459,-0.28523564,-1.4038144,0.2006873,-0.3386387,-0.080150224,-0.10978063,-0.35664243,-1.7115828,0.24580984,-0.115339875,-0.6194365,0.11575808,0.37973094,0.07177162,0.34619877,0.0047385553,-0.082331605,0.038532075,-0.16898426,0.04504349,0.38801438,-0.76399225,-0.13252729,-0.04801825,-0.108144514,-0.326791,-1.5444802,-0.1265007,-0.08140999,0.116871804,0.5557797,0.5101416,-0.83938575,-0.30749705,0.09010832,-0.08432412,0.39950454,-0.16273585,-0.41684887,0.057854865,0.16153018,-0.4241326,-0.17357928,0.06882041,0.12741001,0.04167771,2.6467695,-0.0014978711,0.516691,-0.0014046902,-0.6929647,-0.098849505,-1.3861432,-0.35966918,-0.12605003,0.6872738,0.7226247,1.7586461,0.33007136,0.2935116,0.10899711,-0.29820174,-0.20080566,0.7275807,-0.3710677,-0.8348142,-0.012915161,-0.083707966,0.33700654,-0.21723974,-0.0045601865,0.17748962,-0.101307176,-0.47651848,-0.39048138,-0.19368365,0.19961207,0.64750576,-0.81677943,1.4931334,-0.03556795,-0.2611788,-0.13242893,0.14661005,0.28211838,-0.011896659,-0.30774415,-0.18545546,0.5564335,0.13107434,-0.486228,-0.82553357,-0.06835757,-0.73398,-0.024547214,0.06327969,-0.11015751,0.49854314,-1.0233238,-0.085388,-0.03660114,-0.3031953,0.24359371,0.1123266,0.32436347,-0.09911254,-0.024908945,-0.121313445,-0.18125837,1.2817256,-1.543431,0.07464788,1.0778694,0.29565206,0.042376745,-2.0019648,0.8566054,-0.104708716,-0.16318431,-0.058339592,1.3788124,-1.3167726,-0.13707651,0.54498583,-0.38995346,0.53968835,0.05845693,-1.4788313,-0.1380653,-0.5773851,0.52475256,-0.07521461,1.4085664,0.021918252,-0.44816503,1.3715655,0.07115319,-0.5348125,-0.811907,-0.13287602,-0.23872553,-0.27564424,2.7350278,0.3123921,-0.20124936,-0.46403188,-0.14117102,0.33341527,0.058214296,-0.20685557,2.0022762,0.8804048,-0.6773389,-0.73280996,-0.23158592,0.2668867,-0.108585626,0.30443338,0.14092812,-0.11572806,-0.2724011,0.4664483,-0.37572378,-0.16637436,0.31172553,-0.09124522,-0.3068258,-1.3561151,-0.017835936,-0.18159023,0.32949248,-0.22562681,-2.6920116,0.46853554,-0.15321335,1.6251132,0.341107,-0.11709773,-0.441271,0.21148941,0.1637037,-0.021909498,-0.0033649667,-0.39286533,-0.038145933,-1.0410218,-0.24491417,-0.0075072465,-0.22032379,0.1841476,0.3857698,0.17548724,0.58606553,-0.3914521,-0.16572845,0.06579472,0.57123566,-0.49294943,2.0589094,-0.0944676,0.1753703,-0.2090081,0.30107358,0.38109317,-0.005414617,-0.3661329,0.4081659,-0.05417181,0.37743115,0.8873081,-0.15284868,-0.15298675,0.22022156,0.02978405,-0.16715351,-0.19050813,-0.52575725,-0.06768324,0.67316264,0.3796258,0.09790768,-0.06855285,-0.2528843,-0.18096526,-0.3726626,0.69374347,0.012611746,0.30309707,-0.10383635,0.0697905,-0.02112735,-0.9916171,0.3098357,0.50971186,2.0146117,-0.16878924,0.0480324,-0.13793385,0.11243141,-0.13735206,-0.115446895,0.64880276,0.02511957,-0.016988862,0.16369602,0.23611782,0.41038823,0.1321374,-0.22129276,-0.13150322,-0.2661277,0.068669915,-1.8806849,0.29444656,-0.28130198,-0.37309414,0.17421901,-1.0994654,0.6491377,-0.2263195,-0.4218893,0.023349293,0.07503554,-0.15234454,1.566248,0.39883938,2.0783198,0.084023796,-0.018045338,0.5726748,-1.1411471,0.4165867,-0.58795357,0.36724555,0.27084398,-0.22599122,-0.60987675,-0.10124512,0.35716042,0.2395596,0.29674518,-0.2536645,0.3099852,-0.6674882,0.83455366,-0.020442883,0.9219776,0.54444903,0.15970325,0.58297056,1.5901873,0.07214565,-0.09132886,-0.036844835,1.7133664,0.040651787,-0.2623198,-0.030713527,-0.07148944,0.836944,0.48929188,-0.12418904,0.19185057,-0.30762655,-0.17558277,0.09781607,1.4847295,-0.013757461,0.20231274,-0.031636596,0.4338675,2.0154467,-0.049270008,-1.2939817,-0.6445054,0.424126,-0.47471514,-0.036526788,0.03794913,0.05277162,-0.21931422,0.8643907,0.0017086719,0.2189907,-0.627213,0.09772216,-0.26369488,0.24875651,-0.07374765,1.4478196,-0.15550585,0.65841866,-0.2197274,-0.03708804,-1.9036233,-0.10825096,-0.17741325,-0.3141214,-0.16919346,-0.21231608,-0.07189443,0.18730158,-0.03388601,0.3857195,0.17775558,-0.3918174,0.62149316,-0.35326883,0.25606778,0.30073896,-0.075168155,-0.2010805,-0.07703974,0.25265545,0.09245608,0.05606604,-0.0014280529,-2.2247286,-0.07012271,-0.067452624,0.5033439,0.13916248,0.31154668,1.1411575,-0.117073655,-0.2060563,0.90236115,-0.28432456,1.9551877,-0.1264778,-0.6239598,0.10343577,0.472856,-0.5927097,0.88146067,13.826441,-0.18502223,1.6158341,0.7325712,0.12424294,0.14990908,-1.5619495,0.007908718,-0.117675565,0.03983476,0.022514097,-0.030956255,0.10150449,0.36711144,0.4208432,-0.18623182,-0.2617311,0.48352548,-0.19607796,0.025929365,-0.21472219,-0.09382928,0.6779863,-0.6395378,-0.27066934,-0.2763383,-0.007453478,0.22015595,-0.4146191,0.23979883,0.20121185,0.30938166,-0.25057295,-0.14273475,-0.20573594,1.73305,0.10315678,-0.36913076,0.26874256,-1.9946445,0.27796695,-1.267241,0.22715583,0.2563719,0.30307505,0.24994977,-0.6301016,0.24328557,0.32552657,0.027000412,-0.20363577,0.77543294,0.13875994,0.13902545,0.21076624,-0.20394619,-1.1805884,0.0026302487,-1.0481046,0.30808,-0.16053893,0.18543859,0.009345788,-2.0413504,-0.2779414,0.25222728,0.117041275,0.23784618,-0.25234306,0.057819605,2.1980016,1.4561507,0.13082665,-0.24480778,-0.8493388,-0.15327844,-0.18995398,-0.3632587,0.27899897,-0.26853395,0.1784054,-0.07539402,0.038560223,-0.41267705,-0.15233278,0.16149428,0.6183286,0.5093007,1.3411533,0.2342019,0.14903483,0.48885408,-1.4159701,-0.024888553,0.40211958,0.16193119,-1.6975677,-0.14139865,0.008980807,0.4609148,-0.06402671,-0.45213625,0.31080225,0.3904929,-0.73275566,-1.2129017,0.50897044,-0.09776557,0.2331874,0.07428924,-0.449156,-0.25145736,0.51589566,-0.24853614,2.0480382,-0.050597046,-0.0749243,0.1395656,0.6444239,-0.09474937,0.038752384,1.4415866,-0.18497404,-0.40466,-0.17964977,0.36951455,0.2793239,0.5129993,0.49406824,0.5189273,-0.097421706,0.010882323,0.072797954,2.123276,0.2065169,-0.07024075,-1.1357195,-0.17541054,-0.2594699,-0.60342383,0.17185321,-0.22162084,0.24800679,-0.54079294,-1.3833704,0.17991392,0.36303195,-0.062471192,0.035337098,0.18904889,-0.13508013,0.026218427,0.6069144,0.1991973,0.004527323,-0.32683596,-0.3111876,1.3392241,0.62608725,-0.8031933,0.49904287,-1.6148132,0.77010906,-0.28116298,-0.18730839,-0.13928142,0.10571537,-0.042233855,0.19727594,-0.66515356,0.1309866,-0.05712267,-0.3653388,1.1936734,-0.19542654,0.074408725,0.6413814,-0.12517142,-0.5814509,0.46113798
net.java.cargotracker.application.HandlingEventServiceTest;-1;-0.23362075,-0.012566653,-0.10841254,0.25794455,0.22922046,-0.26386335,0.33474362,-0.004671483,0.26641414,-0.45181867,0.160277,0.293286,-0.1577956,-0.0012732806,0.6034782,0.03595046,-0.22587346,-0.115293704,0.032478053,-0.4435172,-0.13527346,-0.20297496,0.27967227,0.04551268,0.20549212,0.080527745,0.377561,0.5665415,0.11304885,1.100308,-0.13586128,-0.07041695,2.221648,-0.088436544,0.093964495,0.073287964,-0.07216239,-0.006743498,0.31762978,0.056784257,-0.23854654,-0.11977091,-1.3412086,0.038154162,0.40505564,-0.030651717,0.008518499,0.6026473,0.16089053,0.27907896,-0.098328374,-0.11436334,-0.7913707,-0.07405295,-0.13186775,0.5425392,-0.9348338,0.2736056,0.08000649,-0.18482606,-0.40821227,-0.16914262,0.13887951,-0.121378995,1.8023788,-0.22251482,0.76410556,1.5351791,0.23097207,-0.31191882,-0.2505796,0.33419093,0.089272,-0.85677403,-0.59954566,-0.23693337,-0.14633429,-1.2384756,-0.6776337,0.18888889,0.38701788,0.050123286,-0.043433785,0.31348583,0.14675805,-0.5168027,0.078118786,0.047199875,-0.89480704,0.3417164,0.2504704,-0.16531543,1.252848,0.08345503,0.5009144,0.47121024,0.09944261,-1.1918811,-0.1610925,-0.21231312,0.32518843,-0.82855916,-0.46359494,-0.6841688,0.25851843,-0.12756045,0.53804356,-0.106876574,0.016983874,-0.1286744,0.2825351,0.2957934,0.1534053,-0.2349165,-0.113811575,-0.026697645,0.15336742,0.19054095,-0.04013997,0.32800046,-1.4342645,-0.060411166,-0.3714396,0.868671,0.17155963,-0.03165229,-0.08205571,-0.39870593,0.3970635,0.1281736,-1.6614727,-0.8473702,-0.19490294,0.024046486,0.4041338,-0.092883855,-0.33428463,-0.11603999,-0.28256813,0.25002062,-0.72083515,-0.23655598,0.17204426,0.2653093,0.17559262,-0.015708258,0.271775,0.07466591,0.2988299,-0.28673565,-0.92146057,-0.24235159,1.6071033,-0.3995197,-0.37277022,-1.17694,0.55916697,-0.5339597,-0.33646002,-0.93734884,0.37507257,-0.17312483,0.25793743,0.7138281,0.24283488,0.65345067,0.116389185,-0.5433926,-0.2187304,0.49501288,-0.21802658,-0.42035076,-0.8754277,0.34827313,-0.025398903,0.47228515,-0.040994663,0.32483628,0.18779539,2.0783803,-0.054303408,0.060429234,0.14523731,-0.014677967,-0.23103012,0.20861721,-0.48405898,-0.014159138,0.1608778,0.028391711,-0.09909811,-0.0023155648,0.022197941,-0.015415912,-0.023732727,-0.036455043,0.18048923,0.19062154,1.4962754,-0.26075122,-0.07221074,0.09226636,-0.22885756,-0.25299922,-0.15391877,0.50530684,-0.19627655,0.38445106,0.4758111,1.2978711,2.1973817,0.32910213,0.35418484,-0.2626962,-1.3052378,0.10318964,-0.19430937,-0.099226214,-0.1925301,-0.37056673,-1.4829465,0.2543749,-0.097194165,-0.6018532,0.12749644,0.40390587,0.08988627,0.285971,-0.033518255,-0.045718104,0.0470634,-0.135314,0.0986683,0.42295823,-0.67008096,-0.1155867,-0.076664746,-0.088365786,-0.27530625,-1.4683796,-0.17942554,-0.12217495,0.13725697,0.50644726,0.47252405,-0.7446372,-0.27465656,0.0894135,-0.11569565,0.3359021,-0.19003533,-0.38424453,0.0023700322,0.18526487,-0.39114383,-0.18047278,0.054193553,0.2556246,0.017869955,2.666252,0.030134136,0.51313114,0.024970055,-0.7077958,-0.051378,-1.2811116,-0.26701078,-0.19778973,0.6213855,0.51931524,1.8187355,0.16332309,0.2642165,0.09517372,-0.24936871,-0.2647071,0.7850085,-0.24898027,-0.9020588,-0.019303842,-0.022344954,0.35696772,-0.18936773,0.07725244,0.17354365,-0.10379163,-0.500608,-0.30234057,-0.16753006,0.20422857,0.7082639,-0.7545135,1.385373,-0.07333777,-0.26737976,-0.050087903,0.16417189,0.2918084,0.07798199,-0.3070793,-0.16125089,0.56580514,0.1303703,-0.3709681,-0.7465393,-0.100996815,-0.69770813,-0.08869883,0.08801613,-0.058510367,0.4157157,-0.949024,-0.03799646,-0.12577762,-0.26740286,0.33411106,0.06402821,0.361321,-0.12828511,-0.05032839,-0.10411807,-0.050095636,1.2475535,-1.4774755,0.15486825,1.0540935,0.11204138,-0.05437647,-2.0481198,0.8530035,-0.19846158,-0.1563459,-0.17493111,1.3945746,-1.2601441,-0.12275823,0.5616973,-0.40433934,0.57563144,0.10459892,-1.482129,-0.14457004,-0.5014114,0.375168,-0.058562454,1.536944,0.024462001,-0.44829178,1.3209099,0.05671517,-0.5493414,-0.7723241,-0.1810466,-0.2629014,-0.23799606,2.6011686,0.29161885,-0.23393391,-0.50782055,-0.004586091,0.32094592,0.021469405,-0.28362432,1.94284,0.7851096,-0.6073323,-0.83423406,-0.23573577,0.19317617,-0.0483736,0.38724437,0.14724812,-0.131731,-0.19343029,0.38191175,-0.19091396,-0.17194498,0.23095421,-0.017962186,-0.2807785,-1.4088093,-0.09945724,-0.20104557,0.2971836,-0.13155603,-2.6868188,0.48627916,-0.12189046,1.6001573,0.301908,-0.20305109,-0.35100284,0.071317844,0.22667436,-0.04429702,0.054875243,-0.44752955,-0.30692723,-0.98714036,-0.2317419,0.15102096,-0.24979073,0.12794892,0.46437177,0.21913774,0.48392522,-0.4754571,-0.14175624,0.028026575,0.47217202,-0.48531947,2.157599,-0.15235917,0.127265,-0.17649634,0.3295667,0.43090025,-0.003111909,-0.3580985,0.40436646,0.00949685,0.4030231,0.8011544,-0.17237993,-0.044314433,0.21485938,0.0010171831,-0.17506403,-0.22996056,-0.5235342,0.013271089,0.6283135,0.44975922,0.12900244,-0.1954626,-0.30920014,-0.2649541,-0.45284656,0.75079745,0.11394795,0.22790675,-0.04996036,0.19529402,0.13256861,-0.980223,0.27512407,0.47679028,2.088686,-0.07850958,-0.04976399,-0.14225456,0.16280523,-0.0041554626,-0.13794817,0.67926806,0.082963035,-0.0194292,0.20829457,0.19832277,0.41150823,0.16640177,-0.24359411,-0.11807395,-0.3090786,0.11634803,-1.8259529,0.31731048,-0.17178433,-0.28207824,0.1654151,-1.1683184,0.6096706,-0.21262641,-0.38795292,0.044920713,-0.017332464,-0.1368386,1.565671,0.37606108,2.035711,0.06795967,-0.035637412,0.40822044,-1.1499896,0.51461226,-0.573636,0.43327856,0.28967452,-0.14071696,-0.65246105,-0.09194311,0.28249642,0.20619719,0.23299587,-0.29742897,0.28963974,-0.6019247,0.8471027,-0.110290565,0.91003346,0.5863367,0.17616697,0.6223034,1.6831106,0.056342196,-0.14986783,0.027781509,1.707026,0.03298925,-0.24385929,-0.051637158,-0.06283719,0.8187309,0.42664194,-0.12737046,0.16649584,-0.26607388,-0.24013235,0.06296668,1.7194262,0.08954042,0.11638891,-0.04389034,0.44685045,2.0011504,-0.06453917,-1.2187835,-0.7467215,0.45045543,-0.41859373,-0.026462495,0.004850503,0.09374293,-0.3012673,0.90780073,0.00977702,0.122888245,-0.57322145,-0.08786648,-0.33326352,0.15928648,-0.055679485,1.2835448,-0.14186613,0.59165025,-0.1503503,-0.08923108,-1.9315873,-0.13688327,-0.26700875,-0.24947983,-0.05850345,-0.23542559,-0.081563056,0.22609788,-0.12048849,0.26025614,0.10264659,-0.42706493,0.6004371,-0.2549412,0.29378572,0.3671902,-0.11793935,-0.2271564,-0.048853625,0.22576313,0.12883121,0.012108262,-0.07676648,-2.163499,-0.042952348,-0.029795133,0.35727465,-0.009146248,0.2901285,1.1199752,-0.16113408,-0.20654802,0.8141951,-0.13405938,1.9200727,-0.15895711,-0.64686465,0.06562546,0.34916338,-0.41360053,0.9070804,13.27269,-0.18229723,1.548019,0.6988084,0.2707083,0.09254363,-1.4934355,0.094267,-0.01690913,-0.04220803,0.07164136,-0.058882054,0.01680349,0.30438864,0.4285059,-0.17593138,-0.20212424,0.3852966,-0.28705916,0.023193114,-0.10080003,-0.059460286,0.76293296,-0.63153094,-0.1916761,-0.30767953,-0.1364397,0.10865932,-0.33657214,0.33663568,0.14882953,0.34795007,-0.14580779,-0.21422172,-0.21514864,1.6362096,0.047977358,-0.42863193,0.20534693,-1.9060875,0.22091734,-1.2307204,0.33305618,0.23295738,0.39647833,0.263829,-0.69337845,0.22519548,0.35262433,0.075339206,-0.023632525,0.70217377,0.11095115,0.24037874,0.20284677,-0.16695626,-1.1571723,-0.057617847,-1.0248481,0.17854951,-0.16306418,0.20566426,-0.021100426,-2.0438921,-0.35969678,0.29976583,-0.034747448,0.29287282,-0.23959835,0.20825839,2.0940573,1.5107762,0.17506291,-0.18191147,-0.8794976,-0.16065663,-0.19032894,-0.36389676,0.262246,-0.31691203,0.120506905,0.0043574334,0.07421347,-0.33208802,-0.04220717,0.116251044,0.846628,0.48777804,1.2985123,0.22626673,0.20321243,0.34905207,-1.4207482,-0.033284243,0.33327037,0.13547304,-1.6022391,-0.154716,-0.03430544,0.43760037,0.035566088,-0.4935471,0.2447799,0.38940325,-0.6954774,-1.1284605,0.5626933,-0.046507835,0.30849501,0.069466315,-0.40172312,-0.2786077,0.6341163,-0.15524192,2.0621078,-0.21670072,-0.1049074,0.09377589,0.69200563,-0.007537303,0.11291028,1.4565705,-0.18355763,-0.36794642,-0.19895275,0.2947065,0.22063912,0.47253934,0.47792718,0.58698577,-0.07269924,0.0022066326,0.19034474,2.039648,0.14599295,-0.112077735,-1.1407218,-0.10402713,-0.15488909,-0.5494318,0.158345,-0.26138172,0.26557037,-0.42611465,-1.3965203,0.12012183,0.41766787,-0.099154614,0.06399343,0.12634163,-0.12677258,0.092382185,0.50651103,0.03762467,-0.04955,-0.12480354,-0.2782983,1.3656384,0.5792235,-0.8751355,0.62376887,-1.6562939,0.81741375,-0.3170195,-0.025773838,-0.0736511,0.25203168,-0.02180641,0.26118228,-0.62830687,0.2359311,-0.060505003,-0.38941494,1.091659,-0.08297389,0.0040037767,0.76976234,-0.14075972,-0.56330913,0.49601784
net.java.cargotracker.application.internal.DefaultBookingService;-1;-0.19431631,-0.02469966,-0.12965995,0.32908267,0.27859795,-0.25180686,0.36675367,0.03723457,0.31417033,-0.6085136,0.17714755,0.25163665,-0.18301542,0.04058173,0.56690574,-0.030995222,-0.34524432,-0.11684835,0.07124508,-0.5041892,-0.15585677,-0.2114008,0.289752,0.094854094,0.20121251,0.062450394,0.39915583,0.6504199,0.09416151,1.0669442,-0.20114343,-0.061374974,2.238939,-0.09792882,0.14302179,0.014151052,-0.12589265,-0.084060006,0.39017832,0.10623086,-0.21952464,-0.14003901,-1.2524767,0.042171765,0.3908083,-0.14317441,0.048829507,0.57690924,0.21753378,0.27841005,-0.08827937,-0.24178813,-0.76651984,-0.013501443,-0.04650241,0.5577622,-0.8627429,0.3459243,0.11091445,-0.22682351,-0.48479962,-0.13022946,0.10924464,-0.110819586,1.7701712,-0.2988455,0.8178765,1.6350263,0.30795708,-0.35174167,-0.20616947,0.40614173,0.19798274,-0.9945411,-0.69081974,-0.2827197,-0.11330256,-1.2538352,-0.74089336,0.2565256,0.4167494,0.19106303,-0.09362483,0.27111772,0.23912245,-0.5583833,0.09965563,0.04031745,-0.8323315,0.41667208,0.26202717,-0.12820747,1.2934699,0.11040711,0.49765527,0.4755586,0.039538506,-1.1828847,-0.23931618,-0.29436713,0.27871868,-0.8209955,-0.5281601,-0.77494025,0.32293054,-0.033648256,0.56656796,-0.12978403,-0.07250571,-0.15735023,0.23058401,0.2739264,0.09511409,-0.25407663,-0.11400356,-0.020450754,0.10572488,0.16032039,-0.076194175,0.2984397,-1.4810024,-0.136606,-0.3987032,0.86847013,0.20881067,0.022768766,-0.1212466,-0.32061765,0.42990744,0.034411054,-1.6905311,-0.7918095,-0.18926539,-0.044671033,0.38005337,-0.08282776,-0.37077323,-0.13241293,-0.32021442,0.175885,-0.74209905,-0.26400778,0.107443295,0.2954124,0.14847863,-0.043979853,0.2872003,0.05233438,0.31976518,-0.35303175,-0.9441022,-0.25545752,1.5552216,-0.4294746,-0.40352142,-1.1828347,0.56324583,-0.597781,-0.400185,-0.98748976,0.35623083,-0.05383799,0.34722424,0.7460656,0.22146165,0.6059169,0.11830916,-0.5621337,-0.13925701,0.48056793,-0.16147073,-0.3384057,-0.90711355,0.4269813,-0.05287992,0.47124687,-0.042270962,0.3229616,0.23389216,2.147771,-0.072942235,0.13555449,0.13734443,0.040806875,-0.1781429,0.14107953,-0.4753257,0.026173517,0.20240913,-0.007678932,-0.04373267,-0.035790164,0.041995067,-0.08135202,-0.015513338,-0.015585329,0.1370939,0.19130147,1.5947741,-0.27693486,-0.09290973,0.07366162,-0.19163573,-0.2339731,-0.21908796,0.5040471,-0.2195078,0.38092312,0.43135858,1.3226577,2.227724,0.33593372,0.27068803,-0.24116655,-1.3592181,0.086803995,-0.13370842,-0.080494486,-0.15661879,-0.37156639,-1.52379,0.23554641,-0.10702732,-0.6039234,0.08223802,0.46619344,0.007057442,0.3016317,-0.06783293,0.03885594,0.15179117,-0.10325778,0.13800578,0.44391346,-0.72505707,-0.08146504,-0.0003540404,-0.0959877,-0.38524374,-1.4973687,-0.13082466,-0.15184914,0.08597437,0.4939892,0.55623823,-0.6675022,-0.33467922,0.052090187,-0.18670897,0.28291047,-0.13967256,-0.48283544,-0.0005788952,0.1877393,-0.41154924,-0.2162972,0.0068931356,0.26983345,-0.016391145,2.6902401,0.0055659884,0.5066511,-0.0076497435,-0.625356,-0.14779389,-1.2702489,-0.29384068,-0.22625057,0.7308042,0.7067702,1.7586646,0.12519167,0.24045664,0.09554672,-0.31628883,-0.31366524,0.7594886,-0.32435286,-0.8707013,-0.0031183835,-0.031775024,0.36870658,-0.19825272,0.17188543,0.21570003,-0.10188806,-0.6000157,-0.40300426,-0.13086477,0.2205389,0.69799185,-0.7337899,1.4467751,-0.038775463,-0.25513658,-0.10294172,0.17819448,0.28593686,0.12158218,-0.3016063,-0.28191638,0.5919046,0.16517092,-0.46279395,-0.7907624,-0.067569904,-0.7588985,-0.0990015,0.12303472,-0.040695444,0.4233142,-0.9958191,-0.056339573,-0.039921623,-0.2721748,0.42703593,0.11399016,0.3938184,-0.14236781,-0.123762645,-0.14513229,-0.15051639,1.2756562,-1.5282468,0.10575068,1.1414762,0.26262704,0.0049586445,-2.1027858,0.88176346,-0.25323248,-0.28731802,-0.20523699,1.4082447,-1.3296468,-0.12949757,0.54561657,-0.31959677,0.6262868,0.20631893,-1.5561886,-0.18678455,-0.48738244,0.5150631,-0.036961507,1.5295596,0.089294605,-0.5719973,1.2982547,0.056225393,-0.6144336,-0.71915907,-0.15497875,-0.31633547,-0.37494913,2.6737442,0.30652636,-0.28707084,-0.52500683,-0.015833413,0.32023528,0.06192976,-0.33333454,1.904612,0.8595126,-0.6129473,-0.8014466,-0.1794849,0.21920453,-0.030956345,0.43223193,0.11859965,-0.079761244,-0.30186185,0.3973402,-0.2195871,-0.26558772,0.29111496,-0.0871732,-0.33936858,-1.3906592,-0.07354004,-0.22960591,0.30378136,-0.24010527,-2.6867113,0.54425365,-0.15936379,1.6802,0.38535264,-0.19353865,-0.4434879,0.09802473,0.25562128,-0.115836866,0.09616309,-0.46952486,-0.29686692,-1.1692344,-0.16560505,0.16824418,-0.20750022,0.1274085,0.435178,0.32731423,0.47826496,-0.51770073,-0.15444565,0.094275065,0.40924916,-0.4967265,2.2219718,-0.117948465,0.119871795,-0.16454639,0.3423469,0.31951115,0.07622611,-0.31512,0.45796537,-0.027130345,0.46403983,0.78994566,-0.17155015,-0.17433096,0.1655568,-0.032355953,-0.20250647,-0.16142496,-0.57273513,0.05958043,0.69444877,0.48880234,0.07084765,-0.11668289,-0.27657628,-0.2540374,-0.45502314,0.7807088,0.05444315,0.29173175,-0.093349576,0.13333005,0.16615976,-1.0313802,0.23986208,0.55224085,2.0943372,-0.102093436,-0.0563589,-0.12532611,0.11904752,-0.089207925,-0.1451398,0.71823025,0.075282626,0.026001906,0.23934072,0.16284819,0.42347977,0.15155795,-0.29882595,-0.13397793,-0.34931067,0.1284544,-1.7601377,0.30626735,-0.20592976,-0.33614182,0.19808857,-1.1612805,0.671535,-0.15472706,-0.4299272,0.030856982,-0.029491292,-0.033756938,1.5212731,0.38622472,2.0059166,0.03489117,-0.0205838,0.44439653,-1.1167244,0.5505174,-0.6772862,0.4781084,0.35968593,-0.1978234,-0.6933611,-0.033345837,0.3223211,0.273173,0.22215028,-0.30768722,0.2779609,-0.6304603,0.9161949,0.03768623,0.9750114,0.6424734,0.089179695,0.7162199,1.6042076,0.08715723,-0.18680768,0.026718928,1.7951788,0.0028868404,-0.24815887,0.03157256,-0.05210455,0.83451825,0.51617783,-0.111770384,0.076660104,-0.3096921,-0.22934623,0.020689754,1.6379682,0.048597973,0.1063383,-0.05143221,0.49594608,1.9587463,-0.023306392,-1.1947027,-0.7148815,0.5465161,-0.44191256,0.039661292,0.060192306,0.048675936,-0.27123648,0.9347661,0.03398877,0.1913284,-0.5862201,-0.006963216,-0.28910458,0.2138157,-0.0013064841,1.2721392,-0.2242196,0.5654299,-0.19916253,-0.055314843,-1.9363035,-0.110174485,-0.15438938,-0.31167755,-0.023087442,-0.29433122,-0.07397718,0.18001062,-0.16709864,0.3187184,0.11212891,-0.4026927,0.66286844,-0.32022345,0.2579803,0.41953897,-0.13167912,-0.1477982,-0.031622555,0.26740354,0.14378507,-0.058957834,-0.062401015,-2.1350584,-0.036842067,0.0145666525,0.41823503,-0.1033502,0.28438905,1.1168689,-0.20597832,-0.2588551,0.92232937,-0.24092627,1.9584724,-0.15471265,-0.69722193,0.05250916,0.29720262,-0.41896453,0.8561444,13.23215,-0.13667102,1.4940425,0.71099305,0.24627368,0.11557474,-1.5634352,0.14391953,-0.0129988855,0.015646754,0.15803458,-0.08422462,0.07838159,0.40542307,0.42217788,-0.19167463,-0.22939058,0.38422456,-0.32652068,0.054062005,-0.25815225,-0.057061892,0.75182563,-0.6249206,-0.21124275,-0.37696734,-0.20491795,0.10151089,-0.36423123,0.40250754,0.23060755,0.2220041,-0.12403482,-0.21547191,-0.15177764,1.5724,0.007540978,-0.40202355,0.2676973,-2.0189626,0.24232177,-1.3427368,0.34555042,0.29624212,0.4069881,0.37666282,-0.7198085,0.2248522,0.29571,0.040526118,-0.023174824,0.6708277,0.21227662,0.2595395,0.19591759,-0.19827883,-1.0908726,-0.06503593,-1.0275064,0.24298018,-0.17340337,0.16486797,-0.06323136,-2.0480955,-0.35760567,0.3381655,0.039685514,0.3680564,-0.21656239,0.06983196,2.0493019,1.5181478,0.15581326,-0.16163762,-0.94728214,-0.10782984,-0.24948092,-0.3514755,0.25126335,-0.31147447,0.18853456,-0.06542094,0.16039957,-0.3555951,-0.12102908,0.09900739,0.7374436,0.51955646,1.2334003,0.29571202,0.17326821,0.46730635,-1.4249053,-0.050949004,0.30635133,0.23745124,-1.6142654,-0.15755266,0.0069405385,0.42035627,0.07340037,-0.48423442,0.20514782,0.39438936,-0.62261224,-1.17543,0.55396914,-0.13683753,0.31454155,0.12265122,-0.38116145,-0.28264424,0.65646595,-0.13476706,2.073538,-0.17525125,-0.15583321,0.054538652,0.8069215,-0.024678135,0.039131716,1.4482126,-0.23319761,-0.3850144,-0.22663198,0.2879254,0.31223378,0.5479763,0.51077217,0.5360384,-0.07855826,0.024426043,0.15960185,2.1118119,0.17201968,-0.1419499,-1.1345704,-0.1387585,-0.213255,-0.7002301,0.19061798,-0.24525003,0.26467904,-0.44809675,-1.3935032,0.17336053,0.38803425,-0.044504005,0.07109348,0.16322568,-0.023224464,0.07077102,0.6096104,0.101941265,-0.0863506,-0.09465581,-0.31819925,1.4046775,0.66014034,-0.9035697,0.6729285,-1.6982647,0.80802804,-0.339314,-0.06771359,-0.07271201,0.18366377,-0.049660604,0.26458797,-0.7000796,0.24857326,-0.027240142,-0.45706847,1.1460977,-0.00831243,-0.029009985,0.7283768,-0.1780314,-0.6074591,0.47739616
net.java.cargotracker.application.internal.DefaultCargoInspectionService;-1;-0.21354657,-0.039880097,-0.08236019,0.31155658,0.346295,-0.253639,0.37976488,0.019704498,0.23726079,-0.54763645,0.14237815,0.23701301,-0.12380478,0.021722198,0.6146679,0.034906413,-0.32817167,-0.11267629,0.056772277,-0.5286747,-0.09823981,-0.19556907,0.25369698,0.11557646,0.27564994,0.08087602,0.41087434,0.6642848,0.15190151,1.1090657,-0.11060034,-0.048353,2.2335463,-0.16861576,0.08273815,0.026683632,-0.08175926,-0.050309133,0.34754753,0.03493106,-0.18455204,-0.20438129,-1.3543627,0.071483195,0.41573107,-0.11943167,0.059273627,0.57976294,0.20783699,0.27997404,-0.10230138,-0.26707977,-0.87364495,-0.010255293,-0.07584836,0.5336511,-0.91456234,0.37124804,0.08587428,-0.18574494,-0.46299464,-0.15724908,0.12203579,-0.009581208,1.8158715,-0.2950181,0.87744004,1.6951618,0.28157258,-0.37694627,-0.20291153,0.41506255,0.17599022,-1.073359,-0.61272115,-0.26826507,-0.13449425,-1.3887398,-0.7887524,0.21458462,0.4351494,0.14430456,-0.12259674,0.2930008,0.22176304,-0.6024357,0.086128496,0.04388377,-0.9421176,0.43860078,0.24495712,-0.1528752,1.3202915,0.13026883,0.54997295,0.45030385,0.048835766,-1.2648175,-0.24443191,-0.3079647,0.22983861,-0.77457213,-0.5836671,-0.7657997,0.3076771,-0.07740558,0.5456774,-0.09935519,-0.081027955,-0.17478241,0.25789863,0.339699,0.12657619,-0.24951234,-0.12363818,-0.0119719505,0.12674195,0.1946415,-0.054906934,0.22041169,-1.5255346,-0.14359282,-0.38558054,0.8734431,0.21018773,-0.048566658,-0.07001588,-0.34776115,0.40249068,-0.0018612734,-1.7036226,-0.8450147,-0.16390285,-0.055306353,0.35153127,-0.07106471,-0.41039723,-0.122266665,-0.31931835,0.17369923,-0.7898139,-0.303109,0.16654384,0.30321985,0.16474447,-0.050017245,0.29313964,-0.06199085,0.35808247,-0.26651624,-1.0073732,-0.3466848,1.6218158,-0.41789377,-0.43678027,-1.2436867,0.6007745,-0.6253749,-0.4206462,-0.944796,0.35475668,-0.105752595,0.337143,0.7781311,0.19311073,0.6516285,0.22941765,-0.5408133,-0.19418465,0.4830054,-0.14616257,-0.3869932,-0.87878907,0.39197946,-0.03709618,0.52105355,-0.08429408,0.2906795,0.24613729,2.1408536,-0.10146555,0.11592962,0.121981815,0.024397202,-0.21444358,0.19489096,-0.5211015,0.040778037,0.21379682,0.0232212,-0.052002307,-0.053967405,0.017905068,-0.059061036,-0.039349034,-0.037311576,0.10327056,0.15441936,1.5568284,-0.19195133,-0.09061715,0.035081536,-0.23039053,-0.2831626,-0.24240592,0.5664588,-0.19323461,0.371666,0.4851458,1.3489132,2.3129182,0.37896135,0.28587192,-0.25195795,-1.4148178,0.13503149,-0.14868984,-0.08483251,-0.13308129,-0.41091752,-1.5569407,0.22598036,-0.14635122,-0.5680226,0.11330605,0.48810136,0.0076323505,0.4033278,-0.0138456,0.012835194,0.12515946,-0.097133905,0.14148445,0.4620655,-0.73332715,-0.08857523,-0.022595031,-0.0789011,-0.28955004,-1.5788805,-0.18807024,-0.13435209,0.09360844,0.51851666,0.5460588,-0.7208965,-0.3212738,0.1359202,-0.14989023,0.34956795,-0.14761063,-0.51032495,0.0181907,0.18361774,-0.47333357,-0.2563174,0.0057719154,0.30954057,-0.034898255,2.7366204,0.031669572,0.5412728,0.0029357257,-0.67493504,-0.13958472,-1.2769277,-0.32856208,-0.18703257,0.71884847,0.7595748,1.7811375,0.14303122,0.29430446,0.113444895,-0.2919847,-0.3639217,0.7749141,-0.2818352,-0.914887,0.0015927814,0.0044939746,0.38955364,-0.20682207,0.0751577,0.22309488,-0.18293515,-0.59023345,-0.39181313,-0.19655403,0.16625988,0.7427903,-0.76271284,1.4568433,-0.082381636,-0.2730621,-0.067367256,0.174898,0.26498264,0.060458615,-0.30029353,-0.22648159,0.57653326,0.1344921,-0.43376884,-0.85321224,-0.10671653,-0.73071754,-0.060876407,0.11852921,0.029342297,0.42813087,-1.0197533,-0.036726415,-0.08023969,-0.2564896,0.48313442,0.13635993,0.31730664,-0.17039883,-0.032300003,-0.1824533,-0.1726214,1.347861,-1.5250962,0.08335377,1.1262689,0.21194772,0.026724903,-2.1953244,0.827552,-0.22046037,-0.24950048,-0.18951595,1.3676963,-1.3560131,-0.12505373,0.53629535,-0.36949357,0.6289084,0.18488382,-1.556968,-0.122278124,-0.4336303,0.44887787,-0.0413526,1.5408001,0.08351856,-0.61440945,1.3298618,0.026738856,-0.57810116,-0.7464445,-0.11427511,-0.24493094,-0.3810445,2.6833653,0.34709588,-0.24522525,-0.5472491,0.05193846,0.3653047,0.07823323,-0.32729107,1.9986333,0.8469492,-0.72097313,-0.8380246,-0.23283911,0.22441676,-0.042355806,0.37530404,0.16789144,-0.08472289,-0.23523661,0.40753704,-0.3311622,-0.24348927,0.34804466,-0.07935284,-0.38204846,-1.4333744,-0.07475612,-0.25889817,0.3478696,-0.15847372,-2.7547812,0.5468762,-0.17130747,1.6351163,0.36382568,-0.23855367,-0.471928,0.06371775,0.24217872,-0.080406256,0.089895226,-0.48591015,-0.2846201,-1.229348,-0.15919825,0.1808373,-0.24361561,0.1842557,0.47606874,0.29102033,0.51774985,-0.47316194,-0.11205232,0.13417578,0.3955809,-0.5062449,2.26116,-0.08759824,0.07328667,-0.18809089,0.3310504,0.36453876,0.028777834,-0.34193885,0.4986128,-0.013896467,0.54537106,0.82085526,-0.086044684,-0.17565499,0.1685489,-0.026210383,-0.17096029,-0.19528766,-0.56389415,-0.036634024,0.65854657,0.5835359,0.08340204,-0.11700027,-0.24626668,-0.1954023,-0.41297477,0.7866578,0.103892244,0.29393715,-0.103280984,0.16548693,0.07506228,-1.117716,0.16240337,0.56928587,2.1215792,-0.057596777,-0.039828904,-0.13423863,0.11426847,-0.033275995,-0.27185187,0.72723603,0.09922961,0.03244666,0.22774142,0.15904865,0.41839212,0.15488082,-0.2628299,-0.18268384,-0.2984798,0.192514,-1.7967031,0.2542023,-0.1821096,-0.33289135,0.169069,-1.1879032,0.6909126,-0.15792766,-0.39557275,0.07104672,-0.004737098,-0.05154889,1.538018,0.34343183,2.0099716,0.068635926,0.009174321,0.5201788,-1.17288,0.57466245,-0.6826555,0.4148411,0.33596095,-0.1905361,-0.70123816,-0.020316403,0.33675653,0.29471678,0.18445817,-0.36221558,0.24150658,-0.73222816,0.9120483,0.007456228,0.96310365,0.65279484,0.13603967,0.6047194,1.624578,0.098384105,-0.22885816,0.031761773,1.8918567,-0.057129465,-0.290314,0.071895175,-0.028504811,0.8483659,0.50660914,-0.13094719,0.070444375,-0.28106323,-0.27858204,-0.073378384,1.6859827,0.0702627,0.1500305,-0.086036734,0.4695989,2.002125,-0.09849568,-1.2388425,-0.6981747,0.5118347,-0.43578678,0.035256494,0.05475972,0.11281057,-0.25973386,0.8805535,0.030261915,0.20915373,-0.5414939,-0.013613911,-0.24389404,0.30841628,0.035331167,1.2598138,-0.17973614,0.5613423,-0.21435279,-0.039456006,-1.9770886,-0.08998378,-0.17635101,-0.32548374,0.15329011,-0.34344915,-0.069868274,0.23453549,-0.15894136,0.34481534,0.0882073,-0.45271385,0.66410685,-0.31524843,0.2592826,0.36599112,-0.095480375,-0.19993213,-0.075894885,0.27422446,0.16848639,-0.03383264,-0.06867145,-2.1559834,-0.0770804,0.016609997,0.47468725,-0.09884825,0.33969873,1.1611986,-0.15082671,-0.27372953,0.9855633,-0.2086724,1.9973841,-0.1360542,-0.69247067,0.106573895,0.32857838,-0.496076,0.85069656,13.079988,-0.11761618,1.5683057,0.7259317,0.22514269,0.037931796,-1.5294372,0.089804724,-0.0034548244,0.028783513,0.13261768,-0.031395,0.08923894,0.42255303,0.38245907,-0.18089148,-0.19335446,0.3987429,-0.31394464,0.092275225,-0.24582371,-0.11200723,0.7585027,-0.5959008,-0.27036682,-0.3789875,-0.18703157,0.113162875,-0.39652938,0.41508746,0.17249036,0.21579853,-0.12370902,-0.17810833,-0.12071708,1.6445196,0.028154887,-0.41390532,0.27846852,-1.9963408,0.18124156,-1.3180498,0.2984168,0.30032086,0.3905272,0.4167941,-0.7039914,0.19306879,0.37412322,0.106943496,-0.05058551,0.69006515,0.16734514,0.2870425,0.17334732,-0.19212475,-1.1908722,0.012266105,-0.9774322,0.29709396,-0.15383755,0.20276299,-0.028782561,-2.065098,-0.30874443,0.3000663,0.04531646,0.38988197,-0.24658817,0.06096515,2.1137795,1.5588421,0.15850618,-0.19489966,-0.9494812,-0.0608437,-0.28442568,-0.40424794,0.26376534,-0.30793267,0.20258069,0.011470165,0.094212525,-0.3202591,-0.06531636,0.0750371,0.77379906,0.5450649,1.2824879,0.26132226,0.23702736,0.5414736,-1.4174044,-0.10060958,0.38910866,0.22977306,-1.6921091,-0.2046473,-0.06897782,0.4104964,0.079054326,-0.50715363,0.22499798,0.3948241,-0.6726167,-1.197917,0.5881474,-0.13492703,0.27952224,0.11062531,-0.43983454,-0.29957026,0.68427306,-0.124554545,2.0407343,-0.14801742,-0.13902088,0.06612538,0.80505645,0.078838855,0.015563987,1.4641052,-0.1944619,-0.3456365,-0.25779894,0.33045375,0.27663484,0.5308721,0.53933895,0.5390647,-0.1061033,0.035136282,0.16792488,2.1471543,0.16263035,-0.08247044,-1.1149879,-0.07304479,-0.20689464,-0.73378336,0.19583586,-0.24371651,0.23522708,-0.4830221,-1.3902501,0.1714114,0.36805034,-0.06447621,0.090055384,0.16081017,-0.066865906,0.05695179,0.62448454,0.11159905,-0.038883276,-0.07691011,-0.29279172,1.4227276,0.66620725,-0.9290614,0.6853374,-1.7478645,0.85228443,-0.3583547,-0.070579,-0.099825114,0.16045757,-0.08876775,0.18317467,-0.6874005,0.24332893,-0.014687717,-0.34638068,1.1860473,-0.026921757,-0.015646715,0.77887404,-0.18389067,-0.6123907,0.43984842
net.java.cargotracker.application.internal.DefaultHandlingEventService;-1;-0.17179087,0.010858053,-0.11366505,0.36772293,0.3826428,-0.30381292,0.40416825,-0.029167676,0.2485062,-0.5398406,0.09455837,0.28563133,-0.12513164,0.07775946,0.5653616,0.07511693,-0.29805854,-0.11802015,0.058413256,-0.47678936,-0.15064494,-0.24515253,0.25156617,0.1908383,0.3345644,0.1256539,0.42375612,0.61386764,0.19991437,1.2037625,-0.1285393,-0.10482249,2.2973566,-0.11908117,0.083146766,0.08757364,-0.057855107,-0.036098685,0.3410478,0.07199227,-0.20206553,-0.09530565,-1.4040668,0.050557017,0.35235226,-0.14940363,0.096113,0.63765323,0.1407806,0.2406354,-0.08269705,-0.26045096,-0.8418987,-0.007206012,-0.053778663,0.57922053,-0.8790646,0.3933292,0.1384578,-0.14895116,-0.46016228,-0.27190503,0.10437582,-0.009267075,1.8174253,-0.332448,0.83867216,1.6465534,0.3857058,-0.31792945,-0.26850417,0.3864268,0.07968881,-0.99201703,-0.59474427,-0.33033398,-0.090105444,-1.4120903,-0.78736126,0.22116381,0.46435547,0.1460754,-0.063580796,0.2851104,0.21168134,-0.52445304,0.07686303,-0.026429303,-0.924996,0.40619987,0.262285,-0.14478564,1.3930912,0.13486396,0.5248056,0.5290032,0.11896299,-1.1937835,-0.20353091,-0.27286413,0.31503206,-0.8230089,-0.5318123,-0.7050688,0.28677577,-0.09308854,0.46955535,-0.07131298,-0.045225218,-0.10359366,0.20583588,0.32206678,0.09329911,-0.24434164,-0.09291262,0.013523497,0.12077119,0.14890486,-0.05388187,0.22111712,-1.4489856,-0.112445176,-0.32593542,0.8919934,0.15804176,-0.05490344,-0.019034013,-0.40165,0.35202846,0.01103799,-1.7720013,-0.85497564,-0.17012396,-0.07619756,0.4540824,-0.13513808,-0.36665314,-0.16758206,-0.26737988,0.1878997,-0.7637737,-0.33856887,0.20133933,0.31912947,0.16300778,-0.012210492,0.2875195,-0.03208988,0.2679315,-0.30164886,-1.0411508,-0.2565777,1.5874456,-0.44793025,-0.42429948,-1.1488761,0.5405123,-0.58574003,-0.37504506,-0.9851675,0.38399786,-0.12202321,0.29732168,0.7668885,0.18645236,0.69228315,0.13211034,-0.55217683,-0.09979304,0.5263418,-0.1571297,-0.35873777,-0.94335943,0.3123228,0.010134425,0.48323745,-0.079271615,0.3150258,0.1761979,2.204742,-0.11100711,0.073409915,0.08749051,0.05226535,-0.087554455,0.18032998,-0.5193137,0.056374226,0.19130443,0.002847068,-0.10128932,-0.015242688,0.005550068,-0.06373659,-0.0024622232,-0.035856385,0.16206035,0.22140233,1.5996016,-0.27018082,-0.015482536,0.055127475,-0.20893207,-0.26958537,-0.20944118,0.498147,-0.22552209,0.37041947,0.43690503,1.3549318,2.3005433,0.38908732,0.28115955,-0.2894402,-1.5151722,0.11264871,-0.19084953,-0.035675913,-0.18860817,-0.33818328,-1.613562,0.23251344,-0.11820034,-0.5471693,0.069481045,0.5183165,0.023882052,0.39636546,0.012608666,0.04362897,0.03770338,-0.08871884,0.09743355,0.43805778,-0.7949824,-0.11460375,-0.033157125,-0.11199154,-0.299702,-1.5595188,-0.12991054,-0.11805206,0.16539171,0.5513374,0.5168086,-0.8452598,-0.27756274,0.1400894,-0.20187536,0.3286944,-0.15827483,-0.44067436,-0.07760901,0.20677882,-0.48143032,-0.17563999,0.03855848,0.23427044,-0.04447179,2.716937,0.028903175,0.5512284,0.0577512,-0.7291256,-0.113260746,-1.318259,-0.34465244,-0.15720817,0.67823315,0.70204234,1.784087,0.20262162,0.28363332,0.097660676,-0.3157702,-0.31396347,0.84399533,-0.2909548,-0.884976,-0.022602875,-0.013084685,0.32851288,-0.25119203,0.09609607,0.26359934,-0.10453499,-0.55025417,-0.33955857,-0.13630927,0.19210483,0.7062638,-0.756577,1.4082477,-0.07288042,-0.32175165,-0.12804906,0.1038923,0.21555334,0.035322245,-0.35214207,-0.28981417,0.5416999,0.16218847,-0.4776461,-0.8531777,-0.027323633,-0.72626805,-0.03413097,0.01606163,-0.057972845,0.4372363,-1.0369909,0.0024486259,-0.08213905,-0.2210274,0.39423287,0.13458407,0.36699912,-0.14607944,0.009373021,-0.1026525,-0.20199613,1.294894,-1.5131218,0.117100015,1.1514715,0.26136428,0.0488057,-2.157347,0.89841866,-0.22624968,-0.22803538,-0.13203074,1.4086107,-1.3948534,-0.12325614,0.5468551,-0.38079244,0.68504095,0.1515033,-1.5529995,-0.20299038,-0.45389265,0.4953155,-0.040933326,1.5242078,0.04434522,-0.5996418,1.3425405,0.08101268,-0.573964,-0.7785338,-0.15276885,-0.22215056,-0.39153975,2.6948872,0.2648574,-0.26393482,-0.48191327,0.005157642,0.38338974,0.119669616,-0.2846213,2.0033891,0.86112523,-0.70033777,-0.8734285,-0.22012392,0.2465207,-0.15775023,0.33232886,0.15073524,-0.11639776,-0.18471575,0.40602285,-0.34413117,-0.21903296,0.37918878,-0.056679986,-0.3029693,-1.3585908,-0.08741888,-0.2635277,0.3866092,-0.2504985,-2.6795905,0.49993283,-0.17559105,1.6436796,0.40534243,-0.23083073,-0.4947813,0.11103128,0.20915288,-0.06237548,0.10156614,-0.42718512,-0.16883585,-1.1918192,-0.2175557,0.19427392,-0.18700823,0.18605494,0.4727779,0.2972138,0.51050425,-0.38235474,-0.14586766,0.11641176,0.4224916,-0.55550766,2.266754,-0.08304379,0.12758645,-0.14392269,0.34589976,0.34927398,-0.039751746,-0.45068753,0.4685241,-0.06521069,0.39282143,0.8538729,-0.23222533,-0.2149256,0.17865326,-0.017567955,-0.19713154,-0.1954142,-0.5046775,0.029406862,0.6650548,0.5854988,0.09895253,-0.15724412,-0.26963645,-0.16930977,-0.42382622,0.8312863,0.12876913,0.2809499,-0.13522466,0.1133844,0.0990935,-1.0775311,0.2497786,0.5920502,2.150525,-0.16969681,0.010139993,-0.11937058,0.13070749,-0.0645584,-0.17218426,0.6845271,0.12316264,-0.014722576,0.24440643,0.1772114,0.42808217,0.09932429,-0.31539273,-0.17184675,-0.2968158,0.12503204,-1.804737,0.28959665,-0.21656215,-0.3557213,0.20068985,-1.1621375,0.69173145,-0.18637061,-0.4017976,0.09506505,0.006041432,-0.042987518,1.5780873,0.43186215,2.1080785,0.11776234,0.060781993,0.54920006,-1.2049806,0.47746125,-0.68816143,0.41005194,0.35668844,-0.21106729,-0.69306266,0.064674586,0.3788222,0.25649333,0.20383126,-0.36061236,0.3210089,-0.727997,0.8931253,0.03276854,0.89995587,0.61588836,0.17693275,0.631665,1.6289628,0.12367444,-0.17857075,-0.015037297,1.8408601,-0.0056514367,-0.25453535,0.042416345,-0.0136187,0.88821435,0.47397023,-0.09127142,0.12272232,-0.36443964,-0.24689853,0.077929914,1.6701654,0.07419075,0.16363159,-0.017025547,0.49259216,2.0281296,-0.05861084,-1.2641102,-0.7325395,0.54955417,-0.44544148,0.079199,0.02893607,0.11150305,-0.26175535,0.92310214,0.030147243,0.222525,-0.6428099,0.067571595,-0.28610247,0.29202372,0.09306278,1.4246442,-0.13725282,0.54492635,-0.1635021,-0.01107122,-1.9482307,-0.10261314,-0.25077993,-0.28530365,0.07483809,-0.34503007,-0.13467944,0.23381972,-0.0971556,0.31466946,0.1474101,-0.44493434,0.70058906,-0.2839254,0.21616387,0.37438512,-0.12847066,-0.24343993,-0.092701524,0.1901339,0.17538913,-0.067140326,-0.08755714,-2.203493,-0.060862463,-0.012052739,0.46269456,-0.055188213,0.3327029,1.0823395,-0.15506281,-0.25915223,0.8951533,-0.30951235,2.0414224,-0.13650563,-0.66760945,0.043050755,0.30522156,-0.5228301,0.82473874,13.001432,-0.034015235,1.528624,0.7612965,0.17836447,0.07094889,-1.5431868,0.0721135,-0.013152603,0.050835416,0.11862336,0.006021393,0.08304031,0.37439802,0.40976965,-0.11616403,-0.20942023,0.45280966,-0.26241252,0.094277136,-0.3423541,-0.041131623,0.7502161,-0.6386165,-0.2220955,-0.28407586,-0.14199212,0.055934697,-0.36194903,0.35591608,0.19628261,0.27817982,-0.1756158,-0.15086454,-0.07735072,1.6700091,0.036529712,-0.3793478,0.3439638,-2.0038779,0.23159519,-1.2954934,0.22669655,0.28906566,0.45595044,0.28997976,-0.71560264,0.18965648,0.39051247,0.091669776,-0.12568013,0.7067896,0.15223044,0.20904702,0.18663363,-0.29530138,-1.1557673,-0.06085717,-1.0415094,0.2944489,-0.18164581,0.22092456,-0.025813581,-2.0282798,-0.30291054,0.31988373,0.05168449,0.3088084,-0.2433519,0.079819895,2.12029,1.4451551,0.14180179,-0.21847813,-0.93052703,-0.12460743,-0.1538134,-0.37390697,0.17320618,-0.23958486,0.14013028,-0.056904405,0.10501675,-0.35839888,-0.078915074,0.13274169,0.7288123,0.49373457,1.2673163,0.23473892,0.15315543,0.46392393,-1.395041,-0.10885484,0.42785084,0.2349621,-1.7311292,-0.18148105,-0.0579054,0.48945636,0.10272606,-0.496836,0.23333661,0.44036376,-0.7127625,-1.2172446,0.53847826,-0.024262127,0.31486547,0.023065768,-0.44792897,-0.29294765,0.6626941,-0.15654081,2.0537257,-0.15072328,-0.17683145,0.09241763,0.76606035,-0.013722273,0.063725755,1.5116549,-0.21374959,-0.4127192,-0.24852939,0.3448909,0.2691781,0.4562506,0.54294956,0.6432314,-0.16085136,-0.009663805,0.11045144,2.100627,0.1862663,-0.02406148,-1.1570954,-0.18129282,-0.22666833,-0.6979321,0.15633503,-0.26985154,0.2028476,-0.49506664,-1.4510391,0.23334344,0.35110146,-0.05298867,0.11453963,0.14142127,-0.08362064,0.14966096,0.59852195,0.055283222,-0.052584663,-0.11358678,-0.3008865,1.4014139,0.64957476,-0.88611585,0.6084683,-1.670079,0.8407825,-0.32942003,-0.072685406,-0.15476024,0.14457402,-0.08366382,0.22325185,-0.6443027,0.23955275,-0.09074697,-0.43108547,1.2105346,-0.083312936,0.004658375,0.71251774,-0.13464683,-0.6359689,0.50527936
