com.main.org.springframework.samples.petclinic.model.BaseEntity;-1;-0.07260843,-0.11583987,-0.2531693,0.13732304,0.20071428,-0.3778421,0.36881682,-0.25822204,0.007870377,-0.7656522,0.32772207,0.43356535,-0.06984417,0.032008167,0.55244493,0.1317376,-0.5790148,-0.20225875,0.2590326,-0.41152513,-0.16644937,0.015213996,0.18393548,0.1945462,0.42528096,0.07513952,0.26357147,0.5317467,0.36846688,1.1376529,-0.2891276,-0.14819135,2.3781402,-0.05472774,0.2005144,0.21779546,0.15292865,-0.28514865,0.3870266,-0.13575625,-0.18410207,-0.034525782,-1.152449,0.015137716,0.33708084,-0.20984258,0.061214156,0.62462866,0.14338073,0.1659378,-0.09282332,-0.35740188,-0.5972517,0.050855123,-0.17663345,0.7061395,-0.87054825,0.33504188,0.31012434,-0.15647012,-0.16765979,-0.15125473,0.23150605,-0.06449576,1.8168098,-0.45330086,0.87766707,1.8745674,0.38898984,-0.45465422,-0.06265309,0.47624442,0.065568395,-1.0059923,-0.53764075,-0.31958738,-0.15399092,-1.3718678,-0.82208973,0.018868254,0.31784388,0.09716428,-0.18015176,0.29117918,0.22223842,-0.65197825,0.054386143,0.0589991,-0.95479536,0.64097774,0.25080207,-0.046744492,1.5605338,0.06354332,0.27352834,0.57347035,0.15078989,-1.3530701,-0.3778617,-0.23925541,0.42951334,-1.0818881,-0.5966876,-0.9993611,0.42641425,0.033925656,0.5867235,-0.057825454,-0.21598199,0.034312356,0.11942222,0.10505876,0.0017351905,-0.34878382,-0.04611181,0.1291037,0.27171353,0.18391274,-0.047532894,0.31487587,-1.4318523,-0.16487038,-0.3569476,0.8828851,0.11167747,0.092538886,-0.041648034,-0.51201123,0.71131164,0.04973814,-1.8359746,-0.4083508,-0.15084781,-0.20161857,0.34044328,0.14065947,-0.5345859,-0.38780674,-0.24061862,0.15627965,-0.6840045,-0.33233628,0.10937747,0.39462638,0.21387154,0.07292751,0.051503778,0.0039353464,0.23545507,-0.39439628,-0.85508394,-0.29978248,1.6730918,-0.5799013,-0.35512587,-1.1949446,0.33844444,-0.8155944,-0.42432442,-0.90628093,0.28182647,-0.10139852,-0.10563796,0.8195483,0.29440698,0.53507376,0.19991796,-0.4853587,-0.053875,0.49308443,-0.1663553,-0.23208469,-0.7817918,0.36689174,-0.039230186,0.31251267,0.038121283,0.24990658,-0.06086629,2.472776,-0.13537063,0.30935758,0.30680016,0.25165507,0.11507295,0.2504938,-0.5793586,0.060790528,0.2792692,-0.018620105,0.12113142,-0.2551261,0.12300833,-0.008968627,-0.19941376,-0.063229054,0.28178608,0.21591395,1.7551662,-0.27497283,0.04407773,0.17238195,-0.25595132,-0.30138278,-0.4281825,0.73403484,-0.2746436,0.21953763,0.5810514,1.4074465,2.2909808,0.60255396,0.26679024,-0.29927927,-1.5765914,0.14087687,-0.13621773,-0.12099131,-0.10644979,-0.4390918,-1.817839,0.11769419,-0.21352048,-0.5989089,0.0509789,0.69681287,0.10258235,0.42147118,0.22811271,0.021890165,0.025797758,-0.028514775,0.106535524,0.28416708,-0.9914308,0.061679576,0.032326397,-0.2773403,-0.46440354,-1.0660286,-0.24581541,-0.4167601,0.21383156,0.72045255,0.6150178,-0.7962264,-0.17562039,0.20728622,-0.2628024,0.2823949,-0.21860301,-0.3673585,-0.010321441,0.21065927,-0.24681357,0.18506101,0.12939265,0.06704815,-0.19885856,2.8909183,-0.048232555,0.63078064,-0.11891891,-0.52252215,0.10168984,-1.3130243,-0.38401052,-0.192923,0.8220828,0.76167023,1.8163513,0.16375798,0.27825946,-0.007769549,-0.37611142,-0.484116,0.980628,-0.47841844,-0.9610464,0.0077823848,0.25983825,0.39032882,-0.2753739,0.07095401,0.27220353,0.0042685443,-0.46963948,-0.33374923,-0.15497094,0.2941731,0.5683564,-0.6275465,1.4053215,-0.049017604,-0.23234184,-0.24523543,0.29455188,0.41349554,0.0870849,-0.15745236,-0.15876973,0.68175113,0.36307058,-0.5464716,-0.9284243,-0.023476785,-0.5754743,-0.36794406,-0.26336867,-0.23188518,0.37874174,-1.027606,0.15284543,-0.13594177,-0.3234817,0.3224265,0.23146887,0.27324826,-0.014858397,-0.14792398,-0.07460092,-0.20200528,1.234047,-1.3552765,0.023490123,1.1003966,0.2588481,0.1524002,-2.1551437,0.7917166,-0.019884191,-0.051091135,-0.31630158,1.5074667,-1.3696465,0.04237989,0.56160486,-0.30734178,0.76224345,-0.032050297,-1.6341037,-0.15898342,-0.6158225,0.6267982,-0.06701214,1.4614285,0.19383624,-0.50456524,1.4029112,0.19553083,-0.8309426,-0.64565337,-0.012242954,-0.20032564,-0.58357006,2.7599006,0.17713198,-0.3210821,-0.5512624,-0.103832304,0.47408965,0.012065226,-0.32653907,1.9493866,0.8921329,-0.59180874,-0.9167804,-0.32281512,0.30057752,-0.029629426,0.4094966,0.25730473,-0.0073807826,-0.24151586,0.42562956,-0.2868262,-0.33222896,0.4436656,-0.3926179,-0.2765316,-1.2708467,-0.21834198,-0.22507186,0.3282751,-0.4875906,-2.604089,0.31619218,-0.17423864,1.6857563,0.62899154,-0.35627553,-0.61387,0.20114931,0.1755343,0.049328163,-0.12231832,-0.31118008,-0.3667074,-1.3826978,-0.23162527,0.16455103,-0.47265723,0.27002862,0.46478465,0.35347882,0.7005909,-0.3859999,-0.14932092,0.17778444,0.3632041,-0.5203951,2.1989155,-0.03581409,-0.009218178,0.03578906,0.3230374,0.2218119,0.30245295,-0.2937617,0.33886817,-0.14185804,0.3359538,0.9132033,-0.37106898,-0.1950149,0.33944625,-0.022462187,-0.29701737,-0.22139679,-0.41477573,-0.008990378,0.8189896,0.44085634,0.19816625,-0.065471835,-0.016666625,-0.17312063,-0.42562506,0.5459523,-0.084170975,0.32269582,0.013248815,-0.10982351,0.06617546,-1.2994373,0.41827407,0.7296444,2.3048193,-0.14052689,0.22172384,-0.10694435,0.12022629,-0.18783323,-0.1882595,0.72746915,0.2317616,-0.18123682,0.19495267,0.33624697,0.45098647,0.22186787,-0.48143092,-0.29232195,-0.48544425,0.2183796,-1.715076,0.39451647,-0.11507131,-0.20332709,0.02586101,-1.0381144,0.5651152,-0.014596858,-0.21075818,0.2551913,0.13514566,-0.086969465,1.6752949,0.65315807,2.2243009,0.37769347,0.038077984,0.54240155,-1.4345721,0.55407375,-0.8550348,0.5569189,0.23594424,-0.5022819,-0.7458413,0.1036665,0.3792959,0.20053416,0.10905537,-0.40326726,0.29670656,-0.7475895,1.0394143,-0.049206268,0.9956826,0.5308645,0.29947013,0.50980645,1.4748868,0.22391862,-0.15920945,-0.0037045737,1.959612,0.07027168,-0.2742277,0.13712741,-0.13394083,1.0638362,0.47622702,-0.25521648,0.22163005,-0.25415125,-0.24688275,0.06664577,1.76323,0.13261488,0.15894626,0.09139567,0.561645,1.763088,-0.14980593,-1.3469675,-0.6380092,0.3496138,-0.5742661,0.1704273,0.011171905,-0.14580852,-0.37324834,0.91008383,0.10233529,0.5998249,-0.7180646,0.19450139,-0.28866947,0.43721494,0.2772468,1.1457878,0.06757206,0.34682888,-0.13205695,-0.10594658,-1.9686698,-0.35453337,-0.29290056,-0.4440097,0.22553879,-0.37881345,-0.2207566,0.12620474,-0.030394869,0.27263656,0.34695584,-0.2030327,0.60420054,-0.106815875,0.17059764,0.48279005,-0.035895485,-0.3918509,0.055369593,0.26485407,0.16680184,-0.08287881,-0.050561808,-2.1044898,-0.1387628,0.1077591,0.44191697,-0.22719245,0.31413317,1.1198363,0.06024477,-0.3733111,0.8274184,-0.55712587,2.3130653,-0.11287081,-0.7034562,0.09408686,0.1305736,-1.035362,0.8976144,12.55679,0.079248965,1.3019027,0.8535262,0.17603484,0.23096892,-1.5152826,-0.049913604,-0.08763205,-0.09568457,0.04123306,0.26108947,0.14195989,0.59795195,0.17550188,0.016042834,-0.15733647,0.55654174,-0.15039746,-0.085343875,-0.44278464,0.1297244,0.7060016,-0.69407773,-0.31281033,-0.13812819,-0.254951,-0.0006703222,-0.3614286,0.32766587,0.3235626,0.26282606,-0.3842655,-0.038636103,-0.11268693,1.536923,-0.11589872,-0.2450765,0.3271516,-2.0955431,0.4104011,-1.5724174,0.27083078,0.4574612,0.47050244,0.33007893,-0.7509506,0.15115847,0.622913,0.25649673,-0.103987284,0.64722526,0.3228774,0.25107515,0.26689568,-0.42019555,-1.1235942,-0.08929646,-1.2018113,0.09809058,-0.18971099,0.13900705,0.10100016,-1.9801385,-0.45935774,0.34922123,0.15099339,0.08624506,-0.20191908,0.14868625,2.2233138,1.3130175,-0.015669674,-0.12294734,-0.90890867,-0.46685648,-0.14554842,-0.124379255,0.18636702,-0.025757875,0.15230869,-0.088042215,0.4456659,-0.22739434,0.04508843,-0.060861096,0.5048822,0.4975982,1.1149164,0.029468227,-0.23885816,0.33572388,-1.417953,-0.46109718,0.3936478,0.24383739,-1.8052442,-0.12988074,-0.30205917,0.54900634,0.08449359,-0.59420896,0.1631511,0.39796305,-0.69632095,-1.3233467,0.45400482,0.030993277,0.15714225,-0.07778351,-0.36362806,-0.1930182,0.7875712,-0.36295125,2.1735837,-0.11569728,-0.20110756,-0.0033528954,0.69654197,-0.029496035,0.18524486,1.5705754,-0.2636128,-0.43765923,-0.32178342,0.21456288,0.4403851,0.4755883,0.84228384,0.75629896,0.046854615,0.07749207,0.32403785,1.8267877,0.116727285,-0.15860005,-0.94138664,-0.117438026,-0.092891075,-0.6765793,0.21340096,-0.30623513,0.17096837,-0.4410993,-1.4414937,0.21016459,0.10180072,-0.08048497,0.05164799,0.23252381,0.040467467,0.0031786247,0.6484388,0.098758735,-0.061622392,-0.10782073,-0.6257533,1.2889408,0.683874,-0.8870179,0.6571614,-1.9252887,1.0069536,-0.43827328,-0.21268135,-0.20245607,0.21499868,-0.16899733,0.25153047,-0.8111227,0.080084465,-0.02483714,-0.19472677,1.2876905,-0.12786506,0.21355414,0.66530883,0.1261779,-0.59346026,0.62072986
com.main.org.springframework.samples.petclinic.model.NamedEntity;-1;-0.041438576,-0.10631636,-0.25796235,0.17308691,0.22244616,-0.35213724,0.3512497,-0.23722583,0.020736234,-0.779223,0.33412123,0.42673156,-0.050953984,0.059290305,0.5238386,0.11343443,-0.60054284,-0.21297093,0.21193491,-0.32351023,-0.17363538,0.018278837,0.16238928,0.19699562,0.390529,0.09692796,0.26306248,0.52634615,0.34604576,1.0645112,-0.27486676,-0.17512734,2.3280106,-0.06753447,0.22084314,0.21736872,0.16809914,-0.29400516,0.35854036,-0.085359745,-0.22916071,-0.05762081,-1.1596233,-0.0012302544,0.2994157,-0.23071384,0.017353935,0.62160724,0.13813686,0.15037553,-0.065657236,-0.36150956,-0.62667304,0.029251983,-0.23697802,0.66681343,-0.85570717,0.29691216,0.29078478,-0.14345312,-0.15476258,-0.17503114,0.2687547,-0.055834673,1.8040885,-0.46744344,0.8231003,1.8694756,0.38406783,-0.42786664,-0.05386025,0.4568739,0.09815401,-1.0129299,-0.59506744,-0.32797357,-0.120449506,-1.345207,-0.7999012,0.010448842,0.3108383,0.07284464,-0.18483594,0.31334963,0.26170087,-0.6431568,0.078457296,0.03675928,-0.9259188,0.5755454,0.2724524,-0.024769228,1.5420475,0.049214292,0.23026597,0.5663992,0.15288825,-1.2740782,-0.37098294,-0.218689,0.39661226,-1.0494621,-0.5721357,-0.9767094,0.44875836,0.06656981,0.55355847,-0.07034943,-0.21262747,0.043262705,0.06750872,0.11187335,0.0265275,-0.31751353,-0.028148148,0.12891635,0.2689946,0.15637596,-0.06924288,0.27773792,-1.3999393,-0.20996916,-0.3917723,0.9455179,0.06907397,0.107558355,-0.010402796,-0.46385816,0.69924223,0.06933396,-1.793213,-0.34153855,-0.2035807,-0.21297596,0.33620447,0.111923635,-0.4811841,-0.39587873,-0.20090131,0.18915007,-0.7358918,-0.32187903,0.18327633,0.39038163,0.21289352,0.0623524,0.06143899,0.041814536,0.21667942,-0.44941014,-0.86678433,-0.2799535,1.6762495,-0.61663413,-0.31602183,-1.192467,0.33263773,-0.7929074,-0.41888732,-0.9327616,0.22627454,-0.08874611,-0.07079685,0.8010337,0.3351426,0.56094766,0.13206506,-0.4571348,-0.024643732,0.51718044,-0.13904938,-0.25077227,-0.8206921,0.35351053,-0.0016801249,0.3355595,0.048844706,0.24842753,-0.11528188,2.509449,-0.115046486,0.2850879,0.32904845,0.29175755,0.16385616,0.23877583,-0.54430574,0.047922365,0.2467461,-0.035065483,0.11378558,-0.22872093,0.06148005,-0.03227947,-0.23055601,-0.04758988,0.29349378,0.24568544,1.7394538,-0.28023463,0.08760656,0.1669935,-0.34046015,-0.26569584,-0.41537744,0.7221459,-0.24748024,0.20155457,0.60112077,1.4158429,2.320037,0.5262478,0.22200608,-0.2985923,-1.5901159,0.17892401,-0.14779563,-0.11779448,-0.1365435,-0.41943613,-1.8017356,0.10867992,-0.15242253,-0.5625956,0.039757945,0.65284324,0.08769855,0.35052493,0.2273184,-0.0046911887,0.018596226,-0.025028741,0.10984825,0.2231869,-0.97042835,0.042785447,0.028608833,-0.2828044,-0.45598102,-1.0779411,-0.22473772,-0.41564983,0.30761003,0.6897714,0.6067096,-0.7928603,-0.18815492,0.1866372,-0.25918782,0.2372811,-0.24186344,-0.32055965,-0.015887965,0.23344749,-0.22706848,0.20047332,0.11280343,0.04146352,-0.26425228,2.8084931,-0.14526738,0.6593453,-0.091963604,-0.54479384,0.102197014,-1.3105195,-0.37890455,-0.18050192,0.8315521,0.6565016,1.8584806,0.16797885,0.2818286,-0.005331407,-0.4096196,-0.49039057,1.0132979,-0.44087332,-0.9629463,-0.0043292344,0.2898644,0.3428417,-0.262247,0.046330884,0.23006043,-0.0024825316,-0.42923468,-0.31531292,-0.0820026,0.2968892,0.5620084,-0.6140037,1.4104323,-0.066469245,-0.22369121,-0.2646025,0.25057665,0.50299144,0.07017303,-0.16528371,-0.14139527,0.64341295,0.33995593,-0.55245775,-0.90109897,0.036085516,-0.57331145,-0.39166865,-0.28342876,-0.23860505,0.38198784,-1.061415,0.1732126,-0.1621029,-0.3066433,0.3510666,0.2660705,0.25182027,0.014295299,-0.14833625,-0.013701679,-0.17427538,1.1654649,-1.3882596,-0.01026566,1.0976704,0.27385056,0.16925822,-2.163786,0.76480263,-0.056954294,-0.036897603,-0.29861724,1.4881722,-1.376392,0.028070383,0.5811004,-0.27671418,0.7825469,-0.070718765,-1.6855768,-0.18209085,-0.64542663,0.65923923,-0.068685055,1.4808204,0.17669287,-0.5388174,1.375239,0.21347426,-0.80705875,-0.68525356,-0.068041,-0.21289392,-0.5499434,2.765891,0.18375665,-0.2922933,-0.54805666,-0.140783,0.4727627,0.016212849,-0.33817527,1.931553,0.83537304,-0.54418766,-0.9309616,-0.28734332,0.32051829,-0.020653708,0.45045486,0.27399808,-0.0023019942,-0.26545852,0.420267,-0.27373126,-0.34195945,0.44954854,-0.40029508,-0.23547801,-1.2638686,-0.2338517,-0.19700937,0.35600013,-0.5350713,-2.6082659,0.31161568,-0.15396053,1.6809897,0.6500466,-0.36416394,-0.6012543,0.1797327,0.15076424,0.0641821,-0.13293199,-0.28939116,-0.3049613,-1.3088303,-0.2669513,0.1633734,-0.4006422,0.24544519,0.4325698,0.33488783,0.63536674,-0.31602523,-0.13766342,0.1554012,0.36807242,-0.52635336,2.1704845,-0.010961794,8.536305e-05,0.06297685,0.35695723,0.22214308,0.3188381,-0.29826248,0.2765151,-0.17328669,0.35995942,0.9000091,-0.3738894,-0.24950282,0.34551033,-0.014831237,-0.33719373,-0.15284863,-0.37690568,0.027071517,0.80718493,0.4690098,0.2059698,-0.021170791,0.0008553553,-0.17247778,-0.3799247,0.5057123,-0.06433339,0.2871702,0.0019001424,-0.10432613,0.002530836,-1.2297033,0.43137097,0.7240474,2.2935674,-0.17527953,0.19335619,-0.115572795,0.04932691,-0.19268537,-0.2362404,0.7203374,0.18535084,-0.19588715,0.14978759,0.36695373,0.46344727,0.21292284,-0.51816857,-0.26906085,-0.43149576,0.19773023,-1.6908611,0.4123185,-0.09930537,-0.18492569,0.017881867,-1.0490224,0.5835775,-0.002998411,-0.24891326,0.2693229,0.115520194,-0.11134175,1.6841996,0.6613596,2.1840374,0.36904424,0.0050116605,0.5257211,-1.4053699,0.51357335,-0.8249404,0.56815803,0.23734666,-0.52677345,-0.78618073,0.15372448,0.3910909,0.21651366,0.10888314,-0.3718483,0.33033618,-0.7467637,1.0001034,-0.046596788,1.0071992,0.49890828,0.28363723,0.44705346,1.4680834,0.1986944,-0.14343825,0.008788006,1.9305317,0.079525195,-0.23309173,0.16879982,-0.111679465,1.0828662,0.4732062,-0.22623868,0.1980338,-0.26486862,-0.24083672,0.07603065,1.814355,0.122513436,0.16042352,0.09817515,0.5287128,1.7642323,-0.117635734,-1.3252792,-0.6854292,0.36867478,-0.61718726,0.18050753,0.0039031345,-0.1829973,-0.3468303,0.92963153,0.12830709,0.6283338,-0.7047595,0.24902982,-0.27254677,0.42066255,0.26081112,1.104786,0.09278298,0.3231501,-0.1022845,-0.07820276,-1.9834751,-0.32863685,-0.27100322,-0.42852727,0.18637204,-0.33648035,-0.22114968,0.1008394,-0.025710175,0.20226212,0.30127308,-0.19283056,0.60599035,-0.09278332,0.14797318,0.5185507,-0.053674996,-0.36932734,0.06282002,0.2988972,0.15035184,-0.08404317,-0.05837547,-2.147222,-0.17061333,0.12960297,0.4617099,-0.26299664,0.2718216,1.1255623,0.049823,-0.38868737,0.8148229,-0.5780683,2.2747679,-0.10476221,-0.6978231,0.09193353,0.10868239,-0.9381744,0.8724427,12.633435,0.0908011,1.2828796,0.9085764,0.21057451,0.1997863,-1.5678033,-0.023822926,-0.12369566,-0.121727265,0.055611018,0.2635389,0.12772891,0.58565277,0.20438448,0.032520898,-0.19580206,0.54048795,-0.10574095,-0.081305884,-0.4902139,0.17188887,0.7253746,-0.68285906,-0.26989257,-0.082917534,-0.26918346,0.014407738,-0.3280578,0.27214587,0.34273028,0.27580163,-0.3616636,-0.04195872,-0.0750056,1.5142076,-0.11288807,-0.26284382,0.34011614,-2.0677052,0.38648787,-1.5740644,0.27287224,0.44948316,0.46451485,0.32508487,-0.7447317,0.120227024,0.6194127,0.25139692,-0.11490787,0.65679437,0.3358502,0.29738203,0.29611754,-0.4267911,-1.08793,-0.14011481,-1.1893086,0.03372503,-0.18130317,0.13764314,0.11230465,-2.0079944,-0.48304874,0.3709638,0.16708803,0.041411087,-0.19704616,0.18394618,2.2141504,1.3281242,-0.014962195,-0.14885525,-0.86176336,-0.46496022,-0.12593497,-0.12428445,0.18578972,0.054485653,0.17016768,-0.10933033,0.4531911,-0.23274891,0.041335486,-0.05981519,0.4398034,0.54952645,1.0921799,0.039987188,-0.24454002,0.29826704,-1.4134521,-0.48637748,0.37270233,0.23202154,-1.7538787,-0.13308361,-0.28958994,0.5201359,0.039091114,-0.57326853,0.13882756,0.39962572,-0.7107829,-1.3622564,0.49516067,0.046162836,0.22472854,-0.09052493,-0.3504034,-0.18779573,0.7941648,-0.349837,2.1585174,-0.162189,-0.1970874,-0.018609779,0.7055584,-0.07416207,0.18408832,1.5484875,-0.2915423,-0.44956034,-0.32888702,0.2027133,0.40679398,0.47936317,0.814578,0.72093785,0.051772177,0.083280526,0.24758281,1.8490283,0.09208676,-0.15019841,-0.9065786,-0.106046945,-0.094900735,-0.6548014,0.21660529,-0.31656522,0.17986484,-0.4579292,-1.440074,0.2763585,0.09251188,-0.03175452,0.059016675,0.20943938,0.049918618,0.03530448,0.5949887,0.050004464,-0.06434904,-0.10829246,-0.56629246,1.2774843,0.6528832,-0.89602184,0.63966006,-1.8812648,0.9753603,-0.4237206,-0.1816439,-0.21138416,0.19601798,-0.17355,0.31057268,-0.7672178,0.058292396,-0.047565263,-0.22163254,1.2801645,-0.14735898,0.1978775,0.7126082,0.085462466,-0.56434727,0.62987286
com.main.org.springframework.samples.petclinic.model.package-info;-1;0.015580192,-0.0037944,-0.35949013,0.11302811,0.20399487,-0.4001903,0.30926502,-0.26613098,-0.02891606,-0.85445637,0.31895506,0.40629637,0.032773007,0.16392782,0.44037044,0.18037485,-0.7101859,-0.2748528,0.16094053,-0.27899075,-0.2891065,0.06795633,0.14627756,0.35086554,0.45493412,0.010546047,0.027679807,0.40308857,0.38763028,1.0476096,-0.2739239,-0.2349083,2.395999,0.0920367,0.2712105,0.29642668,0.17007434,-0.22315103,0.37535506,-0.02445167,-0.15626915,0.003381451,-1.0335609,0.031905606,0.34469736,-0.31555027,-0.058239553,0.6053223,0.12941393,0.19316548,-0.056214113,-0.49621058,-0.42330143,-0.016978974,-0.20047757,0.70962524,-0.75208944,0.34788153,0.20084228,-0.31020978,-0.13712247,-0.12385854,0.30847517,-0.11470968,1.6574926,-0.46195897,0.7768682,1.8362849,0.445304,-0.34264308,0.21492913,0.5280496,0.10059862,-0.7720979,-0.5724516,-0.35175952,-0.12837495,-0.9455207,-0.77738327,0.093904346,0.2627688,0.041914705,0.07033786,0.37244546,0.1203051,-0.63757354,0.109249175,0.005555104,-0.80429035,0.4606509,0.2880632,-0.013442091,1.473899,0.052135464,-0.029231014,0.5670076,0.060068324,-1.0650351,-0.31259575,-0.100087345,0.4105661,-1.0397813,-0.47557566,-1.0606283,0.42582032,0.057717383,0.4984145,-0.033034623,-0.242635,0.003869734,-0.11921287,-0.0034211406,-0.03940389,-0.3034316,0.049489222,0.25203344,0.26667112,0.15716816,-0.24287893,0.29478103,-1.2272936,-0.20151332,-0.32658666,0.83464515,0.1408657,0.18211667,-0.23237823,-0.46193936,0.67310154,0.025081113,-1.6585637,-0.32516065,-0.21563794,-0.12178739,0.35897872,0.12299945,-0.5508112,-0.35430208,-0.15615228,0.07529825,-0.6356188,-0.3901377,0.20865512,0.21782702,0.3214012,0.028948214,-0.051851958,0.10622937,0.122080676,-0.505932,-0.70080996,-0.116423495,1.5595535,-0.6804873,-0.22157249,-0.801619,0.3461296,-0.7584005,-0.40861356,-0.7901387,0.16799979,-0.074484676,-0.2665499,0.6682749,0.22164837,0.48355684,0.024663264,-0.37600723,0.17009403,0.4156858,-0.07129868,-0.06783555,-0.81957686,0.35802162,0.01280643,0.15050818,0.008065304,0.2681581,-0.19647494,2.4398978,-0.15599774,0.36485538,0.35119087,0.35931262,0.19961321,0.20871426,-0.46985206,0.0942744,0.24887799,-0.1550927,0.2486052,-0.4311003,0.10842091,-0.10371455,-0.23099796,-0.10155899,0.31409693,0.35641542,1.7923163,-0.3801436,0.18856882,0.1660284,-0.22061357,-0.30358493,-0.25653517,0.73662573,-0.23020397,0.08060962,0.5376272,1.4378473,2.1537724,0.46249086,0.18528102,-0.19616465,-1.3970315,0.023397436,-0.22868043,-0.063186005,-0.10766396,-0.3512195,-1.7905579,0.15737945,-0.26322895,-0.69704676,-0.050346456,0.6219693,0.140968,0.32506877,0.22522233,0.04726966,-0.08270412,-0.036616657,0.02772007,0.16145864,-0.9218197,0.07992323,0.06364928,-0.40882498,-0.4626059,-0.9571352,-0.22539584,-0.48993868,0.45994186,0.7741562,0.5837557,-0.6018448,-0.16334414,0.07939509,-0.23723114,0.12797296,-0.25762194,-0.22664607,0.004097944,0.077154115,-0.14969261,0.3004594,0.11902807,-0.09305833,-0.21739976,2.7338002,-0.22994843,0.67450666,-0.13866764,-0.4299901,0.105787136,-1.1638244,-0.3595678,-0.0603405,0.7566029,0.6368879,1.5802051,0.24410447,0.30812633,-0.026952982,-0.43381545,-0.45395607,1.0758055,-0.50091594,-0.7879856,-0.028635262,0.23551318,0.25270957,-0.33900478,-0.0072719143,0.1550073,0.11343388,-0.40284216,-0.290763,-0.061637413,0.3079551,0.33670005,-0.63334835,1.3064032,-0.009104857,-0.27869913,-0.2613043,0.42865092,0.47988388,-0.006196413,-0.153305,-0.06714151,0.7718704,0.3523538,-0.5883127,-0.8410663,-0.013636378,-0.49690583,-0.40041152,-0.312637,-0.2515144,0.36569443,-1.0274063,0.13086651,-0.14998561,-0.2985748,0.13927603,0.24582003,0.20456803,0.20144269,-0.16343172,0.10094545,-0.2157734,1.0699307,-1.3407528,-0.13628279,1.0824896,0.45649377,0.13321643,-2.0230036,0.82149947,-0.068177216,0.04181625,-0.38414982,1.382067,-1.4717537,0.0032848874,0.5178009,-0.31917605,0.70496947,-0.1600173,-1.734833,-0.18671677,-0.7197202,0.57794315,-0.1354541,1.3203931,0.122304305,-0.3913203,1.1867577,0.31525016,-0.8091417,-0.7115046,-0.02086977,-0.29288587,-0.54770905,2.7824972,0.08460836,-0.31087038,-0.68458056,-0.42460698,0.38101584,-0.01940392,-0.20811816,1.7730364,0.6955132,-0.408915,-0.8072916,-0.30171633,0.1866118,-0.197622,0.4894737,0.3410187,0.097611606,-0.29996026,0.4253203,-0.29819334,-0.33465108,0.39501852,-0.50980765,-0.27135956,-1.1052655,-0.26679108,-0.17788441,0.3892829,-0.6957876,-2.4741933,0.18334986,-0.17093618,1.5058135,0.72724545,-0.26563406,-0.64646024,0.1314688,0.15360746,0.034881257,-0.17240736,-0.24604614,-0.35859013,-1.3042548,-0.25387865,0.20506291,-0.43800515,0.20388749,0.38258564,0.20802374,0.73290044,-0.2590819,-0.1985253,0.12307484,0.27920064,-0.63878536,1.9760808,0.1425451,0.061406676,0.21968444,0.3268586,0.034276277,0.36143872,-0.2427924,0.24237214,-0.3835375,0.2473284,0.77311444,-0.45186102,-0.3331925,0.3322624,-0.13757473,-0.2771204,-0.127964,-0.2973195,0.049333043,0.8124608,0.3268656,0.28140488,0.049238626,-0.00797581,-0.122269265,-0.39089638,0.46072963,-0.14786692,0.2454413,0.036199436,-0.3790688,0.053858314,-1.2393173,0.4511056,0.64047664,2.0968442,-0.3175793,0.3094895,-0.1070328,0.12796502,-0.23874642,-0.06783395,0.5728477,0.42668056,-0.31241757,0.15199974,0.47616443,0.3186119,0.25000024,-0.4795824,-0.28288105,-0.5097007,0.1859576,-1.6884556,0.4195542,-0.09198256,-0.0981284,0.14765519,-0.9124431,0.55057645,0.052558526,-0.32102445,0.30361018,0.108085684,-0.120672874,1.5979986,0.74447566,2.034671,0.41232353,-0.08722518,0.5983259,-1.3811278,0.39984623,-0.74635524,0.625964,0.28984562,-0.5964052,-0.7755476,0.04143407,0.49604705,0.19640501,0.07019625,-0.2694943,0.32360017,-0.543828,1.1594554,0.12849838,0.9664299,0.44471383,0.21020262,0.48384365,1.2251761,0.25747317,-0.15251955,0.006640091,1.8692186,0.2618399,-0.15924074,0.32566318,-0.15178505,1.2205518,0.33146325,-0.065299794,0.21473788,-0.30457842,-0.17849666,0.13896456,1.6325285,0.196368,0.03505621,0.1553771,0.49222305,1.5897871,-0.17124897,-1.3872012,-0.60516596,0.45555303,-0.63475835,0.22605537,0.08520783,-0.17416544,-0.3743576,0.93329287,0.17949821,0.6362269,-0.5460204,0.25738662,-0.32604867,0.4041638,0.34949294,1.1390686,0.19524781,0.36215577,-0.030836537,-0.086741865,-1.7352176,-0.274603,-0.33206028,-0.48789802,-0.07482321,-0.17812878,-0.17570665,-0.100667864,0.092320524,0.1796721,0.4373903,-0.048999514,0.39667985,-0.1980045,0.11637884,0.52770233,-0.07085074,-0.40920937,0.13448666,0.23950584,0.14215425,-0.15343086,0.08235598,-2.135779,-0.11022063,0.19305727,0.45942864,-0.2246403,0.13793206,1.0769535,0.06839646,-0.24538456,0.67702997,-0.7219082,2.1158094,-0.12799598,-0.6223309,0.14744048,0.050348934,-1.0025711,0.8286479,13.806305,0.13287354,1.1867232,0.9633099,0.1522042,0.21053182,-1.3318859,-0.06084759,-0.13087255,-0.17774713,0.11479189,0.29097506,0.18434808,0.463662,0.22539414,0.015752356,-0.11189296,0.5085356,-0.0256668,-0.15599337,-0.57167715,0.1815872,0.7160783,-0.77285486,-0.35711437,0.01923495,-0.18641971,-0.03642355,-0.2523263,0.20931882,0.3247939,0.38887975,-0.46480379,0.0058928407,-0.019563371,1.3962562,-0.16265877,-0.16680996,0.25626442,-1.9826094,0.38169032,-1.5753616,0.15091373,0.44599995,0.40068957,0.33720523,-0.7252586,0.13063106,0.5570101,0.3159688,-0.16237256,0.6953136,0.45014665,0.46884632,0.30179366,-0.557352,-0.86636233,-0.11025008,-1.3270047,0.06157166,-0.21973146,-0.014079424,0.08463698,-1.8451431,-0.48437345,0.37531808,0.23178472,-0.099817865,-0.18736482,0.22929871,2.1156726,1.1817424,0.00030926187,-0.15642188,-0.6112993,-0.56740296,0.055564217,-0.011499262,0.15756097,0.06846708,-0.055129625,-0.14561027,0.62377954,-0.16093272,-0.025361856,0.008639448,0.35264468,0.52418005,0.8835821,0.04818596,-0.4900173,0.22323626,-1.3599017,-0.67901874,0.34053573,0.31652263,-1.5929158,-0.18754767,-0.44587457,0.56395537,0.17799872,-0.5268053,0.21814081,0.36939627,-0.58719605,-1.3878486,0.41308844,0.17455797,0.09565757,-0.14189005,-0.39155605,-0.033974607,0.68853533,-0.38459736,2.187201,-0.050699893,-0.126646,-0.13801937,0.53006417,-0.15173428,0.24429174,1.5953557,-0.4117263,-0.506935,-0.42537004,0.10828654,0.42802137,0.42492005,0.93061346,0.7106945,0.11305897,0.119926825,0.32696834,1.5636594,0.095463164,-0.2178217,-0.9355069,-0.07582566,-0.059582565,-0.739675,0.15721944,-0.20846553,0.30120656,-0.443138,-1.2988482,0.38176477,-0.0045247623,-0.029340088,0.058970544,0.35985482,0.20873311,0.13519095,0.6277475,0.08405747,-0.021240396,-0.29046214,-0.706529,1.1618687,0.49398923,-0.7631152,0.64864796,-1.6927228,0.98376065,-0.3937333,-0.07562199,-0.21789749,0.27837306,-0.11456996,0.2586776,-0.8849525,0.18038373,-0.076676704,-0.24843782,1.2431507,-0.23667875,0.20938122,0.7300421,0.22902092,-0.58873713,0.58008474
com.main.org.springframework.samples.petclinic.model.Person;-1;-0.06899052,-0.09466217,-0.25405297,0.15917607,0.16737394,-0.3583019,0.3424864,-0.24178286,0.041170977,-0.73189867,0.3494318,0.43567064,-0.089065,-0.017632645,0.5761265,0.14298071,-0.5726656,-0.21486284,0.26418558,-0.39083725,-0.16748406,0.026375158,0.18025249,0.14271523,0.39144072,0.1052534,0.2842025,0.5360634,0.3673849,1.0674201,-0.2361889,-0.16822979,2.3248158,-0.07340625,0.20594554,0.15514983,0.16589874,-0.33342668,0.37352812,-0.14241049,-0.20141353,-0.04269424,-1.1521765,-0.015305759,0.33247346,-0.23183419,0.045305677,0.65110415,0.21096237,0.16667302,-0.06395403,-0.29734755,-0.6007811,-0.0058239573,-0.23406509,0.67880803,-0.89707404,0.29165578,0.26239473,-0.12783995,-0.17102596,-0.13420467,0.29202414,-0.09059749,1.8326145,-0.39537147,0.86774915,1.8600585,0.35609162,-0.454348,-0.08737098,0.44496796,0.09463719,-1.055703,-0.5871342,-0.26473084,-0.19355245,-1.3824011,-0.7771841,0.031595163,0.3132649,0.07408347,-0.18430081,0.2861014,0.22201595,-0.6155693,0.028924912,0.067269616,-0.9413344,0.6295736,0.26298156,-0.051824886,1.5859913,0.054976415,0.25103062,0.5444646,0.18735904,-1.2920852,-0.36866295,-0.26209295,0.41159347,-1.0617813,-0.578593,-1.0078523,0.43135682,0.03631825,0.5825218,-0.0839379,-0.22262554,-0.0051397113,0.1393491,0.08192442,-0.008954352,-0.31624782,-0.07528738,0.08787383,0.26882312,0.20180254,-0.043391783,0.34636885,-1.4432223,-0.18537019,-0.4010611,0.88917434,0.037090875,0.07341736,-0.0028813498,-0.5273145,0.70774263,0.057714637,-1.8390012,-0.37482184,-0.14628601,-0.16844353,0.32330042,0.112899326,-0.5124645,-0.4071784,-0.23027822,0.1903194,-0.69206375,-0.33466047,0.12510249,0.40320492,0.2249952,0.039184265,0.04883877,0.0113962395,0.24503386,-0.4594368,-0.8796918,-0.2822709,1.6984088,-0.5824158,-0.38294607,-1.2687678,0.33001056,-0.794991,-0.4126763,-0.89875937,0.25146997,-0.10317723,-0.06573078,0.8087103,0.34206462,0.5570299,0.1635601,-0.4812249,-0.080290265,0.5207029,-0.14633939,-0.30347914,-0.80404985,0.38219428,-0.03343246,0.35857987,0.05259311,0.22102739,-0.07019399,2.4947593,-0.09552121,0.27030575,0.31565592,0.25056905,0.10184086,0.24957508,-0.5727922,0.033505894,0.23990665,-0.03726396,0.09087802,-0.19117153,0.12519145,-0.022866525,-0.21539292,-0.107411645,0.27057672,0.21830417,1.7487284,-0.27719522,0.04230802,0.19411467,-0.28888384,-0.28613362,-0.38928488,0.722534,-0.22890665,0.21821605,0.61850715,1.4239702,2.3435361,0.58032954,0.28952053,-0.34149688,-1.5762762,0.19688238,-0.12467351,-0.16270807,-0.17710872,-0.4534703,-1.7739162,0.103732444,-0.17141123,-0.57423675,0.052866165,0.67459995,0.06664306,0.3973198,0.19041301,0.043308858,0.03927431,-0.028203957,0.084231235,0.2818764,-0.94079536,0.029839607,-0.00033201574,-0.29829758,-0.45126572,-1.1024369,-0.21729504,-0.40020698,0.26037493,0.68474853,0.5810476,-0.7841382,-0.15936428,0.18544848,-0.20808217,0.26680496,-0.22466305,-0.38100746,-0.037795387,0.23843165,-0.2338942,0.17494854,0.12723169,0.07832813,-0.2412575,2.863324,-0.06653016,0.6746945,-0.115525275,-0.53218114,0.11719011,-1.2945466,-0.34422702,-0.18647347,0.8766014,0.6930018,1.9031081,0.16109155,0.24361742,-0.018212732,-0.3517253,-0.47929838,0.9674022,-0.43537214,-0.9943717,0.0145530235,0.2883619,0.37968826,-0.29179004,0.08257816,0.24985112,0.0099475775,-0.43152606,-0.28848425,-0.11192195,0.28914207,0.5965936,-0.6169294,1.4739742,-0.090641245,-0.24036539,-0.22918262,0.29091543,0.4764838,0.10171372,-0.18364201,-0.10994319,0.6583294,0.338911,-0.52635247,-0.90177053,-0.007861328,-0.59495,-0.35573736,-0.25759825,-0.25026828,0.3564605,-1.061421,0.18451588,-0.15021025,-0.31888062,0.3665526,0.2064971,0.2564735,-0.01780145,-0.129542,-0.028885908,-0.15750293,1.2525489,-1.3898214,0.045774177,1.0785152,0.20892657,0.1353908,-2.2001326,0.79034424,-0.0799042,-0.031390898,-0.27796072,1.5370264,-1.3862939,0.03474491,0.5564915,-0.29458147,0.76586384,-0.03253814,-1.6556689,-0.15595815,-0.6133715,0.6327374,-0.03845523,1.5000798,0.16410969,-0.5181578,1.4090011,0.16123292,-0.7986754,-0.6637174,-0.08866356,-0.22838251,-0.5624789,2.7679462,0.2112095,-0.26430792,-0.5290981,-0.068648875,0.4713233,-0.018047294,-0.3172188,1.931174,0.84851724,-0.58461756,-0.9307502,-0.29067323,0.30262044,0.029070504,0.44592115,0.2914701,-0.0145418625,-0.26712435,0.4076009,-0.29203096,-0.34870628,0.41740635,-0.35427117,-0.25313538,-1.2770807,-0.23929793,-0.21539438,0.32087728,-0.4646839,-2.6436226,0.33302993,-0.14668533,1.7447523,0.5891546,-0.36066934,-0.58257633,0.1694778,0.15971391,0.054172296,-0.10953792,-0.29833975,-0.38266972,-1.3688045,-0.22847934,0.13346672,-0.41674694,0.23197433,0.4178691,0.36560422,0.6346256,-0.3880953,-0.15684418,0.13074413,0.4447088,-0.49506384,2.2079916,-0.018183019,-0.024665011,0.029523563,0.3460441,0.2907504,0.32435232,-0.29236594,0.28724152,-0.11260106,0.4020044,0.9624593,-0.34206903,-0.18390319,0.3732198,0.019775277,-0.3497351,-0.17797655,-0.47368592,0.002053463,0.81464934,0.44256768,0.21046418,-0.07869725,-0.032274693,-0.22761035,-0.40825588,0.51048034,-0.048751432,0.31991562,0.017092992,-0.054829437,0.047091898,-1.2617007,0.41905814,0.69956785,2.3493545,-0.11749667,0.19608901,-0.08276874,0.0688044,-0.1575599,-0.2672393,0.737261,0.21037152,-0.16955777,0.15601225,0.29895222,0.43299606,0.19994196,-0.49210462,-0.2638829,-0.4381399,0.22257678,-1.6889229,0.41264313,-0.12393349,-0.17897376,0.033991832,-1.0347097,0.5908885,-0.021058645,-0.22340894,0.2835448,0.1414139,-0.14747824,1.7202361,0.65481234,2.1911962,0.37536052,0.025158813,0.55602044,-1.4131268,0.5775621,-0.8142595,0.5493915,0.25230134,-0.5027302,-0.78376853,0.12431394,0.37465495,0.21867663,0.1248273,-0.40972048,0.27497065,-0.7468406,0.99626297,-0.11418082,1.0081637,0.51168346,0.2801666,0.46578187,1.5176739,0.18534166,-0.1832812,0.007266666,1.9690015,0.07502583,-0.27615508,0.13651328,-0.12879877,1.0681336,0.50059843,-0.27046162,0.21927044,-0.24853557,-0.28311074,0.063741915,1.8487562,0.124523975,0.18258679,0.04763964,0.5409426,1.7958877,-0.15239966,-1.3648312,-0.66549593,0.31979758,-0.5841464,0.109819084,-0.014365257,-0.18751891,-0.35652843,0.8885274,0.13717535,0.6049442,-0.7309022,0.23346679,-0.2653708,0.38377407,0.2347215,1.0960494,0.037859865,0.36304104,-0.13852578,-0.14029709,-2.0105746,-0.3678364,-0.29397842,-0.41456655,0.21446249,-0.33326408,-0.21544747,0.17652689,-0.03595822,0.23245698,0.30038366,-0.22044939,0.6396057,-0.088902704,0.23558357,0.5270893,-0.0753661,-0.39250642,0.056547385,0.30371192,0.13844901,-0.057313867,-0.05703058,-2.1005013,-0.1668493,0.11975537,0.49636796,-0.28432885,0.29773724,1.1300144,0.059118517,-0.40759495,0.86339426,-0.515664,2.2823422,-0.12107843,-0.7355588,0.06616848,0.15924564,-0.94961226,0.8898363,12.404645,0.090574205,1.3345962,0.8352677,0.23698683,0.20711856,-1.5863503,-0.061664786,-0.1177908,-0.13193604,0.023553744,0.2612844,0.089826584,0.62180644,0.19387782,-0.0131944325,-0.21266298,0.52724206,-0.1294217,-0.08067318,-0.39426187,0.086614735,0.69820464,-0.68189096,-0.22788303,-0.1044663,-0.29099783,0.042226087,-0.34928212,0.30891263,0.31013104,0.22849719,-0.34438062,-0.11728395,-0.09775174,1.53132,-0.12762238,-0.2836341,0.31200495,-2.0725276,0.41185138,-1.594068,0.33491886,0.48622537,0.46773165,0.36135283,-0.76054287,0.15186363,0.6298399,0.23841706,-0.08845016,0.63528204,0.31317076,0.20573816,0.3003356,-0.36464182,-1.1836494,-0.11754932,-1.1568478,0.049877636,-0.17511183,0.1943224,0.102204315,-2.0403354,-0.44247308,0.3557056,0.12006771,0.07772366,-0.20714484,0.15786408,2.216759,1.3797296,-0.030400982,-0.12880334,-0.87431574,-0.46787158,-0.15721785,-0.13008308,0.22675101,-0.010570204,0.15865615,-0.06042311,0.42092338,-0.23660007,0.015700892,-0.06469225,0.5397144,0.5218369,1.1646216,-0.0260613,-0.1854235,0.32432467,-1.3927569,-0.4523916,0.36174452,0.20352472,-1.7941463,-0.097784065,-0.28303227,0.56715626,0.00822427,-0.5848645,0.13064444,0.42677253,-0.6617001,-1.3014503,0.5213964,-0.010440836,0.2374046,-0.09015193,-0.36381856,-0.24165027,0.81049347,-0.31880417,2.1779878,-0.16753079,-0.17608193,-0.018560281,0.7563445,-0.08577382,0.16190708,1.5640397,-0.24118613,-0.43484932,-0.2720034,0.19042754,0.4464037,0.5090247,0.81279874,0.733695,0.08487385,0.09333565,0.35187754,1.8713061,0.10361543,-0.1811649,-0.96198094,-0.046048954,-0.086042084,-0.60750735,0.2046976,-0.28452873,0.16888082,-0.4322427,-1.4267335,0.2427115,0.08539669,-0.08075674,0.054713856,0.1884514,0.03560914,0.002945584,0.5619634,0.11602491,-0.039896153,-0.11605764,-0.57669497,1.2892962,0.6684386,-0.9409423,0.6205921,-1.9405556,1.0115824,-0.42785025,-0.26796994,-0.1873342,0.13941638,-0.14427562,0.28944665,-0.8313567,0.06934249,-0.041701492,-0.19715786,1.2816569,-0.103264,0.1475624,0.746136,0.11189363,-0.5667176,0.6334862
com.main.org.springframework.samples.petclinic.owner.Owner;-1;-0.102855384,-0.05844954,-0.13850726,0.25541127,0.10179189,-0.26227254,0.3263847,-0.09645333,0.113721944,-0.62265587,0.32509866,0.3180689,-0.17402248,-0.060102303,0.5822371,-0.045677464,-0.37859443,-0.13881813,0.26254818,-0.43263564,-0.1341974,-0.029280072,0.26688895,0.08377097,0.25287542,0.0653492,0.46765617,0.5844804,0.31476763,0.97467613,-0.1626982,-0.1309341,2.2538474,-0.20219982,0.15380047,0.021918768,0.036196925,-0.27983442,0.30905387,-0.10455737,-0.25674707,-0.0924154,-1.2897803,-0.018312948,0.36653054,-0.14446771,0.1270132,0.61801314,0.21109658,0.21901794,-0.08205792,-0.16400437,-0.7386572,-0.0756866,-0.17652905,0.52458113,-0.9613251,0.23780899,0.19619596,-0.092417896,-0.31079307,-0.15064533,0.2008692,-0.16535108,1.7876076,-0.2346931,0.8137781,1.7475004,0.24274312,-0.4297645,-0.16899402,0.37244976,0.12645459,-1.0465523,-0.58465296,-0.2085719,-0.20834772,-1.4338983,-0.7232718,0.0661998,0.39762792,0.09753499,-0.18970758,0.29960278,0.21125658,-0.6072862,0.0809999,0.030431533,-1.0032198,0.56443876,0.20773189,-0.072443396,1.4392095,0.09871546,0.366899,0.4742777,0.12178949,-1.3600193,-0.33956194,-0.32485545,0.46855012,-0.9540055,-0.5580304,-0.7730701,0.36150265,-0.02344582,0.5327523,-0.15455066,-0.18258995,-0.05147895,0.22649316,0.18939489,0.07497791,-0.2290203,-0.114965826,0.037486393,0.27896482,0.30121887,0.10855072,0.31061515,-1.5514708,-0.15420495,-0.47504053,0.8725352,-0.0039530597,-0.033784658,0.056364324,-0.42763314,0.51737374,0.09164047,-1.8106743,-0.5438234,-0.11400941,-0.09391121,0.383644,-0.04057238,-0.42417833,-0.3644761,-0.28948763,0.2791299,-0.74178666,-0.25444278,0.093749195,0.39928412,0.12623663,0.053424258,0.17610924,0.017149994,0.36048576,-0.48866296,-0.9573538,-0.379302,1.6410688,-0.47842243,-0.43000755,-1.3817058,0.41423824,-0.63819474,-0.33999893,-0.9005203,0.3805044,-0.11424466,0.119259186,0.77291185,0.26819435,0.6272794,0.1747198,-0.56594414,-0.16435495,0.48712978,-0.23403482,-0.40988788,-0.83071226,0.42135504,-0.08577427,0.4444182,-0.02929032,0.27066746,0.082843535,2.3461802,0.003017186,0.2227393,0.2183959,0.042845342,-0.073682666,0.22627656,-0.5084874,-0.085230805,0.22114746,0.03132182,0.019090302,-0.06540596,0.169551,0.05923902,-0.12961765,-0.04990859,0.1921997,0.1329165,1.592534,-0.21108514,-0.08423012,0.201858,-0.25337657,-0.27670705,-0.3687104,0.6558191,-0.22661199,0.27441707,0.55951947,1.3695574,2.2875402,0.5394301,0.37162337,-0.38395652,-1.4922115,0.18162583,-0.009597258,-0.13464671,-0.1649865,-0.4471049,-1.6217318,0.07486178,-0.059808496,-0.47402427,0.06737164,0.6022188,0.099147856,0.3341458,0.06709527,-0.0077766576,0.08841016,-0.075468466,0.1125971,0.40544048,-0.83614016,-0.016689517,0.03142073,-0.16953434,-0.35746738,-1.2206379,-0.23295541,-0.24561517,0.19402897,0.55914384,0.5601956,-0.7711088,-0.19134921,0.16680433,-0.20329098,0.26675048,-0.14623563,-0.47380194,0.035621405,0.28482664,-0.3419547,0.0030256808,0.13262355,0.2421438,-0.2000437,2.9091513,-0.01634934,0.5961907,0.01844987,-0.6201369,0.091914296,-1.2676463,-0.26827732,-0.22178526,0.83645266,0.7024216,2.0034704,0.12625735,0.19202514,0.046662,-0.26101407,-0.40275136,0.77228,-0.37413695,-0.99940395,0.057582945,0.15962203,0.42895746,-0.23582907,0.2192952,0.34178033,-0.14305909,-0.5126459,-0.29961154,-0.17309266,0.21245082,0.73262167,-0.69891936,1.4696373,-0.10709997,-0.2180556,-0.19848603,0.2131053,0.4193375,0.117736675,-0.21625276,-0.1814518,0.63724345,0.21776158,-0.3953441,-0.8693097,-0.041583315,-0.6705847,-0.23841958,-0.06084482,-0.13970813,0.4191598,-1.065606,0.11125039,-0.13800792,-0.2628416,0.44196668,0.22467233,0.3021985,-0.108250596,-0.15273635,-0.1301568,-0.12580681,1.3197234,-1.4894193,0.17952926,1.1687261,0.09049379,0.067180656,-2.2413862,0.7937824,-0.1050413,-0.13444702,-0.22030163,1.5425216,-1.3040379,0.016027166,0.5442989,-0.21798868,0.75503606,0.07038381,-1.5731946,-0.09247694,-0.48947477,0.5661296,0.0060146726,1.6022648,0.16900842,-0.50690323,1.4318036,0.054108888,-0.67279154,-0.67548555,-0.11539796,-0.1615917,-0.4608027,2.6752093,0.30062363,-0.22303396,-0.4697769,0.12137845,0.43072367,-0.04015584,-0.33989087,1.9904848,0.8914726,-0.54548085,-0.9276548,-0.2048283,0.25376913,0.090940595,0.4863914,0.20426904,-0.106176056,-0.25632107,0.39547598,-0.2004963,-0.278321,0.31505844,-0.20810615,-0.28676596,-1.3743758,-0.12002802,-0.22222869,0.24799232,-0.21175784,-2.6454356,0.4108559,-0.11014849,1.7059377,0.46089223,-0.36779878,-0.5043115,0.13032629,0.26213354,0.004286876,-0.03031222,-0.38347077,-0.2560343,-1.3229123,-0.22002642,0.15497698,-0.3791282,0.12247161,0.4672668,0.4013791,0.47628057,-0.47498444,-0.17429489,0.055476364,0.45111886,-0.44255307,2.1895268,-0.14714296,-0.0028520748,-0.07398977,0.3299925,0.35565946,0.1972624,-0.33040187,0.3011668,0.08190748,0.5000023,0.8690295,-0.24529912,-0.035626065,0.30301028,-0.025976611,-0.34448805,-0.2234705,-0.5877909,0.05768317,0.73009044,0.46286914,0.24120112,-0.13193904,-0.12337476,-0.3138108,-0.457175,0.60970515,-0.00994363,0.34139594,0.04114959,0.14881115,0.14940713,-1.1474422,0.30890542,0.6270253,2.2697732,0.067946404,0.047478616,-0.08734455,0.1481666,-0.09753177,-0.30140957,0.8966818,0.09677819,-0.010496714,0.18683474,0.2043525,0.47220787,0.17914306,-0.3513389,-0.17770106,-0.38590395,0.17599158,-1.6808728,0.35634074,-0.17793977,-0.26321903,0.02304578,-1.144019,0.5596846,-0.22926073,-0.30206934,0.17289048,0.10253499,-0.0587948,1.7327431,0.45516714,2.111326,0.2049979,-0.013731033,0.41754714,-1.3831841,0.6232033,-0.76078266,0.46693715,0.31449178,-0.3799746,-0.749964,0.070424505,0.2631084,0.20653002,0.2455442,-0.39230117,0.23244707,-0.72727275,0.8493738,-0.22076128,1.0348309,0.5676375,0.23235011,0.4792826,1.6513709,0.11439157,-0.2092753,0.09124542,1.9451271,-0.10536877,-0.36687252,0.025751093,-0.1962357,0.96690774,0.50650376,-0.25985456,0.16445087,-0.17568623,-0.26127976,0.042964652,1.7625343,0.11676321,0.14238499,-0.045150507,0.55240196,1.918753,-0.030259756,-1.2100643,-0.7142589,0.29425713,-0.62103426,0.039878514,-0.11391101,-0.09110614,-0.3137063,0.89681333,0.12350413,0.419484,-0.72452825,0.047561157,-0.23344724,0.19441241,0.13740268,1.1379848,-0.0879944,0.40891877,-0.21945886,-0.14914408,-2.059022,-0.28028938,-0.25062162,-0.2480253,0.19240461,-0.36379933,-0.14693442,0.24283741,-0.1126434,0.283739,0.092322774,-0.33252445,0.61055285,-0.14641155,0.3096091,0.45853868,-0.08703157,-0.27265522,0.037515473,0.28841722,0.114904396,-0.04842565,-0.10131964,-2.1340055,-0.16229327,0.091335446,0.38944483,-0.30125508,0.31388614,1.1369027,0.0031346183,-0.4069481,0.87433094,-0.33811295,2.1854386,-0.12093774,-0.7622364,0.031529654,0.2227003,-0.6597132,0.9333238,12.229919,0.028248034,1.5074053,0.6662257,0.23055941,0.17117564,-1.6001459,0.029318018,-0.06977888,-0.09796816,0.0502817,0.13256077,0.072055705,0.58617043,0.32481465,-0.1195595,-0.21435337,0.4016877,-0.21703126,-0.03232835,-0.24039656,-0.002832214,0.7392015,-0.62460613,-0.19817698,-0.29609382,-0.20027165,0.14957038,-0.37547812,0.34593248,0.23016228,0.1943137,-0.18486035,-0.18496235,-0.16519617,1.5541825,-0.055058975,-0.31902432,0.18033357,-2.0631933,0.331086,-1.5260615,0.47134987,0.47058377,0.42742077,0.3421609,-0.7647707,0.22526796,0.47621825,0.2288655,-0.052858118,0.6134853,0.22489448,0.08993817,0.21831249,-0.20384742,-1.2461247,-0.09746331,-1.0711019,0.13897938,-0.19650342,0.2515533,0.018821994,-1.9951072,-0.3519059,0.2971362,0.0954035,0.31326294,-0.21298893,0.19261543,2.1705263,1.5306884,-0.014915059,-0.100653045,-0.9983497,-0.2621431,-0.28809306,-0.26921144,0.30553094,-0.18726893,0.26808956,0.0020954248,0.17482157,-0.31844142,-0.061839815,-0.0027899519,0.614482,0.49937043,1.3472939,0.037297662,-0.036714297,0.35005537,-1.3892322,-0.18602587,0.28492358,0.115948714,-1.7591668,-0.14411354,-0.14414667,0.4703617,-0.08487966,-0.5383721,0.093186,0.36500713,-0.66691715,-1.2645016,0.54324,-0.14349712,0.31444156,-0.0826008,-0.32384938,-0.33317113,0.8062823,-0.27005523,2.115571,-0.27833068,-0.23638727,0.11699623,0.75983685,-0.030065535,0.14896782,1.4739423,-0.23914139,-0.4078928,-0.16937356,0.28208345,0.42416057,0.528754,0.60827214,0.66832656,0.057950605,0.028566653,0.38094854,2.131485,0.13395013,-0.1621315,-1.0043178,-0.049071003,-0.11646698,-0.58124036,0.14649646,-0.2640424,0.18840273,-0.39338484,-1.4808687,0.12224766,0.30409974,-0.0836489,-0.010987878,0.07476607,-0.0046149814,0.0020517402,0.5790639,0.117829196,0.006495004,-0.022461614,-0.42891786,1.3830036,0.779797,-0.9647992,0.6376715,-1.9506365,0.9818094,-0.37959847,-0.20659685,-0.101811565,0.11045056,-0.15790989,0.34347424,-0.7682691,0.07051026,-0.0074275783,-0.18426156,1.2786673,-0.023312882,0.080904625,0.697325,-0.027379803,-0.61019015,0.5442431
com.main.org.springframework.samples.petclinic.owner.OwnerController;-1;-0.082096964,-0.024793765,-0.10491685,0.3180938,0.14440906,-0.28294647,0.30754048,-0.0867127,0.088612236,-0.60529745,0.31214398,0.26504847,-0.14302209,-0.03330066,0.604311,-0.003958789,-0.39129272,-0.111490406,0.30153,-0.40765712,-0.08299012,0.011748854,0.18962699,0.091014385,0.16700886,0.075164594,0.5098861,0.5621792,0.3027657,0.9936032,-0.16442436,-0.12606013,2.226081,-0.16054471,0.088476375,0.042210937,0.08055638,-0.22948301,0.29151475,-0.07476805,-0.25381872,-0.13716723,-1.3158705,-0.011434161,0.3547505,-0.13669467,0.09966528,0.6504196,0.19162463,0.25055537,-0.12575273,-0.21692812,-0.79341656,-0.06369066,-0.14560425,0.46273825,-0.95828986,0.23191012,0.12068117,-0.07927923,-0.31971592,-0.20978734,0.20555253,-0.118661985,1.7513278,-0.22733042,0.8337569,1.6937884,0.24429668,-0.4421054,-0.14450736,0.41330832,0.13371292,-1.1188576,-0.560699,-0.18915847,-0.21569031,-1.4347295,-0.7459322,0.117818266,0.361009,0.11839535,-0.1648579,0.23633905,0.15421368,-0.6225034,0.09946518,0.054797158,-1.0086521,0.5236373,0.23039213,-0.06208927,1.3660034,0.14882015,0.3281118,0.44601625,0.1777527,-1.3311313,-0.3017868,-0.31558758,0.4436824,-0.8852377,-0.5090556,-0.81461054,0.3552577,-0.00904116,0.5414195,-0.13527745,-0.20836186,-0.07128771,0.22576652,0.20382065,0.048848577,-0.1919085,-0.19485143,0.017985402,0.28325874,0.26158535,0.11001711,0.3917281,-1.4847925,-0.06128615,-0.40796185,0.844288,-0.00077441987,-0.035913322,0.0907208,-0.34363216,0.46034548,0.0702602,-1.7796184,-0.64488494,-0.12300999,-0.056342542,0.4306058,-0.005602952,-0.44974697,-0.32298696,-0.31258348,0.314947,-0.70269847,-0.275305,0.16951185,0.4131469,0.072523765,0.06995054,0.18899399,0.0059668347,0.31811878,-0.39763618,-1.0105604,-0.39720953,1.6292778,-0.50350857,-0.42859346,-1.313585,0.2995125,-0.64748275,-0.27464014,-0.8757131,0.3429967,-0.10202487,0.14268735,0.7817523,0.30993697,0.6415937,0.082185835,-0.55304897,-0.18693653,0.44720697,-0.22051115,-0.45127606,-0.818148,0.46141768,-0.06493214,0.45879316,-0.075222306,0.26072025,0.13695212,2.3497434,-0.04031322,0.2072747,0.22011867,0.11446683,-0.02491513,0.26165608,-0.4777615,-0.073327854,0.20082843,-0.021982143,0.005539108,-0.084298305,0.05488246,0.072572425,-0.1474191,-0.037679996,0.13359165,0.15341243,1.5996058,-0.2425666,-0.13274977,0.0653656,-0.24532078,-0.26159894,-0.37819052,0.5975421,-0.20602943,0.24876565,0.5573962,1.3927433,2.2758036,0.47182778,0.309246,-0.38662422,-1.5010012,0.23201099,-0.024192926,-0.21386033,-0.16024171,-0.49023998,-1.6041695,0.13821653,-0.044702157,-0.44288838,0.066655934,0.52285284,0.12127745,0.30222034,-0.0011207201,-0.06532938,0.11910102,-0.07447162,0.16691636,0.36672005,-0.8707276,-0.028590899,0.015170119,-0.17900266,-0.3667096,-1.1936471,-0.19719023,-0.22913082,0.20689842,0.50404435,0.62955606,-0.79043794,-0.22772753,0.13733198,-0.15305729,0.2909588,-0.17302088,-0.4453861,-0.034777146,0.34863836,-0.30137444,-0.033553496,0.11299658,0.26900974,-0.17810228,2.8091087,0.013816572,0.64221543,0.0765913,-0.60543644,0.07128683,-1.3584713,-0.29711968,-0.17923081,0.7268953,0.67107534,1.9641587,0.14337705,0.26758233,0.09832538,-0.288971,-0.3796938,0.7997986,-0.3405623,-0.9492999,0.021790892,0.25404602,0.40802053,-0.2118995,0.19009088,0.31263122,-0.15801759,-0.4920292,-0.37313038,-0.1720908,0.27000475,0.74108535,-0.7040242,1.4511242,-0.12726192,-0.23750627,-0.15321985,0.1580486,0.45004922,0.018810509,-0.20181152,-0.17555952,0.62484235,0.16436896,-0.36114144,-0.87045664,-0.07520623,-0.5842114,-0.22899187,-0.07649802,-0.10139115,0.31691015,-1.0265392,0.077761605,-0.1388787,-0.24304068,0.45196778,0.1438943,0.27849433,-0.122224346,-0.03610149,-0.11318709,-0.10867614,1.2751834,-1.5018908,0.124094516,1.2303813,0.08140579,0.12177196,-2.2283616,0.78857553,-0.15031192,-0.098435864,-0.22430666,1.5084647,-1.29035,-0.006722538,0.5072715,-0.31094056,0.7569003,0.04803955,-1.531728,-0.0856663,-0.47346377,0.5473827,0.026898293,1.571915,0.20034763,-0.5016028,1.3794346,0.057014048,-0.6328584,-0.67459536,-0.11554836,-0.14934124,-0.39872104,2.7059653,0.34175548,-0.23597974,-0.47047806,0.11870548,0.42827892,-0.01069881,-0.3182209,1.9698606,0.91508555,-0.5072686,-0.9702786,-0.20141947,0.27811256,0.01714313,0.4464872,0.19129744,-0.10996862,-0.30723467,0.43357962,-0.25089037,-0.27676043,0.3383057,-0.13159794,-0.25565723,-1.3645641,-0.1088904,-0.23201093,0.3285389,-0.20817283,-2.5460289,0.36538017,-0.061683647,1.6494626,0.3664096,-0.38051856,-0.50238466,0.09516298,0.29296958,0.034884144,0.008720088,-0.4140395,-0.19132891,-1.3300982,-0.17124954,0.053758927,-0.3992923,0.16158152,0.54948086,0.42457163,0.47421888,-0.40475568,-0.18192022,0.10092131,0.45406336,-0.41747028,2.257861,-0.15857378,-0.02923297,-0.10161927,0.30973315,0.4289332,0.20247906,-0.29643467,0.29425654,-0.02336711,0.48517123,0.87751913,-0.20727931,-0.09506875,0.31996524,-0.0067980513,-0.31553584,-0.25227654,-0.48279786,0.0126421265,0.7050158,0.5085594,0.2535517,-0.1359543,-0.12297854,-0.27047148,-0.4396153,0.65352404,0.021072082,0.21883148,-0.054941483,0.1618266,0.19402179,-1.1475754,0.32175454,0.65065956,2.2130468,0.03311899,-0.08425757,-0.11827886,0.15608528,-0.04155294,-0.33254957,0.8882833,0.064764336,0.04560166,0.21042664,0.22349682,0.4669358,0.12215425,-0.3462877,-0.13945201,-0.36379245,0.15841459,-1.6420217,0.23724833,-0.13618371,-0.33963305,0.048975293,-1.1508508,0.5536884,-0.18535909,-0.23573843,0.14143671,0.081835076,-0.059984967,1.695105,0.41870934,2.1045911,0.27365008,0.008391324,0.43706828,-1.3681707,0.61406094,-0.72775066,0.39719647,0.28852576,-0.36852717,-0.69559705,0.012172237,0.2842406,0.20344394,0.17243546,-0.374771,0.26363644,-0.70473385,0.8404232,-0.19714303,1.01308,0.50990075,0.24451892,0.45342746,1.6283355,0.10630174,-0.185925,0.065143265,1.9015453,-0.088453084,-0.3348453,-0.006610887,-0.105012715,0.9557579,0.48270202,-0.19270179,0.19173127,-0.1634078,-0.24263033,0.006497736,1.7428644,0.12591973,0.19265774,-0.08146234,0.5226753,1.8697736,-0.026085295,-1.1747394,-0.7068614,0.35134444,-0.53456664,0.07701178,0.001814405,-0.10438031,-0.3035997,0.97754043,0.10722896,0.3572053,-0.648152,0.018179588,-0.18422952,0.22282147,0.10275116,1.1271948,-0.107726924,0.36091822,-0.2587032,-0.1295667,-1.9807923,-0.28608963,-0.25442016,-0.2894607,0.20309919,-0.3827635,-0.094680645,0.20268217,-0.12774509,0.28434914,0.04687012,-0.34518683,0.69088507,-0.120940305,0.21792778,0.4154637,-0.08528357,-0.23692268,0.07718421,0.2640805,0.11193763,-0.035740983,-0.079239085,-2.1120749,-0.1227178,0.058388945,0.45515913,-0.2939667,0.3632372,1.0932758,0.06687517,-0.48216787,0.8905711,-0.3329032,2.0716505,-0.075031355,-0.75960803,0.01880281,0.20461547,-0.5620527,0.9102321,12.353609,-0.03454222,1.5016699,0.6438323,0.19781663,0.1401257,-1.5953107,-0.0013728505,-0.14551574,-0.08051475,0.053882733,0.04700085,-0.052238144,0.51924926,0.3576885,-0.05869657,-0.22289246,0.4147963,-0.3011777,-0.004372729,-0.345702,0.060781322,0.7625948,-0.63560367,-0.20609963,-0.3421882,-0.22014692,0.1817378,-0.3707777,0.38551036,0.114404395,0.30125645,-0.20788479,-0.13063465,-0.17765275,1.5820013,-0.05924506,-0.3665635,0.23186457,-2.0738912,0.3235311,-1.5223434,0.41443342,0.426966,0.4550855,0.3180287,-0.7387529,0.15732048,0.49117294,0.1553646,-0.08696818,0.6187707,0.2536221,0.14134242,0.23567462,-0.19608729,-1.1891106,-0.12844947,-1.0378673,0.08673256,-0.12986594,0.26711762,-0.002722066,-1.9874704,-0.4100203,0.3181705,0.05245751,0.2758281,-0.18855265,0.18969917,2.0885935,1.549856,0.06689545,-0.12776177,-1.0304173,-0.22978048,-0.26843572,-0.26420075,0.27049488,-0.15540965,0.2332013,0.012419455,0.18934193,-0.35043433,-0.046148006,-0.0012860429,0.64491445,0.4241676,1.2918973,0.1321361,-0.02969874,0.38439485,-1.4021758,-0.15843251,0.2678442,0.097772904,-1.7769549,-0.23072597,-0.08199546,0.47410548,-0.10456209,-0.51455075,0.15529588,0.36286718,-0.6593318,-1.275063,0.5196688,-0.09260173,0.39575464,-0.041725274,-0.3916027,-0.36916563,0.7465628,-0.1621014,2.0871308,-0.19629887,-0.22689486,0.15117107,0.7391851,-0.04547122,0.1205232,1.4064617,-0.32915395,-0.37288556,-0.16587128,0.28111023,0.35603806,0.5613136,0.6105664,0.62007016,0.055997465,0.012058858,0.29728588,2.1151562,0.0915228,-0.11367166,-1.0506938,-0.11793968,-0.12350693,-0.5810925,0.22825263,-0.2704786,0.21534277,-0.3739946,-1.4574567,0.15008613,0.27048576,-0.034982063,0.045714326,0.044358127,0.02468903,0.008555194,0.5441934,0.10567017,0.032530792,-0.038686674,-0.35078883,1.3336139,0.7363448,-1.0015658,0.6819386,-1.9278901,0.96966374,-0.33651793,-0.18426846,-0.11293082,0.18171567,-0.13701122,0.3501715,-0.7462548,0.0060336906,0.051064983,-0.29059517,1.2323272,-0.091600634,0.057395484,0.6496955,-0.035549156,-0.5867921,0.57681733
com.main.org.springframework.samples.petclinic.owner.OwnerRepository;-1;0.00256968,-0.1291247,-0.2116974,0.2672246,0.1435638,-0.35696572,0.4185065,-0.13315845,-0.013790155,-0.7876359,0.3383456,0.2950511,-0.04739012,0.09753312,0.5134921,0.0076320246,-0.49641854,-0.24152666,0.19153258,-0.28236806,-0.15610705,-0.057052284,0.1437124,0.15433644,0.26348257,0.10913476,0.40547192,0.5358807,0.3327164,1.026828,-0.17575905,-0.15071301,2.329165,-0.1313312,0.13513058,0.100019604,0.13997476,-0.29254264,0.32994008,-0.028035635,-0.23820439,-0.048891943,-1.2640216,-0.045726627,0.35901436,-0.18591571,0.13632813,0.6321218,0.18240401,0.20123988,-0.17250992,-0.2914382,-0.694583,0.0375525,-0.17530102,0.5357503,-0.9524266,0.26212943,0.2617123,-0.13630101,-0.22247946,-0.22180644,0.1880286,-0.098469436,1.8464115,-0.35115156,0.8295,1.8419766,0.3491712,-0.4076686,-0.06693504,0.47057873,0.06347121,-1.0149807,-0.54908776,-0.35651004,-0.20248531,-1.4407415,-0.77030826,3.7252903e-06,0.30692893,0.13542272,-0.16126235,0.25195354,0.27989143,-0.6799636,0.15884615,-0.0066547003,-1.0471731,0.58637834,0.28160644,-0.06412358,1.573173,0.084346406,0.2626847,0.5679653,0.20254701,-1.2704768,-0.28592816,-0.22533092,0.4360152,-1.0344985,-0.5068507,-0.8287475,0.4130838,-0.029061927,0.49281657,-0.11314598,-0.19032678,-0.03146737,0.19012178,0.17181075,0.06385014,-0.25538754,-0.111282155,0.22479296,0.30733913,0.15889688,0.02251754,0.247272,-1.46813,-0.11173691,-0.41371697,0.9424845,0.02893663,0.0742722,0.029774226,-0.36768222,0.53985786,0.049342908,-1.71448,-0.51897275,-0.19899121,-0.15699862,0.40123677,-0.062286086,-0.49546027,-0.36731815,-0.227967,0.31083545,-0.69709706,-0.3137795,0.18221027,0.3944742,0.21068959,0.08826551,0.12717184,0.05492579,0.28920212,-0.44496256,-0.889215,-0.32043236,1.6193529,-0.58028686,-0.37975627,-1.2600732,0.35572612,-0.656644,-0.37846208,-0.9711949,0.3398171,-0.12137384,0.060914535,0.7988912,0.26726937,0.5082177,0.08223153,-0.5621114,-0.12016471,0.4689821,-0.20891154,-0.33395702,-0.86472404,0.31614077,-0.16369815,0.3898356,-0.022685857,0.281399,-0.04536386,2.362444,-0.045127623,0.2768314,0.32725045,0.21711677,0.14577243,0.24396405,-0.52672607,0.051024146,0.22994165,0.07521885,0.121086255,-0.11494735,0.07797144,-0.02713417,-0.22098374,-0.07748287,0.23846154,0.19794871,1.6559274,-0.25335822,0.014969308,0.12177516,-0.27735382,-0.27684757,-0.43696675,0.6439445,-0.20073107,0.20458688,0.6028909,1.3964578,2.311201,0.5788975,0.21323499,-0.30667534,-1.6372491,0.095468104,-0.13363627,-0.0691455,-0.20307055,-0.34973013,-1.7314142,0.07548286,-0.09111395,-0.4035104,0.04433598,0.64707375,0.114245296,0.31521648,0.14485347,0.038150623,0.07355924,-0.055309556,0.1666575,0.30336827,-0.95219624,-0.025321968,0.1337233,-0.23391843,-0.4461581,-1.1128578,-0.15470089,-0.35897624,0.2854444,0.6169661,0.5705216,-0.8347813,-0.2108157,0.08220529,-0.26300353,0.23411715,-0.15161914,-0.2701733,0.060865693,0.2495287,-0.40343773,0.15086405,0.09536699,0.17994106,-0.20135245,2.8353662,-0.0703257,0.6558505,-0.0043369234,-0.5389815,0.08004712,-1.3453723,-0.40789723,-0.25978252,0.8074242,0.6714957,1.8715819,0.13184795,0.19419652,0.044816576,-0.357584,-0.4126477,0.8355079,-0.42122597,-0.8967453,0.063827425,0.2699781,0.3657292,-0.22196905,0.21122013,0.37435973,-0.08102105,-0.4938327,-0.358105,-0.11979852,0.30407548,0.6687839,-0.70793796,1.4418317,-0.07932793,-0.1392929,-0.29643074,0.24859989,0.47961843,-0.03559865,-0.11199334,-0.17305177,0.6029836,0.18970644,-0.39581412,-0.8945668,-0.06867664,-0.61702836,-0.27984875,-0.13974798,-0.23933703,0.4262269,-1.0464673,0.117206514,-0.14756216,-0.2816584,0.4670703,0.23423314,0.33941463,-0.09195809,-0.097748995,-0.067194976,-0.12309419,1.1729591,-1.5492487,0.026365297,1.2237376,0.23297228,0.12942146,-2.2057953,0.8670747,-0.06954874,-0.16751286,-0.30456668,1.4792181,-1.276629,0.0025454555,0.5600405,-0.23545715,0.77212274,-0.00060122646,-1.597044,-0.10929014,-0.5271706,0.6402025,-0.018854354,1.5231004,0.20906615,-0.5693966,1.3811834,0.12665617,-0.62798345,-0.70651495,-0.075736046,-0.12172456,-0.52110356,2.786552,0.16904853,-0.28042847,-0.44643533,-0.02288887,0.40328127,0.055387244,-0.34828436,1.9577069,0.8787044,-0.50008154,-0.9415848,-0.29304576,0.32370996,-0.05698745,0.45111865,0.17493281,-0.044587873,-0.2616174,0.41894346,-0.21052457,-0.31667882,0.3594736,-0.24369425,-0.2877697,-1.3088534,-0.17622322,-0.18617907,0.26953724,-0.3796748,-2.5303268,0.3468014,-0.13808282,1.6965497,0.5482886,-0.38274753,-0.5513946,0.15449296,0.26759467,0.1096251,-0.028304692,-0.39359114,-0.16771427,-1.349882,-0.27378398,0.13645667,-0.37669182,0.1889029,0.5660317,0.38438654,0.53441334,-0.33847794,-0.15187632,0.14976421,0.40354288,-0.4105102,2.2655091,-0.09488216,0.04831773,-4.6577305e-05,0.32681644,0.3000618,0.19430345,-0.28754985,0.25101158,-0.06349116,0.36334634,0.8193637,-0.31141335,-0.18305056,0.25805086,-0.080046944,-0.35338438,-0.28963864,-0.3841452,0.1181246,0.80485344,0.5197147,0.26713213,-0.06458979,-0.10481558,-0.25784922,-0.36028296,0.55561423,-0.025135638,0.30930334,-0.044140566,0.04153472,0.11537056,-1.1667744,0.26799628,0.7260351,2.2693186,-0.02283056,-0.048314717,-0.062895805,0.122644216,-0.17845765,-0.34918165,0.78449553,0.15438235,-0.038533434,0.1764417,0.2425963,0.44708896,0.14487606,-0.49218783,-0.23318669,-0.35363385,0.08502299,-1.6377268,0.23889956,-0.11103319,-0.21451652,0.10113178,-1.096908,0.61805594,-0.08107504,-0.25528213,0.30269912,0.19080284,-0.13907464,1.7162156,0.4829025,2.195078,0.31912914,0.039734256,0.41075337,-1.4389703,0.63267756,-0.8264925,0.5321814,0.30747843,-0.5195699,-0.7292956,0.16843715,0.35950348,0.3013705,0.12387095,-0.39175463,0.3332113,-0.7212172,0.85736895,-0.119842716,1.0753901,0.50225216,0.271684,0.44509023,1.631706,0.19799607,-0.19340548,0.025674768,1.8989325,-0.014756229,-0.32142216,-0.009935543,-0.10605745,1.0763417,0.4204614,-0.10617231,0.16370565,-0.22957014,-0.15579563,0.010283846,1.7676105,0.12140559,0.20218188,0.004893979,0.58218074,1.7500433,-0.043868463,-1.2246485,-0.70259476,0.4540605,-0.57801926,0.17436111,-0.06885268,-0.13678995,-0.31529295,0.9621202,0.054299083,0.41464818,-0.7074301,0.15756577,-0.27609625,0.3145232,0.23623401,1.1318256,-0.043701842,0.32631913,-0.10368192,-0.097664356,-1.9876952,-0.31064984,-0.31448185,-0.38590738,0.23872581,-0.36861825,-0.16363372,0.13106304,-0.040462542,0.32337517,0.16171251,-0.26070124,0.64707536,-0.04308177,0.13799801,0.4391815,-0.07834399,-0.24920008,0.09140312,0.21876535,0.10595408,-0.068686634,-0.0053335708,-2.1311204,-0.20242402,0.084489875,0.4562633,-0.36961162,0.23477066,1.1211286,0.04161381,-0.46011922,0.843667,-0.48307902,2.2088246,-0.17406449,-0.7270397,0.05086327,0.069214314,-0.67089266,0.8338012,12.404406,-0.000721924,1.3904912,0.79531276,0.20537868,0.18677169,-1.5938385,0.042590044,-0.13171399,-0.024804208,0.0676994,0.16045138,0.052828003,0.54080725,0.30382958,0.022068376,-0.21757062,0.51815283,-0.26506585,0.07008784,-0.47161865,0.10649933,0.72950375,-0.6449109,-0.21366994,-0.29168248,-0.23496519,0.13721675,-0.38507107,0.27977455,0.30750495,0.298489,-0.22898908,-0.063137114,-0.06626633,1.5918486,-0.053907454,-0.346398,0.25423467,-2.1026778,0.3652121,-1.5451384,0.31738982,0.43017194,0.5107982,0.2643692,-0.83802485,0.14872608,0.528324,0.23728266,-0.20231777,0.68938804,0.31464237,0.21890065,0.2704577,-0.32194763,-1.1362615,-0.15698844,-1.1571935,0.036128707,-0.18708166,0.14727323,-0.025544738,-2.007718,-0.52968335,0.3122462,0.23649539,0.16784286,-0.13348626,0.21033555,2.1808143,1.4588577,0.027360123,-0.033058878,-1.0653505,-0.3759265,-0.20648846,-0.20493,0.1661247,0.035242144,0.26631957,-0.11398871,0.29444486,-0.33461243,0.0033206567,0.059353657,0.47522676,0.4548682,1.1728503,0.11414501,-0.18767051,0.3694983,-1.4049897,-0.33238128,0.23439127,0.16825578,-1.8129556,-0.20097795,-0.2723329,0.48959208,0.019463994,-0.5288049,0.17334259,0.32258517,-0.75497985,-1.4671483,0.48899823,0.008075535,0.30370122,-0.12992637,-0.3533318,-0.3104313,0.8463036,-0.27211756,2.1087916,-0.19338754,-0.23003961,0.0678668,0.65924644,0.0008313246,0.1403065,1.5144112,-0.36369556,-0.43209606,-0.17886248,0.26174942,0.382561,0.46433175,0.74149346,0.64990723,0.055872295,0.06722361,0.21136901,2.0163357,0.07295871,-0.052704215,-0.90112185,-0.19699834,-0.13219544,-0.64105844,0.12753187,-0.30585188,0.18027599,-0.37466303,-1.5108193,0.16897088,0.28660145,-0.038358014,0.098878585,0.16836458,0.07996181,-0.012234808,0.6623882,0.08952888,0.012206405,-0.039048664,-0.5159873,1.3225579,0.7884946,-0.9694668,0.6614908,-1.8036304,0.96279204,-0.35665032,-0.19207704,-0.1651268,0.18192145,-0.11139559,0.29389971,-0.7599932,0.019865735,0.08533094,-0.26110432,1.3780323,-0.069605894,0.106298506,0.63357127,0.07173669,-0.56018937,0.56527066
com.main.org.springframework.samples.petclinic.owner.Pet;-1;-0.12098901,-0.0117497705,-0.14083926,0.1589674,0.12231305,-0.30914056,0.30501345,-0.10640277,0.19554156,-0.59345734,0.28870133,0.31657475,-0.15899026,-0.08472443,0.5536518,0.14220516,-0.33908355,-0.08824685,0.24013793,-0.3884599,-0.13586736,-0.118750066,0.31861067,0.04252992,0.3037257,0.07527805,0.31975836,0.559911,0.2761275,0.99266547,-0.20459303,-0.1921611,2.2020397,-0.18653484,0.19147937,0.0047869384,0.002601292,-0.18652426,0.35598958,-0.08991199,-0.2589339,-0.07746792,-1.134215,0.009625236,0.35559294,-0.14220607,0.08742675,0.6060532,0.114011236,0.20591497,-0.09101996,-0.1336371,-0.7108234,-0.0067926976,-0.15758815,0.54295874,-0.9611475,0.21411528,0.098699346,-0.15837185,-0.26427603,-0.083625555,0.18138598,-0.2168994,1.7646303,-0.31402773,0.7806038,1.6437325,0.17707714,-0.35638106,-0.09422858,0.32318264,0.042244677,-0.9866125,-0.5756746,-0.17973137,-0.23985186,-1.0955894,-0.6599742,0.14620188,0.36722764,0.07556688,0.055545278,0.23620887,0.12111944,-0.4687863,0.01842775,0.07653578,-0.8763974,0.52524495,0.24115162,-0.041954927,1.3399459,0.0959207,0.3361774,0.49085474,0.20261723,-1.2631004,-0.21137354,-0.3642367,0.3444314,-0.89291394,-0.40259606,-0.7370606,0.3197152,-0.056431703,0.59931624,-0.12166512,-0.20814532,-0.09653492,0.1454402,0.11147344,0.064794414,-0.19528836,-0.085271806,-0.028223645,0.27287132,0.24336824,0.023211036,0.24151805,-1.3909309,-0.084023654,-0.47953546,0.8063835,0.091983035,-0.05350945,-0.12786299,-0.33691612,0.48185667,0.14222765,-1.7463453,-0.60435855,-0.14845623,0.010832787,0.32262707,-0.05201184,-0.41729718,-0.27488333,-0.34979546,0.23132364,-0.6593057,-0.30388948,0.09397952,0.32641974,0.19366127,0.1170644,0.12572785,0.0065833554,0.3436293,-0.45785898,-0.82257116,-0.30087098,1.550943,-0.4718576,-0.34623703,-1.1797817,0.32587242,-0.6348969,-0.29714626,-0.8712857,0.368597,-0.14814141,0.04708557,0.7690468,0.26995683,0.56686157,0.14206465,-0.5068332,-0.08170212,0.41537112,-0.23173912,-0.43642503,-0.78755057,0.361006,-0.022648439,0.31982815,-0.049911015,0.25192416,0.021932576,2.2684393,-0.06015239,0.13816498,0.20584989,-0.001777485,-0.021572847,0.2557905,-0.4746213,-0.032436736,0.18706974,0.038847916,-0.042478725,-0.13670662,0.18791652,0.017453225,-0.09885915,0.018743452,0.17292117,0.17262816,1.548033,-0.21105875,-0.06666431,0.20844525,-0.21077606,-0.22199555,-0.26612604,0.57564205,-0.21802007,0.29120713,0.55182123,1.3304527,2.1950724,0.46385607,0.24874488,-0.36996734,-1.3316531,0.187817,-0.07749678,-0.17186196,-0.15673532,-0.3852265,-1.5964904,0.12890336,-0.14076187,-0.5338765,0.05451949,0.49896568,0.11577109,0.20027858,-0.06934845,-0.035262097,0.17098053,-0.08641747,0.102125585,0.28444234,-0.7360149,-0.034964398,-0.06082832,-0.17152,-0.37481788,-1.204762,-0.15218757,-0.23732407,0.2371862,0.5933236,0.5409813,-0.7186455,-0.18100189,0.071612805,-0.18872719,0.24871089,-0.16511242,-0.36458552,0.007890052,0.2159049,-0.3417756,-0.011993051,0.075213805,0.116529405,-0.12753852,2.739364,0.012401955,0.52481735,-0.028910767,-0.5799924,0.124050036,-1.2309957,-0.2304131,-0.11297169,0.77807033,0.7128717,1.800782,0.12939085,0.21193469,0.108981416,-0.262069,-0.35335663,0.75438863,-0.28706968,-0.8958031,0.02798253,0.07561146,0.3417661,-0.24428992,0.10496734,0.24871008,-0.15158202,-0.46327356,-0.29924634,-0.12634625,0.24140695,0.6116867,-0.657061,1.448191,-0.032245077,-0.30460447,-0.095790304,0.25906014,0.43194437,0.11224427,-0.3090652,-0.11009429,0.5769845,0.1559543,-0.4192736,-0.7766511,-0.09342374,-0.55583525,-0.2166699,-0.04546158,-0.15736783,0.38036922,-0.96118706,0.047181062,-0.083632976,-0.30146527,0.3272301,0.13170086,0.19430758,-0.102006294,-0.110937536,-0.084758215,-0.20464666,1.1969924,-1.3733459,0.13937399,1.1150733,0.16727883,0.036104675,-2.1048903,0.84314644,-0.28722444,-0.09272417,-0.2028906,1.4077506,-1.2238905,-0.07689905,0.52653587,-0.22184317,0.6709758,-0.0065977005,-1.4682405,-0.03980197,-0.49025124,0.51951826,0.032885365,1.4484153,0.148376,-0.45672038,1.3256923,0.13040893,-0.6780411,-0.6175319,-0.10385269,-0.27754217,-0.4074334,2.567022,0.31812924,-0.16315442,-0.41571653,0.00012586266,0.41555336,-0.01617028,-0.28265935,1.865878,0.88071966,-0.5402175,-0.82330513,-0.21633624,0.16101715,0.07841675,0.3802606,0.16739279,-0.07181362,-0.26137173,0.35347706,-0.20704766,-0.25074932,0.2740152,-0.22131367,-0.26374125,-1.2695217,-0.038702957,-0.121985115,0.18012765,-0.18399373,-2.5324082,0.40483043,-0.12804106,1.6214241,0.38139904,-0.29821247,-0.39696616,0.099794954,0.24479991,-0.016477713,-0.050807722,-0.3670648,-0.21752796,-1.260653,-0.21333075,0.082103856,-0.37198335,0.15268748,0.33882535,0.32587233,0.49684906,-0.45244175,-0.20477542,0.0017526057,0.45266008,-0.41998717,2.1536198,-0.10202889,0.05204453,-0.025712337,0.28100145,0.35928783,0.1498015,-0.19821282,0.26750404,0.077194035,0.4413048,0.8091138,-0.24876043,-0.0811397,0.29795262,0.04939992,-0.32025322,-0.21059702,-0.51343334,0.017971227,0.72041535,0.3983681,0.217587,-0.12747398,-0.15748264,-0.32692504,-0.3969291,0.56448686,0.008693242,0.30713886,0.025120787,0.14566357,0.13962124,-1.0311787,0.32592598,0.5732494,2.0845246,-0.037682902,0.029600594,-0.13787597,0.16210617,-0.10116656,-0.1194081,0.7684504,0.03856601,0.012405761,0.15433884,0.2682913,0.40033275,0.16157487,-0.2729404,-0.18729085,-0.3872484,0.18519555,-1.6755543,0.37299892,-0.16069986,-0.3281568,0.17824914,-1.099382,0.5670546,-0.203006,-0.27380192,0.106517695,0.08818483,-0.1132325,1.6392227,0.3748518,1.977515,0.10599546,-0.041765377,0.45935866,-1.2686836,0.5569483,-0.6717184,0.47453278,0.28087717,-0.3570367,-0.66371655,0.00022153556,0.26047146,0.14997683,0.25838682,-0.2928825,0.2790727,-0.5912155,0.80364084,-0.10051846,0.9579264,0.44258258,0.18726437,0.5190049,1.5474164,0.09893192,-0.1367087,0.06531058,1.8086659,-0.006690223,-0.32509196,0.02994555,-0.21366443,0.9175334,0.4569602,-0.21807286,0.25725758,-0.18380484,-0.24937953,-0.004450392,1.6640317,0.11266753,0.08278148,-0.09171736,0.5051174,1.7857115,-0.079588935,-1.1765411,-0.65151936,0.24572659,-0.537977,-0.04105659,-0.020762715,-0.07242127,-0.28398722,0.88786334,0.098071694,0.3598135,-0.61869705,0.115937725,-0.21478459,0.20066273,0.016462535,1.1130161,-0.023575416,0.48278266,-0.2654176,-0.13468352,-1.9312363,-0.286215,-0.1719436,-0.29175365,-0.12916532,-0.32182556,-0.07716441,0.21452485,-0.11450555,0.2414597,0.14445305,-0.26250786,0.539401,-0.16269407,0.20178862,0.45206863,-0.067788556,-0.2695898,0.07800192,0.2511561,0.12286394,-0.024689112,-0.100822076,-1.9763703,-0.11401743,0.11977247,0.3156296,-0.25809616,0.26072285,1.1137815,-0.04420148,-0.30955172,0.7532256,-0.25859967,2.029166,-0.08359559,-0.73081243,0.009138528,0.25544906,-0.6460795,0.93330276,13.37276,-0.093525335,1.4386039,0.6538892,0.22851285,0.09057926,-1.4836932,-0.04558783,-0.13125505,-0.093146436,0.041138366,0.06273216,0.09430239,0.49666622,0.28713953,-0.18028952,-0.2593514,0.40633014,-0.2032961,-0.064228885,-0.24883528,0.02502218,0.73276746,-0.6357647,-0.1194806,-0.21256651,-0.09862432,0.13695003,-0.37279183,0.27953023,0.20960146,0.23397042,-0.20094255,-0.2321948,-0.2211233,1.5250916,-0.073106475,-0.3244934,0.23785833,-1.9575391,0.32569927,-1.3539497,0.47632182,0.36929452,0.358785,0.28587055,-0.76024747,0.22601846,0.40288144,0.13024202,-0.056622498,0.6377631,0.22974858,0.104484655,0.23552811,-0.22312027,-1.1201284,-0.09174414,-0.99710715,0.046508335,-0.19987589,0.25703102,0.045398213,-1.9569681,-0.34749264,0.24379027,0.02508761,0.2359974,-0.18047786,0.15765671,2.099568,1.4914732,-0.03132425,-0.14098759,-0.8519126,-0.23275176,-0.21201651,-0.25541002,0.31891745,-0.17548157,0.17412506,0.0183055,0.18726212,-0.33659813,-0.010184906,0.042947803,0.6199442,0.5420737,1.2694807,0.054608494,0.0013315864,0.3075793,-1.3295681,-0.19659641,0.2828116,0.0842419,-1.6406635,-0.15815593,-0.04013647,0.46966857,-0.012274593,-0.5216116,0.19848695,0.37533334,-0.66312313,-1.175436,0.45969594,-0.14375773,0.25438675,-0.015697105,-0.2982285,-0.29227394,0.6857923,-0.2464445,2.001447,-0.18959221,-0.15244104,0.07320674,0.7269627,-0.07105844,0.09602192,1.3611702,-0.21979871,-0.37570012,-0.11871107,0.2503594,0.3561107,0.5234591,0.5409054,0.6209483,-0.060710803,0.092642725,0.40062195,1.9966593,0.11395116,-0.2150222,-0.92366576,-0.08364226,-0.008763332,-0.5423878,0.09939866,-0.2057043,0.15960525,-0.34683898,-1.3940182,0.1006376,0.38409778,-0.07396798,0.06529939,0.045565642,0.0092773,0.0250578,0.56813204,0.16583201,0.012189571,-0.11177448,-0.47818288,1.318864,0.7253202,-0.8702954,0.60291076,-1.8029493,0.8899975,-0.33017477,-0.17907776,-0.047903374,0.162711,-0.109772414,0.33054072,-0.69004786,0.09952809,0.0004139305,-0.24713853,1.1939144,-0.06355688,0.10286419,0.66387343,-0.020072997,-0.5397366,0.5765425
com.main.org.springframework.samples.petclinic.owner.PetController;-1;-0.074364886,-0.036527716,-0.068513274,0.27218315,0.15272346,-0.30725724,0.31738147,-0.04288374,0.10007356,-0.57653654,0.3197658,0.29683298,-0.18964505,-0.06456491,0.5677746,-0.059432436,-0.32542577,-0.09558456,0.28611332,-0.40521204,-0.09228839,-0.003274558,0.22738463,0.11288117,0.16095501,0.043359004,0.4999579,0.56437653,0.2701547,0.9713073,-0.14378135,-0.13860756,2.2407584,-0.1781985,0.104669034,-0.013632376,0.03955627,-0.19336379,0.28990594,-0.063875854,-0.2649533,-0.1248407,-1.3484385,-0.052083462,0.38644782,-0.16005762,0.07621127,0.5989176,0.21671475,0.24389666,-0.11554117,-0.21680935,-0.7507037,-0.12483276,-0.17105675,0.44095778,-0.9532869,0.2046959,0.08106072,-0.06805029,-0.3209135,-0.20727992,0.16769913,-0.15062965,1.763895,-0.19012868,0.8140228,1.6491976,0.20616585,-0.4428969,-0.14409015,0.38964662,0.15894943,-1.1078255,-0.5767262,-0.14976618,-0.20696348,-1.4240353,-0.71334124,0.13577247,0.33353704,0.100377485,-0.1897852,0.29180056,0.18548115,-0.58640033,0.07410428,0.10429567,-0.9701111,0.5103934,0.20560487,-0.022376288,1.331146,0.16046804,0.32686085,0.4484567,0.15343249,-1.2937628,-0.29026553,-0.30734697,0.39170474,-0.8707316,-0.5429616,-0.72026575,0.33643317,-0.021292374,0.58046633,-0.14682046,-0.1879728,-0.07577876,0.24109079,0.22344989,0.07011999,-0.17346743,-0.15216808,-0.020835571,0.26663697,0.28751215,0.07575659,0.39851618,-1.4667993,-0.07789406,-0.3858921,0.88238406,-0.027047865,-0.033674575,0.0789633,-0.34001505,0.48821685,0.09972976,-1.7609982,-0.57276666,-0.15437008,-0.023689363,0.42776722,-0.042647377,-0.41498575,-0.3124838,-0.29493427,0.31728277,-0.7035736,-0.22595501,0.1535046,0.363091,0.07972923,0.06914213,0.2048757,0.022061922,0.34984165,-0.42616615,-0.99331105,-0.37750506,1.6353651,-0.48730278,-0.42215502,-1.3417209,0.3664229,-0.62383926,-0.27682805,-0.8700014,0.3284448,-0.06863892,0.15781668,0.7428968,0.3114644,0.6562699,0.072465494,-0.5560282,-0.23434162,0.49185807,-0.18651986,-0.4883136,-0.7932471,0.4642672,-0.07194548,0.44010067,-0.06591533,0.25809038,0.12389105,2.2946503,0.021223266,0.17350583,0.21598618,0.047074065,-0.09349932,0.25623038,-0.47850975,-0.063322954,0.21792,-0.0038835546,0.040013425,-0.08662662,0.043295253,0.082095906,-0.10632179,-0.0447481,0.09906206,0.0969141,1.566875,-0.20187972,-0.16935351,0.084773585,-0.2500635,-0.24559054,-0.36655453,0.6240128,-0.21119082,0.23696744,0.57923555,1.39212,2.2760358,0.43256283,0.3157643,-0.38948804,-1.46738,0.19205284,-0.029230323,-0.16389234,-0.16218612,-0.47747222,-1.5544497,0.10030381,-0.037313446,-0.50961065,0.090243235,0.5122779,0.1298385,0.26066408,-0.0026851296,-0.098405644,0.12824252,-0.044514872,0.13814269,0.37924,-0.8431197,-0.012665087,0.015873533,-0.1519864,-0.32898143,-1.2371783,-0.1992627,-0.16814911,0.21821386,0.49572957,0.5603237,-0.7608961,-0.19675954,0.16061303,-0.15571561,0.28214958,-0.18533331,-0.42235708,0.0053450433,0.34001496,-0.28767318,-0.05911339,0.098018914,0.3294336,-0.17037098,2.8083596,-0.019959882,0.62075925,0.07803304,-0.621993,0.08941457,-1.3649582,-0.27727157,-0.20550269,0.6851824,0.6541823,1.9802237,0.13615847,0.25417435,0.07090687,-0.25613332,-0.39813745,0.7663127,-0.33443776,-0.94861996,0.04112128,0.20647405,0.37870428,-0.21820788,0.21840481,0.30616292,-0.16944602,-0.50080603,-0.34795845,-0.17427607,0.23979436,0.7694366,-0.6988415,1.4440224,-0.09251979,-0.28325054,-0.118040204,0.1684041,0.3997606,0.06540362,-0.25807738,-0.15171112,0.627288,0.15064687,-0.35960758,-0.84912056,-0.07292916,-0.57040983,-0.18020163,-0.050713524,-0.11748667,0.35155544,-0.98299044,0.050406642,-0.18846354,-0.28411108,0.42210254,0.17278543,0.27841574,-0.12029107,-0.05394586,-0.12938212,-0.07333197,1.2774525,-1.5333455,0.15178177,1.2491676,0.072194114,0.09605504,-2.2564359,0.76074576,-0.16090456,-0.12127132,-0.2180172,1.4993652,-1.2893918,0.0062522357,0.5378576,-0.28214014,0.7550601,0.06901092,-1.5662503,-0.09579781,-0.4813424,0.5031105,0.01238328,1.5876101,0.17628711,-0.5003779,1.3813748,0.09144826,-0.59075,-0.658785,-0.11111225,-0.14586595,-0.37607133,2.6572306,0.32443252,-0.17426883,-0.47789776,0.11737548,0.40058106,-0.02901806,-0.31912315,2.0175297,0.90104455,-0.51197606,-0.9103225,-0.13918428,0.21722808,0.024882909,0.49667722,0.16673604,-0.120705426,-0.28680643,0.42153865,-0.18699864,-0.25910896,0.28579837,-0.13951808,-0.24939403,-1.3742912,-0.09750046,-0.19477922,0.30933166,-0.19432844,-2.589562,0.38180315,-0.07591715,1.6118137,0.35911584,-0.3795544,-0.44499147,0.12088181,0.30063283,-0.011859151,-0.015400112,-0.41204828,-0.19812803,-1.2557844,-0.1774202,0.0784194,-0.39026996,0.106151834,0.50869983,0.41346285,0.48123688,-0.4915717,-0.19369915,0.04378556,0.44023418,-0.41617852,2.2001083,-0.19060446,-0.05407281,-0.10123377,0.31218985,0.37873632,0.21176602,-0.27675796,0.26371086,0.012861894,0.50093496,0.8100637,-0.24967813,-0.10774328,0.29459715,-0.00043089408,-0.33413762,-0.25397465,-0.5459436,0.05696504,0.7508541,0.45246473,0.1593464,-0.16118507,-0.15256388,-0.28054637,-0.46519086,0.6648432,-0.0056940587,0.17658222,-0.00899311,0.19910234,0.15471041,-1.0679307,0.3275341,0.6132928,2.1812546,0.100642726,-0.10442226,-0.15383561,0.11631373,-0.042659186,-0.30864698,0.95252836,0.0743369,0.051570997,0.21292229,0.252664,0.4424374,0.13656002,-0.32134053,-0.14406118,-0.3723897,0.16406852,-1.6864232,0.30722293,-0.111615606,-0.37021327,0.036030065,-1.1840359,0.47580323,-0.24023128,-0.29943,0.107804626,0.06714994,-0.06775898,1.6716309,0.42954803,2.0561268,0.20967653,-0.043546535,0.3989016,-1.3252771,0.6186841,-0.7164439,0.35996127,0.28012347,-0.35140258,-0.7335807,0.016581694,0.26180953,0.17871694,0.18342072,-0.3510877,0.24759115,-0.67992723,0.816626,-0.1660504,1.0275497,0.5286342,0.23787855,0.44020978,1.61111,0.066695765,-0.22254889,0.05401679,1.8741064,-0.13832004,-0.36736965,0.026252374,-0.1004245,0.93551457,0.49820024,-0.22321638,0.15985265,-0.14463925,-0.24776426,0.06773816,1.6959449,0.14185494,0.152023,-0.064865224,0.4975707,1.911354,-0.019434819,-1.1304635,-0.7423384,0.3220122,-0.49832818,0.073846325,-0.042530958,-0.10772023,-0.29701748,0.95015115,0.107460715,0.36314082,-0.651841,0.009445926,-0.20566839,0.1882559,0.030223466,1.1184738,-0.104301006,0.38062736,-0.24092495,-0.08372297,-1.9470575,-0.26370612,-0.23569089,-0.24605845,0.18683513,-0.353756,-0.11150431,0.18984206,-0.13740593,0.2256705,0.0024288818,-0.35163686,0.6233922,-0.13242859,0.23003338,0.4371276,-0.14051044,-0.24810016,0.096243024,0.30210444,0.07762822,-0.028848425,-0.098945975,-2.1065094,-0.06414682,0.06478664,0.40731162,-0.27392048,0.3512297,1.0921177,0.032330874,-0.42791986,0.8589639,-0.25925535,2.0461729,-0.11465067,-0.8178712,0.040828478,0.19134343,-0.50982404,0.9194696,12.439697,-0.026447423,1.5260708,0.6258408,0.2438412,0.16014624,-1.5389434,0.01713543,-0.100765415,-0.111755505,0.08358963,0.048554555,-0.038735606,0.5153084,0.37734666,-0.11554511,-0.20084947,0.37225625,-0.28620976,-0.017419843,-0.2830722,0.05788163,0.78429025,-0.6247184,-0.19270109,-0.33856195,-0.1717201,0.17447391,-0.37496513,0.40119606,0.11821772,0.2634913,-0.17320617,-0.20729595,-0.20588036,1.5797303,-0.029772053,-0.38919035,0.16658866,-2.037115,0.32079244,-1.4769328,0.4557708,0.42360708,0.43191355,0.31514347,-0.72910553,0.1732039,0.4272158,0.16956487,-0.05852644,0.65211546,0.1871759,0.15408798,0.22061315,-0.16007754,-1.2297616,-0.15922228,-1.0016408,0.08052435,-0.14619578,0.2456133,-0.020023555,-1.9812303,-0.35374022,0.3009166,0.025980212,0.36052346,-0.18911451,0.1889723,2.0700414,1.589193,0.112699926,-0.15138832,-0.93600833,-0.2319425,-0.30897576,-0.26291832,0.2714812,-0.22322938,0.2366212,0.05499848,0.15051493,-0.2701264,-0.057865188,-0.008566696,0.6398611,0.43612117,1.3542135,0.111783296,-0.031352118,0.37056264,-1.3655124,-0.12773369,0.2695765,0.08252684,-1.7180631,-0.1964849,-0.11065627,0.45011842,-0.13000424,-0.5105767,0.123797,0.35564685,-0.67454576,-1.2682335,0.54554045,-0.11884664,0.3847008,-0.011641633,-0.3656309,-0.34618554,0.78391814,-0.17763436,2.0941722,-0.2242399,-0.2402097,0.19298312,0.7536619,0.005359553,0.14792094,1.4110558,-0.318299,-0.34084404,-0.18006937,0.2470163,0.35097498,0.5396278,0.5611949,0.6469973,0.068378896,-0.04053387,0.34405798,2.1550045,0.12053995,-0.12777974,-1.1131477,-0.04730764,-0.09351432,-0.58230704,0.19288763,-0.23804939,0.2034201,-0.3790206,-1.446865,0.11794506,0.28391093,-0.05556257,-0.0057849362,0.033906795,0.028339628,0.049394745,0.5131149,0.100725986,-0.02336253,-0.029085163,-0.33875722,1.3940598,0.71923923,-1.0004287,0.691239,-1.9008875,0.9260926,-0.32296434,-0.13173182,-0.110807166,0.17454703,-0.07752978,0.38878825,-0.7090453,0.026464125,0.049422827,-0.27673647,1.2119473,-0.046040878,0.0694613,0.7233738,-0.11450085,-0.5825932,0.5548275
com.main.org.springframework.samples.petclinic.owner.PetType;-1;-0.01461856,-0.1575919,-0.34347337,0.08069864,0.17214008,-0.44976312,0.32208234,-0.2241273,0.011429405,-0.836886,0.34869844,0.40889063,-0.008612581,0.043126117,0.4925776,0.19942687,-0.67260593,-0.23973991,0.2016315,-0.34805495,-0.1777387,-0.025623444,0.16624245,0.23543142,0.38976076,0.03294121,0.11754289,0.47344404,0.34893006,1.102313,-0.27104744,-0.17174755,2.3559616,0.041835483,0.30581772,0.27568883,0.24545847,-0.24336843,0.39113483,-0.009785293,-0.21205321,-0.08581867,-1.0103698,0.009383027,0.3405832,-0.26873645,-0.042054277,0.67525256,0.070590675,0.19680664,-0.10945456,-0.40377882,-0.47324085,-0.00011541562,-0.2273747,0.72193235,-0.7652004,0.33132407,0.2615502,-0.2431962,-0.0920511,-0.12032302,0.30125812,-0.07705264,1.7687862,-0.52388555,0.8235452,1.9021674,0.38747913,-0.37173727,0.10048324,0.4673404,0.07741278,-0.92580485,-0.6053543,-0.38530973,-0.15838355,-1.094627,-0.79066634,0.022941569,0.2891872,0.07793755,-0.09348032,0.3428426,0.23680088,-0.66881895,0.07469293,0.01804548,-0.8538899,0.57778984,0.33311397,-0.036413703,1.5339259,0.012991251,0.20038848,0.614811,0.13720831,-1.1792687,-0.38072127,-0.19336614,0.39821064,-1.1167959,-0.52707547,-1.0998623,0.44440973,0.047047656,0.5652458,-0.08217755,-0.23240767,0.011585525,0.021373115,0.060064342,-0.002469184,-0.30812627,-0.002543734,0.17726487,0.2623388,0.17292558,-0.13892382,0.3667054,-1.3791187,-0.17564005,-0.3830879,0.925208,0.06954164,0.123064205,-0.114865,-0.4649534,0.75443614,0.10990548,-1.7042397,-0.25583276,-0.2583319,-0.22609796,0.330823,0.15676959,-0.5755258,-0.34246638,-0.2355916,0.1696289,-0.66382885,-0.34594482,0.18425249,0.2966998,0.30055535,0.10319649,-0.02374129,0.10001702,0.15728483,-0.42440668,-0.770671,-0.1743787,1.5666931,-0.6527219,-0.29582173,-0.998112,0.39237237,-0.7596606,-0.4390899,-0.8809714,0.1877065,-0.07460109,-0.1661322,0.70705867,0.320511,0.48659974,0.0661737,-0.45730105,0.098164186,0.47870773,-0.08273374,-0.13002525,-0.7436132,0.3649647,0.011338832,0.21667384,0.012017093,0.26257673,-0.17053322,2.5204837,-0.15732151,0.3065989,0.34762666,0.36378554,0.2195372,0.2584375,-0.5528319,0.08448391,0.27351722,-0.070526585,0.24817652,-0.27792343,0.073515974,-0.0810062,-0.23532183,-0.07273873,0.32618907,0.29911244,1.762666,-0.38477287,0.14715855,0.1716439,-0.35407075,-0.29943833,-0.3631077,0.74951524,-0.2759861,0.1694712,0.62599254,1.4184458,2.218883,0.5879551,0.22669065,-0.2079404,-1.4928434,0.12056967,-0.2168977,-0.10880394,-0.0993075,-0.40599948,-1.833801,0.13166559,-0.21726394,-0.6640995,0.07628577,0.6315291,0.11501875,0.35422695,0.2010111,-0.0038750707,-0.04316636,-0.04669181,0.10064111,0.13384163,-0.93960685,0.094181724,0.05566222,-0.37812182,-0.49935013,-1.044581,-0.25430995,-0.50813496,0.32256612,0.7474336,0.5909136,-0.7166357,-0.15049897,0.11058076,-0.22529665,0.19324881,-0.27964282,-0.24561432,0.04191343,0.13259378,-0.16387856,0.239157,0.080418475,-0.0055677085,-0.21216221,2.7150214,-0.17746964,0.6745774,-0.1296168,-0.46487808,0.08622185,-1.2826006,-0.4004545,-0.14389226,0.82696384,0.6851696,1.6735063,0.19337384,0.27052814,-0.008630674,-0.46729797,-0.4622001,1.0316079,-0.517829,-0.8538685,-0.020925276,0.2583869,0.2652855,-0.23730333,0.06253582,0.23527017,0.10335943,-0.46607274,-0.37405416,-0.10334073,0.35899016,0.46881545,-0.6070418,1.3419868,-0.009343255,-0.20793098,-0.2277698,0.372385,0.4936133,-0.028457245,-0.13147508,-0.06578082,0.71158916,0.3420119,-0.58923227,-0.8703998,0.017508665,-0.4911217,-0.45552704,-0.21948342,-0.21786253,0.41882306,-1.0537093,0.17908087,-0.12745972,-0.29728383,0.2863239,0.24045052,0.21670349,0.13131344,-0.1804433,0.007646867,-0.14564484,1.1410068,-1.390259,-0.05337596,1.0559852,0.3325899,0.183015,-2.0757773,0.8169937,-0.071750365,0.001434285,-0.35198593,1.4362468,-1.3978904,-0.020209584,0.5650532,-0.3264877,0.7215978,-0.11072177,-1.7078326,-0.12701783,-0.7186375,0.6413131,-0.11981242,1.4177061,0.124042965,-0.4761101,1.3120682,0.29147005,-0.814638,-0.7225507,-0.022228526,-0.24997976,-0.53358036,2.815408,0.1277235,-0.25966403,-0.6516531,-0.29339463,0.4320874,-0.023827435,-0.31041768,1.7711616,0.75997245,-0.52064836,-0.8243828,-0.33892697,0.3053792,-0.08092719,0.42634624,0.29526934,0.008179232,-0.29871228,0.4342007,-0.2730718,-0.32693604,0.43866986,-0.4831996,-0.27499783,-1.1893255,-0.336212,-0.21265265,0.368561,-0.60262454,-2.5039864,0.2964068,-0.15399718,1.6009631,0.68597716,-0.33690175,-0.6177603,0.17374584,0.17490354,0.097767465,-0.13248712,-0.36414227,-0.3235046,-1.3197775,-0.26278305,0.12272185,-0.48337376,0.1533099,0.40402263,0.30845934,0.7047235,-0.29755357,-0.1705644,0.11611076,0.2863148,-0.5340974,2.038311,0.08765515,-0.006937331,0.17415668,0.33276516,0.1112199,0.3905144,-0.2622856,0.17722407,-0.2896287,0.25533828,0.87634355,-0.43445274,-0.3293518,0.33663455,-0.108987264,-0.34435424,-0.18411644,-0.3627293,0.0672098,0.8590274,0.3368521,0.24166578,0.019266548,0.10204806,-0.11551029,-0.3462456,0.41193676,-0.08753242,0.25110364,-0.0008808527,-0.26838621,0.003189777,-1.2619163,0.43628997,0.689953,2.2309859,-0.28606552,0.2694398,-0.10715229,0.07871916,-0.2295899,-0.17502625,0.61697847,0.2868296,-0.2908382,0.1586541,0.42167708,0.36749816,0.2069443,-0.5293122,-0.34500724,-0.43279558,0.16842857,-1.6938003,0.42153424,-0.08962155,-0.16442856,0.010491204,-0.9587205,0.5384724,0.03972836,-0.2738748,0.31075287,0.17690201,-0.1470919,1.6124369,0.7019542,2.068204,0.40857396,0.004624785,0.55462784,-1.3971622,0.49461105,-0.85583717,0.6013446,0.30638838,-0.6061393,-0.7422193,0.09110407,0.4363007,0.21540138,0.05685699,-0.331107,0.33590338,-0.6125705,1.0872998,0.077432394,0.9713021,0.4540895,0.2377871,0.4992546,1.3448926,0.24255505,-0.1130905,-0.027875967,1.8758152,0.20354274,-0.22778694,0.21624808,-0.09948506,1.1338292,0.42442998,-0.18139085,0.2094194,-0.26499543,-0.22017461,0.21335469,1.6747689,0.09942526,0.14045155,0.08574566,0.49609435,1.6405705,-0.1568722,-1.3439343,-0.5985208,0.41402173,-0.6216846,0.13036336,0.028678147,-0.18906267,-0.32846895,0.9307712,0.14221765,0.6126613,-0.6710414,0.25875372,-0.36184523,0.45952967,0.23275742,1.1219676,0.091375716,0.3925945,-0.058455076,-0.061025374,-1.8667046,-0.31960478,-0.2668009,-0.49420294,0.055177644,-0.271797,-0.17293178,-0.019081952,0.022324905,0.20672902,0.41239068,-0.09257911,0.5246715,-0.08146323,0.06826925,0.53322166,-0.13056792,-0.36841252,0.092443265,0.32617494,0.15572706,-0.104183875,0.014327362,-2.1443985,-0.14273645,0.12180091,0.47267467,-0.2260568,0.2306684,1.0808563,0.06482009,-0.3044962,0.74929154,-0.6378713,2.1554937,-0.15482269,-0.7094209,0.1525757,0.053425785,-1.0739572,0.8534588,13.32544,0.017314287,1.2237349,0.95950997,0.17314349,0.26010337,-1.4367652,-0.01951478,-0.12208588,-0.10214267,0.01728987,0.27711153,0.20857458,0.58600074,0.15455903,0.02751379,-0.16015042,0.54176545,-0.10438248,-0.09607079,-0.46527037,0.2302797,0.7093708,-0.7211343,-0.28917477,-0.06295698,-0.23071946,0.01647752,-0.3219132,0.20136884,0.33764103,0.34643987,-0.41854113,0.0009652763,-0.12322156,1.4682837,-0.13654447,-0.29460883,0.36781576,-2.0723076,0.4109216,-1.6104534,0.1980123,0.46176043,0.45759782,0.35528758,-0.7596596,0.15417914,0.5844603,0.2722878,-0.16988076,0.66219723,0.34143546,0.3604714,0.3302159,-0.516333,-1.0277598,-0.15918927,-1.2541538,-0.004006357,-0.15149802,0.042827073,0.06565444,-1.9098381,-0.5002333,0.36689138,0.19016391,-0.03142013,-0.23324579,0.2160744,2.1781368,1.2736567,0.032569334,-0.14112744,-0.76440334,-0.51900506,-0.022641344,-0.07024331,0.18102762,0.0840387,0.10693689,-0.17380917,0.5663832,-0.18393043,0.07374445,-0.07205458,0.4326608,0.54046667,0.9962149,0.12270284,-0.38794202,0.32851878,-1.3916945,-0.645801,0.32635838,0.32461023,-1.6486747,-0.14655973,-0.37797123,0.53444344,0.16113816,-0.527893,0.21738954,0.37211362,-0.6642164,-1.4073758,0.4061367,0.111189276,0.13149443,-0.09020323,-0.35409608,-0.11175066,0.7543435,-0.3799998,2.1948054,-0.089945994,-0.14524226,-0.09852557,0.6537263,-0.084638864,0.18323137,1.5865443,-0.32299265,-0.46837443,-0.37211627,0.23295066,0.409015,0.453042,0.8686562,0.6970872,0.094113745,0.09976581,0.27952266,1.6259419,0.082783245,-0.19125897,-0.9668111,-0.082264006,-0.06781811,-0.66733825,0.23462269,-0.24792151,0.27282387,-0.41949514,-1.2925181,0.31647816,-0.009746925,-0.08360038,0.06422164,0.3543132,0.13683131,0.04463758,0.65971506,0.07670804,-0.051319674,-0.15366206,-0.67439854,1.1856079,0.63471425,-0.8052758,0.6604594,-1.7843561,1.0311446,-0.33085406,-0.13649249,-0.15843189,0.24554193,-0.08744994,0.27197468,-0.8023333,0.05688362,-0.04100462,-0.23963161,1.2758393,-0.23791458,0.20727247,0.7104268,0.16865276,-0.49899462,0.6006862
com.main.org.springframework.samples.petclinic.owner.PetTypeFormatter;-1;-0.061156,0.031444326,-0.083080836,0.15760209,0.17265484,-0.27669948,0.2529539,-0.07195767,0.18993063,-0.56892306,0.2321656,0.28054425,-0.18358977,-0.020027567,0.47055948,0.028039861,-0.3372608,-0.09573163,0.14946072,-0.23249687,-0.12429099,-0.1172024,0.30121568,0.10572305,0.3249823,0.07719712,0.34076926,0.5179634,0.25818163,0.8626861,-0.18650174,-0.15299395,2.1335852,-0.14826933,0.1813865,0.007192038,0.059918173,-0.116740875,0.33249226,-0.040549576,-0.37405908,0.06952216,-1.1846915,0.019369632,0.3353969,-0.2066347,-0.013800234,0.47352672,0.07032242,0.22847697,-0.023595467,-0.11691421,-0.6208801,-0.02536249,-0.114852965,0.50759333,-0.8502758,0.15703087,0.053310685,-0.18034303,-0.30166316,-0.17332467,0.11417537,-0.21782598,1.7209923,-0.24994247,0.6348133,1.5695041,0.20534526,-0.3118761,-0.07839601,0.26842412,0.08561215,-0.8247099,-0.58946764,-0.15830506,-0.16081637,-0.9000573,-0.57238615,0.17818889,0.4797802,0.10473369,0.062040016,0.34390068,0.16971733,-0.44630432,0.03499622,0.124414995,-0.8197903,0.5040279,0.30372015,0.08374101,1.1980588,0.088818476,0.18079768,0.5066635,0.09538916,-1.1544569,-0.20905288,-0.21230471,0.22878142,-0.83681166,-0.39161915,-0.72859055,0.3119978,-0.038273055,0.53027856,-0.08352147,-0.13335907,-0.06475915,0.15134272,0.13972607,0.027692039,-0.1795753,0.00032339618,-0.025116697,0.28729624,0.14848945,-0.092264816,0.24510661,-1.2940199,-0.120097846,-0.4262945,0.8525362,-0.0600913,0.110943675,-0.11013632,-0.2959095,0.4873234,0.16159655,-1.5131805,-0.55712414,-0.21324463,0.03754343,0.4448255,-0.072675355,-0.36866292,-0.1977778,-0.31032187,0.25840396,-0.65178365,-0.26284844,0.16589996,0.18689975,0.265009,0.06683335,0.1631073,0.08692251,0.24208671,-0.43337137,-0.71817493,-0.15909493,1.4507003,-0.49290746,-0.2673174,-1.0473194,0.37605444,-0.55929446,-0.27519518,-0.87728477,0.3355435,-0.08485884,0.0746983,0.70375013,0.3280756,0.5241046,-0.040282536,-0.4335827,0.03825087,0.40085134,-0.1338515,-0.33252835,-0.7545855,0.3372406,0.014077602,0.24685523,-0.02880767,0.15625449,-0.052915584,2.0680852,-0.0010620281,0.12822126,0.19368993,0.005911231,0.03750221,0.15529297,-0.46425718,-0.051970758,0.1588959,-0.00793549,0.05182223,-0.13320228,-0.0029347555,0.004233733,-0.03505729,0.010605741,0.130271,0.18836117,1.4946088,-0.22188841,-0.047499858,0.22389007,-0.21765915,-0.17634796,-0.2925109,0.60480374,-0.2589066,0.25634244,0.5182515,1.2523539,2.1479685,0.40084016,0.21657783,-0.32194164,-1.3182766,0.18290755,-0.08929064,-0.14055164,-0.16052423,-0.36261433,-1.5556786,0.14464499,-0.08786653,-0.6015803,0.024904113,0.41087887,0.18216261,0.17504737,-0.02221965,-0.07778533,0.08961315,-0.12710239,0.028133485,0.26142538,-0.72135293,-0.021425419,0.019166462,-0.12447666,-0.35672057,-1.145328,-0.10112937,-0.17696427,0.3491992,0.66286516,0.4704266,-0.60732096,-0.14986597,0.08376381,-0.20454732,0.20062762,-0.19021614,-0.21933949,-0.014522502,0.18293582,-0.25769657,-0.025970742,0.062846564,0.15699284,0.0018668622,2.6200323,-0.104195625,0.53147066,0.029020019,-0.59684634,0.08292253,-1.2544249,-0.2628619,-0.09998015,0.6524928,0.6119932,1.6647773,0.15873383,0.17563316,0.18192428,-0.29528725,-0.3171836,0.710683,-0.30626115,-0.84262514,-0.025168095,0.055390462,0.25789654,-0.13673182,0.1545591,0.14476547,-0.10506541,-0.38644493,-0.26986557,-0.07276758,0.25615537,0.57649755,-0.61953145,1.3516564,0.048358776,-0.26061362,-0.056136638,0.2403093,0.41286945,0.106295854,-0.29491132,-0.19944827,0.56295234,0.14131378,-0.3378341,-0.71992934,-0.098628685,-0.5155585,-0.11971362,0.04267422,-0.16923597,0.36128497,-0.9039041,-0.055896692,-0.0981377,-0.2679257,0.24228317,0.123758495,0.17093745,-0.12115358,-0.08801718,-0.030658472,-0.16737433,1.074303,-1.3887019,0.08230102,1.0657222,0.10696434,-0.03943572,-1.9768921,0.8322817,-0.37265837,-0.10206693,-0.22448233,1.2682855,-1.2397568,-0.07108199,0.57329345,-0.26901907,0.6815938,-0.04844441,-1.501409,-0.039443344,-0.5110193,0.43896845,-0.0025738552,1.3228939,0.083733305,-0.44093543,1.2745457,0.1531868,-0.66412854,-0.58243185,-0.111366436,-0.21447033,-0.35635978,2.542706,0.24563451,-0.27204028,-0.39023447,-0.12531167,0.4034074,-0.0052690823,-0.18156902,1.7896224,0.8861995,-0.41795284,-0.7685245,-0.21471941,0.17480017,0.0066737053,0.37362683,0.19060227,-0.063294165,-0.1822443,0.3821344,-0.25294307,-0.19817534,0.26131493,-0.22687621,-0.2221188,-1.1149753,-0.12329661,-0.08965704,0.26735333,-0.22711608,-2.4178638,0.33196557,-0.07819167,1.4671568,0.343308,-0.25302184,-0.3962357,0.029969908,0.13706213,-0.046376042,-0.041501645,-0.32598707,-0.14946589,-1.1417725,-0.22490084,0.016195707,-0.31920108,0.04333943,0.35651422,0.2679196,0.4977468,-0.4237075,-0.24734122,-0.011237536,0.41933793,-0.413557,1.9513168,-0.1310405,0.04536029,0.016887922,0.25438428,0.30500108,0.13616107,-0.1459468,0.17239484,-0.04743008,0.32308424,0.7049763,-0.30898702,-0.15178382,0.25489917,-0.021907216,-0.32943898,-0.25617838,-0.41271782,0.010148099,0.72808707,0.256286,0.14981885,-0.15483746,-0.14761536,-0.24801202,-0.35312462,0.56482756,-0.028945042,0.21808827,0.02160022,0.067744866,0.15120193,-0.92322385,0.2652109,0.5478221,1.987083,-0.018718764,-0.0035674572,-0.12860721,0.07334672,-0.143153,-0.036667123,0.7027762,0.058269374,0.013157412,0.15869656,0.26901639,0.3336007,0.07235761,-0.2960654,-0.08897393,-0.41181856,0.19400762,-1.5775596,0.44241923,-0.20532319,-0.26526237,0.15305446,-1.0337267,0.45177406,-0.2206244,-0.32809457,0.06447608,0.016753934,-0.10863019,1.5434903,0.47112703,1.882688,0.1012814,-0.09074865,0.40828508,-1.1708723,0.50766784,-0.619376,0.3940875,0.23421462,-0.3284145,-0.71119606,-0.0077790543,0.29378456,0.13648658,0.21373832,-0.20559445,0.22808832,-0.44298878,0.7699703,-0.012733091,0.95629525,0.4696844,0.26602802,0.43991667,1.4765935,0.104180396,-0.123486966,0.048100166,1.6108527,-0.012871161,-0.2499314,0.08070465,-0.109868854,0.9578378,0.42951185,-0.12132704,0.15295878,-0.27833092,-0.18836157,0.10686533,1.5920488,0.13008477,0.0074413866,-0.036587894,0.4358508,1.7114187,-0.049970765,-1.0594146,-0.72522664,0.37706727,-0.52104545,-0.013767824,-0.043799795,-0.09825624,-0.26703954,0.8985273,0.02272955,0.32149187,-0.5290659,0.12856622,-0.27513012,0.10842106,-0.032865293,1.1308455,-0.009337682,0.36679205,-0.2724899,-0.09061255,-1.8001791,-0.20374022,-0.2083876,-0.22692315,-0.28385064,-0.29412434,-0.17280796,0.17011267,-0.05757684,0.13842943,0.08527702,-0.14348115,0.44667232,-0.20976178,0.167007,0.46456996,-0.056877144,-0.2191819,0.19272201,0.22170097,0.042819966,-0.038836658,-0.009938497,-2.0122018,0.0283596,0.13717782,0.30141047,-0.20074289,0.26258737,1.0924809,-0.076176554,-0.20266311,0.6525694,-0.31109804,1.9279332,-0.053738855,-0.6547798,0.048118584,0.1829133,-0.5590656,0.84306777,13.300415,-0.0568247,1.4082063,0.7112105,0.21759823,0.04228902,-1.3548305,-0.059949808,-0.08835122,-0.07271887,0.08453514,0.102342,0.036273263,0.3860783,0.35075453,-0.15512331,-0.24241856,0.31773517,-0.11562774,-0.036871362,-0.27604687,0.13342327,0.66401273,-0.68916196,-0.13318057,-0.2004615,-0.051549993,0.16777572,-0.29360035,0.19440487,0.17782831,0.301076,-0.27763337,-0.26150134,-0.1608367,1.5017103,-0.049833547,-0.26680642,0.19246301,-1.8859608,0.29442134,-1.2977504,0.4612779,0.3701481,0.38684064,0.2694525,-0.6960547,0.24705511,0.3195339,0.11433641,-0.050569866,0.7157128,0.2112194,0.14539573,0.15526003,-0.3066793,-1.0090349,-0.13388869,-0.97977555,-0.0039428435,-0.14408125,0.17270368,0.09151319,-1.7666756,-0.3289517,0.27665985,0.015082426,0.11659145,-0.17945632,0.22961433,2.0600255,1.3612418,0.036816247,-0.20911428,-0.6715592,-0.30551422,-0.10725379,-0.2357221,0.1823244,-0.09777184,0.15331052,-0.0003003981,0.16103706,-0.25968716,-0.06753744,0.094493374,0.44486246,0.4873669,1.1982365,0.015892053,-0.1416726,0.3051282,-1.2994742,-0.26598155,0.22404353,0.084778145,-1.4427239,-0.13896172,-0.13115956,0.31085047,0.015410522,-0.5176704,0.16701163,0.33462483,-0.65554166,-1.1789765,0.4488778,-0.07034823,0.23141402,0.0147676505,-0.2732153,-0.18500815,0.6647945,-0.18576948,2.0196695,-0.17304616,-0.119243324,0.08588396,0.65853685,0.010039566,0.1533424,1.3325542,-0.34509045,-0.45357877,-0.1983239,0.20820111,0.2471157,0.45944124,0.48512858,0.60204196,-0.011903079,0.016973514,0.37215024,1.9399415,0.07759006,-0.17818156,-0.9674951,-0.08248536,-0.005373966,-0.53566283,0.088789046,-0.22044593,0.20959479,-0.30136138,-1.2918894,0.14490674,0.32258973,-0.030479107,0.008885134,0.11195631,-0.0073964074,0.1583325,0.42615432,0.07398658,-0.0289886,-0.15704545,-0.42622524,1.2816417,0.61954427,-0.8153371,0.6010466,-1.6694622,0.7822125,-0.2425265,-0.046727233,-0.10103321,0.26129195,-0.029682498,0.38909984,-0.6692997,0.10572657,-0.043409746,-0.38435555,1.0965092,-0.05783705,0.09532934,0.6618364,-0.069449514,-0.55420864,0.53245395
