com.rafsan.inventory.controller.admin.AdminController;0;0.52473134,0.6373234,-0.4078196,-0.90955,-0.23723646,-0.28096226,-0.1098094,0.13832791,-0.26075515,0.123596065,-0.46478558,0.83965844,0.36700654,0.20812905,0.7968957,0.11847931,-0.52562124,-0.6157045,0.64027464,-0.5031777,-0.2984868,-0.034498617,-0.029674662,0.79437083,0.21853054,0.36362875,-0.14906542,0.46355352,0.44739297,-0.043766756,-0.5632713,-0.28000808,0.7539825,1.0108391,-0.18041606,-0.20697077,1.1350133,-0.679305,-0.4412991,0.8611419,0.02592886,0.87675756,-0.06143382,0.15753093,-0.21950732,-0.7062529,0.3309624,0.09524534,-0.23689692,0.014335922,-0.14602052,0.26844677,0.3498765,0.23111366,-0.3354183,0.593882,0.6247387,-0.04487826,0.8016122,-0.54482186,-1.1037954,-0.04074188,0.5084166,-0.04973854,0.56983614,-0.7129409,0.21947408,0.7826285,0.14728825,-0.14265409,-0.65713376,0.3414627,-0.4176587,-0.010953575,-0.2909422,-0.1548778,-0.17725734,0.59085643,-0.07103474,0.32820967,0.24392672,0.056177005,1.9371606,0.63498586,-0.5120186,0.19767994,0.18725447,0.28673974,-0.034300644,-0.14401583,0.72745055,0.78869605,-0.22010492,-0.06408685,-0.49746922,0.5740213,-0.5661227,-0.21524076,-0.34069762,0.45146146,-0.021191457,-0.20694558,0.52595574,-0.17917687,-0.68493694,-0.11489808,-0.10039976,-0.5823322,0.082761414,0.6209977,-0.5450047,-0.2538534,0.23528576,0.70692056,-0.2541613,0.0014158314,-0.3350992,0.05670226,0.3285739,-0.7040658,0.4094584,-0.27462915,-0.779903,0.8027818,0.6420367,-0.009880853,0.3887887,0.37895492,1.2603322,-0.3257873,0.066209435,-0.7564685,-0.27961,-0.6360156,0.87556744,0.6426531,0.5171076,0.10180858,-0.16732907,0.10198956,0.29943395,-1.1429962,0.3392832,-0.788951,0.91733676,0.6674743,0.326654,0.19648184,-0.37505618,-0.85581964,-0.051428985,-0.37491584,0.31615004,-0.7086111,0.6309518,1.197574,0.39594063,1.0037633,-0.51913494,-0.10770766,0.25067636,-0.33093274,-0.032997634,-0.10214009,0.21415366,-0.0719387,0.30191448,0.8287054,-0.5637122,-0.40993235,-1.05119,1.0775923,-0.7784235,0.3416688,0.103704214,-0.5689725,-0.42250422,-0.20265348,-0.70056605,0.23920397,0.25060892,0.047271695,0.21619898,0.115573876,-0.48874322,-0.46795404,0.17716469,-0.114942275,0.8213522,-0.43749842,-0.1647251,-0.1128624,-0.15224037,-0.100717895,0.20538743,0.93264717,-0.2129818,0.36782786,0.95305157,0.43347707,-0.112206735,-0.12957676,0.1751265,-0.24545944,-0.7272129,0.60505384,0.12634386,0.0809454,0.7917699,-0.08207353,0.27147532,1.1642823,-0.6102524,-0.027773121,0.12379541,0.1753022,-0.46706858,-1.3457294,-0.05450506,-0.51681083,0.8595629,0.029633246,0.09768033,-0.063458495,-0.7990942,0.5187853,0.7661638,0.53549045,0.44577137,0.41587508,-0.036775768,-0.30408868,0.35704318,0.06732178,-0.68119615,-0.5157966,-0.48838815,0.043224853,0.045485716,1.3605571,0.0475402,-0.043192286,0.1883648,0.51142424,-0.5216914,0.740943,0.07958586,0.2937446,-0.9881647,-0.50270176,0.26687226,-0.5443111,-0.08820867,0.15722598,0.068535045,0.29375708,0.2403798,-0.6056343,0.0914475,0.77859586,0.111697674,0.55132896,0.4802165,-0.32832,-0.24407542,0.23049879,0.13297383,0.43962857,-0.297353,-0.56532264,0.24943773,-0.22165714,0.4482036,-0.41239867,0.37215003,-0.6130181,-0.79780406,0.40987447,0.5265265,-0.29990435,0.037367105,-0.5491834,-0.0811162,0.24153788,0.55297107,-0.53681767,-0.06273254,-0.24656618,1.2311869,-0.34935668,-0.01650854,-0.43101752,0.22680998,0.34383157,-0.74940056,-1.1696116,0.06971666,0.030011602,0.7024632,0.33516276,-0.5990748,0.3908975,-0.0639315,-0.5917421,0.9438291,-0.33149168,-0.4221996,-0.26242226,0.61790663,-0.07955057,-0.0017970031,0.8524792,-0.12027705,0.19213086,0.63803077,-0.31434873,-0.3136799,-0.07194611,0.46545425,1.0213488,-0.9807318,-0.7772656,0.05810922,0.7020661,0.17652005,-0.08599681,0.18077588,-0.47034648,-0.15125526,1.1156243,-0.3408039,0.09313955,0.81342155,1.0424818,0.31825092,-0.4124944,0.981529,0.10284112,1.4002107,-0.85277385,-0.43344355,-0.41812536,-0.8729725,-0.020194152,0.14308043,-0.7397077,0.5184787,-0.026039662,0.3450562,0.21892528,0.45455912,0.08243781,0.8267739,0.37036848,0.20070724,1.7589611,-0.6461086,0.6476181,-0.30250654,-0.31706545,1.0510468,-0.29706344,0.77830166,-0.9147732,-0.71126723,0.14398365,-0.5778838,0.5070848,0.35805675,0.26052564,-0.03219867,0.10001036,0.7168765,0.74846864,0.74331665,0.22256462,0.39535365,-0.28459385,-0.34828207,0.13399339,-0.3575605,-0.29234058,-1.0516063,0.07609539,0.12002974,-0.37961647,-0.58819157,-0.5707855,0.09522418,0.30101871,0.43827856,-1.2195145,0.006220008,0.39021984,-0.15449141,-0.14473352,-0.5583846,-0.5005121,0.40579036,0.106018275,-0.2525272,0.24769504,0.9300051,0.50559527,0.76297665,-0.4858556,0.81947845,-0.21985298,-0.18845318,-0.17780621,0.121507235,0.49546078,0.43911532,1.2068465,0.63999003,0.14365822,-0.17916588,-0.89307404,0.15591386,0.32685304,0.1812947,0.5999499,0.8408969,-0.7829733,1.1531601,0.04021748,0.34016693,0.28159186,-0.3807496,0.13937944,0.34744874,-0.062480256,-0.099888854,-0.40505925,0.17951037,-0.4670308,0.76597095,-0.021327993,0.58007103,-0.20036708,-0.35314813,-0.08365652,0.8934632,0.70746344,-0.073217325,0.032048743,1.2967309,0.04054956,-0.28435266,1.2801229,-0.97237086,-0.7844487,-0.95199686,-0.017428832,-0.95836544,-0.5010125,0.2917345,0.25606087,0.46508428,-1.15515,-0.31033403,-0.13535208,-0.5567729,-0.3409848,0.47704792,0.042223115,-0.13784267,0.070682,-0.46752238,-0.21252425,0.402166,-0.23911893,0.318336,-0.04308376,-0.13657856,0.84774095,-0.6795041,-0.19046712,0.86693525,-0.6690095,0.46957484,0.02046061,-0.14544776,-0.5479793,0.6021147,-1.180903,-0.019136975,-0.012443177,-0.21146525,-0.28206944,-1.2574967,0.6955884,-0.0021423846,0.063958265,-0.59152716,-0.18915711,0.34314725,0.63792676,0.71467346,-0.51194316,-0.008466676,-0.53295076,-0.1006847,0.3958054,0.31082657,0.62944126,0.17355938,0.4976056,0.34920752,-0.19240348,0.91963357,1.2583096,-0.13278526,0.2506729,1.8063279,-0.06297112,-0.14918542,-0.82900405,0.059721578,1.1130089,-0.12619658,0.5310881,-0.23342104,0.18609466,0.5247907,-0.9896757,0.027507307,0.4245024,0.6375316,0.6640696,-0.28484237,-1.0972438,0.31318176,0.39815828,0.70478773,-0.53437775,0.9460938,0.04060882,0.9300296,0.6289801,-0.27777547,-0.5192107,0.757406,-0.1294154,0.4812614,0.37180832,1.427646,-0.4645652,0.31348756,-0.43075088,0.53498,-0.5263029,0.16298622,0.14010687,-0.88779634,0.25990626,0.0991623,-0.5299006,0.265675,0.74308425,-0.2971641,0.00062239665,0.35053405,-0.25254774,0.4621009,0.8195289,-0.3337891,0.5701556,-0.9020266,0.75881,0.3148549,1.1188717,0.18540442,0.3834466,-0.289376,0.3352034,-0.10937791,-0.15324596,0.4993976,-0.008309637,-0.84588736,0.65581965,0.099303566,-0.4114031,0.2786139,-0.16348438,-0.6181581,0.51005536,7.648235,0.082559615,-0.032313585,0.54716647,0.29808703,0.08079434,0.0863447,0.38859832,0.5428968,0.2569782,-0.56169534,1.1374363,-0.6667242,0.5816431,-0.034009293,0.24511194,-0.89990306,0.015634865,-0.41649935,0.3426838,-0.59222794,0.20581406,0.3185704,0.61629957,-0.987861,0.7469409,1.2971803,-0.8502579,0.33551744,0.26446238,-0.56605905,1.7806439,-0.48870113,0.56554896,-1.2037042,-0.7953537,0.5027114,0.45549163,0.61832476,-0.52052647,0.014075481,-0.04354338,0.1476804,0.3123912,-0.8284572,-1.0631694,-0.26450282,-0.42960128,0.07201434,-0.18817227,-0.3746898,0.041694548,0.634438,-0.5967936,0.6893936,-0.5453577,0.44790724,-0.8896294,-0.5603048,-0.7310602,-0.20927255,0.29105476,0.2879692,0.44026685,-1.3198318,-0.4761577,0.087583244,-0.2701704,-0.9229383,-0.3116129,0.15268193,-0.21396752,0.1906936,-0.074062504,-0.54254144,-0.6828804,0.24693531,0.085061975,-0.047953475,0.31982297,0.5981665,0.39652857,-1.3919469,-0.2994751,0.31250414,0.37435114,-0.3143236,0.036755737,0.9742829,0.31939128,0.46816793,0.015391317,0.3372812,0.01217436,0.4598824,-0.109951414,-1.1179596,-0.17055827,-0.07773157,-0.88350534,-0.8682005,-0.13514544,0.034870896,0.06834067,0.64973277,-0.3819972,0.85472137,0.07677841,0.4873886,0.20146185,0.29554343,-0.3102486,0.5906955,0.2812712,0.5538872,0.41284156,0.38920584,0.3456861,-0.5782729,0.094064675,0.15270591,0.51385707,-0.78501934,-0.21314614,-0.6838102,-0.17343622,-0.08905787,-0.04674874,0.25714144,0.07196858,0.6109671,0.55879843,0.21626312,0.28385884,-0.21619545,0.25574163,-0.56073636,0.5860592,-0.5148621,-0.74656266,-0.036527667,-0.9115321,-0.007284785,0.5940203,-1.0291255,-0.8695565,0.68859893,-0.8899183,0.46554947,-0.15773056,0.38374963,1.6254033,-0.69836205,-0.9807537,0.4096526,-0.29774657,0.40124103,-0.12552272,-0.0062983558,-0.4851749,0.19237693,-0.883046,0.13161974,0.27243254,-0.14341657,0.008278553,0.39751092,-0.70058656,0.38242123,0.11445556,0.10049675,0.45211902,0.06953691,0.2833327,-0.19701558,0.60866696,-0.5815466,-0.67222303,-0.12052836,-0.7804718
com.rafsan.inventory.controller.category.AddController;0;0.5193053,0.5313634,-0.08943862,-0.8218508,-0.53507,-0.24221396,-0.21312355,0.15320401,-0.15932928,0.028921498,-0.41217256,0.7722521,0.2600651,0.38375703,0.63625103,-0.20734815,-0.5586837,-0.59342265,0.38559565,-0.44103643,-0.23723185,-0.27201235,-0.25376388,0.5591821,0.2477771,0.30582228,-0.0063835233,0.39870968,0.5261832,0.033829737,-0.6898587,-0.1610615,1.077471,0.5501246,-0.11793635,0.026329622,0.9781282,-0.6301044,-0.2809033,0.9049606,-0.17814691,0.6268348,-0.25165105,0.2019685,-0.035799403,-0.7195204,0.12641172,-0.013443728,-0.043427914,0.27264816,-0.0028133467,0.18813966,0.4534031,0.12425586,-0.30160975,0.6238311,0.26183012,0.013873256,0.6761079,-0.46751127,-0.87621355,-0.3209354,0.25596157,-0.51866347,0.67353016,-0.41275072,0.40915874,0.7935874,0.3233331,0.01253137,-0.31591943,0.23988599,-0.42050448,-0.12187803,-0.44264758,-0.102452636,-0.3696191,0.40868425,-0.29247066,0.5326885,0.16144557,-0.10288816,2.1057074,0.5824372,-0.4688839,0.6093471,-0.00080702204,0.27298623,-0.055503685,-0.0735453,0.8737612,0.60097396,-0.038015544,-0.15296881,-0.591806,0.6174791,-0.57116467,-0.07854966,-0.3445464,0.34517515,-0.1887934,-0.20026235,0.33464244,-0.23105717,-0.5610109,-0.069446884,0.15586567,-0.56078035,0.4064419,0.6324776,-0.52453023,0.05668513,0.33316812,0.47240296,-0.19600181,-0.09183032,-0.34142944,-0.008816798,0.29943815,-0.58881277,0.16056821,-0.34740797,-0.7341756,0.91669655,0.8565385,0.17967786,0.50603,0.5126923,1.0970293,-0.31815195,0.03635256,-0.7941036,-0.2654327,-0.54793674,0.74983484,0.8690157,0.2916287,0.13739999,-0.11324956,0.20941508,0.21330388,-1.0399022,0.39308834,-0.61498755,1.0181549,0.4971948,0.34980556,0.2914509,-0.281902,-0.86742955,-0.3524064,-0.36171988,0.35300407,-0.600529,0.4727026,1.188519,0.52736527,0.9784166,-0.56543726,-0.13627744,0.45975113,-0.52841836,-0.14517958,0.1342787,0.47679862,-0.17971033,0.24323006,0.6165492,-0.64611965,-0.46794102,-1.067474,0.71178156,-0.5869646,0.36005268,-0.19507356,-0.33193937,-0.673862,-0.32338497,-0.47757754,0.3034687,0.40322495,0.040002245,0.11987483,0.10831543,-0.6421602,-0.5592682,0.09563542,-0.15960796,0.6363053,-0.5617541,-0.11116701,-0.08740052,-0.01036039,-0.21970856,0.2862906,1.1114564,-0.25581434,0.25944373,0.9151392,0.40299907,-0.33248997,0.0048175403,0.24239433,-0.21002136,-0.41954604,0.56276697,0.03076165,-0.14004938,0.70240086,0.07137698,0.5518898,0.9313329,-0.44874582,-0.099072374,0.31388947,0.29801634,-0.5071953,-1.2620713,-0.34540498,-0.47008172,0.63090664,-0.17764676,0.11586687,-0.41774932,-0.55184245,0.5140663,0.67747974,0.35225618,0.26727822,0.37844142,0.0026304375,-0.3441497,0.35848507,-0.060153212,-0.71534014,-0.26152003,-0.5766781,-0.26857308,-0.17564751,0.69641596,0.053851232,-0.058216915,0.24936207,0.080178104,-0.40541604,0.62216,0.3013716,0.1318718,-0.84155375,-0.4057524,0.23855244,-0.5873465,-0.041543137,0.17573808,0.048004944,0.071138375,0.348729,-0.54675025,0.07540706,1.144476,0.00036668777,0.54524666,0.24878442,-0.49944553,-0.17428313,-0.1379054,0.22685544,0.49502966,-0.049238145,-0.3673078,0.5291341,-0.47500274,0.32500055,-0.47104803,0.35961723,-0.46522346,-0.829979,0.23196281,0.2995757,-0.35881233,0.15422292,-0.41714892,0.07874482,0.1617187,0.5279655,-0.6269321,0.16174416,-0.0037611723,1.152311,-0.31609023,-0.01772423,-0.2940692,0.24755329,0.30707383,-0.7794128,-1.3513948,-0.18217017,-0.12838818,0.5924542,0.25881568,-0.6952887,0.3127799,-0.03866669,-0.4453794,0.68708926,-0.39361915,-0.4772987,-0.016576156,0.5280554,-0.007245938,0.113228686,0.6195925,-0.057023544,0.17716849,0.36479488,-0.36026248,-0.2979424,-0.37471798,0.3189046,0.96369267,-0.758125,-0.790826,0.10948894,0.30020797,0.15387113,-0.086168565,0.08550918,-0.30794418,-0.30247387,1.1388702,-0.3701135,-0.06209679,0.52648133,0.68586534,0.39292863,-0.7276521,0.96688795,0.017911,1.2755027,-0.73012924,-0.45657697,-0.21680796,-0.6886215,-0.1000731,0.10518231,-0.20125733,0.390512,-0.05132341,0.3947976,-0.0273278,0.14346063,0.24719489,0.7494745,0.39908698,0.08902923,1.5897328,-0.43280366,0.59576035,-0.3328373,-0.61784506,0.86334294,-0.6023838,0.6238499,-0.65381783,-0.6187046,0.010154172,-0.6937334,0.2376343,0.34279737,0.17509024,-0.08697062,0.027099857,0.7607026,0.71900344,0.6790711,-0.15309538,0.28246182,-0.18575478,-0.006382048,0.13012676,-0.56894284,0.11177969,-0.8112677,0.134937,0.07087939,-0.81943965,-0.4051331,-0.3744868,0.30428,0.17492819,0.37068987,-1.0778875,0.047766462,0.13820362,-0.29319492,-0.10799149,-0.47200528,-0.6398371,0.17776394,0.21985002,-0.26082733,0.25379583,0.7963521,0.38676095,1.1124129,-0.24846475,0.6104429,-0.37628317,-0.1099504,0.07218967,0.073991746,0.5169373,0.2518651,1.344462,0.42117992,0.23566897,-0.07085679,-0.97376585,0.11041557,0.2165256,0.15853566,0.6341538,0.80332524,-0.60154986,0.9038262,-0.0011260709,0.18331577,0.06898487,-0.31115994,-0.11537134,0.37550533,-0.4029783,0.05323425,-0.3363018,0.2024977,-0.57401025,0.681206,-0.11836108,0.46911588,-0.36711374,-0.37382308,0.03456363,0.8132648,0.6027264,0.13078906,0.02496471,1.084394,0.18596618,-0.2559475,0.9831786,-0.7529796,-0.73832655,-0.7088186,0.19786625,-0.7095259,-0.41488442,0.43552157,0.38964906,0.80748874,-1.0587062,-0.28191575,0.24230899,-0.35654226,-0.2589227,0.3686473,-0.0025461316,-0.04327778,-0.10409496,-0.42379954,-0.34493586,0.41477397,-0.084932685,0.33197847,0.11165442,-0.28879723,0.46711478,-0.5175403,0.030367607,0.61680055,-0.26551864,0.41430187,-0.16027868,-0.03486413,-0.46776605,0.49167657,-0.9549357,-0.06680132,-0.30671608,-0.10854099,-0.28673044,-1.092714,0.53223246,0.12987895,0.06161636,-0.52183247,-0.25015584,0.24554141,0.91655827,0.67746836,-0.18104674,0.20017098,-0.5749189,0.09995792,0.5449622,0.32756758,0.6251556,0.16816552,0.52300084,0.42255744,-0.3983771,0.8904428,1.1082894,0.20463705,0.10279817,1.6136483,0.019830203,-0.2438847,-0.5995236,-0.051030934,1.1701051,0.20029986,0.110922426,-0.4582641,0.07478707,0.82870084,-0.950599,-0.2831224,0.14503056,0.6915083,0.73628753,-0.15713842,-0.72230387,0.12227869,0.53705525,0.7493314,-0.44978774,0.8895833,-0.0710653,0.48341346,0.6830549,-0.3791219,-0.6482906,0.9243744,0.08634583,0.63260335,0.2529993,1.281245,-0.49604464,0.53846544,-0.4669839,0.24018125,-0.57054096,0.3573214,0.18954198,-0.6883974,0.111549385,0.33373916,-0.8611617,0.21462758,0.8505524,-0.1269475,0.2152962,0.24376912,-0.2533452,0.30958453,0.7787378,-0.09249264,0.42332923,-0.71535164,0.7453787,0.21215189,1.1221471,0.04175735,0.046692073,-0.30182707,0.43333316,0.313031,0.013082892,0.4013457,0.0075999796,-0.4977239,0.84470195,0.3065922,-0.33444333,0.09433857,0.2881245,-0.54523534,0.3452845,9.567014,0.07869125,-0.048143063,0.5498236,0.32025456,0.13414933,-0.24860032,0.17272313,0.6618497,0.4881463,-0.081784464,1.0525786,-0.859183,0.39567295,0.25303653,-0.08765602,-0.89333624,0.1475922,-0.48055473,0.32206407,-0.44956017,-0.16446441,0.3249177,0.46286008,-0.8157974,0.6638684,1.1465133,-0.611389,0.39739433,0.30894598,-0.55861837,1.3921976,-0.48479614,0.33551636,-1.4028578,-0.62133485,0.51049256,0.3020151,0.57749724,-0.5483215,-0.33945134,0.14470519,0.35544565,0.376555,-0.5380673,-0.97580975,-0.07268394,-0.21866053,0.044200946,-0.23281379,-0.35983014,0.18427299,0.5588742,-0.35655788,0.5524974,-0.26850232,0.625613,-0.6889994,-0.8318154,-0.5640351,-0.045376778,0.59199,0.014143825,0.095302306,-1.047684,-0.24765001,0.18437426,-0.2602534,-0.99127007,-0.474259,0.25914198,-0.10816646,0.3411713,-0.21870726,-0.27049562,-0.7669061,0.34127244,-0.10075768,-0.25714096,0.35898146,0.6242964,0.4383339,-1.3830438,-0.46219072,0.25073412,0.26682994,-0.22098541,-0.26472652,1.0860724,-0.032508504,0.5665974,0.2436709,0.21552052,0.086138226,0.430861,-0.06426656,-0.99669486,-0.094750844,0.15876769,-1.1133856,-0.7452689,-0.045373738,-0.2502255,-0.1409419,0.54791254,-0.46606246,0.6079158,0.022881,0.27720955,0.11164853,0.1257847,-0.38125548,0.5582687,-0.0033570777,0.86506146,0.4096146,0.17064832,0.3752946,-0.49621382,-0.023741543,0.4473096,0.58356255,-0.63895124,-0.15960361,-0.48036465,0.02095674,-0.1539617,-0.27064422,0.27372894,0.03163959,0.55197126,0.39944994,0.23832674,0.6968562,0.121081434,0.21400166,-0.71768427,0.36506817,-0.18772759,-0.7099493,-0.052868515,-0.76885176,0.2242331,0.5116818,-1.0862021,-0.6360569,1.0381175,-0.75293994,0.5788875,-0.14015396,0.275559,1.3297969,-0.6140367,-0.7844545,0.2936245,-0.08746431,0.52734953,-0.02509284,-0.1212941,-0.47010183,0.3202363,-0.92586225,0.24258192,0.40400958,0.16382001,0.23399977,0.19740553,-0.39540592,0.30486616,-0.024136847,-0.028127091,0.30832997,0.3286458,0.3683832,-0.09237081,0.2920968,-0.43612614,-0.57732946,-0.19289489,-0.36653996
com.rafsan.inventory.controller.category.CategoryController;0;0.6161488,0.6010854,-0.39374593,-0.71246845,-0.49494547,-0.259533,-0.031641096,0.16557175,-0.22479963,0.15113948,-0.5517358,0.98065835,0.37214696,0.3102787,0.868819,0.14781669,-0.5845884,-0.5784347,0.6185056,-0.4780668,-0.3974092,-0.3325503,-0.11780369,0.71090126,0.2537604,0.27060473,-0.13444941,0.39110684,0.60308236,-0.017152496,-0.70297694,-0.34403235,0.832667,0.8272151,-0.23176822,-0.107760526,1.0619113,-0.6388808,-0.40697783,0.8538346,0.045401856,0.8038299,-0.21038944,0.13427103,-0.11180923,-0.669251,0.23536716,-0.016883297,-0.20114753,0.17661749,-0.007437151,0.057393815,0.4323008,0.22606151,-0.3755566,0.7116484,0.449966,0.09589003,1.0144365,-0.54247415,-1.0878052,-0.068329595,0.4897471,-0.14388059,0.63173884,-0.61689186,0.4292098,0.7367287,0.12542526,-0.14891408,-0.48245773,0.31711215,-0.38934964,-0.22925487,-0.25192255,-0.17459087,-0.30115592,0.27228776,-0.23452318,0.36865583,0.1468516,-0.14443211,1.7240548,0.6365601,-0.4529161,0.39637527,0.21621601,0.15668976,0.14742637,-0.1313872,0.8212294,0.6664628,-0.14212187,-0.100344725,-0.6731814,0.5710297,-0.5519867,-0.46823257,-0.2877,0.49981666,-0.07055183,-0.12911068,0.43052065,-0.28784737,-0.66726077,-0.033634737,-0.08772554,-0.42585713,0.15036742,0.84843874,-0.43703827,-0.21609059,0.29606745,0.54310554,-0.20651749,-0.08112577,-0.431339,0.1499007,0.44702435,-0.69732445,0.17468417,-0.41369095,-0.8233657,0.95222056,0.8823328,0.11376038,0.54153657,0.3719231,1.2987608,-0.45196906,0.065601386,-0.7392988,-0.38567543,-0.49992317,0.7737068,0.74567103,0.5152673,0.13616571,-0.18042135,0.12686665,0.011461701,-1.3028804,0.29913026,-0.5983136,0.96888596,0.58461505,0.46982357,0.15746385,-0.39465824,-0.9500459,-0.19011869,-0.50713336,0.36108094,-0.7463844,0.45272923,1.0533518,0.5160075,0.9820404,-0.57723135,-0.26698658,0.34511036,-0.26530522,0.061489996,0.013387065,0.25168538,-0.15613484,0.47894803,0.70900774,-0.6395715,-0.40651202,-1.1479193,0.9130402,-0.8545927,0.33785096,-0.0085436115,-0.28915173,-0.51062703,-0.2493267,-0.74977833,0.4134687,0.2913191,0.16406617,0.3401105,0.101171814,-0.5196334,-0.47327203,0.23671833,-0.046307027,0.77641106,-0.5885673,-0.12736638,-0.1670599,-0.14075854,-0.23020181,0.14426729,1.0642731,-0.13056456,0.44023806,0.9817563,0.32864124,-0.35793298,0.010338914,0.1799527,-0.12593183,-0.5799253,0.6733179,0.097863466,0.1147323,0.71857345,0.11335727,0.5036033,1.200748,-0.3979144,-0.15488574,0.046550877,0.23510131,-0.59527135,-1.2658083,-0.1589204,-0.46032986,0.61926925,-0.034302,0.14079584,-0.21665536,-0.5787588,0.5445597,0.77905816,0.57538795,0.4937691,0.46883836,-0.11973735,-0.29368958,0.46875557,-0.0035549444,-0.9531179,-0.37130243,-0.5371145,-0.04506565,-0.07025149,1.1957389,0.018062849,-0.18447597,0.13755016,0.29368445,-0.45411885,0.71478313,0.18483058,0.35192943,-0.906607,-0.347284,0.22889844,-0.5835277,0.04784194,0.32276708,0.007827405,0.24719708,0.32061517,-0.6047017,0.19482061,0.978936,0.07851309,0.5349799,0.43767583,-0.4311447,-0.32853958,0.2164663,0.25710833,0.4234742,-0.08757703,-0.3618868,0.39257982,-0.3376641,0.45064595,-0.5329559,0.20799465,-0.45338604,-0.71460426,0.2925902,0.48111302,-0.4158475,0.19143066,-0.6038792,0.008424729,0.1583906,0.736261,-0.5377378,0.013818791,-0.25939348,1.3374108,-0.33467615,0.031736083,-0.5734399,0.2966484,0.39448205,-0.7147883,-1.4295856,-0.030934718,0.039444588,0.61900157,0.30440181,-0.55582833,0.40565607,-0.12798387,-0.499116,0.8271725,-0.47450572,-0.44908887,-0.21757095,0.520117,0.01002682,0.11596815,0.8192885,0.07324883,0.29186997,0.5073014,-0.4009049,-0.25140944,-0.17979196,0.3628549,1.0726475,-0.88223064,-0.9883197,0.22815451,0.55083287,0.20414491,0.0002953969,0.18636051,-0.42586288,-0.23267624,0.982725,-0.21759272,-0.027414579,0.8573879,0.9512876,0.29242072,-0.58889264,1.1354283,0.02489769,1.4207919,-0.8973944,-0.63145936,-0.516695,-0.8130161,-0.08593834,0.07532142,-0.4905992,0.46373266,-0.06869579,0.38241583,0.13726299,0.3150595,0.13365933,0.6879549,0.32022855,0.07674258,1.8410357,-0.67018425,0.7881725,-0.4582796,-0.4947011,1.1333767,-0.25401855,0.77489877,-0.7447032,-0.7059496,-0.029716115,-0.6202395,0.32850978,0.4533229,0.09581812,0.059542716,0.046099547,0.7542781,0.73119247,0.728615,0.01893238,0.34398645,-0.14007956,-0.25850186,0.16421539,-0.660226,-0.24401304,-1.0571891,0.16009784,0.14787838,-0.6316666,-0.55628574,-0.45897156,0.37355956,0.30357176,0.32833543,-1.1361874,0.08416192,0.25591907,-0.1536584,-0.15225847,-0.59341717,-0.63114303,0.3482035,0.19032836,-0.26290265,0.33977434,1.1175176,0.712207,0.93699217,-0.37385604,0.8400205,-0.31999496,-0.08317083,0.034307566,0.13586809,0.5343058,0.34913686,1.4566281,0.4630664,0.14972594,0.0007270202,-0.82277876,-0.020675171,0.19035703,0.27634546,0.66756916,0.91774786,-0.6721064,1.1499712,-0.07474841,0.48248124,0.20664963,-0.4510557,0.09232586,0.44704062,-0.34370586,0.0276144,-0.48969722,0.17706119,-0.46297976,0.76355916,-0.16726519,0.483192,-0.3698,-0.24970725,-0.10468872,0.78932405,0.6329446,-0.17664118,-0.067679025,1.3034865,0.15255824,-0.37143955,1.2029291,-1.0509506,-0.7462962,-0.896171,0.20203717,-0.8105705,-0.5321244,0.40268886,0.44233045,0.5061091,-1.158092,-0.20001096,-0.10878286,-0.49200535,-0.28825805,0.5999052,-0.120236784,-0.08671871,0.0058768373,-0.3927042,-0.5038174,0.41010866,-0.07117444,0.37459537,0.15638135,-0.10434089,0.81514174,-0.63032633,-0.17648602,0.80587965,-0.32726833,0.6329696,-0.111904725,-0.12609765,-0.6313984,0.62520117,-1.2042403,0.034803618,0.002073586,-0.065836534,-0.3742103,-1.3206627,0.55985403,0.103889726,0.111188896,-0.71710575,-0.34807345,0.17940466,0.81550336,0.7925828,-0.40141743,0.122350216,-0.5872533,-0.11738802,0.53555,0.291406,0.6125667,0.057809822,0.602269,0.3330934,-0.333522,1.0517195,1.2281605,0.06551275,0.09413267,1.7364774,0.02997797,-0.10766393,-0.7832695,-0.048225068,1.2203273,-0.05425231,0.3917275,-0.3230192,0.17563727,0.7373539,-0.95687795,-0.15623856,0.33069927,0.6571368,0.6759027,-0.31340307,-0.9114356,0.3962011,0.5719536,0.76893955,-0.58698523,0.9873594,-0.042634595,0.70276344,0.7934223,-0.27082992,-0.4814996,0.8808286,-0.1068099,0.540731,0.2789368,1.4858918,-0.52031493,0.3605044,-0.4616465,0.2905985,-0.34727174,0.19967435,0.20532748,-0.9358831,0.13653865,0.22918403,-0.70104426,0.27005038,0.888613,-0.4135905,0.26971543,0.121164605,-0.17923583,0.3560738,0.75981224,-0.13282561,0.5150191,-0.85623294,0.8203161,0.107320726,1.1860105,0.07038281,0.3052684,-0.27737954,0.46106187,0.058695715,-0.05343732,0.37210405,0.14070553,-0.76635724,0.92247266,0.27241158,-0.30356005,0.22012517,-0.018372864,-0.6610229,0.45806736,7.2950563,0.054279998,0.040850356,0.5824884,0.3054277,0.0874012,-0.03630936,0.43582323,0.6736314,0.36730188,-0.41013455,1.2322134,-0.8301354,0.6368731,0.13535264,0.16281262,-0.87752455,-0.015587546,-0.39160216,0.38264388,-0.5273135,0.08969304,0.4622893,0.4372883,-1.0056822,0.62885034,1.2061721,-0.9276322,0.30461374,0.5455516,-0.6330565,1.7089761,-0.50300765,0.42491052,-1.5675585,-0.76422125,0.57607746,0.5332563,0.64210147,-0.69539255,-0.1525543,0.079321474,0.12221789,0.2837315,-0.87245524,-1.0215943,-0.2590162,-0.5805398,0.20780087,-0.24374731,-0.39190978,0.1840044,0.74810916,-0.5309859,0.5623165,-0.5459971,0.50796765,-0.83179796,-0.8203587,-0.5646995,-0.31906536,0.53163296,0.05279231,0.22409579,-1.3012965,-0.40407136,0.03820115,-0.27728918,-0.9493974,-0.3789326,0.38798362,-0.1784113,0.15606362,0.12022556,-0.5953222,-0.51302075,0.3105298,0.009944983,-0.13264392,0.33374768,0.64358854,0.37467438,-1.5244035,-0.48360142,0.1226329,0.19496198,-0.110099114,-0.006283447,1.0599587,0.385647,0.6658935,-0.08791223,0.16390151,-0.00051084906,0.566472,0.008020101,-1.2800916,-0.11853488,-0.04425726,-1.0889713,-0.97462296,-0.17003296,0.018543579,-0.025379062,0.5954472,-0.46809238,0.8893118,-0.012028346,0.4055534,0.06444485,0.20486355,-0.42380655,0.5944025,0.26130772,0.7792455,0.43766528,0.3461549,0.45175293,-0.57360905,0.024729999,0.31886742,0.64664525,-0.7229703,-0.07966584,-0.59151727,0.025134485,-0.11382034,-0.11936091,0.3401612,0.0609578,0.60417545,0.5005502,0.08227366,0.4894793,-9.923801e-05,0.36308202,-0.6725842,0.62863874,-0.4170027,-0.8596036,-0.13034865,-0.91793853,-0.14199871,0.6408435,-0.95054483,-0.917775,0.8542726,-0.9595226,0.6409865,-0.14932497,0.3755541,1.6522377,-0.7876637,-0.9447416,0.50933117,-0.17232399,0.60288936,-0.1368057,-0.036494732,-0.5173273,0.38981256,-0.957646,0.20537224,0.392294,0.12639138,0.07639484,0.34406593,-0.566935,0.2949317,0.077757254,0.12093511,0.41909516,0.32993492,0.23401868,-0.11230281,0.45997363,-0.581376,-0.58282566,-0.1622964,-0.58177114
com.rafsan.inventory.controller.category.EditController;0;0.77241373,0.5054876,-0.35772905,-0.77180713,-0.65677136,-0.18442297,-0.2512904,0.12152951,-0.29867935,0.04229392,-0.57419294,1.2037879,0.35652864,0.2594927,0.79863024,0.100405015,-0.8657484,-0.75824547,0.54421884,-0.53997594,-0.4770325,-0.445052,-0.46650276,0.7460491,0.30994663,0.16598563,-0.1733023,0.45388225,0.7811697,0.1033074,-0.7845996,-0.28886905,1.0440352,0.8905909,-0.16698796,0.026186606,1.0137209,-0.61799544,-0.47146478,1.2105603,-0.09180504,1.0065855,-0.38072288,0.2236908,-0.01171871,-1.0490505,0.17391765,-0.038146984,-0.06923691,-0.00046259662,-0.048379112,0.20984314,0.61257404,0.2789521,-0.19837265,0.8616059,0.45014536,-0.10842002,1.0986148,-0.67159176,-1.089873,-0.20106472,0.5262068,-0.29095426,0.9596252,-0.5579279,0.4483404,1.0289207,0.5413404,-0.21922429,-0.23871762,0.37929177,-0.4309976,-0.13999455,-0.49362516,0.0057756305,-0.24392615,0.4608413,-0.5006451,0.38066435,-0.057448447,-0.20760967,2.085547,0.7438841,-0.5251854,0.68505305,0.0130906105,0.17681909,0.03511128,-0.1987573,0.9402068,0.62360734,-0.08164105,-0.24706995,-0.6556856,0.63977313,-0.6773445,-0.47784224,-0.37576807,0.64061564,-0.20155019,-0.13063842,0.3975462,-0.3765575,-0.727766,-0.24351053,0.14274313,-0.5726406,0.21874522,0.81037956,-0.39984646,-0.044771608,0.26003805,0.66316223,-0.15922518,-0.15256794,-0.73070043,0.25891975,0.67132396,-0.5975264,0.2272768,-0.64591366,-0.8454731,1.1591836,1.1503382,-0.00092827034,0.6606533,0.43591812,1.5560366,-0.70081455,0.2288885,-0.7754629,-0.3190699,-0.6263246,0.7922885,0.9764059,0.4379363,0.09135037,-0.22820896,0.45078862,-0.00022205959,-1.5634408,0.4328371,-0.59884685,0.95116323,0.54098964,0.68368894,0.08577139,-0.40329096,-0.7603676,-0.3908991,-0.6044921,0.66374636,-0.87914854,0.3397758,1.1805662,0.7021594,1.2093539,-0.60546905,-0.3248982,0.31924632,-0.48281083,0.003055724,0.040366422,0.41352582,-0.36963412,0.49595234,0.83334965,-0.8807804,-0.5297357,-1.3330814,0.9436364,-0.7824268,0.5294845,-0.036400262,-0.35872832,-0.5921034,-0.2727821,-0.8077422,0.37433735,0.29962903,0.22496879,0.2487096,-0.041617062,-0.9107807,-0.45466936,0.19958854,-0.2570111,0.87764925,-0.7154255,-0.18117774,-0.106787585,-0.107037134,-0.18634732,0.30549225,1.2008951,-0.2163332,0.40194988,0.95419174,0.29082704,-0.28866556,-0.0042132833,0.19741856,-0.10622558,-0.61034864,0.7988486,0.058275726,-0.07385173,0.76809716,0.21036927,0.6126202,1.2033849,-0.5345085,-0.3497876,-0.009864897,0.48596117,-0.541589,-1.3684932,-0.17692934,-0.5401249,0.8029683,0.0057486906,-0.0051320195,-0.37779704,-0.5062913,0.685723,0.78295666,0.78020906,0.6041997,0.5780224,-0.13005054,-0.38649812,0.37559786,-0.011066864,-1.1946316,-0.20938778,-0.909975,-0.28803942,-0.05084389,1.1227084,0.109225355,-0.08088995,0.0027541667,0.26330313,-0.716096,0.6681854,0.40316,0.3861717,-1.1304388,-0.30252025,0.4153625,-0.5857764,0.13933873,0.29089263,0.11591921,0.007903576,0.50750536,-0.61321694,0.16300462,1.3575519,-0.26352417,0.8860862,0.41752458,-0.79455775,-0.18243201,0.21739577,0.44600058,0.47542515,-0.09134295,-0.1580771,0.7159929,-0.4582311,0.5309039,-0.661398,0.24439818,-0.60145396,-0.91100407,0.24660079,0.4822905,-0.45679006,0.2068939,-0.74176234,0.20140767,0.15941168,0.8756357,-0.6339093,0.04218268,0.12201831,1.6827927,-0.5417506,-0.04126479,-0.6878614,0.44850504,0.5585885,-0.717796,-1.5926834,-0.2955399,-0.5237241,0.73159903,0.21264052,-0.7864864,0.4502946,-0.2496884,-0.85481566,0.898248,-0.37642336,-0.54312366,-0.1314817,0.6218996,0.12814349,-0.074228495,0.97056085,0.24605805,0.36535427,0.4683183,-0.4796416,-0.25684476,-0.19222827,0.35376775,1.3333335,-1.0147742,-1.0957538,0.27285966,0.70701426,0.22122437,-0.055653643,-0.11087183,-0.44152048,-0.4027547,1.3150612,-0.2679496,-0.17443395,0.50820047,0.80245113,0.44519648,-0.95137507,1.3220043,-0.10938222,1.6351299,-0.9896362,-0.9899487,-0.589722,-0.8276527,-0.11506438,-0.048853565,-0.27466005,0.44204676,-0.33924314,0.47778282,-0.0507849,0.34166655,0.35811624,0.8333631,0.40603343,-0.27674544,1.9691325,-0.75840324,0.8832138,-0.5285668,-0.5542852,1.1034273,-0.46796653,0.9283471,-0.74454063,-0.7697347,0.04699177,-0.8457872,0.17727278,0.5672686,-0.1634731,-0.0692035,0.080967255,0.87346077,0.9245963,0.9160821,-0.015787745,0.38954297,-0.20188485,-0.3812728,0.16607322,-0.7212913,-0.24351227,-1.1077057,0.25796044,0.1008128,-0.94157505,-0.78342986,-0.26066503,0.39776203,0.44197252,0.47576097,-1.3948437,0.082416385,0.2175731,-0.22437173,-0.1448509,-0.43589672,-1.0291046,0.5282884,0.42236623,-0.27849826,0.32237193,1.2899956,0.8204109,1.2391648,-0.27936956,0.6694581,-0.37319097,-0.052222405,0.086597554,0.07226852,0.43770123,0.43483102,1.8330069,0.43838176,0.09315753,-0.12130901,-0.8899243,0.1887567,0.3384858,0.093223035,0.576187,1.0650027,-0.95636255,1.0749971,-0.061976105,0.34195733,0.21801038,-0.46923736,0.12636788,0.38243997,-0.5669368,-0.0046417317,-0.61295027,0.15363911,-0.5914046,0.9072013,-0.17686826,0.5447216,-0.43890774,-0.5036126,-0.101180784,0.7792993,0.6529958,-0.08791626,0.07771789,1.1836138,0.41162524,-0.2201323,1.2250501,-1.2395226,-1.1101372,-0.9499535,0.32774878,-0.6753548,-0.53506756,0.4719591,0.44305602,0.92611456,-1.3398939,-0.34745863,-0.072562695,-0.6786559,-0.2544829,0.82260185,-0.26862106,0.030673176,-0.16597249,-0.5550205,-0.50143623,0.56924254,-0.24211799,0.6570585,0.38999495,-0.2201979,0.8388381,-0.69894814,-0.0975901,0.8621204,-0.1860075,0.7862008,-0.24560606,-0.07221445,-0.7639372,0.49614206,-1.4945427,-0.0038486086,-0.24553484,-0.12766059,-0.42424121,-1.3966398,0.6881836,0.23806827,0.12998728,-0.7689724,-0.4172893,0.30570814,1.1096202,0.9955027,-0.4888791,0.25011882,-0.79918957,-0.30110943,0.62492675,0.34299222,0.645473,0.16589372,0.7518583,0.33856764,-0.56407356,1.188691,1.5026274,0.22824067,0.13789904,1.8402828,0.20209897,-0.40529332,-0.81441855,0.010860947,1.5484014,0.17142005,0.28909305,-0.45311263,0.1573106,1.0639771,-1.2367731,-0.025740147,0.28499892,0.85830784,0.8153565,-0.19519202,-0.90827084,0.12851864,0.48339406,0.9543384,-0.6361116,1.173365,-0.10752034,0.5314589,0.77844745,-0.1635896,-0.5603222,1.1697053,0.038345672,0.52915454,0.12427903,1.6115783,-0.71407384,0.65391874,-0.5677067,0.32404813,-0.6339004,0.3518661,0.08120919,-0.97969466,0.11279561,0.38570538,-1.1463056,0.21689911,1.0481697,-0.44882336,0.13754289,0.14516672,-0.16776085,0.49591598,0.9504838,-0.12712137,0.46627143,-0.80119675,0.9234052,0.28186443,1.2013634,0.011204521,-0.0635363,-0.43361807,0.5631307,0.26710412,0.07603091,0.2800941,0.2567354,-0.69370145,1.142131,0.32917172,-0.39893106,0.3943611,0.06403296,-0.5250414,0.5261503,8.26134,0.043250903,-0.012603849,0.7120319,0.5407048,0.022030428,-0.22127597,0.53649044,0.87307674,0.4148585,-0.33924523,1.5410084,-0.7122919,0.6549931,0.22478004,0.053743124,-0.92462516,0.12878352,-0.70996493,0.36895898,-0.55805784,-0.28993496,0.77338725,0.25302938,-1.3442553,0.87451386,1.2111098,-0.92397785,0.5132854,0.5763219,-0.87240046,1.8543764,-0.5915591,0.41392264,-2.0149324,-0.8839135,0.72961766,0.5154813,0.74172324,-0.732959,-0.29650104,0.17747796,0.2641563,0.30384162,-0.86367464,-1.2546691,-0.19760154,-0.56444067,0.32597154,-0.5969025,-0.6423642,0.2513685,0.675968,-0.38010207,0.46064636,-0.6384892,0.59571797,-0.88629794,-1.2520175,-0.6347192,-0.021699617,0.5921948,0.29544377,0.18798304,-1.1872925,-0.40241325,0.027513841,-0.33360255,-1.1421252,-0.78625125,0.41835093,0.0057640113,0.38686338,0.013888086,-0.67398834,-0.81680584,0.44720292,-0.2970129,-0.40003118,0.38948175,0.7773363,0.52276367,-1.6575752,-0.35919082,0.011789252,0.43924895,-0.15378998,-0.03688829,1.4234619,0.16979574,0.82981896,0.13623849,0.262846,0.13181685,0.7602727,-0.04092895,-1.3078198,0.054776926,0.06309951,-1.4273753,-1.1128782,-0.2795106,-0.16911197,0.13387589,0.6698145,-0.55331904,0.7856633,-0.100860275,0.5511734,0.06497061,0.33352757,-0.3487858,0.5838208,0.1137777,0.9101204,0.37413964,0.36857972,0.5580198,-0.7093887,0.3263838,0.5337487,0.70266056,-0.73022366,-0.22707814,-0.6489093,0.15399016,-0.053151745,-0.18305166,0.45869938,0.13649608,0.94485784,0.32434586,0.08301784,0.6179661,-0.041097384,0.46428907,-1.0023961,0.7442792,-0.40109244,-1.1662966,0.036364507,-1.0007247,0.032578405,0.7325836,-1.0369238,-1.1035181,0.95872945,-1.1952716,0.5963174,-0.12641747,0.22739375,1.6974295,-0.79928833,-1.0787356,0.44518676,-0.052547228,0.57415694,-0.29781613,-0.20658354,-0.60964084,0.22097522,-1.2150187,0.21205215,0.43291807,0.51578933,0.1367446,0.49926853,-0.54598475,0.28133175,-0.0038047011,0.115934975,0.3499172,0.4095644,0.40354288,-0.2707944,0.26731965,-0.5706385,-0.6342725,-0.06451563,-0.47398874
com.rafsan.inventory.controller.employee.AddController;0;0.17579678,0.47084132,-0.1028546,-0.6974493,-0.4152218,-0.21873777,-0.11729991,0.28505656,0.06011039,0.0006435234,-0.31278756,0.6249409,0.18482706,0.5783533,0.6278031,-0.13719632,-0.32334673,-0.39360934,0.19008471,-0.19711259,-0.14344445,-0.18731296,-0.19699606,0.38053215,0.09015818,0.30117774,-0.014855236,0.26318067,0.34627914,-0.27655166,-0.5035033,0.03895759,0.93281317,0.39092064,-0.032446235,0.079886444,0.63333833,-0.4431756,-0.25835386,0.76883125,-0.1825764,0.64114034,-0.08039042,0.12813213,-0.06501813,-0.40801096,0.09165806,0.04377489,-0.10314232,0.40836173,0.045371674,0.11754654,0.290059,0.13932064,-0.20491943,0.51519567,0.15301456,0.123406395,0.57210016,-0.3526201,-0.5560279,-0.21779634,-0.05930394,-0.5595554,0.48566028,-0.25638974,0.17348713,0.5157143,0.19274455,0.0941433,-0.47722054,0.09692101,-0.27673575,-0.165902,-0.39458212,-0.14782956,-0.5346204,0.44449037,-0.24771476,0.5163918,0.30737808,-0.08543406,1.8918102,0.49411857,-0.38870353,0.3699782,0.11727223,0.25018528,-0.081991255,-0.0063236356,0.6597737,0.496433,-0.0131972805,-0.056102842,-0.49922866,0.58040076,-0.4536258,0.21771811,-0.29687458,0.23510498,-0.28346875,-0.13816427,0.14614302,-0.22212234,-0.44680786,0.03246431,0.023253374,-0.46700478,0.48380324,0.42142415,-0.32558239,-0.24935916,0.31548107,0.29857442,-0.17952794,-0.15406811,-0.045737445,-0.11195618,0.24864888,-0.6195384,0.14346142,-0.09329494,-0.62698305,0.7908,0.7385469,0.3006199,0.2565462,0.55886793,0.852579,-0.23950794,0.028670654,-0.68881893,-0.2831151,-0.35165524,0.7298546,0.65180916,0.2567336,0.13754918,-0.0897156,0.093354836,0.21739803,-0.7671266,0.3026116,-0.555879,0.9103518,0.48735756,0.07930187,0.32334244,-0.051012125,-0.7227086,-0.18284295,-0.33546263,0.25216988,-0.51306796,0.4761337,1.1428988,0.5454246,0.7462754,-0.3755418,0.031573147,0.5167426,-0.3445649,-0.19422688,0.30514514,0.446259,-0.12461803,-0.07143699,0.45959657,-0.4620996,-0.42806616,-0.72979295,0.4770308,-0.40149766,0.30842024,-0.1108788,-0.41409308,-0.5275505,-0.29759252,-0.29492196,0.1295379,0.44793326,-0.018066362,0.086707786,0.2671866,-0.3738851,-0.49539185,0.1601093,-0.14026219,0.40671778,-0.41487375,-0.010744922,-0.12673993,0.023936221,-0.09499532,0.1751329,0.908551,-0.2889861,0.15984368,0.6132902,0.42014083,-0.42133066,0.21474756,0.2684308,-0.22523916,-0.18194817,0.5179909,0.12571792,-0.2389555,0.65586066,-0.028604366,0.5752593,0.5658066,-0.39067197,-0.008862361,0.48581505,0.27402127,-0.35254353,-0.94567823,-0.29757163,-0.28458884,0.4405896,0.04213034,0.01170066,-0.4757744,-0.72686154,0.36361635,0.53009695,0.050865382,0.11607307,0.40280247,0.17468442,-0.36886153,0.21535078,-0.12475376,-0.41918743,-0.119595364,-0.6337789,-0.16874085,-0.40309227,0.53027785,-0.00562864,-0.023251269,0.38140756,0.13331243,-0.37912655,0.6878793,0.33344537,-0.029705562,-0.5932958,-0.49479106,0.16867772,-0.45405588,0.055528775,-0.10291877,0.13987318,0.18757588,0.20869094,-0.44831783,-0.03535729,0.7907692,0.18468784,0.36860403,0.17879206,-0.3153294,-0.10632093,-0.2997212,0.33496252,0.26622146,0.22332795,-0.42232016,0.43342406,-0.59200704,0.025853276,-0.30841228,0.36549762,-0.29530305,-0.56880593,0.1965526,-0.024924658,-0.32097805,0.019355107,-0.29746664,-0.094670154,0.29497498,0.29655308,-0.5062412,0.30149361,-0.022432841,0.8088554,-0.26185906,-0.16506603,-0.12501872,0.013259042,0.03684897,-0.6269013,-0.916116,-0.089892015,0.1452861,0.40828714,0.27370957,-0.39245257,0.44228417,-0.010808257,-0.19532317,0.55767494,-0.21281019,-0.32492125,0.051198587,0.42601055,-0.22872129,0.19946842,0.31716335,-0.18075727,0.05706089,0.35350978,-0.27813196,-0.37691006,-0.32020536,0.25355023,0.588989,-0.5965377,-0.5899069,0.023328282,0.26310936,0.2284432,-0.08239229,0.18311602,-0.03341342,-0.3782426,1.1019244,-0.4330133,-0.0123585835,0.5093648,0.49704224,0.31337047,-0.50253433,0.6058364,0.23116638,0.88280296,-0.5345061,-0.23335868,-0.10784915,-0.5717647,0.0011246167,0.028095644,-0.055915892,0.22897963,0.06988036,0.22104812,-0.1651355,-0.035668746,0.26827472,0.4907568,0.26345515,0.20223545,1.3217227,-0.19337372,0.16744807,-0.18763806,-0.5220679,0.566131,-0.572031,0.32523167,-0.48131505,-0.60334444,-0.097213596,-0.5280417,0.33484408,0.19696513,0.39110726,-0.09574588,-0.2860566,0.7427498,0.449844,0.5533,-0.14485173,0.28300858,-0.14963804,0.035590217,0.10895312,-0.5070491,0.11777111,-0.49496794,0.15823297,-0.00070919096,-0.5236542,-0.26237532,-0.37218815,0.2707668,0.10433778,0.20922345,-0.7160088,0.020875446,0.09032565,-0.22729698,-0.075002104,-0.2667695,-0.22229753,0.08167435,0.1444609,-0.12559347,0.03497398,0.7465228,0.17037417,0.9233043,-0.19173694,0.2423074,-0.44595742,-0.07690145,0.0450898,0.09076391,0.47797424,0.19867921,0.9302697,0.33305207,0.28156826,0.049189225,-0.7584828,0.12576312,0.16325134,0.31651175,0.64105076,0.70479506,-0.351914,0.86640114,0.103017464,0.1891563,-0.0466682,-0.0039793625,-0.09718075,0.36186293,-0.20306337,-0.006157564,-0.18297106,0.15349221,-0.41809767,0.36858445,0.055853203,0.5061413,-0.18272847,-0.22313833,0.22475024,0.688602,0.52981704,0.33709103,0.07951787,0.6447567,0.124463566,-0.018005662,0.72099096,-0.44523996,-0.40445828,-0.52027994,0.1359016,-0.69252837,-0.26491728,0.39001626,0.10243797,0.4684769,-0.84692377,-0.33332232,0.3222261,-0.055495337,-0.17179796,0.12765998,0.009781644,-0.07894971,-0.0969752,-0.24683344,-0.22657299,0.46153545,0.10967786,0.013853535,-0.10254978,-0.33498722,0.15812692,-0.38482946,0.12282472,0.30603573,-0.31909135,0.17913063,-0.15118936,-0.11882347,-0.20091635,0.49259698,-0.64865816,-0.023660548,-0.22824036,-0.110033505,-0.27607223,-0.70934737,0.48050472,0.2013912,0.03993599,-0.34279212,-0.022394033,0.021814678,0.73313653,0.543984,-0.06457269,-0.006904885,-0.35170764,0.32227024,0.3026246,0.19888407,0.6970327,0.36407638,0.2546422,0.4423409,-0.281799,0.6836709,0.67058134,0.20531383,0.100663066,1.3123127,-0.006099403,-0.20247377,-0.50166833,-0.22846363,1.0372057,0.2673137,-0.0006012693,-0.31043655,-0.11599807,0.54177046,-0.7920486,-0.47289014,0.008127451,0.66711795,0.49317047,0.026130307,-0.6737918,0.12585863,0.42622554,0.5887039,-0.32122663,0.7263799,-0.07545843,0.43373138,0.41720855,-0.3274809,-0.6510207,0.7364063,0.0593888,0.63826835,0.333537,0.8662634,-0.4987709,0.32335037,-0.2628111,0.28174788,-0.5409617,0.21322154,0.2967044,-0.4929033,0.07092493,0.23334275,-0.62427914,0.3156333,0.68041694,0.118340895,0.31846613,0.3197877,-0.19614622,0.15092441,0.63173455,-0.092051476,0.3770901,-0.70740724,0.5242667,0.16877978,0.9156041,0.05630655,0.08922699,-0.095293924,0.11046741,0.19256996,-0.07909242,0.34406427,-0.19431481,-0.34294754,0.7658746,0.38292196,-0.19482896,-0.079392165,0.42285883,-0.16127776,0.29568553,10.678202,0.06970686,-0.10711199,0.45944363,0.27693078,-0.047007985,-0.34658754,-0.09864502,0.4208551,0.45608276,0.16687381,0.8189837,-0.80199766,0.21009958,0.29610893,-0.07085337,-0.7088519,-0.04598003,-0.2647475,0.22538446,-0.24219054,0.17139503,0.10973152,0.53831,-0.5409448,0.40892446,0.9258659,-0.51775753,0.39719182,0.27620026,-0.39380604,0.92013705,-0.60644674,0.1252383,-0.98420745,-0.6105372,0.3770507,0.12877893,0.38170952,-0.43632954,-0.27112556,0.10774259,0.46014452,0.2111451,-0.18861409,-0.5696323,-0.12422062,-0.042484418,0.09491565,-0.27398348,-0.09734395,0.10451841,0.4215286,-0.45728984,0.46369368,0.0041619986,0.585026,-0.57988715,-0.5250957,-0.41163874,-0.08450858,0.7481017,-0.119511634,0.10192492,-0.8225688,-0.22682862,0.11531115,-0.22580305,-0.71749896,-0.49210632,0.14890164,-0.072299115,0.4554093,-0.14490832,-0.0076321363,-0.69023633,0.37890276,-0.09804277,-0.12700126,0.3980853,0.41658252,0.1714939,-1.1167777,-0.46469924,0.18715857,-0.009345278,-0.34379047,-0.17403767,0.8527917,-0.12258902,0.22694653,0.017417923,0.17656492,-0.015855737,0.1528575,-0.1399878,-0.7354504,-0.10305753,0.21810266,-0.7048097,-0.35733145,0.05686051,-0.14389619,-0.23538075,0.4466151,-0.43680972,0.50405747,-0.004168936,0.09617988,0.14250304,0.11796491,-0.49275237,0.35308805,0.14595357,0.6985955,0.21948795,0.10465334,0.27902788,-0.2648107,-0.28148717,0.36560124,0.38592696,-0.4550145,-0.16824214,-0.31825206,-0.1361811,-0.1446706,-0.29510057,-0.040059358,-0.10614829,0.28921843,0.34574205,0.1423682,0.63003755,0.23518938,-0.06020072,-0.46565792,0.27444738,-0.17288697,-0.35752827,-0.11978925,-0.6190933,0.31422704,0.24011877,-0.8140748,-0.30109632,1.1150409,-0.42870682,0.5984786,-0.21568486,0.22867183,0.80022407,-0.39113948,-0.3826025,0.11187912,-0.025564691,0.40981644,0.14091055,-0.09366934,-0.42125463,0.5312428,-0.616412,0.1003547,0.22121762,0.105181515,0.3646203,0.14465092,-0.20027202,0.34481964,-0.009638559,0.0279292,0.087954946,0.20966063,0.3501132,-0.14319,0.36460188,-0.5310042,-0.48384368,-0.20289497,-0.1731531
com.rafsan.inventory.controller.employee.EditController;0;0.3183335,0.62261724,-0.085239865,-0.5505711,-0.5516642,-0.21250969,-0.21717925,0.22139138,0.014805768,-0.07658202,-0.6485175,0.90500027,0.33899078,0.5923633,0.77576214,0.07004054,-0.49996483,-0.611059,0.37578744,-0.39730054,-0.4048792,-0.31302,-0.30245626,0.48592106,0.1307716,0.25568885,-0.014367795,0.36115676,0.52181995,-0.18755509,-0.6163974,-0.07254532,0.9646292,0.61940485,-0.053265676,0.09951831,0.7740834,-0.47444493,-0.32580107,1.0940896,-0.23062845,0.86218774,-0.17662188,0.07871611,-0.054718573,-0.6299082,0.13302442,0.0919766,-0.16460171,0.31904498,-0.024107825,0.2658778,0.451766,0.237064,-0.21064575,0.64078,0.33941382,-0.026642583,0.8281288,-0.6193212,-0.6184039,-0.1640037,0.0849297,-0.7566007,0.75660527,-0.35710412,0.19346087,0.67473084,0.39312354,-0.011231821,-0.37190986,0.25495726,-0.11259879,-0.20754814,-0.47987658,-0.20441614,-0.42778432,0.54750776,-0.41519445,0.5022949,0.07065598,-0.34420517,2.2658846,0.56664443,-0.38213894,0.49016428,0.094660126,0.2003826,0.10881737,-0.027751738,0.83594406,0.552242,0.14690682,-0.08965701,-0.6130812,0.6360876,-0.46437716,0.08519567,-0.46309602,0.383374,-0.4337526,-0.11203428,0.21518512,-0.34342527,-0.5360315,-0.12589379,0.053323258,-0.73044777,0.51144207,0.39128995,-0.39235082,-0.36532933,0.25644282,0.37758988,-0.17809573,-0.14735323,-0.21638533,0.073915295,0.3727064,-0.6277597,0.2446925,-0.30855078,-0.92890716,1.0072684,0.88892114,0.19798765,0.20616725,0.62457186,1.2538232,-0.4255244,0.072635695,-0.82634133,-0.28474838,-0.3665986,0.8634676,0.8811647,0.35389125,0.12305622,-0.21325369,0.2599918,0.13969634,-1.1519343,0.33627152,-0.60790205,0.99425256,0.5924146,0.4301442,0.4406111,-0.19897994,-0.68857914,-0.2512537,-0.39516985,0.5266518,-0.66979754,0.56973034,1.2543135,0.70314085,0.9034788,-0.5590055,-0.029648222,0.42123988,-0.3683272,-0.18786651,0.21903199,0.59060943,-0.1898886,-0.0043077953,0.6254543,-0.7831259,-0.48433608,-0.9767492,0.7093904,-0.6226749,0.4812186,-0.03338919,-0.49335718,-0.5786171,-0.10104075,-0.45557874,0.2444903,0.5421814,0.014939352,0.27779248,0.039518714,-0.5741103,-0.35697648,0.12718178,-0.1230225,0.5728669,-0.5285481,-0.09566319,-0.3770691,0.09237705,-0.16709788,0.22668234,1.0180234,-0.2550766,0.17344259,0.74512637,0.50211227,-0.6614615,0.11242277,0.2245081,-0.12286231,-0.27913147,0.573057,0.17691807,-0.1721915,0.66179305,-0.033502273,0.68426716,0.64814055,-0.5268524,-0.21160656,0.25399137,0.4318831,-0.42431876,-1.0511973,-0.4434909,-0.19812392,0.4283349,0.10821898,0.018998893,-0.5279577,-0.7197492,0.48369917,0.63810384,0.19005293,0.39232576,0.60776937,0.07426433,-0.35757133,0.28696182,-0.03905308,-0.7419578,-0.017368264,-0.8725227,-0.25654662,-0.44996616,0.5816798,0.1461668,0.0907159,0.23408084,0.2645719,-0.5551425,0.674417,0.48119545,-0.0016446337,-0.9602196,-0.51632935,0.29035348,-0.6693363,0.026822766,0.12066711,0.26260296,0.18418352,0.45407078,-0.3774377,0.024005445,1.1479862,0.16851673,0.576454,0.2767617,-0.47814888,-0.19167525,-0.1549179,0.32795033,0.35235772,0.29102775,-0.33095574,0.6840162,-0.70627475,0.2026671,-0.6047843,0.34775823,-0.28508547,-0.6518462,0.12611133,0.08502613,-0.5058589,-0.025225691,-0.66781145,-0.12045586,0.23308164,0.5718087,-0.55979764,0.13361657,0.007018991,1.2875942,-0.3304518,-0.18802693,-0.43114376,0.22608453,0.21164878,-0.74006313,-1.2135193,-0.19416575,-0.05868268,0.6269519,0.13400371,-0.63932574,0.6134575,-0.24948466,-0.46116883,0.60286003,-0.27185678,-0.39847508,-0.08102561,0.28499353,-0.02183574,-0.03693258,0.6474557,0.011732042,0.24718758,0.29624808,-0.4191631,-0.35091996,-0.3586485,0.35467228,0.98019063,-0.7653798,-0.7975935,0.07991228,0.4292569,0.09827411,-0.08084054,-0.04338423,-0.008121547,-0.51051056,1.3145001,-0.4672432,-0.005369777,0.50895447,0.5703791,0.38465095,-0.69819474,0.87928414,0.20398133,1.1562957,-0.72501385,-0.49100286,-0.28095135,-0.6721556,0.08052567,-0.103116736,-0.016780578,0.4784545,-0.12029494,0.32106632,-0.12077604,-0.07733276,0.45875174,0.46768966,0.22770569,-0.030772224,1.8353527,-0.33146337,0.36345112,-0.39398214,-0.5179886,0.87889266,-0.4554668,0.6270542,-0.5482441,-0.87960315,-0.097385205,-0.5979078,0.25580636,0.27519786,0.30331236,-0.10482102,-0.23755427,0.88057494,0.7567776,0.7444577,-0.18751733,0.48384225,-0.20029959,-0.09317498,0.09955898,-0.7636715,-0.1979749,-0.6455507,0.30094737,0.18129,-0.7851835,-0.44579774,-0.30262306,0.453458,0.25824437,0.4096198,-0.978644,0.02982216,0.37691596,-0.21323912,-0.021284793,-0.31246307,-0.42756423,0.3422128,0.23997301,-0.17715672,-0.037570223,1.0593638,0.33434922,1.2184461,-0.17112884,0.317785,-0.43251425,0.0029606074,-0.024886869,0.11083338,0.6306715,0.30190036,1.4763818,0.36542845,0.17343867,0.07272424,-0.79589486,0.08779759,0.18626095,0.42893577,0.5292843,1.0240295,-0.6888521,1.0868201,0.25125542,0.28612688,0.13482201,-0.1508108,-0.03585159,0.5597336,-0.4199161,-0.08233791,-0.40967354,0.09691569,-0.5387527,0.5547786,-0.014685571,0.49508494,-0.11900183,-0.41233027,0.22189417,0.8028983,0.6753195,0.28095433,0.15905793,0.7164089,0.19091186,0.017010689,0.8985402,-0.9483974,-0.7495382,-0.78038436,0.26343846,-0.82743245,-0.36892807,0.5145546,0.18777415,0.57813406,-1.0524356,-0.47486895,0.23675112,-0.2648797,-0.13417743,0.26447135,-0.2323848,-0.1756854,-0.16390027,-0.2846353,-0.27554673,0.5990208,0.09893212,0.07929511,0.10382119,-0.38118473,0.35695946,-0.54234976,0.15765812,0.4393341,-0.19791986,0.515531,-0.29692215,-0.14937285,-0.51036566,0.5123084,-1.0068188,0.11923351,-0.25294465,-0.11997914,-0.4600466,-1.1022395,0.5152929,0.17823252,0.05897633,-0.48261505,-0.26454222,0.07436765,0.9259282,0.72637147,-0.36049172,0.048970364,-0.6186886,0.11785407,0.42892948,0.26725352,0.8113591,0.3819494,0.5494073,0.38682225,-0.369016,1.0482165,0.8669951,0.3497815,0.031714376,1.5755243,0.07265155,-0.38037944,-0.62436354,-0.25783002,1.4657552,0.32182702,-0.035281092,-0.5312328,-0.037905253,0.8402088,-1.1114419,-0.51337916,-0.024226524,0.8760029,0.2994426,0.062035333,-1.105564,0.07288801,0.41414967,0.7658589,-0.41944262,1.0255315,-0.29049802,0.37976003,0.37890065,-0.23720482,-0.8384893,1.0281584,0.21456861,0.68719494,0.32823434,1.0844148,-0.63447535,0.3871929,-0.3321839,0.29234016,-0.59541285,0.18430138,0.22654183,-0.6980342,-0.05337009,0.20880888,-1.0519596,0.3808543,0.9707216,-0.108484015,0.28511894,0.30922928,-0.10665723,0.38138074,0.81553996,-0.050895896,0.41866657,-0.8162551,0.6411256,0.31589705,0.8756857,0.22793606,-0.139758,-0.12776156,0.27062726,0.19959426,0.033112884,0.30243587,-0.16307944,-0.5260178,1.1256862,0.372226,-0.2597783,0.08184449,0.4994827,-0.106992915,0.35444677,11.3196,0.18312445,-0.18648082,0.62152827,0.4197229,-0.1864362,-0.6357951,0.07070691,0.53521925,0.41339985,0.09165405,1.0657301,-0.7291349,0.25623858,0.32551917,-0.09626252,-0.93059087,0.0057280604,-0.43637443,0.22620042,-0.38855034,0.10301551,0.35486752,0.4315357,-1.0077901,0.42837167,1.116367,-0.6898722,0.5633826,0.59917414,-0.7406264,1.3671103,-0.6663981,0.25719893,-1.4859304,-0.8355727,0.60618925,0.15243813,0.55936736,-0.7016244,-0.28743047,0.0665797,0.4942106,0.2701717,-0.38117215,-0.72230667,-0.103738055,-0.16508509,0.17577934,-0.6650027,-0.22671697,0.11054592,0.56314516,-0.60479784,0.42298418,-0.21168925,0.6452448,-0.7900202,-0.8774463,-0.43809852,-0.1074939,0.7030797,0.10064773,0.044224966,-0.94985414,-0.45831957,0.012702301,-0.32823008,-0.9031081,-0.7325704,0.21899939,-0.04104477,0.54445904,-0.067869544,-0.11067718,-0.78024435,0.41481814,-0.18289262,-0.17802802,0.4621452,0.712281,0.293226,-1.3430202,-0.5516193,-0.08353215,0.098997265,-0.25732976,-0.14948176,1.1650851,-0.015064533,0.406484,-0.23858327,0.27142608,0.056695044,0.37473446,0.0015769899,-0.95621324,-0.08240928,0.20587377,-1.1541991,-0.58061373,0.04244685,-0.14545062,-0.006001301,0.49083558,-0.5339499,0.858496,-0.05636555,0.2696375,0.09273894,0.16822904,-0.5576151,0.41915375,0.30298513,0.91617227,0.29511678,0.162339,0.48488712,-0.37687927,-0.05911498,0.2951718,0.6139589,-0.6032243,-0.1616183,-0.41540205,0.10145184,-0.08816303,-0.3882249,0.07095425,-0.0325623,0.5358443,0.22284728,0.077879295,0.7314883,0.0993371,0.0658488,-0.78934866,0.5128397,-0.24976994,-0.6836711,-0.10049723,-0.9077374,0.20109282,0.4343493,-0.88351864,-0.71022433,1.2833316,-0.7980672,0.670221,-0.5674135,0.21942544,1.1238385,-0.44168127,-0.6091452,0.2754701,0.007451826,0.5859362,0.052393544,-0.35525295,-0.47529352,0.4571332,-0.72374374,0.03818988,0.19373406,0.45575747,0.47778696,0.28359908,-0.34737736,0.39637387,0.0015259627,0.113723196,0.035932265,0.3274299,0.52252597,-0.20832175,0.22020034,-0.69655925,-0.50171846,-0.09704902,-0.26457018
com.rafsan.inventory.controller.employee.EmployeeController;0;0.3269338,0.6506808,-0.21657358,-0.55966485,-0.33313352,-0.12755704,-0.019356271,0.11183116,-0.056257825,0.11972531,-0.5015994,0.66104525,0.35739073,0.55396104,0.70532966,-0.07202313,-0.32314467,-0.38628647,0.38871214,-0.25685108,-0.29894823,-0.2421327,-0.05058527,0.62543386,0.11580638,0.37549236,0.055091515,0.30164376,0.4730676,-0.19676267,-0.51422423,-0.33017972,0.7444042,0.58791775,-0.20761785,0.01989695,0.91872174,-0.51703,-0.23253447,0.6810045,-0.117723495,0.70895004,-0.08857098,0.08103195,-0.11707478,-0.4178802,0.12962025,0.078045994,-0.22515,0.3109305,-0.09512489,0.13541436,0.2464288,0.14271216,-0.30816925,0.5444475,0.3525778,0.16868684,0.79463553,-0.48725197,-0.8511816,-0.13346513,0.2479149,-0.48356172,0.4951332,-0.61607385,0.3024495,0.54220295,0.016549353,-0.011798739,-0.5890436,0.25958818,-0.21681096,-0.12999769,-0.2503271,-0.30812582,-0.4094143,0.29087502,-0.17226076,0.49017313,0.38019818,-0.18562473,1.7968659,0.55926126,-0.2571623,0.32073504,0.1438472,0.23742315,0.053753953,0.045022145,0.8180115,0.701782,-0.00043068,-0.07505654,-0.61591977,0.60212487,-0.37867144,-0.1890227,-0.22027284,0.27221027,-0.12663737,-0.15894507,0.25143576,-0.31118992,-0.5698761,0.029290011,-0.101833016,-0.53523344,0.3336363,0.64630044,-0.5266236,-0.3204037,0.2859482,0.36947644,-0.17313099,-0.083401695,-0.18907268,0.044422425,0.12590681,-0.64260453,0.15499674,-0.2195198,-0.822795,0.68622583,0.7237448,0.14429572,0.31730732,0.52968526,0.9969613,-0.11493024,-0.052748423,-0.7911764,-0.30887416,-0.27997655,0.92932457,0.797131,0.388795,0.18766372,-0.07223139,0.031504646,0.11276407,-0.8933785,0.31282145,-0.6285002,0.950975,0.55282074,0.26159444,0.30835903,-0.32532287,-0.83194137,-0.18065548,-0.3642847,0.3118597,-0.630162,0.5841145,1.001935,0.48762587,0.84384257,-0.4268304,-0.10226461,0.4752814,-0.07689753,-0.029421406,0.18001248,0.25969052,0.014532139,0.24105027,0.5688031,-0.543205,-0.41254985,-0.8632586,0.74442786,-0.75414383,0.3540233,-0.031173639,-0.27462128,-0.60925394,-0.21173434,-0.59048563,0.37248486,0.4567549,0.042477127,0.38509512,0.32770708,-0.32117853,-0.4782751,0.22177897,-0.06999951,0.5046569,-0.47828844,-0.0796178,-0.21068236,-0.11182111,-0.29817998,0.09327534,0.8976664,-0.18707196,0.2777477,0.8546271,0.38024083,-0.5005855,0.08922016,0.08246923,-0.1483944,-0.39328796,0.55486786,0.034957416,0.024910279,0.57033426,-0.023850998,0.5807859,0.8986647,-0.30703646,-0.1236473,0.18201193,0.17948994,-0.49647442,-0.9751144,-0.2410447,-0.17997377,0.41527963,0.048328243,0.12305633,-0.3488778,-0.60756916,0.3221675,0.6943724,0.27273667,0.43393916,0.45175806,0.02310241,-0.26072788,0.45905665,-0.0010464686,-0.5593519,-0.264246,-0.45101553,-0.046185657,-0.30316484,0.84117985,0.025406338,-0.0715244,0.2911568,0.28631198,-0.2682175,0.74410504,0.2284504,-0.032353096,-0.72071856,-0.40586388,0.25808007,-0.5807202,-0.088117026,0.2320265,0.05522659,0.31409964,0.21390526,-0.43799677,0.14564423,0.8319241,0.36605543,0.33252063,0.2961051,-0.23154868,-0.29612368,-0.16075563,0.041704323,0.2785208,0.09377117,-0.45024312,0.36100438,-0.48128858,0.1798687,-0.35753202,0.13105795,-0.32408527,-0.45871782,0.24935839,0.24041146,-0.43560326,-0.014825404,-0.4456207,-0.17666098,0.17134215,0.38428178,-0.5589121,0.1080608,-0.39482683,1.105185,-0.22388884,0.06587114,-0.365767,0.24055825,0.15190643,-0.64491993,-1.2355496,0.047124326,0.42999718,0.5015389,0.32505912,-0.43731683,0.47827816,-0.145914,-0.22596118,0.7122004,-0.43997997,-0.2975023,-0.14663109,0.38029572,-0.031246215,0.08605738,0.58558154,-0.115861535,0.17127329,0.3892189,-0.34818354,-0.36917096,-0.29515213,0.38965732,0.8212571,-0.6352556,-0.74804986,0.19331989,0.38818195,0.10444549,-0.11777866,0.24157068,-0.15107597,-0.21132775,1.0709294,-0.4395352,0.10874607,0.9233442,0.7930097,0.31787252,-0.44984165,0.8992635,0.19888267,1.2357401,-0.7344123,-0.28559035,-0.35390118,-0.6745934,-0.14818445,0.05289218,-0.3681164,0.5156487,-0.014347065,0.3100191,0.12686452,0.11792888,0.23084275,0.52535456,0.18976606,0.28020465,1.6269711,-0.40243667,0.4865356,-0.39167553,-0.46676296,0.8593653,-0.23926786,0.56303626,-0.5670488,-0.6389688,-0.0049899947,-0.52948904,0.3861478,0.3775451,0.2652197,0.04597664,-0.10059212,0.66014886,0.6524885,0.51012903,-0.096626624,0.2496702,-0.08829116,0.04272106,0.13598624,-0.61554295,-0.025690086,-0.64627874,0.107884444,0.13648576,-0.577217,-0.2691129,-0.47763237,0.36330906,0.13796689,0.16336423,-0.8660786,0.059376016,0.2748653,-0.16928476,0.011774738,-0.65999436,-0.26619297,0.18705994,0.02827508,-0.23015279,0.062202334,0.8884839,0.41670668,0.90077233,-0.43376902,0.75818545,-0.30613244,0.0022403577,-0.14766404,0.20541064,0.5852193,0.22785442,1.18288,0.4119467,0.19064844,0.089824185,-0.69657207,-0.08651226,0.047910254,0.44729435,0.59510493,0.8747166,-0.5078223,1.1281915,0.09057432,0.37342694,0.09402589,-0.19368772,0.044469953,0.35500136,-0.1598137,-0.027896622,-0.28142715,0.22493559,-0.5337464,0.5054436,-0.034234032,0.4635219,-0.29987034,-0.25409234,0.13044679,0.870476,0.59466195,-0.018259518,0.024939053,1.0662316,0.05884134,-0.29585695,1.0204761,-0.8133971,-0.52563745,-0.69892335,0.049505644,-0.9264415,-0.51923335,0.48452848,0.28170955,0.35097125,-0.9756372,-0.25862345,0.13230237,-0.2767847,-0.26067644,0.24765243,-0.004452504,-0.20295285,0.07384989,-0.31589305,-0.44084603,0.33150017,0.15455753,0.082025565,-0.08035351,-0.27441713,0.5721246,-0.59892064,-0.06885323,0.5756355,-0.25930732,0.4523291,-0.091868944,-0.13532192,-0.4162216,0.6887976,-0.8689859,0.010585544,-0.05154862,-0.07945728,-0.40399745,-1.2485902,0.4547685,0.011296943,0.11248909,-0.5711423,-0.22492069,0.048986614,0.67475045,0.6022236,-0.3181932,-0.10251714,-0.49570566,0.1459513,0.43433666,0.28589943,0.67609876,0.14042452,0.3760895,0.30454293,-0.14006063,0.9103315,0.849156,0.2554935,0.02551894,1.5320026,0.028655032,-0.028257003,-0.5813255,-0.21070844,1.1374873,-0.058114987,0.17618959,-0.37139353,0.08782016,0.61302704,-0.80623025,-0.34513426,0.09314229,0.7041223,0.4159211,-0.19146569,-0.96674514,0.4423054,0.44420493,0.60742956,-0.5339982,0.85705197,-0.08957492,0.5812761,0.5678782,-0.34343004,-0.5919605,0.6841882,0.039254885,0.5488546,0.37246412,1.0893588,-0.38023877,0.19096653,-0.29534864,0.25448072,-0.3186209,0.12912326,0.35898662,-0.67142034,0.1418874,0.16962957,-0.5441674,0.35497347,0.74781156,-0.21525404,0.27065784,0.28445017,-0.10613033,0.30005366,0.674683,0.03350225,0.43610507,-0.76367563,0.6484406,0.111898795,1.0361791,0.09505682,0.20810638,-0.04879331,0.33847645,0.08281451,0.008537561,0.35621077,0.0038066474,-0.6131911,0.9031428,0.23898345,-0.21577683,0.048658513,0.20247862,-0.32625628,0.26215115,9.332991,0.1351455,-0.06828167,0.545413,0.34670633,0.03155701,-0.31355232,0.08499566,0.42550567,0.3744763,-0.059217904,0.8818645,-0.9151923,0.3212666,0.18404183,0.016174747,-0.8719826,-0.035638962,-0.2469537,0.39835978,-0.4879068,0.16677722,0.2359926,0.48036474,-0.83895046,0.33343175,1.1269128,-0.670303,0.18218605,0.45812905,-0.56449544,1.4026734,-0.43943775,0.34555757,-1.0958447,-0.59103155,0.5096971,0.43119723,0.5987792,-0.6472667,-0.15616713,0.008682743,0.22121938,0.12064828,-0.4728591,-0.75292593,-0.10596508,-0.39451915,0.18789932,-0.27073818,-0.05527093,0.08614448,0.73339915,-0.51997226,0.4246737,-0.3473768,0.52287865,-0.67964673,-0.5631211,-0.50993365,-0.34748378,0.62463003,-0.02723367,0.10964294,-1.1149454,-0.31817538,0.08079815,-0.3120199,-0.6038218,-0.19088823,0.16605775,-0.28671953,0.14164838,0.033955317,-0.23080866,-0.4576651,0.33669546,0.08762789,-0.12000266,0.46186897,0.61103445,0.32459253,-1.3199209,-0.59031147,0.1630546,-0.09440216,-0.21506701,-0.16937064,0.90439224,0.36484957,0.24147362,-0.095196806,0.09587392,0.063280754,0.3903917,-0.025931962,-1.0767912,-0.23242474,-0.031087343,-0.95660347,-0.66156,0.009582235,-0.01017095,-0.27126992,0.48667634,-0.43583938,0.9028371,0.02546225,0.20050997,0.11140546,0.22429739,-0.5065616,0.554205,0.39303303,0.7545393,0.43518195,0.19711445,0.33960164,-0.3665292,-0.11718175,0.14699002,0.4600918,-0.7462205,-0.06108244,-0.52085805,0.056055028,-0.09734274,-0.20491678,0.06687135,-0.004741758,0.4140128,0.37432373,0.1392975,0.70602393,0.08264484,0.31551117,-0.57596993,0.42609176,-0.33196732,-0.63671505,-0.25674284,-0.80309033,-0.105703056,0.48440123,-0.9003191,-0.5500287,1.0284085,-0.59368026,0.7125705,-0.44603777,0.28131586,1.2591039,-0.62580353,-0.75341403,0.38188452,-0.19520994,0.5453339,0.06392341,-0.15863657,-0.52020967,0.3544172,-0.6479634,0.21719216,0.3066218,0.014008788,0.3064219,0.17378597,-0.3901429,0.37108037,0.021600835,0.027444938,0.22467023,0.16286837,0.1926736,0.018294461,0.41091266,-0.66806126,-0.42943627,-0.20053737,-0.43594345
com.rafsan.inventory.controller.login.LoginController;1;0.5386101,0.73849744,-0.5201864,-0.6827693,-0.43869534,-0.3590621,-0.094826624,-0.026162691,-0.23181637,0.17264047,-0.7330948,0.7230698,0.39202803,0.18386768,0.8395611,-0.07674908,-0.67789924,-0.76271075,0.5109657,-0.62343466,-0.27889484,-0.02145097,-0.2823648,0.95688635,0.09752712,0.30203354,-0.39457807,0.2747044,1.0323658,-0.33129445,-0.6808273,-0.3385625,0.58242303,1.2363425,-0.286156,-0.06590465,1.0658464,-0.67571676,-0.39812273,1.1353812,-0.1580244,1.1348242,-0.068350896,-0.20421079,-0.15512131,-0.9099103,0.20106736,-0.12532708,-0.19374968,0.20683274,0.0031163502,0.23129301,0.79154617,0.2816878,-0.10610896,0.6870618,0.8726666,0.26800364,1.2058036,-0.6563086,-0.83017546,-0.19622391,0.34762967,-0.3533067,0.3089854,-0.7051723,0.21564938,0.35659543,0.3810439,0.04204184,-0.44498512,0.4683016,0.081554264,0.27770725,-0.29223093,-0.027177302,-0.4313182,0.647421,-0.45502645,0.5921345,0.31145304,-0.30154023,2.514892,0.71113396,-0.73323995,0.4625329,0.17513894,0.28631416,0.23040342,-0.33791938,0.50848484,0.6455556,-0.43340826,-0.3027933,-0.34569138,0.7282946,-0.48774773,-0.10339321,-0.48905146,0.5622093,-0.35186502,-0.27333733,0.69623286,-0.18225953,-0.63868874,-0.28177074,-0.3300496,-0.56421864,0.16853164,0.6372347,-0.8491648,-0.30106747,0.30842677,0.7695726,-0.31969038,0.09804452,-0.55331504,-0.072045915,0.31552678,-0.6082517,0.8556031,-0.30563402,-0.74548066,0.9037005,0.8321816,-0.25142294,0.5865625,0.3331815,1.3520577,-0.6968651,0.5207775,-0.32093176,-0.12460554,-0.3690709,0.9998626,0.72774863,0.7588341,0.1326144,-0.33668646,0.5310381,0.43797195,-1.4469888,0.54523087,-0.7836654,1.1827011,0.6716512,0.4045748,0.2620916,-0.43724072,-0.74086773,-0.086873725,-0.33105978,0.08876479,-0.36811808,0.55292314,1.7262952,0.6761117,1.3433223,-0.32729256,0.137038,0.5764876,-0.25803363,-0.3831062,0.052338045,0.25035232,-0.33553398,0.18460561,0.9103116,-0.87759256,-0.46534383,-1.1501288,1.1779387,-0.7636657,0.25832242,0.19874422,-0.577178,-0.55994475,-0.20238844,-0.78204685,-0.13589998,0.34078944,0.13249843,0.057521135,-0.0055283867,-0.4123555,-0.64470375,0.18060605,-0.23482668,0.88190544,-0.12914464,-0.19639342,-0.21503109,-0.14205386,-0.25937656,0.5733903,0.98043203,-0.2074963,0.32112786,0.5976118,0.4389868,-0.38994536,0.42926106,0.44357988,-0.09482519,-0.6246637,0.50757706,0.03172543,-0.09116545,0.5822978,-0.19973534,-0.008768104,1.0048892,-0.50800717,-0.27846676,0.3712532,0.29201087,-0.53915507,-1.6306074,-0.2860792,-0.51309556,0.7961366,-0.09588851,0.0050210804,-0.23486489,-0.89390564,0.7166781,0.6388528,0.4531002,0.6925922,0.5774195,-0.19369626,-0.44312108,0.23124412,-0.068808176,-0.59694785,-0.5669726,-0.819276,-0.12476381,-0.030642912,1.48544,0.32173333,0.17111263,0.18646368,0.40758008,-0.53716093,1.0636241,0.28423035,-0.031929985,-1.0892093,-0.32913572,0.29111895,-0.4465682,0.124322906,0.29333574,0.29306144,0.031417582,0.11913281,-0.64134526,0.020548977,0.5647706,-0.015742384,0.39966726,0.564627,-0.24494874,-0.3417303,0.20215483,0.44028884,0.61290914,-0.5843071,-0.39883006,0.27362576,-0.3990163,0.50875163,-0.6234805,0.45975015,-0.52050817,-0.7756821,0.29163137,0.80336064,-0.4953089,-0.006911576,-0.8715527,0.1435276,-0.013414394,0.6456635,-0.5758029,0.083451465,-0.01054601,1.4834188,-0.6461728,-0.10077638,-0.33709928,0.16554093,0.23983201,-0.49700686,-1.2485884,-0.15384951,-0.41110724,0.619732,0.26452154,-0.62390494,0.1937822,-0.06036892,-0.7105871,0.9335353,-0.21544006,-0.32446212,-0.17903125,0.75515586,-0.22349098,-0.2248717,1.0157313,0.0070758685,0.5904984,0.4305062,-0.69106513,-0.32386875,-0.14919713,0.3726588,1.1826642,-0.9223978,-0.8468609,0.34181318,0.88754994,0.13763452,-0.2535509,0.096708484,-0.25096053,-0.07678028,1.1910316,-0.40892172,0.11443265,0.58982486,0.7798861,0.5119438,-0.6202301,1.1355596,0.4755006,1.5334618,-0.59298223,-0.4125324,-0.3355121,-0.8707148,-0.08356123,0.005613639,-0.52592134,0.42146516,0.09936281,0.09605366,0.14566055,0.30615383,0.64590275,0.8644059,0.44966662,0.18434167,1.4852027,-0.7626753,0.74569,-0.14400506,-0.4556501,0.91448015,-0.41444206,0.9254349,-1.4518778,-0.90141475,0.3840568,-0.7216039,0.19659215,0.14228547,0.25837645,0.26553714,-0.081474125,0.9075599,0.8831961,0.6033875,0.34595367,0.6163433,-0.34773326,-0.37641922,-0.19427298,-0.40403152,-0.19508894,-0.997624,0.042731468,-0.048313227,0.018302813,-0.63393533,-0.600968,0.033796676,0.2582589,0.75686944,-1.3477824,0.14551383,0.50471544,-0.090432,-0.14288622,-0.4476953,-0.60537475,0.6099453,0.5243059,-0.22790603,0.32027513,0.7925159,0.61515045,1.2202609,-0.43592942,0.77217567,-0.4206478,-0.13469668,-0.15669727,0.0726918,0.055413425,0.40651074,1.6281776,0.47837257,0.066554226,-0.2935441,-0.9159758,0.27458462,0.52844363,0.21183304,0.2932621,0.7743239,-0.97141343,1.1710076,0.057224244,0.4606318,0.28041157,-0.28997308,0.09119837,0.33336967,-0.15194589,-0.012389223,-0.2206877,0.3828292,-0.51563805,0.829131,-0.30692965,0.55812967,-0.4106514,-0.48437542,0.1724644,0.8502208,0.8986262,0.30593416,0.16215482,0.9140506,-0.22784755,-0.032496393,1.2508994,-1.2272912,-0.8067136,-1.0468587,0.12592462,-1.2502669,-0.3614084,0.4025913,0.21965834,0.7234286,-1.5977573,-0.42609742,-0.13975602,-0.5481773,-0.22184709,0.5328455,0.053192757,-0.12052277,-0.32627124,-0.36568373,-0.25842655,0.67359996,-0.08885237,0.24651335,0.113545224,-0.41641596,0.4740175,-0.6464243,-0.5255429,0.85286593,-0.7505202,0.48250473,-0.0022344813,-0.0449429,-0.27345225,0.4269971,-1.3195481,-0.32692093,-0.06515689,-0.11867264,-0.4747435,-1.3155042,0.6549271,0.11947334,0.3050388,-0.50930786,-0.07578612,0.48451006,0.8311355,0.9907675,-0.6613503,-0.0019926429,-0.8610234,-0.037960984,0.27339625,0.31384486,0.9813708,0.10360999,0.44975033,0.2193175,-0.28736132,0.9449418,1.2716038,0.07864919,0.037889257,2.0527744,0.05975017,-0.50241476,-0.5548156,-0.023905106,1.0959458,0.19452721,0.37366804,-0.34461424,-0.42535394,0.46062493,-1.0433149,0.15460055,0.35721335,0.79248446,0.660421,-0.16899094,-1.2277415,0.14769284,0.16900635,0.85282326,-0.5406685,0.93284965,-0.024383282,0.7071267,0.45665807,-0.3412131,-0.5395387,1.0493593,-0.20439044,0.59657013,0.08841737,1.440296,-0.3035858,0.45870087,-0.5764185,0.27509338,-0.4822039,0.15874346,0.11070032,-0.8054476,0.17188685,0.19703087,-0.76321495,0.06442034,0.84240496,-0.23790616,-0.13440123,0.28107306,-0.24676116,0.26624727,0.7850436,-0.5870836,0.8173263,-0.80405796,0.8737508,0.8197545,1.227031,-0.08970982,0.057098545,-0.28842637,0.15924264,0.21048225,-0.09853308,0.29223624,0.005663663,-0.8745668,0.7493286,0.35998857,-0.34311798,0.4146616,-0.25530598,-0.6937098,0.5664032,8.667167,-0.17032707,-0.44889975,0.5886349,0.113780156,0.048788194,-0.11838817,0.63579977,0.58405644,0.012159891,-0.1441461,1.0679448,-0.8590588,0.6595671,-0.054469503,0.18571648,-0.82117444,-0.03823492,-0.43264145,0.45230654,-0.9594409,-0.06852799,0.34492713,0.71139514,-1.0289071,0.76043445,1.1818763,-0.91982186,0.68739146,0.6142071,-0.73902655,1.7357723,-0.6453079,0.3739284,-1.458139,-1.1884769,0.52599514,0.31842154,0.7477376,-0.5520798,-0.1046032,0.13882606,0.19144154,0.52455497,-0.6646283,-1.1083974,-0.2418458,-0.120852605,0.14365241,-0.39263222,-0.5428206,0.06942358,0.5120416,-0.49362144,0.69621116,-0.3327075,0.57855994,-0.91318566,-0.9178835,-0.6990795,-0.15398681,0.5003818,0.37871894,0.6746391,-1.1168692,-0.40474272,0.25422475,-0.19684646,-0.9608268,-0.65685433,-0.17256641,-0.32749304,0.40969965,-0.10697891,-0.28681082,-0.8173781,0.38789597,-0.024126515,-0.506081,0.2900151,0.6659347,0.23053257,-1.3378619,-0.17427786,0.3701292,0.33195347,-0.3763138,0.06935347,0.9015068,0.290825,0.73792464,0.010667749,0.4609496,0.32034,0.8473845,-0.1613898,-0.9092933,-0.038024336,-0.21393774,-1.1251279,-0.8783991,-0.19367239,-0.42585838,0.010738941,0.7483106,-0.35327554,0.36260802,0.0910907,0.5351393,0.12784408,0.7493581,-0.05815548,0.48840111,0.4540301,0.5625335,0.49592078,0.38282517,0.2549226,-0.5476224,0.057052583,0.0982738,0.27688393,-1.0511676,-0.24327305,-0.6063652,-0.18421032,-0.24197803,-0.22867206,0.013560444,0.045340274,0.5757232,0.42897326,0.3111534,-0.045256108,0.07624407,0.19631745,-0.53078586,0.4313584,-0.2169171,-0.81222785,-0.23335294,-0.93134534,0.22989912,0.83199286,-0.736707,-0.9384872,1.2311034,-0.9863549,0.44369212,-0.44768387,0.36692414,1.4897836,-0.5887409,-0.69312346,0.31191957,-0.2174332,0.54169285,-0.3404166,-0.31778637,-0.29861367,0.38650665,-0.9042814,0.082557954,0.3723579,0.3340537,0.36110687,0.2823896,-0.5809874,0.47651654,0.12265821,-0.14254887,0.25867847,0.3175857,0.3051188,-0.3255725,0.3298354,-0.62184155,-0.67413026,-0.094330505,-0.9392128
com.rafsan.inventory.controller.pos.ConfirmController;0;0.8109447,0.66143656,-0.48739913,-0.88140666,-0.44836518,-0.4228186,-0.39750743,0.12759939,-0.31145918,0.09514625,-0.7159686,1.1450945,0.6119248,0.025812477,0.9570091,0.17259067,-0.655337,-0.9824042,0.6063252,-0.69788826,-0.44033703,-0.2807767,-0.061145782,0.76878166,0.40904754,0.18015802,-0.23495486,0.35070726,0.6203976,-0.10987844,-0.8214774,-0.2570809,0.7369019,1.1295412,-0.31436092,-0.13251013,1.2245822,-0.5778306,-0.47580618,1.3113701,-0.15179822,1.1315365,0.051874608,0.15712684,-0.020828009,-0.87233466,0.25584275,-0.15514736,-0.1786523,-0.11378364,-0.19620644,0.29201093,0.43335772,0.4843895,-0.14087485,0.9599777,0.8179931,0.025609631,0.8697531,-0.52327996,-1.1337988,0.01358635,0.5995176,-0.14389338,0.74833536,-0.6732534,0.42618924,0.8662089,0.32906172,0.0050075054,-0.41094458,0.41490704,-0.36165875,0.055347383,-0.42280644,-0.1442909,-0.3281263,0.8656323,-0.26110435,0.32409072,0.18670365,-0.11357696,2.296565,0.712168,-0.687397,0.4710672,0.11778682,0.22321668,0.15351056,-0.115401275,0.9174521,0.8701438,-0.5515733,-0.2099616,-0.4562837,0.59637344,-0.5575444,-0.25557357,-0.19340882,0.6032674,-0.25033638,-0.1174895,0.63357174,-0.54426014,-0.78042305,-0.43717095,-0.10201803,-0.48401785,0.20096996,0.69791317,-0.4816656,-0.12187198,0.38375062,0.87917364,-0.24500816,-0.054999277,-0.65298766,0.0776245,0.5271406,-0.9563258,0.550724,-0.4529211,-0.9099696,0.84350944,1.0547056,-0.05225703,0.40348437,0.41962156,1.4683539,-0.61146796,0.31995317,-0.65400743,-0.15540293,-0.4914961,0.7192795,0.7170663,0.6521261,0.045633703,-0.3778302,0.48435307,0.26972258,-1.5811245,0.5294234,-0.8471111,0.9369034,0.74952114,0.5259962,0.22740111,-0.48353136,-0.6596255,-0.13626471,-0.42416507,0.45701632,-0.57868785,0.48124397,1.3956512,0.2868977,1.2132853,-0.5491313,-0.2271032,0.5020591,-0.6503952,-0.05577525,0.051951215,0.31571674,-0.20943366,0.4803095,0.9536886,-0.63673544,-0.34881586,-1.3021764,1.0656047,-0.79324996,0.3970246,0.20431466,-0.62600577,-0.47889104,-0.32278842,-0.8445705,0.16283736,0.3705234,0.10943491,0.0073947012,-0.10362351,-0.7863723,-0.4988194,0.24275656,-0.30290204,0.878649,-0.6806351,0.03481225,-0.026694477,-0.18684506,-0.11898531,0.37855124,1.1324086,-0.33043954,0.41550022,0.995734,0.17484412,-0.12873292,-0.107332356,0.33587867,-0.24168171,-0.7521919,0.6748984,-0.18156007,0.22366352,0.770422,-0.09053667,0.35817492,1.2689333,-0.5918617,-0.14015728,-0.058080778,0.44123617,-0.5371682,-1.4709882,0.034729533,-0.58901465,1.1755037,0.028509825,-0.04805664,-0.16036226,-0.8163729,0.69035625,0.84310305,0.6418765,0.37701192,0.7056445,-0.024676688,-0.33259365,0.5404612,0.055034503,-0.958075,-0.6384411,-0.7358855,-0.032587588,-0.0045823157,1.5251893,0.093454495,-0.08609999,-0.0053124875,0.41996396,-0.7095899,0.88992345,0.274616,0.06227395,-0.9377377,-0.47702196,0.43122303,-0.68115044,0.21244287,0.29869252,0.3191971,0.25378147,0.12550557,-0.71784145,0.03727117,0.9408568,-0.15436654,0.5979348,0.6049263,-0.6627971,-0.25387007,0.47587013,0.21285015,0.60739493,-0.0865576,-0.32810706,0.30377725,-0.21021579,0.40179014,-0.46557203,0.28197694,-0.5284391,-0.9212208,0.44380468,0.54226315,-0.5813165,0.1321201,-0.779551,0.10734469,0.41269085,0.81921685,-0.55204076,-0.054983646,-0.13599122,1.606846,-0.6364664,-0.09034163,-0.6420571,0.4260428,0.32453987,-0.73077583,-1.442333,-0.13593958,-0.3929164,0.87167037,0.35074252,-0.80321723,0.29567808,-0.13232188,-0.8963573,1.1141089,-0.032248676,-0.47076473,-0.25000617,0.7279856,0.116323434,-0.20268407,0.9918456,0.024701983,0.5269192,0.6733315,-0.45011467,-0.24393299,-0.028631896,0.3656253,1.2625242,-1.2179248,-1.0310423,0.23176694,0.9728025,0.4116066,-0.23242667,0.05875002,-0.7125899,-0.18257496,1.0961825,-0.1535031,0.06113611,0.63072276,0.7330508,0.58365506,-0.7280288,1.3077705,0.16749012,1.5519812,-1.1076503,-0.56413126,-0.66132176,-0.9397696,-0.079181165,0.05737482,-0.59335816,0.6007903,0.058599405,0.46844602,0.1926547,0.47240058,0.28874356,0.98894596,0.38509056,0.08516522,1.901938,-0.7340838,0.9088659,-0.32479,-0.3182033,1.1915207,-0.5468567,1.062236,-1.3165658,-0.73036504,0.08021969,-0.85246825,0.28517088,0.42779833,0.13581838,-0.086523965,0.20475653,0.8044647,0.97294706,0.5791924,0.30275914,0.45796162,-0.59534734,-0.40932718,0.14877105,-0.2349489,-0.2874575,-1.0484655,0.23825818,0.22643077,-0.51513886,-0.89324236,-0.45661265,0.24504256,0.31403017,0.6060778,-1.5691762,-0.0555636,0.4104496,-0.05910618,-0.26183525,-0.46283165,-1.0594413,0.67953354,0.17588075,-0.38460898,0.28037357,1.1165407,0.5952167,1.0883017,-0.4025486,0.70636857,-0.21975286,0.07228041,-0.14218026,-0.06348625,0.34543478,0.447626,1.5586332,0.4559481,0.09405165,-0.31710994,-0.7998277,0.2874114,0.42208278,0.029565565,0.6154488,1.1128738,-0.9402965,1.3444575,0.012385368,0.2061997,0.34312403,-0.49192768,0.28331524,0.34747267,-0.32093787,0.012684584,-0.7169556,0.038658373,-0.51097405,0.9025031,-0.12411741,0.57340807,-0.1812878,-0.52196014,0.056732304,0.8053259,0.88082176,-0.03612312,0.20026913,1.2453433,0.100543596,-0.3006847,1.4819428,-1.2622436,-0.9973089,-1.1429191,0.39276466,-0.8784087,-0.61064404,0.49804938,0.2521217,0.6410527,-1.3996267,-0.3849908,-0.45707774,-0.5744203,-0.3228404,0.7521944,0.009007461,-0.27515003,-0.3306572,-0.6553815,-0.3472297,0.5516579,-0.28636262,0.55598223,0.16719876,-0.26175135,1.0015064,-0.71217084,-0.3838132,0.7021965,-0.64323926,0.90502846,0.015919104,-0.20701872,-0.55274653,0.72645175,-1.417722,-0.19120346,-0.15457538,-0.102881104,-0.31672132,-1.3706757,0.63873416,0.099221006,0.2508805,-0.68334794,-0.41736382,0.49520564,0.88680565,1.1191311,-0.6354953,-0.051667746,-0.72256136,-0.415362,0.4735663,0.19407968,0.84837914,0.06798421,0.5275389,0.4314444,-0.51562077,1.002161,1.2857997,0.062489063,0.12969954,2.002493,-0.0065157674,-0.1858478,-1.0448399,0.06578263,1.4121883,0.048965275,0.57749355,-0.39382306,0.055668633,0.51671463,-1.252125,0.15998985,0.42547232,0.64899135,0.7719227,-0.21313387,-1.0931983,0.24638101,0.31158724,0.69732535,-0.6688825,0.974532,-0.038711555,0.76444024,0.5270806,-0.22355536,-0.3374571,0.9713522,-0.056853447,0.43484563,0.2925426,1.6019037,-0.43862557,0.5081553,-0.41859454,0.49089378,-0.70832074,0.2871811,0.24944869,-0.97711396,0.17796862,0.33366382,-0.9089774,0.23798378,1.046919,-0.20530768,0.03416217,0.22445513,-0.35741764,0.66790926,0.95153123,-0.42822632,0.55716944,-0.9068619,0.6815414,0.34894255,1.1367524,0.20765373,0.07180205,-0.39849186,0.31063515,0.025637511,-0.067642644,0.3295111,0.041738898,-0.75688654,0.96128094,0.10401374,-0.4154888,0.32918477,-0.17320983,-0.3810072,0.5434085,7.922397,0.016806498,-0.21389201,0.75450647,0.4120098,0.027891703,0.08291985,0.38421646,0.65926194,0.27278304,-0.60513306,1.3158427,-0.65669125,0.6336119,-0.027615953,0.33874214,-0.8808845,0.034485124,-0.5580565,0.38032198,-0.68750113,0.021266267,0.7004145,0.39601925,-1.2099522,0.9573939,1.2722397,-0.8733503,0.5176089,0.532475,-0.8833399,1.8664323,-0.6185198,0.6308359,-1.741318,-0.91809154,0.62198573,0.3631094,0.81044847,-0.5803964,-0.06535763,0.25225383,0.087157175,0.16594847,-0.98648417,-1.1763393,-0.2010134,-0.3412453,-0.0047447495,-0.4152735,-0.5471734,0.055212323,0.8647859,-0.42731625,0.62505424,-0.6938112,0.6451695,-1.0069312,-0.8545264,-0.8529005,-0.08705349,0.34391892,0.5009053,0.49422514,-1.2484325,-0.39961848,0.15554662,-0.38797694,-1.1427627,-0.7530605,0.1725274,-0.31122395,0.4191384,-0.055524617,-0.69822997,-0.8950473,0.5597638,-0.23333502,-0.33013192,0.28435203,0.80458415,0.53108466,-1.5241408,-0.4361298,0.39940178,0.30216682,-0.19845605,-0.061866105,1.0671767,0.30596793,0.88495624,0.03331911,0.2246516,0.04297885,0.54607373,-0.1615156,-1.1017996,6.7949295e-05,-0.02127996,-1.2997534,-1.0064842,-0.2499699,-0.28510422,0.14008574,0.9307548,-0.35847396,0.64696157,0.067984134,0.46998572,0.22508381,0.36465394,-0.19921818,0.7467694,0.17137055,0.51072824,0.5820383,0.5652926,0.38883242,-0.7301496,0.36916614,0.30807003,0.49608263,-0.8694645,-0.23277658,-0.75640786,0.041035198,-0.2075166,-0.021576349,0.23915559,-0.12451931,0.79062843,0.5893131,0.3146758,0.14013572,-0.07944087,0.30618975,-0.70532334,0.8375796,-0.5210626,-0.90923405,0.20704165,-1.1287713,-0.046829324,0.7259723,-1.0487111,-1.1057177,0.83394253,-1.2406647,0.38791314,-0.23008454,0.22663322,1.751371,-0.9032451,-1.0677471,0.38376027,-0.16010804,0.3659618,-0.45456022,-0.22610171,-0.4608259,0.20518692,-1.0382586,0.26832366,0.3035492,0.3285718,0.19131395,0.4689975,-0.8283228,0.3983716,-0.0062294975,0.09457865,0.36174703,0.45518085,0.15505004,-0.27500308,0.52469295,-0.72189784,-0.69106096,-0.07202375,-0.8553463
com.rafsan.inventory.controller.pos.InvoiceController;0;0.08884113,0.582633,0.36833504,-0.23997565,0.14778905,-0.09405909,0.02323401,0.259359,0.36088136,0.16618338,-0.46279278,0.37924188,0.3783328,0.55075175,0.5325023,-0.1422279,0.13949007,-0.41219774,0.66191375,0.0055592777,-0.33055308,-0.3152233,0.3897235,0.40021458,-0.01547612,0.43347996,0.44392523,0.2374074,0.11611724,-0.5363754,-0.35093004,-0.09783332,0.54475987,0.23267333,-0.10809342,-0.18499136,0.6405126,-0.27989697,-0.4505391,0.29244962,-0.09153325,0.48391876,0.2815343,0.090023935,-0.10897195,-0.08320185,0.14808097,0.39701322,-0.2100254,0.3277495,-0.21219897,0.44675422,0.20328121,0.14047314,-0.2664489,0.47001988,0.61766845,0.4543635,0.2756804,-0.36225596,-0.7683051,-0.01890635,-0.06314691,-0.57413495,0.29538375,-0.417334,0.15996858,0.23970802,0.18498102,0.07100796,-0.8525218,0.186062,0.03468428,-0.17230724,-0.2572644,-0.11175696,-0.52816635,0.46092662,0.21845222,0.36721092,0.26423636,-0.36766723,1.7376316,0.46106187,0.09042485,-0.0582199,-0.026164737,0.3036383,0.24349102,0.20032302,0.9105094,0.6152022,-0.04332178,-0.23220119,-0.7405585,0.53325075,-0.28125885,-0.024011249,-0.14643517,0.05557419,-0.44996873,-0.41232976,0.0780447,-0.3244429,-0.47051477,-0.03282438,0.08101907,-0.38300043,0.6863946,0.2855889,-0.3666106,-0.4657918,0.2833277,0.28416663,-0.13612318,0.17964342,0.3514127,0.14080203,-0.39576727,-0.60248893,0.15373638,0.038993143,-0.6610992,0.36478013,0.65948,0.5397054,0.02398001,0.6025261,0.63005096,-0.0670676,-0.07038172,-0.76060873,-0.19038527,-0.29745874,1.2196516,0.32387844,0.56249106,0.11127869,-0.0033529818,0.20442109,0.26079553,-0.4891591,0.4612805,-0.5504336,0.76957625,0.6121861,0.2740445,0.75877863,-0.14646105,-0.47411832,-0.089880005,-0.040713303,0.21702114,-0.418217,0.625331,1.1479613,0.50331056,0.59591836,-0.46511856,0.17182449,0.44101644,0.11655191,-0.16939361,0.12000334,0.34579456,0.17326011,-0.0647995,0.5076068,-0.08094996,-0.28047833,-0.3975725,0.63595873,-0.45934257,0.27652067,-0.1811551,-0.3485175,-0.42800075,-0.13051018,-0.4815463,0.17184594,0.62890816,-0.105029985,0.2586905,0.3972194,0.09220471,-0.41384092,0.1944989,-0.1291309,0.13770123,-0.3076027,0.095153145,-0.3676111,0.05856877,-0.22682068,0.2256668,0.51304233,-0.1370651,-0.102676824,0.49854547,0.54011744,-0.4804725,0.09784712,0.14924163,-0.48517165,-0.21787205,0.1501413,0.0020650446,0.080384806,0.2567266,-0.44836769,0.4221367,0.26135427,-0.13434741,-0.022692125,0.4041024,0.14494865,-0.2157828,-0.5589787,-0.29577675,0.07075482,0.07534119,0.029288039,0.055351317,-0.33770895,-0.66842747,0.31654125,0.58589137,-0.15799345,0.004236692,0.56756973,0.32835907,-0.116724014,0.43017793,-0.00056032464,-0.11173061,-0.03796432,-0.58317757,0.036546357,-0.49003989,0.2581849,-0.105807975,0.13923202,0.5204948,0.48857418,-0.15155846,0.5896052,0.3279462,-0.6027854,-0.404862,-0.53233284,0.15481415,-0.6570361,-0.24848,-0.25166148,0.45715308,0.3568539,0.13743684,-0.14948049,0.011799311,0.57571805,0.3935923,-0.12721403,0.07624145,0.21712708,-0.41246668,-0.5316688,-0.06876596,0.22441582,0.50535417,-0.38135093,0.3398335,-0.48301625,-0.17955771,-0.43760854,0.23432402,0.10994588,-0.57446146,0.20336655,0.045746665,-0.28031668,-0.19356097,-0.07421587,-0.587216,0.45053372,0.10617982,-0.37970865,0.019282203,-0.19661042,0.80026066,0.01568992,-0.25172642,-0.18471114,-0.1170357,0.09819545,-0.2793395,-0.7374526,0.14412895,0.7739919,0.4929823,0.26390585,-0.4370739,0.44385934,-0.0933396,-0.17666203,0.41685694,-0.44833025,-0.17471929,-0.4358824,0.33574092,-0.10371722,0.0070426674,0.19398932,-0.38291663,0.15987465,0.30481997,-0.21012425,-0.60244566,-0.37699252,0.4152956,0.33352783,-0.4429842,-0.5023848,0.09663707,0.54795605,0.19170964,-0.23310506,-0.18684536,0.17321518,-0.11964154,1.2903064,-0.5595808,0.22160533,0.5409218,0.5096919,0.283025,-0.32149956,0.29787046,0.43980375,0.84937555,-0.57580554,0.09990795,-0.25053602,-0.6383626,0.06499929,0.12420493,-0.2512776,0.315717,0.33406442,0.16143224,0.1281594,-0.117259644,0.13587144,0.17595117,0.013801682,0.17983225,1.5074811,-0.18745823,0.14958438,-0.2598053,-0.57723653,0.75060326,-0.20193362,0.37421077,-0.44281715,-0.54954815,-0.66772354,-0.22354054,0.37841803,0.09083597,0.43486977,0.05241976,-0.10420905,0.6013462,0.36518237,0.32388824,-0.2453871,0.47697744,-0.09421663,0.19211103,0.11820334,-0.5431288,-0.1901817,-0.26264307,0.055573177,0.28829348,-0.51957864,0.07306671,-0.16576785,0.06147054,-0.106137775,0.18093625,-0.58252245,-0.1580801,0.46596512,0.19100232,0.010284906,-0.2078001,0.7637335,0.023297727,-0.2471246,0.06785866,-0.49494958,0.8049966,-0.36442694,0.7193464,-0.43707997,0.15733711,-0.19303735,0.21822178,-0.20433834,0.4161417,0.15174909,0.19341278,0.78282213,0.14887142,0.32737657,-0.19538835,-0.47366595,0.039208047,0.24972042,0.7704203,0.52476186,0.8662447,-0.21466728,1.0458777,0.5371476,0.24513456,-0.021722833,-0.016390676,0.12473333,0.38034356,0.042774905,-0.31420216,-0.2767414,0.03808675,-0.600772,0.28169036,0.22425687,0.50490236,-0.039875057,-0.058935482,0.3349577,0.61437565,0.574763,0.29613015,0.113367535,0.81336707,-0.010038132,0.1362966,0.78810346,-0.5157293,-0.24608329,-0.454243,-0.121727124,-0.96462077,-0.42420325,0.43138027,-0.20053951,0.060223855,-0.6491786,-0.43393,0.35583848,-0.09354411,-0.10163643,0.19881578,-0.045575827,-0.2346262,0.21777561,-0.20753868,-0.3130437,0.2344758,0.23814932,-0.41944256,-0.48091334,-0.32331166,-0.25225693,-0.4254319,0.34512764,0.23620375,-0.44406676,0.17308903,-0.038039766,-0.15206473,-0.06022073,0.71250564,-0.38436636,0.21782425,-0.043022364,0.082540765,-0.4305715,-0.90796757,0.3012065,0.03157094,0.1931647,-0.48536062,-0.1068355,-0.29097748,0.54741246,0.30435705,-0.19849554,-0.16011111,-0.30590692,0.51554334,0.105619475,-0.032424428,0.7969269,0.34208733,0.11822035,-0.027170962,0.10522795,0.5754468,0.33391133,0.22630759,-0.25488973,1.275047,-0.37316087,-0.022879869,-0.46323794,-0.18835804,0.92523634,0.08397936,-0.01277363,-0.3601214,-0.05604695,0.14088742,-0.51772106,-0.6604986,-0.015314991,0.80136585,0.087388694,0.09913563,-1.0507734,0.37878814,0.37862247,0.15371186,-0.3898365,0.8133405,-0.2597877,0.48202252,0.04526288,0.15206382,-0.7178394,0.4261902,0.18371722,0.92993814,0.501821,0.42544127,-0.29859638,-0.0042711617,0.18819752,0.19281654,-0.15056774,-0.20364575,0.29446998,-0.40420118,-0.05662805,0.06049011,-0.29795924,0.21758814,0.7214017,0.3339892,0.18767925,0.18232585,0.06223483,0.31764477,0.6247488,0.23807009,0.2307219,-0.9221218,0.07035849,0.31538486,0.6269795,0.30741525,0.22329505,0.21949276,0.16672544,0.3200232,-0.19409561,0.64457977,-0.36067337,-0.28727126,0.76807487,0.390086,-0.2608986,0.08173218,0.35270867,-0.29881746,0.12970157,11.2781515,0.41376233,-0.03393236,0.40967932,0.47534698,0.052780777,-0.4324417,-0.44171023,0.16347526,0.392388,0.022976339,0.62584853,-0.60738516,-0.19249061,0.056029536,0.026856054,-0.48386803,-0.13178648,-0.16694471,0.031837065,-0.19123268,0.48288733,-0.25793642,0.37438577,-0.67301387,0.15337947,0.9316161,-0.4708783,0.30866218,0.32501164,-0.43990937,1.1166723,-0.5598577,0.14338514,-0.49317154,-0.48137245,0.42200747,0.14824793,0.47186232,-0.23763514,-0.042771675,0.03813802,0.38449007,-0.077714264,-0.35162753,-0.20660481,-0.019642936,0.06775789,0.009016004,-0.41998634,0.30566043,-0.24338035,0.6574325,-0.52371466,0.3180408,-0.12315039,0.700153,-0.57361925,-0.011120057,-0.12368421,-0.044010125,0.7488798,0.3107988,0.2377474,-0.8846111,-0.24380982,-0.086808406,-0.3285926,-0.34633026,-0.33053178,-0.11935458,-0.22846822,0.23230939,-0.21914549,0.02850039,-0.45759025,0.23201337,0.31536135,-0.13496062,0.44175214,0.49956217,0.18075082,-0.8888593,-0.5899714,-0.02003912,-0.15147777,-0.41178614,-0.30388963,0.78222764,0.046975713,0.033878755,-0.19436388,0.1653638,-0.015079981,-0.35457867,-0.0022102073,-0.5365838,-0.31774598,0.41766447,-0.793183,-0.023270523,0.22846968,0.026333744,-0.1425876,0.3909327,-0.23101513,0.7734099,-0.20584878,-0.023545433,0.10603084,0.051834144,-0.4730204,0.6354415,0.45254946,0.5423088,0.19343117,0.040736776,0.15616547,0.13444415,-0.057337046,-0.1476463,0.30439076,-0.3247425,0.09303715,-0.4226477,0.05637167,-0.3016206,-0.15313849,-0.20479938,-0.16548648,0.12346847,0.24660678,0.2314758,0.43640333,-0.065845594,-0.25144488,-0.26057974,0.6312457,-0.0676801,0.18967515,-0.01892894,-0.8377894,-0.012096269,-0.14925769,-0.7050165,-0.19526517,0.9039855,0.022430252,0.4371261,-0.75918335,0.008584486,0.69864863,-0.4398033,-0.318741,0.28108892,-0.2728253,0.20538047,0.18269965,-0.3830498,-0.48516807,0.38668647,-0.37366888,-0.10229044,0.011851773,0.109681666,0.48421258,0.092623614,-0.3381156,0.11468478,0.06304829,0.20282014,-0.05640433,-0.057433166,0.37806734,0.27026063,0.4052189,-0.46379137,-0.36311668,0.0004671812,-0.40163746
com.rafsan.inventory.controller.pos.PosController;0;0.2622261,0.6434287,0.114110984,-0.3047753,-0.11826207,0.047861278,-0.13326482,0.2624579,0.08376776,0.055245947,-0.58797467,0.45013037,0.48650202,0.6699739,0.6135887,-0.039811406,-0.038417142,-0.50937235,0.32269967,-0.31148538,-0.40969473,-0.2406641,0.14359882,0.36712858,0.044047978,0.35940784,0.33077934,0.3024752,0.309645,-0.3605267,-0.49787936,-0.23789093,0.6096761,0.4163433,-0.1573365,0.05534196,0.8223491,-0.28139013,-0.36639637,0.55452913,-0.09224867,0.76404417,0.26999635,0.060801554,-0.2602759,-0.2554558,0.010521228,0.27361816,-0.23174751,0.27245468,-0.22229762,0.27536783,0.18010703,0.08509898,-0.18302795,0.4981497,0.61952215,0.26167423,0.4177784,-0.5095548,-0.6941911,-0.109598994,0.048812587,-0.6697029,0.35406652,-0.43408957,0.23446009,0.4605321,0.15789208,-0.14937076,-0.54647595,0.28893453,0.03827994,-0.18126985,-0.47194546,-0.27323422,-0.33224276,0.6112102,0.007710391,0.44167018,0.25172395,-0.29580662,1.8364973,0.57605064,0.014329562,0.0853477,0.073089436,0.0992542,0.21460144,0.11296351,0.87086904,0.7036255,0.03603263,-0.23858318,-0.7138954,0.71104735,-0.4460431,-0.18821874,-0.21232215,0.12496106,-0.3356369,-0.281429,0.08083787,-0.45008072,-0.47611278,-0.13553435,-0.15580177,-0.5122211,0.32965446,0.21643536,-0.41966993,-0.29191214,0.1399924,0.34343705,-0.14895475,0.056409966,0.12753662,0.16360117,0.050549835,-0.66889465,0.15586537,0.024850372,-0.92854404,0.57237625,0.7122949,0.3517749,0.12938067,0.6945724,0.91827184,0.004112026,0.050724737,-0.8020538,-0.34129372,-0.37211996,1.0082272,0.56443137,0.53355414,0.12037506,-0.06910918,0.07762923,0.17518447,-0.92363536,0.3275036,-0.70379126,0.73660105,0.61400557,0.27708605,0.43947974,-0.16930941,-0.44760585,-0.003000325,-0.04395509,0.34128854,-0.78478634,0.7311703,1.1468731,0.498101,0.7860986,-0.45886508,0.1052747,0.3632789,0.16158056,-0.13574189,0.07766767,0.55060786,0.13023573,0.038346313,0.70031494,-0.30816522,-0.34947795,-0.52591294,0.7527182,-0.6467015,0.4900272,-0.08710329,-0.52699435,-0.5438979,0.083996624,-0.45629233,0.35460904,0.60578054,-0.044439834,0.45144957,0.34880176,-0.1874859,-0.3256665,0.18971002,0.006035867,0.19132896,-0.3755918,-0.11657546,-0.38076147,-0.13684392,-0.06840501,0.15677539,0.66594017,-0.1480782,0.13399312,0.549492,0.51620257,-0.53851116,0.10804967,0.053220104,-0.26586327,-0.2624622,0.42792153,-0.009318766,0.07330783,0.47802043,-0.238989,0.5639106,0.5703935,-0.34647933,-0.075572506,0.13819519,0.23398113,-0.3684156,-0.7140454,-0.27701712,-0.08477132,0.40432248,0.08284992,0.19399452,-0.29574937,-0.6810572,0.27694446,0.6656857,-0.058710486,0.18380338,0.5216646,0.14572969,-0.34530374,0.4502457,-0.04313875,-0.6341689,-0.16999051,-0.614339,-0.032427,-0.43958133,0.573455,-0.13884297,0.032715417,0.38919786,0.52481,-0.3621605,0.7036925,0.3066807,-0.5062711,-0.68375033,-0.6641966,0.219601,-0.5820418,-0.23877263,0.043934364,0.28049228,0.24535708,0.27466854,-0.12693624,0.011834609,0.78909093,0.5399455,0.32033992,0.18206432,-0.1255788,-0.2295121,-0.3489831,-0.14710177,0.10235357,0.2894339,-0.43652597,0.30472517,-0.4531898,-0.011283696,-0.4381647,0.23831312,-0.06687622,-0.40694657,0.19707415,0.19382176,-0.53353274,-0.12517008,-0.36096093,-0.45845827,0.35630816,0.37299174,-0.3229766,0.06882631,-0.32450098,1.144223,-0.111459896,0.01111522,-0.49432725,0.23835504,0.12105286,-0.7031332,-0.8510684,0.17837228,0.57778394,0.62363756,0.2034181,-0.50871813,0.52375084,-0.20943789,-0.3912956,0.42403394,-0.2319258,-0.25004825,-0.36277884,0.47927728,-0.15917182,0.0034129925,0.4275846,-0.20212932,0.14146349,0.3954683,-0.19218628,-0.4490986,-0.41977185,0.34969613,0.6217654,-0.5450555,-0.6167579,0.07289735,0.41020823,-0.026387116,-0.09129767,-0.086839736,-0.07852944,-0.20514588,1.1368355,-0.47157773,0.21176377,0.69980395,0.6410978,0.37064284,-0.41047636,0.64935076,0.294424,1.0710828,-0.71759015,-0.078874595,-0.27295655,-0.7902047,0.054769743,-0.11276368,-0.29811087,0.62273544,0.19539812,0.2668307,0.16624221,0.026124153,0.305543,0.46659786,0.2536623,0.22612028,1.547499,-0.31465185,0.28088418,-0.30878195,-0.61608803,0.8642338,-0.16249347,0.49275357,-0.7506846,-0.6744224,-0.29251277,-0.29619545,0.445287,0.22302525,0.39531928,-0.081037,-0.065745994,0.59443116,0.55587363,0.531094,-0.17347962,0.4491993,-0.023127303,0.11500732,0.12114072,-0.51127875,-0.20467477,-0.48325008,0.2557529,0.20557098,-0.52006364,-0.17218654,-0.38472405,0.32722622,0.12988503,0.1869395,-0.7036766,-0.2849946,0.3673362,0.04049134,0.14498648,-0.61621994,0.05206294,0.14164317,-0.08900298,0.03396971,-0.22337131,0.98842746,0.044786006,0.8469895,-0.42291036,0.5642748,-0.2638882,0.19790687,-0.4027842,0.22523192,0.42652765,0.34688774,1.1584017,0.3683565,0.109352425,-0.08559352,-0.43525973,0.054909445,0.03720367,0.5965026,0.50037694,1.0770911,-0.30296236,1.0466521,0.48354474,0.28406355,0.1750178,-0.23348443,-0.0067855776,0.43953532,-0.19177578,-0.10128899,-0.31554824,0.107710704,-0.5223463,0.31081587,0.1812267,0.2833125,-0.09671346,-0.16440788,0.20210251,0.74436605,0.8463683,0.14418672,0.049510248,0.92372954,-0.034677155,-0.071189225,0.9087944,-0.7921277,-0.35146165,-0.6581194,0.16357248,-0.8933094,-0.40416107,0.44322354,-0.02908721,0.10207782,-0.8661405,-0.37058583,0.2907172,-0.2917784,-0.155069,0.27484575,0.045135073,-0.2717626,0.25611585,-0.20805717,-0.30422908,0.36175615,0.16847622,-0.16845167,-0.3004826,-0.3090983,0.121378995,-0.50734806,0.081056245,0.22349724,-0.40533558,0.40532452,-0.23872969,-0.1504211,-0.31463525,0.78295124,-0.6532935,0.05089905,-0.06284336,-0.19383633,-0.5072957,-1.1267283,0.40107602,0.10003853,0.13836695,-0.5607041,-0.16648927,-0.12869155,0.66676426,0.36788112,-0.44773936,-0.07871343,-0.36314866,0.32079053,0.13500004,0.17071296,0.849069,0.3123599,0.29911405,0.2096043,-0.061261367,0.9369687,0.31385443,0.29018041,-0.013355586,1.4363258,-0.075092,-0.15422477,-0.5267937,-0.12435045,1.0634876,0.14741597,-0.031266145,-0.38529444,0.08372046,0.4036828,-0.6044508,-0.5321163,0.09198574,0.78944105,0.054659247,0.059525657,-1.1071064,0.45800948,0.51783454,0.30571955,-0.5521451,0.9628166,-0.18387601,0.4123376,0.21859619,0.12703364,-0.5801064,0.54916936,0.15235004,0.774477,0.3526066,0.6473273,-0.27757445,0.14264072,0.0069529368,0.33330762,-0.461414,0.07883575,0.19411191,-0.68365765,0.019948278,0.007896526,-0.6825438,0.4111391,0.77364624,-0.09342201,0.19628231,0.24581584,0.08261269,0.474209,0.8274948,0.12628569,0.45481348,-1.0506634,0.4250834,0.28085724,0.67429966,0.36898077,0.12368754,0.03853429,0.1628914,0.1575537,-0.07753583,0.54585254,-0.11737065,-0.5621525,0.92054814,0.3369878,-0.24112168,0.024383005,0.21452756,-0.1415178,0.18220456,11.584799,0.38666242,-0.1102152,0.5799578,0.47329634,-0.10723697,-0.36156854,-0.2597909,0.35234877,0.3310862,-0.09769654,0.7381334,-0.537446,0.0010921061,0.056619674,0.13968119,-0.82289714,-0.060311656,-0.2065599,0.23673749,-0.2362959,0.49089012,0.21563485,0.42623383,-0.85927045,0.1452351,1.1077012,-0.6479167,0.16121554,0.5765456,-0.5717647,1.5648948,-0.6317928,0.29456037,-0.9240252,-0.6067654,0.5305703,0.30945522,0.5467657,-0.55392635,-0.015919838,-0.0651283,0.45943126,-0.11372642,-0.39507926,-0.47682434,0.0059915455,-0.12562895,0.12480662,-0.36590695,0.12919167,-0.14402446,0.7118874,-0.53726923,0.3219784,-0.2853599,0.6748139,-0.7129198,-0.29880673,-0.42196694,-0.14643186,0.7695694,0.31217608,0.061217833,-0.92676127,-0.32366067,-0.005172036,-0.27872685,-0.46958932,-0.19237976,0.09161297,-0.3296102,0.36917102,-0.14773002,0.00892998,-0.5083827,0.23537703,0.030434448,-0.04649247,0.41455206,0.5188182,0.2864067,-1.1905204,-0.5632034,0.034987435,-0.22529332,-0.3426311,-0.1937079,0.6815162,0.28140998,-0.034413945,-0.22666141,0.12807803,0.053380214,0.057982095,0.0423188,-0.713956,-0.28276667,0.05888617,-1.0216434,-0.23880677,0.15215321,0.006793469,-0.09624834,0.3948861,-0.3777539,0.9971345,-0.119521536,0.08683469,0.18392545,0.07939645,-0.5337597,0.6605342,0.5864155,0.6218346,0.3202088,0.18038742,0.3382469,-0.25693902,-0.0111785205,0.04698382,0.3429974,-0.67141277,-0.07749794,-0.56463623,0.05772828,-0.2740845,-0.11571809,-0.053076707,-0.14284888,0.3296255,0.23238638,0.28188074,0.6598301,-0.028118283,0.02747019,-0.5543422,0.4806331,-0.18820834,-0.30180436,-0.10772856,-0.77806383,-0.014704382,0.094684705,-0.6439103,-0.46264762,1.0628116,-0.44531995,0.54618955,-0.64234793,0.0008052856,1.0194006,-0.44807371,-0.6784024,0.3767508,-0.1265261,0.47393006,0.02289999,-0.46960264,-0.53535557,0.3968832,-0.5448189,-0.022042135,0.12291823,0.09883718,0.43908682,0.15452251,-0.45140162,0.33721983,0.053910602,-0.054912306,-0.040568046,0.036138587,0.328393,0.34036383,0.5071567,-0.5305606,-0.49484533,-0.16331455,-0.5294189
