com.rafsan.inventory.controller.admin.AdminController;0;-0.048506334,-0.0145695405,-0.014975161,-0.09050133,0.01841394,-0.084528804,-0.017203784,-0.025338432,0.070216626,-0.078279294,-0.020197717,0.07809899,0.010187811,0.013922612,0.10887194,-0.07239461,-0.07087407,-0.0031857833,-0.022752985,0.0012355739,-0.1093204,0.073607,-0.015122525,0.13607848,0.00879164,-0.027880304,0.20414823,0.17659426,-0.18264008,-0.00860184,0.004104396,0.018680297,0.02299688,0.009167049,-0.009512088,0.12579446,0.09606316,-0.05526879,-0.106040485,0.01677111,-0.0061947964,0.049399495,0.03921607,0.034651015,0.052919727,0.068389155,0.0053386106,0.01421528,-0.054397974,0.0060616788,0.0006418957,0.09721916,-0.11040619,0.07038098,-0.09924611,-0.028073145,0.0033736818,-0.03679558,0.08516026,-0.11433912,-0.029969677,-0.11051807,-0.12465322,-0.11199889,0.013998255,-0.039436143,-0.043140266,0.028011093,-0.010433822,0.01613711,0.074179515,-0.10179638,0.028937658,-0.056727868,-0.05417174,-0.016235469,0.016205894,0.4479148,-0.07657019,0.092823006,0.08992988,-0.038966518,0.3263251,0.03445158,0.0047966316,-0.05657755,0.03994085,0.05570053,0.048673544,0.02559734,0.099960536,0.067665204,-0.046365168,0.04626448,0.056194007,0.026213178,0.009412806,0.021816514,0.013672936,-0.08355198,0.02562713,-0.07039791,0.1233733,0.052674126,-0.009595729,-0.0519964,0.13610965,-0.035660185,-0.066504724,-0.03279012,0.046974897,0.07876643,0.03679804,0.025296712,-0.0036104808,-0.021838374,0.012555622,0.000382424,-0.027872898,0.123301275,-0.07501551,0.08171772,0.07240275,-0.12884863,-0.0163809,-0.05745484,0.019227108,0.007615386,0.024490194,0.01655381,-0.021019729,-0.112929374,-0.021045705,0.08235121,-0.0024921533,0.06734326,0.09109353,-0.046631664,0.05902368,-0.023524588,-0.02321051,0.08984232,0.14430669,0.036996275,0.13384043,0.042763207,-0.0037674317,-0.09383747,0.040770497,-0.04430105,0.069317006,-0.067686655,-0.01751393,0.054636925,0.0472042,0.56012464,0.080281846,0.056600362,0.017380863,0.034111816,0.20117809,-0.010383935,0.06263593,0.028210698,-0.02806566,-0.019069498,-0.014481383,0.05464308,0.043955814,-0.041908115,0.03676256,0.063196205,0.048907798,-0.06396026,-0.10527443,-0.050387103,0.007550365,-0.010055312,-0.08317888,-0.05647632,-0.01485128,0.03349888,-0.066898525,0.049637016,-0.04133257,0.012834537,-0.027957901,-0.023467964,-0.021193875,0.03272017,0.02935364,0.023869881,-0.016617179,0.0032496497,-0.06389782,0.14290577,-0.024903173,-0.04278518,0.08868333,-0.020020017,0.08779467,-0.08093431,0.120420374,-0.1095376,-0.012639376,-0.0022648664,0.071935214,0.032723803,0.039176855,-0.13368414,-0.018622572,0.027797176,-0.040105693,0.14861013,0.026241377,-0.037441727,0.023283906,0.051742703,-0.013758601,-0.07523485,0.03378144,0.0681358,0.03978481,0.10405213,-0.08036706,0.06516998,-0.010650548,-0.038237203,0.031076288,0.013282414,-0.017690487,0.0086116,0.09547182,0.0008044317,0.061160848,-0.11840031,-0.047137547,-0.06355528,-0.050341606,-0.014581248,-0.11499784,0.060110893,-0.014332739,0.054788917,-0.06600975,-0.0027131923,-0.008240227,0.05688278,0.035924938,0.01395603,-0.037374627,-0.064582475,-0.021381477,-0.041829433,0.05091439,0.0098242415,-0.057181086,0.032189462,0.1228768,-0.019243736,-0.011334087,-0.02464626,-0.018563503,0.014418733,-0.08973504,-0.08652749,-0.040659398,-0.01384417,-0.025147475,-0.09881469,-0.055320185,-0.008849503,-0.021914171,0.020141942,0.0018744698,0.052486297,-0.013497678,0.0040582702,-0.061018184,-0.00406786,0.004663818,-0.13060807,-0.11454222,-0.03847202,0.006823083,0.0041659456,-0.07798865,-0.0141733745,0.11761039,0.100151174,0.10075065,-0.04446167,-0.07154583,0.1110841,-0.0101804035,0.0061697867,0.124965645,0.009716137,0.032674756,0.0673899,-0.056014832,-0.101110436,-0.13856049,0.009774131,-0.0057787397,-0.10606259,-0.044162955,-0.02421549,-0.013287234,-0.024890473,-0.07195658,-0.07530122,-0.08766905,0.1096482,-0.0005184396,0.027834063,0.09595934,-0.07864658,0.014503521,0.03101659,-0.008659973,0.009801998,0.091484524,-0.07786344,-0.02866128,0.12900867,-0.0025460275,0.015417243,0.050941575,0.38575172,-0.29922295,-0.017009893,0.11370307,-0.05870959,0.06929284,-0.091876276,0.024193274,0.038439717,0.12471011,0.06616005,0.020819493,0.09656126,-0.07546099,0.04190846,0.08053193,-0.06843474,0.014985462,-0.030749982,0.005766528,0.056328703,0.023666753,0.0058662407,-0.0468612,0.0075823516,0.01374641,0.06650089,0.013385381,0.0023672918,0.049500242,-0.031683054,-0.047866195,-0.0037517126,0.023509122,0.013843465,0.12757495,-0.059517596,-0.021309031,0.009573461,-0.013335548,0.027510712,0.0363943,-0.07156842,-0.055301268,0.08513105,-0.014606335,-0.004718129,0.015006091,0.03461071,0.014658477,0.1035496,0.059966188,0.082195275,0.0005323356,-0.0017278573,0.13608567,-0.06963939,0.017348535,-0.047277186,0.009819786,0.020788113,-0.035648763,-0.059006423,0.029519243,-0.043336857,0.19356968,0.09284658,0.025415307,-0.23714298,-0.053884696,-0.026990024,0.012164575,0.055293698,-0.058724076,0.027255,0.029246174,-0.032075603,0.098370194,-0.04932275,0.04543766,-0.12265938,-0.010622705,0.034284618,0.07980199,-0.056695934,-0.036452178,-0.051340606,0.028729914,0.018897714,-0.029884249,-0.025656333,-0.11403749,0.0654349,0.01821997,0.08177864,-0.13176985,-0.030691788,0.06753347,-0.08161086,-0.12769866,-0.014914259,-0.058960516,0.11081153,-0.06508431,-0.06288387,0.031778775,0.01172996,0.006540136,-0.0077534206,-0.121379286,-0.08053357,-0.03304954,0.011762738,0.039957345,0.031247562,-0.054201353,0.01734526,0.06735184,-0.055752296,-0.10090276,0.01275264,0.02569104,-0.019364648,-0.060676694,-0.48916695,0.12776504,0.034873236,0.007834137,0.06898328,-0.06655858,-0.02190613,-0.003779772,0.045022603,0.02924169,-0.06015032,0.030491149,-0.022100886,-0.12310358,0.057297528,-0.08113148,-0.020453388,0.03438135,-0.09395746,-0.00079216,-0.071697876,-0.018899176,-0.037856515,-0.019421889,0.06690856,0.0037949067,-0.08382106,-0.059006218,-0.013027103,0.065418996,-0.055280592,-0.05867553,-0.03448322,0.013393694,0.009562156,0.09318418,0.06825455,-0.011737005,-0.11148793,-0.022144673,0.00078894355,0.21891676,0.04448163,0.13784799,-0.021377733,0.015028079,-0.022064775,0.012506012,-0.022964828,-0.032705512,0.047564376,0.0008905812,-0.01994981,-0.08201137,-0.059183076,0.024130618,0.07495213,-0.0957903,0.0049778395,0.17518218,0.004652712,0.02076822,0.06401209,0.043048203,-0.039245363,-0.0420254,0.046794187,-0.07466162,-0.035205252,-0.029161716,-0.012601785,-0.053970978,-0.045224246,-0.06583665,-0.04596694,0.08322707,-0.024130546,0.10955284,-0.01514547,0.15124121,-0.033241633,0.013401735,0.04692395,0.008996538,0.06628793,-0.052353412,-0.109057926,-0.059367966,-0.03894477,0.1637881,0.014948749,0.15338553,0.05974796,0.035365533,-0.042522687,0.02717504,0.07930133,-0.011342225,-0.55678886,-0.009473235,0.055221397,-0.068285905,0.045107204,0.009367205,-0.014897245,0.006529998,0.07033254,-0.1386956,0.03389764,0.049791712,0.07936182,-0.06764921,-0.014426065,0.022126287,-0.039066274,-0.036386147,0.031348523,-0.34422255,0.0159648,-0.11911484,0.04400156,0.018473228,0.07132668,0.025875939,-0.022864068,0.007855016,0.014573756,0.11780683,0.027828535,-0.046693187,-0.080568515,0.05857207,0.07983892,0.07128408,0.06222571,10.986176,-0.05442685,0.054753873,0.015104945,-0.011990972,-0.06725157,0.03306281,-0.04075013,0.020342598,0.16656448,-0.031316657,0.08438975,-0.048779886,-0.038434856,-0.033934172,0.039370354,-0.07498051,-0.08701704,0.0065426477,0.010043117,0.051017065,0.013073738,0.07817211,0.106468774,-0.11720409,0.008843694,0.03968977,-0.0004268779,0.04169282,0.04384427,0.005593749,0.08130214,0.08321548,0.11893436,0.043639436,0.027965253,0.07899653,0.072933175,0.04402302,0.08087076,0.074463435,0.03173961,0.05432704,-0.09070063,0.056942582,0.03652367,-0.010294394,0.1294724,0.07135337,0.14574473,0.09244899,-0.07072939,0.059795957,-0.00728534,-0.0013516229,-0.049244285,0.016648147,-0.08685446,0.123645395,0.027567064,0.027908377,0.16372962,-0.030099714,0.071917824,-0.014952282,0.0876441,0.036861774,0.053326398,-0.096954904,0.059443448,-0.06116565,-0.050261777,-0.03422731,0.041098963,0.069752395,-0.030221596,-0.03490532,0.047616225,0.041411065,-0.047766257,0.036047697,0.038665738,-0.040763438,-0.059729677,0.062465906,0.0623356,0.069404654,0.098128945,0.022208797,0.009860243,-0.04572785,0.05776525,-0.012713102,-0.04460482,-0.025981387,-0.028982313,0.020718206,-0.09213751,0.07723683,0.053918615,0.02855248,0.030557893,-0.0039547863,0.11266261,0.028146634,-0.0019765412,0.03647371,-0.024075704,0.10150675,0.005672146,-0.08025157,0.08621337,-0.027716057,-0.04075525,0.059661727,0.027401976,0.02948986,-0.020426076,0.06353635,0.07203028,-0.024328316,-0.00037779193,-0.0427547,0.018611362,-0.03643432,-0.049047317,0.02242417,-0.062772654,0.025661608,-0.039965376,-0.06931153,0.018520176,0.041192118,0.06546352,0.07969745,-0.025705764,-0.05574892,0.11872811,0.07520872,0.030274719,-0.035275757,-0.016244866,-0.09151602,-0.09575387,0.010450277,0.004039257,0.100536235,0.060665887,0.115769885,-0.06157774,0.018716855,0.08531585,0.11805885,-0.04930596,0.0067856233,-0.014699914,0.0025860432,0.017809445,-0.029105045,-0.050193477,0.01014875,-0.01001052,0.027309185,0.052393775,-0.13462688,-0.0074215173,-0.00030596554,0.015799249,0.019050024,-0.040552057,-0.0007814313,0.017850136,0.008195746,-0.03332602,0.060856666,0.120602585,0.11615368,-0.17113775,0.014261223,-0.00087569264
com.rafsan.inventory.controller.category.AddController;0;-0.062951036,-0.04237188,-0.0067019984,-0.08338866,0.06000957,-0.07065866,-0.038039487,-0.037795465,0.08358284,-0.061514404,-0.021331599,0.087460645,-0.020186616,-0.009424925,0.13677853,-0.11220494,-0.067881934,0.018061796,-0.012755168,0.03226652,-0.1114554,0.061730903,-0.042728204,0.11785547,0.04375927,-0.03833201,0.19761169,0.18216729,-0.17348115,-0.046774838,0.018219892,0.044744756,0.02952609,-0.0016975392,-0.011840959,0.13677238,0.108590126,-0.059623282,-0.11008432,0.019678244,-0.0286548,0.03727378,0.023420872,0.020295808,0.07052807,0.060150955,-0.023583429,0.024509275,-0.050266698,0.011631523,0.013408162,0.08998877,-0.10994356,0.04080458,-0.10283244,-0.027237745,-0.0024907338,-0.025082344,0.10148236,-0.092422225,-0.061832633,-0.112018816,-0.15047868,-0.061842322,0.008519455,-0.035327937,-0.044560764,0.0074320547,-0.0065954495,0.020156037,0.08593041,-0.11716568,0.02408653,-0.023254715,-0.06191292,0.0060510207,0.012299313,0.43168998,-0.10328267,0.090083934,0.10629509,-0.050130606,0.26857018,0.03977411,-0.016939126,-0.0042573973,0.025535354,0.036850628,0.056598376,0.020128168,0.092840366,0.0479078,-0.035161752,0.055216882,0.040009707,0.07086187,0.02158471,-0.012908076,0.008648818,-0.07253943,0.031816024,-0.06612755,0.101258986,0.030433314,-0.01901117,-0.078246415,0.13681798,-0.01860623,-0.06423109,-0.024667704,0.05909634,0.096853815,0.011366625,0.028767982,-0.005760806,-0.00036612587,0.0026148495,-0.0062247417,-0.016426386,0.16455519,-0.07446382,0.06924119,0.03979845,-0.11944407,-0.055593792,-0.037243024,0.028312245,0.015102799,0.019720519,0.021384055,-0.027989557,-0.13283569,-0.012921869,0.10946545,0.004097598,0.0792725,0.06803099,-0.04619352,0.07485538,-0.017536094,-0.033483718,0.08395054,0.13016774,0.024940833,0.10938939,0.058472466,0.01636835,-0.09822816,0.026111273,-0.027012551,0.059194688,-0.07712191,-0.03481089,0.072756894,0.039839473,0.560703,0.064516135,0.056668013,0.039728623,0.047009747,0.20952278,0.005912591,0.053274516,0.022731572,-0.03285769,-0.0017405882,-0.029022679,0.05759208,0.043707203,-0.066208124,0.03939941,0.062384516,0.06594504,-0.059970837,-0.097931236,-0.039854698,0.007415442,0.00024262133,-0.07715762,-0.053815264,-0.0013532266,0.03719112,-0.07201398,0.07838131,-0.03636198,0.015746955,-0.006668227,-0.039281797,-0.02524136,0.030301819,0.03175028,0.026608214,-0.040535197,0.010862682,-0.051441487,0.113162,-0.04165213,-0.039569724,0.07658269,-0.001538766,0.07712611,-0.07946969,0.1273898,-0.11965475,-0.006948041,-0.0006432266,0.06924988,0.029585889,0.021487748,-0.14342986,-0.023840718,0.033767086,-0.046126276,0.1497191,0.038068917,-0.040245693,0.03643029,0.039704446,-0.03079182,-0.09052974,0.03272867,0.09192655,0.061547086,0.096524455,-0.042447954,0.07005247,-0.019102475,-0.03538446,0.04571095,-0.015118963,-0.01435402,-0.032556184,0.059185803,-0.028817317,0.07772013,-0.10860628,-0.050404076,-0.06314322,-0.044527132,-0.012425703,-0.13879773,0.07378937,-0.014839966,0.020099577,-0.07055595,-0.039343882,-0.021901315,0.07194559,0.027759457,0.023335062,-0.045633525,-0.04858893,-0.042912994,-0.048775133,0.038582407,0.008389793,-0.04478289,0.037968047,0.1836888,-0.015927644,0.004496508,-0.0233374,-0.039246734,-0.0028975161,-0.119852506,-0.14232762,-0.031194247,-0.020258421,0.002617766,-0.0893518,-0.05410789,-0.004434205,-0.02121255,0.055053562,-0.0037674494,0.04478434,-0.03630271,0.004183589,-0.089354195,-0.0015056729,-0.009889983,-0.11709354,-0.12736543,-0.009101568,0.01112453,-0.0016969076,-0.09848983,-0.008576485,0.08945159,0.0974367,0.08919821,-0.046115637,-0.04656498,0.13528307,-0.02212056,0.04259071,0.111306705,-0.02020249,0.030683422,0.09516803,-0.077262364,-0.061160047,-0.14055584,-0.002312892,-0.013709816,-0.13154966,-0.037176203,-0.029369907,-0.002949955,-0.013485576,-0.07901538,-0.05852005,-0.08364558,0.089369774,-0.006520918,0.045925584,0.07616525,-0.10458139,0.0032077755,0.039506547,-0.015445973,0.024397304,0.096361525,-0.082134515,-0.048070326,0.12983127,0.0007309254,0.016987165,0.061442792,0.39860395,-0.29111424,-0.023460524,0.09115201,-0.06668269,0.0767381,-0.08814781,0.03787473,0.03783721,0.109388135,0.053334802,0.012378802,0.108659625,-0.052112132,0.060229674,0.07368671,-0.06409521,0.011594695,-0.028455324,0.020587483,0.044768315,0.029814357,0.012942073,-0.09092438,-0.00954097,0.015281331,0.078116685,0.009289634,-0.01647832,0.030390115,-0.028394869,-0.058612864,0.010956049,0.023665374,-0.011171703,0.14258288,-0.078422576,0.010041582,-0.0062464923,-0.011215295,0.024269382,0.07155251,-0.035370544,-0.0739542,0.10058427,-0.015568112,-0.0074522854,0.02495493,0.03434485,-0.0022747468,0.113684215,0.06331832,0.07737396,0.020151049,0.015080187,0.13576137,-0.09943244,0.006356901,-0.020661982,0.0140007995,0.019284325,-0.01849228,-0.0750731,0.016644152,-0.048425514,0.20569925,0.106636964,0.0033455305,-0.27813426,-0.0798287,-0.0023913372,0.016566748,0.07607407,-0.07947674,0.010937083,0.03704253,0.018734002,0.07486006,-0.042535495,0.035757307,-0.11951562,-0.010969814,0.037751902,0.06691113,-0.039315484,-0.02030897,-0.044243425,0.030375972,0.024436504,-0.020471914,0.0022807668,-0.08905675,0.049609926,0.037432823,0.105421595,-0.13850771,-0.04505841,0.08784207,-0.070596665,-0.12279693,-0.013523594,-0.06956478,0.11462746,-0.123601206,-0.0683556,0.013948098,0.04074884,0.014556527,-0.0202574,-0.11067041,-0.06293457,-0.048593402,0.0023133785,0.047710598,0.0039990596,-0.05641998,0.053655148,0.015190456,-0.06166339,-0.11130571,-0.0147717,0.004155857,-0.013367946,-0.036963984,-0.5142367,0.12589689,0.047133893,0.017673036,0.08333526,-0.043570038,-0.046121377,0.004670009,0.02946236,0.051665526,-0.063109644,0.031955015,-0.03562552,-0.104185216,0.05361976,-0.06822612,0.021745848,0.040059578,-0.09987348,0.0019858808,-0.030388586,-0.030871755,-0.036605723,-0.011775047,0.08775703,-0.010923537,-0.08620727,-0.055629354,-0.0047138003,0.09572584,-0.059398483,-0.074388325,-0.031333126,0.030302308,-0.0025710564,0.0966158,0.07448613,-0.009424093,-0.13573207,-0.015724009,-0.022158707,0.219112,0.053311694,0.12769134,-0.043731082,0.016515616,-0.031446207,0.014210824,-0.034571547,-0.027576203,0.045276493,0.0030740248,-0.037076086,-0.09520024,-0.041269396,0.018629376,0.07395947,-0.060488332,0.035530094,0.16983761,0.0072860154,0.015886234,0.07875208,0.009913051,-0.05515646,-0.040914703,0.0274188,-0.091144316,-0.057234507,-0.015099925,-0.025800325,-0.056271523,-0.05113968,-0.087319404,-0.03704634,0.07563934,-0.014817383,0.12325654,-0.0040780264,0.13390929,-0.03144527,0.020496272,0.07061841,0.02599782,0.08238901,-0.07085622,-0.13780944,-0.09632803,-0.036369916,0.1498106,0.005804125,0.10707726,0.046695158,0.052862395,-0.04447217,0.05645369,0.09260418,-0.03705627,-0.54198927,-0.019420994,0.06848828,-0.06936776,0.035537574,0.0405829,-0.019272115,-0.02185876,0.084424354,-0.14828533,0.07137226,0.04346725,0.06555878,-0.03857052,-0.016478539,0.032233875,-0.047531754,-0.046598595,0.038566485,-0.32801545,0.014749718,-0.11985753,0.069217674,0.03539555,0.09226339,0.027071508,-0.020815019,0.0054180347,-0.004502757,0.10787103,0.029767456,-0.02280278,-0.07231536,0.053888574,0.08521692,0.0782306,0.040655937,10.980092,-0.04716137,0.06423391,0.029559633,-0.023693806,-0.08315765,0.03950651,-0.03984086,-0.0075277933,0.14737931,-0.018604,0.09872957,-0.074897535,-0.03338866,-0.023771128,0.044007957,-0.06406394,-0.09491118,0.03776555,0.020734949,0.07208615,0.041574627,0.098836295,0.09309673,-0.108253025,0.007379958,0.017164221,-0.0009183281,0.07724917,0.065461986,-0.0051407972,0.04671822,0.09078806,0.113766216,0.039141823,0.04712483,0.09167766,0.07934333,0.06854641,0.07794174,0.07412287,0.016255606,0.017386472,-0.097168475,0.04175132,0.04348739,0.0121187195,0.14610967,0.06155731,0.15029718,0.079381764,-0.047042597,0.07229187,-0.006044768,4.910119e-05,-0.054884076,-0.020018829,-0.08134278,0.11636316,0.065076135,0.022686496,0.1555322,-0.03057875,0.06519415,-0.022040216,0.0919224,0.02268255,0.13551895,-0.120886706,0.054294348,-0.05142516,-0.059331212,-0.020247547,0.03098549,0.07386541,-0.04992643,-0.013507289,0.03443678,0.08852366,-0.039760645,0.024734125,0.035928253,-0.013754,-0.06625144,0.010654121,0.047284827,0.086977996,0.07386572,0.033439256,0.071113884,-0.047708053,0.06412343,-0.0046968884,-0.06930482,0.0014035119,-0.018977249,0.057757955,-0.0734016,0.07612566,0.04728101,0.00793995,-0.012851945,-0.044905286,0.09531522,0.013209849,0.017915828,0.0884619,0.0021369439,0.072968535,0.01840614,-0.09264762,0.0986259,-0.048047815,-0.031922597,0.071941294,0.011913218,0.019603113,-0.014488471,0.053680643,0.032549057,-0.025940448,-0.00021123979,-0.06348169,-0.0012795316,-0.02722471,-0.053061042,0.013150521,-0.057230745,0.024267407,-0.04149889,-0.07076871,0.0071515697,0.0595746,0.048311487,0.06683005,-0.023370499,-0.06308538,0.09438223,0.06954959,0.047138806,-0.031560015,0.009092137,-0.08065288,-0.08851832,0.016432812,-0.02959434,0.1056132,0.0686042,0.119381726,-0.04429174,0.01807384,0.0796353,0.12738137,-0.069858335,-0.0138221355,0.0014863424,-0.008856433,0.041297484,-0.021101639,-0.03798644,0.01594708,-0.011977702,0.02558761,0.0868859,-0.1417998,-0.006831394,-0.01652991,0.025374591,0.010476743,-0.04079545,0.017135633,0.003979027,-0.01910778,-0.048519135,0.06495838,0.13202511,0.09629896,-0.15488695,0.0011249582,0.025752129
com.rafsan.inventory.controller.category.CategoryController;0;-0.04913297,-0.043810517,-0.014053352,-0.08767791,0.046689436,-0.06081196,-0.0132677555,-0.04027526,0.055628233,-0.079589166,-0.016603041,0.07025742,0.007692916,0.011312485,0.14223172,-0.096060105,-0.073929906,0.0032140478,-0.018686378,0.023085885,-0.108000025,0.06888641,-0.05469302,0.1221635,0.010262397,-0.04434079,0.20500152,0.18757094,-0.18388945,-0.0011976548,0.0025880418,0.035857253,0.02182019,0.008668988,-0.02064943,0.11884909,0.11602094,-0.061418854,-0.11906234,0.010440874,-0.0053197704,0.050204337,0.038388897,0.03187395,0.058249973,0.07591708,-0.008769015,0.0005195213,-0.048210397,0.011334176,-0.0019157121,0.07238907,-0.113711044,0.050786477,-0.09178575,-0.046234146,0.002260785,-0.025988467,0.09631352,-0.1257024,-0.040698703,-0.10928738,-0.12452222,-0.10886627,0.010670192,-0.038431097,-0.040100023,0.010685983,-0.007574961,0.016895795,0.06075824,-0.117333315,0.024632607,-0.043204267,-0.06573327,-0.006467628,0.025675803,0.45280224,-0.105027296,0.10326104,0.09871568,-0.05208567,0.31035343,0.03562787,0.0029111495,-0.03571617,0.035496015,0.04242553,0.052971885,0.023267636,0.10323308,0.048721813,-0.04398401,0.0319907,0.048831023,0.029572377,0.004914245,0.021893471,0.018951708,-0.085351706,0.03675418,-0.068087906,0.115557216,0.04335817,-0.008835676,-0.07201308,0.14654614,-0.0297943,-0.08119794,-0.037876435,0.063680135,0.084732875,0.04365626,0.029440474,0.0022691411,-0.018510433,0.014406894,0.002186858,-0.019929808,0.15307298,-0.08314332,0.089834385,0.0650423,-0.10604384,-0.0398893,-0.054781146,0.036858696,0.0148303425,0.040680327,0.030536458,-0.022189328,-0.11777286,-0.03418372,0.11315753,-0.004141552,0.07366553,0.086972415,-0.046167698,0.0672728,-0.030998971,-0.021489572,0.08514875,0.15313731,0.041651532,0.12393326,0.04065822,-0.0024901063,-0.09665209,0.03190206,-0.023331026,0.07736948,-0.07810688,-0.012442085,0.058173947,0.052401666,0.56250113,0.092762485,0.053798184,0.014482995,0.026407264,0.20240107,0.001754502,0.06349982,0.029366871,-0.038285792,-0.026670465,-0.0135707725,0.063028134,0.04013458,-0.047459207,0.03953251,0.06947148,0.047906496,-0.058779202,-0.123076305,-0.0593968,0.013569598,-0.01212899,-0.07653138,-0.054107536,-0.005316394,0.045013443,-0.05510138,0.06590791,-0.0412899,0.03872877,-0.03800707,-0.048004802,-0.030647296,0.014873324,0.03047545,0.027069764,-0.034131765,0.008882679,-0.049604304,0.12044826,-0.014484115,-0.03707104,0.079933725,-0.012121015,0.08057354,-0.073885135,0.12972917,-0.117968045,-0.017900938,-0.0062635173,0.06731344,0.03699438,0.019031163,-0.1441084,-0.0240248,-0.0023930885,-0.05000469,0.13737386,0.03505433,-0.04180003,0.021292983,0.042258967,-0.027530074,-0.084652215,0.027462287,0.0776688,0.039128155,0.11061367,-0.05513401,0.060438793,-0.017317345,-0.031023487,0.0336814,0.026847906,-0.020484732,-0.02202897,0.07808114,-0.017414259,0.06387537,-0.13022408,-0.051261857,-0.06508507,-0.047054432,-0.015243907,-0.13300587,0.06436705,-0.008933932,0.033169474,-0.0680241,-0.0047869086,-0.007754352,0.03568505,0.05056116,0.021946827,-0.036261447,-0.07309355,-0.038399287,-0.03942645,0.06416442,0.015712783,-0.04084641,0.038557224,0.1589764,-0.02516586,-0.014798141,-0.03156315,-0.030846702,0.01328497,-0.10529746,-0.10786882,-0.035776686,-0.018144367,-0.015275361,-0.104567364,-0.053831436,-0.0054086954,-0.032440405,0.029905943,0.0017142934,0.06069604,-0.0042436165,0.008794462,-0.07527608,-0.009439438,0.0011875217,-0.12845352,-0.12049797,-0.034280326,0.0021785279,-0.005464102,-0.074420035,-0.004179623,0.12352109,0.095504835,0.09902405,-0.048273344,-0.08212391,0.120737955,-0.026602797,0.017288368,0.122459054,0.0008313967,0.03412917,0.06908073,-0.05390911,-0.08956693,-0.14193423,0.00253998,-0.012659305,-0.10958832,-0.042996455,-0.039586797,-0.0058440324,0.012323785,-0.08491125,-0.06642563,-0.10124989,0.08725991,-0.0018421263,0.03836607,0.07730537,-0.08626427,0.017601248,0.02886577,-0.011133984,0.009341365,0.08268954,-0.07697864,-0.04654435,0.13422233,-0.014683202,-0.00263828,0.055943165,0.38358814,-0.31656408,-0.016469274,0.114532664,-0.06401493,0.076319486,-0.09791975,0.033393715,0.024338903,0.12819636,0.051232055,0.017531322,0.11055065,-0.0616312,0.052982457,0.073718,-0.0478083,0.038398284,-0.025773253,0.019978892,0.061385345,0.03419929,0.014249098,-0.058986828,0.012272326,0.028572742,0.07139612,0.015128394,-0.0074242945,0.044513848,-0.04161014,-0.052402005,-0.0059811263,0.026516281,-0.0005317212,0.12843381,-0.062880285,-0.0068778684,-0.0063983295,-0.0092330985,0.02170151,0.04233276,-0.057075493,-0.056763276,0.0961248,-0.0068470496,0.0011733822,0.015676038,0.0352322,0.035167746,0.09851127,0.06928522,0.07892093,-0.0033758888,0.0046439287,0.1461181,-0.065813944,0.03546433,-0.052328758,0.010769388,0.014792063,-0.028755186,-0.0499883,0.026071155,-0.039871838,0.19799796,0.10694389,0.014234373,-0.25757274,-0.067697965,-0.024171041,0.016645506,0.0650621,-0.07008262,-0.0018280802,0.037016246,-0.032242097,0.11572992,-0.056598045,0.04634612,-0.13048518,-0.017906755,0.041927386,0.07450439,-0.049680125,-0.041389022,-0.04996983,0.031314842,0.016309984,-0.015499028,-0.030467002,-0.100977145,0.063619636,0.04014738,0.08554143,-0.1451099,-0.049927168,0.07032871,-0.083725095,-0.1652489,-0.019582326,-0.06657879,0.11807145,-0.09025848,-0.06619784,0.022479642,0.02572131,0.00030186214,-0.015441505,-0.12099769,-0.07994256,-0.025093455,0.028307734,0.05233825,0.020067023,-0.049762536,0.015362274,0.050963726,-0.059198268,-0.12326769,0.016460657,0.00989876,-0.01806261,-0.02742611,-0.479311,0.12772599,0.028926784,0.032930113,0.08393379,-0.064724386,-0.03182742,0.0027485192,0.037384056,0.031621274,-0.061182868,0.034373436,-0.035848014,-0.124829784,0.047115423,-0.07243333,-0.0040420326,0.024413047,-0.0990961,0.0041843667,-0.059824456,-0.022412363,-0.03542578,-0.021470444,0.07442438,0.010257636,-0.07721365,-0.05553242,-0.0050100023,0.07584502,-0.061859798,-0.05010812,-0.028592218,0.020965211,0.0082797855,0.09931418,0.07127026,-0.022276266,-0.12103733,-0.016521629,-0.009436676,0.21852353,0.065606035,0.13911572,-0.045017768,0.012417458,-0.017958198,0.011812855,-0.031129627,-0.034145996,0.068527825,0.015388674,-0.037352555,-0.088479325,-0.05983538,0.022538994,0.08131379,-0.0738241,0.024542835,0.17799489,-0.0063855555,0.026184086,0.06482806,0.023738584,-0.05469034,-0.044071194,0.04973804,-0.084788315,-0.05022004,-0.02602661,-0.01763257,-0.056176223,-0.05328115,-0.08065218,-0.04848875,0.09009928,-0.022561394,0.12556788,-0.004382835,0.14812574,-0.029756578,0.016102264,0.05989436,0.03402183,0.08048756,-0.0664013,-0.10806081,-0.094293386,-0.045292422,0.15441334,0.020278871,0.14313662,0.053277813,0.04896528,-0.035718452,0.036892146,0.09264796,-0.03030567,-0.55488634,-0.0093925465,0.07238897,-0.0645958,0.0423036,0.023351116,-0.007997061,-0.0096571855,0.08705791,-0.14641006,0.043596722,0.051205862,0.07321644,-0.07536674,-0.031474426,0.02480682,-0.04363292,-0.04446749,0.04745163,-0.32515198,0.021552492,-0.12064624,0.052059915,0.040319547,0.059885334,0.023094995,-0.017938972,0.01339668,0.004485703,0.11029795,0.025431093,-0.031608053,-0.08097976,0.057138707,0.07752785,0.08514826,0.056323335,11.002501,-0.057226285,0.057841793,0.024612542,-0.005193534,-0.08573656,0.030819211,-0.028243713,0.02814913,0.17199372,-0.024620367,0.09810881,-0.05181904,-0.037603185,-0.046723116,0.05389288,-0.079736695,-0.09117384,0.018286875,0.009910218,0.070591554,0.018884478,0.089132786,0.12363875,-0.11159661,0.007836343,0.023066826,-0.004113589,0.05518899,0.05837208,0.01162853,0.088489614,0.09854646,0.12819755,0.032976605,0.022443406,0.07223335,0.06948051,0.05080586,0.07353222,0.06678592,0.03540108,0.044282712,-0.09970119,0.053755842,0.034768987,-0.0022444597,0.13940662,0.075705715,0.14748563,0.08535939,-0.066118166,0.06619327,-0.016724937,-0.004231678,-0.057482447,0.0072564436,-0.09724659,0.120505854,0.033221062,0.029111797,0.17216714,-0.04123708,0.06217894,0.0041100783,0.094967075,0.04780935,0.06606022,-0.09105416,0.052953415,-0.060253583,-0.0648046,-0.041138362,0.045273602,0.060271457,-0.022368517,-0.040293366,0.047005642,0.0556617,-0.04498292,0.030554589,0.03872375,-0.030219711,-0.06662849,0.04434478,0.05985398,0.060755305,0.093023635,0.016042026,0.0285893,-0.06434544,0.07811428,-0.016446607,-0.048913952,-0.017075509,-0.01987795,0.050943688,-0.099799,0.07457724,0.044276267,0.020859037,0.022683917,-0.010785379,0.11278126,0.023248479,8.0643746e-05,0.055161126,0.008337625,0.09356825,0.01073034,-0.0870915,0.077243865,-0.04678841,-0.050670706,0.07553321,0.020429403,0.036433786,-0.022533633,0.06924662,0.06461523,-0.016987449,-0.0015895946,-0.06057957,0.025169723,-0.039937135,-0.05313253,0.017829651,-0.063233875,0.029425206,-0.03535345,-0.0659965,0.017059581,0.05492575,0.06110589,0.07026823,-0.03326318,-0.068699636,0.10745796,0.064573884,0.044478066,-0.029673731,-0.009607017,-0.09388287,-0.08638944,0.011341428,0.0043985425,0.11223185,0.09220977,0.12143204,-0.07038592,0.02424818,0.096253484,0.1295987,-0.071102045,-0.0029901497,-0.012452551,-0.007555225,0.02845762,-0.024996249,-0.061060555,-0.0061134147,-0.0063249627,0.028913891,0.05828707,-0.1629239,-0.0061005685,-0.008827331,0.021501817,0.0028807002,-0.049928404,0.003166342,0.015726035,0.016102564,-0.034495845,0.077615626,0.1254284,0.112873085,-0.17194659,0.018487146,0.010140303
com.rafsan.inventory.controller.category.EditController;0;-0.06079939,-0.047535673,-0.009679615,-0.077423714,0.053279817,-0.069462486,-0.03676662,-0.052128505,0.08866421,-0.059897155,-0.035467315,0.09445628,-0.023267744,-0.0035769837,0.12791766,-0.115012236,-0.07881623,0.021787023,-0.017293127,0.024111917,-0.10520185,0.056292374,-0.03903416,0.12042921,0.060548235,-0.04285279,0.20050018,0.18588729,-0.17398298,-0.04970139,0.017784202,0.0451328,0.021663785,0.0020188254,-0.0117526045,0.1354156,0.11748596,-0.051847607,-0.101307355,0.032622878,-0.009444459,0.035686105,0.029499235,0.024657095,0.06357845,0.06012367,-0.013420614,0.036647066,-0.05628441,-0.0013863724,0.01063818,0.09813062,-0.11387313,0.05137628,-0.10247325,-0.027771378,-0.0057725213,-0.025939168,0.102476306,-0.095583834,-0.04021511,-0.10350144,-0.14464349,-0.06433965,0.007905341,-0.03889573,-0.0383672,-0.001382789,-0.0028829684,0.014351685,0.08056319,-0.12281225,0.029923717,-0.023262389,-0.06725824,0.010108233,0.019986736,0.40700743,-0.10612998,0.090331286,0.094929986,-0.043536615,0.25102475,0.04231627,-0.007928133,-0.0090481285,0.028417332,0.04030281,0.057265494,0.0087312255,0.08670756,0.042959776,-0.027465751,0.072703995,0.035134528,0.06639936,0.031054268,-0.009542859,0.011066087,-0.07953242,0.034525603,-0.067458265,0.10676504,0.029721288,-0.016386978,-0.083546706,0.15420713,-0.014248495,-0.07652283,-0.02075602,0.062518984,0.106149375,0.021928983,0.03324259,-0.0022828039,-0.0034442376,-0.0009240834,-0.008429487,-0.022913726,0.18507631,-0.08115608,0.072312154,0.019257627,-0.110334,-0.04305805,-0.03709194,0.03738009,0.020015446,0.029561104,0.026504574,-0.02677861,-0.13774085,-0.008283823,0.10207824,-0.0027541218,0.082902856,0.08221654,-0.050891493,0.07018137,-0.012494754,-0.02269253,0.08661574,0.14469743,0.02432149,0.09283202,0.051887978,0.013442428,-0.096834384,0.011531868,-0.03153601,0.06292175,-0.07389718,-0.034135193,0.07007194,0.035864975,0.5567901,0.08819869,0.054619487,0.035424706,0.043135833,0.19787163,0.0057514203,0.05313154,0.018239947,-0.024628798,-0.009162179,-0.0293308,0.06299055,0.034212705,-0.05710141,0.035048004,0.051157396,0.061499964,-0.062119097,-0.094136745,-0.027996033,0.0031444433,-0.016469242,-0.06967314,-0.052478045,0.0060977056,0.038774215,-0.06979138,0.091113746,-0.03375719,0.01683479,-0.017496776,-0.056255724,-0.02166462,0.019548818,0.025990935,0.04033965,-0.046693224,0.019572468,-0.053925466,0.11812485,-0.047512606,-0.04111648,0.081990875,0.003529444,0.07746032,-0.06811974,0.12512623,-0.12461958,0.0011599916,-0.01000997,0.079213016,0.019210106,0.014651668,-0.13745452,-0.021720959,0.03238383,-0.050252646,0.14309183,0.026123807,-0.045391466,0.039837718,0.02209418,-0.03466417,-0.094872676,0.032964725,0.09043217,0.053547446,0.09770573,-0.04064097,0.07152468,-0.011871904,-0.036285795,0.044715885,-0.009905011,-0.024911888,-0.024487972,0.067984425,-0.032137707,0.08497584,-0.11408564,-0.059101075,-0.060404826,-0.035218682,-0.016243419,-0.12962218,0.07099318,-0.017989432,0.0142141925,-0.06877337,-0.053501353,-0.013110769,0.056642562,0.029244915,0.022987863,-0.045553714,-0.052924294,-0.03377307,-0.04701364,0.051702917,0.012958442,-0.02450093,0.04334471,0.17935646,-0.023476997,0.0016051704,-0.02077131,-0.033389535,-0.008197168,-0.110666476,-0.14311379,-0.028600669,-0.018044513,0.009018117,-0.08382789,-0.049730167,0.00080948323,-0.027926445,0.06451515,-0.0034254773,0.052131396,-0.05392249,0.004511139,-0.08501565,-0.0026552419,-0.0064592077,-0.12346024,-0.13663793,-0.013854503,0.00236354,-0.004848977,-0.111837976,-0.0012050574,0.09278455,0.09399348,0.08526989,-0.046586886,-0.05442548,0.14155884,-0.026448479,0.05251639,0.10070905,-0.005510175,0.03710808,0.09302059,-0.09360733,-0.058061864,-0.15026325,-0.012539183,-0.015940085,-0.1253367,-0.035910908,-0.027193518,-0.008108734,-0.0075625977,-0.08693641,-0.053041637,-0.07678261,0.08852237,-0.0011042157,0.03888139,0.07601658,-0.10697176,0.014971369,0.037173633,-0.011452697,0.02894506,0.083362095,-0.08488164,-0.039373014,0.13906227,-0.006224588,0.016325297,0.0609057,0.39432704,-0.30141225,-0.029862529,0.092988096,-0.062085494,0.07606206,-0.08632437,0.041080564,0.03614917,0.11060088,0.045654017,0.012565035,0.119017385,-0.055106923,0.05863072,0.08027667,-0.06283418,0.01629336,-0.03269333,0.018148337,0.04096735,0.02876027,0.013892042,-0.09439463,-0.0097523965,0.012413058,0.077438615,0.015544216,-0.014485951,0.03278997,-0.020504365,-0.07269416,0.015758956,0.01727716,-0.025056189,0.13044877,-0.07532476,0.007982783,-0.010896626,-0.014304792,0.02109985,0.06872066,-0.03284907,-0.067385375,0.10314846,-0.014970896,-0.0075777234,0.01355468,0.033004347,-0.0115779415,0.098783694,0.06820858,0.075672686,0.025804862,0.009700037,0.13751364,-0.09678904,-0.0028298006,-0.027737478,0.012442909,0.02132062,-0.022482002,-0.08249343,0.009113957,-0.05188468,0.20634007,0.111313544,-0.0018572388,-0.30396372,-0.07940506,0.0035838438,0.009309714,0.082128204,-0.07802307,0.0010688594,0.04071478,0.018962793,0.084574856,-0.047488857,0.035307955,-0.122307636,-0.017015874,0.039717272,0.06354634,-0.052258346,-0.02856308,-0.041228745,0.04424398,-0.0016690133,-0.027633756,-0.0010783275,-0.08899557,0.054699037,0.046766877,0.11877855,-0.13980247,-0.05748688,0.090328075,-0.06567182,-0.13739298,-0.012619899,-0.067864135,0.118763566,-0.12325526,-0.072495356,0.018003017,0.042041063,0.009944085,-0.012836159,-0.12524973,-0.061627712,-0.05523734,-0.0035945673,0.04785447,0.0028824785,-0.056901034,0.052267272,0.018537527,-0.06749878,-0.11468067,-0.032342818,0.0029414722,-0.022721114,-0.036277607,-0.5098924,0.134712,0.05011521,0.025083454,0.09500592,-0.03636327,-0.055249218,0.011333558,0.02464513,0.04596473,-0.057616856,0.03947435,-0.039277676,-0.102044016,0.05717474,-0.070535146,0.029960938,0.041303612,-0.1062786,0.00010566538,-0.029980294,-0.029782303,-0.024437891,-0.02152603,0.09080524,-0.005034909,-0.08351054,-0.054670464,-0.003962672,0.09410608,-0.063197695,-0.078292854,-0.029674277,0.03787307,-0.013193169,0.10084932,0.07325443,-0.010370283,-0.14102574,-0.018746095,-0.02502687,0.21897914,0.048698302,0.124047555,-0.05439252,0.023876255,-0.028333077,0.025923543,-0.03626031,-0.024275599,0.0499913,0.0072559738,-0.045243282,-0.09048018,-0.029693877,0.025958657,0.07657939,-0.05126037,0.023719372,0.17344682,0.0022142685,0.02121664,0.076938204,0.020590918,-0.05610445,-0.029545382,0.05277582,-0.08917776,-0.066213936,-0.0121940775,-0.024737641,-0.05412963,-0.056762148,-0.096546434,-0.0397263,0.07748381,-0.014986117,0.13357554,-0.014163709,0.12797415,-0.021695806,0.012408848,0.07572705,0.02858709,0.081924,-0.07143718,-0.13627839,-0.09204632,-0.036218617,0.15262108,0.011283706,0.101592354,0.043134917,0.06784353,-0.04620123,0.05821128,0.10450161,-0.03912018,-0.51667315,-0.030417377,0.066275276,-0.08725078,0.036431417,0.02879867,-0.016300319,-0.02186554,0.078827254,-0.15966442,0.048215155,0.05478247,0.06609557,-0.040916532,-0.031299736,0.029353842,-0.049646717,-0.04056025,0.025751656,-0.31767446,0.01836892,-0.12625085,0.08609152,0.042626243,0.08756462,0.026344614,-0.023288691,-0.009567671,0.0030459042,0.10773635,0.024205381,-0.03238632,-0.07942027,0.049786713,0.08810607,0.08960696,0.04448894,10.989586,-0.0519285,0.06219427,0.020636344,-0.022185137,-0.091051795,0.033680152,-0.032126445,-0.0058490783,0.15212473,-0.017910955,0.105440594,-0.06544625,-0.035325106,-0.028060397,0.047139257,-0.057072002,-0.09117535,0.031195149,0.021284977,0.070886225,0.052589323,0.103923894,0.085072435,-0.11748185,0.016861508,0.0061747357,0.007601263,0.073234014,0.070475005,-0.013767225,0.05401935,0.09544105,0.12620822,0.0327666,0.04112067,0.081486136,0.08706687,0.089536466,0.07451699,0.071893655,0.025223257,0.014288716,-0.10217353,0.042959977,0.043852117,0.004548848,0.15396251,0.058682684,0.1526854,0.077157445,-0.039751004,0.078321725,0.00089296326,0.0003753379,-0.052020874,-0.01567968,-0.08520132,0.124314584,0.06634891,0.02318897,0.17597996,-0.02976312,0.05960707,-0.0063062883,0.09398091,0.026091715,0.11628207,-0.11554084,0.053884257,-0.06442014,-0.062404823,-0.025885487,0.028425185,0.0781889,-0.04934174,-0.016938742,0.030678036,0.09096143,-0.053174574,0.02264188,0.032400034,-0.019118022,-0.06602395,0.013864589,0.048214633,0.076219976,0.078915566,0.033588078,0.060506772,-0.045315575,0.06966992,-0.0011536226,-0.073188916,0.005451862,-0.026764678,0.06805494,-0.07785884,0.08197305,0.041001145,0.0024012104,-0.018006835,-0.041538432,0.106954955,0.007011907,0.014010469,0.09168605,0.017700756,0.064197384,0.019152103,-0.09622791,0.09798521,-0.053514723,-0.03938242,0.07871837,0.01121388,0.016187912,-0.015719326,0.057950955,0.03739233,-0.024604307,-0.005239504,-0.07049022,0.002871722,-0.027223632,-0.057109952,0.0025171728,-0.057609826,0.02795653,-0.038181204,-0.07372401,0.0038954848,0.05466118,0.050346743,0.067597546,-0.022915184,-0.06829833,0.10364031,0.068993725,0.05495368,-0.016306968,0.015536229,-0.07665375,-0.079340525,0.005673131,-0.012064512,0.10182772,0.06720713,0.11977001,-0.054658394,0.019378128,0.08340806,0.1418914,-0.07399032,-0.02858144,0.005039282,-0.015082218,0.039127413,-0.024106583,-0.041855216,0.0026603148,-0.007940741,0.017032007,0.09227852,-0.14237614,0.0016186537,-0.028243857,0.027616968,0.020263715,-0.039758846,0.018212339,-0.0079299975,-0.008843475,-0.037055206,0.06839427,0.12729503,0.108576745,-0.16087371,0.0007913181,0.034361806
com.rafsan.inventory.controller.employee.AddController;0;-0.0626238,-0.028958274,-0.008839256,-0.0969487,0.03788337,-0.080212936,-0.04154647,-0.044460822,0.07504751,-0.05633279,-0.049874842,0.0831461,-0.0061406037,0.030592373,0.13162448,-0.08330975,-0.080389574,0.0013944039,-0.01694581,0.03576061,-0.102794215,0.080757946,-0.054856975,0.1258138,0.034725048,-0.040534303,0.20087752,0.1635216,-0.15910159,-0.054719348,0.024692833,0.026161248,0.023850176,0.0052858563,0.01362033,0.12673558,0.10102741,-0.06744257,-0.09136717,0.029847184,-0.020278472,0.044587616,0.019632818,0.030290253,0.073232256,0.05465207,-0.010766281,0.046916097,-0.04675941,0.00221737,0.012701493,0.08542478,-0.10702751,0.053259112,-0.097695276,-0.019750243,-0.017625548,-0.0125757465,0.10611827,-0.09347543,-0.05168864,-0.10190979,-0.15203464,-0.06373324,0.008876595,-0.033139408,-0.053192146,-0.0027386844,-0.010058139,0.01198772,0.0914072,-0.12597421,0.031005852,-0.0155708585,-0.049034886,-0.011766299,-0.0024514417,0.45310205,-0.09418547,0.074961506,0.101259984,-0.063495025,0.28151053,0.033049148,-0.010498956,-0.0035202326,0.04473622,0.033670545,0.056854736,0.024953194,0.07035358,0.047339585,-0.03606927,0.06242778,0.03036379,0.06053991,0.020942558,0.005263731,-0.0054937885,-0.07935497,0.028978184,-0.070519894,0.09116331,0.019350938,-0.009168686,-0.06929304,0.124030195,-0.02721211,-0.058305163,-0.024743358,0.05584902,0.08365707,0.025037846,0.025611885,-0.020773448,-0.0030505909,0.008494141,0.0016851451,-0.012256145,0.15297446,-0.07929354,0.078297734,0.05406566,-0.0964183,-0.035155434,-0.051665943,0.032518435,0.019179372,0.007140491,0.006381591,-0.032026276,-0.12061324,-0.018959258,0.104831696,-0.010141818,0.07451475,0.08411458,-0.040530685,0.07244177,-0.023335809,-0.024199469,0.072599754,0.13069242,0.019864205,0.1239814,0.05299107,0.01071948,-0.0919545,0.037511393,-0.034607064,0.07570182,-0.06876009,-0.034316096,0.08101657,0.007581805,0.56451774,0.086086825,0.05102668,0.035803452,0.047172975,0.20089024,0.00046755094,0.064888686,0.03761048,-0.032683834,-0.004303499,-0.031093074,0.0629705,0.04826174,-0.056349605,0.035402413,0.041758966,0.05997751,-0.07093991,-0.10070703,-0.034150586,0.0031239716,-0.019067165,-0.06434828,-0.052430958,0.005899566,0.03877379,-0.06534136,0.06740051,-0.038538303,-0.0012070641,-0.01566916,-0.03249482,-0.008956341,0.042010684,0.023677137,0.029060127,-0.031425636,0.008516818,-0.057177622,0.11487429,-0.040585123,-0.041888997,0.064993024,0.003547009,0.08678737,-0.086440936,0.13383494,-0.13593057,-0.0026893623,-0.0022451081,0.09658564,0.0460796,0.030504052,-0.12138735,-0.028367396,0.03200044,-0.04577888,0.124251075,0.036479104,-0.02864534,0.027994977,0.0638977,-0.058546174,-0.07720214,0.027975164,0.07404542,0.047883272,0.101186894,-0.0486545,0.086195126,0.0017023063,-0.034680054,0.054431524,-0.02759934,-0.01626386,-0.018073892,0.05507009,-0.036767565,0.08511634,-0.11014636,-0.04580604,-0.055710807,-0.044572715,-0.003972245,-0.1411492,0.061039135,-0.022622796,0.025848605,-0.074711844,-0.021801174,-0.022733781,0.07820185,0.026570337,0.022269849,-0.04746248,-0.022606615,-0.026923425,-0.051680345,0.039372377,-0.0018797461,-0.045540377,0.03471412,0.15686467,-0.01656488,0.008763911,-0.039038032,-0.019419845,-0.0018191831,-0.10534992,-0.11965186,-0.018143581,-0.014720949,-0.012529662,-0.07899815,-0.05290154,-0.018427256,-0.009509546,0.04718299,0.008069713,0.058943935,-0.045268543,0.007673909,-0.08816633,-0.0056909816,-0.006023147,-0.13251044,-0.103849545,-0.017595679,-0.010758217,0.017120417,-0.10552922,-0.029281093,0.09394478,0.092715435,0.0771536,-0.03969547,-0.055272188,0.13257849,-0.029062212,0.03991884,0.088139385,-0.019450225,0.030541884,0.086093634,-0.06475422,-0.05689896,-0.14688605,-0.008671818,-0.006636712,-0.12277372,-0.04711116,-0.03007338,0.000511501,-0.021829091,-0.07468567,-0.068340994,-0.081585415,0.10485989,-0.004377962,0.037692048,0.08470183,-0.09938961,0.026259603,0.029451177,-0.0032441432,0.024457168,0.098410174,-0.07523212,-0.008547813,0.11227018,0.027990121,0.026471319,0.05446728,0.39341566,-0.30622813,-0.012404889,0.09607001,-0.046521563,0.07425215,-0.07681947,0.045967005,0.03109647,0.10411145,0.052759282,-0.0013900739,0.118168,-0.05250569,0.052465003,0.068573534,-0.0641991,-0.0030387945,-0.0360648,0.010220377,0.03098178,0.019118141,0.0020734398,-0.07246753,-0.023284955,0.008647826,0.07606925,0.021659365,-0.0352528,0.043561593,-0.014998723,-0.06204622,0.01580824,0.011574623,-0.0070630005,0.12014274,-0.07809613,0.0061611226,-0.004366317,-0.008576376,0.034705643,0.06580566,-0.031047141,-0.065194875,0.09192075,-0.015640939,-0.0023221646,0.016401492,0.037971467,0.0067364466,0.114726044,0.06818485,0.072939076,0.02332998,0.008941129,0.12195717,-0.09241939,0.00010623946,-0.021110948,0.01567356,0.023002815,-0.039202202,-0.07637554,0.013797198,-0.046614658,0.18479379,0.10477197,-0.010687051,-0.26930952,-0.08752695,-0.0038226515,0.004179265,0.085263275,-0.08779745,0.0040594926,0.032750472,-0.0033722064,0.05375603,-0.060896214,0.034378875,-0.11530781,-0.028322529,0.047537196,0.077374265,-0.04446994,-0.021627454,-0.030727714,0.04468669,0.0089488635,-0.016830428,-0.013974758,-0.09891618,0.06124208,0.025071071,0.09834797,-0.121296205,-0.048532087,0.081377804,-0.068850264,-0.11370629,-0.026477978,-0.0634628,0.10403464,-0.097347796,-0.07135689,0.016910201,0.03392998,0.013349003,-0.02395953,-0.103121795,-0.07230927,-0.045226447,0.007307422,0.05130868,0.01253131,-0.04736423,0.057361446,0.022891792,-0.049917888,-0.10896459,-0.021036658,0.016461644,-0.01100133,-0.041102923,-0.51108134,0.12425214,0.055573493,0.019843105,0.09112206,-0.034306698,-0.047830656,0.004669623,0.02924145,0.05147125,-0.06364227,0.021822045,-0.027190272,-0.09424426,0.04609673,-0.06227864,0.028727895,0.046116345,-0.08488848,-0.0220308,-0.044463832,-0.0180515,-0.033774607,-0.0032612039,0.099002674,-0.016834041,-0.09242824,-0.037085935,0.0013567321,0.08409343,-0.06121711,-0.07540852,-0.023804514,0.010452416,0.0002358869,0.0949665,0.06813836,-0.0045056753,-0.1473861,-0.017323868,-0.011253571,0.21910071,0.045633987,0.14277944,-0.03900022,0.030304432,-0.01991589,0.014001664,-0.021128185,-0.02994412,0.031924583,0.0051210085,-0.031008994,-0.0939468,-0.03989051,0.024309024,0.08826689,-0.05243578,0.02014435,0.17327741,0.006379635,0.029289247,0.0723296,0.012550661,-0.050882574,-0.03983565,0.032111883,-0.09051378,-0.044842675,-0.024143996,-0.022531996,-0.06986356,-0.046504475,-0.07249072,-0.029613767,0.079430036,-0.022291161,0.13504863,-0.023779634,0.12753738,-0.04046495,0.029492006,0.06306928,0.026285123,0.07925325,-0.07032514,-0.11650063,-0.08076754,-0.0074270046,0.15910704,0.004715232,0.10871999,0.045172837,0.051477943,-0.044830903,0.044712756,0.094225615,-0.011173999,-0.5587146,-0.029376706,0.07266677,-0.06973319,0.022993721,0.030749235,-0.019396514,-0.031367704,0.07031136,-0.13552259,0.08618404,0.04553268,0.072368786,-0.046528567,-0.027019033,0.02603228,-0.04092109,-0.048438277,0.022187464,-0.35307705,0.018748883,-0.114885144,0.08458748,0.019877015,0.07365076,0.020153498,-0.027256634,-4.4393586e-05,0.02096456,0.1097827,0.017781973,-0.018324757,-0.06320833,0.052154075,0.089626454,0.10000792,0.038463954,10.981877,-0.054835834,0.06046716,0.030149223,-0.017815404,-0.08029995,0.039582595,-0.03508053,-0.0004022522,0.14752448,-0.017810144,0.09802283,-0.060058594,-0.030193467,-0.02925107,0.05091396,-0.052718934,-0.09931735,0.01776743,0.015549634,0.07514027,0.024673197,0.0838303,0.103055194,-0.09797207,0.033847917,0.0021171374,0.0023595002,0.06468794,0.05219699,-0.012581824,0.045542438,0.08952273,0.119569734,0.040892407,0.0442113,0.07531424,0.08127269,0.07703191,0.07725639,0.072775945,0.0073243147,0.028482731,-0.10033351,0.04722915,0.040772833,0.0061983354,0.1510188,0.06109433,0.15974578,0.08928394,-0.04223711,0.0543867,-0.0055319853,0.0011643346,-0.047755457,-0.0023772,-0.08986193,0.11791067,0.0714983,0.017063595,0.16322726,-0.043078844,0.07602917,-0.019575177,0.09665736,0.03565036,0.12043929,-0.115512036,0.036411773,-0.0627854,-0.047008157,-0.05132804,0.028421879,0.04654292,-0.045386072,-0.013416627,0.021717656,0.07417288,-0.054375608,0.01966446,0.02721956,-0.008228924,-0.07474985,0.034033544,0.042265616,0.084112644,0.07963058,0.047059655,0.064414464,-0.024834057,0.064228356,-0.0083007375,-0.069134936,0.001139018,-0.03290936,0.062969044,-0.07846311,0.08507185,0.051557355,0.00028712643,0.014830555,-0.037393466,0.08871949,0.016581178,0.031932823,0.070390195,0.033214122,0.07584458,0.003819539,-0.07932129,0.09614523,-0.05445384,-0.021681234,0.062424418,0.011513237,0.014574786,-0.023413373,0.049849197,0.030354219,-0.04080724,0.00010171952,-0.059512563,-0.0067652883,-0.0369498,-0.047829416,0.0050548464,-0.05774383,0.027911369,-0.05249669,-0.074557185,0.012535967,0.051561013,0.031064486,0.073094994,-0.008577532,-0.072534546,0.10588138,0.063311815,0.055246536,-0.016563173,0.015011243,-0.089312,-0.09325801,-0.00349882,-0.033095356,0.10963967,0.07672352,0.1175389,-0.061919175,0.013249707,0.08011148,0.13547811,-0.05004749,-0.014143573,0.005760113,-0.014609448,0.041148614,-0.016770292,-0.04485007,0.028918834,0.0046664914,0.024046803,0.08170605,-0.12410964,-0.012347709,-0.028979778,0.02999723,0.018970301,-0.031119155,0.025418382,-0.0072723553,-0.024606697,-0.05204703,0.04060858,0.12502077,0.0997974,-0.15044896,-0.009175623,0.035162862
com.rafsan.inventory.controller.employee.EditController;0;-0.06288025,-0.042592965,-0.009512983,-0.10265379,0.022365179,-0.079610266,-0.038914178,-0.055854548,0.08209613,-0.05843024,-0.07003932,0.08634341,-0.008813485,0.04018858,0.13099736,-0.09643615,-0.09638624,0.007060525,-0.02456994,0.046188682,-0.105971746,0.086248636,-0.053049453,0.123363934,0.042787746,-0.04551562,0.20380989,0.17754084,-0.16580527,-0.05301006,0.031081406,0.033902306,0.017620696,0.009448147,0.02032413,0.14501719,0.11412991,-0.0703893,-0.0876333,0.033874847,-0.01613863,0.050426573,0.0279511,0.037674915,0.0697686,0.054392427,-0.0110269785,0.05824361,-0.058098078,-0.008944451,0.008534196,0.0821469,-0.10970196,0.05319547,-0.09947483,-0.023381226,-0.016676368,-0.019679375,0.11075806,-0.10637611,-0.040789425,-0.10594231,-0.1498037,-0.06925389,0.0061432836,-0.03881716,-0.049182545,-0.014447288,-0.008923419,0.01585992,0.09029908,-0.13804033,0.039975956,-0.0124652,-0.063116565,-0.018769605,0.0023819949,0.4291683,-0.1042866,0.0763953,0.10254046,-0.06903653,0.2851467,0.039433174,-0.010528027,-0.0073561505,0.0377831,0.042622928,0.060986586,0.010142652,0.07064756,0.046167005,-0.031261887,0.065270916,0.025709575,0.059305076,0.029531663,0.037843946,-0.0012335369,-0.08839315,0.03036799,-0.0710261,0.09691264,0.023069594,-0.0028829095,-0.08112493,0.1431305,-0.035111718,-0.070869006,-0.014105549,0.064263,0.092721656,0.031838953,0.028850844,-0.024223102,-0.012457373,-7.9553225e-05,0.0036120191,-0.014509324,0.16687208,-0.07898162,0.07265012,0.03882303,-0.101186365,-0.036775347,-0.0522249,0.041142065,0.02611806,0.020627758,0.0004789515,-0.035908602,-0.12693651,-0.023416238,0.105847545,-0.024864612,0.07884749,0.08696735,-0.04879249,0.068889335,-0.023818634,-0.014988849,0.07390519,0.14094995,0.013355655,0.12554762,0.0547717,0.0057391683,-0.09391091,0.02899039,-0.030033711,0.08179039,-0.073366635,-0.032021,0.08826929,0.007804709,0.5736251,0.09794947,0.057436552,0.04117326,0.043031894,0.19548081,-0.00707818,0.06957648,0.041456122,-0.030129414,-0.013768129,-0.030323882,0.056264695,0.050503418,-0.058487173,0.040216852,0.038646653,0.06577577,-0.07864131,-0.09500441,-0.026346834,0.01167332,-0.030683996,-0.055770908,-0.065563485,0.019195389,0.045800213,-0.065441445,0.08389458,-0.041756418,-0.00052841427,-0.026190668,-0.044724077,-0.003276837,0.037791133,0.028526887,0.036715254,-0.030672744,0.012410413,-0.060433395,0.1143923,-0.04474327,-0.051013827,0.07086286,0.011087295,0.08348869,-0.07398575,0.13595648,-0.13966276,-0.008459214,-0.008770114,0.11223914,0.05065267,0.028012995,-0.12876065,-0.03025932,0.02727621,-0.045610365,0.120309085,0.045255408,-0.041196965,0.032004297,0.047830597,-0.05863384,-0.084914014,0.02670309,0.07163508,0.04425028,0.10103847,-0.042870477,0.0981875,0.0055700857,-0.034923233,0.047356296,-0.028785277,-0.026189914,-0.028311472,0.06375094,-0.041829236,0.08373463,-0.11724747,-0.048306614,-0.06463972,-0.035546567,-0.013203982,-0.14674266,0.054486096,-0.020340476,0.027356952,-0.07335851,-0.035999283,-0.017214533,0.07987552,0.041839868,0.015605421,-0.043549545,-0.028152794,-0.026756711,-0.04956764,0.041729074,0.0059342403,-0.033909135,0.032825597,0.1687242,-0.025606245,0.0061618416,-0.03666731,-0.028946921,-0.009349428,-0.10937734,-0.13489369,-0.020244936,-0.013836336,-0.012466966,-0.08246179,-0.04952523,-0.019378949,-0.014919797,0.048675936,0.008761846,0.0608372,-0.05010612,0.006306734,-0.09023851,-0.00512754,-0.0106676165,-0.1514065,-0.10943463,-0.02164389,-0.011097079,0.0074433614,-0.11030738,-0.031724688,0.10913155,0.10260016,0.070659876,-0.04728959,-0.073131494,0.13583569,-0.029360373,0.053789534,0.08392952,-0.0076745385,0.033388026,0.08218828,-0.081197664,-0.062154938,-0.16705549,-0.014456177,-0.0004523364,-0.12330021,-0.049742416,-0.025512911,-0.0044564214,-0.023793813,-0.08005833,-0.0719974,-0.07742903,0.094212875,-0.0063274307,0.042711526,0.08827382,-0.10843692,0.02789058,0.028474402,0.010201973,0.039172508,0.08354196,-0.084684886,0.00085259415,0.12407348,0.029002067,0.03739956,0.060526952,0.3882051,-0.3036735,-0.028225122,0.10231082,-0.050646946,0.07619079,-0.08864227,0.047082644,0.026352348,0.10012954,0.05267799,-0.0057467585,0.124522135,-0.05873633,0.054361418,0.077834,-0.0579422,0.0033157193,-0.041839384,0.006841135,0.029395599,0.02207803,0.0074246167,-0.07769679,-0.030694738,0.0055397977,0.0709121,0.020790083,-0.03752462,0.052410882,-0.01401327,-0.080239505,0.005882149,0.008996736,-0.009251006,0.10959014,-0.07425517,0.013245713,-0.023663001,-0.014831768,0.026189895,0.061349176,-0.020737093,-0.06050993,0.09178071,-0.018295312,-0.0006246208,0.008693773,0.042798627,0.006835615,0.11393751,0.0779115,0.069962695,0.041310772,0.0038587202,0.13708495,-0.09472736,-0.010154607,-0.032430515,0.0059618875,0.022041999,-0.039447796,-0.080060236,0.012925837,-0.04672815,0.19164762,0.1149126,-0.009149466,-0.2918648,-0.0887303,0.0039049902,0.00012524915,0.09896555,-0.092352405,0.0025502858,0.0357861,-0.008786342,0.06992166,-0.06271892,0.036166664,-0.12877406,-0.028252132,0.05639548,0.0774401,-0.049372908,-0.03225635,-0.031267814,0.04980669,-0.0065585803,-0.027649423,-0.023757726,-0.09867158,0.06797758,0.036800906,0.11257547,-0.1257053,-0.0630226,0.08464676,-0.06970848,-0.12115678,-0.028973613,-0.06066587,0.10444318,-0.10549065,-0.078972355,0.013526186,0.041596785,0.008849463,-0.017907843,-0.111552015,-0.06405786,-0.045359362,0.006355546,0.054938577,0.005086112,-0.040976223,0.07426809,0.019912284,-0.0627934,-0.10620147,-0.03372643,0.01676603,-0.016383696,-0.032311317,-0.50884926,0.14322382,0.046156794,0.020970277,0.111234166,-0.027128225,-0.05297494,0.009076063,0.031753995,0.049131673,-0.05548358,0.02479462,-0.027265934,-0.104924366,0.051194996,-0.056863118,0.041551955,0.04518501,-0.09821463,-0.024142347,-0.044289492,-0.017554887,-0.02452496,0.00015419896,0.10240427,-0.010416242,-0.090987206,-0.0372552,-0.0049463185,0.07389352,-0.07168593,-0.07889066,-0.013403205,0.019929253,-0.0071980003,0.10751486,0.07616162,-0.005997845,-0.15781614,-0.015173303,-0.014643021,0.21893328,0.050162733,0.13312611,-0.056446776,0.027764417,-0.0303929,0.026589712,-0.02232105,-0.033305813,0.032570038,0.011510392,-0.04335969,-0.08975994,-0.033661895,0.040041883,0.10168423,-0.0417423,0.01038049,0.18670133,0.007154988,0.028330775,0.086414985,0.025142502,-0.06307054,-0.0298495,0.046208262,-0.0898381,-0.06267546,-0.024869367,-0.030249478,-0.07641629,-0.05049709,-0.07791829,-0.045431476,0.084868565,-0.029867217,0.1499795,-0.014056196,0.13346028,-0.029089097,0.01557512,0.07063534,0.016864989,0.083234794,-0.07277095,-0.12176033,-0.08349459,-0.017178047,0.16188204,0.014844779,0.10892641,0.048018813,0.062992886,-0.048714157,0.046573125,0.10864655,-0.013166381,-0.5321461,-0.035363726,0.07424821,-0.0899664,0.021452004,0.02549583,-0.016684512,-0.026236523,0.06499663,-0.14738423,0.0852218,0.057652097,0.078167535,-0.044802018,-0.04078056,0.022652864,-0.0407338,-0.042525157,0.011609386,-0.35714126,0.03106542,-0.114949964,0.08716852,0.04267799,0.07567048,0.0117408605,-0.035635736,-0.0015795496,0.025319438,0.114839,0.0064222794,-0.02200327,-0.06947609,0.049931634,0.083887205,0.10660389,0.049819328,10.974569,-0.059595637,0.05897361,0.024618123,-0.011486063,-0.084888615,0.039403744,-0.024311855,-0.0031383971,0.16583967,-0.016619127,0.10493831,-0.053059902,-0.029593997,-0.038204484,0.047900792,-0.053822078,-0.098775744,0.009294038,0.020686466,0.082063794,0.03308996,0.08806962,0.11268923,-0.09581797,0.0364993,-0.009660394,0.007294635,0.072030656,0.061435767,-0.017046839,0.0524062,0.10098508,0.14353064,0.03877283,0.040916547,0.07021944,0.0915019,0.091894954,0.07605546,0.06649959,0.0071633644,0.025018008,-0.11147542,0.04964891,0.041643403,0.00023568515,0.156075,0.051611695,0.1711292,0.09181678,-0.03335516,0.051736888,0.0059388685,0.008272023,-0.046940707,-0.007520321,-0.09576284,0.13097571,0.07621615,0.019801043,0.17747732,-0.05563975,0.06725599,-0.0062756957,0.09941792,0.032170396,0.1107706,-0.11951261,0.033213004,-0.067846835,-0.047417358,-0.054407984,0.037686475,0.055562615,-0.044849038,-0.0004362394,0.020270132,0.07560509,-0.06869462,0.013279121,0.03513261,-0.0059768287,-0.07678707,0.04016006,0.051012844,0.09758274,0.07980656,0.044300146,0.066428795,-0.023970608,0.06515437,-0.0062740175,-0.0766281,-0.005192842,-0.0485296,0.06953745,-0.07410722,0.09593337,0.052257422,0.00034101307,0.027158398,-0.048144683,0.10232943,0.011792569,0.029605951,0.06745494,0.038288552,0.07772517,0.0049966746,-0.08269763,0.09616235,-0.059162844,-0.025056968,0.06061654,0.00882367,0.010287611,-0.03191018,0.064068854,0.023965655,-0.04365004,-0.006138513,-0.063593045,-0.0008579537,-0.05035645,-0.048811585,0.0029523375,-0.058523983,0.026103497,-0.04870418,-0.07541833,0.012736962,0.04342722,0.032764643,0.0830411,-0.016741242,-0.08412176,0.11820813,0.0552486,0.05748055,-0.009316154,0.021632124,-0.099809274,-0.08722584,-0.0085774595,-0.015387265,0.10913899,0.08889256,0.121387854,-0.07048573,0.007130995,0.08492659,0.15996517,-0.047305614,-0.008663552,0.0019624599,-0.01207919,0.038139176,-0.022818036,-0.048908122,0.017527696,0.022744218,0.026515348,0.094832346,-0.12472913,-0.011982717,-0.039482877,0.031208325,0.02761763,-0.0382578,0.03440968,-0.026660508,-0.0016575092,-0.048590682,0.038855836,0.12287062,0.10575906,-0.16839956,-0.0007198693,0.037124537
com.rafsan.inventory.controller.employee.EmployeeController;0;-0.048136406,-0.038786717,-0.01563363,-0.10272307,0.037218902,-0.06972642,-0.01178116,-0.04563921,0.055643108,-0.072747946,-0.03157756,0.07535902,0.008015681,0.020245256,0.1358689,-0.07527838,-0.08519315,0.0013868823,-0.016068544,0.036393538,-0.11142351,0.07321436,-0.063813284,0.12229998,0.00042237467,-0.047429953,0.19850768,0.17194518,-0.16636613,0.0012951131,0.013840018,0.030278662,0.013839726,0.010247309,-0.009278772,0.12499906,0.10962525,-0.06485908,-0.11637334,0.011328784,-0.01126222,0.0393907,0.028416203,0.04160886,0.055849817,0.069939025,-0.0041645872,0.008806029,-0.04343203,0.011209062,0.013770665,0.07077399,-0.10337458,0.044341102,-0.0862405,-0.04690356,-0.003304941,-0.009802375,0.106877,-0.11784305,-0.037932537,-0.11156722,-0.13826455,-0.10376531,-0.0059285443,-0.03925195,-0.048969235,-0.0051503545,-0.0027681363,0.02158942,0.06818257,-0.120067805,0.025944255,-0.030023608,-0.06978996,-0.017049134,0.0078812735,0.457497,-0.0870222,0.09364726,0.10039634,-0.06541825,0.3117427,0.041598182,0.008982413,-0.021480173,0.033575382,0.05509855,0.053089347,0.026140463,0.10373363,0.055945925,-0.040622406,0.021508237,0.04452365,0.03849124,0.009340937,0.010271577,0.012270017,-0.08391719,0.04047508,-0.06960349,0.1278129,0.038277056,-0.0025595585,-0.07019761,0.13514504,-0.03673256,-0.07731272,-0.035601262,0.065077305,0.078595534,0.041334134,0.025843205,-0.010676008,-0.021846443,0.01371117,0.005113763,-0.017374504,0.15128215,-0.07439778,0.08038327,0.074355334,-0.11127482,-0.034981467,-0.05381368,0.04255478,0.024166696,0.034670163,0.032352153,-0.02059148,-0.10888223,-0.025663204,0.1117854,-0.013458795,0.074118495,0.08551811,-0.04767306,0.08304918,-0.02865537,-0.027141253,0.078335695,0.14571215,0.037502266,0.13239464,0.031952493,0.0016555727,-0.09302077,0.03731456,-0.029641854,0.07729911,-0.078032725,-0.01462804,0.077012055,0.053141303,0.561545,0.096641906,0.05643356,0.022570822,0.018393695,0.19049396,-0.017002374,0.06484429,0.040606603,-0.03593208,-0.014581193,-0.01843051,0.057789445,0.047517464,-0.043406308,0.04633063,0.056211684,0.0538886,-0.061680395,-0.105875105,-0.05832272,0.011249963,-0.02260442,-0.07675436,-0.052982114,-0.00041169827,0.041306887,-0.06294265,0.05969221,-0.038225774,0.016516974,-0.038450673,-0.04593581,-0.027459737,0.023796843,0.030228363,0.021521099,-0.02057127,0.014848108,-0.032061826,0.111063145,-0.013579379,-0.039423227,0.07358624,-0.0056615737,0.08273263,-0.09142551,0.11387208,-0.11752786,-0.010168433,0.002023044,0.07390422,0.046166107,0.021685518,-0.1327572,-0.02897691,0.0004588411,-0.03704526,0.117913574,0.033080086,-0.03996966,0.024317406,0.037756935,-0.041020133,-0.08781652,0.020710101,0.07383919,0.03769036,0.11812176,-0.05842785,0.06798151,-0.012414305,-0.028781477,0.03440977,0.014592813,-0.021944098,-0.018091895,0.085389644,-0.023005636,0.061679974,-0.13772172,-0.0416813,-0.07179859,-0.05316071,-0.008264256,-0.14286858,0.05587458,-0.015757166,0.041130945,-0.05866656,-0.0021096794,-0.0068269875,0.036415335,0.043024596,0.023681672,-0.03518701,-0.046136156,-0.036153544,-0.04248286,0.06017628,0.004823644,-0.04875115,0.032497585,0.16100995,-0.02056629,-0.011355509,-0.044802606,-0.021028925,0.002089985,-0.104194164,-0.1181298,-0.034223273,-0.01103906,-0.021765979,-0.10148381,-0.04383418,-0.011494402,-0.029330574,0.029836131,-0.0036985576,0.06436239,-0.018853774,0.010146818,-0.07901569,-0.0092554595,0.0011093142,-0.13143753,-0.10148686,-0.029689614,-0.010622631,0.0052578435,-0.07281155,-0.0147537505,0.123717666,0.09714127,0.0835943,-0.048889473,-0.08499583,0.117198616,-0.030626439,0.02571144,0.11292762,-0.00014453588,0.030693267,0.06987694,-0.05369542,-0.095121995,-0.15481241,0.0040452126,-0.004203185,-0.10873056,-0.046918295,-0.030750504,0.006801201,0.0006203666,-0.077309236,-0.07472161,-0.09654761,0.09309765,-0.00028994028,0.036790643,0.077542074,-0.0851032,0.01682043,0.03218768,-0.0016730689,0.013459658,0.08433011,-0.07261225,-0.026870288,0.12774481,-0.0040253904,0.011944804,0.055653647,0.382753,-0.31398675,-0.017780319,0.1112158,-0.06698741,0.07960471,-0.09652919,0.032276362,0.013506742,0.1159388,0.047169708,0.015581914,0.11580488,-0.054763876,0.05163218,0.0725943,-0.052517425,0.016643612,-0.032406297,0.0069387415,0.04518158,0.028810624,0.015194927,-0.045086265,-0.0034968439,0.020484673,0.07055152,0.017837303,-0.018447246,0.046071675,-0.042362094,-0.056584332,0.002187596,0.026688512,0.009588317,0.12480059,-0.07292798,0.0018587785,-0.022514503,-0.007444856,0.030345188,0.04239311,-0.047199547,-0.06387142,0.09503868,-0.0071736467,0.0034058967,0.013168507,0.036325987,0.02467054,0.109755464,0.07634035,0.07418021,0.009823363,0.0013954815,0.13718206,-0.06593098,0.02049038,-0.052244645,0.0120549295,0.013101634,-0.039325636,-0.049888697,0.024073953,-0.03887703,0.19008455,0.101745896,0.004014072,-0.23947784,-0.06911991,-0.019937746,0.019719549,0.07132943,-0.06542413,-0.0023916466,0.028949022,-0.04136514,0.10365544,-0.05428572,0.040272813,-0.12850827,-0.01608995,0.049330458,0.07298144,-0.046362557,-0.046649612,-0.040995285,0.026098302,0.021751069,-0.028451353,-0.029855737,-0.09946794,0.061457362,0.039167657,0.08095286,-0.14747803,-0.056313004,0.073980905,-0.08168276,-0.14340213,-0.015452064,-0.0625121,0.11141215,-0.09653689,-0.06735929,0.023071978,0.024355609,-0.0023898107,-0.010220624,-0.12170989,-0.07424148,-0.037046246,0.022040542,0.05298566,0.012340837,-0.048643846,0.026818883,0.061276358,-0.05175717,-0.12767191,0.00056346384,0.015937788,-0.019088749,-0.033125576,-0.50967085,0.1340034,0.034262758,0.028821282,0.08629033,-0.046895713,-0.03545887,-0.0013301917,0.038969364,0.034845475,-0.0594122,0.027995076,-0.022445584,-0.11763047,0.047624983,-0.07638697,0.0031925954,0.027417386,-0.09148201,-0.0018958205,-0.054150686,-0.017603332,-0.036538184,-0.016472258,0.07867561,0.0101151755,-0.08368697,-0.040718697,-0.008925171,0.073359035,-0.06259951,-0.05594094,-0.022682965,0.016004205,0.011730616,0.10932404,0.07361254,-0.012747895,-0.119698845,-0.020361008,-0.00537808,0.21982594,0.064634115,0.14624687,-0.05005302,0.0030047102,-0.020652587,0.016050087,-0.02573965,-0.033825085,0.06457714,0.012069532,-0.03677162,-0.083819784,-0.06432236,0.034715403,0.08896187,-0.076091446,0.012832727,0.18160032,-0.0054719546,0.026052339,0.07351211,0.023856973,-0.055499945,-0.046340805,0.048426878,-0.08969419,-0.051672507,-0.032289114,-0.022041,-0.060878634,-0.051453285,-0.06503176,-0.047605913,0.09156559,-0.020100081,0.12382278,-0.0039566616,0.14470656,-0.03287966,0.02653378,0.057197914,0.025898172,0.08388202,-0.07137763,-0.10503498,-0.0890277,-0.02982567,0.15506679,0.023372289,0.14071168,0.05952835,0.044270817,-0.038785126,0.036888428,0.082620546,-0.013334493,-0.56589246,-0.014667407,0.06969028,-0.06635368,0.04038422,0.019753128,-0.017079229,-0.008073592,0.09375901,-0.14157662,0.05346006,0.051366404,0.07323776,-0.07414527,-0.032771222,0.017163694,-0.042293694,-0.040850397,0.03431549,-0.32493183,0.032425538,-0.11336366,0.0692226,0.03377992,0.05961229,0.019820422,-0.021286316,0.011480719,0.019934876,0.12713131,0.034339808,-0.031069478,-0.06906182,0.050032604,0.07532873,0.099572614,0.054674372,10.91692,-0.06352945,0.062034838,0.02842827,-0.003201113,-0.07746277,0.029386017,-0.028749624,0.026365599,0.15868086,-0.019917874,0.1035395,-0.052541807,-0.027442934,-0.04346205,0.051962033,-0.0754963,-0.082210705,0.009373331,0.008283239,0.07383324,0.015083138,0.083731905,0.12106277,-0.10024654,0.014441933,0.014355342,-0.0028747942,0.05772478,0.047937647,0.010030563,0.07789431,0.09732388,0.13273007,0.041903913,0.03884109,0.062648,0.064856336,0.06712937,0.07641697,0.07251933,0.021713065,0.043723315,-0.09727132,0.05514342,0.04346706,-0.009340987,0.14058685,0.07159744,0.15183353,0.08165052,-0.061088733,0.05617284,-0.010413502,0.0033950745,-0.05212881,0.014853786,-0.09947995,0.11236416,0.042948484,0.02973147,0.17301254,-0.038139816,0.05778018,-0.0018790824,0.09951357,0.05592674,0.06671912,-0.09254831,0.055098843,-0.06164458,-0.064357914,-0.053125564,0.03947419,0.050996684,-0.031383164,-0.011501587,0.043216497,0.05872733,-0.03963846,0.02696629,0.035897583,-0.02466739,-0.06723655,0.033505354,0.057901006,0.060606573,0.09432847,0.017082954,0.038045973,-0.055524997,0.059699927,-0.013372817,-0.04488961,-0.017324517,-0.02934644,0.042579047,-0.0856001,0.07436258,0.055955596,0.023694122,0.048163302,-0.009052727,0.09906658,0.031929962,0.0030319775,0.045386963,0.018393073,0.08971689,0.0030484777,-0.07947011,0.07628368,-0.051958397,-0.037279226,0.060570672,0.015606791,0.03621658,-0.02823934,0.065068014,0.047799274,-0.02482508,4.7634254e-05,-0.057651877,0.018931316,-0.03887525,-0.050856844,0.018763797,-0.06978979,0.025803376,-0.050322846,-0.0632548,0.019268893,0.05892618,0.059308555,0.067785956,-0.027339913,-0.06672954,0.11418787,0.05628779,0.050379038,-0.018915514,0.0019864151,-0.092862435,-0.08308499,-0.005456563,0.0019339207,0.11399987,0.08382259,0.12167254,-0.07062845,0.027979165,0.08984673,0.11212986,-0.06426927,0.0020960462,-0.013995813,-0.010271523,0.031965673,-0.016322374,-0.060023945,-0.0029507508,-0.01192055,0.036344934,0.05747984,-0.16541378,-0.016531602,-0.012714929,0.029978147,0.014231624,-0.04478987,0.0051111104,0.008495178,0.012004103,-0.044150308,0.06244615,0.1212289,0.096620284,-0.16181701,0.013710362,0.020313207
com.rafsan.inventory.controller.login.LoginController;1;-0.060760938,-0.042264003,-0.014570698,-0.08961892,0.044228874,-0.08986163,-0.026518855,-0.066632144,0.07289439,-0.0636607,-0.05228809,0.096864864,-0.003085095,0.025665393,0.14329267,-0.10332147,-0.08647172,0.014340829,-0.029368846,0.019201009,-0.10674417,0.09010036,-0.052309137,0.12912448,0.028103713,-0.048517585,0.20760298,0.18058741,-0.18269382,-0.02882341,0.0322489,0.036301818,0.017406348,0.0064400258,0.004303043,0.1299062,0.10910264,-0.075338274,-0.08729902,0.030827675,-0.0051284656,0.03624922,0.02438957,0.027811576,0.053402312,0.066395156,-0.008867787,0.038022853,-0.05218582,-0.014926381,0.015577421,0.08361801,-0.1158542,0.06227094,-0.10224642,-0.037275393,-0.011952834,-0.01596861,0.11306822,-0.10311976,-0.03424563,-0.10534262,-0.14890885,-0.071222484,-0.0026641064,-0.035032615,-0.041357487,-0.006590489,0.007456675,-0.0028617326,0.06913868,-0.14150175,0.042405542,-0.020416342,-0.069738455,-0.01611485,0.016595677,0.4088264,-0.11200927,0.10061751,0.10468518,-0.062683105,0.24968372,0.03810568,2.7662143e-05,-0.0038813986,0.03560716,0.042898744,0.06532778,0.023818256,0.09388435,0.037827402,-0.03570307,0.058553696,0.03423297,0.056843523,0.019690221,0.0077946037,0.0047762226,-0.07006727,0.041387435,-0.07079602,0.08840473,0.036061488,-0.015902387,-0.07803935,0.1171116,-0.029752344,-0.08425459,-0.02551703,0.061978225,0.08947851,0.024340749,0.024618944,-0.028456822,-0.0026537473,0.014769694,-0.008065143,-0.023001809,0.18401816,-0.08357519,0.07758831,0.04067505,-0.098396406,-0.02264106,-0.059770018,0.046396643,0.02169471,0.028255325,-0.004179818,-0.03101775,-0.12670109,-0.018497566,0.0933152,-0.011895884,0.08989849,0.08440207,-0.033165377,0.075680934,-0.01143628,-0.02479643,0.064544566,0.14854206,0.023573367,0.12792414,0.03833201,0.008792462,-0.10095275,0.04263517,-0.03874433,0.076658666,-0.082262985,-0.032607727,0.079937756,0.028651454,0.5752119,0.08245504,0.045273796,0.052331664,0.03124154,0.2053876,-0.014506704,0.066874,0.035662174,-0.022947455,-0.014490795,-0.023987316,0.057523645,0.038928576,-0.061482605,0.047415696,0.052842587,0.052866288,-0.065706074,-0.110719934,-0.022654086,0.005623861,-0.006500582,-0.049508806,-0.041858993,-0.0028777593,0.032325577,-0.066484526,0.060097873,-0.027145723,0.023140745,-0.02625312,-0.036215417,-0.019522492,0.02415004,0.008332586,0.023788705,-0.03735408,0.015954297,-0.06007701,0.107708335,-0.031707942,-0.036162525,0.08780705,0.008399863,0.06118691,-0.08571768,0.13339062,-0.13692273,0.007849413,0.001953743,0.098078236,0.045498896,0.030805623,-0.1251974,-0.023051728,0.028833413,-0.042938028,0.11963762,0.040323406,-0.03678872,0.017397229,0.028714212,-0.053051226,-0.09266136,0.032366596,0.066240296,0.036904983,0.106698245,-0.0392032,0.08310504,-0.0030700513,-0.022890873,0.05138825,-0.020790923,-0.03253208,-0.02635306,0.07586773,-0.025439193,0.07955092,-0.11852242,-0.04885207,-0.06050428,-0.034700863,-0.0028565722,-0.15101454,0.053620122,-0.026420273,0.008728281,-0.09447884,-0.020943262,-0.013093401,0.054770377,0.027360944,0.030306172,-0.046942174,-0.04065351,-0.029925436,-0.046694726,0.034894116,0.01321359,-0.019086838,0.046968825,0.17419532,-0.035630103,-0.005566362,-0.019767009,-0.035090297,-0.013857301,-0.09919524,-0.12108873,-0.028051207,-0.016711026,-0.023164038,-0.092524715,-0.046952445,-0.007450315,-0.020544682,0.047194995,0.006174301,0.059754938,-0.055788912,0.003446802,-0.066753834,-0.0063657714,-0.00073739025,-0.13921794,-0.12650308,-0.015593125,0.010209819,-0.013901424,-0.11461827,-0.023416797,0.1126979,0.097715676,0.08637834,-0.03176321,-0.054266237,0.11962326,-0.03239019,0.044077612,0.0946835,-0.011750313,0.04765062,0.07844902,-0.079670355,-0.08162303,-0.15092364,-0.015254132,-0.0018935208,-0.12795126,-0.056113202,-0.019278325,-0.015054803,-0.011268089,-0.08656788,-0.06630981,-0.07204986,0.09912047,-0.013615652,0.036473222,0.08858381,-0.10676515,0.011380238,0.031635147,0.008673431,0.027020618,0.09591177,-0.081550784,-0.020434238,0.127772,-0.00041308184,0.008548659,0.05389537,0.38369608,-0.3227973,-0.008483793,0.091497235,-0.059011966,0.07820592,-0.089253806,0.046749245,0.01538101,0.11372038,0.054696977,0.010234315,0.11371453,-0.046971533,0.048156306,0.07455591,-0.062351592,0.004926582,-0.030216739,-0.00022827322,0.054592185,0.022283804,0.0036807258,-0.08525461,-0.014157874,0.017840574,0.06241484,0.01729928,-0.011345628,0.043154124,-0.025352003,-0.07734114,-0.0034082334,0.016504817,-0.007152126,0.11299537,-0.06437089,0.005705085,-0.012457222,-0.010516789,0.039558023,0.060965315,-0.01201432,-0.06394762,0.11491895,-0.014383394,0.012175197,0.0316828,0.022137366,-0.0020467574,0.11185504,0.06804913,0.06712456,0.033764683,0.004085765,0.12066071,-0.090720646,0.006304386,-0.029245786,0.0114247035,0.023526793,-0.038050845,-0.06551555,0.012538014,-0.0472077,0.20512792,0.120095186,-0.007909331,-0.26246688,-0.086710066,0.002179152,-0.00018164702,0.08099715,-0.06340462,0.022219634,0.021471903,0.0052945744,0.084747724,-0.053467155,0.041563854,-0.11639401,-0.030734258,0.043564577,0.06717618,-0.035913303,-0.04653843,-0.038556747,0.026949726,0.0073826723,-0.017961482,-0.020237137,-0.10385429,0.061127268,0.04190488,0.104900844,-0.124323495,-0.06489474,0.07962713,-0.06516438,-0.1334298,-0.009719823,-0.0714986,0.11537757,-0.10289834,-0.09032365,0.0071945605,0.03623311,0.01214488,-0.019092584,-0.12439543,-0.08566357,-0.055516258,-0.0037635325,0.06075607,0.017313898,-0.03931786,0.061130594,0.007334266,-0.057657287,-0.10765145,-0.026681062,0.012701845,-0.018479165,-0.020942379,-0.50726163,0.13480683,0.04730678,0.013495717,0.09489101,-0.03133997,-0.04355312,0.0059829773,0.026599133,0.044652767,-0.07209076,0.013825102,-0.030345147,-0.12123352,0.05888037,-0.048851058,0.04069285,0.03568715,-0.09960038,0.009417391,-0.026648447,-0.02121669,-0.053053655,-0.005759945,0.09940498,0.0029904747,-0.07347109,-0.03691061,-0.01630574,0.07821611,-0.07109556,-0.0672,-0.020786036,0.037984453,-0.009014633,0.11014696,0.064535975,-0.018022884,-0.14508985,-0.02851548,-0.004775175,0.21938825,0.062547125,0.1290535,-0.047405355,-0.0073555247,-0.032051317,0.032674387,-0.027524862,-0.024854783,0.050469138,0.012580867,-0.033149686,-0.09760338,-0.041745685,0.027602911,0.09968923,-0.062302224,0.03534183,0.17874083,0.012239863,0.022872286,0.08225376,0.024094593,-0.06577762,-0.02853883,0.042321153,-0.09098704,-0.068502575,-0.016590523,-0.019044917,-0.06757506,-0.047179382,-0.08480449,-0.042952552,0.08619805,-0.013453401,0.13596162,-0.009374632,0.13184683,-0.031158023,0.025850443,0.06851101,0.027168095,0.090541475,-0.080265015,-0.12808073,-0.082285285,-0.019838447,0.16464451,0.009810141,0.111871496,0.045423113,0.06395734,-0.046949983,0.03434452,0.08435529,-0.011134538,-0.51142824,-0.03793763,0.07480095,-0.096171714,0.041415162,0.023423065,-0.016344141,-0.027751293,0.07663584,-0.14737883,0.060225192,0.055668935,0.0776364,-0.055818684,-0.03615425,0.02712505,-0.0517741,-0.04573809,0.023830956,-0.34354937,0.03186167,-0.11398689,0.069868356,0.04204058,0.073729806,0.02381887,-0.00048615062,-0.006328773,0.02272338,0.10070231,-0.0020734223,-0.025202965,-0.089867644,0.049007043,0.093818575,0.10511396,0.057298474,10.949416,-0.06449472,0.053596552,0.054103967,-0.021165201,-0.08024751,0.03997122,-0.014623913,0.0028367606,0.15306923,-0.023597708,0.10323594,-0.05825201,-0.017934892,-0.040961456,0.06364622,-0.064452186,-0.088540755,-0.0008132191,0.017665746,0.06635909,0.0096175065,0.08310526,0.08543639,-0.11297038,0.040540293,0.015189677,0.0042706644,0.07971941,0.077801436,-0.01011706,0.08699689,0.08321,0.123152494,0.04612948,0.039369736,0.08898206,0.09470287,0.085600875,0.06970355,0.07865167,0.019866887,0.026302304,-0.099526465,0.04498448,0.0386438,-0.0070111686,0.15172832,0.06254538,0.1530289,0.076945856,-0.04363005,0.05166176,0.0029062068,0.0046914136,-0.07050211,0.022518847,-0.09211053,0.12830918,0.056805722,0.038798988,0.17508866,-0.03667565,0.078734405,-0.039122194,0.113328926,0.024458833,0.1077809,-0.11909847,0.058455367,-0.06581035,-0.05359784,-0.04621247,0.036817037,0.06327788,-0.03831964,-0.013847709,0.042024124,0.08515571,-0.056690022,0.030654425,0.03352235,-0.02617198,-0.05879007,0.034159735,0.058250915,0.10225023,0.07743119,0.023868918,0.047577254,-0.038785834,0.059326597,-0.0085201105,-0.06559861,0.00094576785,-0.029763667,0.05929286,-0.08072621,0.074624695,0.04319949,0.0010399835,0.020929433,-0.031652637,0.0996567,0.009301479,0.014437713,0.067308605,0.030520076,0.079374634,-0.002010899,-0.08753169,0.10431202,-0.060680155,-0.03604327,0.07305089,0.015473409,0.022943707,-0.01627274,0.061961472,0.049686566,-0.038987063,-0.0033473675,-0.07449827,0.011515165,-0.04978787,-0.040496245,0.010832565,-0.06929154,0.030901708,-0.05903149,-0.07696825,0.01229305,0.07672776,0.04754448,0.07772295,-0.014681354,-0.07338833,0.111931786,0.057830937,0.048728317,-0.010433246,0.00879894,-0.10113192,-0.07201989,0.007426562,-0.021317923,0.088347435,0.07162745,0.13088764,-0.06886934,0.009613035,0.09726572,0.14942035,-0.060806174,0.00044914708,-0.0032472669,-0.0051692976,0.02400501,-0.021393465,-0.047016777,0.010094349,0.0022757598,0.013584206,0.08236504,-0.14831613,-0.00036299106,-0.032789655,0.03699876,0.014479925,-0.038890094,0.022377225,0.0016627249,0.0106323445,-0.045323074,0.044764772,0.11656475,0.11799802,-0.18883172,-0.005180901,0.031719126
com.rafsan.inventory.controller.pos.ConfirmController;0;-0.051138833,-0.004417698,-0.0138490535,-0.07202989,0.033735994,-0.104264855,-0.03888719,-0.03050384,0.101735234,-0.07121399,-0.02696971,0.10318522,4.3976586e-05,0.0123571055,0.11161663,-0.108373955,-0.06951628,0.02475869,-0.018636096,-0.023151282,-0.10722023,0.04795351,0.0028054095,0.11870891,0.06251598,-0.019859508,0.20382382,0.17801048,-0.17121635,-0.026492544,0.003848161,0.007787538,0.015831297,-0.0027306038,-0.0167087,0.12189546,0.10414772,-0.051661253,-0.10118729,0.029600956,-0.00089113833,0.054670572,0.03643845,0.037556525,0.049412496,0.058447957,-0.007305312,0.02500695,-0.048593815,-0.01349012,0.0008036392,0.10846053,-0.10394694,0.060872592,-0.09437503,-0.016072635,-0.005784568,-0.040228996,0.09184508,-0.080959335,-0.016187454,-0.086001985,-0.1577242,-0.05961706,0.0076008094,-0.026798368,-0.036419258,0.022195304,-0.0016813949,0.012552562,0.060391665,-0.1069673,0.041431174,-0.03518791,-0.06928083,0.0022016717,0.01847035,0.4208753,-0.078565806,0.09229396,0.09492493,-0.025844852,0.30360198,0.044210374,0.03653148,-0.050140306,0.047006935,0.07254568,0.061514407,0.02868883,0.070754066,0.08017382,-0.0431798,0.06948144,0.06430914,0.059730202,0.013371775,-0.04219741,0.0035699015,-0.07381992,0.013775204,-0.06634599,0.12363684,0.031995147,-0.01946076,-0.06841782,0.12917295,-0.019161798,-0.05390088,-0.029567098,0.055719167,0.09592432,0.003843369,0.016557194,0.0024795402,-0.0022630256,0.02641365,-0.020233661,-0.028051823,0.1593351,-0.07864234,0.06209569,0.01655205,-0.090460405,-0.03585511,-0.021163326,0.045673124,0.027903082,0.0135587165,0.040743873,-0.018178955,-0.15965137,0.0025552604,0.09492876,-0.020539615,0.08065428,0.09441413,-0.050362036,0.055371463,-0.009362703,-0.0381144,0.087834455,0.12770441,0.05161135,0.10116944,0.039574638,0.024480065,-0.06575022,0.029865291,-0.048394263,0.08316346,-0.058021918,-0.04074085,0.05901576,0.03924732,0.5703852,0.06534644,0.030696236,0.001340922,0.055415403,0.18514447,-0.046191324,0.046514753,0.03846923,0.002165161,-0.02071481,-0.031890456,0.049078353,0.051169343,-0.026935376,0.03764139,0.039668918,0.056204133,-0.06836243,-0.077231884,-0.04167983,0.011231562,-0.01138567,-0.08291605,-0.04143876,0.030237243,0.0334052,-0.09211337,0.053485043,-0.032567576,0.009091152,-0.018132221,-0.023699742,-0.018732928,0.014883818,0.041829214,0.03815536,-0.033997487,-0.01728195,-0.044795163,0.12931466,-0.033837188,-0.032486435,0.10561378,-0.0013989368,0.08347531,-0.10257603,0.09168445,-0.11485183,0.0003025895,0.0052003693,0.05055803,0.02250686,0.045754664,-0.120749235,-0.009067117,0.026770944,-0.04353068,0.1597507,0.015755542,-0.044642672,0.045791343,0.06132075,-0.030399978,-0.06254688,0.034782253,0.07319929,0.05190859,0.086785346,-0.0788994,0.060345665,-0.0076377243,-0.032120652,0.03224421,-0.022526996,-0.035730295,-0.021371454,0.107538685,-0.0049539735,0.068606086,-0.1183767,-0.025802612,-0.070497304,-0.03514328,-0.0057871123,-0.1216139,0.046442416,-0.006495424,0.022933822,-0.06655283,-0.035470594,0.0023868342,0.05212766,-0.00356403,0.020936063,-0.028240621,-0.04536205,-0.026410388,-0.04187465,0.03986744,0.02974582,-0.048322342,0.014329866,0.13235377,-0.007419754,-0.022953548,-0.052630182,-0.016397988,-0.0029493428,-0.10272083,-0.13401183,-0.039982498,-0.0069390046,0.006186246,-0.0903406,-0.031702854,-0.029303867,-0.02525161,0.03095223,0.0058208494,0.049759537,-0.028208844,-0.005394485,-0.07039817,-0.009601796,0.0033261455,-0.09629448,-0.13452944,0.004049805,0.0040793847,0.016658653,-0.08437449,-0.02387838,0.096060395,0.09678685,0.0838287,-0.0577041,-0.05801449,0.12796429,-0.02230957,0.043823943,0.12291615,0.0040840926,0.032227464,0.079635695,-0.08897704,-0.111939274,-0.14671627,0.0024692193,0.00020573608,-0.11854048,-0.029319003,-0.025682256,0.0005408365,-0.018182678,-0.070632905,-0.057938498,-0.07641508,0.112953626,0.007958819,0.041722782,0.0684495,-0.07155044,0.010170707,0.035592295,-0.0020335452,0.016908474,0.098210156,-0.078399085,-0.03231183,0.14041832,0.018799346,0.0079791555,0.051007766,0.3906503,-0.2802679,-0.0090106465,0.10235904,-0.08085607,0.07444435,-0.08170723,0.02137581,0.04234121,0.1061701,0.061769404,0.035491243,0.097271286,-0.05698068,0.041628327,0.07044858,-0.07047402,0.0034076804,-0.02319387,0.0004607602,0.032808445,0.03512095,0.009892965,-0.054604135,0.0049093356,0.013361816,0.03765803,0.018128779,-0.014449414,0.03609046,-0.0472446,-0.008916058,0.02498727,0.019685859,0.0057346495,0.11887654,-0.07325283,-0.029095946,0.022225171,-0.0014459454,0.039095905,0.042893812,-0.05972364,-0.037245903,0.08984037,-0.008162535,-0.0045427023,0.019218065,0.010367312,-0.040108103,0.109640524,0.058852468,0.061419457,0.0233518,0.008007588,0.1321031,-0.060763903,-0.03193381,-0.04220186,0.025829528,0.032822102,-0.049661227,-0.076279506,0.018816955,-0.062353253,0.20885032,0.10722409,0.021997504,-0.22587255,-0.070082486,-0.015513982,0.029203571,0.05412023,-0.04928485,-0.0014304324,0.014743,0.0027271989,0.06824133,-0.041703884,0.022867799,-0.13494487,0.0113961445,0.08470177,0.052233025,-0.053256035,-0.057492472,-0.0509158,0.055482954,-0.003392932,-0.0637591,0.0028596395,-0.08889317,0.06274393,0.043547913,0.11106303,-0.15253007,-0.05589296,0.073790655,-0.07730737,-0.12326336,-0.0006170013,-0.06773494,0.11578274,-0.09345483,-0.06770608,0.03449598,0.01908095,0.01319943,-0.015138593,-0.11524901,-0.059905186,-0.05868837,-0.025026955,0.05795476,0.008268424,-0.055404212,0.044048943,0.047187775,-0.06015443,-0.11016074,-0.036068708,0.0011638985,-0.024769781,-0.088989206,-0.51525277,0.13362348,0.04500498,0.0049627605,0.07891209,-0.049967177,-0.028966328,0.0027550557,0.051761083,0.044918284,-0.067576975,0.03038384,-0.03431343,-0.111333996,0.0463664,-0.060304627,-0.012272253,0.033410195,-0.09309298,-0.004439228,-0.061604638,-0.014539443,-0.00046700286,-0.009779581,0.0951429,0.010316807,-0.06925996,-0.043110095,-0.008353494,0.07636863,-0.055156928,-0.093271166,-0.023633784,0.019976828,0.0013071436,0.08995809,0.056950383,-0.014135545,-0.12531441,-0.028606813,-0.017283779,0.22116879,0.022435639,0.13313837,-0.00933213,-0.01999623,-0.036642782,0.043709904,-0.015409961,-0.011934961,0.040277105,-0.009467604,-0.02614279,-0.0832233,-0.048457496,0.033904012,0.08276439,-0.07264661,-0.034810893,0.17207024,0.02002301,0.00874011,0.06451382,0.063583545,-0.05245857,-0.036793824,0.08118534,-0.084533945,-0.04996513,-0.0099476185,-0.006394353,-0.05509644,-0.05371321,-0.04830444,-0.039023224,0.090565465,-0.056207232,0.0885311,-0.023303121,0.13430056,-0.036697038,0.0052162507,0.044809736,-0.0019930922,0.06711005,-0.060537323,-0.11230287,-0.044386495,0.006611628,0.15393092,0.021900177,0.13582166,0.06561619,0.06822849,-0.048033945,0.04911363,0.10720632,0.0016992446,-0.5487293,-0.04271072,0.059430003,-0.13270149,0.053827543,0.019214338,-0.030707456,0.008969368,0.07918502,-0.14721406,0.043399803,0.06593958,0.07180825,-0.07811542,-0.02854573,0.018527757,-0.032987848,-0.037579767,0.016098563,-0.27903745,0.017925026,-0.11287208,0.06519602,0.023060385,0.07461937,0.019565884,-0.021119168,-0.008031333,0.026199248,0.13674654,0.03262247,-0.04805254,-0.07674336,0.04859908,0.07684111,0.105551876,0.044885587,10.8463745,-0.052609675,0.06406024,0.013044433,-0.026718007,-0.0857255,0.01988368,-0.023179602,0.013810549,0.15300283,-0.02907026,0.07314356,-0.06670237,-0.026913323,-0.019159554,0.04606671,-0.059675965,-0.07751448,0.03464227,0.0057417196,0.058395028,0.048872605,0.086540475,0.07248083,-0.12525304,-0.024140488,0.01906785,-0.015675437,0.051419485,0.044181384,-0.012259753,0.053218924,0.06962071,0.09675384,0.04679989,0.04645235,0.053845618,0.07464066,0.06912444,0.063663684,0.08759173,0.031961154,0.02982204,-0.102846675,0.052291926,0.027040897,-0.047265723,0.13319859,0.044844154,0.15938833,0.07550886,-0.05041174,0.06863735,0.006134124,-0.006727946,-0.043983363,0.026506878,-0.08676953,0.11354768,0.03967404,0.020575095,0.16815843,-0.024318704,0.06847722,-0.019545743,0.09457295,0.036334805,0.08682227,-0.12573156,0.070360646,-0.050866902,-0.046371378,-0.041942053,0.024451237,0.06843634,-0.047338735,0.004427395,0.04622316,0.062144004,-0.041379675,0.031745203,0.023357157,-0.02468759,-0.057553757,0.02674814,0.05247902,0.06654833,0.072500885,0.011459991,0.035953365,-0.036430217,0.059953436,-0.01595921,-0.04694201,-0.008189729,-0.017924964,0.056446914,-0.07018547,0.09021761,0.037289724,0.023237407,0.020304669,-0.015400017,0.09402077,0.031085113,0.018957635,0.048632547,-0.008370888,0.06172195,0.0017538918,-0.10140783,0.09880558,-0.035625193,-0.017778873,0.06908037,0.032731123,0.023714874,-0.009595992,0.06375939,0.04327274,-0.034937877,-0.00857198,-0.050044812,0.018305412,-0.025510157,-0.058400057,0.010165427,-0.04929561,0.02330055,-0.045834944,-0.09365328,0.0064825136,0.049134616,0.05121288,0.043786407,-0.019721001,-0.06316712,0.1034732,0.06337773,0.034593783,-0.015182159,-0.015357597,-0.08382781,-0.07460299,0.016609466,0.024613716,0.09139971,0.057248995,0.095188916,-0.03410373,0.004836279,0.079060376,0.13252285,-0.046778116,0.0035595926,-0.014124485,-0.015537709,0.01931424,-0.01638563,-0.075562775,-0.005558463,-0.018287398,0.0062720384,0.09237464,-0.13205212,-0.0140705705,0.004825649,0.025210615,0.027216375,-0.01967671,0.0143461935,-0.010108134,0.012012192,-0.04507482,0.06248688,0.121602304,0.11958982,-0.16753992,-0.0010699847,-0.018324321
com.rafsan.inventory.controller.pos.InvoiceController;0;-0.060343992,-0.021138605,-0.025673922,-0.09074394,0.025053952,-0.102672815,-0.026309585,-0.04967019,0.08409163,-0.083403364,-0.026162636,0.091217324,-0.00014157854,0.015697801,0.11850561,-0.097754344,-0.06446026,0.013259132,-0.020891314,0.013170424,-0.11364643,0.07452246,-0.020254135,0.13092825,0.025952399,-0.04203688,0.20783885,0.18575266,-0.1923679,-0.037782483,0.03771196,0.031870205,0.024297493,0.015903424,-0.0091121225,0.13155116,0.100154385,-0.057649493,-0.11752756,0.00823535,-0.0022931292,0.046867073,0.049129147,0.045944512,0.05694176,0.05042795,-0.03372792,0.033592165,-0.05398835,-0.015585939,0.02086189,0.07681696,-0.11551275,0.05846136,-0.103980996,-0.044769023,-0.011225784,-0.02462084,0.10105443,-0.097398534,-0.040906254,-0.11864288,-0.13419667,-0.06475582,0.0026958813,-0.025775978,-0.026697144,-0.0077815675,0.006928469,0.013062311,0.08410922,-0.11956954,0.046305265,-0.030242717,-0.075626865,-0.0030978255,0.018013056,0.42168427,-0.10042671,0.102755465,0.1058832,-0.047705203,0.30295214,0.05339074,0.012940442,-0.033611845,0.023465175,0.06151197,0.06590029,0.038993884,0.09383328,0.05514714,-0.03626609,0.048293587,0.05054332,0.025601914,0.013245881,0.00672302,0.01407706,-0.061484106,0.029832045,-0.07944678,0.11064372,0.036217384,-0.0012788299,-0.064650536,0.14198454,-0.016861113,-0.07927682,-0.046723627,0.055129778,0.09489922,0.0002833746,0.027741244,-0.013402045,-0.009721954,0.033189934,-0.0074501084,-0.035427205,0.16909507,-0.079252265,0.061763503,0.050730865,-0.1054801,-0.017969664,-0.036563538,0.028989887,0.0029821326,0.019854775,0.022208434,-0.030159116,-0.123910844,-0.017046202,0.10779953,0.000736768,0.07574233,0.09236988,-0.047565777,0.06887306,-0.022051385,-0.028073812,0.081811674,0.13371411,0.02972157,0.115966715,0.024612661,0.008880105,-0.08227394,0.038489655,-0.037870277,0.079813436,-0.06753751,-0.034558654,0.08254026,0.009430583,0.5372404,0.065770194,0.032904256,0.0359371,0.029358167,0.20021991,-0.029166892,0.041159146,0.0448226,-0.028569331,-0.028702235,-0.039296884,0.074915886,0.0485201,-0.06934241,0.044271123,0.03948806,0.05611716,-0.074246794,-0.09665574,-0.021428296,0.00809208,-0.011113182,-0.07434575,-0.050784677,-0.0039760424,0.029817287,-0.07354309,0.060053326,-0.046861198,0.0040707863,-0.02043577,-0.016058246,-0.030485928,0.029440966,0.031775028,0.037028946,-0.032725155,0.0006158616,-0.046023592,0.1262338,-0.025550788,-0.042270653,0.0854498,0.0066217883,0.07693899,-0.09348692,0.135319,-0.13040313,-0.017199604,0.003105932,0.05875783,0.05133448,0.04259663,-0.1291009,-0.026398698,-0.010852076,-0.031010132,0.12976976,0.044560883,-0.044080883,0.023660352,0.030414527,-0.031367984,-0.08727284,0.0295442,0.0866131,0.04987622,0.097744025,-0.07295921,0.059329856,-0.008048174,-0.035879526,0.034427185,-0.022118518,-0.026323551,-0.006264709,0.06774584,-0.017176216,0.0714497,-0.11496411,-0.049031846,-0.07338854,-0.015757214,-0.015839648,-0.1489527,0.05473997,-0.0019208774,0.03581214,-0.08020609,-0.022520175,-0.013589163,0.05985766,0.023455909,0.023673033,-0.03276538,-0.065672286,-0.032402825,-0.03851248,0.042440094,0.023581106,-0.050832998,0.037380166,0.14633839,-0.017215466,-0.012932529,-0.031105986,-0.018082196,0.00817435,-0.09632033,-0.10956968,-0.039116185,-0.011917405,-0.013704563,-0.08823846,-0.04559487,-0.01430538,-0.036993243,0.020925907,0.0054408344,0.06932202,-0.06996404,-0.0079271095,-0.059255134,-0.017463174,0.0074069006,-0.12563461,-0.1372544,-0.009063597,-0.012074545,0.018877655,-0.08950775,-0.033159237,0.11717208,0.09761621,0.09508232,-0.05195432,-0.06111888,0.13838132,-0.03581673,0.05214368,0.110799804,0.003444615,0.040226527,0.07843975,-0.06786165,-0.09921868,-0.16533284,-0.00014977678,0.008184689,-0.11481893,-0.05409517,-0.015299102,-0.011812974,-0.005488893,-0.07464884,-0.066733524,-0.082334615,0.10042596,0.0043669096,0.042982526,0.06392865,-0.09629934,0.022296153,0.027328882,-0.0012949358,0.013681151,0.08316122,-0.083333395,-0.013958854,0.14138643,-0.012164476,0.0010979574,0.05868237,0.38695484,-0.30729055,0.0001551982,0.07824181,-0.055444486,0.07503722,-0.08789973,0.023277665,0.015565524,0.10561784,0.056738835,0.026951456,0.098699845,-0.04772307,0.039946992,0.07159482,-0.064452246,-0.01772441,-0.023576682,0.0071691647,0.057967436,0.043112066,-0.0021015515,-0.052590735,-0.0013460424,0.00932486,0.0529716,0.005637338,-0.015356374,0.039333977,-0.07418966,-0.055900685,0.0075482666,0.011230735,0.017744858,0.1350529,-0.07473211,0.014827117,-0.0126865,-0.018249243,0.03111456,0.049256433,-0.027617063,-0.060744293,0.09680895,-0.006352591,-0.007431061,0.026579356,0.024718296,0.0045665153,0.1210233,0.06568999,0.067196734,0.023274897,-0.0031738337,0.12617992,-0.084148444,-0.005545544,-0.045700964,0.02584433,0.022602994,-0.042604625,-0.061671473,0.015549662,-0.05091808,0.19627155,0.11740224,0.010140615,-0.23318918,-0.08164451,-0.024568405,0.020537293,0.076995336,-0.069994844,0.012795878,0.016264778,-0.015663058,0.09039536,-0.03246846,0.04743374,-0.14796147,-0.014813952,0.065256216,0.061115522,-0.050455242,-0.041162115,-0.05125764,0.019642657,0.017243588,-0.03808988,-0.015698308,-0.08842955,0.05856117,0.04757249,0.10096331,-0.13855281,-0.05008464,0.06763652,-0.066732116,-0.13193727,-0.01620588,-0.07045535,0.123927794,-0.075813845,-0.07071544,0.009655168,0.02479082,-0.012618775,-0.016265433,-0.120620415,-0.07049595,-0.04668489,-0.0026165512,0.034597196,0.007853329,-0.037456643,0.03370694,0.052144933,-0.0617473,-0.090713724,-0.009559639,0.026437234,-0.017991185,-0.033558406,-0.5112654,0.1274488,0.04487849,0.0013386661,0.082526386,-0.047434557,-0.025871892,-0.0018322978,0.040523298,0.047812387,-0.06564612,0.034253888,-0.029712543,-0.122958936,0.049512096,-0.06441651,0.01905876,0.03462239,-0.09328457,-0.0071180603,-0.05471803,-0.013500835,-0.027682235,-0.014948033,0.092881665,0.00010455456,-0.07480313,-0.05630777,-0.0040500844,0.0772087,-0.06636225,-0.068348676,-0.018578222,0.03197376,0.0057577477,0.11177635,0.080197796,-0.015471952,-0.13003224,-0.025649855,-0.00093369297,0.2199543,0.055166643,0.1244304,-0.04301121,-0.010169049,-0.04271284,0.026702687,-0.029729044,-0.022839746,0.027925085,-0.0017056406,-0.045176737,-0.08981533,-0.05024212,0.032451402,0.08746825,-0.07334783,-0.004655926,0.17160574,0.016917799,0.005498904,0.066400625,0.036012266,-0.058937944,-0.042824145,0.04262838,-0.069016956,-0.054628354,-0.020075772,-0.004016612,-0.07053132,-0.06269176,-0.08107955,-0.023434335,0.077688396,-0.023231301,0.1238724,-0.009496461,0.14674635,-0.030630141,0.021190789,0.05072238,0.010044528,0.07400595,-0.045231838,-0.11322208,-0.04687809,-0.0028884192,0.16283283,0.02750118,0.13543953,0.0507259,0.05995353,-0.044659097,0.03660364,0.10232969,-0.012919394,-0.5403937,-0.033676095,0.062029295,-0.09852812,0.05080275,0.0146353245,-0.009136455,-0.006014726,0.068457566,-0.14216717,0.037285175,0.048783317,0.094741315,-0.07031272,-0.019043293,0.03482335,-0.060157217,-0.045146838,0.02689817,-0.30471143,0.030493647,-0.0981199,0.07231884,0.058442783,0.07685383,0.014820918,-0.026293194,0.00021498874,0.023160135,0.118660554,0.043127257,-0.036143634,-0.06742468,0.054494996,0.0662892,0.09818009,0.050876707,10.9058485,-0.04246632,0.051435083,0.0498259,-0.007962532,-0.07689749,0.047196455,-0.067514434,-0.00018539671,0.16336767,-0.027581135,0.09121625,-0.057556402,-0.019193491,-0.032771803,0.037963893,-0.06929022,-0.078311965,0.0030640499,0.015190594,0.066847585,0.019270614,0.08978808,0.10156103,-0.10102959,0.012780167,0.015667336,0.016935805,0.053845406,0.04604684,-0.0020940057,0.07200105,0.08067969,0.115858935,0.07094012,0.042628553,0.08015317,0.08200084,0.08383552,0.08925369,0.08612351,0.018542727,0.038300235,-0.11381254,0.05771219,0.031389862,-0.01738512,0.14807402,0.058151305,0.15425232,0.079384536,-0.045181938,0.047592122,-0.010666061,0.0021334868,-0.05618,0.013952275,-0.09700725,0.11612795,0.043341618,0.02852782,0.16960934,-0.031630874,0.07725584,-0.008495932,0.092411794,0.03339883,0.09420713,-0.11551599,0.064514935,-0.05895377,-0.055262186,-0.030491788,0.026500393,0.059629105,-0.03941522,-0.00574002,0.03476411,0.06568515,-0.08516474,0.023781205,0.035151597,-0.023834921,-0.059981775,0.02779613,0.0543801,0.088966176,0.06640722,0.043919556,0.0471164,-0.03663212,0.051497627,-0.0148911625,-0.06513883,-0.043777365,-0.025193697,0.053531397,-0.07280655,0.08620794,0.033864506,0.025132537,0.04389815,-0.017955776,0.12794405,0.010532787,0.0071740136,0.07528821,0.0049367114,0.092115805,0.0016456423,-0.08886426,0.102503255,-0.042353146,-0.032872878,0.07713738,0.016822135,0.033643432,-0.02648271,0.07023788,0.062596634,-0.03424288,-0.0027747503,-0.05053159,0.02335528,-0.041580033,-0.029728036,0.015141726,-0.06547004,0.02290212,-0.054754466,-0.06967874,0.018342653,0.06211611,0.05340604,0.06142952,-0.03577587,-0.079509474,0.12153306,0.07839223,0.05739187,-0.003430403,0.016456582,-0.09483817,-0.09359304,0.00034409575,-0.007833952,0.1082056,0.07913113,0.120551035,-0.048100647,0.023153687,0.08382858,0.14445719,-0.060095143,0.0022504993,-0.01626959,-0.0056678383,0.04309199,-0.021570276,-0.071285054,-0.00040287207,0.0018425367,0.017899882,0.071842745,-0.16340254,-0.020352924,-0.01003538,0.026191723,0.028942132,-0.040221073,0.016236272,-0.0017351452,0.004286605,-0.039669264,0.0669357,0.11387602,0.11110207,-0.17629288,0.008601104,0.0001789879
