net.java.cargotracker.application.ApplicationEvents;0;-0.17388508,0.05710352,-0.14381678,0.30756706,0.18000112,-0.22873229,0.3542414,-0.07790981,0.13794774,-0.5912615,0.24521658,0.15919793,0.010697676,-0.042072408,0.5551347,-0.07158216,-0.3824771,-0.14584574,0.07454122,-0.26741287,-0.12652875,-0.28786606,0.14773837,0.11897317,0.37622708,0.06768564,0.43436685,0.6569946,0.27931526,1.1403407,-0.14999044,-0.07772602,2.3240957,-0.27767655,0.11141561,0.14708218,-0.059891216,-0.048540726,0.38986066,-0.062932104,-0.31118032,0.06760111,-1.3830979,0.10362233,0.40479434,-0.14117251,0.00015880913,0.64691144,0.12860604,0.1544658,-0.12312426,-0.13968867,-0.936258,-0.017359719,-0.18727954,0.47346452,-1.0276558,0.3285526,0.32290223,-0.102497496,-0.37272942,-0.3983265,0.1575811,0.021114528,1.8161763,-0.36311945,0.84034324,1.7838017,0.279014,-0.29864687,-0.05151674,0.37957188,0.072468355,-0.7325341,-0.46524012,-0.27754885,-0.10697345,-1.2683665,-0.7129964,0.20064348,0.54311854,0.16920947,0.17558573,0.34466803,0.16280496,-0.48174137,0.12850574,-0.0018085316,-0.8784643,0.43921423,0.3307114,-0.100824416,1.28741,0.07628977,0.36543632,0.5710115,0.05177678,-1.0697356,-0.17998844,-0.23972411,0.24485385,-0.78316134,-0.49808276,-0.7746166,0.26851636,-0.01998705,0.5492164,-0.0358148,-0.07230117,-0.13593167,0.1494858,0.17815039,0.07492682,-0.19921541,-0.0694895,0.06429838,0.14906561,0.07898294,-0.11140988,0.28994295,-1.4380332,-0.166292,-0.38426003,0.9368501,0.1309163,0.09063936,-0.13363707,-0.38171008,0.5856963,0.014069088,-1.6149957,-0.7689955,-0.3212852,-0.03291977,0.36856782,-0.079989225,-0.4834783,-0.1689597,-0.3657694,0.25422102,-0.9945497,-0.20685026,0.24155709,0.2721544,0.28113198,0.06174805,0.20410044,0.012441758,0.16340701,-0.30881742,-0.9237193,-0.20630637,1.5641491,-0.55032885,-0.5323853,-1.1803161,0.4268557,-0.54158914,-0.24703933,-0.9820338,0.383304,-0.14230092,0.23726171,0.8314708,0.1941706,0.65267956,0.13726096,-0.5329391,0.055341624,0.4768436,-0.09856133,-0.2058415,-0.9822594,0.33121175,-0.0139108375,0.4299481,-0.060178626,0.30181614,0.1867837,2.3771124,-0.16136305,0.14650425,0.08644512,0.20303574,-0.04171186,0.21245414,-0.5594223,-0.051447697,0.2711547,0.09972219,-0.18162708,-0.008698164,0.057740834,-0.006656125,-0.1562261,0.120919995,0.19611424,0.301345,1.6584961,-0.19572222,-0.061671533,0.00050475076,-0.28887525,-0.22062731,-0.2515105,0.639457,-0.2151461,0.41437328,0.5058438,1.3425313,2.2359154,0.4636082,0.30071342,-0.3344151,-1.4285489,0.21632406,-0.32922676,-0.10724182,-0.11392709,-0.34595913,-1.7185441,0.24183872,-0.19686987,-0.5695979,0.09224883,0.3580352,0.14251085,0.43013015,0.15561989,-0.10077642,0.002976641,-0.1121572,0.08064543,0.3204812,-0.9080422,-0.06706914,0.05247369,-0.19988218,-0.2869935,-1.4169796,-0.055877406,-0.072901666,0.33537138,0.5900012,0.60148007,-0.8552122,-0.37707293,0.15677603,-0.30955285,0.3309074,-0.24294212,-0.2945269,0.059658937,0.2541417,-0.5282496,-0.030694392,0.035385564,0.10403709,0.004712928,2.7502387,-0.25323173,0.52270883,-0.08079874,-0.5957419,-0.05682466,-1.4432443,-0.3108643,-0.1292853,0.64994234,0.6282443,1.7870528,0.22574736,0.3894413,0.1252715,-0.35512152,-0.36130896,0.6698699,-0.39155215,-0.8381106,-0.011647383,0.03592851,0.34702715,-0.18898648,0.028024055,0.22234535,-0.19841683,-0.35780174,-0.37008205,-0.12282058,0.2807964,0.72267216,-0.7325191,1.5054078,-0.072792515,-0.19628035,-0.19175205,0.053811766,0.26388896,0.0024280697,-0.33748728,-0.26706386,0.53303915,0.17456982,-0.40604448,-0.8039538,-0.16728626,-0.72480565,-0.16658643,-0.013749324,-0.091491885,0.36744046,-1.1331973,-0.041354656,-0.08202221,-0.2939802,0.28406727,0.168389,0.16386661,-0.117938615,0.032482453,-0.0894115,-0.21051407,1.164473,-1.4652374,-0.09360463,1.0711588,0.29834878,0.0820794,-2.0622118,0.8829785,-0.21780454,-0.2131279,-0.09585023,1.4031888,-1.2973409,-0.12331693,0.5617642,-0.3993648,0.6236329,-0.024635598,-1.539998,-0.12243222,-0.55221945,0.47939563,-0.14553365,1.3678148,0.13314794,-0.48958087,1.3135526,0.173689,-0.6433167,-0.8375621,-0.20572923,-0.13871767,-0.42508018,2.913512,0.11621845,-0.28955197,-0.42486846,-0.3027015,0.4058956,0.21679428,-0.3199775,1.9835143,0.8851908,-0.56018215,-0.88082075,-0.27697483,0.3253753,-0.07766329,0.25938332,0.053674098,-0.12407923,-0.24839358,0.45388383,-0.4006933,-0.25348628,0.4575622,-0.18022892,-0.29258507,-1.2623842,-0.052712165,-0.25395328,0.31294554,-0.30568668,-2.6899245,0.4270604,0.0014465079,1.5920216,0.43933177,-0.1983951,-0.45126656,0.19173567,0.2716843,0.062465355,-0.080718525,-0.34007755,-0.09694868,-1.1374651,-0.23138349,-0.0140399225,-0.14072649,0.23359218,0.50826657,0.20109473,0.59152156,-0.17769612,-0.1872115,0.12874268,0.45158398,-0.4165435,2.1246655,-0.02637197,0.19307008,-0.15110545,0.41048515,0.3631171,0.15254606,-0.24537022,0.3655376,-0.14142391,0.32573175,0.7535657,-0.21378122,-0.30790886,0.22777328,-0.0143346265,-0.1162959,-0.26546907,-0.4063396,-0.011085171,0.66366065,0.4144411,0.032185145,-0.11584587,-0.24862364,-0.100846514,-0.3928186,0.71669614,-0.045293365,0.2706953,-0.06912212,0.0036904663,-0.040155083,-1.110464,0.28176957,0.58032197,2.0727074,-0.17369518,0.1885446,-0.14256147,0.024018586,-0.16334014,-0.112431474,0.73535526,-0.118666835,-0.08759479,0.19104193,0.238953,0.32573187,0.12330978,-0.30871257,-0.22290307,-0.3131946,0.0873627,-1.7925677,0.28387684,-0.3345619,-0.35612968,0.16354673,-1.1144861,0.74947065,-0.13643293,-0.30182904,0.14110401,0.03526506,-0.20335095,1.5421184,0.48567784,2.1701655,0.20918524,0.034048766,0.6377823,-1.2874614,0.41741765,-0.6000607,0.45606732,0.26136845,-0.39743236,-0.7805133,0.056083076,0.45336977,0.32101125,0.23597997,-0.28582984,0.40860662,-0.6603479,0.82328963,0.005472731,0.99148536,0.5035955,0.18601824,0.47209707,1.5542747,0.18828677,-0.11752583,-0.011362722,1.7161244,0.11938417,-0.3055598,0.08794771,0.0024341494,1.0084863,0.5073901,-0.079361826,0.117553756,-0.338589,-0.20768386,0.147016,1.6357185,0.036254574,0.16434185,0.094700515,0.45562196,1.7981697,-0.085487366,-1.1792442,-0.62177247,0.57433295,-0.54399955,0.043897256,0.036750052,0.00733947,-0.30715823,0.9731035,0.016291706,0.27833763,-0.6495991,0.13693614,-0.317095,0.3208649,0.06822298,1.365253,-0.069363214,0.50387704,-0.2374252,-0.027555823,-1.9273474,-0.1395662,-0.2337645,-0.35302597,-0.085785225,-0.2636643,-0.24868582,0.20236203,0.10359174,0.3553715,0.1833218,-0.30559918,0.45534196,-0.2474226,0.14104408,0.25083393,-0.0427792,-0.13307375,-0.005387161,0.13436116,0.04150765,-0.05613981,-0.034462847,-2.3304265,-0.16826786,0.016289253,0.37515384,-0.05674041,0.31741828,1.287663,-0.09488059,-0.20726626,0.8792754,-0.46205494,2.017677,-0.0023021363,-0.59081596,0.10323891,0.35109207,-0.68678594,0.82718384,13.5766945,-0.14152546,1.606483,0.8549861,0.15828606,0.11288514,-1.5238919,-0.07654555,-0.15095289,0.07033794,0.04076558,0.10789461,0.0006385958,0.3756692,0.40263832,-0.19518714,-0.48201632,0.38454998,-0.1657587,0.10020557,-0.35785574,-0.0024008155,0.7509495,-0.6796937,-0.18054487,-0.2111061,0.028078638,0.2114248,-0.35522836,0.25732693,0.3109863,0.32803473,-0.29107642,-0.09358815,-0.04947409,1.7009355,0.11273044,-0.37531632,0.43488672,-1.9408313,0.26090306,-1.3502266,0.18727848,0.30879888,0.39637312,0.32008526,-0.7898631,0.18280302,0.5535879,0.1004545,-0.21855333,0.61932003,0.21903983,0.19411339,0.13530347,-0.2219524,-1.1598629,0.060923688,-1.0239283,0.31056252,-0.20622991,0.1498837,-0.104981914,-2.0486655,-0.3715721,0.27769688,0.17306451,0.18559045,-0.11869359,0.18675032,2.2273755,1.3668845,0.1205074,-0.34319842,-0.8595394,-0.22937404,-0.20021176,-0.2005826,0.20856187,-0.10789116,0.11336709,-0.05414244,0.058543168,-0.40261048,-0.21461526,0.07003941,0.6653378,0.5763735,1.2512578,0.117673084,0.028351316,0.36749017,-1.4409178,-0.061448887,0.37193936,0.16896208,-1.6344446,-0.056918934,-0.0026725791,0.33365437,-0.057449117,-0.4540224,0.18245292,0.36688274,-0.8211951,-1.3012465,0.5382633,0.033092316,0.2562341,-0.09743968,-0.50569195,-0.07827944,0.6118287,-0.36160842,2.0192523,-0.13242702,-0.172103,0.13561012,0.624641,-0.008043524,0.057569433,1.4233707,-0.1511953,-0.43889722,-0.30441618,0.4127465,0.2123693,0.47053963,0.6347791,0.5517026,-0.16214758,0.07076658,0.06569052,2.1172183,0.1953164,-0.005701788,-1.0005233,-0.20925343,-0.20576024,-0.6261183,0.10653798,-0.28609776,0.22966823,-0.4692819,-1.3629497,0.18847266,0.2609445,0.06678435,0.13119957,0.19797379,-0.11318409,0.01028385,0.5643248,0.09563739,0.06320833,-0.2509463,-0.37187684,1.26514,0.53433233,-0.79724026,0.5492962,-1.5154355,0.7915747,-0.29034978,0.035597805,-0.2635737,0.20775346,-0.21200469,0.15806928,-0.74981165,0.12654702,0.0013173148,-0.47889423,1.2405741,-0.22456425,0.07502995,0.68799174,-0.09187041,-0.5737891,0.5320458
net.java.cargotracker.application.BookingService;0;-0.11729892,0.023502015,-0.1258446,0.28677133,0.15579285,-0.1922073,0.29791152,0.050572775,0.2714878,-0.48334858,0.27033293,0.27616268,-0.06964467,-0.0019100215,0.58904207,-0.067585476,-0.2656597,-0.0949307,0.13378833,-0.34946266,-0.18184431,-0.3222533,0.24386257,0.10652178,0.2813691,0.06653443,0.44826943,0.58681774,0.14397642,1.0718622,-0.17222306,-0.09056179,2.2743933,-0.14269651,0.079200976,0.09627284,-0.018746115,-0.00702402,0.276534,0.14410013,-0.27028564,-0.10279266,-1.3912476,0.06548701,0.48670655,-0.035715047,0.037422102,0.5666468,0.07174498,0.2180029,-0.16885284,-0.19409558,-0.8744979,0.062144276,-0.13752842,0.5231336,-1.0211402,0.21161528,0.21157506,-0.16772148,-0.35167348,-0.3396193,0.08894727,-0.049407296,1.832723,-0.24679379,0.8147452,1.7781605,0.22852094,-0.27097994,-0.13677706,0.36321422,0.049950104,-0.86963886,-0.56394845,-0.28891665,-0.11197134,-1.3977505,-0.79434705,0.12049878,0.39221668,0.17356388,0.021739937,0.30849227,0.2809648,-0.39297116,0.18211758,0.040690903,-0.87101334,0.4159001,0.24628264,-0.04599707,1.305079,0.09157857,0.4178579,0.58904845,0.041675467,-1.1201067,-0.15492561,-0.3026178,0.29100382,-0.80260074,-0.42684835,-0.73218095,0.3106658,-0.075346276,0.5066234,-0.113955736,-0.054968953,-0.10821291,0.22528954,0.21740496,0.06035667,-0.20265979,-0.104259096,0.09546382,0.1913025,0.15005513,-0.10242254,0.2201833,-1.4427389,-0.09707062,-0.42504635,0.9087379,0.2430641,0.07645765,-0.13161942,-0.31747237,0.48385325,0.058548734,-1.673181,-0.8477411,-0.24962853,-0.11637339,0.31649613,-0.10346079,-0.44385964,-0.19200832,-0.3149637,0.2521604,-0.8961613,-0.34773543,0.18620491,0.28200445,0.15448534,0.11794782,0.25208476,0.06495663,0.21873583,-0.3496312,-0.87964445,-0.19704717,1.5643246,-0.46859047,-0.40899706,-1.254316,0.38842905,-0.5879668,-0.30814424,-1.0181663,0.3707404,-0.18662189,0.19994529,0.7336072,0.2021147,0.5155818,0.084278315,-0.53549635,-0.055701334,0.5309912,-0.22363128,-0.32332927,-0.9396735,0.33426934,-0.19331929,0.48343349,-0.093174905,0.35162064,0.1740031,2.2479413,-0.13188498,0.055520795,0.12002751,0.08325391,-0.074877396,0.2905984,-0.45971635,-0.0075381324,0.20412478,0.017077304,-0.073061526,0.010155945,0.07882824,-0.09626389,-0.009373479,0.08534441,0.1082536,0.24637137,1.540365,-0.2228348,0.065539375,0.084695905,-0.24744314,-0.18806894,-0.27343282,0.57029915,-0.23706351,0.3652721,0.5196055,1.3996428,2.303712,0.48051488,0.3557229,-0.2342579,-1.5409865,0.2364275,-0.269576,-0.060097076,-0.10864372,-0.33734238,-1.7290394,0.24487707,-0.11777994,-0.5701794,0.1240149,0.3113301,0.09437609,0.24289912,0.031749263,-0.043503,-0.001709342,-0.12587279,0.0783987,0.39206603,-0.7936591,-0.14540222,0.07620814,-0.14695916,-0.3310483,-1.4209979,-0.21624355,-0.12573364,0.13882113,0.5712746,0.54990906,-0.8981067,-0.28411376,0.10180242,-0.19243412,0.39713618,-0.18176615,-0.37012756,0.040575966,0.20190832,-0.44943452,-0.0488112,0.08733113,0.16736647,-0.069254175,2.6421247,-0.12300196,0.5501598,-0.038036346,-0.5741626,-0.06868053,-1.3185388,-0.326048,-0.25724462,0.6944531,0.77531964,1.790422,0.23205401,0.25329632,0.07865606,-0.2954842,-0.24972108,0.7190436,-0.36781868,-0.8544988,0.0077358745,0.03687024,0.35997,-0.23231655,0.05009556,0.27279213,-0.07900986,-0.4095077,-0.38442189,-0.17481759,0.18642901,0.7150818,-0.8315663,1.4605827,-0.06093118,-0.20685646,-0.15256876,0.14271118,0.3234136,-0.051559307,-0.31034914,-0.13412404,0.5139027,0.14833333,-0.3912924,-0.86354876,-0.08652083,-0.73139745,-0.115098424,0.03556147,-0.118998624,0.4598522,-1.1026008,-0.02528623,-0.1005223,-0.3218915,0.35264933,0.12945507,0.32681546,-0.17898372,-0.04096824,-0.04374156,-0.13071027,1.2379508,-1.5966483,0.048464146,1.1454318,0.21435273,0.07814361,-2.0783973,0.80588555,-0.022282524,-0.10671555,-0.06464714,1.4486011,-1.3313632,-0.18211755,0.620316,-0.39701575,0.5764956,0.073521286,-1.5625079,-0.20292327,-0.5812281,0.48422444,-0.05898369,1.377363,0.10263236,-0.4289667,1.3727392,0.1383835,-0.5140367,-0.8753133,-0.13744007,-0.18271351,-0.2562471,2.7263772,0.2657732,-0.23006025,-0.49064827,-0.29958418,0.41291088,0.10089862,-0.287754,2.0578265,0.8212105,-0.64087164,-0.83786285,-0.2567763,0.3308706,0.003556788,0.34516576,0.12545562,-0.1262382,-0.22948347,0.42936608,-0.32313025,-0.2547899,0.31920815,-0.04889515,-0.2716804,-1.2964592,-0.10639284,-0.18354227,0.29192048,-0.21295568,-2.6191936,0.47706732,-0.06587657,1.6867055,0.39619952,-0.2438477,-0.36347064,0.21813105,0.15412843,0.10389476,0.0022026822,-0.4020257,-0.03803511,-1.064233,-0.2608349,0.061328366,-0.23944724,0.14523506,0.45821682,0.14983797,0.5396808,-0.4064695,-0.16887812,0.12651443,0.54391485,-0.42185694,2.2097955,-0.13564645,0.07402585,-0.21031946,0.4029685,0.3867978,0.11611913,-0.33478558,0.4033669,-0.07355914,0.40590972,0.90635365,-0.15971279,-0.15664747,0.17487599,-0.028466843,-0.21858554,-0.22237791,-0.49540207,-0.053017188,0.6514857,0.52404875,0.12024034,-0.071851395,-0.13570721,-0.17666431,-0.355983,0.659981,0.032752745,0.28754732,-0.063229725,0.10575198,0.07928224,-1.014671,0.27182114,0.4624642,2.1181746,-0.116364054,-0.03449607,-0.05279333,0.020897433,-0.1261142,-0.24796507,0.68898654,0.047312535,0.037016723,0.15120272,0.15380189,0.374968,0.09299442,-0.22474635,-0.116751775,-0.2803474,0.08663994,-1.8287758,0.24794865,-0.23114333,-0.30422103,0.07248895,-1.1701038,0.67160374,-0.13640311,-0.3602423,0.09828386,0.077643044,-0.09950495,1.5746696,0.44166213,2.119939,0.115414314,-0.017529905,0.5494985,-1.224371,0.456797,-0.61957514,0.3919805,0.21892075,-0.2551491,-0.62873346,-0.049361445,0.40033576,0.29865953,0.27841225,-0.26568142,0.34126335,-0.6753675,0.839258,-0.050491907,0.94755566,0.46678784,0.24121335,0.5458557,1.6897736,0.107304245,-0.10784648,0.002029784,1.767875,-0.014330156,-0.33606952,-0.053254534,-0.07379377,0.9935348,0.47186726,-0.10156645,0.15406743,-0.2281325,-0.21362296,-0.0054801926,1.6501673,-0.010505296,0.21074273,0.02450139,0.446974,1.9391848,-0.027200738,-1.2205703,-0.71536005,0.35601252,-0.5311225,-0.0364699,0.0972563,0.0003433153,-0.24691279,0.8168769,-0.036563914,0.28622943,-0.7178259,0.022278443,-0.31513223,0.30090064,0.071850106,1.3368157,-0.113610215,0.5599729,-0.24395387,-0.046163723,-1.9276283,-0.08796127,-0.22048494,-0.34340134,-0.02588153,-0.27719805,-0.21773617,0.19774508,-0.024826154,0.37942678,0.22140989,-0.397608,0.65446854,-0.31667265,0.19554874,0.21854171,-0.14844239,-0.12989487,-0.070455655,0.25242206,0.051983763,-0.026977569,-0.061486162,-2.285573,-0.06067443,-0.063595265,0.3830139,-0.08305458,0.31045717,1.1825984,-0.08791711,-0.25514135,0.85323036,-0.35035393,2.0129452,-0.14092351,-0.58488303,0.08927438,0.3272334,-0.5372832,0.8635928,13.25594,-0.19062991,1.5513302,0.7948316,0.20294826,0.1373559,-1.5926272,0.009870052,-0.12646642,0.06085828,0.04500467,0.009536972,0.0519288,0.38762584,0.42156577,-0.15133849,-0.31623986,0.5053811,-0.27968028,0.026996836,-0.27551186,0.038031835,0.72016484,-0.63828176,-0.17907743,-0.3348536,-0.085020185,0.25404418,-0.40008572,0.17629534,0.26941395,0.33769566,-0.22793114,-0.12863472,-0.19599345,1.7459246,0.10019261,-0.39260685,0.23046428,-2.025809,0.3308345,-1.3538306,0.2806294,0.25365853,0.35401714,0.2658825,-0.78624016,0.26320896,0.42888063,0.13775498,-0.17576173,0.73322415,0.1651899,0.17316116,0.22693962,-0.11008711,-1.186986,0.024094079,-1.0045531,0.26066232,-0.18885769,0.15300627,0.0041546896,-2.0431,-0.36841565,0.1977363,0.11940284,0.23140436,-0.14335722,0.12975147,2.2310712,1.4298666,0.16507086,-0.19467467,-0.8864151,-0.16687699,-0.18012401,-0.29825616,0.27106953,-0.3061352,0.13750526,-0.06495692,0.018039295,-0.3633611,-0.22511104,0.15278316,0.64267266,0.48658332,1.3541719,0.2132798,0.063814916,0.44621953,-1.421551,-0.04324782,0.31962663,0.11734444,-1.768969,-0.14874311,-0.013281748,0.40892807,-0.007238947,-0.44282627,0.27495456,0.37950486,-0.74825555,-1.3441124,0.5246335,-0.10514979,0.2730005,0.007009713,-0.46681398,-0.19327027,0.56619644,-0.17372972,2.1267834,-0.105685614,-0.10396013,0.103969425,0.6388899,-0.036386285,0.08489695,1.3737041,-0.20025778,-0.40735447,-0.17609055,0.32049865,0.23738486,0.48409936,0.5553865,0.52661395,-0.04409038,0.031469308,0.07922104,2.074043,0.20077895,-0.0138092935,-1.1426407,-0.23646212,-0.2067174,-0.6110762,0.16611543,-0.23451386,0.24112779,-0.5235167,-1.480751,0.09602024,0.35157785,0.023862313,-0.02754945,0.16826397,-0.09379899,0.10362002,0.5732134,0.17281702,0.0241828,-0.23815326,-0.28035158,1.4307377,0.67130774,-0.9327771,0.48041958,-1.5789913,0.75435555,-0.31344795,-0.14863664,-0.12575792,0.12705582,-0.13228211,0.17465067,-0.6323548,0.019558191,0.003189966,-0.43324608,1.1799923,-0.20629555,0.08397035,0.68401927,-0.07191916,-0.564991,0.45229828
net.java.cargotracker.application.BookingServiceTest;-1;-0.1844739,-0.01644022,-0.11479166,0.30236158,0.27967274,-0.33235034,0.31985292,0.04034456,0.19483098,-0.51699936,0.25299385,0.3393869,-0.15040854,0.0153499,0.65031964,-0.0055021103,-0.34444988,-0.07467283,0.14908515,-0.5228666,-0.08023575,-0.1733728,0.32419744,0.015172922,0.1867321,0.12502535,0.29638785,0.5662876,0.0857285,1.0533302,-0.04575311,-0.08900904,2.2306364,0.031580888,0.12601003,0.110948436,-0.08551434,-0.08036149,0.416194,0.06007242,-0.11555572,-0.16774714,-1.3319873,0.017320765,0.46267527,-0.06413683,0.019065505,0.61672777,0.23145305,0.22597066,-0.15751904,-0.12294951,-0.7969509,-0.0780842,-0.14402518,0.581677,-0.95672953,0.30171874,0.12444432,-0.19569436,-0.36414015,-0.17742549,0.22660398,-0.103129975,1.7924396,-0.24419412,0.99200606,1.5938889,0.23864876,-0.36700237,-0.23860663,0.3092056,0.09452269,-0.92530686,-0.6839448,-0.35640654,-0.17949277,-1.4267265,-0.7088667,0.15434991,0.3014207,0.068551205,-0.17586865,0.21094123,0.09938021,-0.5575249,0.15917443,0.06530252,-1.028461,0.37085196,0.2186643,-0.32160053,1.3706471,0.10627144,0.5419536,0.44042242,0.13273473,-1.286028,-0.17501709,-0.37647712,0.3794039,-0.88925207,-0.52487046,-0.8200907,0.35213786,-0.060089637,0.6056622,-0.19410352,-0.010283413,-0.21003884,0.25005308,0.24941674,0.14384215,-0.23403068,-0.10266576,-0.037017908,0.10570981,0.2710237,0.0054574,0.3257538,-1.5033784,-0.07655313,-0.48161367,0.8899418,0.24142165,-0.062050547,-0.042982545,-0.3448063,0.4312558,0.059834067,-1.7835137,-0.90659314,-0.16250668,-0.06100205,0.26725563,0.011813027,-0.45329314,-0.191351,-0.28066796,0.17093116,-0.7466577,-0.25858754,0.13792208,0.33655277,0.17916428,-0.08992538,0.28727877,0.003515625,0.25640517,-0.21340394,-0.91149026,-0.22290872,1.6383446,-0.37793523,-0.377273,-1.1325673,0.6785658,-0.64140135,-0.40234563,-0.9782476,0.50197124,-0.26333103,0.21863633,0.7141689,0.24755055,0.6097149,0.14013201,-0.6627907,-0.2953238,0.54577523,-0.23212375,-0.41099167,-0.82974285,0.30619007,-0.14614616,0.57025355,0.011118427,0.45089677,0.3359546,2.0495083,-0.0150922155,0.16575588,0.18622704,0.037610106,-0.31862614,0.30783918,-0.4595396,0.018377772,0.22348447,0.09173556,-0.047039058,0.033166524,0.14246036,0.014641423,-0.0029902228,-0.10312145,0.17434578,0.17865334,1.5336728,-0.31124812,-0.028980313,0.122908145,-0.218333,-0.33205673,-0.22459902,0.50324154,-0.16438223,0.35487655,0.45084637,1.3629642,2.2112346,0.48319054,0.3009399,-0.19718179,-1.3280215,0.10242391,-0.14560743,-0.20529951,-0.19694248,-0.451904,-1.6121082,0.24966155,-0.06696198,-0.5842972,0.15513895,0.47946844,0.046720363,0.36256307,0.016718462,0.0033985635,0.055505406,-0.11732433,0.19853999,0.5740174,-0.7386795,-0.18224274,-0.004444558,-0.14484908,-0.2992093,-1.4793063,-0.26103842,-0.20965923,0.02860098,0.43104914,0.59290624,-0.7722101,-0.26166317,0.16945757,-0.19734974,0.44195497,-0.18356824,-0.49996522,0.030900406,0.2924817,-0.39675063,-0.15073746,0.0021167358,0.23651741,-0.006286715,2.7602544,0.1049568,0.548029,-0.0026337837,-0.669367,-0.08230842,-1.1298409,-0.3076742,-0.12644787,0.7960463,0.56315607,1.8120639,0.2468713,0.14460275,0.118751355,-0.21199761,-0.25855544,0.8101559,-0.3422959,-0.9668059,0.07146584,-0.061107457,0.45565358,-0.17794807,0.04933153,0.18804449,-0.0072084307,-0.5419737,-0.41628304,-0.23110686,0.20602994,0.6996459,-0.7847296,1.4455615,-0.18954702,-0.32285187,-0.1277151,0.2416464,0.2689863,0.085277885,-0.21387766,-0.06881295,0.5835513,0.24564967,-0.45126754,-0.7627712,-0.055141494,-0.80470634,-0.028035237,0.09103694,-0.083695225,0.40738603,-1.10532,-0.020687493,-0.11275851,-0.29696548,0.3291848,0.11121576,0.55075234,-0.101742,-0.071217336,-0.1295893,-0.059381817,1.2694936,-1.5342631,0.18057805,1.1462204,0.16037904,-0.04516502,-2.1779344,0.87222636,-0.12436609,-0.26439133,-0.14938946,1.625463,-1.2976457,-0.09636348,0.5184346,-0.40198585,0.550975,0.15416335,-1.5867988,-0.069728374,-0.40016994,0.47556198,-0.14997648,1.6905648,0.043170813,-0.48598203,1.3291459,-0.018974165,-0.6352521,-0.85851,-0.1623142,-0.30521834,-0.22499682,2.6252456,0.3946799,-0.20900154,-0.5432212,0.06043477,0.26747996,-0.050495442,-0.25990725,1.9237309,0.8010137,-0.62805057,-0.9775312,-0.2612213,0.10941384,-0.07691972,0.4475125,0.13556574,-0.08209443,-0.23469754,0.4383106,-0.24267665,-0.23129497,0.24891931,0.013691054,-0.32413185,-1.4584259,-0.11409585,-0.2718603,0.31124523,-0.13543218,-2.8054483,0.5467092,-0.2297916,1.7355503,0.3934718,-0.22418456,-0.42833233,0.14484619,0.30941674,-0.029864011,0.042016223,-0.57338226,-0.36885655,-1.1602058,-0.16546088,0.20715289,-0.21712102,0.118989944,0.4566126,0.2858753,0.58169603,-0.5565642,-0.19141741,0.02448082,0.5219413,-0.4981644,2.219654,-0.15805763,0.014950503,-0.2101965,0.2698101,0.4140957,-0.025501056,-0.3138208,0.5194826,-0.034510422,0.45318806,0.92037225,-0.15753585,-0.12660383,0.15966071,0.038108114,-0.2663081,-0.18412252,-0.6195784,-0.029975547,0.6134756,0.6281636,0.17969435,-0.13030791,-0.2625067,-0.23853163,-0.4637912,0.74344367,0.098369904,0.31915948,-0.10356453,0.16865209,0.026160205,-1.0574492,0.39457676,0.4097868,2.1493437,-0.12127937,-0.16941294,-0.20826663,0.18609382,-0.020962704,-0.29224896,0.688324,0.05980414,-0.004605409,0.1957724,0.10066152,0.39463565,0.20607434,-0.34080923,-0.14450015,-0.18246941,0.05831435,-1.8967141,0.22065927,-0.075351804,-0.24190205,0.09657509,-1.1226506,0.66967154,-0.13156879,-0.32946646,0.17420675,0.11233635,-0.13036871,1.6562515,0.36963704,2.034179,0.07001069,0.013467136,0.3784645,-1.1913081,0.51604533,-0.55370003,0.40787718,0.32501704,-0.17853214,-0.65762097,-0.102417514,0.35453346,0.31485543,0.21591307,-0.36442345,0.2080017,-0.71178144,0.86533445,-0.1403514,0.8773684,0.6087028,0.16602792,0.6871123,1.6592442,0.06320688,-0.18761392,0.033885576,1.9028611,0.12948512,-0.30104747,-0.0065138014,-0.15090388,0.9001459,0.4095133,-0.09362576,0.1620393,-0.21369076,-0.23432866,0.047240112,1.7312542,0.0869909,0.22894627,-0.073767,0.561917,2.020756,-0.08226059,-1.3319666,-0.81233656,0.4204705,-0.36847842,-0.024021542,0.08634574,0.029201396,-0.3270582,0.9148623,0.058324933,0.2135972,-0.5601234,-0.15712935,-0.3242276,0.15921882,-0.00039044023,1.3779433,-0.24697118,0.6261362,-0.022777688,-0.17150022,-2.0827172,-0.2468184,-0.2586234,-0.30411354,0.19208197,-0.27762148,-0.10983851,0.22152433,-0.06250072,0.29935747,0.13552123,-0.36806566,0.6742851,-0.275349,0.38080397,0.34294686,-0.17378046,-0.18174917,-0.090481944,0.2734369,0.1316898,0.094595455,-0.03466511,-2.29042,-0.09151086,-0.0072019426,0.44331315,-0.049231764,0.29067352,1.1229892,-0.16365041,-0.1835611,0.9466413,-0.14238906,2.10837,-0.26377445,-0.69129044,0.011040473,0.42734575,-0.4312009,0.9305675,12.715219,-0.13566944,1.4967277,0.7358929,0.29758808,0.098162286,-1.5226383,0.10907605,-0.09023074,-0.05469091,0.13513836,-0.0304991,0.030702269,0.39495257,0.34797934,-0.1790964,-0.2157951,0.4947196,-0.31740853,-0.031899415,-0.072481856,-0.21014868,0.790768,-0.5689204,-0.20305571,-0.29680908,-0.26444426,0.11065388,-0.36645317,0.4299654,0.18227552,0.36409906,-0.14534658,-0.07519826,-0.2070254,1.6506774,0.0062483996,-0.50716406,0.13005173,-2.0242271,0.24539995,-1.2563471,0.2891105,0.3258709,0.46005428,0.25155142,-0.65910095,0.2508392,0.30875602,0.13113113,-0.06123836,0.6197798,0.17588574,0.29670998,0.26433226,-0.20197177,-1.2402066,-0.068014115,-1.1441371,0.22305956,-0.1117584,0.15880115,-0.13542148,-2.0060513,-0.32205552,0.27211583,-0.03126667,0.34361604,-0.24474274,0.13498165,2.1626136,1.5905013,0.14333406,-0.041692752,-0.8724241,-0.18123595,-0.20260501,-0.33224472,0.2714226,-0.30224973,0.13089083,0.028003855,0.09879918,-0.3244109,0.024593495,0.0724734,0.81001514,0.52601904,1.372099,0.28565663,0.18273383,0.363828,-1.3881912,-0.050489023,0.38733065,0.2048309,-1.825272,-0.22825733,-0.01683415,0.512156,0.062645026,-0.5055427,0.26202086,0.47932634,-0.6444698,-1.1676661,0.5384063,-0.15501922,0.3084625,0.057850495,-0.5566994,-0.38985732,0.60453457,-0.16037846,2.1609402,-0.15648593,-0.1309466,0.09904447,0.71929187,-0.076996446,0.1373182,1.6890283,-0.14727567,-0.4137782,-0.229554,0.3529028,0.33556128,0.49417877,0.64138174,0.63197404,-0.09386988,0.04810342,0.18105148,1.9674171,0.12959124,-0.16898194,-1.167078,-0.029507361,-0.14443515,-0.5931011,0.27231926,-0.29690006,0.26031476,-0.39040688,-1.3684895,0.13444522,0.32517895,-0.15400454,0.016097527,0.19135743,-0.07726484,0.030371694,0.60396636,0.12425551,-0.06746543,-0.06994674,-0.37936705,1.2990141,0.6810386,-0.8620642,0.73292166,-1.8338771,0.8616995,-0.30544785,-0.12872791,-0.062613755,0.15558332,-0.14166954,0.17582501,-0.8047398,0.23517905,-0.037836917,-0.34235388,1.1208755,-0.11169159,-0.021642677,0.86361194,-0.09228594,-0.50805247,0.5012502
net.java.cargotracker.application.BookingServiceTestDataGenerator;-1;-0.20296438,0.031387627,-0.046999615,0.36134064,0.20752668,-0.29701054,0.37700793,0.120781414,0.24059959,-0.57200605,0.19771497,0.2664062,-0.10943063,0.017621279,0.61867696,-0.03529321,-0.26395288,-0.1048567,0.073941566,-0.46314588,-0.12973385,-0.14684066,0.3195487,0.075914964,0.1595941,0.042423937,0.40480316,0.6028178,0.16874957,1.0621858,-0.07403182,-0.028826311,2.273261,-0.119835414,0.15292855,-0.031680554,-0.107088804,-0.068642765,0.37458158,0.026426993,-0.2373036,-0.13996899,-1.3934416,-0.001514143,0.40482235,-0.06405223,0.082057305,0.6079464,0.20922585,0.30151495,-0.056668643,-0.26861632,-0.8782802,-0.0732441,-0.06677898,0.54161775,-0.94518995,0.34635243,0.1128203,-0.15935312,-0.47547063,-0.19337857,0.15128127,-0.12173996,1.8037361,-0.20602508,0.80209154,1.5911905,0.28521058,-0.3533585,-0.25092924,0.40526715,0.15255775,-1.0066863,-0.62890244,-0.25936505,-0.14754172,-1.4017392,-0.7082858,0.14354666,0.32414743,0.113219716,-0.1757161,0.3363886,0.1597176,-0.5600023,0.1225727,-0.01019081,-0.98776954,0.34017244,0.21429461,-0.16716401,1.2343161,0.16768591,0.50663626,0.44326258,0.07518571,-1.2429562,-0.29434034,-0.20059846,0.34093508,-0.80020404,-0.54262006,-0.7743211,0.24416561,-0.047935173,0.5071767,-0.16929452,-0.073829405,-0.1719393,0.20973086,0.27430716,0.17930031,-0.19249429,-0.10655259,7.299582e-05,0.14745389,0.21746339,-0.051536966,0.2911185,-1.4881054,-0.09695876,-0.38632396,0.9206365,0.14209913,-0.022496818,-0.08664423,-0.4312383,0.40330625,-0.009952045,-1.7068871,-0.786061,-0.16274013,-0.025075361,0.36868322,-0.14427252,-0.36524072,-0.20569474,-0.26859537,0.18560374,-0.7943961,-0.26631197,0.16722594,0.33126476,0.10002307,0.010495558,0.20393503,0.012314856,0.3483609,-0.35071155,-0.96170455,-0.35306358,1.7111567,-0.42846775,-0.3063129,-1.217608,0.58145934,-0.57245904,-0.38179365,-1.0040905,0.40637103,-0.16391987,0.2279187,0.73493105,0.27380738,0.6870761,0.1531199,-0.58873,-0.2089162,0.482842,-0.26170564,-0.46718273,-0.88246924,0.43341926,0.008273023,0.54761475,-0.04222548,0.29569393,0.19166999,2.1351526,-0.022324184,0.109408736,0.11243323,-0.0010498042,-0.25736755,0.19602466,-0.50408787,0.009319962,0.2221251,-0.0065831044,-0.0763589,-0.034548204,0.068954535,-0.022033853,-0.0632134,-0.068511456,0.16608582,0.2182393,1.5407976,-0.24370153,-0.03306601,0.11765829,-0.14097138,-0.34217,-0.18734974,0.49768457,-0.21329671,0.34992182,0.40417448,1.3999957,2.2590418,0.25182962,0.26577136,-0.33914772,-1.3980231,0.13480216,-0.07762508,-0.13279513,-0.20621009,-0.4063023,-1.502612,0.22475938,-0.03272075,-0.60010356,0.12123307,0.48259607,0.04504831,0.29551992,0.047854453,0.012087539,0.07612539,-0.05284497,0.12569775,0.434249,-0.791056,-0.07435942,-0.018976925,-0.09283608,-0.29297137,-1.466148,-0.15335655,-0.13071573,0.11057865,0.48805586,0.5436533,-0.7618799,-0.2514546,0.1499723,-0.25164458,0.302709,-0.14586271,-0.48585606,0.053907525,0.19451703,-0.40212426,-0.18190007,0.108104706,0.37090406,-0.07679007,2.8381367,0.029311849,0.57722837,0.030853003,-0.72831255,-0.07374246,-1.2422729,-0.27235156,-0.19473036,0.7145315,0.6065398,1.8327135,0.10304484,0.2731218,0.090139546,-0.22065125,-0.27669224,0.7841261,-0.23809373,-0.89952946,-0.014230656,0.042128857,0.39936113,-0.2385514,0.07086176,0.24234718,-0.15864058,-0.58824486,-0.24328668,-0.09094852,0.2141162,0.7842169,-0.74588984,1.3986086,-0.11362916,-0.28840062,-0.090237446,0.20120691,0.27804583,0.110630535,-0.28309706,-0.17367871,0.58406204,0.13459523,-0.3999809,-0.7760367,-0.056285903,-0.72961855,-0.09523062,0.08091148,-0.04586327,0.4140896,-1.0775852,0.041525636,-0.1903003,-0.28360176,0.44557524,0.12426158,0.41904983,-0.20437188,-0.066369206,-0.11235949,-0.044780612,1.2676845,-1.5289179,0.20105918,1.1672415,0.15587409,-0.04555762,-2.2112675,0.84759,-0.21646184,-0.22976935,-0.18323176,1.4366091,-1.3877662,-0.12480823,0.54613775,-0.34755132,0.6193856,0.11188665,-1.5968823,-0.19013172,-0.44259557,0.48736358,-0.033639237,1.6003937,0.04043729,-0.5138101,1.2850994,-0.020032154,-0.63686854,-0.7776502,-0.2035234,-0.28820607,-0.37866768,2.6391747,0.2959876,-0.2612723,-0.60578144,0.09300233,0.31278804,0.0781492,-0.2781355,2.0626733,0.83533925,-0.60255593,-0.9608162,-0.21137811,0.18001361,-0.009582718,0.49020717,0.13532676,-0.09528222,-0.17407306,0.44576648,-0.23750873,-0.28020108,0.2903305,-0.01764912,-0.33779392,-1.4290218,-0.086748816,-0.22226278,0.29341367,-0.10685778,-2.7248352,0.557158,-0.18481314,1.6587539,0.4021958,-0.23131679,-0.3888143,0.045912266,0.32579422,-0.08765993,0.014273539,-0.43612897,-0.27216896,-1.094591,-0.18527006,0.22850017,-0.25491107,0.1735369,0.49860266,0.32259765,0.48723292,-0.5419738,-0.15950748,0.04354031,0.4468995,-0.51128405,2.2760751,-0.13673176,0.09789433,-0.15539078,0.31988898,0.36333457,0.02253904,-0.35077587,0.5296009,0.0357869,0.43170348,0.8020237,-0.15171486,-0.12934504,0.20808555,-0.051041782,-0.1632591,-0.3044805,-0.51891655,0.06554407,0.6642321,0.5088044,0.15296362,-0.08882067,-0.3985404,-0.22385697,-0.47834745,0.6892337,0.11831328,0.3199459,-0.048667565,0.18744649,0.15704526,-1.0114715,0.22452845,0.47504663,2.232709,0.046669845,-0.08646193,-0.086001694,0.09978074,0.026068022,-0.2747918,0.7814064,0.11647629,0.011764452,0.16858323,0.19531131,0.47180042,0.20321627,-0.30503199,-0.20234303,-0.27998188,0.15455401,-1.8436699,0.349125,-0.1270649,-0.24939996,0.12197119,-1.2581457,0.6285047,-0.14338969,-0.37885556,0.062181666,-0.049004678,-0.029245378,1.625877,0.4568218,2.0202553,0.09102117,-0.07062967,0.4630858,-1.2600726,0.5676966,-0.67291516,0.46444893,0.34531656,-0.1725751,-0.7336536,-0.026029235,0.31081495,0.29198417,0.2697714,-0.33036962,0.22630696,-0.64447826,0.9342489,-0.054973185,1.0149221,0.62068784,0.13299717,0.63513273,1.5935749,0.071990736,-0.24817681,0.04157405,1.8862702,-0.093067676,-0.33267447,0.04572271,-0.1356668,0.9117029,0.42757198,-0.15512305,0.100404434,-0.32999662,-0.20061164,0.0004081962,1.7111173,0.1122126,0.14367978,-0.025536543,0.49436823,2.044307,0.007159429,-1.2154471,-0.75632924,0.4877684,-0.47018686,0.031383816,-0.033040766,0.07210592,-0.28634205,0.91508955,0.021451404,0.22203977,-0.5978368,-0.12641434,-0.22591726,0.25264776,0.014389145,1.249075,-0.12506743,0.593721,-0.16148694,-0.06746148,-2.016245,-0.10594094,-0.27054384,-0.3086982,0.05633739,-0.32283023,-0.16034688,0.23910588,-0.07718105,0.2389798,0.079596125,-0.44121292,0.6477086,-0.22051208,0.31743202,0.39446843,-0.10623405,-0.17460065,-0.052398454,0.307081,0.12720019,-0.011525489,-0.12909399,-2.1385934,-0.06999477,0.006376306,0.42197075,-0.22389744,0.35830736,1.1604599,-0.21231805,-0.24955304,0.8747274,-0.16822551,2.1047416,-0.13203396,-0.66027415,0.01086712,0.27400935,-0.34768665,0.8890684,12.989758,-0.09188777,1.5707489,0.6571713,0.32489026,0.10119804,-1.4785565,0.16118358,-0.009479686,-0.11715343,0.15285827,0.0057538203,-0.0065121367,0.42680088,0.44085482,-0.13088457,-0.19221048,0.3525896,-0.3606948,0.063469656,-0.20107143,-0.12674542,0.76445436,-0.62397504,-0.16846682,-0.3443892,-0.2081164,0.07888475,-0.3448451,0.35202995,0.101612985,0.3318357,-0.064919196,-0.20995228,-0.16523817,1.6450577,-0.045893606,-0.3847928,0.15059082,-2.0117953,0.2241875,-1.3443718,0.36531416,0.3616062,0.40898392,0.32363275,-0.7405669,0.16391717,0.37017068,0.06142815,-0.053118557,0.6906333,0.14772622,0.23338997,0.21873717,-0.20726484,-1.1221057,-0.1078256,-1.1095794,0.22138943,-0.112142645,0.15544797,-0.053006366,-2.0798514,-0.35051775,0.35475782,0.0073050805,0.3849478,-0.25561097,0.14047237,2.059756,1.5588602,0.15635754,-0.1603005,-0.9805954,-0.07133096,-0.24700959,-0.39121476,0.20660073,-0.31232968,0.14614902,-0.002557685,0.060421694,-0.28801158,-0.09767142,0.10449722,0.7676325,0.5037987,1.3469385,0.17005461,0.22521974,0.36348495,-1.4180454,-0.034454145,0.3954856,0.17338423,-1.7451797,-0.1754121,-0.09245523,0.4162564,-0.012645871,-0.5248255,0.22351527,0.37558833,-0.6377891,-1.1617559,0.6170568,-0.08220629,0.37282407,0.035163954,-0.4585371,-0.39835265,0.67464304,-0.1817525,2.0266225,-0.25086918,-0.18203904,0.10835429,0.75154763,-0.0054617464,0.1600142,1.538372,-0.1955498,-0.41107282,-0.26648858,0.26706135,0.2970458,0.47498298,0.581636,0.58138376,-0.013783294,0.019972937,0.12055238,2.114086,0.16166097,-0.181347,-1.1267148,-0.03286628,-0.12845913,-0.70689386,0.19204384,-0.27377924,0.25399143,-0.42066917,-1.5041637,0.23632652,0.35223636,-0.050804157,-0.03213906,0.20589638,-0.01677355,0.027502768,0.5401842,0.07949114,-0.026153864,-0.029178409,-0.3126377,1.3818712,0.69888157,-0.9369219,0.6526863,-1.7495508,0.87137777,-0.33439746,-0.062896945,-0.07943779,0.13469847,-0.04817349,0.22502299,-0.6876537,0.22401063,-0.023787258,-0.36797288,1.1944809,0.011910624,-0.04562834,0.82901984,-0.23366494,-0.62587065,0.43432555
net.java.cargotracker.application.BookingServiceTestRestConfiguration;-1;-0.109499194,0.084397316,-0.00012299046,0.2152921,0.28414723,-0.24697486,0.2545286,0.019087344,0.3039302,-0.398964,0.2843995,0.29842752,-0.102465495,-0.03158217,0.56313527,-0.051399,-0.22373699,-0.09306338,0.1378751,-0.3052809,-0.06685674,-0.22720835,0.29013583,0.028340004,0.35015985,0.15691526,0.33239567,0.58149236,0.10895036,0.9433487,-0.13408384,-0.07852724,2.1724396,-0.22787136,0.1564132,0.13791163,-0.031507634,-0.11416253,0.3848274,0.05503188,-0.3008638,-0.12477668,-1.4300439,-0.022528794,0.496015,-0.009812426,0.022488683,0.5427555,-0.0057157613,0.19478528,-0.16289845,-0.1380122,-0.8656509,0.018314773,-0.16231824,0.4886457,-1.0289172,0.14924428,0.21177317,-0.13520181,-0.37659535,-0.23313093,0.14533445,-0.032425366,1.8744234,-0.2440124,0.7442415,1.6294485,0.30295187,-0.3632773,-0.19667758,0.25597936,0.014358249,-0.82156605,-0.4938336,-0.2488189,-0.09813643,-1.2468599,-0.73985505,0.093070865,0.49292862,0.060505554,0.07960367,0.3203271,0.18268093,-0.39910007,0.18229955,-0.06931961,-0.90524894,0.4192434,0.25806212,-0.16287103,1.190798,0.11212962,0.43075097,0.5561326,0.08724269,-1.2491217,-0.19675735,-0.19092737,0.26853147,-0.7900724,-0.44231904,-0.63574207,0.3140334,-0.07800788,0.4914666,-0.07595241,0.022638302,-0.091109075,0.26964772,0.19916637,0.09752141,-0.2556608,-0.085935034,-0.047464408,0.16919744,0.13623352,-0.14184627,0.15671971,-1.5143298,-0.1928287,-0.3988186,0.9160455,0.18199378,0.06422533,-0.07475131,-0.3301077,0.48498005,0.11874215,-1.6829691,-0.86359745,-0.12402654,-0.13406444,0.26887172,-0.000355158,-0.44717556,-0.19274214,-0.29443985,0.22989504,-0.8231292,-0.2659147,0.23275234,0.28376073,0.22072117,0.0826322,0.215034,0.021293547,0.30914158,-0.38029128,-0.87352055,-0.3265812,1.522827,-0.4496423,-0.45414466,-1.1679853,0.5341069,-0.62682045,-0.30946004,-0.9841376,0.33870322,-0.18909349,0.25574157,0.81012434,0.26530793,0.64692706,0.08697665,-0.56521106,0.010711465,0.43088678,-0.21957104,-0.30695117,-0.87141955,0.38159335,-0.14942941,0.47103745,-0.075149596,0.3787409,0.28667974,2.2030368,-0.16748533,0.0089401975,0.14587258,0.07438095,-0.08707221,0.3096817,-0.55282104,-0.11903243,0.17564738,0.17359684,-0.07398112,0.026851952,0.014266711,0.07979505,-0.07240498,0.049256474,0.11628138,0.3300153,1.4549285,-0.26307774,-0.025800353,0.19191281,-0.24032608,-0.20875159,-0.27505475,0.66860646,-0.21278454,0.4323671,0.54474854,1.2872955,2.2858367,0.43186125,0.3224991,-0.27979046,-1.544402,0.25345552,-0.25057,-0.17997974,-0.17532408,-0.41969746,-1.7166779,0.2089589,-0.05186298,-0.5350142,0.11367333,0.3885207,0.16802236,0.32033575,0.10987999,-0.11694847,0.015571188,-0.19373235,0.18020087,0.45111942,-0.79255116,-0.18476477,0.04075957,-0.11964099,-0.272416,-1.4426427,-0.16418019,-0.11674175,0.22528318,0.5568135,0.67544794,-0.79757726,-0.37669235,0.1703434,-0.22269998,0.39073375,-0.20545383,-0.36198997,0.03638491,0.23890594,-0.3369575,-0.14529054,0.07415943,0.21232238,-0.033130955,2.7371619,-0.114236504,0.60618794,-0.020643696,-0.6435172,-0.11448446,-1.3397533,-0.30718338,-0.1578762,0.6014099,0.6026839,1.7557832,0.14516616,0.34541363,0.081290126,-0.26837072,-0.21243662,0.8309697,-0.31170258,-0.9574411,0.050043695,0.024204757,0.43046492,-0.15276572,0.15543556,0.24892455,-0.19125286,-0.4027952,-0.32267332,-0.21934855,0.23585173,0.65213996,-0.829179,1.4821777,-0.04185718,-0.21865423,-0.08677911,0.18329057,0.35886037,-0.026571989,-0.27927965,-0.17278694,0.41276634,0.19011697,-0.45954612,-0.88360184,-0.0068513583,-0.6092169,-0.13880783,0.040975004,-0.066316105,0.42334604,-1.0738711,-0.08139691,-0.116592,-0.23905513,0.3112694,0.09441086,0.27948493,-0.15007988,0.0078388825,-0.07255602,-0.15766141,1.2947512,-1.5291771,0.11809379,1.0357051,0.21258774,0.016822329,-2.0971053,0.8191414,-0.1947572,-0.0660581,-0.06189996,1.4197427,-1.3895249,-0.1650353,0.62271595,-0.46104693,0.5618849,0.0095301755,-1.5583159,-0.18854132,-0.5807802,0.5146231,-0.08522519,1.3979357,0.09734183,-0.35666355,1.3552898,0.114215806,-0.6320319,-0.81715906,-0.20919122,-0.14278312,-0.2654587,2.7524166,0.318936,-0.2153402,-0.48244172,-0.17777416,0.45722255,0.050111502,-0.27107468,2.0398407,0.9295805,-0.6652313,-0.9649119,-0.22117871,0.2979708,0.023403682,0.3736941,0.22074485,-0.2107204,-0.1870671,0.42320007,-0.3905401,-0.23542635,0.3804746,-0.09953576,-0.14544709,-1.3456031,-0.117847554,-0.270973,0.23103806,-0.13732144,-2.6265213,0.4666172,0.008980952,1.6634643,0.3793726,-0.33588958,-0.40536502,0.22618237,0.1596325,0.089782156,-0.056167617,-0.44695824,-0.13946506,-1.0723901,-0.25886187,0.03120144,-0.2806919,0.21264206,0.42832208,0.17056413,0.6169607,-0.5433766,-0.17148943,0.07256743,0.5484558,-0.42123812,2.1537914,-0.116909385,0.17611201,-0.14249352,0.39185816,0.39909127,0.16231674,-0.25424385,0.3730062,-0.09897164,0.4082331,0.8754154,-0.15147507,-0.09840508,0.23390663,-0.0068220794,-0.22946507,-0.20819746,-0.5628214,-0.12501319,0.70623577,0.4826716,0.13332783,-0.1450449,-0.19794618,-0.20767272,-0.43311432,0.6526214,0.08977085,0.2887702,-0.14257215,0.14162356,0.10525864,-1.1247566,0.2622566,0.4559878,2.1815617,-0.16729978,-0.0061864182,-0.17529708,0.10251422,-0.11700682,-0.35377985,0.7777579,0.029587105,0.083940946,0.15172672,0.2407844,0.29451877,0.072104886,-0.2852003,-0.07202464,-0.2507931,0.18584818,-1.7709998,0.3161997,-0.21359101,-0.31943676,0.10161786,-1.1701753,0.64041466,-0.17240737,-0.34431782,0.11489325,0.080654904,-0.109431915,1.585359,0.42626914,2.0571024,0.12393131,-0.040287025,0.5479015,-1.234633,0.47627622,-0.64587814,0.42892727,0.294853,-0.3333863,-0.6641379,-0.13788356,0.25802356,0.27559668,0.2330294,-0.28692448,0.27683127,-0.6117239,0.8224791,-0.10356148,0.9523057,0.4624696,0.20249854,0.44892648,1.7502391,0.17501588,-0.058544103,0.050257057,1.8181901,0.021065332,-0.3394195,-0.07821146,-0.124466196,0.9443763,0.51793396,-0.16025153,0.11142448,-0.2858628,-0.15132277,0.06434468,1.6498871,-0.08217048,0.24176176,-0.020040382,0.43692923,1.9620323,-0.06964891,-1.1657528,-0.7545515,0.3420871,-0.5494604,-0.063676305,-0.015941046,0.02871469,-0.26427418,0.80922604,0.020244375,0.14992961,-0.5038079,0.038262367,-0.3405999,0.34115475,-0.03629236,1.2966617,-0.17201734,0.57227683,-0.13151455,-0.10714868,-1.9648607,-0.16902442,-0.19557887,-0.25290993,-0.012397415,-0.29011032,-0.13220869,0.2106781,-0.023654498,0.3167685,0.33518317,-0.29117197,0.62578213,-0.1816502,0.27015224,0.29152328,-0.09681799,-0.16769668,-0.042230904,0.25797886,0.035809737,-0.03915657,-0.018382318,-2.2808816,-0.019833907,-0.10898484,0.37475076,-0.05443684,0.3788862,1.2307223,-0.14740986,-0.25567353,0.88374746,-0.28364724,1.9928747,-0.123519436,-0.6116579,0.074496426,0.4744864,-0.5967314,0.9469903,13.6540985,-0.22856148,1.557021,0.7723806,0.19602947,0.07030453,-1.5548892,-0.10096809,-0.14794303,-0.0019211099,0.088015094,-0.014376951,0.0647328,0.36733252,0.364897,-0.16460513,-0.23321332,0.45595065,-0.2872843,-0.025231615,-0.18800148,-0.033695213,0.75158715,-0.6496028,-0.27751297,-0.20842181,-0.09903151,0.20002297,-0.39231595,0.2029629,0.20704585,0.31748837,-0.309404,-0.15910995,-0.25285396,1.748084,0.15255328,-0.40083668,0.3199557,-2.0091012,0.28722322,-1.274056,0.2568665,0.24846911,0.4226058,0.23211922,-0.6924463,0.20045753,0.37910795,0.1252695,-0.19262607,0.77200556,0.19439593,0.111349136,0.11426419,-0.13005786,-1.2479066,-0.085961394,-1.0240333,0.1817301,-0.15858246,0.22393322,0.029738445,-2.0146322,-0.34983584,0.20518711,-0.0071537495,0.18641329,-0.26521742,0.13633247,2.168961,1.4963037,0.13732588,-0.1471423,-0.89498055,-0.10636669,-0.2050919,-0.3618085,0.2291182,-0.18532974,0.23708363,-0.022996102,0.016673496,-0.31871027,-0.16955528,0.10886973,0.5428837,0.5597567,1.3731291,0.1327119,0.11854726,0.4063266,-1.3980867,-0.054673538,0.3491478,0.124080904,-1.7200128,-0.14522457,-0.069784775,0.42753586,-0.15593606,-0.4726712,0.26475826,0.3551823,-0.70828795,-1.2908353,0.57170856,-0.07195489,0.22507153,0.017754344,-0.5828433,-0.21305215,0.6117797,-0.12801802,2.1019368,-0.086018704,-0.13197781,0.16042633,0.65708053,0.018977815,0.06599201,1.5241554,-0.2380784,-0.42438,-0.24124993,0.34019774,0.21853611,0.45574573,0.5180167,0.64541656,-0.07311581,0.012427464,0.058228582,2.1190567,0.13903949,-0.095365904,-1.0726355,-0.12524608,-0.18540365,-0.6186778,0.19068083,-0.41527432,0.3157587,-0.44882914,-1.3937751,0.08655079,0.29800844,0.0034801587,-0.103809,0.17505637,-0.16132936,0.07042225,0.664732,0.09949045,-0.026596814,-0.1365849,-0.3246366,1.3012006,0.63486737,-0.90159667,0.5717083,-1.7564958,0.8496166,-0.26455638,-0.08245449,-0.108413965,0.14766006,-0.1062791,0.2850082,-0.661973,0.016624786,0.02029025,-0.38255608,1.1822457,-0.21977106,0.065994695,0.713661,-0.02879187,-0.60066324,0.4716464
net.java.cargotracker.application.CargoInspectionService;0;-0.100875385,0.15805662,-0.045514055,0.24727166,0.33086953,-0.21921849,0.26905328,-0.058818385,0.34017062,-0.48575106,0.27594885,0.2561278,-0.1610899,0.01781806,0.48576093,-0.05669447,-0.21267301,-0.09451186,0.09850119,-0.10166,-0.16981874,-0.26366183,0.17211476,0.20290083,0.35817948,0.0925073,0.49338356,0.4690927,0.16960046,1.0224603,-0.17659499,-0.07259862,2.1303675,-0.16304792,0.19600286,0.13460551,-0.0070774257,0.06526441,0.3092543,0.07821974,-0.4318808,-0.05430586,-1.3327358,0.06677815,0.43979144,-0.024988111,0.002511941,0.66538966,-0.054459885,0.19489217,-0.08338426,-0.23426738,-0.7720607,0.061929904,-0.09715064,0.46069992,-0.965779,0.23316458,0.12785715,-0.2019695,-0.42780793,-0.19340843,0.10023071,-0.06876802,1.7495819,-0.22955151,0.6779523,1.5432853,0.28657293,-0.2598397,-0.06403251,0.35645407,-0.013135515,-0.822475,-0.6469339,-0.26291817,-0.088883765,-1.010227,-0.6779029,0.17932463,0.435189,0.10942538,0.19278072,0.31852618,0.21651563,-0.30662963,0.071940765,-0.0020297468,-0.8026405,0.45739585,0.29095188,0.021308094,1.1664054,0.09197381,0.36561662,0.69968784,-0.012102485,-1.0070579,-0.11342884,-0.14263164,0.18562943,-0.73448193,-0.37048817,-0.57887733,0.25005937,-0.13361046,0.42973843,0.014509667,0.03496088,-0.053457044,0.19594757,0.21060187,0.047545314,-0.24233845,-0.097207434,0.11932695,0.14480987,0.06385842,-0.16824964,0.15778327,-1.3617585,-0.09355657,-0.3493059,0.8602986,0.15426385,0.10831174,-0.13383561,-0.30624375,0.41428024,0.117255926,-1.5115511,-0.8106453,-0.25764006,-0.038564917,0.38596082,-0.10715778,-0.41268027,-0.10058637,-0.22254002,0.19858637,-0.8460565,-0.22155645,0.22139527,0.1807596,0.2707681,0.12912305,0.24197857,0.10329015,0.24838407,-0.2868881,-0.79219544,-0.17185947,1.3974824,-0.49847654,-0.29886013,-1.0212137,0.45273507,-0.5457253,-0.26851457,-0.9589508,0.2971058,-0.12597056,0.20080023,0.6748082,0.22389144,0.5145993,-0.039967462,-0.5279551,0.023152333,0.4555862,-0.19654077,-0.23576157,-0.8570809,0.2452292,-0.091049425,0.30602312,-0.21396472,0.25765932,0.15605368,2.1104085,-0.1195547,-0.06427036,0.1416911,0.02357661,-0.022266276,0.12772429,-0.42108732,-0.041376013,0.14570072,0.042919386,-0.07279807,0.1352557,0.008680653,-0.103571914,0.04224971,0.115748845,0.11437136,0.26740858,1.392746,-0.20728439,-0.020989815,0.16775627,-0.25737703,-0.17274155,-0.11015399,0.60426414,-0.25085354,0.30223644,0.50473017,1.2933362,2.1961353,0.4069275,0.18342578,-0.28225076,-1.3738507,0.1941817,-0.38348213,-0.00821615,-0.19316372,-0.2370248,-1.6425366,0.2585349,-0.15991342,-0.52541435,0.034627188,0.26776418,0.15272036,0.23604235,0.052639373,-0.07112369,0.07067736,-0.15826938,0.0015448406,0.25378284,-0.8377613,-0.17830542,0.008651044,-0.14089715,-0.36567122,-1.3816606,-0.100660086,-0.07581921,0.257753,0.553852,0.38405037,-0.76528907,-0.2239924,0.054181006,-0.12515466,0.31386167,-0.11269273,-0.18968211,-0.00095718354,0.15376051,-0.33832884,-0.117708564,0.039052248,0.15757792,0.05202371,2.4662416,-0.170025,0.5309676,-0.06455206,-0.58375275,-0.046826757,-1.4309486,-0.28079978,-0.28915352,0.6659935,0.64809257,1.6046071,0.2821956,0.32262334,0.047704555,-0.35463652,-0.21916696,0.59763926,-0.31078157,-0.8307165,0.007413909,-0.05235531,0.23833916,-0.16504219,0.13772514,0.07233292,-0.13780002,-0.4043503,-0.31582484,-0.12219044,0.17627344,0.61433583,-0.69702363,1.422103,0.0507302,-0.28911582,-0.047735743,0.093713045,0.34125835,0.004607603,-0.2999729,-0.18141791,0.36124796,0.12292954,-0.46099225,-0.68248636,-0.14281498,-0.6349111,-0.18563548,0.18429784,-0.14228573,0.45350805,-1.0034852,-0.1339836,-0.061372407,-0.28604817,0.32010055,0.08637377,0.11346727,-0.118417315,-0.067929685,0.049206607,-0.28228706,1.055491,-1.5780734,0.0280348,1.0004244,0.26184613,0.11107539,-1.8973073,0.9073738,-0.19674218,-0.0949556,-0.13494956,1.1839231,-1.2823317,-0.20439067,0.5610751,-0.37527296,0.54022634,-0.008507349,-1.5029441,-0.2723587,-0.5942811,0.5609864,-0.05920977,1.2833735,0.12006968,-0.42677256,1.2310085,0.1765611,-0.55507636,-0.7043297,-0.24651803,-0.18403909,-0.28015292,2.6587613,0.2756092,-0.22920659,-0.3703306,-0.2992578,0.39850995,0.13337909,-0.25937283,1.8332355,0.7663048,-0.6615968,-0.78851277,-0.23957571,0.29347134,-0.1377506,0.35756055,0.21789882,-0.12519155,-0.20291102,0.35259682,-0.37421456,-0.28345948,0.27658927,-0.1357377,-0.21083857,-1.2590599,-0.13263747,-0.103897646,0.2612986,-0.22608721,-2.6527803,0.41760796,-0.038467757,1.5707012,0.29637116,-0.23035136,-0.3359615,0.15945274,0.110084325,0.08003443,0.040328436,-0.30201256,-0.044628747,-1.0780991,-0.31843436,-0.027668457,-0.13768488,0.14582486,0.38786006,0.061201375,0.53140247,-0.35803717,-0.21374638,0.11994895,0.38770688,-0.3495853,2.014864,-0.0966751,0.28002942,-0.08281374,0.3894743,0.37944484,0.10922343,-0.42832193,0.24380806,-0.014773153,0.3170407,0.82774985,-0.22217022,-0.19935153,0.17019148,-0.017342836,-0.16907583,-0.041130625,-0.32282475,-0.12988685,0.6335318,0.34877864,0.034621928,-0.16466367,-0.21719608,-0.20142022,-0.29318634,0.69647884,0.0012480747,0.23227239,-0.11961402,0.03608745,0.04211819,-0.77686316,0.34506693,0.51175076,1.876723,-0.13773033,-0.05939599,-0.0758218,0.047138505,-0.16316628,-0.11443471,0.56932735,0.05203295,-0.040416572,0.11482268,0.17420763,0.34513003,0.027221275,-0.2233082,0.001305867,-0.27056146,0.091522515,-1.7980592,0.3573709,-0.25049415,-0.2989546,0.18626392,-1.129756,0.63279647,-0.056376986,-0.4447424,0.00036168844,0.076733895,-0.037217204,1.4965374,0.2690054,2.1192124,0.040261775,-0.1058482,0.53147984,-1.0733742,0.27483955,-0.51434666,0.45340768,0.28673685,-0.25337428,-0.5503909,0.0055867927,0.32101136,0.21991175,0.19035608,-0.12682015,0.3847076,-0.5407574,0.68091035,0.14376077,0.85534143,0.41397494,0.16866711,0.5618746,1.5123856,0.081986316,-0.1196904,-0.013829237,1.5137161,-0.018237367,-0.20527646,-0.10983893,-0.07938804,0.96146274,0.41943938,-0.123362914,0.098482095,-0.3289528,-0.2260694,0.0916174,1.5028276,-0.0010881834,0.064159885,0.020305779,0.4422733,1.8321258,-0.017218629,-1.1082565,-0.71382827,0.52224714,-0.4663985,-0.01032684,0.04970685,0.040253475,-0.17320801,0.8360381,-0.049166005,0.22631,-0.56653285,0.23152071,-0.3080791,0.29689878,-0.04701735,1.311345,-0.14957923,0.50679535,-0.15591177,-0.045485318,-1.7571361,-0.098069265,-0.21847758,-0.29259259,-0.27472863,-0.21452202,-0.16762291,0.18380365,-0.024206065,0.367379,0.24881129,-0.27481535,0.45731837,-0.29865324,0.15859017,0.33277088,-0.02144377,-0.17442407,0.10899868,0.23357159,-0.05256266,-0.105263844,-0.06941722,-2.111733,-0.10291681,-0.073064,0.40164936,0.09021235,0.33640772,1.1214657,-0.16697815,-0.10476163,0.7365484,-0.34525016,1.8598832,-0.13692366,-0.58826816,0.060768504,0.39263165,-0.3663882,0.85466963,14.2192745,-0.20778328,1.4938748,0.79616356,0.19993673,0.09303142,-1.4551041,-0.099790156,-0.2183495,0.05320056,0.07878537,0.0036337022,0.09711408,0.16966349,0.51164865,-0.17888694,-0.26650086,0.37404078,-0.24214119,0.028547656,-0.35584015,0.047971107,0.70716256,-0.7421182,-0.13425323,-0.27574158,0.041877087,0.23658262,-0.31031895,0.13294797,0.25495052,0.32892355,-0.33340856,-0.1928918,-0.1988374,1.6778642,0.08237244,-0.3465273,0.30768996,-1.8721726,0.31884643,-1.1556484,0.32539636,0.13780525,0.43755698,0.14948928,-0.7017833,0.25362882,0.315689,0.04940411,-0.19703974,0.7511392,0.1771969,0.13430598,0.1405949,-0.24975969,-0.9859454,-0.024658076,-0.9384309,0.2312955,-0.19036253,0.16329175,0.031562638,-2.0050936,-0.3323628,0.2811031,0.084572874,0.25140738,-0.17168897,0.063138135,2.0975933,1.4145153,0.12998134,-0.26267856,-0.64879733,-0.23604605,-0.06417474,-0.344774,0.16551948,-0.23946878,0.12272019,-0.037834365,0.07107907,-0.33367243,-0.26980734,0.18237185,0.48876244,0.4390646,1.3143795,0.2215549,0.025349874,0.3635359,-1.3944277,-0.039340526,0.23831293,0.07930651,-1.5431718,-0.13880083,0.0100893825,0.30866227,0.013715573,-0.33855838,0.25072324,0.3431895,-0.69697356,-1.1845173,0.52575916,-0.061443135,0.2029482,0.009971293,-0.39208207,-0.06495678,0.4978366,-0.25760552,2.0654948,-0.09946463,-0.11170094,0.07538497,0.6090876,-0.0035957173,0.037446637,1.2897941,-0.30851012,-0.4264883,-0.08631733,0.31041762,0.16753864,0.48968697,0.4800574,0.4778162,-0.13167992,-0.029245079,0.0598758,1.9674915,0.1502738,0.09816085,-1.1223702,-0.34465793,-0.17073476,-0.5503289,0.188609,-0.23674811,0.17382151,-0.47710532,-1.3616412,0.19706921,0.4427233,0.11984649,-0.039643917,0.12969108,-0.0921218,0.09001052,0.5247861,0.052679833,-0.053431667,-0.2508772,-0.30953163,1.3892,0.5499574,-0.8288024,0.49060154,-1.4418566,0.6436097,-0.21045022,-0.004612498,-0.14431733,0.22051361,0.00025270134,0.30859196,-0.6018282,0.018262848,-0.049228273,-0.58050776,1.1072937,-0.1279066,0.0023809,0.5962782,-0.04475042,-0.52296424,0.4637268
net.java.cargotracker.application.HandlingEventService;0;-0.13976446,-0.016623832,-0.14154601,0.2174496,0.25541887,-0.19522578,0.2754627,-0.011413291,0.3463881,-0.44265395,0.17033568,0.26955056,-0.05057951,0.02265642,0.54202765,0.038972683,-0.28582639,-0.08234549,0.058906406,-0.4374112,-0.20364262,-0.3153561,0.247794,0.108716205,0.33297983,0.089501105,0.3141785,0.5900946,0.09104569,1.1563222,-0.155623,-0.09663494,2.2756665,-0.13631982,0.13829602,0.13062178,-0.11057391,0.06496235,0.4059225,0.14731857,-0.23263383,-0.11796931,-1.3934553,0.02694148,0.48999673,-0.02453414,0.008331098,0.6742906,0.049338553,0.20947832,-0.22249028,-0.15141532,-0.7095992,-0.0033415407,-0.1422995,0.6302898,-0.966631,0.27641353,0.19954719,-0.15649882,-0.42179573,-0.3125585,0.12968273,-0.017074168,1.8415837,-0.2885936,0.79436314,1.734829,0.280334,-0.26737398,-0.20493124,0.35043773,0.017349023,-0.8564508,-0.4797526,-0.2825186,-0.15285355,-1.202977,-0.78443265,0.23835303,0.4617281,0.14607844,0.13671885,0.27942848,0.11173163,-0.2624681,0.028266834,0.06627749,-0.7985781,0.42649686,0.25113758,-0.10453954,1.2271214,0.09551621,0.45434192,0.6370468,0.03669665,-1.0998967,-0.16665158,-0.347556,0.2722496,-0.7660334,-0.48315787,-0.700783,0.22174868,-0.098460495,0.50287366,-0.08297904,0.00890851,-0.14891633,0.17346148,0.2609525,0.067209184,-0.16025403,-0.017926268,0.048472244,0.15523452,0.16665448,-0.19871882,0.2277011,-1.4264866,-0.051006317,-0.4055834,0.8280125,0.3073916,-0.019434717,-0.15376478,-0.31649214,0.42029327,-0.012678452,-1.7305694,-1.0441403,-0.26836002,-0.087127805,0.33665705,-0.079766124,-0.45084226,-0.13138752,-0.34068254,0.19226646,-0.86022377,-0.3085204,0.168877,0.29659304,0.19680472,0.07860586,0.21367773,0.048532,0.16246861,-0.32762986,-0.9086477,-0.16225594,1.5552577,-0.41744703,-0.42642552,-1.124396,0.47674316,-0.6249117,-0.33237264,-0.9524966,0.36931843,-0.22456157,0.1913544,0.728585,0.23215479,0.5807456,0.20777702,-0.522226,-0.0245451,0.53844213,-0.19260845,-0.34864473,-0.8664933,0.3241711,-0.078916095,0.40034813,-0.13410597,0.35024747,0.16663162,2.1700695,-0.14784026,0.012141414,0.06418639,0.019343905,-0.12951393,0.22851568,-0.551982,-0.0043519214,0.23406443,0.09504984,-0.07334672,-0.010523565,0.079172365,-0.06652015,0.05936804,0.09855533,0.15070891,0.23071158,1.5177634,-0.2544401,-0.010633431,0.060615715,-0.32812774,-0.2693809,-0.17879269,0.537055,-0.23395391,0.46019793,0.4543461,1.3759179,2.1962967,0.49008688,0.3489458,-0.28523552,-1.4038152,0.20068727,-0.33863887,-0.08015043,-0.1097809,-0.35664287,-1.7115837,0.24581054,-0.11533886,-0.61943644,0.11575861,0.37973097,0.07177086,0.34619886,0.004738409,-0.082332164,0.038532317,-0.1689845,0.045043442,0.38801485,-0.76399267,-0.13252692,-0.048018478,-0.10814388,-0.32679033,-1.54448,-0.12650064,-0.08140981,0.116871744,0.55577993,0.5101415,-0.83938587,-0.30749694,0.09010814,-0.08432398,0.39950463,-0.16273594,-0.41684857,0.057855133,0.1615301,-0.42413265,-0.17358015,0.06882047,0.12741025,0.041677754,2.6467693,-0.0014979318,0.51669043,-0.0014046878,-0.6929653,-0.098849736,-1.386143,-0.35966933,-0.12605058,0.6872737,0.72262555,1.7586459,0.3300714,0.29351157,0.10899707,-0.29820183,-0.20080608,0.72758096,-0.37106702,-0.8348138,-0.012915568,-0.08370792,0.33700714,-0.21723922,-0.004559934,0.17748961,-0.10130765,-0.47651792,-0.3904812,-0.19368389,0.19961217,0.64750606,-0.8167797,1.493134,-0.035567705,-0.26117843,-0.13242939,0.1466109,0.2821185,-0.011895962,-0.30774435,-0.18545532,0.5564329,0.13107516,-0.4862276,-0.8255336,-0.06835777,-0.7339804,-0.024546362,0.06327994,-0.110157795,0.49854273,-1.0233238,-0.08538847,-0.036601312,-0.303195,0.2435936,0.11232682,0.3243642,-0.09911268,-0.024908952,-0.12131336,-0.18125796,1.2817256,-1.5434309,0.07464825,1.07787,0.29565117,0.042376384,-2.0019648,0.85660493,-0.10470811,-0.1631839,-0.058339834,1.3788124,-1.3167727,-0.13707678,0.54498565,-0.38995376,0.53968793,0.058456913,-1.4788324,-0.13806444,-0.5773851,0.5247527,-0.075214125,1.4085659,0.021918543,-0.44816503,1.3715651,0.071153544,-0.5348123,-0.8119073,-0.13287601,-0.23872599,-0.27564454,2.735028,0.31239244,-0.20124978,-0.46403182,-0.14117053,0.33341485,0.058214143,-0.20685522,2.0022767,0.8804048,-0.6773387,-0.73281074,-0.2315855,0.26688662,-0.10858685,0.30443326,0.14092745,-0.11572772,-0.2724007,0.4664487,-0.37572363,-0.16637418,0.31172562,-0.09124607,-0.306826,-1.3561147,-0.01783552,-0.18159035,0.32949275,-0.22562611,-2.692011,0.46853572,-0.15321359,1.6251135,0.3411066,-0.11709801,-0.441271,0.21148932,0.16370323,-0.02190946,-0.0033648983,-0.39286545,-0.03814456,-1.0410215,-0.24491432,-0.0075075254,-0.22032332,0.18414792,0.38577053,0.17548704,0.5860651,-0.39145207,-0.16572812,0.0657952,0.57123595,-0.49294978,2.0589104,-0.09446764,0.17537056,-0.20900801,0.3010735,0.38109308,-0.0054148803,-0.3661322,0.40816584,-0.05417175,0.3774314,0.88730806,-0.1528483,-0.1529874,0.22022113,0.029783878,-0.16715325,-0.19050796,-0.5257576,-0.067683905,0.6731632,0.37962592,0.09790839,-0.06855271,-0.25288472,-0.18096541,-0.37266257,0.69374335,0.012611889,0.3030969,-0.10383609,0.06979134,-0.021127477,-0.9916159,0.3098359,0.50971216,2.0146124,-0.16878903,0.0480323,-0.13793534,0.11243097,-0.13735135,-0.11544658,0.64880276,0.025119334,-0.016988058,0.16369584,0.23611823,0.41038847,0.13213716,-0.22129259,-0.1315029,-0.26612768,0.06866969,-1.8806844,0.2944473,-0.2813015,-0.37309414,0.17421837,-1.0994657,0.64913696,-0.22631928,-0.4218894,0.02335005,0.07503509,-0.15234512,1.5662489,0.39883983,2.0783198,0.084024295,-0.018045597,0.57267433,-1.1411462,0.4165864,-0.587953,0.36724526,0.27084368,-0.22599083,-0.6098766,-0.101245776,0.35715958,0.2395592,0.2967455,-0.25366488,0.30998498,-0.66748893,0.8345541,-0.020443171,0.9219783,0.5444487,0.15970378,0.58297044,1.5901871,0.07214548,-0.09132838,-0.03684455,1.7133669,0.040651884,-0.26231948,-0.03071354,-0.071489364,0.83694404,0.48929185,-0.12418929,0.19185072,-0.3076265,-0.175583,0.09781532,1.4847308,-0.013757251,0.20231308,-0.031636395,0.43386748,2.0154464,-0.0492699,-1.2939818,-0.64450556,0.42412522,-0.4747152,-0.036527023,0.037949346,0.05277161,-0.21931402,0.8643906,0.0017085336,0.21899015,-0.62721264,0.0977219,-0.2636943,0.24875602,-0.07374773,1.4478203,-0.15550575,0.658419,-0.21972673,-0.03708805,-1.9036235,-0.1082506,-0.17741317,-0.3141214,-0.1691924,-0.21231589,-0.07189478,0.1873017,-0.03388612,0.3857197,0.17775539,-0.3918177,0.6214936,-0.35326916,0.25606856,0.30073887,-0.07516872,-0.20108087,-0.07703968,0.25265527,0.09245592,0.056066565,-0.0014279708,-2.224728,-0.07012214,-0.06745252,0.503344,0.13916248,0.31154698,1.1411572,-0.11707387,-0.20605679,0.90236187,-0.28432465,1.9551886,-0.12647814,-0.62395996,0.103435166,0.47285563,-0.59270996,0.8814605,13.826437,-0.18502276,1.6158347,0.7325716,0.12424286,0.14990963,-1.5619503,0.007907793,-0.117675796,0.039834566,0.022513889,-0.030956047,0.101504736,0.3671119,0.4208433,-0.18623166,-0.26173118,0.48352543,-0.19607773,0.025929358,-0.21472201,-0.09382982,0.6779861,-0.639538,-0.27067003,-0.27633822,-0.0074538365,0.2201562,-0.4146198,0.23979834,0.20121238,0.3093807,-0.250573,-0.14273506,-0.20573598,1.7330512,0.10315685,-0.3691307,0.2687428,-1.9946448,0.27796718,-1.2672409,0.22715557,0.25637126,0.30307522,0.2499493,-0.6301017,0.24328557,0.3255269,0.027000776,-0.20363557,0.7754329,0.13875975,0.1390254,0.21076602,-0.20394638,-1.1805891,0.0026300438,-1.048104,0.30808,-0.16053861,0.18543905,0.009345649,-2.0413487,-0.27794132,0.2522279,0.117040195,0.23784626,-0.25234258,0.057819784,2.198002,1.4561509,0.13082753,-0.24480738,-0.8493386,-0.15327919,-0.18995386,-0.36325827,0.2789991,-0.26853412,0.17840584,-0.07539374,0.03855941,-0.4126766,-0.1523338,0.16149428,0.6183287,0.50929993,1.3411536,0.23420162,0.14903447,0.4888539,-1.41597,-0.024887778,0.40211976,0.16193117,-1.697568,-0.14139819,0.008980621,0.46091446,-0.06402651,-0.45213652,0.31080225,0.39049298,-0.73275566,-1.2129014,0.5089706,-0.09776592,0.233188,0.07428917,-0.44915655,-0.25145715,0.5158956,-0.24853563,2.048038,-0.050597414,-0.07492444,0.13956591,0.64442414,-0.09474917,0.038752005,1.4415865,-0.18497385,-0.4046601,-0.17964913,0.36951414,0.27932435,0.51299876,0.49406824,0.5189273,-0.09742114,0.010882169,0.07279741,2.1232762,0.20651664,-0.07024086,-1.1357206,-0.17541027,-0.25946924,-0.6034234,0.17185348,-0.22162096,0.24800707,-0.54079306,-1.3833709,0.17991407,0.36303198,-0.062471025,0.03533691,0.1890488,-0.13508102,0.02621762,0.6069136,0.19919702,0.0045274943,-0.32683614,-0.31118745,1.3392239,0.6260877,-0.8031936,0.49904293,-1.6148146,0.7701092,-0.2811632,-0.18730845,-0.13928147,0.10571483,-0.042233802,0.19727664,-0.66515404,0.13098687,-0.057122156,-0.36533836,1.1936731,-0.195426,0.07440938,0.64138186,-0.12517123,-0.5814509,0.46113798
net.java.cargotracker.application.HandlingEventServiceTest;-1;-0.2336206,-0.012566517,-0.10841221,0.25794432,0.22922015,-0.26386356,0.33474278,-0.0046714507,0.26641452,-0.45181844,0.16027673,0.2932867,-0.15779567,-0.0012737662,0.60347813,0.035950284,-0.22587311,-0.11529357,0.032477748,-0.44351652,-0.1352733,-0.20297511,0.27967235,0.045512524,0.20549256,0.080527775,0.3775611,0.56654215,0.11304804,1.1003076,-0.13586098,-0.07041647,2.2216475,-0.088436864,0.09396482,0.073288,-0.07216223,-0.0067430288,0.31762943,0.056784067,-0.23854671,-0.11977112,-1.3412093,0.038154203,0.40505537,-0.030651672,0.00851814,0.602647,0.16089033,0.2790788,-0.09832824,-0.11436308,-0.79137105,-0.0740529,-0.13186783,0.5425392,-0.9348342,0.27360514,0.080006294,-0.18482561,-0.40821227,-0.16914313,0.1388789,-0.12137868,1.8023793,-0.22251463,0.7641051,1.5351785,0.230972,-0.31191882,-0.25057945,0.33419052,0.08927209,-0.85677433,-0.59954554,-0.23693323,-0.14633428,-1.2384763,-0.6776336,0.18888868,0.3870181,0.050123144,-0.043433648,0.31348595,0.1467582,-0.5168025,0.07811882,0.047199946,-0.89480704,0.3417163,0.25047,-0.16531548,1.2528476,0.083455205,0.5009139,0.47121057,0.09944279,-1.1918815,-0.1610923,-0.21231322,0.3251882,-0.8285589,-0.4635948,-0.68416804,0.2585187,-0.12756073,0.5380437,-0.10687652,0.016983712,-0.12867454,0.28253525,0.2957933,0.15340526,-0.23491614,-0.11381102,-0.026697636,0.15336794,0.19054037,-0.040140405,0.3280004,-1.4342642,-0.06041129,-0.37143967,0.8686711,0.17155941,-0.031651814,-0.082055576,-0.39870536,0.39706373,0.12817387,-1.6614723,-0.84737015,-0.1949035,0.0240466,0.40413404,-0.0928844,-0.33428422,-0.11603982,-0.28256795,0.25002107,-0.7208357,-0.23655598,0.17204468,0.26530954,0.17559229,-0.015708216,0.2717754,0.07466624,0.29883018,-0.28673598,-0.9214602,-0.24235134,1.6071033,-0.39951956,-0.37277022,-1.1769404,0.55916697,-0.53395915,-0.3364599,-0.9373491,0.37507236,-0.17312491,0.25793767,0.7138276,0.24283509,0.65345025,0.11638818,-0.5433922,-0.21872984,0.4950132,-0.21802701,-0.42035094,-0.8754278,0.3482727,-0.025399113,0.47228476,-0.04099488,0.32483593,0.18779498,2.0783803,-0.054303586,0.06042893,0.14523788,-0.014678712,-0.23102985,0.20861734,-0.48405883,-0.014159613,0.16087742,0.028391644,-0.0990986,-0.0023153399,0.022197628,-0.015415589,-0.023732906,-0.036454666,0.18048936,0.19062191,1.4962754,-0.26075116,-0.07221087,0.09226674,-0.22885789,-0.25299892,-0.15391892,0.50530696,-0.19627701,0.38445103,0.47581124,1.2978711,2.1973817,0.32910195,0.35418448,-0.26269636,-1.3052381,0.103189476,-0.19430979,-0.09922695,-0.19253063,-0.37056696,-1.4829468,0.25437525,-0.09719366,-0.6018533,0.1274963,0.40390524,0.08988615,0.28597006,-0.0335183,-0.045719042,0.04706343,-0.13531397,0.0986677,0.42295802,-0.6700813,-0.11558682,-0.07666462,-0.08836537,-0.27530578,-1.4683796,-0.17942582,-0.12217475,0.13725744,0.5064473,0.47252414,-0.74463725,-0.27465647,0.08941371,-0.11569574,0.3359019,-0.19003546,-0.3842442,0.002370509,0.18526487,-0.39114344,-0.18047313,0.054193754,0.25562456,0.017870322,2.6662521,0.030133689,0.5131305,0.024970263,-0.7077963,-0.051378056,-1.2811123,-0.26701042,-0.19779028,0.62138516,0.5193151,1.8187356,0.16332297,0.26421666,0.09517381,-0.24936871,-0.26470688,0.7850085,-0.24897982,-0.9020586,-0.019304069,-0.02234505,0.35696724,-0.18936777,0.07725212,0.17354323,-0.10379238,-0.50060713,-0.30234036,-0.16752988,0.20422818,0.7082641,-0.7545139,1.3853732,-0.073337354,-0.26737946,-0.050088022,0.16417234,0.2918088,0.07798209,-0.30707905,-0.16125064,0.56580484,0.13037045,-0.37096778,-0.7465398,-0.100996844,-0.69770783,-0.088698365,0.08801604,-0.05851057,0.41571537,-0.949024,-0.03799705,-0.1257779,-0.26740208,0.33411098,0.064028405,0.36132082,-0.12828542,-0.050328117,-0.10411766,-0.05009554,1.2475533,-1.4774755,0.15486842,1.0540937,0.11204088,-0.054376524,-2.04812,0.8530033,-0.19846101,-0.15634535,-0.17493057,1.3945742,-1.2601445,-0.12275829,0.5616975,-0.40433988,0.5756311,0.10459847,-1.482129,-0.14456995,-0.501411,0.37516817,-0.058562383,1.5369434,0.024462288,-0.44829142,1.3209096,0.056715578,-0.5493409,-0.772324,-0.18104713,-0.2629017,-0.23799598,2.6011684,0.2916188,-0.23393404,-0.50782067,-0.0045864084,0.32094607,0.021469394,-0.283624,1.9428401,0.7851098,-0.60733205,-0.8342342,-0.23573565,0.19317603,-0.048373107,0.38724437,0.14724773,-0.13173078,-0.19342983,0.38191187,-0.1909136,-0.17194484,0.23095413,-0.017962247,-0.2807786,-1.4088095,-0.099457,-0.20104514,0.2971834,-0.13155507,-2.6868188,0.48627886,-0.12189027,1.6001571,0.30190796,-0.2030514,-0.3510022,0.07131815,0.2266743,-0.044296846,0.054875165,-0.44752908,-0.30692616,-0.9871401,-0.23174195,0.15102029,-0.24979031,0.12794836,0.46437153,0.21913747,0.48392537,-0.47545743,-0.14175637,0.02802671,0.47217217,-0.4853196,2.157599,-0.1523593,0.12726478,-0.17649627,0.32956693,0.43089974,-0.0031117946,-0.3580979,0.404366,0.00949693,0.40302333,0.80115384,-0.17238015,-0.04431473,0.21485917,0.0010171781,-0.17506404,-0.22996068,-0.5235337,0.013271161,0.6283135,0.44975898,0.12900268,-0.19546302,-0.30920038,-0.2649544,-0.4528462,0.7507971,0.11394807,0.22790647,-0.049959987,0.19529442,0.13256867,-0.980222,0.27512386,0.47679007,2.0886862,-0.0785094,-0.049764026,-0.14225489,0.1628051,-0.004155329,-0.13794841,0.6792679,0.0829626,-0.019428624,0.20829423,0.1983227,0.41150808,0.16640142,-0.24359405,-0.11807314,-0.30907866,0.116348,-1.8259524,0.3173109,-0.17178446,-0.2820786,0.16541488,-1.1683191,0.6096701,-0.21262652,-0.387953,0.044920754,-0.01733256,-0.13683885,1.5656714,0.37606096,2.0357113,0.06795912,-0.035638094,0.40822014,-1.1499895,0.514612,-0.5736354,0.43327856,0.28967407,-0.14071648,-0.6524609,-0.09194351,0.28249583,0.20619665,0.23299617,-0.29742837,0.28963965,-0.60192484,0.8471022,-0.11029047,0.9100341,0.5863364,0.17616713,0.6223032,1.6831106,0.056342233,-0.14986752,0.027781457,1.7070255,0.03298923,-0.24385919,-0.05163735,-0.06283713,0.8187311,0.42664194,-0.12737088,0.16649581,-0.2660735,-0.24013214,0.06296643,1.7194262,0.08954048,0.11638885,-0.0438903,0.44684997,2.0011504,-0.064538635,-1.2187836,-0.746722,0.4504547,-0.418594,-0.026462669,0.004850123,0.09374294,-0.30126676,0.9078005,0.009776528,0.12288792,-0.57322145,-0.087866485,-0.33326355,0.15928619,-0.055679858,1.2835451,-0.14186569,0.5916499,-0.15035026,-0.08923093,-1.9315876,-0.13688257,-0.2670081,-0.24947971,-0.05850337,-0.23542543,-0.08156344,0.22609822,-0.120488524,0.26025566,0.10264661,-0.42706499,0.60043687,-0.25494143,0.2937858,0.3671898,-0.11793996,-0.22715653,-0.04885314,0.2257631,0.12883066,0.012108649,-0.07676659,-2.1635,-0.04295154,-0.029794974,0.35727403,-0.009146,0.2901283,1.1199754,-0.16113421,-0.20654796,0.81419474,-0.13405949,1.9200729,-0.15895708,-0.6468644,0.06562518,0.34916362,-0.41360018,0.9070806,13.27269,-0.1822973,1.5480194,0.6988086,0.27070868,0.09254324,-1.4934357,0.094266765,-0.016909325,-0.042207915,0.07164133,-0.05888182,0.016803235,0.3043888,0.42850623,-0.17593186,-0.20212388,0.3852966,-0.28705892,0.023193263,-0.10079929,-0.059460163,0.7629331,-0.63153094,-0.19167595,-0.30767938,-0.1364393,0.10865935,-0.3365723,0.33663496,0.14883019,0.34794977,-0.14580779,-0.21422188,-0.21514821,1.6362098,0.04797755,-0.4286321,0.20534694,-1.9060874,0.22091764,-1.2307202,0.33305657,0.23295695,0.39647806,0.26382855,-0.69337845,0.22519548,0.35262474,0.07533916,-0.023632364,0.7021739,0.110951446,0.24037863,0.20284684,-0.1669557,-1.1571722,-0.057617906,-1.0248475,0.17854875,-0.16306444,0.20566474,-0.021100318,-2.0438914,-0.35969695,0.29976597,-0.03474747,0.29287273,-0.23959772,0.20825827,2.0940583,1.5107764,0.17506315,-0.1819117,-0.8794971,-0.16065705,-0.19032858,-0.3638967,0.26224604,-0.3169124,0.12050686,0.004357884,0.074212484,-0.33208764,-0.042208076,0.11625152,0.8466274,0.48777792,1.2985126,0.22626652,0.20321156,0.34905156,-1.4207487,-0.03328389,0.33327052,0.13547282,-1.6022383,-0.15471558,-0.034304973,0.43759957,0.035565693,-0.49354687,0.24478006,0.38940278,-0.6954777,-1.1284603,0.56269366,-0.04650772,0.30849525,0.06946665,-0.40172264,-0.27860716,0.6341158,-0.1552415,2.0621073,-0.21670105,-0.104907334,0.09377646,0.69200534,-0.0075369873,0.11291049,1.45657,-0.18355745,-0.3679465,-0.19895239,0.2947066,0.22063923,0.47253886,0.47792658,0.58698577,-0.072698966,0.0022065688,0.1903444,2.0396488,0.14599304,-0.112077534,-1.1407226,-0.10402724,-0.15488851,-0.5494318,0.15834513,-0.261382,0.26557028,-0.42611504,-1.3965203,0.1201218,0.41766834,-0.099154085,0.06399298,0.12634106,-0.12677279,0.09238181,0.50651056,0.037624743,-0.04955001,-0.12480388,-0.278298,1.3656384,0.5792236,-0.87513584,0.62376887,-1.6562942,0.8174128,-0.3170193,-0.025773605,-0.07365101,0.25203207,-0.021806618,0.26118258,-0.6283069,0.2359309,-0.060504746,-0.38941488,1.091659,-0.08297369,0.004004138,0.7697626,-0.14075963,-0.56330925,0.4960178
net.java.cargotracker.application.internal.DefaultBookingService;-1;-0.19431578,-0.024699843,-0.12965997,0.3290825,0.27859733,-0.25180662,0.36675322,0.03723446,0.31417045,-0.60851336,0.17714727,0.2516373,-0.18301539,0.040580902,0.56690574,-0.030995475,-0.3452444,-0.116848506,0.07124477,-0.50418895,-0.155856,-0.21140087,0.2897518,0.09485358,0.2012131,0.062450577,0.39915618,0.65042025,0.094161116,1.066944,-0.20114325,-0.06137423,2.238939,-0.09792886,0.1430218,0.014151071,-0.12589227,-0.08405998,0.3901781,0.10623077,-0.21952462,-0.14003919,-1.2524775,0.04217152,0.39080822,-0.14317463,0.048829447,0.5769095,0.21753381,0.27841,-0.08827955,-0.24178787,-0.76652,-0.013501356,-0.04650271,0.5577622,-0.8627431,0.345924,0.11091495,-0.22682303,-0.4847995,-0.13023004,0.1092441,-0.11081908,1.7701715,-0.29884538,0.8178764,1.6350263,0.30795714,-0.35174176,-0.20616955,0.4061416,0.19798271,-0.99454135,-0.6908197,-0.2827196,-0.11330303,-1.253837,-0.7408936,0.256525,0.4167491,0.1910625,-0.093625255,0.27111754,0.23912299,-0.5583832,0.099655665,0.040317584,-0.83233136,0.4166721,0.262027,-0.12820809,1.2934701,0.11040753,0.49765494,0.47555876,0.039539035,-1.1828855,-0.23931651,-0.294367,0.27871907,-0.8209958,-0.52816015,-0.7749398,0.32293072,-0.033648428,0.56656826,-0.12978382,-0.07250575,-0.15735027,0.23058437,0.27392587,0.09511422,-0.25407642,-0.11400309,-0.020450749,0.10572508,0.16031995,-0.0761944,0.2984396,-1.4810024,-0.13660607,-0.39870322,0.86847,0.20881037,0.022769004,-0.121246465,-0.320617,0.4299079,0.0344109,-1.6905311,-0.7918093,-0.18926561,-0.044671256,0.3800534,-0.082828104,-0.37077296,-0.13241291,-0.3202142,0.17588551,-0.74209946,-0.2640076,0.10744399,0.29541227,0.1484781,-0.043979954,0.28720066,0.05233389,0.3197655,-0.353032,-0.94410187,-0.25545767,1.5552224,-0.4294745,-0.40352163,-1.1828359,0.56324583,-0.5977809,-0.40018496,-0.98749,0.356231,-0.05383813,0.34722412,0.74606556,0.22146212,0.6059168,0.11830882,-0.5621337,-0.13925707,0.4805685,-0.1614709,-0.33840594,-0.9071136,0.4269817,-0.052880343,0.47124705,-0.042270873,0.32296142,0.23389219,2.1477711,-0.0729421,0.13555427,0.13734491,0.040806253,-0.17814289,0.14107986,-0.47532597,0.026173254,0.20240891,-0.007678531,-0.043733146,-0.035790224,0.041994493,-0.08135122,-0.015513708,-0.01558571,0.13709421,0.19130158,1.5947744,-0.27693513,-0.09290937,0.07366155,-0.19163613,-0.23397319,-0.21908855,0.5040476,-0.21950804,0.38092327,0.43135917,1.3226581,2.2277243,0.33593455,0.27068818,-0.2411664,-1.359219,0.08680412,-0.13370897,-0.08049517,-0.15661927,-0.37156692,-1.5237902,0.23554693,-0.10702673,-0.60392326,0.082238354,0.4661932,0.0070572174,0.30163145,-0.0678327,0.03885491,0.15179081,-0.103257395,0.13800526,0.4439136,-0.72505784,-0.08146521,-0.000353915,-0.09598736,-0.38524294,-1.4973685,-0.13082552,-0.15184925,0.085974105,0.49398908,0.55623835,-0.66750264,-0.3346794,0.052090425,-0.18670888,0.28291044,-0.1396727,-0.4828352,-0.00057815015,0.18773915,-0.41154885,-0.21629731,0.00689341,0.269834,-0.016391208,2.6902409,0.0055658123,0.50665104,-0.007649265,-0.6253566,-0.14779417,-1.2702491,-0.29384068,-0.22625111,0.7308038,0.7067704,1.7586651,0.1251918,0.24045646,0.09554613,-0.31628862,-0.31366518,0.75948876,-0.32435235,-0.8707013,-0.003118972,-0.03177469,0.36870658,-0.19825251,0.17188539,0.21570013,-0.10188786,-0.6000154,-0.40300414,-0.13086493,0.22053893,0.6979919,-0.7337906,1.4467754,-0.038775638,-0.25513613,-0.10294235,0.17819482,0.28593704,0.121582024,-0.3016058,-0.281916,0.59190464,0.16517116,-0.46279356,-0.79076344,-0.06756951,-0.7588982,-0.09900102,0.123034246,-0.040695723,0.42331424,-0.99581975,-0.056339815,-0.03992224,-0.27217427,0.42703596,0.11399037,0.39381886,-0.14236857,-0.12376216,-0.14513205,-0.15051612,1.2756569,-1.5282474,0.10575078,1.1414758,0.26262644,0.004958879,-2.1027863,0.8817629,-0.25323185,-0.2873173,-0.20523678,1.4082446,-1.329647,-0.12949754,0.5456167,-0.31959745,0.6262868,0.20631869,-1.556189,-0.18678407,-0.48738202,0.5150632,-0.036961418,1.529559,0.08929492,-0.571997,1.298255,0.056225706,-0.6144331,-0.71915954,-0.15497848,-0.31633544,-0.37494913,2.6737442,0.30652636,-0.28707132,-0.5250074,-0.015832802,0.32023546,0.061929833,-0.33333448,1.9046122,0.8595125,-0.6129468,-0.8014471,-0.1794848,0.21920495,-0.030956483,0.43223214,0.118599534,-0.07976113,-0.3018613,0.3973402,-0.21958701,-0.26558742,0.29111472,-0.08717358,-0.3393686,-1.3906595,-0.07353971,-0.22960596,0.30378142,-0.24010472,-2.686712,0.54425335,-0.15936364,1.6802,0.38535252,-0.19353907,-0.4434876,0.09802512,0.25562105,-0.11583644,0.096163146,-0.46952495,-0.29686615,-1.1692346,-0.16560511,0.16824405,-0.20750028,0.12740853,0.4351789,0.32731426,0.4782654,-0.5177012,-0.15444511,0.09427512,0.4092499,-0.49672666,2.2219722,-0.117948554,0.11987121,-0.16454643,0.34234717,0.31951106,0.076225765,-0.31511953,0.45796514,-0.027130065,0.46403995,0.7899458,-0.17155038,-0.17433105,0.16555677,-0.03235619,-0.20250654,-0.16142517,-0.5727354,0.05958044,0.69444853,0.48880246,0.070847936,-0.11668333,-0.2765765,-0.25403735,-0.4550229,0.78070855,0.054443046,0.2917316,-0.0933491,0.13333093,0.16615921,-1.0313797,0.2398622,0.5522408,2.094338,-0.102093,-0.056359638,-0.12532635,0.11904737,-0.08920763,-0.14514071,0.71823055,0.07528252,0.026002154,0.2393406,0.16284819,0.42347953,0.15155746,-0.29882637,-0.13397782,-0.3493105,0.12845425,-1.7601374,0.30626735,-0.20592956,-0.3361419,0.19808798,-1.1612811,0.6715345,-0.15472692,-0.42992678,0.03085787,-0.029490814,-0.033757437,1.5212737,0.38622475,2.0059168,0.034891356,-0.020584298,0.44439635,-1.1167244,0.55051774,-0.6772855,0.4781085,0.35968542,-0.19782324,-0.6933613,-0.033346143,0.32232025,0.27317256,0.22215037,-0.30768746,0.27796078,-0.6304608,0.91619474,0.037685554,0.97501206,0.6424733,0.08918031,0.71621937,1.6042081,0.087157756,-0.18680753,0.0267188,1.795179,0.0028869424,-0.24815921,0.03157225,-0.05210449,0.8345189,0.5161781,-0.11177051,0.07665985,-0.3096919,-0.22934614,0.020689534,1.6379687,0.04859808,0.106338404,-0.051432054,0.4959458,1.9587466,-0.02330588,-1.1947027,-0.71488184,0.5465153,-0.4419128,0.03966119,0.06019217,0.048675682,-0.27123633,0.93476576,0.03398845,0.19132806,-0.5862207,-0.006963365,-0.2891043,0.21381576,-0.0013068219,1.2721397,-0.22421934,0.56542945,-0.1991622,-0.055314925,-1.9363041,-0.11017412,-0.15438928,-0.31167746,-0.023086071,-0.29433134,-0.073977426,0.18001068,-0.16709846,0.31871864,0.11212913,-0.40269303,0.66286844,-0.32022345,0.25798073,0.41953853,-0.1316797,-0.14779836,-0.031622313,0.2674034,0.14378461,-0.05895701,-0.0624011,-2.1350594,-0.036841106,0.014566392,0.41823447,-0.103350215,0.28438923,1.116869,-0.20597778,-0.2588556,0.9223296,-0.24092664,1.9584728,-0.15471308,-0.69722176,0.05250894,0.29720283,-0.41896474,0.85614425,13.232147,-0.13667081,1.4940434,0.71099347,0.24627388,0.11557489,-1.5634359,0.14391918,-0.012998777,0.01564702,0.15803438,-0.08422438,0.0783812,0.405424,0.42217803,-0.19167465,-0.22939026,0.38422474,-0.32652092,0.054062247,-0.25815162,-0.0570621,0.7518255,-0.6249208,-0.2112428,-0.3769671,-0.2049178,0.101510964,-0.36423156,0.40250745,0.23060791,0.22200401,-0.12403471,-0.2154718,-0.1517774,1.572401,0.007541034,-0.40202382,0.26769707,-2.0189629,0.24232215,-1.3427367,0.34555003,0.2962419,0.406988,0.37666216,-0.7198089,0.22485192,0.29571092,0.040526323,-0.023175143,0.6708274,0.2122763,0.25953957,0.19591768,-0.19827847,-1.0908736,-0.065036386,-1.0275058,0.24297994,-0.1734031,0.16486843,-0.063231416,-2.0480955,-0.3576056,0.33816576,0.039685205,0.36805654,-0.21656232,0.06983236,2.0493028,1.518148,0.15581353,-0.16163684,-0.94728214,-0.107830316,-0.24948072,-0.3514751,0.25126374,-0.3114747,0.18853472,-0.06542058,0.16039859,-0.35559437,-0.12102949,0.09900769,0.7374434,0.5195562,1.2334005,0.29571173,0.17326766,0.46730605,-1.4249054,-0.05094854,0.30635184,0.23745103,-1.6142658,-0.15755203,0.006939905,0.42035592,0.07339984,-0.48423454,0.20514818,0.39438906,-0.62261254,-1.1754304,0.55396956,-0.13683759,0.31454185,0.12265134,-0.38116157,-0.28264406,0.65646636,-0.13476655,2.0735383,-0.17525148,-0.15583313,0.054539382,0.8069213,-0.024677673,0.03913185,1.4482121,-0.23319733,-0.3850143,-0.22663169,0.28792563,0.3122342,0.547976,0.5107722,0.53603846,-0.07855778,0.02442582,0.15960166,2.111812,0.17201954,-0.14194924,-1.1345714,-0.13875833,-0.21325493,-0.70023036,0.19061814,-0.24525046,0.26467887,-0.4480969,-1.3935033,0.17336035,0.38803396,-0.044503972,0.07109309,0.16322555,-0.023224669,0.070770405,0.6096099,0.101941176,-0.08635033,-0.0946559,-0.31819904,1.4046774,0.6601406,-0.9035706,0.6729284,-1.6982654,0.8080279,-0.3393143,-0.067713805,-0.07271207,0.18366389,-0.04966092,0.2645882,-0.70007974,0.24857311,-0.027239673,-0.45706788,1.1460978,-0.008312521,-0.029009312,0.7283774,-0.17803115,-0.6074593,0.47739634
net.java.cargotracker.application.internal.DefaultCargoInspectionService;-1;-0.21354628,-0.039879844,-0.08236039,0.3115562,0.3462946,-0.25363886,0.3797648,0.01970442,0.23726109,-0.54763615,0.14237776,0.23701379,-0.12380491,0.021721356,0.614668,0.034906063,-0.32817155,-0.112676464,0.056771807,-0.52867436,-0.0982393,-0.19556881,0.25369737,0.11557623,0.2756505,0.080875956,0.41087472,0.66428524,0.1519011,1.1090653,-0.110599756,-0.048352677,2.2335463,-0.168616,0.08273853,0.026683219,-0.0817589,-0.050308935,0.3475475,0.034931075,-0.18455201,-0.20438135,-1.3543634,0.07148285,0.41573083,-0.119431704,0.059273265,0.5797632,0.20783702,0.27997404,-0.102301426,-0.26707938,-0.87364554,-0.010255236,-0.0758484,0.53365123,-0.91456217,0.3712473,0.08587442,-0.18574433,-0.46299466,-0.15724944,0.122035116,-0.0095805265,1.815872,-0.29501793,0.8774397,1.6951613,0.281573,-0.37694654,-0.20291147,0.41506237,0.17599033,-1.0733595,-0.61272144,-0.26826483,-0.13449468,-1.3887415,-0.78875256,0.21458405,0.43514943,0.14430405,-0.122596815,0.29300052,0.2217631,-0.6024357,0.08612844,0.043883763,-0.9421178,0.43860072,0.24495721,-0.15287574,1.3202915,0.1302686,0.5499727,0.45030427,0.048836097,-1.2648187,-0.24443223,-0.30796444,0.22983873,-0.77457225,-0.5836676,-0.7657992,0.3076777,-0.07740588,0.54567766,-0.09935533,-0.0810282,-0.17478266,0.25789902,0.3396985,0.12657635,-0.24951197,-0.123637736,-0.011971824,0.126742,0.19464059,-0.054906953,0.22041221,-1.5255343,-0.14359243,-0.38558066,0.8734435,0.21018712,-0.0485664,-0.070015974,-0.34776068,0.40249085,-0.0018611886,-1.7036229,-0.8450141,-0.16390342,-0.055306144,0.35153168,-0.07106516,-0.41039723,-0.122266345,-0.31931823,0.1736995,-0.7898141,-0.30310863,0.16654441,0.30322015,0.16474435,-0.050017327,0.29314017,-0.061990585,0.35808298,-0.2665163,-1.0073731,-0.3466849,1.6218163,-0.41789377,-0.43678045,-1.2436872,0.6007745,-0.6253748,-0.42064577,-0.9447963,0.35475662,-0.10575253,0.33714312,0.778131,0.19311099,0.6516282,0.22941688,-0.5408132,-0.19418436,0.48300585,-0.14616284,-0.38699362,-0.8787893,0.39197952,-0.037096065,0.52105296,-0.08429423,0.29067904,0.24613693,2.1408541,-0.10146536,0.11592938,0.12198278,0.024396468,-0.21444345,0.1948914,-0.5211012,0.040777836,0.21379662,0.023221647,-0.0520023,-0.05396717,0.017904565,-0.05906064,-0.039349135,-0.03731202,0.10327068,0.1544195,1.5568285,-0.19195153,-0.09061682,0.03508147,-0.23039106,-0.28316286,-0.24240567,0.56645936,-0.1932354,0.3716656,0.48514628,1.3489134,2.3129182,0.37896165,0.28587177,-0.25195804,-1.4148184,0.13503169,-0.14869086,-0.08483294,-0.13308229,-0.410918,-1.556941,0.22598132,-0.14635062,-0.5680225,0.11330611,0.48810154,0.0076320786,0.40332717,-0.013845552,0.012834204,0.12515955,-0.09713384,0.14148396,0.46206555,-0.7333278,-0.08857529,-0.02259501,-0.07890062,-0.28954974,-1.5788804,-0.18807094,-0.13435185,0.09360892,0.51851654,0.5460589,-0.7208963,-0.32127368,0.13592012,-0.14988974,0.34956765,-0.14761066,-0.5103247,0.018191528,0.18361765,-0.47333306,-0.25631762,0.005772123,0.30954087,-0.03489814,2.736621,0.031669006,0.5412727,0.0029360894,-0.67493546,-0.13958493,-1.276928,-0.32856193,-0.18703322,0.71884876,0.7595748,1.781138,0.1430308,0.29430467,0.11344422,-0.2919848,-0.36392146,0.77491426,-0.28183478,-0.9148871,0.001592312,0.0044941306,0.38955322,-0.20682219,0.07515742,0.22309458,-0.18293568,-0.5902333,-0.3918125,-0.19655408,0.16625974,0.7427907,-0.7627133,1.4568436,-0.08238172,-0.27306187,-0.06736749,0.17489854,0.26498318,0.060458753,-0.30029303,-0.22648133,0.57653314,0.13449225,-0.4337688,-0.85321265,-0.1067168,-0.7307178,-0.06087576,0.118529245,0.029342044,0.42813087,-1.0197532,-0.036727097,-0.08024013,-0.25648886,0.48313475,0.13636006,0.3173071,-0.17039949,-0.0322995,-0.18245302,-0.17262113,1.3478618,-1.5250962,0.0833538,1.126269,0.21194708,0.026724797,-2.1953251,0.82755256,-0.22046,-0.24949983,-0.18951634,1.367696,-1.356013,-0.1250537,0.5362954,-0.36949402,0.62890863,0.18488337,-1.5569685,-0.122278094,-0.4336303,0.4488778,-0.04135224,1.5408003,0.08351882,-0.614409,1.3298616,0.026738996,-0.5781009,-0.7464443,-0.11427529,-0.24493118,-0.3810446,2.6833653,0.3470959,-0.24522543,-0.5472494,0.051938973,0.3653049,0.07823328,-0.32729065,1.9986336,0.84694886,-0.7209726,-0.83802533,-0.23283906,0.22441676,-0.042355895,0.3753043,0.16789111,-0.08472274,-0.23523614,0.40753704,-0.33116192,-0.24348903,0.3480445,-0.07935312,-0.38204843,-1.4333749,-0.07475608,-0.25889814,0.34786946,-0.15847284,-2.7547822,0.54687583,-0.17130725,1.6351168,0.3638255,-0.23855415,-0.47192764,0.063718125,0.2421786,-0.08040578,0.08989519,-0.48591018,-0.28461927,-1.2293482,-0.15919842,0.18083687,-0.24361545,0.18425567,0.4760689,0.29102054,0.5177502,-0.47316277,-0.11205205,0.1341755,0.39558122,-0.50624514,2.2611606,-0.08759825,0.07328631,-0.18809056,0.33105063,0.3645385,0.028777622,-0.3419385,0.49861193,-0.013896497,0.54537106,0.82085526,-0.08604508,-0.17565516,0.16854845,-0.026210647,-0.17096093,-0.19528784,-0.56389385,-0.036634147,0.6585469,0.5835358,0.08340247,-0.11700031,-0.24626708,-0.19540252,-0.41297448,0.78665763,0.10389206,0.2939367,-0.10328059,0.16548763,0.075062595,-1.1177148,0.1624038,0.56928563,2.1215796,-0.05759655,-0.039829522,-0.13423905,0.11426842,-0.033275366,-0.2718528,0.72723645,0.099229515,0.032447144,0.2277411,0.15904893,0.41839194,0.15488046,-0.26283002,-0.18268345,-0.29848018,0.19251385,-1.7967026,0.25420308,-0.18210953,-0.3328914,0.16906872,-1.187904,0.69091207,-0.1579273,-0.39557284,0.071047045,-0.0047370493,-0.0515495,1.5380185,0.34343204,2.0099726,0.06863607,0.00917406,0.5201786,-1.1728799,0.5746627,-0.6826546,0.4148412,0.33596057,-0.19053578,-0.7012385,-0.02031716,0.3367561,0.29471615,0.18445855,-0.36221552,0.24150659,-0.7322287,0.9120482,0.0074558035,0.9631041,0.6527946,0.13604015,0.60471904,1.6245787,0.09838428,-0.22885768,0.03176159,1.8918569,-0.057129584,-0.2903142,0.071894966,-0.028504614,0.8483665,0.5066091,-0.1309471,0.07044396,-0.28106308,-0.27858183,-0.07337862,1.6859833,0.07026259,0.15003052,-0.08603665,0.46959877,2.0021257,-0.09849516,-1.2388428,-0.6981751,0.51183426,-0.43578684,0.03525615,0.054759346,0.11281049,-0.2597335,0.88055325,0.030261863,0.20915346,-0.541494,-0.013614181,-0.24389383,0.3084159,0.035330735,1.2598147,-0.17973556,0.561342,-0.21435273,-0.039455965,-1.9770889,-0.0899829,-0.17635103,-0.3254835,0.15329057,-0.34344915,-0.069868624,0.2345358,-0.15894154,0.34481543,0.088207506,-0.45271406,0.66410714,-0.3152486,0.25928295,0.365991,-0.09548125,-0.1999322,-0.075894415,0.27422398,0.1684858,-0.033832133,-0.0686717,-2.1559842,-0.07707961,0.016609728,0.4746865,-0.09884837,0.3396989,1.1611989,-0.15082648,-0.27372944,0.9855633,-0.20867242,1.9973843,-0.13605477,-0.69247085,0.1065734,0.32857853,-0.49607587,0.8506969,13.079987,-0.1176167,1.5683063,0.7259319,0.22514316,0.03793164,-1.5294375,0.0898043,-0.0034547113,0.028783735,0.13261756,-0.031394903,0.08923851,0.42255375,0.38245898,-0.18089189,-0.1933543,0.3987428,-0.3139447,0.09227537,-0.24582337,-0.112007186,0.75850266,-0.5959011,-0.27036676,-0.3789869,-0.18703163,0.113163084,-0.39652935,0.415087,0.17249084,0.21579842,-0.12370898,-0.17810915,-0.12071693,1.6445205,0.02815529,-0.41390556,0.27846834,-1.9963413,0.18124206,-1.3180499,0.2984168,0.30032054,0.39052716,0.41679358,-0.7039913,0.19306897,0.37412402,0.10694325,-0.050585404,0.69006515,0.16734493,0.2870422,0.17334728,-0.1921247,-1.190873,0.01226571,-0.97743154,0.297093,-0.1538378,0.20276342,-0.028782405,-2.0650973,-0.3087448,0.3000671,0.045316648,0.38988185,-0.24658802,0.060965396,2.1137803,1.5588425,0.1585064,-0.19489962,-0.949481,-0.060843915,-0.28442556,-0.40424752,0.2637651,-0.30793333,0.20258103,0.011470655,0.09421165,-0.3202584,-0.06531687,0.07503743,0.77379894,0.54506457,1.2824879,0.2613223,0.23702666,0.5414736,-1.4174049,-0.100608766,0.38910872,0.22977296,-1.6921091,-0.20464692,-0.068978034,0.41049618,0.07905412,-0.5071535,0.22499831,0.39482376,-0.6726171,-1.1979171,0.5881481,-0.13492674,0.2795228,0.11062555,-0.43983394,-0.29957008,0.68427324,-0.12455398,2.040734,-0.14801747,-0.13902077,0.066125736,0.8050561,0.078839324,0.015564289,1.4641045,-0.19446191,-0.34563696,-0.25779852,0.33045405,0.27663544,0.5308714,0.5393393,0.5390647,-0.10610269,0.035135746,0.16792448,2.1471548,0.16263059,-0.082470015,-1.1149888,-0.07304485,-0.2068942,-0.73378366,0.19583601,-0.24371672,0.23522629,-0.48302248,-1.3902503,0.17141141,0.36805075,-0.06447638,0.090054676,0.16080949,-0.066866055,0.05695168,0.6244836,0.111599006,-0.038883444,-0.07691002,-0.2927916,1.4227272,0.6662077,-0.9290619,0.68533766,-1.7478654,0.8522836,-0.3583548,-0.07057956,-0.09982504,0.16045782,-0.08876783,0.18317479,-0.6874007,0.24332905,-0.014687512,-0.34638065,1.1860471,-0.026921667,-0.015646517,0.7788744,-0.18389037,-0.61239076,0.43984884
net.java.cargotracker.application.internal.DefaultHandlingEventService;-1;-0.17179053,0.010857832,-0.11366522,0.36772257,0.3826427,-0.30381286,0.4041683,-0.02916814,0.24850637,-0.53984064,0.09455853,0.28563213,-0.12513143,0.07775892,0.5653619,0.07511639,-0.29805875,-0.11802021,0.0584132,-0.47678927,-0.15064424,-0.2451526,0.25156584,0.19083828,0.3345651,0.12565395,0.42375603,0.61386824,0.19991386,1.2037623,-0.12853892,-0.10482222,2.2973564,-0.11908127,0.08314691,0.08757356,-0.057854395,-0.03609919,0.34104782,0.07199174,-0.20206538,-0.09530575,-1.4040678,0.05055663,0.35235214,-0.14940399,0.0961134,0.63765335,0.14078087,0.24063542,-0.0826973,-0.2604509,-0.8418988,-0.0072059967,-0.053778715,0.57922065,-0.8790645,0.39332867,0.13845828,-0.14895082,-0.4601621,-0.27190548,0.104375415,-0.009266449,1.817426,-0.33244804,0.8386726,1.6465532,0.38570604,-0.31792974,-0.2685042,0.3864271,0.079689026,-0.99201787,-0.5947442,-0.3303339,-0.09010602,-1.4120922,-0.7873617,0.22116292,0.46435505,0.1460753,-0.06358163,0.28511012,0.21168184,-0.52445304,0.076862976,-0.026429363,-0.92499626,0.40620008,0.26228487,-0.144786,1.3930919,0.13486426,0.52480567,0.5290033,0.11896368,-1.1937847,-0.2035316,-0.27286428,0.31503263,-0.8230089,-0.53181267,-0.7050686,0.2867761,-0.09308888,0.46955597,-0.07131317,-0.04522543,-0.1035939,0.20583631,0.32206666,0.0932992,-0.24434145,-0.09291232,0.013523817,0.120771654,0.14890446,-0.05388195,0.22111717,-1.4489856,-0.11244527,-0.32593554,0.8919934,0.15804136,-0.054903395,-0.019033715,-0.4016497,0.35202858,0.0110379085,-1.7720019,-0.854975,-0.17012426,-0.076197796,0.4540828,-0.1351382,-0.36665305,-0.16758245,-0.26737934,0.1879001,-0.76377356,-0.3385684,0.2013396,0.31912953,0.16300754,-0.012210846,0.28751972,-0.032090668,0.26793203,-0.30164874,-1.041151,-0.25657785,1.5874457,-0.44793016,-0.4242996,-1.1488776,0.5405125,-0.58574015,-0.37504548,-0.9851676,0.38399807,-0.12202334,0.29732156,0.7668886,0.18645288,0.692283,0.1321099,-0.55217683,-0.099793196,0.5263423,-0.15713009,-0.35873818,-0.94335926,0.31232303,0.01013425,0.48323756,-0.079271644,0.3150259,0.17619781,2.204742,-0.11100729,0.07341029,0.087491184,0.052264933,-0.08755438,0.18033044,-0.51931405,0.056374133,0.1913045,0.0028473325,-0.10128925,-0.015242834,0.005549744,-0.06373598,-0.002462279,-0.035857007,0.16206047,0.22140232,1.5996022,-0.27018118,-0.015482264,0.055127587,-0.20893252,-0.26958588,-0.20944235,0.49814746,-0.2255225,0.37041962,0.43690586,1.3549323,2.3005435,0.38908812,0.2811595,-0.2894402,-1.515173,0.11264906,-0.19084975,-0.035676345,-0.18860853,-0.3381841,-1.6135621,0.23251373,-0.11819982,-0.547169,0.06948144,0.51831645,0.023881566,0.39636576,0.012608945,0.043628473,0.03770306,-0.088718675,0.09743318,0.4380579,-0.7949832,-0.11460343,-0.03315705,-0.11199134,-0.2997018,-1.5595183,-0.12991115,-0.11805243,0.16539185,0.5513371,0.51680875,-0.84526014,-0.27756238,0.14008945,-0.20187509,0.32869425,-0.15827467,-0.44067442,-0.07760862,0.20677876,-0.48143044,-0.1756402,0.03855877,0.23427081,-0.04447182,2.7169375,0.028902762,0.5512285,0.05775199,-0.72912645,-0.11326124,-1.3182591,-0.3446527,-0.15720865,0.6782329,0.7020426,1.784087,0.2026216,0.28363305,0.09765993,-0.31576958,-0.31396368,0.8439957,-0.29095492,-0.8849765,-0.022603042,-0.013083888,0.3285131,-0.251192,0.09609574,0.26359951,-0.10453503,-0.550254,-0.33955848,-0.13630931,0.19210508,0.7062639,-0.75657773,1.4082484,-0.072880894,-0.3217513,-0.12804988,0.10389297,0.21555337,0.035322014,-0.3521418,-0.28981447,0.5417,0.16218933,-0.47764605,-0.85317826,-0.027323388,-0.72626805,-0.034130607,0.016061299,-0.057972822,0.4372363,-1.036991,0.0024488494,-0.08213942,-0.22102703,0.3942335,0.13458468,0.3669997,-0.14607973,0.009373259,-0.10265264,-0.20199612,1.2948942,-1.5131228,0.11710008,1.1514714,0.26136363,0.048805602,-2.1573477,0.89841825,-0.22624901,-0.2280352,-0.1320304,1.408611,-1.3948538,-0.12325622,0.5468551,-0.38079268,0.68504095,0.151503,-1.5529997,-0.20298983,-0.45389205,0.49531555,-0.040933058,1.5242081,0.044345662,-0.5996418,1.3425405,0.081012785,-0.5739639,-0.7785339,-0.15276864,-0.22215027,-0.39154002,2.6948874,0.2648573,-0.26393518,-0.48191375,0.0051581115,0.3833899,0.11966962,-0.28462154,2.0033898,0.8611256,-0.7003376,-0.8734292,-0.22012375,0.24652082,-0.1577497,0.33232903,0.1507349,-0.116397746,-0.18471558,0.40602314,-0.34413108,-0.21903284,0.37918872,-0.0566802,-0.30296928,-1.3585908,-0.087418616,-0.26352787,0.38660884,-0.25049818,-2.6795917,0.49993283,-0.17559116,1.6436801,0.4053423,-0.23083119,-0.49478132,0.11103159,0.20915261,-0.06237524,0.101566136,-0.42718527,-0.16883549,-1.1918199,-0.21755579,0.19427346,-0.18700847,0.18605514,0.47277853,0.29721397,0.5105046,-0.3823554,-0.14586715,0.11641205,0.42249203,-0.55550766,2.2667546,-0.083043784,0.12758605,-0.14392231,0.34589952,0.34927386,-0.039751686,-0.4506871,0.46852398,-0.06521035,0.39282173,0.85387284,-0.23222542,-0.21492581,0.1786532,-0.017568037,-0.19713171,-0.19541454,-0.5046778,0.02940706,0.6650551,0.5854989,0.09895295,-0.15724418,-0.26963666,-0.16930985,-0.42382607,0.8312862,0.128769,0.28094998,-0.13522439,0.11338523,0.09909318,-1.0775311,0.24977867,0.5920502,2.150526,-0.16969611,0.010139853,-0.11937113,0.13070756,-0.06455819,-0.17218435,0.6845274,0.12316261,-0.01472226,0.24440633,0.17721176,0.42808232,0.09932394,-0.31539345,-0.17184666,-0.29681587,0.12503198,-1.804737,0.28959638,-0.2165618,-0.355721,0.2006895,-1.1621387,0.6917311,-0.18637048,-0.40179718,0.09506596,0.006041348,-0.04298766,1.5780877,0.43186286,2.1080794,0.117762856,0.060781848,0.54919994,-1.2049811,0.4774613,-0.6881615,0.41005218,0.3566881,-0.21106732,-0.6930633,0.06467417,0.37882143,0.2564932,0.2038315,-0.3606131,0.3210085,-0.72799736,0.8931253,0.032768153,0.89995664,0.6158887,0.17693327,0.63166493,1.6289632,0.1236748,-0.17857054,-0.015037171,1.8408605,-0.005651381,-0.2545355,0.042416178,-0.0136188995,0.88821507,0.47397026,-0.09127168,0.12272201,-0.3644397,-0.24689826,0.07792941,1.6701664,0.07419106,0.16363247,-0.017025497,0.49259186,2.0281303,-0.058610585,-1.2641103,-0.73253965,0.5495535,-0.44544154,0.07919907,0.028935483,0.11150286,-0.26175532,0.9231018,0.030146757,0.2225246,-0.6428104,0.067571536,-0.28610218,0.29202393,0.09306246,1.4246446,-0.13725276,0.544926,-0.16350147,-0.011071127,-1.9482317,-0.10261291,-0.25077957,-0.2853036,0.07483947,-0.3450304,-0.13467956,0.23381945,-0.09715565,0.31466997,0.14741014,-0.4449352,0.7005898,-0.2839246,0.21616392,0.37438503,-0.1284712,-0.2434397,-0.0927013,0.19013388,0.17538886,-0.0671396,-0.087557256,-2.2034936,-0.06086153,-0.012052763,0.46269423,-0.055188797,0.33270293,1.0823398,-0.15506287,-0.2591524,0.89515376,-0.30951273,2.0414238,-0.13650599,-0.6676096,0.043050267,0.30522138,-0.52283055,0.824739,13.001425,-0.03401521,1.5286244,0.76129687,0.17836499,0.070949376,-1.5431874,0.072113685,-0.013152242,0.050835434,0.11862302,0.0060217585,0.08303973,0.3743991,0.40976927,-0.116164126,-0.20941998,0.45281,-0.2624126,0.094277084,-0.34235385,-0.041132007,0.7502161,-0.6386165,-0.2220954,-0.28407586,-0.14199248,0.055934545,-0.3619495,0.35591623,0.19628286,0.27817887,-0.17561555,-0.15086445,-0.07735069,1.6700107,0.036529362,-0.37934816,0.3439638,-2.003878,0.23159544,-1.2954936,0.22669668,0.28906563,0.45595074,0.2899795,-0.715603,0.18965623,0.3905136,0.09167012,-0.12568003,0.7067896,0.15223065,0.20904721,0.1866337,-0.29530102,-1.155768,-0.060857803,-1.041509,0.29444855,-0.18164578,0.2209248,-0.025813544,-2.0282798,-0.30291098,0.3198842,0.051684275,0.30880895,-0.2433523,0.07982007,2.1202908,1.4451554,0.14180243,-0.21847732,-0.9305274,-0.12460808,-0.15381342,-0.37390643,0.173206,-0.23958525,0.14013088,-0.056904096,0.10501598,-0.35839808,-0.07891502,0.13274172,0.7288124,0.49373412,1.2673167,0.23473877,0.15315522,0.463924,-1.3950412,-0.1088544,0.42785108,0.23496234,-1.7311299,-0.18148059,-0.05790566,0.4894563,0.10272544,-0.49683654,0.23333654,0.4403632,-0.7127628,-1.2172449,0.53847855,-0.024262343,0.314866,0.023065692,-0.4479291,-0.2929477,0.6626942,-0.15654035,2.0537262,-0.15072316,-0.17683172,0.092418075,0.76606035,-0.013721382,0.06372591,1.5116549,-0.21374924,-0.41271904,-0.24852937,0.3448915,0.2691788,0.45625055,0.54295003,0.6432315,-0.16085082,-0.0096638575,0.110451,2.1006274,0.18626645,-0.024061041,-1.1570964,-0.18129274,-0.22666857,-0.6979325,0.15633516,-0.2698517,0.2028472,-0.4950667,-1.4510388,0.23334314,0.35110152,-0.052988574,0.114539355,0.1414212,-0.08362076,0.14966029,0.5985222,0.055283424,-0.052584764,-0.11358625,-0.30088663,1.401414,0.64957505,-0.8861165,0.6084683,-1.6700801,0.8407826,-0.32941982,-0.0726854,-0.15476024,0.14457427,-0.08366397,0.22325164,-0.6443028,0.23955251,-0.09074636,-0.4310848,1.2105349,-0.08331248,0.004658997,0.7125182,-0.13464604,-0.63596904,0.50527954
