com.rafsan.inventory.controller.admin.AdminController;0;-0.18025655,-0.03189673,-0.047830638,0.3383001,0.24483359,-0.24694538,0.35104463,0.06182353,0.22963642,-0.5183841,0.1275279,0.28151605,-0.17021751,-0.035404503,0.6492171,0.023777237,-0.3171248,-0.13526069,0.14284594,-0.48701498,-0.1380906,-0.0986009,0.3055443,0.09993744,0.14444306,0.018335648,0.47036305,0.6344771,0.12703265,1.0175141,-0.12516399,-0.124792464,2.2216542,-0.06629623,0.18948968,0.02985686,-0.057848316,-0.11926784,0.33117932,0.08257543,-0.22710602,-0.15958337,-1.3240588,-0.050172646,0.3004286,-0.11177889,0.07347544,0.6432486,0.22438198,0.28474066,-0.08061849,-0.17665972,-0.81701374,-0.080489896,-0.08694317,0.56649303,-0.9537304,0.27946052,0.08969916,-0.20451768,-0.41697618,-0.12814349,0.16562954,-0.1717705,1.7727594,-0.1971214,0.84136313,1.6415219,0.34793654,-0.328354,-0.17916574,0.4329898,0.1540245,-1.1154811,-0.69861746,-0.24037103,-0.21163887,-1.4313931,-0.7663288,0.16179694,0.38557038,0.09668833,-0.2677082,0.2479657,0.18571706,-0.64211744,0.060793415,0.059023738,-0.95392513,0.41387427,0.2663291,-0.121236734,1.259263,0.12318143,0.45078957,0.43521515,0.06224896,-1.3208125,-0.31367126,-0.30151573,0.32515606,-0.8512866,-0.54695964,-0.85224646,0.31273848,-0.035345837,0.534134,-0.18350674,-0.11444975,-0.16588439,0.23504268,0.3216999,0.112865575,-0.1741482,-0.08846486,-0.018662868,0.17954569,0.25552568,0.063939996,0.33830976,-1.4807752,-0.012335326,-0.4149439,0.8802724,0.11755747,-0.030249998,-0.032906298,-0.33354986,0.44357538,0.07816198,-1.7437682,-0.76707745,-0.20915574,0.021035032,0.4075885,-0.10490111,-0.38241366,-0.14150335,-0.29440093,0.20677894,-0.7363151,-0.26692367,0.200575,0.30498576,0.19109301,-0.050844222,0.26572323,0.027092926,0.33389902,-0.2962469,-0.94250256,-0.39621195,1.667263,-0.4687258,-0.36088458,-1.2749239,0.52686316,-0.6454565,-0.38845205,-0.95900863,0.42482045,-0.14229392,0.21937513,0.7312874,0.31217852,0.63457537,0.14437571,-0.5932261,-0.22652185,0.45810878,-0.20774354,-0.42870137,-0.8931754,0.45344985,0.02184021,0.5152066,-0.08230707,0.2865459,0.1386792,2.1767628,-0.040520232,0.17312093,0.22240233,-0.05997628,-0.19192058,0.20076902,-0.49192655,-0.053851526,0.17940575,0.038147554,-0.05661808,0.040605653,-0.00045409575,-0.0336678,-0.058776736,-0.12002542,0.17512102,0.13697846,1.5878844,-0.22331941,-0.0873796,0.047436398,-0.23089574,-0.24584448,-0.27456316,0.54003334,-0.16953051,0.32304057,0.5637197,1.3463851,2.2326915,0.34006992,0.2935084,-0.27055374,-1.4290805,0.18010513,-0.07121264,-0.17220692,-0.18740761,-0.4539186,-1.4841661,0.19306517,-0.11338314,-0.52836776,0.10466113,0.57457274,-0.005030762,0.23166256,-0.0066170692,-0.019393077,0.08334416,0.017959693,0.10772681,0.43476972,-0.81321025,-0.031048624,-0.037508808,-0.15430938,-0.34323606,-1.4524136,-0.1743447,-0.12446574,0.123339415,0.5448684,0.4943892,-0.7631025,-0.2503526,0.11143666,-0.24775471,0.2603249,-0.1580998,-0.51370573,0.0129371835,0.24553764,-0.41000912,-0.1833803,0.11049252,0.34681132,-0.05774614,2.728753,0.049224567,0.5867834,0.05756815,-0.6671841,0.014273175,-1.2513672,-0.255053,-0.14610311,0.77216744,0.5850651,1.8654402,0.1489168,0.28494403,0.04658105,-0.25399306,-0.30574065,0.75130635,-0.22309284,-0.90539104,-0.033016797,0.07058697,0.3709396,-0.19085844,0.10256386,0.2743755,-0.053713918,-0.5954918,-0.34953806,-0.1294099,0.23395342,0.795513,-0.7760157,1.4562835,-0.180346,-0.24837624,-0.105061054,0.18432836,0.40294066,0.092910714,-0.2802031,-0.20461266,0.5821888,0.1439582,-0.46307978,-0.7043598,-0.0752981,-0.6710792,-0.18112461,0.03792179,-0.109146364,0.40131143,-1.0676266,0.03997088,-0.15132566,-0.33667043,0.5326635,0.08992965,0.35174513,-0.19102843,-0.009551198,-0.16241367,-0.033983614,1.2729844,-1.5051517,0.11024972,1.1760172,0.07466053,0.020040154,-2.1550293,0.86628085,-0.2706672,-0.21586867,-0.21212809,1.4873576,-1.313169,-0.089502394,0.48146734,-0.3545331,0.7053097,0.16317911,-1.5798563,-0.124305315,-0.48806557,0.545318,0.02527164,1.592638,0.06870373,-0.6568719,1.3004974,0.0006621157,-0.64740074,-0.7344261,-0.1761405,-0.24990289,-0.33582768,2.6649885,0.3222424,-0.21969007,-0.6141513,0.13624503,0.40044078,0.04390302,-0.313337,1.9251937,0.8339936,-0.56421274,-0.9298969,-0.22985232,0.2007338,-0.07939731,0.39801776,0.21615021,-0.048167557,-0.22778557,0.41753247,-0.2875087,-0.19280457,0.30301985,-0.10801226,-0.26700652,-1.4403788,-0.123713695,-0.21323837,0.31328526,-0.13380933,-2.7533524,0.5370022,-0.1154151,1.6881465,0.35097626,-0.2777529,-0.38688818,0.04413716,0.28376365,-0.06565016,0.11373337,-0.435863,-0.32173678,-1.1431408,-0.20974363,0.20170103,-0.25738648,0.18148167,0.5086114,0.33978716,0.45022497,-0.4695929,-0.10004822,0.07422001,0.45460138,-0.47833166,2.2404282,-0.0772777,0.06795344,-0.16827835,0.34527898,0.344898,-0.0045373803,-0.2657825,0.38269854,-0.0013679216,0.5112602,0.86545324,-0.14371236,-0.11569891,0.21591632,0.028415585,-0.20839,-0.2559773,-0.57723737,0.0989846,0.61825794,0.51620746,0.13546558,-0.14096831,-0.2697734,-0.28031424,-0.3980385,0.72213835,0.1316586,0.2556854,-0.06585387,0.20416678,0.2225736,-0.9787247,0.2459621,0.49870646,2.2056677,-0.052907452,-0.10487453,-0.07287295,0.065276824,-0.012825116,-0.304238,0.74469304,0.03349698,0.023907967,0.22935581,0.11293004,0.49082896,0.10834118,-0.31818074,-0.16365565,-0.30435923,0.10269687,-1.7519015,0.19905208,-0.10296333,-0.2994356,0.14500113,-1.1817912,0.64279133,-0.16214687,-0.40493858,0.0005530889,-0.032756243,-0.0541516,1.6034061,0.45134673,2.071323,0.16866203,-0.011099529,0.41109908,-1.1992873,0.56336606,-0.7060992,0.39640284,0.31280425,-0.18509907,-0.7842099,-0.067565076,0.3428206,0.224271,0.24861352,-0.35137987,0.24677558,-0.6801877,0.85287696,-0.101227224,0.9165668,0.6173071,0.19730966,0.6236028,1.5610642,0.02116154,-0.17156501,0.07968197,1.8895448,-0.075236864,-0.37063757,0.03987379,-0.020843461,0.8927848,0.4400228,-0.121338,0.11629295,-0.28477436,-0.26796213,-0.016801247,1.8110911,0.1770073,0.14862147,-0.10280504,0.5162874,1.9762135,0.022368914,-1.1841758,-0.76917744,0.49475828,-0.38187754,0.04401641,-0.021293513,0.006422225,-0.32716388,0.97579366,0.019412456,0.25398383,-0.54471856,-0.09174921,-0.21218018,0.22914582,-0.05260487,1.2168382,-0.129191,0.51210743,-0.21833913,-0.06785759,-2.027933,-0.13107872,-0.32387796,-0.2811211,0.16170393,-0.28512922,-0.22403137,0.20097716,-0.12017427,0.30251828,0.016247088,-0.4179264,0.67876023,-0.26296207,0.33157885,0.42626825,-0.13592653,-0.17222226,-0.031827863,0.27852267,0.14809902,-0.036335394,-0.12006552,-2.1400578,-0.09476685,0.1285875,0.37313583,-0.13609731,0.28132632,1.1770843,-0.061763838,-0.30806106,0.95474607,-0.16488864,2.0402873,-0.13613763,-0.71808857,0.048681322,0.29139677,-0.3621086,0.91499025,12.89121,-0.124807484,1.553892,0.74922055,0.35462117,0.062332243,-1.5105454,0.16196041,-0.0507783,-0.09573343,0.11231335,-0.018371062,0.043144256,0.46121332,0.4235386,-0.12342224,-0.23828189,0.3765311,-0.3975714,0.115776055,-0.21717717,-0.10307446,0.73392534,-0.62820345,-0.22104086,-0.33083734,-0.19682126,0.12211695,-0.3036503,0.422549,0.14889668,0.4199474,-0.08178831,-0.23035772,-0.238613,1.625781,0.0027863614,-0.402122,0.1749088,-1.9981956,0.20306109,-1.3961848,0.461068,0.28637004,0.40804362,0.28478712,-0.69665337,0.19555444,0.40082052,-0.027706383,-0.070404984,0.607634,0.18170016,0.27289796,0.23557882,-0.18820985,-1.1371595,-0.1336125,-1.0236739,0.18286271,-0.09906793,0.24125952,-0.111394644,-2.0743005,-0.39504135,0.35866937,-0.03422702,0.34675848,-0.3202274,0.14596038,2.150294,1.5807228,0.19152461,-0.14053486,-0.94874877,-0.19606175,-0.30480766,-0.38736,0.25352615,-0.24299681,0.20014091,0.08890749,0.11110964,-0.2511324,-0.075990506,0.1344154,0.78558034,0.47430184,1.305678,0.22745311,0.12921825,0.3730342,-1.4152027,-0.025269931,0.34408864,0.17890573,-1.6731925,-0.20593198,-0.0881846,0.44626772,0.02871351,-0.5158226,0.1885641,0.43168536,-0.6657984,-1.2320559,0.6502561,-0.17171532,0.3995391,0.03680202,-0.4517672,-0.3869568,0.7379463,-0.090072684,2.0794015,-0.2547749,-0.14749621,0.091783606,0.7773278,0.0018119421,0.10293219,1.4548544,-0.26611537,-0.3483336,-0.194018,0.3005953,0.38574842,0.48521313,0.6028314,0.6288035,-0.013731374,-0.0047193295,0.2090779,2.1579976,0.12109121,-0.095587276,-1.1721686,-0.08079604,-0.15361004,-0.707542,0.16032368,-0.2555826,0.21081354,-0.4120873,-1.4276911,0.2262985,0.39126265,-0.1231428,-0.07859328,0.14896563,0.0068014837,0.064622164,0.50998926,0.04727474,-0.050052267,-0.030394875,-0.31397867,1.3365916,0.6655397,-0.98127526,0.667901,-1.8444027,0.81812865,-0.3047959,-0.09408187,-0.119711794,0.20115,-0.08086606,0.30162138,-0.7158448,0.16612886,-0.035700753,-0.37803507,1.1406304,0.012008674,-0.039241727,0.8251894,-0.14247401,-0.59984833,0.55347806
com.rafsan.inventory.controller.category.AddController;0;-0.15633804,-0.006717647,0.017755361,0.3644662,0.29466084,-0.27386835,0.36539054,0.071466714,0.28907835,-0.51923066,0.08678844,0.2541943,-0.20228612,-0.010437121,0.6202152,-0.06370727,-0.31348515,-0.11469364,0.0058921664,-0.40136096,-0.17950921,-0.1411761,0.27159783,0.14492391,0.20514067,0.018305594,0.42016473,0.5797164,0.17735888,0.9943593,-0.15223691,-0.100496165,2.1649725,-0.12931435,0.17656942,0.0058458843,-0.052381456,-0.07781295,0.31075707,0.09007338,-0.3115274,-0.20066004,-1.2824558,-0.003629354,0.2644242,-0.1103563,0.10456661,0.5721434,0.1887374,0.28575784,-0.047070235,-0.17728527,-0.81824666,-0.100041814,-0.048259933,0.56373465,-0.9217649,0.2644918,0.079048134,-0.20999582,-0.4304254,-0.15297721,0.11848203,-0.15107696,1.708088,-0.15814394,0.76634294,1.5067735,0.28699356,-0.3495071,-0.13560493,0.38606906,0.15904427,-1.0734268,-0.67731786,-0.18479234,-0.1836902,-1.2965021,-0.7059703,0.21186298,0.44527507,0.08716851,-0.10499948,0.25237456,0.09818175,-0.5392569,-0.027934194,0.023290247,-0.88935757,0.38428345,0.27216938,-0.15015902,1.1332635,0.067616194,0.4192988,0.47123036,0.01304129,-1.2430209,-0.32408056,-0.23423402,0.25988877,-0.82019025,-0.5120224,-0.73916143,0.3015222,-0.08342632,0.50285554,-0.16001178,-0.14798523,-0.15223776,0.22244035,0.37506744,0.0742561,-0.15332742,-0.09026665,0.06114638,0.15796587,0.16803806,0.022111265,0.29427016,-1.4603481,-0.03401914,-0.383466,0.84137154,0.12235415,0.0026025448,-0.10024828,-0.3134411,0.41729715,0.09639802,-1.6134071,-0.767782,-0.19675486,0.08005875,0.4698956,-0.08274406,-0.38061967,-0.0359331,-0.28014815,0.2292028,-0.7453315,-0.2761398,0.23237449,0.21442385,0.22227842,-0.009147729,0.23643422,0.01416636,0.2642843,-0.3085654,-0.9018185,-0.3983215,1.5989178,-0.40137097,-0.29369316,-1.1844319,0.5579391,-0.530512,-0.35241535,-0.9614021,0.3764595,-0.14284922,0.2539545,0.74679357,0.25470048,0.6462284,0.117922306,-0.5917224,-0.17734022,0.42516935,-0.20053144,-0.42042112,-0.8379237,0.457921,-0.007301215,0.45956838,-0.13409509,0.24680187,0.12391556,2.0403728,-0.035696384,0.09451547,0.19352269,-0.039628793,-0.18622887,0.14201649,-0.45276114,-0.08109678,0.16041102,-0.015646147,-0.05131052,0.03939121,-0.017058445,-0.09306207,-0.02731389,-0.075221874,0.13453694,0.12640508,1.4928957,-0.22472811,-0.094088435,0.064307846,-0.21347606,-0.25673297,-0.22064221,0.5669351,-0.22143759,0.3152015,0.53480655,1.3020929,2.180783,0.31452525,0.2106412,-0.24440117,-1.350253,0.13507639,-0.08682857,-0.08527089,-0.21762677,-0.3669083,-1.4806501,0.22901523,-0.095348924,-0.60907245,0.0856524,0.5163997,0.02377277,0.2292064,-0.00554655,-0.053825002,0.15915753,-0.045341432,0.06468128,0.3248364,-0.74916077,-0.018736765,-0.07316903,-0.15859793,-0.31073532,-1.4574839,-0.11285909,-0.094752006,0.18917064,0.5386192,0.43671775,-0.683029,-0.19886513,0.07150034,-0.20395017,0.27883932,-0.1454357,-0.45312488,-0.026919084,0.17152639,-0.42466974,-0.2298565,0.15445243,0.30247855,-0.026119247,2.6771746,0.032002296,0.5522258,0.05315551,-0.66631764,-0.020922037,-1.241734,-0.1833634,-0.1552878,0.75731236,0.63340807,1.7938814,0.080708236,0.32136777,0.07751988,-0.27885765,-0.2911636,0.7152631,-0.22262849,-0.8852463,-0.058166653,-0.021273518,0.33168083,-0.17325969,0.096200675,0.27410504,-0.08618202,-0.5803919,-0.32140493,-0.06418089,0.18806554,0.7341073,-0.7211404,1.431265,-0.1469596,-0.2784792,-0.06873212,0.1554136,0.34547815,0.083303586,-0.29925966,-0.26399928,0.55456656,0.07887329,-0.48438278,-0.6621962,-0.14110489,-0.67951727,-0.1569383,0.1008169,-0.09684474,0.44149438,-1.0240672,-0.014499605,-0.14497386,-0.33553123,0.5467865,0.08692476,0.24979103,-0.21330355,0.0035407443,-0.12693375,-0.080082856,1.2663811,-1.4863577,0.16219823,1.1210729,0.12340936,0.020959834,-2.0667188,0.9161865,-0.36931455,-0.24965572,-0.23521726,1.2990851,-1.2952375,-0.16765445,0.46291447,-0.33454943,0.68909097,0.18071233,-1.6002835,-0.15245073,-0.4869984,0.5538551,0.051100627,1.5878601,0.045018177,-0.63597226,1.1954213,0.013774931,-0.6416198,-0.67485976,-0.19178216,-0.25972256,-0.33084399,2.597659,0.29169467,-0.23772144,-0.56563383,0.049067486,0.31669077,0.05263765,-0.2880747,1.8751119,0.811244,-0.5423338,-0.8892708,-0.243795,0.17420606,-0.121909775,0.39090908,0.1625522,-0.098065734,-0.20624574,0.3486825,-0.32370898,-0.18887204,0.2426431,-0.14952147,-0.25623187,-1.4282843,-0.12108457,-0.1823628,0.2949607,-0.15959986,-2.7322013,0.5354142,-0.15023978,1.6013455,0.32065907,-0.26464924,-0.4014475,0.01761032,0.23254669,-0.06280909,0.10186634,-0.36199585,-0.34608993,-1.2147228,-0.20188133,0.18054514,-0.24969874,0.14303221,0.47611332,0.33644894,0.49661908,-0.5206163,-0.1542934,0.031800028,0.4907228,-0.5019776,2.134019,-0.056041706,0.13756375,-0.13250996,0.31999266,0.33023626,-0.04397333,-0.30849475,0.37115076,-0.01643252,0.48861527,0.8006098,-0.15578811,-0.10919603,0.17460836,0.0016788766,-0.20018266,-0.18846834,-0.5252753,0.07833701,0.61359715,0.4192227,0.106661715,-0.15695858,-0.24660487,-0.24621515,-0.40470782,0.785407,0.13563447,0.2302407,-0.09471711,0.17162026,0.2008375,-0.91773033,0.26437643,0.40788516,2.0977938,-0.010580928,-0.068967395,-0.08919557,0.09521549,-0.029190637,-0.22837542,0.7333665,0.044099286,0.031984825,0.21909435,0.18201716,0.42769694,0.07547655,-0.26860234,-0.08876231,-0.31344548,0.10885,-1.7308254,0.2889696,-0.15559874,-0.3258724,0.19134443,-1.1284987,0.668288,-0.1519413,-0.4386728,-0.053705815,-0.027554482,-0.032728072,1.5546613,0.40891793,2.0672233,0.12611471,-0.04651325,0.41628566,-1.1203159,0.5014242,-0.6973503,0.4501042,0.28041044,-0.15327698,-0.7962664,-0.039776783,0.3181784,0.24309999,0.22191787,-0.2906532,0.28200725,-0.64566725,0.86382455,0.037372958,0.9042631,0.62685627,0.13867348,0.5999799,1.5347925,0.05110218,-0.15790617,0.044286232,1.7692224,-0.0831107,-0.32358903,0.057756603,0.012774033,0.92617965,0.4311441,-0.086646415,0.09962028,-0.30591345,-0.2610788,0.020233084,1.7121376,0.17297854,0.10973155,-0.10841664,0.4918032,1.9279484,-0.0056187045,-1.1584297,-0.76972467,0.5655322,-0.4026711,0.08984461,-0.023823569,0.0598733,-0.28587624,0.90699047,0.0046940497,0.27866665,-0.4892224,-0.12717728,-0.18533973,0.18621163,-0.14367722,1.2902569,-0.08809773,0.48285055,-0.2164228,-0.03722428,-1.9226136,-0.02000467,-0.27766433,-0.29423478,0.052790273,-0.24425097,-0.14870612,0.21932916,-0.1555068,0.33345425,0.00559197,-0.39969823,0.6801843,-0.27712524,0.35453522,0.4762126,-0.13251834,-0.17032951,0.009543973,0.2778458,0.08765775,-0.03675226,-0.10204396,-2.0157614,-0.106884144,0.06362852,0.29544467,-0.100121535,0.27787706,1.2041869,-0.09268165,-0.29737607,0.8902138,-0.11433407,1.9561186,-0.097364604,-0.70368665,0.0624671,0.3551375,-0.34886464,0.8772774,13.523387,-0.1376099,1.5726606,0.7262495,0.30320406,-0.029958943,-1.4641696,0.12867303,-0.04408209,-0.034704477,0.14688317,-0.0017921316,0.005385456,0.39146373,0.4733356,-0.18816024,-0.2153707,0.30993745,-0.3309829,0.118967034,-0.24447101,-0.08799382,0.699797,-0.6671812,-0.1988359,-0.3650725,-0.16858025,0.10808632,-0.25249672,0.3696508,0.11936027,0.27423537,-0.019688966,-0.25995767,-0.18353653,1.5498453,0.045500766,-0.38516665,0.18945153,-1.9268255,0.17108728,-1.3307548,0.43375576,0.25744107,0.42266664,0.31517154,-0.6328595,0.23271449,0.37600353,-0.049873516,-0.056011647,0.72047037,0.19097109,0.28236717,0.21162222,-0.20711048,-1.0701212,-0.07872474,-1.0287727,0.22232765,-0.11530172,0.26933345,-0.10279483,-2.0214956,-0.35548648,0.38675222,-0.019156372,0.33936536,-0.3542213,0.09322395,2.0853999,1.491587,0.14470115,-0.20026022,-0.75306636,-0.117213696,-0.24063654,-0.4416008,0.18490289,-0.25790024,0.18572074,0.089309074,0.15324269,-0.2962957,-0.21185355,0.19972861,0.77937716,0.48608065,1.3170458,0.18563737,0.15302993,0.4232358,-1.3888965,-0.07966622,0.33125198,0.18073468,-1.569672,-0.2075584,-0.058223587,0.40643927,0.063219585,-0.5148395,0.15696608,0.4226539,-0.6338022,-1.1760081,0.6225353,-0.13536392,0.33548173,0.061190713,-0.4037144,-0.3641003,0.67619276,-0.11349604,2.0774436,-0.19281404,-0.12412384,0.07027774,0.7754914,0.011405806,0.05890352,1.3818539,-0.27255547,-0.37106407,-0.17710702,0.24415173,0.38823903,0.47186086,0.5336601,0.5665209,-0.10098673,-0.034322925,0.24020298,2.1215763,0.163926,-0.09950269,-1.1215783,-0.10619873,-0.11962343,-0.7204817,0.105548896,-0.19915597,0.24132462,-0.4137634,-1.3733667,0.26610655,0.4735982,-0.09305035,-0.043444883,0.1605879,-0.0030982841,0.041904833,0.44900855,0.012858889,-0.08035758,0.024704387,-0.2686763,1.3251108,0.6217429,-0.94356817,0.6550207,-1.7355257,0.77377677,-0.22408418,0.013046111,-0.042395335,0.23146124,0.038326688,0.26515615,-0.6421447,0.19447303,-0.098106764,-0.42027378,1.1316043,0.04180965,-0.0711539,0.7968044,-0.14173247,-0.58837223,0.5623295
com.rafsan.inventory.controller.category.CategoryController;0;-0.15497054,-0.061348222,-0.07136,0.40137538,0.24654178,-0.25317398,0.34816474,0.08092399,0.18589972,-0.5415838,0.12956916,0.2653676,-0.1634326,-0.035426207,0.6617969,-0.031525448,-0.35646167,-0.14885104,0.13332474,-0.48248297,-0.12533343,-0.07772685,0.23840456,0.10374229,0.11588383,-0.0110548455,0.4633125,0.6361153,0.15927012,1.0518113,-0.11001324,-0.110948935,2.2703154,-0.06477465,0.1511671,0.0048486767,-0.045643315,-0.1382021,0.33588564,0.088198885,-0.22396298,-0.19445945,-1.3379812,-0.0632018,0.3073849,-0.09534286,0.055540115,0.610644,0.27509886,0.28015664,-0.090042844,-0.2139625,-0.8288681,-0.10351122,-0.07601141,0.5421043,-0.9349974,0.31289655,0.112965375,-0.18737413,-0.42952794,-0.12222783,0.16716921,-0.15361127,1.7711656,-0.18166573,0.84813154,1.6434655,0.34847954,-0.3619824,-0.16497777,0.4679646,0.19957751,-1.1263335,-0.7056405,-0.2684476,-0.20720972,-1.5674341,-0.7674388,0.14829393,0.37707552,0.09384848,-0.35808313,0.24460283,0.17734203,-0.6807981,0.061687864,0.047139823,-0.9718487,0.40582427,0.25386375,-0.14644587,1.2926831,0.10296564,0.4450735,0.41498417,0.05107852,-1.3578913,-0.3485079,-0.3045797,0.35479257,-0.8436325,-0.58420974,-0.8952687,0.3239714,-0.027942372,0.52095294,-0.14961836,-0.12556697,-0.14376508,0.24321288,0.3788435,0.13699998,-0.19458377,-0.12670955,0.031568002,0.1437432,0.25058785,0.08611284,0.3593963,-1.5480845,-0.056399126,-0.39697236,0.8940338,0.0914701,-0.018188287,0.040755216,-0.33148754,0.4842847,0.07480433,-1.7431464,-0.7423853,-0.2006306,0.034029733,0.4040381,-0.06980021,-0.37404072,-0.1260353,-0.26718348,0.21474254,-0.7367738,-0.27021447,0.20283127,0.31466222,0.14619134,-0.038819794,0.28629038,0.028916068,0.32545412,-0.28961375,-0.97622114,-0.41319132,1.6824081,-0.46299735,-0.35809037,-1.3259019,0.57509637,-0.6312534,-0.3997725,-1.0211751,0.43543753,-0.10691676,0.22668335,0.7151774,0.2916677,0.65011436,0.14064766,-0.62094283,-0.2762787,0.4709893,-0.20611192,-0.425326,-0.8933711,0.47694498,-0.017197859,0.55327135,-0.07620191,0.27652496,0.14121383,2.205403,-0.027086632,0.19128872,0.23637527,0.0001995163,-0.19891633,0.19503637,-0.51772493,-0.07295106,0.17548797,0.033114508,-0.0219211,0.04533384,-0.019569593,-0.038811382,-0.071781516,-0.15465482,0.16175926,0.11541023,1.6026505,-0.25606832,-0.09351912,0.0075951368,-0.2309241,-0.28114873,-0.27477795,0.551364,-0.16766252,0.30475268,0.5546175,1.3692487,2.2557228,0.35541135,0.3068565,-0.25642198,-1.4487581,0.17253432,-0.08750124,-0.1431714,-0.17781381,-0.4557463,-1.4963135,0.19565639,-0.086777054,-0.5292287,0.14708006,0.587803,-0.036025845,0.24842826,0.020668529,-0.04444274,0.10348102,0.03511193,0.11695798,0.43120694,-0.852846,-0.028490106,0.008360993,-0.17741308,-0.32936937,-1.4876996,-0.20199828,-0.13804945,0.10085598,0.51495755,0.5536638,-0.7857986,-0.25113875,0.09870327,-0.22290947,0.26521122,-0.16058768,-0.5153086,-0.016084207,0.28723273,-0.42563102,-0.1853926,0.119904675,0.39606637,-0.06752475,2.7563896,0.0379065,0.60568887,0.09180525,-0.7119265,-0.022892047,-1.2779541,-0.2700688,-0.19546172,0.7844615,0.58874124,1.904268,0.12071239,0.30149165,0.039393518,-0.29520828,-0.3076556,0.75819826,-0.24123271,-0.9289238,-0.012748705,0.108686514,0.42757073,-0.206186,0.12729476,0.29505998,-0.022827536,-0.6318295,-0.37338644,-0.123456635,0.24917363,0.8333982,-0.7948442,1.4587893,-0.22224095,-0.2522514,-0.13773817,0.1814454,0.40000546,0.045086086,-0.26937237,-0.21950866,0.586794,0.15585421,-0.44500792,-0.73631686,-0.067041084,-0.7008053,-0.18496989,0.02298282,-0.0850077,0.40518907,-1.1013632,0.07691562,-0.15447934,-0.3199033,0.56691986,0.11964425,0.36434364,-0.1761193,-0.019472364,-0.17479816,-0.034545038,1.2768134,-1.5438392,0.09031555,1.1991279,0.09214407,0.043595225,-2.189503,0.90297425,-0.20292386,-0.26140195,-0.22952773,1.4789702,-1.376781,-0.09796956,0.47901386,-0.3417281,0.7518632,0.19283208,-1.5966357,-0.15547605,-0.5010004,0.56342196,0.020175826,1.6637545,0.06471417,-0.64820457,1.2877911,-0.014022443,-0.63980794,-0.76328105,-0.18499127,-0.2315215,-0.39182535,2.6999125,0.29306573,-0.2598695,-0.6423203,0.15094614,0.38260454,0.06220232,-0.35051924,1.9472067,0.8536703,-0.606287,-0.954172,-0.23537377,0.23885387,-0.1073358,0.45632514,0.21094055,-0.054201603,-0.2630208,0.44032556,-0.2691842,-0.2338834,0.31254774,-0.10600117,-0.29188713,-1.4719679,-0.14972061,-0.24608473,0.35934123,-0.15206376,-2.8102005,0.5485021,-0.11358427,1.7126918,0.36396775,-0.31897715,-0.43379226,0.033186026,0.32428762,-0.005138213,0.09254341,-0.47373712,-0.35626197,-1.1934413,-0.19692156,0.22948396,-0.27218184,0.1784301,0.5624503,0.36978242,0.47412568,-0.4296342,-0.1156124,0.07849908,0.4588532,-0.48837915,2.258388,-0.096834764,0.09230962,-0.17210348,0.35166234,0.36116493,0.022429576,-0.32378766,0.39298028,-0.005401103,0.49901348,0.8976615,-0.140452,-0.120824926,0.21678796,0.017187137,-0.1802187,-0.26321873,-0.5379706,0.12562971,0.6319049,0.5165891,0.13412917,-0.10035557,-0.27471292,-0.25211117,-0.38738212,0.741386,0.13660723,0.24602415,-0.072222084,0.20762211,0.19172072,-1.0132113,0.24240813,0.527331,2.2482862,-0.07687615,-0.12520418,-0.120461464,0.06709961,-0.0007245918,-0.3516381,0.7752015,0.066738136,0.0074311863,0.25494874,0.0801415,0.4685771,0.13769281,-0.33832112,-0.19939601,-0.30717212,0.08577196,-1.7514834,0.18652356,-0.099973366,-0.3278867,0.08309809,-1.2134365,0.6388465,-0.12638216,-0.3942701,0.022592906,-0.017244264,-0.05022856,1.6079879,0.44874874,2.1501243,0.20421703,-0.019457135,0.42254534,-1.2568055,0.57009786,-0.70315397,0.44345042,0.30441672,-0.14884317,-0.81866264,-0.05841712,0.35179326,0.24720144,0.19991004,-0.37183622,0.24527739,-0.7347495,0.87357324,-0.09662446,0.9638588,0.66614586,0.19210161,0.60108143,1.5887305,0.050962746,-0.18433139,0.073778994,1.8997725,-0.09195622,-0.34874755,0.037578493,0.015528221,0.95791006,0.42781597,-0.10693156,0.07721571,-0.26153576,-0.26026326,-0.019485608,1.8107554,0.18801033,0.16381863,-0.1004893,0.5347971,2.0235753,0.023890726,-1.1933861,-0.7688639,0.5233256,-0.38309205,0.08465454,-0.026479404,0.0025087167,-0.32200772,0.98493487,0.019808026,0.2877783,-0.56269425,-0.12838945,-0.21480136,0.22688185,-0.029469911,1.2287978,-0.13773642,0.51615095,-0.17792945,-0.0844271,-2.0470743,-0.09949121,-0.33522952,-0.31276786,0.28217697,-0.29814494,-0.2216416,0.19143637,-0.10653276,0.33281234,0.0011251429,-0.43386263,0.71017593,-0.2387184,0.3278225,0.45098028,-0.13894312,-0.19321875,-0.05797948,0.28133345,0.16094705,-0.05873527,-0.07164571,-2.214581,-0.099187694,0.060142312,0.38460344,-0.1514815,0.30270976,1.1805705,-0.070867755,-0.3428752,0.99576586,-0.14824821,2.071461,-0.17558143,-0.722918,0.054943834,0.27833444,-0.38444385,0.8868219,12.600396,-0.07356967,1.5977691,0.721619,0.36975497,0.061906017,-1.5184025,0.21210727,-0.020219276,-0.095149316,0.13175716,-0.0018741428,0.0061998568,0.453529,0.4539481,-0.113241024,-0.22022644,0.36265746,-0.42579246,0.10149101,-0.23318559,-0.15262155,0.7525917,-0.64822793,-0.24320318,-0.35366917,-0.24342684,0.07285233,-0.31296915,0.4493243,0.15550981,0.38528082,-0.0646836,-0.199179,-0.1987733,1.6419934,0.03233325,-0.42193803,0.1880172,-2.0241234,0.18700573,-1.4553887,0.44291472,0.29608014,0.43668726,0.3243195,-0.7065128,0.15067153,0.4398613,0.014075955,-0.069802426,0.62584776,0.2067067,0.31549805,0.24762198,-0.1730178,-1.1632705,-0.12853795,-1.0721562,0.17051968,-0.08398548,0.2274387,-0.14082035,-2.1151485,-0.40589088,0.3716399,-0.025304744,0.4102895,-0.32497144,0.16510667,2.1494339,1.608348,0.17551038,-0.120619334,-0.9526839,-0.19928126,-0.33524814,-0.34534606,0.24863327,-0.22200754,0.21873452,0.08016783,0.13404498,-0.24505948,-0.121255055,0.13091898,0.81590676,0.4491644,1.2760001,0.25319496,0.11305135,0.3652727,-1.4268398,-0.025054103,0.37517872,0.23757683,-1.6966269,-0.19918688,-0.09374705,0.45161882,0.012200575,-0.49682993,0.15013243,0.44375968,-0.6571485,-1.2874576,0.65660435,-0.115748286,0.4102175,-0.011236627,-0.47430813,-0.40717262,0.78469014,-0.0626879,2.1164675,-0.25489977,-0.16909328,0.12409307,0.8104315,-0.010001001,0.113524854,1.4910513,-0.2548428,-0.3448726,-0.23226987,0.29851967,0.39164305,0.508437,0.64966327,0.63807124,-0.0055747423,-0.022312995,0.17308694,2.1667483,0.11158839,-0.07317152,-1.2148834,-0.04998261,-0.20203108,-0.7385366,0.18122178,-0.23923339,0.23174268,-0.42608863,-1.4305948,0.25307792,0.36721742,-0.11068201,-0.057321254,0.19850974,0.015777726,0.021137761,0.50385535,0.007860185,-0.056143142,0.031657185,-0.2910966,1.3157929,0.6733043,-1.0051134,0.6974237,-1.8624437,0.84592754,-0.29379937,-0.0744249,-0.117035,0.18767771,-0.040333614,0.29525536,-0.74035734,0.17263767,-0.04844102,-0.3561667,1.190463,0.052687522,-0.068545945,0.84887564,-0.1319308,-0.5937279,0.52454895
com.rafsan.inventory.controller.category.EditController;0;-0.15932086,-0.032311395,0.0069556516,0.38910773,0.29900286,-0.25388148,0.33822596,0.07739124,0.25811478,-0.53470796,0.08550706,0.2808361,-0.1937658,-0.0025052086,0.6513112,-0.07176286,-0.33730534,-0.14866544,0.014580128,-0.43188658,-0.13961898,-0.12473592,0.22847123,0.13113631,0.17164987,0.03382604,0.42392066,0.58118254,0.18153147,0.9942575,-0.12284807,-0.091188334,2.1800408,-0.118227445,0.17338116,-0.0039674467,-0.055787686,-0.091169335,0.29816118,0.10280073,-0.27813956,-0.21387994,-1.3136188,-0.04328039,0.28204766,-0.12337455,0.10742464,0.5885545,0.237159,0.27686524,-0.07519678,-0.22492917,-0.8009171,-0.092218794,-0.041368175,0.5454007,-0.92977595,0.29459667,0.1285729,-0.18618102,-0.41452846,-0.1581813,0.12501346,-0.15918626,1.7609758,-0.1531697,0.82391405,1.5610257,0.28632534,-0.37549075,-0.14696279,0.39593795,0.20312881,-1.1173435,-0.69232184,-0.18851858,-0.1949503,-1.4191979,-0.7208559,0.20202945,0.40365505,0.108428754,-0.19820966,0.27324876,0.13649213,-0.5362565,-0.030053264,0.016895225,-0.93244094,0.37522855,0.26928756,-0.16264279,1.2027942,0.10258239,0.38877082,0.4562054,0.04589501,-1.2796433,-0.3310033,-0.26409885,0.26724043,-0.8092808,-0.54145133,-0.77298236,0.31561854,-0.041993406,0.50113314,-0.1793757,-0.16674441,-0.1835112,0.2252634,0.35433674,0.065007694,-0.14087807,-0.081320025,0.0344931,0.1867375,0.17848055,0.018976152,0.31947097,-1.475797,-0.02240864,-0.40481016,0.8758232,0.10710736,0.0135957105,-0.044790316,-0.32087258,0.47217444,0.077380605,-1.6340028,-0.7495988,-0.17360656,0.07400843,0.43628165,-0.08668745,-0.398479,-0.072620444,-0.29533264,0.20875514,-0.74351424,-0.2940551,0.22762235,0.24797557,0.18596643,-0.009032973,0.23801132,0.021830969,0.2926446,-0.31318498,-0.93299055,-0.41968164,1.6241761,-0.41741586,-0.32848796,-1.2300215,0.5545749,-0.5920303,-0.36327958,-0.9830098,0.382696,-0.14498203,0.26116377,0.7738001,0.29388925,0.6428132,0.13492475,-0.59352916,-0.21009283,0.440358,-0.18186271,-0.44815567,-0.8594168,0.4593883,-0.023326663,0.5019937,-0.096013166,0.27259448,0.13544129,2.12846,-0.06468454,0.105490424,0.1871029,-0.007014846,-0.18826719,0.17341316,-0.48495975,-0.07958522,0.15416235,-0.0069322116,-0.029025212,0.03946801,-0.015732944,-0.059767753,-0.040663425,-0.082950674,0.11884388,0.124421895,1.5575978,-0.25514415,-0.100388974,0.048828185,-0.21405333,-0.25969854,-0.24582964,0.5537419,-0.21174431,0.28809318,0.54622036,1.322064,2.2496004,0.34665358,0.220538,-0.25397897,-1.4151455,0.16510418,-0.07691891,-0.13308305,-0.19875765,-0.41644418,-1.4987197,0.22663336,-0.10841497,-0.5941066,0.11094675,0.55111164,0.012168604,0.25627443,-0.0075199925,-0.043907892,0.15599744,-0.023599962,0.072000705,0.33998907,-0.7605732,-0.016212927,-0.033552047,-0.16611107,-0.31867743,-1.5044233,-0.14118446,-0.1053471,0.16721082,0.53267306,0.48896894,-0.7261079,-0.20792691,0.07367123,-0.20373298,0.26994148,-0.13440715,-0.51089734,-0.011260904,0.2028386,-0.4055027,-0.24627042,0.15692462,0.3307455,-0.017669676,2.7271607,0.023885438,0.5786376,0.08456174,-0.672517,-0.025406212,-1.2496012,-0.19563691,-0.14064305,0.8130123,0.637132,1.8153983,0.090035416,0.31110898,0.04411694,-0.2682152,-0.3347942,0.72861904,-0.23220177,-0.90728706,-0.03142508,0.03764543,0.36769104,-0.18135877,0.1457016,0.30495894,-0.07280951,-0.5921019,-0.32858065,-0.077093124,0.20652454,0.74001265,-0.7391758,1.4775238,-0.15881784,-0.25388935,-0.09248119,0.17295985,0.35100412,0.040350776,-0.3018295,-0.28072384,0.586694,0.07749886,-0.47533083,-0.6872305,-0.12348032,-0.6878941,-0.12623645,0.03807315,-0.10523418,0.38465405,-1.0497228,0.02300659,-0.15073754,-0.32211968,0.56453496,0.09835607,0.2922323,-0.19000612,0.002321261,-0.13985942,-0.083529174,1.2926902,-1.53477,0.15080129,1.189701,0.112164915,0.057702642,-2.146454,0.90309197,-0.3278935,-0.27233183,-0.23660082,1.352384,-1.3315778,-0.17155387,0.49174896,-0.32409704,0.7175916,0.19044067,-1.6201553,-0.13466857,-0.48024464,0.57134384,0.034200963,1.6379083,0.06607261,-0.6503057,1.2388196,-0.017186677,-0.64478016,-0.6963806,-0.19219549,-0.24664128,-0.3833361,2.6404746,0.28932127,-0.25744206,-0.5744374,0.10941148,0.30915928,0.04304642,-0.33904585,1.8968596,0.8312709,-0.57506496,-0.9013297,-0.24141444,0.18233454,-0.10347656,0.42945448,0.15864702,-0.0959405,-0.23109442,0.38903633,-0.32571793,-0.19880863,0.27987626,-0.17560156,-0.26997718,-1.4392776,-0.12168763,-0.20895803,0.31258458,-0.16102193,-2.7408,0.52760303,-0.1662895,1.6214412,0.32720113,-0.279783,-0.4391037,0.020079747,0.25889188,-0.0656338,0.0965059,-0.39686537,-0.37148985,-1.2333955,-0.16692181,0.16849749,-0.2781207,0.17889804,0.5199526,0.36854625,0.50531787,-0.51547444,-0.14347197,0.06352152,0.512023,-0.5274501,2.1803973,-0.056353208,0.11439392,-0.17628272,0.32051113,0.3421371,-0.018239195,-0.27924863,0.410821,-0.015682312,0.4919345,0.84029335,-0.15418263,-0.13451599,0.18535377,0.0076966085,-0.19223325,-0.21800321,-0.55083317,0.10483399,0.6354061,0.45278528,0.13066398,-0.13675645,-0.2713261,-0.2652801,-0.40246406,0.79292274,0.101695806,0.23211293,-0.091154195,0.18663526,0.2095993,-0.93889815,0.22830616,0.43730357,2.1677818,0.02129168,-0.076587275,-0.09913496,0.13042347,-0.004246348,-0.30999747,0.804137,0.07314926,0.034548786,0.22065176,0.16210866,0.44720855,0.07877177,-0.31495097,-0.1375909,-0.31263208,0.1078788,-1.7299174,0.26764622,-0.18571682,-0.32421783,0.1522109,-1.1555344,0.6591425,-0.14470588,-0.4236256,-0.035591036,-0.022989811,-0.025438577,1.5911245,0.43596363,2.0759342,0.1853006,-0.03764182,0.45507646,-1.180818,0.5120781,-0.69850683,0.43900943,0.28031012,-0.15712555,-0.8028588,-0.06141664,0.30171528,0.2583355,0.19602995,-0.31688675,0.26690388,-0.68637973,0.85593146,0.0071000704,0.94379467,0.64229953,0.15428089,0.5831531,1.5447059,0.0636648,-0.17319949,0.053379074,1.8312777,-0.11812242,-0.350046,0.032196235,0.0037914466,0.9395953,0.4555646,-0.10142971,0.10376513,-0.30437103,-0.2493847,-0.010096564,1.7732183,0.1695907,0.113962464,-0.11950628,0.5004904,1.9609271,0.014325291,-1.1646132,-0.78356147,0.55177504,-0.3892293,0.110309996,-0.034416307,0.045339566,-0.2953641,0.9210511,0.044683237,0.30179343,-0.5338808,-0.09307784,-0.17122366,0.20842023,-0.14540909,1.2742033,-0.09025413,0.46312296,-0.2355243,-0.04034024,-1.9957918,-0.055648297,-0.27065283,-0.29544643,0.13359296,-0.2692559,-0.15559429,0.18478973,-0.1470898,0.2993789,-0.038167197,-0.4233829,0.6894152,-0.25634226,0.33759582,0.49486902,-0.14739724,-0.15567096,-0.005762942,0.28043857,0.10810414,-0.015937684,-0.10024472,-2.063619,-0.10359126,0.05985247,0.3182099,-0.129833,0.3192974,1.1917101,-0.09773747,-0.34972644,0.92784995,-0.14580011,2.0025604,-0.11604265,-0.71368855,0.03926933,0.3129996,-0.31783167,0.84892434,13.260338,-0.12759794,1.5618116,0.7087323,0.31780985,-0.016280236,-1.5192732,0.13627158,-0.05589361,-0.070852354,0.15233576,-0.0016238888,-0.007122639,0.45410994,0.46168098,-0.17420983,-0.21253695,0.33766136,-0.3528712,0.10045483,-0.27706367,-0.101071365,0.7283492,-0.679583,-0.2298792,-0.3838364,-0.20414568,0.095429726,-0.26632994,0.41178623,0.11987603,0.2991551,-0.027664253,-0.2659813,-0.16620065,1.6039635,0.058654297,-0.3907043,0.21017016,-1.9634957,0.1744939,-1.4195,0.48465666,0.3034184,0.42835388,0.3277461,-0.6647263,0.18512814,0.3862377,-0.036625803,-0.054820593,0.72296387,0.19803725,0.33378932,0.24428804,-0.1856393,-1.1234483,-0.100357436,-1.0721042,0.20116143,-0.09281045,0.2745597,-0.11118144,-2.0729847,-0.3537031,0.35332373,-0.020694656,0.39006338,-0.389635,0.10849545,2.102519,1.5294989,0.14778708,-0.13898176,-0.82393855,-0.1360987,-0.27581656,-0.42408714,0.22120048,-0.23187514,0.22626318,0.0789565,0.17131126,-0.27410895,-0.21953362,0.16192313,0.7867401,0.4832425,1.3101382,0.170264,0.12632644,0.4266317,-1.4028745,-0.07582458,0.35135093,0.20868634,-1.6182184,-0.17952873,-0.08355567,0.4296216,0.015382961,-0.5125909,0.13211031,0.4413844,-0.63192105,-1.2159727,0.62996155,-0.15327306,0.38871345,0.038888875,-0.4435564,-0.38938713,0.71900886,-0.068714745,2.1317308,-0.20888977,-0.13021336,0.08592222,0.8060977,0.011196397,0.051177163,1.4004091,-0.27205694,-0.3675619,-0.17281622,0.2670803,0.39284036,0.4911108,0.5542712,0.60854745,-0.058987048,-0.04524905,0.20741771,2.13746,0.14351608,-0.09442112,-1.1380221,-0.07274505,-0.13435923,-0.7735973,0.116639964,-0.18838303,0.2762185,-0.40743506,-1.3699803,0.28897968,0.4472811,-0.10596434,-0.041268755,0.15905602,0.014862474,0.0006988806,0.4853549,0.004588044,-0.06499121,0.025398249,-0.2676619,1.2943386,0.6555087,-0.9704805,0.6656918,-1.7944194,0.83918405,-0.2550542,-0.005407681,-0.051139545,0.24022798,-0.0008179769,0.2600689,-0.6769829,0.20230903,-0.08495849,-0.37623036,1.1628017,0.048668057,-0.07676526,0.8182919,-0.14199618,-0.6023281,0.5696617
com.rafsan.inventory.controller.employee.AddController;0;-0.16420703,-0.032962557,-0.031266272,0.32785547,0.24520557,-0.3042297,0.35226244,0.060478114,0.2880676,-0.5537124,0.082390785,0.24446534,-0.20358089,0.0028567784,0.6396668,-0.025783848,-0.37871596,-0.16552164,0.010903345,-0.39796367,-0.15533319,-0.17679828,0.26195967,0.12134875,0.1800077,-0.012691072,0.4168587,0.54772377,0.17389023,0.9741921,-0.16385594,-0.111627385,2.1667366,-0.0873522,0.21138597,0.027254362,-0.037934504,-0.09686391,0.32629275,0.11902392,-0.31171256,-0.16806298,-1.2606987,0.002229236,0.27554512,-0.11982772,0.05748282,0.6073962,0.23178503,0.24772096,-0.06429656,-0.1467853,-0.7383417,-0.11434972,-0.027667664,0.5551058,-0.8740269,0.282434,0.10798321,-0.22910556,-0.41974854,-0.12878458,0.1244226,-0.18156442,1.7354964,-0.13467711,0.7579327,1.5362018,0.31608647,-0.3606831,-0.16693628,0.3581875,0.1650173,-1.0784228,-0.6815046,-0.19544731,-0.22442722,-1.2503953,-0.74788475,0.18468013,0.4481634,0.105243154,-0.10862875,0.2510195,0.08539719,-0.5757272,-0.02055448,0.023613632,-0.86935556,0.39163402,0.28657395,-0.19485673,1.1343137,0.07798724,0.42268005,0.44927353,-0.008055463,-1.2226374,-0.31428537,-0.24569583,0.26711467,-0.84607905,-0.5477732,-0.8243755,0.31278792,-0.04045573,0.514436,-0.14663059,-0.15638936,-0.15677986,0.20345947,0.34997696,0.07926853,-0.17823675,-0.10255942,0.057289183,0.16621314,0.17694384,0.012827026,0.33834708,-1.4612306,-0.030534843,-0.40700772,0.857804,0.18995777,0.029061954,-0.059239,-0.30433905,0.43436953,0.10141786,-1.5993104,-0.7553961,-0.18707235,0.057673164,0.40432525,-0.09154669,-0.44561905,-0.045657746,-0.27951255,0.1878304,-0.7772333,-0.27646592,0.21303886,0.23860285,0.23190057,-0.019184876,0.20164514,0.034830827,0.27948,-0.31195918,-0.90544486,-0.37646216,1.6130887,-0.40492558,-0.31306615,-1.1485283,0.58160573,-0.5901568,-0.3492347,-0.95721686,0.3977977,-0.13179554,0.23707268,0.7684412,0.27197072,0.6368001,0.11775326,-0.5748197,-0.18503776,0.43684876,-0.1993785,-0.4169318,-0.8705737,0.4511761,-0.019894453,0.46537793,-0.084441274,0.26019442,0.17072593,2.0521672,-0.045621097,0.09112425,0.1469621,-0.064395726,-0.1627524,0.14874887,-0.4586603,-0.08013308,0.18193536,-0.006111595,0.028747063,0.058204003,-0.01813715,-0.07736954,-0.044991788,-0.09386375,0.17676744,0.13357526,1.5313288,-0.27729657,-0.08375175,0.08022932,-0.21678618,-0.30690035,-0.21519352,0.5541823,-0.18509991,0.29504958,0.49387807,1.3224165,2.1423056,0.32574376,0.23895627,-0.19907503,-1.3171405,0.15981522,-0.061658848,-0.121488765,-0.19465739,-0.39611375,-1.4579678,0.20325302,-0.09643991,-0.6176117,0.09383361,0.56909955,0.015329477,0.24616447,-0.016877975,-0.061140157,0.18529534,-0.046163917,0.058210317,0.33641306,-0.739426,0.015682233,-0.015397848,-0.19607912,-0.3515513,-1.4383304,-0.13164164,-0.15074162,0.16701463,0.530139,0.4884925,-0.66992366,-0.22504854,0.09928572,-0.2216383,0.2851866,-0.16729853,-0.4790871,-0.04082173,0.15667413,-0.43034327,-0.19847283,0.13438699,0.31281444,-0.017138598,2.7065787,0.031784616,0.54250836,0.072725564,-0.655907,-0.017620303,-1.2527144,-0.16946183,-0.13849352,0.769907,0.60100377,1.7687069,0.09506095,0.29997176,0.058547523,-0.29911128,-0.32109863,0.73293734,-0.2791848,-0.8721981,-0.03211654,0.0115864575,0.40347582,-0.17996266,0.15537046,0.24571687,-0.049768593,-0.5902536,-0.3267689,-0.069054306,0.22417551,0.7310613,-0.6740713,1.3992316,-0.15782645,-0.246115,-0.05983721,0.17662561,0.3650648,0.07959269,-0.3203293,-0.25079954,0.6000289,0.09697497,-0.4806323,-0.66160595,-0.12531441,-0.67698544,-0.17143475,0.09230046,-0.13626926,0.4100032,-1.0072377,0.014307655,-0.1076453,-0.3564792,0.5242228,0.11613958,0.2874972,-0.18829837,-0.029841222,-0.13888763,-0.07819964,1.2947255,-1.4809597,0.16169909,1.149721,0.14178662,0.03341968,-2.0559828,0.947595,-0.3504163,-0.26911008,-0.23098233,1.2982124,-1.3110468,-0.14314109,0.4537002,-0.2971615,0.6623955,0.20857963,-1.6269246,-0.14005782,-0.47074038,0.6069774,0.027128126,1.6158376,0.020388745,-0.62772256,1.1728557,-0.029912198,-0.6880795,-0.6875373,-0.16955945,-0.25559697,-0.3572907,2.6147141,0.26781657,-0.2696942,-0.5887736,0.03904558,0.28911683,0.028635051,-0.31183073,1.850187,0.7816941,-0.5274037,-0.88672185,-0.24166897,0.13659635,-0.13750729,0.4476154,0.2000879,-0.08008115,-0.23901498,0.36895734,-0.31400126,-0.1988074,0.27014047,-0.18075617,-0.29684633,-1.4039634,-0.13764817,-0.1865547,0.27311915,-0.19862959,-2.7424693,0.49905032,-0.14515759,1.5860244,0.31113607,-0.25619656,-0.43862116,0.005393265,0.2516206,-0.067077324,0.069964655,-0.35566533,-0.3937624,-1.2465664,-0.17909238,0.16043347,-0.24360277,0.15167034,0.5011423,0.31671664,0.53079057,-0.49268803,-0.18740034,0.04285749,0.48127308,-0.50175554,2.1316593,-0.039383937,0.098958075,-0.14165667,0.33163235,0.30109555,-0.05119046,-0.33243132,0.37664026,-0.019906651,0.478525,0.791334,-0.16889131,-0.11736088,0.1846652,0.03848552,-0.2290926,-0.18033737,-0.5232714,0.09524998,0.61822534,0.4143454,0.06877262,-0.12561694,-0.23606741,-0.27394015,-0.42459062,0.77872527,0.11235631,0.23963115,-0.10294223,0.12387526,0.185963,-0.9152974,0.26476124,0.43370208,2.1518207,-0.02874866,-0.071990624,-0.08800798,0.15002117,-0.018926248,-0.24112757,0.7679945,0.036260292,-0.023077024,0.23473078,0.19878268,0.38290974,0.08571326,-0.35355392,-0.09047875,-0.31820652,0.059763927,-1.7281159,0.29046172,-0.20117787,-0.33186448,0.19268352,-1.0693631,0.69531286,-0.1360993,-0.4016173,-0.016559638,0.0050129294,-0.00062434,1.5677733,0.4418034,2.021728,0.15923609,-0.05194311,0.39089665,-1.1278427,0.4973962,-0.69070596,0.4743511,0.28643617,-0.122925006,-0.77809125,-0.011703724,0.29778373,0.25944966,0.19847575,-0.29301214,0.29641932,-0.66590816,0.85374486,0.05674553,0.9201826,0.6488022,0.15775003,0.5925407,1.490575,0.06598851,-0.14787374,0.051428102,1.7679558,-0.06642773,-0.31487226,0.022167692,-0.019296441,0.9210181,0.43402982,-0.080553874,0.09397715,-0.26048362,-0.25196818,0.06094001,1.7293527,0.16359635,0.11155959,-0.08609675,0.5013593,1.9013275,-0.02574139,-1.1662245,-0.7268536,0.60457003,-0.39204645,0.07204351,-0.030886253,0.022641405,-0.32494795,0.9693626,0.045379058,0.28519186,-0.5269301,-0.07058719,-0.19901861,0.19883984,-0.13563147,1.3183985,-0.13212891,0.5114726,-0.22720847,-0.06128849,-1.9412447,-0.07136528,-0.27180785,-0.2956107,0.012861863,-0.23241588,-0.14632869,0.16193844,-0.14998339,0.32490143,0.03801565,-0.40091273,0.6504304,-0.25111756,0.41114867,0.45519477,-0.11446007,-0.19512282,-0.006159967,0.2759563,0.11238015,-0.03747859,-0.0825529,-2.0610282,-0.098847724,0.061557245,0.34667104,-0.1046491,0.25092533,1.1892996,-0.09602781,-0.34160924,0.9044646,-0.14054824,1.9810346,-0.1284635,-0.6986785,0.027777333,0.33944464,-0.32975495,0.8517674,13.613861,-0.11199297,1.547852,0.7258234,0.3507594,0.007623747,-1.4853907,0.17674501,-0.07462323,-0.054135237,0.1314001,0.00523994,0.019653693,0.47392768,0.44746274,-0.19789934,-0.18505266,0.31094912,-0.34160432,0.107597604,-0.2526394,-0.11307835,0.6840027,-0.64782095,-0.21162835,-0.34045407,-0.1876711,0.09991083,-0.22435582,0.36369365,0.14272289,0.28193998,-0.029440561,-0.29958314,-0.19458966,1.5458539,0.012943663,-0.40195015,0.190469,-1.9392368,0.201028,-1.3462564,0.45325962,0.33184186,0.4192416,0.32089642,-0.64263546,0.21844971,0.3537669,-0.030410212,-0.070453934,0.69516057,0.21254964,0.31243187,0.21999508,-0.19540535,-1.0344304,-0.09107271,-1.0709037,0.19053899,-0.1295844,0.2431878,-0.14553206,-2.01082,-0.3321803,0.3575874,0.007397894,0.3312056,-0.35141948,0.10581212,2.0977373,1.4757813,0.14239116,-0.18930483,-0.78916645,-0.165946,-0.23315735,-0.4029706,0.21067366,-0.22606444,0.21942106,0.049644303,0.1979958,-0.31939304,-0.16627556,0.160572,0.76554143,0.51782846,1.2507083,0.216846,0.14418486,0.4158995,-1.4103961,-0.10455097,0.33951786,0.19561028,-1.555803,-0.20053115,-0.07787919,0.4151354,-0.0010019485,-0.5022322,0.1795373,0.4577557,-0.654033,-1.1787457,0.627663,-0.122129194,0.34256148,0.04953658,-0.40800703,-0.36996758,0.69915164,-0.14841473,2.0958426,-0.21591368,-0.11469905,0.06645026,0.78696287,-0.03211246,0.051660836,1.3800733,-0.2220155,-0.38137934,-0.17628488,0.30119282,0.44203186,0.52042454,0.5396693,0.55187786,-0.07409641,-0.03801342,0.23100749,2.0851784,0.16281879,-0.14020057,-1.0793889,-0.090377405,-0.13136822,-0.74526876,0.12170627,-0.18395993,0.25808978,-0.44961408,-1.3331292,0.29919583,0.452699,-0.10553084,-0.037080176,0.19692431,0.035206527,-0.005792618,0.49146166,0.051385652,-0.07778594,-0.0025669765,-0.30360857,1.3091917,0.636048,-0.94478434,0.7114726,-1.7674272,0.7799601,-0.23536846,-0.006253436,-0.031765506,0.25577193,0.023843888,0.30412155,-0.682664,0.21526317,-0.08532535,-0.38197845,1.1597737,0.03842564,-0.0936223,0.7947486,-0.13663766,-0.609992,0.5584592
com.rafsan.inventory.controller.employee.EditController;0;-0.19646886,-0.049901977,-0.01803143,0.35346222,0.2579118,-0.3127771,0.34682927,0.07077153,0.27943876,-0.5771128,0.06725067,0.27771723,-0.19599457,0.050713584,0.67603636,-0.04131148,-0.3650301,-0.17585115,0.0459466,-0.44021735,-0.14043947,-0.13816348,0.24897732,0.116178304,0.13345882,-0.019266017,0.41991365,0.5858011,0.18277851,1.0037326,-0.12723318,-0.09449211,2.198503,-0.062287714,0.20581955,-0.011077391,-0.06470624,-0.10267159,0.35342422,0.13721037,-0.25750858,-0.22739126,-1.2585002,-0.035784602,0.30655876,-0.12526494,0.09621165,0.6076775,0.2759051,0.2424013,-0.0808654,-0.18461278,-0.76443124,-0.10371421,-0.05201906,0.56797326,-0.9263016,0.31545946,0.12750632,-0.2220447,-0.41881633,-0.119639024,0.14351715,-0.15767594,1.7852278,-0.12548508,0.8190384,1.5775713,0.30026156,-0.3826263,-0.18093047,0.39639872,0.23973721,-1.1591016,-0.71168244,-0.21053554,-0.2639294,-1.361905,-0.7597879,0.17296878,0.4051488,0.11876697,-0.24950638,0.26545018,0.1178707,-0.588863,0.01164487,0.008261349,-0.91922283,0.38873485,0.24718317,-0.24727878,1.229989,0.13149114,0.4264172,0.44851273,0.03678917,-1.2861837,-0.34316435,-0.27878106,0.29002166,-0.84040046,-0.5762165,-0.8264832,0.31868726,-0.0146734025,0.5158754,-0.19152173,-0.16162318,-0.19980244,0.23876071,0.33135426,0.06666008,-0.18742897,-0.100888856,0.06099766,0.16906261,0.1822985,0.017252054,0.35516223,-1.4730873,-0.03477693,-0.41460216,0.8993206,0.17160699,0.017589796,-0.032611005,-0.3023324,0.46227014,0.035389468,-1.653647,-0.75743794,-0.17976762,0.06257815,0.3758145,-0.086815,-0.4480428,-0.07198375,-0.2836656,0.17660084,-0.7607231,-0.2809897,0.23292044,0.2996735,0.1755684,-0.03261484,0.20462897,0.03976573,0.30973095,-0.34767938,-0.9139093,-0.4107559,1.6609321,-0.40888858,-0.3231526,-1.2112502,0.60860014,-0.60840464,-0.36315393,-0.9756827,0.38298196,-0.15629369,0.2810353,0.7849094,0.30245426,0.64486504,0.12616381,-0.6002428,-0.23494235,0.46016428,-0.1822947,-0.46168905,-0.8869404,0.45167693,-0.033959266,0.5063586,-0.034294162,0.3101152,0.18840009,2.1130247,-0.059015416,0.11587643,0.14081167,-0.026380818,-0.22547361,0.17205419,-0.47783232,-0.07392612,0.20500131,-0.011246706,0.017571166,0.056863487,0.0021706857,-0.08634803,-0.07628544,-0.09985016,0.1451093,0.11099215,1.5877378,-0.2919647,-0.07363553,0.04221391,-0.20321879,-0.30407694,-0.23391375,0.52150524,-0.16832,0.2842387,0.50453377,1.3540826,2.2287283,0.35087937,0.21106617,-0.21937251,-1.4072549,0.1707744,-0.06691571,-0.13105445,-0.20817995,-0.42768332,-1.48408,0.2033767,-0.071934015,-0.57957137,0.1272281,0.59937465,-0.029376868,0.2593694,-0.0068973936,-0.0376802,0.20359921,-0.011303582,0.08636904,0.3705941,-0.73459,-0.007629524,0.011118533,-0.1925585,-0.35697198,-1.5011001,-0.15805182,-0.15684426,0.121487334,0.5057601,0.51651347,-0.7294837,-0.24205554,0.067887984,-0.22379339,0.24522391,-0.14800014,-0.5674434,0.01640137,0.19444668,-0.43859988,-0.2296204,0.13894026,0.34529737,-0.03468832,2.7369502,0.04327442,0.5852577,0.08636214,-0.68697685,-0.03465522,-1.2505497,-0.19795954,-0.16028526,0.8071005,0.62179995,1.8306346,0.11582977,0.2928092,0.03201386,-0.29848036,-0.35481605,0.76769567,-0.28729686,-0.9149839,-0.035726324,0.049798682,0.40682667,-0.21438682,0.14696462,0.26734453,-0.023409553,-0.6228079,-0.34912965,-0.08527741,0.21201533,0.70798206,-0.7341683,1.4274495,-0.18961294,-0.24033558,-0.07962571,0.2005974,0.36107057,0.040603578,-0.3181116,-0.25643378,0.6147123,0.08258822,-0.45909908,-0.69386697,-0.09572776,-0.707826,-0.14826815,0.032074273,-0.15433475,0.38044882,-1.0581044,0.0381347,-0.11428106,-0.35502592,0.5490107,0.14092351,0.3593611,-0.15353909,-0.012585433,-0.16999444,-0.089149475,1.309231,-1.546202,0.1920827,1.1911992,0.16225316,0.098122574,-2.1596346,0.91047,-0.29933238,-0.2981696,-0.21267915,1.3829422,-1.3529162,-0.12810418,0.47546202,-0.26855305,0.67646307,0.22752863,-1.6414165,-0.13844049,-0.46200156,0.62445265,0.032153584,1.693264,0.054945067,-0.6725013,1.2270368,-0.05468338,-0.69262713,-0.72057545,-0.18144499,-0.2637759,-0.4092785,2.629306,0.27693644,-0.27379107,-0.5992174,0.14501023,0.28056973,0.036334794,-0.34107342,1.9067651,0.75063413,-0.57719815,-0.9252496,-0.23458096,0.16066545,-0.095933236,0.47560465,0.15065455,-0.06701369,-0.26439366,0.41513583,-0.30212075,-0.1883194,0.29881707,-0.17408402,-0.30253485,-1.453905,-0.1283332,-0.20776507,0.26927614,-0.1684341,-2.7856953,0.50002944,-0.19286066,1.6622553,0.36012614,-0.26481974,-0.46686894,0.02825062,0.28389907,-0.059008993,0.08414002,-0.3786403,-0.39681596,-1.2268718,-0.13767408,0.19678769,-0.30003053,0.19380613,0.52728856,0.38543195,0.53087884,-0.5363383,-0.16744862,0.048180915,0.5139284,-0.55058914,2.208025,-0.04672184,0.07509953,-0.1933226,0.34453693,0.31440637,-0.029979907,-0.34094688,0.44290316,-0.031636175,0.5097933,0.82490575,-0.14307004,-0.1302828,0.17430212,0.022176381,-0.22187914,-0.22340596,-0.56899846,0.12935574,0.6562197,0.45337605,0.10276921,-0.10821013,-0.25691548,-0.2800177,-0.4262892,0.7863763,0.11118357,0.24817294,-0.09464982,0.14828074,0.1705074,-0.941426,0.2677405,0.42991245,2.2007742,-0.013075979,-0.084515065,-0.102699995,0.16248348,-0.010346888,-0.31604522,0.80136347,0.08830233,-0.0026564775,0.22843163,0.17192748,0.43049031,0.09588456,-0.37815478,-0.15504022,-0.29915088,0.03026475,-1.769448,0.25048602,-0.19149393,-0.31206354,0.13148254,-1.1420265,0.68979025,-0.15573284,-0.39222172,0.0010324009,0.03695389,-0.005851824,1.6041784,0.43632218,2.0356317,0.19256003,-0.02958082,0.4098361,-1.1906246,0.51566875,-0.69532007,0.47459155,0.30248046,-0.13483907,-0.8142078,-0.02470267,0.34900516,0.27985546,0.1840955,-0.32917148,0.25215384,-0.6959553,0.88096845,0.016857775,0.9526291,0.65990156,0.14746544,0.6232321,1.5231172,0.05366958,-0.16532782,0.06289852,1.8565524,-0.09301247,-0.32098442,0.040520113,-0.049360402,0.94942224,0.44459626,-0.12593381,0.08225721,-0.29024997,-0.25915146,0.0056654275,1.7930255,0.1585743,0.14768541,-0.095563434,0.49554864,1.9696513,-0.021286413,-1.1870365,-0.74583644,0.57080764,-0.4000889,0.127753,-0.06304951,0.035917267,-0.32306656,0.98321867,0.0859543,0.31270728,-0.57727015,-0.05174586,-0.19419785,0.23587427,-0.10508187,1.3068664,-0.11941512,0.5124715,-0.18147866,-0.035101492,-2.0256472,-0.09365297,-0.27184373,-0.29763296,0.10300462,-0.25005394,-0.1452712,0.14561206,-0.13049068,0.30169886,-0.07165157,-0.43748856,0.7097779,-0.23385277,0.42129475,0.49334612,-0.11694567,-0.20285608,-0.051090457,0.28495407,0.12452512,-0.041933686,-0.093724914,-2.1236875,-0.117573276,0.07626585,0.41041276,-0.11245203,0.27134153,1.16857,-0.09706794,-0.3574211,0.9344195,-0.15846452,2.048776,-0.13222183,-0.7228029,0.022313572,0.3002174,-0.28386033,0.8462386,13.220751,-0.10264821,1.5479046,0.69958603,0.36017883,-0.018549493,-1.5357484,0.19064596,-0.07706369,-0.08055699,0.14899608,-0.029353335,0.01150491,0.5342841,0.45684868,-0.19015135,-0.17210664,0.34763226,-0.36819756,0.11140877,-0.25997424,-0.13545494,0.70368433,-0.6426915,-0.25228477,-0.38706225,-0.23342577,0.094378434,-0.24768105,0.40647924,0.15052831,0.26993543,-0.0073531405,-0.26940912,-0.19527975,1.6053658,-0.007124277,-0.42047727,0.18570507,-2.002125,0.21803993,-1.419145,0.50729567,0.36973852,0.43862855,0.33826166,-0.66425765,0.16835108,0.37110516,0.014583062,-0.0603739,0.7074332,0.20191377,0.33727604,0.25769398,-0.16480657,-1.0863048,-0.10583353,-1.1267238,0.21508425,-0.09881909,0.27842483,-0.15675174,-2.0782912,-0.3215278,0.36658424,0.016674947,0.40956715,-0.38821003,0.05290521,2.103341,1.5404683,0.14528641,-0.13373744,-0.84564906,-0.1447169,-0.26412943,-0.39451793,0.23492473,-0.2336471,0.23332252,0.04323728,0.21928461,-0.29448608,-0.16777119,0.12805319,0.78758293,0.5098703,1.2725027,0.18418796,0.15775914,0.39052355,-1.4205211,-0.07461935,0.35570306,0.2448923,-1.6394929,-0.1784944,-0.08017255,0.4535782,-0.031113131,-0.4944471,0.14443111,0.48393133,-0.63070357,-1.2192388,0.6536789,-0.12978213,0.42036265,0.04618748,-0.4224906,-0.4130286,0.7145014,-0.10980637,2.1398487,-0.23510204,-0.13530268,0.07844603,0.8028021,-0.052001975,0.037411444,1.4470501,-0.18559611,-0.3715998,-0.18649241,0.30089045,0.4366098,0.53059834,0.56447333,0.57342523,-0.038054153,-0.042909935,0.16279924,2.1072798,0.15219072,-0.13759871,-1.1331618,-0.039126728,-0.16438963,-0.8014659,0.13275054,-0.15613112,0.30455634,-0.43788248,-1.3358347,0.34912837,0.43054304,-0.11980149,-0.02288093,0.20750275,0.0329214,-0.056745052,0.54692554,0.060429405,-0.07452598,0.032661714,-0.2982971,1.321962,0.65492284,-0.9731426,0.70305276,-1.8194325,0.8488951,-0.25809368,-0.056953855,-0.056445397,0.21308881,0.0042546466,0.28665957,-0.71443367,0.2401939,-0.07562985,-0.32065696,1.2120007,0.04978696,-0.09919788,0.8085567,-0.11053109,-0.6010372,0.5419531
com.rafsan.inventory.controller.employee.EmployeeController;0;-0.17110549,-0.052934274,-0.07817435,0.37579453,0.2362015,-0.2616115,0.35579523,0.054764833,0.20573103,-0.5314311,0.13135618,0.2641592,-0.18354729,-0.00981077,0.65654916,-0.012482999,-0.35046083,-0.12616737,0.117526464,-0.44996393,-0.13536069,-0.09239548,0.23524936,0.10552071,0.112331115,-0.02375797,0.46248198,0.6171247,0.16509849,1.0468585,-0.09936009,-0.09098114,2.248805,-0.055147786,0.16111091,0.0021401437,-0.071576774,-0.12817748,0.3676597,0.09806064,-0.23803729,-0.17045793,-1.2965055,-0.051987216,0.314152,-0.09714262,0.06830944,0.63204837,0.25414184,0.2724574,-0.07319793,-0.20721683,-0.8095792,-0.09180873,-0.07153092,0.5508936,-0.93843514,0.31481633,0.11001012,-0.20462674,-0.41610903,-0.09452344,0.17727308,-0.18634833,1.7577434,-0.17683987,0.832565,1.6257,0.34276265,-0.33662975,-0.1645099,0.4458277,0.19886024,-1.0840126,-0.7073772,-0.2633737,-0.21837504,-1.4629272,-0.76085836,0.14824615,0.39010286,0.066353664,-0.32983264,0.24350964,0.16770191,-0.65507436,0.047204997,0.057316057,-0.9692069,0.39152345,0.25213867,-0.15887769,1.2650194,0.10749449,0.44716373,0.4141068,0.065212175,-1.3127396,-0.34116915,-0.29848403,0.3630103,-0.8471134,-0.5391812,-0.85545826,0.31165576,-0.04961057,0.5019862,-0.1553634,-0.11421519,-0.13737065,0.22491243,0.35259297,0.12163132,-0.21510327,-0.13038836,0.02085133,0.14417654,0.23584189,0.06926862,0.36387622,-1.5183038,-0.048038915,-0.39764148,0.8882184,0.10389623,-0.02461827,0.018520748,-0.34057155,0.44419256,0.07931621,-1.7304623,-0.7352675,-0.186595,0.06964735,0.3896131,-0.057787053,-0.37993467,-0.12289561,-0.26749107,0.2019914,-0.73120296,-0.2573396,0.19252712,0.31555694,0.16824685,-0.042765904,0.26185077,0.04014166,0.34012312,-0.2965866,-0.9585742,-0.40763065,1.6554168,-0.4536509,-0.34363544,-1.2860346,0.5744462,-0.61031246,-0.37238443,-1.0127802,0.42408544,-0.12978616,0.23242754,0.72323775,0.28786325,0.6435289,0.12720768,-0.6157187,-0.27335867,0.45388746,-0.21112336,-0.42968565,-0.89971375,0.46279764,0.019540552,0.5461307,-0.07436168,0.2784736,0.13046432,2.1781235,-0.04214227,0.15329061,0.21851541,-0.044028953,-0.19776155,0.16962618,-0.4971255,-0.08818412,0.15790123,0.011219891,-0.046586912,0.05594899,0.011578868,-0.06122939,-0.048485506,-0.15012969,0.17004555,0.12544936,1.5718588,-0.27112132,-0.09028435,-0.005080456,-0.21887986,-0.2806489,-0.25503293,0.53350234,-0.16773154,0.3093705,0.5362928,1.3625531,2.24676,0.32203493,0.30560645,-0.27863443,-1.4055754,0.17098674,-0.08161376,-0.14826664,-0.20122509,-0.45167315,-1.4953507,0.20566541,-0.113858804,-0.5214165,0.12771696,0.57121223,-0.03059824,0.24448657,0.0077568274,-0.018601945,0.11314184,0.01014949,0.12675464,0.42637807,-0.8226667,-0.038539063,-0.016553333,-0.18828116,-0.34240928,-1.470371,-0.18379436,-0.13762675,0.107103825,0.51385546,0.5252616,-0.7639125,-0.22408134,0.08317637,-0.21593387,0.2682582,-0.1631329,-0.4955225,-0.012868827,0.27339387,-0.41180766,-0.203156,0.10861848,0.37356642,-0.06411046,2.739352,0.026687685,0.60924625,0.06367116,-0.7056754,-0.028046437,-1.2518522,-0.25325936,-0.17551604,0.765218,0.5928824,1.8781908,0.10032384,0.27362114,0.040046748,-0.29232213,-0.30118775,0.7669752,-0.24257606,-0.9251864,-0.03793095,0.06380029,0.4059781,-0.19215147,0.13823399,0.24924248,-0.02918438,-0.63215333,-0.3716054,-0.121435486,0.23191121,0.80254793,-0.7899544,1.4358535,-0.22922768,-0.26785892,-0.11264198,0.18055542,0.39406434,0.051379893,-0.27480435,-0.19707811,0.5672058,0.12995042,-0.45048088,-0.69142205,-0.06106417,-0.69282025,-0.1704517,0.046140295,-0.07899534,0.39751387,-1.0979066,0.061398942,-0.14249511,-0.31837258,0.5335798,0.1233041,0.34940854,-0.15329218,-0.03008714,-0.15405677,-0.045350805,1.2482153,-1.5325129,0.12652725,1.1394886,0.09800185,0.0465745,-2.1657143,0.90326244,-0.24238783,-0.25303403,-0.21739084,1.422515,-1.3508334,-0.11778423,0.47514588,-0.3247473,0.71593213,0.19358142,-1.5735986,-0.13680083,-0.48861673,0.5536368,0.0046394253,1.6719232,0.052652754,-0.6451674,1.2648836,-0.00934418,-0.640537,-0.7324666,-0.19820094,-0.27638412,-0.36697304,2.6917067,0.3127011,-0.24968226,-0.62984306,0.13478783,0.36000514,0.050419167,-0.34777156,1.9353657,0.81504023,-0.62160033,-0.93805885,-0.24570094,0.22118355,-0.10077846,0.45363128,0.22877818,-0.06264192,-0.2640201,0.4227793,-0.23991275,-0.22138903,0.28766558,-0.09930105,-0.27748036,-1.4565843,-0.14063609,-0.21591033,0.32555246,-0.15816185,-2.790141,0.5327449,-0.10555025,1.7133633,0.36378038,-0.29214117,-0.39299613,0.03386925,0.31510878,-0.029936425,0.06971238,-0.4746514,-0.34921375,-1.1846471,-0.20203358,0.22555007,-0.26367062,0.1764902,0.52383107,0.35464814,0.48519856,-0.4300677,-0.117417544,0.061653953,0.45420423,-0.48137242,2.253507,-0.09242752,0.09731239,-0.1729584,0.35376388,0.3407778,-0.002642261,-0.34384665,0.38594604,0.011611042,0.48449168,0.8709999,-0.12352,-0.09540275,0.19510949,-0.00210427,-0.18427251,-0.23652363,-0.5423741,0.11003052,0.60395026,0.49611092,0.13622257,-0.13751417,-0.27045965,-0.2773322,-0.4018885,0.73823947,0.1573978,0.24379866,-0.08129516,0.20942801,0.18431193,-0.997582,0.26139358,0.5066516,2.2175114,-0.092775434,-0.11394901,-0.10821453,0.08820847,0.0061660316,-0.30536142,0.7510898,0.061030805,-0.0029397642,0.2504131,0.11613916,0.474926,0.1284104,-0.3205441,-0.18767096,-0.31069836,0.07486794,-1.7602348,0.19499154,-0.1191524,-0.31664687,0.10441247,-1.1976877,0.6241652,-0.14159122,-0.40865362,0.02401148,-0.015270344,-0.05296889,1.597041,0.4467046,2.1386664,0.16811942,-0.011314346,0.41388208,-1.2144885,0.5508637,-0.66307026,0.44444954,0.31875843,-0.13984105,-0.80479836,-0.04828023,0.33171433,0.21818838,0.20462185,-0.3449764,0.27951753,-0.69138473,0.8483458,-0.07637037,0.96948636,0.65348166,0.18777898,0.61596036,1.6064043,0.028593447,-0.187267,0.077173404,1.8593717,-0.039606012,-0.31019554,0.033388253,6.439123e-05,0.9307587,0.41388544,-0.11728668,0.08896116,-0.26463395,-0.26567355,-0.02778545,1.8144832,0.18863513,0.1394923,-0.089887604,0.51096934,2.0071368,0.010899678,-1.1769164,-0.77708846,0.5385303,-0.38404915,0.08918173,-0.032858558,0.004189174,-0.32700735,1.0024929,0.042261194,0.28452635,-0.5626981,-0.10467303,-0.23395936,0.19282545,-0.0405743,1.2246435,-0.13697733,0.5332267,-0.17869033,-0.06667462,-2.0446033,-0.10553709,-0.3244696,-0.2896324,0.21049678,-0.29222766,-0.19365384,0.20148855,-0.09696431,0.314721,0.027280515,-0.42772868,0.70476377,-0.22032794,0.33871403,0.46197715,-0.11314241,-0.21880673,-0.05231977,0.29488578,0.15642461,-0.045422167,-0.077595145,-2.2070272,-0.09772584,0.046612777,0.3776781,-0.14597426,0.2963091,1.1607707,-0.07703977,-0.33591187,0.94911355,-0.13729611,2.0426214,-0.19239455,-0.72598106,0.054940082,0.28050515,-0.32177514,0.9014793,12.820558,-0.106211804,1.57328,0.70939386,0.37755495,0.045806702,-1.5032673,0.18292859,-0.010030071,-0.0888631,0.14927569,-0.016528368,0.01775983,0.42824012,0.47067437,-0.14648424,-0.22177853,0.3612621,-0.41601413,0.09885703,-0.22754155,-0.14164175,0.7523096,-0.6503665,-0.2305697,-0.32055685,-0.22867563,0.0656376,-0.27471432,0.42541566,0.14967267,0.349989,-0.08474144,-0.22037488,-0.19634548,1.611013,0.0039611165,-0.43112123,0.17923042,-1.9970673,0.17367741,-1.4316316,0.4475511,0.29804698,0.4467492,0.32132894,-0.71751153,0.14548549,0.43461573,0.018885814,-0.07386416,0.626823,0.18283455,0.31417757,0.24659263,-0.18018216,-1.1176763,-0.112332545,-1.0721718,0.18900609,-0.086020164,0.2316932,-0.1324245,-2.1065245,-0.39024496,0.37793347,-0.021704383,0.39529398,-0.31965417,0.15050326,2.1235516,1.6049112,0.1519535,-0.11511902,-0.9249967,-0.19597666,-0.30533022,-0.35079318,0.2542413,-0.2140508,0.19285434,0.0632099,0.13897698,-0.25034177,-0.097790994,0.11776253,0.7951887,0.42988208,1.2865534,0.2642859,0.124524,0.3360777,-1.4240221,-0.04264444,0.3721235,0.2177939,-1.6800393,-0.2000316,-0.074506,0.45916975,0.009191622,-0.4707348,0.15779506,0.44150385,-0.63739526,-1.2525365,0.634932,-0.10791322,0.39918733,0.0029711197,-0.45834625,-0.38955486,0.7555493,-0.08107311,2.1030989,-0.26688677,-0.17055212,0.09455517,0.8133319,-0.022108164,0.10452655,1.4798775,-0.23767577,-0.3516463,-0.22879365,0.29756546,0.3880187,0.5135495,0.6173649,0.62625784,-0.020288603,-0.018110922,0.18889697,2.1502814,0.115130745,-0.089712255,-1.2143788,-0.051430907,-0.19943589,-0.721087,0.19002354,-0.22618675,0.23084089,-0.40961742,-1.4307739,0.2903286,0.41475022,-0.10642125,-0.03988989,0.17920725,-0.011064145,0.025776727,0.49730825,0.016130188,-0.053735957,0.05213167,-0.30575854,1.3211161,0.6656758,-0.96984357,0.6859508,-1.8323337,0.8528582,-0.28327662,-0.06336053,-0.11550001,0.19589609,-0.008450768,0.30538404,-0.7241017,0.20466389,-0.05337131,-0.3503083,1.168125,0.012887656,-0.0726926,0.8183951,-0.1279074,-0.5775416,0.5405648
com.rafsan.inventory.controller.login.LoginController;1;-0.18812622,-0.07322095,-0.041429162,0.40431,0.28733122,-0.31078297,0.36098966,0.094427556,0.23242193,-0.5780716,0.04490316,0.2987361,-0.21693587,0.04773789,0.67653126,-0.058010202,-0.4033493,-0.17554337,0.03851594,-0.46685848,-0.12509209,-0.10844921,0.1826443,0.14135039,0.11413215,0.00053699873,0.45193142,0.60969436,0.15028495,0.98640436,-0.12870255,-0.08644598,2.2423282,-0.06411988,0.16322409,-0.0034872275,-0.024653794,-0.20798236,0.2868315,0.16283719,-0.23460919,-0.22628123,-1.309264,-0.08381718,0.29981944,-0.15498814,0.0866323,0.57544446,0.28390723,0.2677239,-0.08740179,-0.18821643,-0.81292087,-0.15634315,-0.09117996,0.5753925,-0.9199936,0.36451328,0.19100921,-0.20484196,-0.405622,-0.1613606,0.10953034,-0.12640515,1.819098,-0.1272351,0.84089357,1.5546774,0.3029979,-0.39621872,-0.17448045,0.42596388,0.22955833,-1.1838148,-0.7053372,-0.31465364,-0.25152388,-1.5066335,-0.7746669,0.13541353,0.40283507,0.09912453,-0.326761,0.259963,0.18277942,-0.6624253,-0.0015745421,0.023044731,-0.9293322,0.44470346,0.25291008,-0.21856982,1.3218291,0.11180484,0.4165135,0.4466125,0.037031855,-1.2898084,-0.37857258,-0.29185563,0.30405965,-0.8643365,-0.662867,-0.8230369,0.31290662,-0.0014890814,0.46182925,-0.14942387,-0.17705059,-0.13306987,0.26982743,0.3860064,0.10903901,-0.24190857,-0.0860429,0.0983955,0.14671804,0.16107848,0.03576608,0.33794004,-1.5242671,-0.04689967,-0.40332076,0.8869867,0.093056396,0.014000551,0.054386754,-0.3580168,0.525355,0.058471605,-1.6879363,-0.7414042,-0.17930566,0.05736793,0.39523977,-0.07048319,-0.36268872,-0.039046198,-0.24098927,0.20035754,-0.72651565,-0.22875386,0.22628473,0.33340764,0.1641601,-0.08022035,0.2238743,0.0056537176,0.31655854,-0.3502969,-0.96329415,-0.3865264,1.6685514,-0.3967747,-0.323537,-1.2624393,0.6175686,-0.6754442,-0.40588102,-0.98025674,0.39314696,-0.15440586,0.27415907,0.7954297,0.31922415,0.6609125,0.14942145,-0.5867256,-0.26479512,0.50010014,-0.18102787,-0.4258114,-0.880985,0.44519168,-0.0626707,0.5472467,-0.06287638,0.30963665,0.199966,2.0607266,-0.028597424,0.13929306,0.19709484,-0.038252782,-0.2098468,0.16172534,-0.4809075,-0.07668543,0.19550833,0.0351629,0.03305369,0.052851234,-0.07494518,-0.1038464,-0.08080344,-0.15196626,0.15721104,0.1353131,1.5733566,-0.27655143,-0.06633246,0.06700116,-0.23906595,-0.3359557,-0.2995437,0.5627527,-0.16631174,0.28092653,0.57455385,1.3313116,2.2513332,0.32597575,0.2628092,-0.21921955,-1.4619061,0.1422235,-0.09011437,-0.102799125,-0.178486,-0.42800966,-1.4948568,0.19029862,-0.039957367,-0.56798744,0.13097723,0.652355,-0.00801779,0.26887643,0.064110525,-0.061417498,0.1329834,0.025649697,0.10271088,0.41835263,-0.81671643,-0.008755775,-0.026935793,-0.1363205,-0.34329906,-1.4934722,-0.2281842,-0.13567393,0.11489214,0.577322,0.48110247,-0.7232742,-0.21300952,0.16327085,-0.22370146,0.2729277,-0.13793126,-0.5479119,0.013661215,0.21206148,-0.43700567,-0.22975677,0.12552813,0.41079408,-0.029534474,2.7722373,0.029318329,0.5846075,0.11708965,-0.72142464,-0.04079046,-1.2743051,-0.20652646,-0.20482343,0.79427105,0.6052584,1.8615084,0.07525691,0.34626,0.008953866,-0.29536223,-0.36684385,0.80077827,-0.3303823,-0.9365027,-0.051239673,0.09505265,0.44660807,-0.17296727,0.15419531,0.32873067,-0.015381286,-0.6442513,-0.35850123,-0.096533135,0.19046304,0.7826136,-0.8180694,1.4240186,-0.19855756,-0.1904432,-0.12497094,0.1804098,0.32327294,0.05864598,-0.28903383,-0.2564817,0.5619856,0.14153829,-0.474668,-0.7006351,-0.05283746,-0.74852735,-0.16348605,0.047171906,-0.1505923,0.41040084,-1.082904,0.081197456,-0.13183844,-0.3452441,0.5881356,0.12014693,0.38368893,-0.19338101,0.0008092588,-0.15783626,-0.06470756,1.3295374,-1.5756879,0.1434216,1.1764616,0.12133746,0.08740486,-2.2059903,0.9253848,-0.32154185,-0.29826155,-0.23160797,1.4231372,-1.376622,-0.08667645,0.5088463,-0.30961686,0.69777876,0.25453612,-1.648396,-0.16541086,-0.5011044,0.60116535,0.017707458,1.7405246,0.044234183,-0.67582226,1.2447948,-0.0480774,-0.6262661,-0.7231022,-0.14883125,-0.23752964,-0.38979024,2.6209552,0.29191527,-0.27891323,-0.62207174,0.14024502,0.27099913,0.018301006,-0.40282074,1.9037216,0.78126264,-0.5764855,-0.9585878,-0.23043677,0.1967487,-0.081926025,0.48987293,0.24892238,-0.08283147,-0.2611199,0.38461286,-0.3037339,-0.25743484,0.29679215,-0.14876357,-0.31784832,-1.496171,-0.1717546,-0.22762325,0.2773098,-0.17424612,-2.8606071,0.55874825,-0.1801897,1.6954539,0.3439872,-0.30136904,-0.4152258,0.0170817,0.30800095,0.010589698,0.12041696,-0.3824384,-0.38804823,-1.2576396,-0.14681306,0.2485677,-0.2897028,0.18697608,0.5717789,0.3680783,0.51947945,-0.5390533,-0.1380637,0.075875014,0.50384235,-0.5295819,2.1889436,-0.078635514,0.09620676,-0.12283768,0.35099015,0.31142065,-0.059308574,-0.3476992,0.43600935,-0.0361022,0.52967936,0.8781854,-0.16700155,-0.17006525,0.17174192,-0.01880911,-0.19576597,-0.21756369,-0.5901222,0.13130333,0.6544016,0.5106661,0.08608272,-0.14510395,-0.20302679,-0.2710758,-0.42184067,0.7643752,0.13035622,0.25255904,-0.08246765,0.17048064,0.23508877,-0.99751616,0.25057203,0.44334483,2.2690432,-0.0534849,-0.10423806,-0.13582885,0.10728895,-0.052991215,-0.41842067,0.76415586,0.10125456,-0.010767369,0.28750923,0.1358891,0.435874,0.110651486,-0.36171693,-0.13724428,-0.31684962,0.058361065,-1.7118404,0.21164477,-0.13729672,-0.27340454,0.1390788,-1.1515493,0.6832196,-0.14102536,-0.40191588,-0.008874524,0.02944273,0.050306045,1.5998445,0.47549757,2.104073,0.25504082,-0.036959648,0.42161736,-1.2296952,0.5311513,-0.7572435,0.4612144,0.28120512,-0.13770714,-0.8848746,-0.011634275,0.3271387,0.24093588,0.217567,-0.3600732,0.2528961,-0.7403081,0.8856866,-0.012688739,0.92619705,0.7253271,0.1625509,0.5856813,1.5395236,0.09270203,-0.1454389,0.07689092,1.8674676,-0.16817006,-0.34473085,0.029550182,0.03879651,0.9584892,0.43216616,-0.12484593,0.054381285,-0.317301,-0.26466876,0.0030349377,1.8323433,0.1783532,0.120184064,-0.07069774,0.5389576,2.0268373,0.0035722833,-1.1465524,-0.8248072,0.5558415,-0.37352377,0.110263735,-0.052189134,0.039573297,-0.3048342,0.9829378,0.099207245,0.3181508,-0.54264367,-0.116625324,-0.20743147,0.2115746,-0.078204766,1.2686236,-0.13091804,0.46513027,-0.13335782,-0.06687246,-2.0508578,-0.06535807,-0.3628645,-0.25219026,0.25452277,-0.3025439,-0.1928412,0.15649813,-0.14973995,0.31311414,-0.022281677,-0.49602383,0.73587817,-0.20867115,0.39951032,0.51044846,-0.13065913,-0.2109325,-0.099145785,0.2639347,0.16777857,-0.049192198,-0.078599244,-2.1287575,-0.13518721,0.05101719,0.3870077,-0.15027374,0.31325358,1.1959276,-0.042129535,-0.38070458,0.99433994,-0.15494436,2.0489273,-0.16902019,-0.69208086,0.047187734,0.3058341,-0.34181616,0.82705927,12.818956,-0.087491214,1.5959332,0.7774832,0.36640823,-0.038270958,-1.5182414,0.21954167,-0.019404862,-0.07489669,0.16814362,0.024239223,-0.005332861,0.5426303,0.46947175,-0.10732302,-0.17158955,0.35561264,-0.42188057,0.13861951,-0.22725445,-0.20536691,0.69177264,-0.6573246,-0.27821988,-0.35250896,-0.30355865,0.04919892,-0.24902663,0.45555976,0.14841911,0.34109902,-0.006261843,-0.2617154,-0.19464588,1.6155239,0.02320386,-0.38675296,0.20795213,-2.0053208,0.16866064,-1.4500754,0.47602248,0.30537763,0.4594565,0.34288797,-0.66117173,0.18068685,0.4126265,-0.018842112,-0.06381734,0.6728238,0.18373722,0.3174946,0.25410467,-0.19600414,-1.1187268,-0.11413616,-1.1370679,0.24240813,-0.083883576,0.2663425,-0.15623942,-2.1043963,-0.32202995,0.4339602,-0.06394036,0.43142173,-0.43073654,0.11158632,2.1097484,1.5277895,0.17892836,-0.085489936,-0.8936899,-0.14672488,-0.31519014,-0.41706502,0.25284785,-0.28305477,0.24335557,0.08566771,0.22175893,-0.22483115,-0.169842,0.17724268,0.8031398,0.45533943,1.3078005,0.19033778,0.14217903,0.43109664,-1.4119316,-0.101893485,0.4418971,0.25507498,-1.6308784,-0.2008774,-0.14106317,0.4572427,0.026555289,-0.54863274,0.10164814,0.4590865,-0.6707252,-1.2689955,0.6682898,-0.07138282,0.36999574,0.022603001,-0.43282843,-0.40030548,0.7986335,-0.07285662,2.1514122,-0.22241774,-0.13881224,0.078608185,0.85417867,0.0034410637,0.069935374,1.4392757,-0.2630718,-0.32879847,-0.2173268,0.2584103,0.3985817,0.5348954,0.6263999,0.6069442,-0.06786955,-0.04432749,0.21837191,2.1130035,0.13837484,-0.077285476,-1.1845372,-0.057937756,-0.17938057,-0.7751424,0.11668341,-0.1903176,0.30502906,-0.42692453,-1.3634727,0.30880103,0.4251107,-0.10615753,-0.03256612,0.23196572,0.041420467,-0.015359506,0.5158725,-0.04506984,-0.11031246,0.084177405,-0.2926782,1.314785,0.7272631,-0.976562,0.7462216,-1.8106538,0.8342728,-0.30824292,-0.049312163,-0.075063035,0.25905555,-0.030787151,0.28680575,-0.7205209,0.2485192,-0.073945016,-0.29958206,1.2028091,0.08000457,-0.103345916,0.8776928,-0.12509549,-0.6195657,0.5668942
com.rafsan.inventory.controller.pos.ConfirmController;0;-0.18323901,0.0069182743,-0.017075894,0.3510772,0.27679735,-0.23488376,0.33149087,0.08805426,0.26166308,-0.5283862,0.13563854,0.29763624,-0.19816983,0.04197851,0.66518956,-0.0490895,-0.23831259,-0.15069646,0.078708574,-0.45440114,-0.11034823,-0.12662664,0.32055932,0.08862792,0.2112889,-0.021185815,0.5085795,0.60481215,0.10092297,1.012836,-0.18908957,-0.12680043,2.165211,-0.1116018,0.12887473,0.047559842,-0.020814609,-0.08834528,0.28553241,0.19685967,-0.23163247,-0.2008138,-1.261529,-0.034401476,0.2830277,-0.1281276,0.097628504,0.6118525,0.17065075,0.21971455,-0.11126288,-0.1451579,-0.8163755,-0.047627024,-0.06837974,0.58374906,-0.9603046,0.27701288,0.07302013,-0.21498969,-0.41776413,-0.167425,0.12359961,-0.16345178,1.8007498,-0.20943484,0.8669876,1.5727427,0.30680463,-0.37621552,-0.19284582,0.438126,0.1475331,-1.1154029,-0.7007005,-0.29724836,-0.2334058,-1.3183441,-0.7415955,0.16561072,0.33826935,0.15668723,-0.16765085,0.24522173,0.22827643,-0.5541041,0.02883055,-0.0017532599,-0.8960694,0.4250781,0.27177498,-0.14288056,1.2940532,0.11996423,0.45460024,0.4719093,0.07400761,-1.2688227,-0.28610903,-0.36754,0.26242876,-0.76253414,-0.49314886,-0.84937215,0.30964953,-0.024961066,0.5750396,-0.23067561,-0.14787355,-0.17929879,0.23925403,0.31986853,0.052008282,-0.17489114,-0.038790397,0.039654456,0.19938162,0.19529028,-0.018011112,0.37152493,-1.4731187,0.00080210343,-0.47849286,0.8592169,0.09235548,-9.5587224e-05,-0.058268376,-0.29062265,0.49582368,0.17694151,-1.7204158,-0.7788744,-0.1672509,0.027176585,0.38831526,-0.039895397,-0.4281068,-0.12740491,-0.29355025,0.21918772,-0.7215297,-0.25969997,0.2066274,0.25936982,0.1423758,-0.018532481,0.2581371,0.04725389,0.25967774,-0.29693705,-0.89302826,-0.35598406,1.5839751,-0.4389997,-0.33544213,-1.2058164,0.41142675,-0.66371155,-0.36185414,-0.98234576,0.35625464,-0.19547237,0.21850067,0.7621144,0.29103622,0.6258621,0.16576849,-0.6144831,-0.17928341,0.43258724,-0.20714776,-0.4838436,-0.9029638,0.3955418,-0.066278376,0.49131316,-0.0680552,0.38134986,0.190352,2.1852417,-0.10232504,0.122694716,0.15058479,-0.045374926,-0.17749779,0.22079682,-0.48382458,-0.089672595,0.15366957,0.03212762,-0.0414744,0.07700702,0.052268907,-0.09990835,0.04530476,-0.11226156,0.13869207,0.12617472,1.5904255,-0.27184373,-0.0906261,0.04876552,-0.2750001,-0.17889306,-0.3570259,0.5574851,-0.22765179,0.31193775,0.59477144,1.2341735,2.2480016,0.40266228,0.29387963,-0.28815034,-1.4540374,0.24763402,-0.12694818,-0.07073663,-0.12389134,-0.38918307,-1.497889,0.24073598,-0.13964134,-0.5819421,0.12684582,0.49234322,0.019246502,0.24487877,-0.0923934,-0.037555154,0.13931444,-0.0013895296,0.1900714,0.39611536,-0.72135764,-0.065935336,-0.04934395,-0.19926432,-0.33783323,-1.5111519,-0.1939858,-0.1560963,0.1420296,0.52581966,0.44240612,-0.7796829,-0.2602416,0.049129955,-0.20849213,0.2924851,-0.11723761,-0.5406743,-0.016527709,0.18174112,-0.37887967,-0.18035167,0.1289869,0.2849326,-0.055860154,2.6986265,-0.015980385,0.53643435,0.05959583,-0.5935879,-0.014903933,-1.2662551,-0.24801907,-0.15252104,0.7981752,0.6451659,1.7949026,0.14557755,0.26598266,0.010471351,-0.24058026,-0.28135198,0.768132,-0.2590049,-0.8669006,0.004633816,0.031948853,0.4416057,-0.22895998,0.18674326,0.25535378,-0.010151698,-0.5601604,-0.42306912,-0.130539,0.22295177,0.7396226,-0.78583413,1.5105572,-0.13464032,-0.2666366,-0.11335372,0.20452477,0.39196968,0.024394782,-0.2828059,-0.19552757,0.50091416,0.102795646,-0.4986517,-0.71427244,-0.07773539,-0.72649014,-0.15742582,0.061464842,-0.1201386,0.41824162,-1.0286678,0.03581807,-0.13164632,-0.33950934,0.52337056,0.048557542,0.34534466,-0.12180509,-0.027728766,-0.12600136,-0.055774946,1.2340579,-1.5591824,0.15413833,1.1614506,0.14732578,0.050661955,-2.1494856,0.8568704,-0.28078088,-0.23749071,-0.16582161,1.3757716,-1.3546923,-0.13052902,0.5728651,-0.3189645,0.6765145,0.17137368,-1.513841,-0.13098024,-0.5196955,0.5724678,0.050503176,1.580919,0.1340907,-0.5793886,1.3203335,0.057351127,-0.53861815,-0.76105773,-0.18442085,-0.2325894,-0.30884627,2.6063318,0.32159388,-0.15517895,-0.5683499,0.02241601,0.4211344,0.05482339,-0.38292983,1.8395286,0.7742444,-0.5599324,-0.938715,-0.22818464,0.17126355,-0.03916291,0.41405907,0.2247359,-0.09193441,-0.22557515,0.3834171,-0.30785453,-0.19713125,0.27077028,-0.08459734,-0.22724354,-1.4306889,-0.16587727,-0.17367087,0.29126215,-0.14533669,-2.7449837,0.49685815,-0.13112047,1.6822703,0.33052045,-0.28328305,-0.37971216,0.10600679,0.22727807,-0.01148325,0.11367595,-0.41563177,-0.3165523,-1.1292889,-0.22283575,0.14993078,-0.29269928,0.17949729,0.4678375,0.27330184,0.4527492,-0.5757703,-0.120304435,0.13842052,0.46856755,-0.47838062,2.2350178,-0.10097474,0.08296495,-0.2029788,0.3123153,0.38423133,-0.024126088,-0.2540493,0.41999793,6.5956265e-05,0.49561417,0.9471657,-0.11972214,-0.14095663,0.23122504,0.025436372,-0.24185237,-0.22812024,-0.6193836,0.08763766,0.63883567,0.477,0.124109864,-0.16254474,-0.26175106,-0.28981796,-0.37817127,0.7380249,0.10030466,0.20551088,-0.028903782,0.21191695,0.2806882,-0.9641516,0.30650175,0.43892604,2.1011572,-0.07967063,-0.0746933,-0.047674645,0.07603344,-0.06251628,-0.29684752,0.8211436,0.06011689,0.034381993,0.26224524,0.09595929,0.47839588,0.06035199,-0.25627044,-0.1275723,-0.33971602,0.07937387,-1.7407634,0.18390027,-0.12918766,-0.3160096,0.15100522,-1.2120694,0.6819701,-0.16424942,-0.4138857,0.0072611086,0.006928522,-0.015344653,1.5683599,0.37297532,2.0566368,0.18757418,-0.0020270273,0.4723547,-1.1768701,0.5121589,-0.69898087,0.3906817,0.31807595,-0.21234743,-0.8041924,-0.1436905,0.26379684,0.22244468,0.23165084,-0.3228994,0.27889323,-0.6702794,0.838888,-0.01906462,0.92446053,0.6185918,0.17476541,0.6392776,1.5815439,0.06679853,-0.1257227,0.059414573,1.7867565,-0.04786738,-0.3526191,0.018746585,-0.084075354,0.8935021,0.4599954,-0.106235676,0.14253233,-0.28720614,-0.23546928,0.04383757,1.7450775,0.11783932,0.12671518,-0.10178314,0.49334118,1.9109392,-0.011016287,-1.1650953,-0.7003634,0.44990838,-0.373725,-0.011068521,0.034154624,0.0026694937,-0.32912865,0.9130392,0.03411229,0.26940346,-0.5689704,-0.012690939,-0.22644162,0.25569722,-0.07810363,1.2077491,-0.15925658,0.45607787,-0.20534185,-0.008338103,-1.9710237,-0.08341663,-0.18098336,-0.28220096,0.03340156,-0.24480505,-0.11146918,0.093541555,-0.19657105,0.32388192,-0.024244098,-0.3992407,0.7146852,-0.28383264,0.25624567,0.39835978,-0.18975472,-0.11540393,-0.033305936,0.32213664,0.11793466,-0.09130609,-0.10357329,-2.1189268,-0.08464549,0.07907674,0.3363934,-0.15411597,0.27884245,1.1860838,-0.046812914,-0.33366433,0.95266074,-0.2078844,1.9817872,-0.19555856,-0.7275721,0.07146487,0.27997607,-0.35123926,0.8717607,13.321519,-0.14409038,1.5179932,0.7886903,0.37603968,0.06678916,-1.5360423,0.15886137,-0.07827044,-0.051008455,0.07656463,-0.060028147,0.0641662,0.43623263,0.42327374,-0.17406234,-0.2205199,0.3821578,-0.32796898,0.11773184,-0.27212864,-0.09788023,0.739488,-0.66880774,-0.23700286,-0.3613043,-0.22152045,0.1417661,-0.28133976,0.44177055,0.15732588,0.36126536,-0.10798168,-0.24290195,-0.24390414,1.6571776,-0.020535672,-0.41379538,0.2368415,-2.0292702,0.24449083,-1.354225,0.4380561,0.28117585,0.4031752,0.27714604,-0.7140907,0.23092085,0.33229256,-0.01584221,-0.068383165,0.63603234,0.21825564,0.29933512,0.24785581,-0.17478803,-1.1133256,-0.07275361,-0.9415127,0.18542224,-0.087499,0.2968667,-0.05760302,-2.1127243,-0.36695647,0.36574408,-0.06369411,0.4006914,-0.39100605,0.09270079,2.1222758,1.5678921,0.14187425,-0.14632209,-0.81488466,-0.15984096,-0.27898538,-0.4118641,0.24536207,-0.2504761,0.24401352,0.045063213,0.12538613,-0.26459116,-0.14404349,0.17907682,0.84544134,0.4662882,1.2729547,0.21446007,0.1660612,0.44403374,-1.4366581,-0.023650995,0.29432538,0.22959872,-1.6552627,-0.16004176,-0.048201036,0.41877422,0.008687822,-0.5122329,0.16331117,0.42672276,-0.6490663,-1.2237258,0.6210805,-0.16189003,0.3091378,0.027887069,-0.4736405,-0.34561986,0.67665756,-0.09307107,2.1445446,-0.15639064,-0.096783265,0.04593141,0.76823324,0.039879575,0.055668313,1.3725212,-0.28195465,-0.30605096,-0.17198972,0.3232762,0.3529886,0.5118251,0.4933351,0.56484294,-0.14766578,-0.021449002,0.20573509,2.194561,0.13766593,-0.09570737,-1.1757209,-0.11689905,-0.1437563,-0.74307674,0.15482163,-0.2278077,0.24476421,-0.44458303,-1.3674634,0.20114782,0.43298984,-0.09290969,-0.09425988,0.15454684,0.0037545534,0.051485386,0.5534266,0.02478387,-0.051931545,-0.04262917,-0.29719537,1.326575,0.68626106,-0.9657645,0.64733434,-1.7760866,0.84423625,-0.21764508,-0.104194574,-0.048749074,0.2406843,-0.04610928,0.25651708,-0.67842925,0.14345586,-0.03617408,-0.34157553,1.1713687,-0.0046244375,-0.049207967,0.8076516,-0.12588136,-0.62736154,0.56205857
com.rafsan.inventory.controller.pos.InvoiceController;0;-0.20837227,-0.041444898,-0.08726449,0.36419192,0.24050753,-0.31903395,0.3517608,0.027156752,0.25682777,-0.5677999,0.08771573,0.26995328,-0.17181103,0.06305896,0.59754986,0.0063857557,-0.3210903,-0.18917733,0.07656123,-0.5053016,-0.15583815,-0.10979911,0.30252114,0.10680126,0.09645937,-0.025397038,0.4055249,0.6431571,0.11897774,1.0524248,-0.1022612,-0.08353262,2.2397015,-0.016947147,0.17892006,0.009088091,-0.09559535,-0.115158714,0.33121538,0.15784481,-0.21152353,-0.19386956,-1.2400694,-0.045529455,0.34873337,-0.13272941,0.066464,0.6382719,0.24284425,0.2536486,-0.099344835,-0.23202184,-0.7508782,-0.13890779,-0.07879132,0.56859934,-0.90856934,0.313307,0.063212715,-0.21424353,-0.38463354,-0.10120209,0.18520202,-0.17524564,1.8054068,-0.15493873,0.84995526,1.6219342,0.3365802,-0.35686326,-0.18898517,0.42366296,0.21852715,-1.1155648,-0.7427075,-0.2694487,-0.18079373,-1.3719143,-0.6925158,0.18823162,0.334191,0.12263434,-0.32024425,0.2538411,0.17687832,-0.6155369,0.028315073,0.033762544,-0.9446106,0.35928494,0.26163706,-0.17841157,1.3125999,0.12181207,0.43923122,0.40348357,0.024446655,-1.3012254,-0.33336446,-0.30002812,0.31064644,-0.8426321,-0.579553,-0.8160879,0.3084937,-0.014329575,0.5280572,-0.18789198,-0.1264796,-0.18669286,0.22361255,0.38455015,0.09191593,-0.22684702,-0.10606933,0.0621292,0.15116121,0.18154684,-0.008932302,0.3898118,-1.4663522,-0.037932668,-0.43893942,0.8530119,0.13292727,0.005297169,-0.0056050667,-0.3440444,0.4333107,0.08287338,-1.6769232,-0.7806282,-0.1926812,0.04886929,0.38277045,-0.09309364,-0.3431689,-0.1243361,-0.29160875,0.14276634,-0.72980005,-0.25553045,0.2019066,0.28863052,0.16298927,-0.06349769,0.25320634,0.080865994,0.34529558,-0.33674225,-0.9228848,-0.3187637,1.6871536,-0.42093602,-0.3397749,-1.248275,0.58961827,-0.60132617,-0.4221117,-1.0360459,0.41767853,-0.16051653,0.23518857,0.73019046,0.2800857,0.6445875,0.1532757,-0.58994883,-0.21192071,0.4922193,-0.19735454,-0.46622473,-0.92367,0.447251,-0.013665426,0.51101077,-0.008703923,0.33407077,0.17133602,2.1537354,-0.054576714,0.17186555,0.17309344,-0.036212444,-0.266832,0.1715733,-0.50338066,-0.06173023,0.1806962,-0.004034014,0.0059322244,0.052567936,-0.012476412,-0.09732866,-0.061069913,-0.1351292,0.16282365,0.114742294,1.6144708,-0.28551656,-0.03299393,0.06595914,-0.24066213,-0.28487498,-0.26014778,0.5396274,-0.20447524,0.2970578,0.5116254,1.3406087,2.2141552,0.33799085,0.27737653,-0.25289682,-1.4011436,0.084074356,-0.08381306,-0.104722664,-0.19258654,-0.42831087,-1.4876157,0.24803786,-0.0652376,-0.57889855,0.11418529,0.5974164,-0.03453771,0.23860464,-0.0626153,-0.004364945,0.12964329,-0.015994087,0.11912274,0.4162349,-0.73016036,-0.025630843,-0.04672823,-0.11158975,-0.32553357,-1.5137632,-0.20884354,-0.15327647,0.12282027,0.5335707,0.5262713,-0.7286128,-0.26773328,0.07858356,-0.2415111,0.2430476,-0.1755827,-0.5408974,0.004997565,0.2254633,-0.42476898,-0.14481029,0.089368775,0.31955263,-0.06343514,2.7204885,0.0079512205,0.59391767,0.06574791,-0.66701126,-0.03664596,-1.2019879,-0.26020443,-0.16723774,0.78403723,0.6279646,1.8841784,0.16548894,0.23622699,0.03531766,-0.2791402,-0.34841153,0.8141779,-0.28446352,-0.86188567,-0.039354406,0.05966077,0.46929875,-0.23775895,0.16787928,0.27787977,0.062608175,-0.6380695,-0.37475866,-0.0813932,0.20397103,0.75809395,-0.75523305,1.4125427,-0.15838656,-0.2345647,-0.10162773,0.23046997,0.34544796,0.11516764,-0.31177047,-0.19742344,0.58267534,0.14488505,-0.42827183,-0.6856686,-0.023793813,-0.738177,-0.12881523,0.05076121,-0.16062374,0.41388756,-1.1025001,0.058714002,-0.09986903,-0.32968014,0.48859873,0.124577686,0.44140816,-0.13181949,-0.060833007,-0.15405479,-0.0659129,1.2911193,-1.5649339,0.18093577,1.2071373,0.1676739,0.035005786,-2.150788,0.9124629,-0.2563917,-0.3155923,-0.22863233,1.4444095,-1.3642966,-0.13953993,0.47667828,-0.29091948,0.6531786,0.21323757,-1.5662806,-0.16713333,-0.49434024,0.5779889,0.020825323,1.6889206,0.057427168,-0.6186451,1.2564294,-0.02020214,-0.6369218,-0.75924295,-0.15583058,-0.33469003,-0.41506514,2.6231549,0.28316504,-0.24455003,-0.5848593,0.091276295,0.31239548,0.020104498,-0.3602431,1.9128287,0.8121003,-0.57019603,-0.8850582,-0.20378229,0.16300893,-0.10845746,0.4678971,0.20785105,-0.058925547,-0.2853373,0.3974668,-0.25224492,-0.1924058,0.28812772,-0.16420653,-0.27723765,-1.4170192,-0.14479062,-0.24154282,0.29842114,-0.19140196,-2.8275886,0.54731524,-0.1878398,1.6834669,0.39832354,-0.24860139,-0.44031024,0.049135517,0.3111392,-0.05425384,0.11341752,-0.4302435,-0.39094016,-1.1406577,-0.21244948,0.23929615,-0.27000433,0.16633762,0.4990167,0.35859197,0.4788192,-0.5568851,-0.1444394,0.070221804,0.46492735,-0.55543476,2.1979625,-0.0840365,0.08619999,-0.19092344,0.31481454,0.32756537,-0.01603586,-0.30422258,0.4836058,-0.020834243,0.5061892,0.85170186,-0.15930547,-0.124447145,0.17350674,0.020424854,-0.2202549,-0.2021378,-0.5917985,0.09994108,0.6807953,0.46699706,0.09073324,-0.11100266,-0.26044273,-0.2857293,-0.41357803,0.74969447,0.10541345,0.26394933,-0.056994252,0.16706666,0.20797315,-0.9732258,0.27473557,0.44574124,2.1945288,-0.052788418,-0.103513144,-0.06903813,0.14199075,-0.034130014,-0.27291107,0.7597674,0.104506895,-0.05409977,0.2336063,0.15839645,0.50303936,0.13097201,-0.3525412,-0.18522939,-0.29664114,0.056080423,-1.8296337,0.21352792,-0.15787295,-0.28037444,0.1345959,-1.1725534,0.63194144,-0.12021296,-0.42587686,-0.0060381354,0.031324115,-0.034956016,1.6152512,0.3979849,2.0826004,0.15598162,-0.021528829,0.41416663,-1.2067893,0.5412846,-0.68743706,0.46572113,0.35460594,-0.13845083,-0.7941345,-0.050868608,0.35425514,0.21747299,0.18963292,-0.33556277,0.24741475,-0.6790555,0.89333355,-0.02170296,0.9798067,0.6335454,0.16447258,0.6954626,1.5230929,0.046421576,-0.19324325,0.034650832,1.8719292,-0.052304585,-0.30254635,0.013296142,-0.08721782,0.94679517,0.44252652,-0.13735749,0.09984268,-0.29884675,-0.27428192,0.0018539324,1.791852,0.12907799,0.11220181,-0.101267084,0.5534976,1.9828265,0.0125905145,-1.1944774,-0.75820565,0.5934666,-0.3430873,0.09575684,-0.019400317,0.03432889,-0.3214814,0.99187297,0.08690846,0.27845693,-0.57998097,-0.05520572,-0.2518855,0.17666975,-0.05985772,1.3104535,-0.15296602,0.56598794,-0.1487203,-0.086133204,-2.0220337,-0.10584147,-0.274667,-0.2607267,0.10489843,-0.24687394,-0.18676046,0.1493706,-0.07630816,0.30944824,-0.007716739,-0.47925448,0.62987566,-0.296189,0.39910787,0.46542484,-0.10363452,-0.23702738,-0.055931427,0.2957628,0.18710145,-0.07712617,-0.08736968,-2.1696737,-0.11916447,0.09077877,0.3769154,-0.10115192,0.2611619,1.1691281,-0.09379126,-0.32869315,0.9594963,-0.1514661,2.0622685,-0.164439,-0.7424856,0.04303196,0.24168625,-0.31254253,0.897711,12.939807,-0.082114294,1.5556843,0.7446354,0.3524853,0.091847345,-1.4912635,0.16903189,-0.050863255,-0.081091955,0.12183869,-0.0391069,0.05033066,0.4927342,0.45686603,-0.14758134,-0.16530284,0.33111128,-0.38183084,0.08058151,-0.24722846,-0.18579026,0.7282133,-0.6541661,-0.23333904,-0.31861916,-0.22645016,0.08179096,-0.29031923,0.40412718,0.19658199,0.32863578,-0.04653389,-0.22243574,-0.20506437,1.6198227,-0.03383865,-0.39889163,0.14515103,-2.0188813,0.25338325,-1.4123313,0.484608,0.3284438,0.4007059,0.32890266,-0.68436563,0.1471031,0.3184134,-0.007813241,-0.066228285,0.67652327,0.20113179,0.32727835,0.2710023,-0.20039573,-1.0923277,-0.12531921,-1.1399814,0.19441211,-0.06643669,0.23729308,-0.14329198,-2.1075506,-0.33142385,0.38711047,-0.02008865,0.37422466,-0.32749116,0.14192867,2.1016998,1.5958538,0.16251996,-0.094022185,-0.88788813,-0.17666814,-0.28383708,-0.38880548,0.21501894,-0.27457386,0.20363745,0.038457002,0.19101761,-0.30134594,-0.10827285,0.13461277,0.7949658,0.48414493,1.2838972,0.21397758,0.13622941,0.38772142,-1.4148358,-0.08770439,0.3637992,0.24110322,-1.6628698,-0.2105538,-0.08209464,0.46602216,0.025494913,-0.5274773,0.16924763,0.4482842,-0.65039694,-1.1955755,0.64361846,-0.1532744,0.3865253,0.032398727,-0.42077985,-0.396933,0.7505749,-0.17274079,2.134823,-0.2586581,-0.14350244,0.071128346,0.7999426,-0.0922066,0.11197716,1.512834,-0.22101316,-0.35066628,-0.2319707,0.30523974,0.38760298,0.51321876,0.59610385,0.6378484,-0.06993547,-0.02581264,0.21873923,2.107251,0.12818943,-0.120657004,-1.1623102,-0.057756215,-0.15938127,-0.73228633,0.20352364,-0.19758578,0.25029397,-0.42565966,-1.3598669,0.32321674,0.3810659,-0.0995089,-0.031373404,0.20524684,0.03532348,-0.01293751,0.5252235,0.031200659,-0.086209334,-0.03858621,-0.32601374,1.3488005,0.67055005,-0.98482066,0.687268,-1.8193495,0.8140441,-0.30891353,-0.096138455,-0.09482398,0.23383999,-0.01681842,0.3090835,-0.76083815,0.25419608,-0.10215862,-0.320302,1.197355,0.058851264,-0.08899328,0.846011,-0.13456656,-0.62308896,0.54367137
com.rafsan.inventory.controller.pos.PosController;0;-0.17987186,-0.042641345,-0.05210807,0.37448567,0.24595097,-0.27756184,0.34556717,0.06813008,0.23392479,-0.54051435,0.116148725,0.24194261,-0.18597816,0.04238514,0.6431439,-0.023610603,-0.32914272,-0.17013368,0.0861105,-0.47280127,-0.1264914,-0.0984447,0.25909495,0.10446234,0.10689847,-0.039778203,0.47179294,0.6420614,0.1499253,1.0215336,-0.113233246,-0.09445735,2.2822037,-0.0422993,0.16062374,0.016544778,-0.061591946,-0.12294181,0.31535065,0.12171672,-0.2322172,-0.16776755,-1.2954967,-0.06637311,0.3146439,-0.14115986,0.05279841,0.6160396,0.25084555,0.2945847,-0.085563496,-0.1972558,-0.8091695,-0.1116233,-0.06615788,0.5602227,-0.8911421,0.34843868,0.08482609,-0.21740894,-0.42667842,-0.11005422,0.18317205,-0.18793312,1.7820816,-0.17509569,0.8766567,1.6160126,0.30574322,-0.34719414,-0.16536534,0.43676615,0.23185363,-1.1339968,-0.75349945,-0.27101758,-0.19224611,-1.4898965,-0.7210237,0.15885015,0.37129146,0.09773837,-0.35562018,0.26653618,0.17577901,-0.68871707,0.041276917,0.04976394,-0.9635397,0.39662302,0.25064746,-0.17434959,1.3107777,0.13042817,0.42535657,0.42652884,0.06480103,-1.3444513,-0.36637577,-0.29805687,0.32304016,-0.8449464,-0.5784494,-0.85897124,0.32988268,-0.021886116,0.508831,-0.17360426,-0.12507203,-0.14481512,0.2468256,0.40493536,0.1153607,-0.20847969,-0.10410037,0.052857853,0.1459598,0.21916863,0.037614845,0.36137784,-1.5150665,-0.01681912,-0.4103745,0.89048517,0.11209439,0.000247718,0.0091565605,-0.33811134,0.4595191,0.08290662,-1.7260063,-0.74826133,-0.1783469,0.055460073,0.37695044,-0.049189996,-0.37723535,-0.104481496,-0.27184802,0.17105815,-0.7451938,-0.2557114,0.22481295,0.30653912,0.16850898,-0.059677124,0.2214884,0.037673898,0.35675603,-0.29779285,-0.9121059,-0.37393707,1.686574,-0.44014245,-0.3060004,-1.3071574,0.6175874,-0.6304802,-0.43660417,-1.0112368,0.42672604,-0.12196001,0.2485929,0.72293466,0.3232995,0.6576549,0.13121715,-0.6130148,-0.245207,0.45311508,-0.20394793,-0.43797272,-0.8983456,0.47917548,-0.026888097,0.52292526,-0.051040996,0.30652165,0.16698578,2.1516197,-0.022941481,0.17649034,0.20867538,-0.042326543,-0.22009845,0.17477536,-0.5077265,-0.06497226,0.1587846,0.0034890263,-0.018724263,0.056336544,-0.012420375,-0.060702007,-0.083771385,-0.1568389,0.1498321,0.10521648,1.591906,-0.27246696,-0.05384004,0.07446305,-0.2041941,-0.26871032,-0.24993381,0.53914976,-0.20436743,0.29443887,0.5522878,1.3518481,2.250353,0.3328194,0.28209126,-0.2376808,-1.4210111,0.13083963,-0.09778924,-0.13314624,-0.18162851,-0.44850603,-1.4922975,0.19644828,-0.08513813,-0.5591892,0.13704588,0.5869347,-0.021140922,0.24116412,-0.027415102,-0.009741114,0.13117722,0.011813633,0.132026,0.4395141,-0.794536,-0.037144843,-0.0070691914,-0.17761171,-0.33882803,-1.5000173,-0.19694206,-0.16444115,0.105014965,0.5516411,0.5195892,-0.7220298,-0.22705981,0.05777224,-0.223919,0.24403067,-0.15748188,-0.5020893,-0.004927351,0.25205484,-0.41048336,-0.19512768,0.11388795,0.4012963,-0.06805641,2.7560334,0.0007733739,0.6085597,0.08331143,-0.69222933,-0.0179266,-1.2306564,-0.27063662,-0.21080089,0.7716795,0.58695686,1.8571675,0.12604965,0.27036488,0.040749907,-0.29871604,-0.32077253,0.8004893,-0.2682668,-0.93407524,-0.038992442,0.094518535,0.42686477,-0.21117547,0.14759178,0.26701468,0.004329243,-0.63540536,-0.35156074,-0.09174104,0.20268305,0.7787449,-0.79159206,1.4493345,-0.17284808,-0.24345884,-0.09017174,0.19206418,0.3814637,0.08075225,-0.28886998,-0.2152013,0.56805146,0.1534658,-0.43468946,-0.70881784,-0.06947364,-0.72311914,-0.15835299,0.07936053,-0.12769243,0.40699005,-1.1227095,0.06982749,-0.13425836,-0.3318951,0.55784637,0.1289033,0.39664453,-0.18262708,-0.054920882,-0.12383796,-0.06251367,1.2595599,-1.582394,0.15225793,1.1719308,0.115859464,0.046358705,-2.1766877,0.903355,-0.2469441,-0.28738466,-0.23890474,1.4491589,-1.3640609,-0.13524523,0.49916887,-0.33153763,0.70142996,0.2084045,-1.6107681,-0.16473487,-0.49570665,0.55032474,0.0055364855,1.7107847,0.064398326,-0.6295101,1.2812722,-0.039341744,-0.63191783,-0.7488478,-0.1699147,-0.29298177,-0.40227503,2.6443303,0.29765618,-0.25422722,-0.6367796,0.10586878,0.32881698,0.038386032,-0.3665807,1.9401405,0.8087446,-0.59915835,-0.94267255,-0.21119921,0.18727353,-0.10495143,0.46028286,0.21262221,-0.06924999,-0.24488764,0.41454992,-0.27293685,-0.20986807,0.29858452,-0.11795261,-0.2904151,-1.470124,-0.157556,-0.23294178,0.30809674,-0.15132177,-2.8325837,0.56315166,-0.1570279,1.6962942,0.38739997,-0.29958832,-0.41536388,0.009137738,0.32392222,-0.045523662,0.121228315,-0.45796204,-0.38485834,-1.1909918,-0.20379052,0.26469976,-0.28570327,0.18172996,0.52411544,0.35330722,0.46422535,-0.5129123,-0.14460076,0.070102505,0.42042285,-0.5236514,2.2289522,-0.11206994,0.057614297,-0.17916703,0.34558982,0.3494817,0.010934202,-0.32728434,0.39733964,0.0012370773,0.5009473,0.87117827,-0.13581362,-0.10951175,0.1891876,0.02017966,-0.20047101,-0.26210448,-0.5621349,0.12240195,0.6586527,0.5056934,0.12983838,-0.12108123,-0.2631127,-0.27365604,-0.39689857,0.7670574,0.12261983,0.24914458,-0.07565937,0.20112486,0.21414948,-0.9754225,0.26143712,0.4972082,2.2377152,-0.05190487,-0.10760872,-0.082410544,0.087152705,-0.015866492,-0.30816177,0.7620678,0.09677641,-0.010768947,0.2310228,0.082613155,0.46780849,0.15106109,-0.3442436,-0.16760926,-0.3050347,0.104509965,-1.7651937,0.20907481,-0.096884735,-0.2926743,0.10535914,-1.2102926,0.6179007,-0.12373867,-0.4023303,0.026019579,-0.002914661,-0.021036249,1.6109464,0.41019195,2.1310115,0.16406988,-0.036061484,0.38601694,-1.2271483,0.56333214,-0.6682205,0.48318654,0.32439047,-0.14050403,-0.8181717,-0.045924656,0.35267717,0.21403234,0.18916145,-0.36392298,0.23905198,-0.72454727,0.88965416,-0.05121653,0.9836768,0.6557401,0.19936094,0.65414965,1.5606906,0.0568074,-0.20288916,0.056875706,1.8888171,-0.06641768,-0.30698696,0.028012808,-0.070972085,0.9524673,0.4504333,-0.14552024,0.060583413,-0.2690438,-0.2811544,-0.022973923,1.8381323,0.18838042,0.1319544,-0.094430946,0.5592915,2.0145438,8.2651524e-05,-1.1734159,-0.80776423,0.56585884,-0.38577956,0.0991863,-0.05225873,0.03666809,-0.33724555,0.97845334,0.025440525,0.28601235,-0.5563058,-0.10486065,-0.23845339,0.23496273,-0.044135213,1.269247,-0.16069138,0.5274646,-0.1620171,-0.0678401,-2.0429363,-0.093724,-0.3194191,-0.28761545,0.2348464,-0.26039225,-0.23750529,0.1764929,-0.09971996,0.32065433,-0.021795895,-0.44693756,0.70085526,-0.25335652,0.36132604,0.46653897,-0.12078842,-0.20737886,-0.042602323,0.30150777,0.13026918,-0.060148068,-0.08542441,-2.1637583,-0.0933657,0.1037153,0.38319358,-0.17303866,0.26999784,1.2038856,-0.0962884,-0.32878911,0.95845187,-0.13586487,2.072807,-0.18116443,-0.7099593,0.04132569,0.23870511,-0.3171007,0.8990946,12.693647,-0.080025814,1.5841126,0.74064434,0.36666378,0.06651569,-1.5028714,0.18144356,-0.023387495,-0.08998891,0.14190154,-0.03333091,0.017067367,0.45642218,0.45462984,-0.14065461,-0.18457639,0.36506268,-0.40802354,0.102432765,-0.2312214,-0.17373765,0.74895376,-0.65927505,-0.2274636,-0.37565988,-0.24612336,0.083400264,-0.29457784,0.41799912,0.17789748,0.34506634,-0.05088083,-0.22131638,-0.19920485,1.6286633,0.00685707,-0.40934604,0.14234732,-2.0336947,0.22104211,-1.4349124,0.48345345,0.2994913,0.42559877,0.33787656,-0.68057096,0.15078168,0.3802819,0.028559824,-0.04968265,0.65989655,0.18845107,0.3159873,0.25842178,-0.18743119,-1.1206484,-0.10096546,-1.0987059,0.1479508,-0.07176514,0.24199803,-0.1284931,-2.1232924,-0.359868,0.3954448,-0.038581572,0.40353146,-0.31834856,0.1651103,2.1454196,1.6171954,0.1718665,-0.105643466,-0.886834,-0.16132294,-0.30332243,-0.3762452,0.21954021,-0.2795778,0.20374414,0.0802164,0.1621727,-0.24760604,-0.12254357,0.13039091,0.8074295,0.44759735,1.2779171,0.2332664,0.13124509,0.36258107,-1.4473754,-0.04835137,0.35292208,0.24616222,-1.6608489,-0.18728821,-0.07620625,0.43403244,0.035931073,-0.5049555,0.12324417,0.4398424,-0.65821916,-1.239104,0.67294145,-0.12393542,0.39551783,0.022848269,-0.41716832,-0.39926302,0.7743741,-0.10479619,2.1199913,-0.25372046,-0.13965733,0.075482585,0.7916448,-0.04134936,0.097470246,1.5121695,-0.24882121,-0.35102162,-0.23690316,0.30856225,0.39580852,0.529493,0.6228149,0.64402366,-0.020043787,-0.012618001,0.20758422,2.1393027,0.124862276,-0.08948095,-1.2132604,-0.06296715,-0.19514975,-0.74530125,0.17162232,-0.18026327,0.24743733,-0.42462388,-1.3945414,0.27337924,0.3799447,-0.1123033,-0.0599065,0.21345174,0.008387627,0.006753102,0.5050249,-0.0001628898,-0.069614306,0.057522066,-0.3137969,1.326524,0.676227,-0.98673344,0.7208884,-1.858275,0.84956676,-0.31080052,-0.08279505,-0.10787938,0.21869504,-0.03217908,0.29374266,-0.74619836,0.22400284,-0.08614566,-0.33075464,1.1900451,0.06705496,-0.07114692,0.8236389,-0.12133972,-0.58150136,0.52792364
