net.jforum.actions.extensions.TopicWatchExtension;0;-0.0762571,-0.115982525,-0.1347728,0.4059496,0.17673212,-0.27516305,0.33253092,-0.09732365,-0.007624382,-0.6112734,0.28905192,0.26953337,-0.10197844,0.03671863,0.5714574,-0.11369239,-0.35376677,-0.11483224,0.25231865,-0.47874177,-0.099900864,0.032749172,0.20169824,0.07321084,0.29329818,0.0730503,0.5276386,0.59474945,0.3072262,1.0657405,-0.11299078,-0.139765,2.3031392,-0.19659796,0.09579875,0.05932606,0.015273152,-0.2991147,0.30254024,-0.110190764,-0.17989084,-0.13382757,-1.3413765,-0.086343564,0.42031172,-0.166289,0.14037816,0.5663114,0.34438673,0.22900489,-0.11538532,-0.24666512,-0.85170054,-0.0769813,-0.20525965,0.4703551,-1.0073571,0.21687928,0.2525647,-0.03564885,-0.32150486,-0.21491148,0.21546164,-0.09728588,1.863148,-0.22267917,0.8539721,1.7909491,0.28802314,-0.5019593,-0.18623807,0.41175717,0.07360594,-1.062764,-0.48688775,-0.25693434,-0.20122331,-1.6013243,-0.6714436,0.051493753,0.32797682,0.11484128,-0.22849908,0.30034858,0.21974769,-0.7105024,0.10142636,0.015019601,-1.1167593,0.5217608,0.19855127,-0.018406421,1.5008701,0.14026073,0.33764154,0.45944607,0.090081275,-1.4210455,-0.29304522,-0.3229061,0.3657299,-0.92666394,-0.64532197,-0.82262903,0.3861537,-0.039644737,0.5566271,-0.114325576,-0.23123725,-0.03548443,0.23567218,0.26180896,0.08350089,-0.2457754,-0.0881309,0.060363688,0.23178554,0.22638819,0.086392246,0.3918609,-1.585346,-0.16190267,-0.418673,0.9284184,-0.006512109,-0.021546736,0.09064155,-0.37215722,0.4904734,0.03640595,-1.8072921,-0.69350684,-0.13196138,-0.030486379,0.38446236,-0.03635525,-0.3740059,-0.3028576,-0.23428541,0.319475,-0.74001205,-0.22464846,0.13727228,0.3705801,0.07546225,0.007918205,0.18473977,-0.093270056,0.30343467,-0.35096788,-1.0416394,-0.37846893,1.6372938,-0.4764086,-0.516835,-1.4111342,0.36317974,-0.6534201,-0.3790977,-0.9118854,0.35218593,-0.15225591,0.14920902,0.83963263,0.22342992,0.6328864,0.15236115,-0.6148058,-0.23569511,0.49982184,-0.23339811,-0.44682217,-0.9007821,0.4360431,-0.06475814,0.4633948,-0.040808983,0.3037632,0.0667948,2.3603845,-0.024689183,0.2422041,0.28436416,0.11510271,-0.061831538,0.25566632,-0.5040104,-0.076321416,0.27247006,0.10550961,-0.045963723,-0.051266305,0.096477225,0.06410546,-0.22029601,-0.065655276,0.12884477,0.15065512,1.7169272,-0.18395096,-0.119410865,0.060134716,-0.22578281,-0.26331174,-0.4670717,0.61556745,-0.22967249,0.19487941,0.5815469,1.4128445,2.3264503,0.54317427,0.37422305,-0.36400238,-1.5705323,0.22673677,-0.05958169,-0.1884296,-0.19664007,-0.48573303,-1.6426684,0.08916121,-0.08087367,-0.51342535,0.06730828,0.6872153,0.094310105,0.34964195,0.09257071,-0.057058774,0.100384116,-0.082651764,0.14037764,0.43231827,-0.9010646,-0.0412911,0.07422527,-0.15617907,-0.31386757,-1.2441275,-0.29006165,-0.18692574,0.1514433,0.5669089,0.6063419,-0.8673246,-0.27432305,0.1999733,-0.24961922,0.3117288,-0.14893353,-0.46896103,-0.024643414,0.3384509,-0.43912035,0.047619782,0.103921704,0.29497206,-0.17085129,2.9154487,-0.046869434,0.6810118,0.05867403,-0.61526036,0.066482544,-1.3342206,-0.36367425,-0.2205557,0.7375016,0.72568315,2.020926,0.17481601,0.2516711,0.05316862,-0.2045048,-0.48159182,0.82166386,-0.3665519,-0.9016078,0.013835517,0.23330718,0.43384302,-0.3011099,0.19022352,0.3994841,-0.14790872,-0.55498445,-0.3359018,-0.15045689,0.25913602,0.8089299,-0.7809173,1.5331967,-0.20999208,-0.22460891,-0.21966994,0.17556511,0.38253015,0.04312466,-0.22255382,-0.19980693,0.59132075,0.23845956,-0.38270158,-0.83683646,-0.016019171,-0.6349123,-0.17053212,-0.09280501,-0.117189765,0.42234248,-1.0217544,0.12967417,-0.19513167,-0.25496548,0.44699618,0.20488016,0.3025398,-0.16501446,-0.02780025,-0.17557663,-0.17333542,1.3659991,-1.5351502,0.060199022,1.216266,0.14685449,0.107479356,-2.2968235,0.7413647,-0.06884028,-0.1537985,-0.24509327,1.5454812,-1.3637888,-0.030710224,0.49278322,-0.33063358,0.77339935,0.082487404,-1.6055244,-0.09520813,-0.50912523,0.5344119,0.04196041,1.6010923,0.16103384,-0.5343013,1.4320061,0.10469514,-0.6135777,-0.75847507,-0.07251521,-0.14681137,-0.37985143,2.735743,0.23610686,-0.2591042,-0.5535914,0.118493974,0.3784004,0.04317811,-0.37761164,2.1293755,0.9453385,-0.5299293,-0.87841415,-0.21145636,0.24904272,0.06282316,0.4467944,0.1725358,-0.068001375,-0.26955134,0.4489562,-0.29383016,-0.3333982,0.39218113,-0.12268013,-0.31754372,-1.4160573,-0.1163736,-0.24462314,0.3280679,-0.2052186,-2.6092768,0.42192048,-0.02263077,1.7374802,0.47641066,-0.40272522,-0.58119404,0.14562763,0.26837766,0.07769579,-0.027172843,-0.45969358,-0.18239038,-1.3389586,-0.13674158,0.12502068,-0.3128789,0.24356666,0.56885046,0.37074,0.47397318,-0.467938,-0.10194707,0.102223486,0.42166907,-0.4665212,2.2785509,-0.14531127,0.060646527,-0.09044252,0.3200455,0.32922578,0.15586478,-0.34116083,0.3403589,-0.052013777,0.4962074,0.82400006,-0.17403477,-0.07272914,0.31383353,-0.04540833,-0.31569582,-0.23928402,-0.5727627,0.07175169,0.78809094,0.61255455,0.20362036,-0.08622757,-0.15576573,-0.22049248,-0.45799527,0.6664609,-0.005767716,0.31301972,-0.029549103,0.1028938,0.15606295,-1.1380298,0.3167383,0.6848184,2.277791,-0.011867207,0.04391617,-0.09031701,0.08870281,-0.09811996,-0.49093515,0.9088544,0.1487987,0.027813079,0.29274172,0.15523659,0.4368059,0.20360169,-0.3322873,-0.1640284,-0.35448414,0.08217069,-1.7356858,0.15326819,-0.15048735,-0.34456667,0.08686578,-1.2466059,0.58320254,-0.14019299,-0.25462407,0.15360904,0.08034017,-0.0816381,1.7108544,0.4968999,2.2135193,0.25931996,-0.03519202,0.5129433,-1.4499217,0.6068248,-0.72202474,0.38760585,0.2631178,-0.3928185,-0.82553387,-0.012209989,0.3584842,0.27248287,0.16398007,-0.4248437,0.16185907,-0.7582269,0.95296943,-0.25790945,1.0170381,0.5373372,0.23851478,0.41140848,1.6807423,0.10521458,-0.22857293,0.06590626,1.9717648,-0.07535325,-0.35347712,0.04088665,-0.08038907,0.9807533,0.5313481,-0.16823198,0.1558752,-0.19725165,-0.24010435,-0.07817545,1.7391676,0.11376679,0.19950005,-0.0047629382,0.5548582,1.9046006,-0.050919842,-1.2545398,-0.6678667,0.362339,-0.47723997,0.18604693,-0.020536989,-0.10047129,-0.32009426,0.9578811,0.12150522,0.35786146,-0.64314944,0.04533851,-0.2631395,0.2489419,0.21056905,1.184267,-0.09367719,0.44074953,-0.22062303,-0.099446714,-1.9802871,-0.2707695,-0.27812165,-0.33358234,0.31861848,-0.37547833,-0.18989477,0.2346868,-0.064311005,0.36786807,0.028465278,-0.34270665,0.7367741,-0.15381658,0.20837042,0.4035349,-0.08604421,-0.18934707,0.01666892,0.24408635,0.17797276,-0.047363307,-0.024936484,-2.137454,-0.09075333,0.043070443,0.49045473,-0.31818986,0.33850932,1.1486396,0.0564389,-0.44973296,0.9389123,-0.2952551,2.1499662,-0.12817244,-0.7571671,0.08061049,0.17736977,-0.57608855,0.9421749,11.800597,-0.052204687,1.5406728,0.63132864,0.19378673,0.14918992,-1.5850903,0.049457494,-0.070268564,-0.02996521,0.07457988,0.1156255,-0.018046716,0.5270158,0.3398037,-0.08423973,-0.21506637,0.5022068,-0.31970188,0.052155606,-0.3353284,-0.040781904,0.7580595,-0.5614227,-0.23985755,-0.3194125,-0.2770531,0.15482464,-0.38993883,0.44414005,0.20764631,0.25099528,-0.17875755,-0.12960996,-0.05972532,1.6274061,-0.05536747,-0.28948337,0.22661972,-2.1485448,0.2804929,-1.6182386,0.40660182,0.35608774,0.4412307,0.35083938,-0.74376357,0.19091313,0.5391102,0.18648657,-0.18678683,0.71869373,0.27327543,0.23260358,0.20504835,-0.1810254,-1.2214766,-0.05323457,-1.0742528,0.15713999,-0.15739816,0.23508818,0.0008909181,-2.0702853,-0.44443583,0.29961818,0.12928852,0.3162887,-0.20211338,0.218894,2.1809826,1.5827291,0.057635017,-0.11548082,-1.0396689,-0.23330003,-0.3252352,-0.24975123,0.25878042,-0.1464155,0.23563187,0.015800102,0.22244099,-0.30507958,-0.044954367,0.038781445,0.6338754,0.47814336,1.4239719,0.13378271,-0.013295013,0.39069852,-1.3842758,-0.16039172,0.37750214,0.12154038,-1.8268282,-0.21029475,-0.15068996,0.5419154,-0.1223688,-0.5579771,0.12838548,0.29496273,-0.7138726,-1.3538225,0.5367802,-0.02490636,0.35820264,-0.15094268,-0.46853125,-0.30251673,0.84087086,-0.14608355,2.1052706,-0.18825078,-0.23048815,0.17479509,0.78646755,-0.014120467,0.17689851,1.5295918,-0.28961414,-0.3819403,-0.2728505,0.23998913,0.323725,0.5553068,0.69049484,0.64527345,0.040285993,0.04482786,0.360347,2.175163,0.08594014,-0.09140395,-1.0595163,-0.07871192,-0.1110597,-0.60821736,0.2075049,-0.2682671,0.27893615,-0.39194083,-1.4748693,0.106599025,0.2655776,-0.11096603,0.0021287035,0.096063785,-0.0001430139,-0.0423373,0.5527196,0.11952086,-0.045438033,0.0018827096,-0.41078186,1.3882781,0.755565,-1.0369813,0.656728,-1.9673085,0.95886576,-0.4123429,-0.16413319,-0.19937496,0.14112361,-0.13835871,0.26938516,-0.80201995,0.06467807,0.07256876,-0.33555713,1.2825305,-0.0421481,0.039172318,0.79680645,0.0035885312,-0.63639665,0.4734109
net.jforum.actions.helpers.Actions;1;-0.197081,-0.08022502,-0.07296143,0.34299368,0.0662726,-0.26019043,0.42550936,-0.19430028,0.0141455345,-0.47136858,0.24047586,0.5732001,-0.09772651,-0.08705616,0.77957046,0.04372476,-0.19522858,0.021131031,0.2348122,-0.48653787,-0.06226438,0.014937013,0.22302203,-0.012837529,0.18537539,0.043799467,0.27475315,0.6633507,0.34491226,1.1763778,-0.09071624,-0.11207871,2.2826133,-0.25292483,0.065075055,0.0727479,0.038292293,-0.25749937,0.33383602,-0.28778663,-0.10876371,-0.09368077,-1.3738194,0.0030061156,0.5349351,-0.23806992,0.4319152,0.5879502,0.27308604,0.28631133,0.113538966,-0.1530573,-0.9032157,-0.056096654,-0.28778496,0.654099,-1.116491,0.2549943,0.17752422,-0.012327634,-0.20190668,-0.29915607,0.23612629,-0.07640735,1.8477714,-0.26201946,0.96525824,1.8098905,0.117451824,-0.5615896,-0.17583244,0.28895974,0.0008188933,-0.93787396,-0.5668058,0.017310932,-0.22387221,-1.6940706,-0.80171585,0.06878366,0.2555374,0.19472085,-0.24658033,0.37327242,0.038320117,-0.5111262,0.0350697,0.081863195,-1.1070299,0.47034758,0.21938488,-0.15286732,1.504576,0.09911713,0.40199575,0.3482968,0.28810936,-1.4108361,-0.19157976,-0.53208417,0.60826427,-0.9553548,-0.60796267,-0.76533616,0.2853439,-0.08852014,0.59994096,-0.22229984,-0.17847121,-0.10322634,0.23800702,0.17549446,0.0810475,-0.1471889,-0.08056877,-0.079899535,0.22981447,0.32999012,0.21453738,0.41557607,-1.4789144,-0.10038991,-0.48025456,0.7886063,-0.048276037,-0.1382843,0.07527594,-0.7106204,0.5237629,0.11503747,-1.9854879,-0.56872034,-0.11201832,-0.04137029,0.43818536,-0.050347004,-0.45958996,-0.38280365,-0.3536589,0.22913277,-0.79587674,-0.23967141,0.096965164,0.45210776,0.19616817,-0.058062855,0.18781856,0.019420058,0.4073457,-0.42851356,-0.98297477,-0.4195922,1.7022924,-0.44504422,-0.6104457,-1.3369228,0.36003917,-0.62755334,-0.34419608,-0.72366524,0.30121517,-0.1451938,-0.11897442,0.76108104,0.31574726,0.5063986,0.24138175,-0.44541433,-0.24248135,0.46631324,-0.34186506,-0.73571724,-0.774823,0.3161445,0.23949704,0.5116154,0.12142241,0.32792115,0.035849106,2.2960305,-0.020217575,0.1055832,0.2221263,0.098271444,-0.1582598,0.29617357,-0.5011281,-0.056914255,0.22039886,-0.06454519,-0.16612493,-0.17543606,0.22836532,-0.015468068,-0.05258216,-0.08435284,0.16034484,0.26016566,1.5292844,-0.13944417,0.021633875,0.24750093,-0.12359209,-0.25622195,-0.37003073,0.4252569,-0.45858598,0.3833624,0.49289528,1.3846246,2.316458,0.54826665,0.43236,-0.5399131,-1.6040884,0.021415912,-0.044300113,-0.2834375,-0.1118078,-0.54451686,-1.8227422,0.057546146,-0.16426997,-0.45882034,0.110748544,0.55126816,0.16895556,0.43243453,0.10482321,-0.02702798,-0.024171524,-0.14259678,0.12502572,0.43852085,-0.7938806,0.0022696964,-0.2059743,-0.11688042,-0.23857887,-1.3421222,-0.4567049,-0.19368981,0.21850245,0.61025167,0.61947757,-0.98266697,-0.1647498,0.14346896,-0.23225157,0.5277988,-0.18250085,-0.43592915,0.017679285,0.2894522,-0.46491474,0.036942285,0.08275202,0.20328856,-0.13203086,3.001855,0.124130875,0.6199525,0.03504133,-0.59363186,0.23733951,-1.2349467,-0.3425362,-0.010761339,0.7815143,0.71738684,2.1931322,0.22318594,0.38000673,0.0169013,-0.038575824,-0.39283684,0.83206147,-0.37705645,-1.1357257,0.023252644,0.17926276,0.5091444,-0.42831868,0.04936797,0.38047603,-0.25417078,-0.47266513,-0.14567572,-0.15734416,0.21336162,0.71582776,-0.6491764,1.443414,-0.13649525,-0.24069501,-0.2441364,0.25615355,0.18609937,0.14391254,-0.33171266,0.09152509,0.73757875,0.26646486,-0.48077872,-0.82250994,-0.1553611,-0.7049614,-0.13120878,-0.14250678,-0.118287586,0.47554687,-1.0226352,0.19146016,-0.21366626,-0.11019894,0.20999408,0.17941949,0.385245,-0.19549337,-0.17245042,-0.17419825,-0.061484605,1.3734802,-1.3713235,0.33878875,1.2347765,0.09015383,-0.14287964,-2.2872298,0.67916125,0.010650005,-0.015469837,-0.11121903,1.6970539,-1.3573265,0.032420218,0.43115225,-0.33517307,0.6596657,0.11212242,-1.6061236,-0.015360745,-0.35492796,0.3675591,-0.0069142208,1.6283734,0.17841288,-0.32734406,1.5692973,0.06681735,-0.5610285,-0.8541533,-0.107403606,-0.1942986,-0.3740121,2.6841123,0.25923538,-0.31360215,-0.5533668,0.35563588,0.56141466,-0.0503902,-0.24104427,2.2271147,0.99686337,-0.52997386,-0.99729013,-0.14678755,0.10579614,0.29436818,0.3693855,0.2645021,-0.13972361,-0.23085922,0.52936137,-0.24782033,-0.29210508,0.4469003,-0.13629338,-0.22354649,-1.4124488,0.07082801,-0.3345473,0.227711,-0.12870456,-2.6343668,0.33579522,-0.19746949,1.7847877,0.4828002,-0.27665782,-0.53603494,0.3792917,0.2706842,-0.050024703,0.0051117428,-0.343775,-0.5078944,-1.2955941,-0.10864726,0.14866301,-0.38294926,0.15383503,0.4127686,0.4865841,0.6166704,-0.41478184,-0.21341398,0.08866669,0.5294768,-0.5356347,2.4826298,-0.24044424,-0.047703154,-0.13521947,0.33086133,0.35046685,0.0022904063,-0.15236758,0.5937361,0.021690264,0.5815605,0.87030494,-0.17008911,-0.09452209,0.40614742,0.025905848,-0.26792112,-0.29234666,-0.6634643,0.09392668,0.6969584,0.5300852,0.33047402,-0.13064629,-0.2303926,-0.36238623,-0.5444285,0.6420101,0.16195706,0.33421382,0.018040795,0.12289859,0.17533359,-1.2612495,0.29937905,0.61141694,2.431945,0.010937579,0.19896644,-0.20381814,0.20342545,0.040497497,-0.35631517,0.82859206,0.12267859,-0.04452045,0.18047498,0.4141166,0.55773795,0.18827173,-0.30306277,-0.10561228,-0.3720109,0.305235,-1.8964558,0.5174766,-0.23493898,-0.23366274,0.05027823,-1.1572084,0.50579834,-0.23488286,-0.15789498,0.22590616,0.11972538,-0.11189052,1.9703988,0.59668547,2.1771846,0.16471307,0.04692866,0.5163996,-1.4847201,0.6236895,-0.74549234,0.22082435,0.35632935,-0.3894085,-0.6811981,-0.1742971,0.29214892,0.17174834,0.34940773,-0.53209597,0.15890703,-0.8029624,0.9057924,-0.39730823,1.062511,0.5378202,0.06000736,0.5465718,1.7795767,0.010212164,-0.17862734,-0.011245241,2.0639472,0.0456521,-0.40005687,0.16834956,-0.12554723,0.9096191,0.4665626,-0.25605685,0.1985069,-0.24125288,-0.2248031,-0.20385474,1.8821886,0.19245243,0.19067909,-0.063069284,0.5358366,2.0387743,-0.036303982,-1.2920127,-0.67937124,0.19990627,-0.52357507,0.0447478,-0.050671864,-0.04664839,-0.40239632,0.7649674,0.065627836,0.439284,-0.67990136,0.15688771,-0.20794934,0.08068326,0.2258622,1.1886572,-0.084387384,0.31015927,-0.20046595,-0.21030496,-2.0917811,-0.2877704,-0.3142678,-0.39824623,0.16294296,-0.4107413,-0.055038676,0.32425457,-0.09847872,0.19923955,0.05012913,-0.4985143,0.6481631,-0.1228942,0.42310753,0.45207098,-0.17537951,-0.32583252,-0.020470269,0.28686535,0.24759701,0.05593262,-0.21643227,-2.1755176,-0.18368368,0.17642108,0.42992336,-0.3308912,0.42830786,1.2270992,0.10616907,-0.42107418,0.8192072,-0.2605036,2.2456841,-0.00475936,-0.77032375,0.0131570995,0.40663397,-0.7187779,0.93494093,11.461879,0.01639722,1.5188038,0.665339,0.1177427,0.20889118,-1.5050521,-0.12665659,-0.05707994,-0.15811321,0.0077523515,0.22257708,-0.044363715,0.58096534,0.1357132,-0.20399244,-0.1175538,0.5659578,-0.1289469,-0.09658691,-0.03681519,-0.078871556,0.81581765,-0.61449236,-0.12039628,-0.20674543,-0.31034034,0.0434435,-0.34474474,0.45262837,0.07867278,0.08966154,-0.11859153,-0.06636416,-0.11509673,1.6781247,-0.07054122,-0.32046103,0.17547368,-2.1345043,0.37246567,-1.5163596,0.39020878,0.27233282,0.3390963,0.22139949,-0.69899905,0.27506658,0.6091677,0.23119102,-0.13136505,0.69907343,0.24962184,0.093224235,0.25406766,-0.20746507,-1.3752866,-0.124310814,-1.2827288,0.039244197,-0.19061862,0.1931045,-0.037101876,-1.993474,-0.38026685,0.23618872,-0.029515028,0.27663732,0.038106218,0.17935893,2.1681643,1.5058652,0.110985465,-0.0737665,-0.90999985,-0.10815654,-0.19844851,-0.16835812,0.29952836,-0.33801627,0.10523246,0.10673925,0.12668212,-0.33476377,0.11497344,0.03155414,0.8820952,0.47462282,1.4785792,-0.06026541,0.1149236,0.33478993,-1.4210873,-0.17427303,0.31894484,0.05631718,-1.9957111,-0.13518299,0.05254665,0.6042119,-0.04127089,-0.63530785,0.14667399,0.39619464,-0.5650329,-1.059364,0.60152024,-0.0023507848,0.26719505,-0.05448926,-0.4578647,-0.41850266,0.5657188,-0.3381317,2.157273,-0.15630049,-0.29470032,0.1637445,0.63403326,0.009980861,0.21133101,1.5099499,-0.32820907,-0.2863028,-0.2681266,0.21315143,0.23616114,0.47282714,0.83684516,0.8070947,0.121148124,0.1733667,0.59087616,1.9652534,0.098886296,-0.18612647,-0.9538514,-0.04565552,0.063722,-0.53341925,0.010086879,-0.31985974,0.28185868,-0.46114457,-1.5686287,0.08221951,0.2988101,-0.12023669,0.065638684,0.116279155,-0.022876136,0.009563286,0.46210733,0.06624334,-0.15719882,-0.110309735,-0.42173254,1.3754077,0.70886415,-1.0199257,0.6512583,-1.9732392,1.0819467,-0.5219474,-0.19185215,-0.14955832,0.07287182,-0.1968585,0.12748042,-0.7046866,0.25507876,0.07644638,-0.30767933,1.254296,0.05256563,0.14467105,0.610274,-0.100523636,-0.70685893,0.6620998
net.jforum.actions.helpers.ActionUtils;1;0.0023408271,-0.04684083,-0.07424802,0.35931033,0.064485624,-0.24331471,0.30221096,-0.13700595,0.20407476,-0.64125896,0.30486166,0.36566696,-0.14335749,0.12323168,0.6222313,-0.043080963,-0.43936422,-0.13547596,0.27801812,-0.3984253,-0.1671663,0.015194736,0.18270235,0.12935531,0.28624517,0.059148837,0.4143984,0.6833684,0.4486121,0.9733968,-0.15250327,-0.17983572,2.299807,-0.20314696,0.14190376,0.0068753064,0.00031898916,-0.32201985,0.34991425,-0.13731466,-0.28105336,0.023073617,-1.4040976,-0.049803246,0.3497851,-0.20178822,0.14586776,0.5518429,0.23654932,0.18167913,0.010348432,-0.32176635,-0.7556351,-0.0827844,-0.13150191,0.4893566,-0.9347494,0.21678141,0.2592668,-0.047417708,-0.28353235,-0.31036717,0.17648496,-0.13855675,1.7077342,-0.2682755,0.759498,1.855584,0.29581147,-0.46775088,-0.078472525,0.44763657,0.1398228,-1.0196732,-0.5731888,-0.16423205,-0.23917493,-1.4371372,-0.7859136,0.0531466,0.40871277,0.17354038,-0.105422124,0.43385226,0.24017966,-0.61684716,0.10943256,0.028993513,-0.9523356,0.56231165,0.20720291,0.06629024,1.3907795,0.10373573,0.22865786,0.54355484,0.028041758,-1.3400348,-0.3185937,-0.28059852,0.42715576,-0.8945909,-0.6745759,-0.9285451,0.39830846,0.03942895,0.5146931,-0.1090298,-0.15949714,-0.08755069,0.19861425,0.079709835,0.03582541,-0.18053403,-0.1084275,0.12863252,0.19059514,0.26413754,0.06679599,0.31398442,-1.492742,-0.23793231,-0.4490296,1.065139,-0.020459175,0.14362392,0.059204273,-0.32418784,0.61650485,0.023389012,-1.7005551,-0.5799692,-0.17354196,-0.014869075,0.45544496,-0.07527073,-0.40590522,-0.3912799,-0.33361858,0.24592751,-0.72422284,-0.29990795,0.1920256,0.27260026,0.21993381,-0.008262247,0.16875947,0.027738035,0.3378049,-0.45573202,-0.94855833,-0.3306704,1.6623746,-0.615023,-0.44031265,-1.3029009,0.39481857,-0.6572974,-0.38863355,-0.8514175,0.22507809,-0.048567083,0.058181066,0.8039879,0.2579798,0.6136422,0.04359001,-0.49821,-0.02091575,0.45925403,-0.23768382,-0.43814594,-0.9568371,0.43394902,-0.012053676,0.39113146,0.04048158,0.23240346,-0.0051695853,2.4080133,0.033066534,0.23406433,0.30572996,0.1657668,-0.05925156,0.12247851,-0.5416341,-0.12581041,0.28900373,0.07378733,-0.11299886,-0.07353885,0.16576657,0.1076185,-0.13824965,0.03136143,0.17353034,0.19804724,1.7241225,-0.1376868,-0.022714438,0.25593343,-0.171356,-0.31255984,-0.41529804,0.7593472,-0.2758119,0.28348988,0.62544453,1.4088788,2.3248358,0.44427955,0.34886396,-0.4391909,-1.5664687,0.21864407,-0.19768214,-0.14051828,-0.2523629,-0.45973292,-1.7115982,0.09638566,-0.03235059,-0.5068455,-0.0016646311,0.7141327,0.11312833,0.2919966,0.15057418,-0.069237694,0.0763991,-0.05960668,0.055943362,0.35432938,-1.0032411,0.010361187,0.069269344,-0.21814993,-0.3830073,-1.2276245,-0.15889141,-0.13003427,0.30876416,0.67310536,0.6011944,-0.73992825,-0.23882586,0.21633893,-0.30329818,0.21678686,-0.18191752,-0.5000498,0.035289988,0.34777305,-0.40742248,0.021179168,0.190633,0.20786029,-0.1852918,2.9804697,-0.04681002,0.6154183,0.07567794,-0.571917,0.096410826,-1.2439276,-0.2887585,-0.17550312,0.79922324,0.70916486,1.9392728,0.19968703,0.234463,0.071852095,-0.27538714,-0.29876885,0.8501669,-0.4808239,-0.9304465,-0.05650893,0.250495,0.33565918,-0.22094417,0.10539356,0.19374079,-0.18238306,-0.4207113,-0.32327688,-0.035920583,0.25091016,0.71865803,-0.73295295,1.4893421,-0.16728538,-0.18459581,-0.3090015,0.20667115,0.49943092,0.11690566,-0.14337653,-0.16622736,0.64775527,0.18011421,-0.3894664,-0.83692384,-0.050173245,-0.7064005,-0.23132223,-0.16218808,-0.20582807,0.47357157,-1.1756384,0.10046983,-0.099173896,-0.27571553,0.31604612,0.1863494,0.28392532,-0.11369232,-0.015526898,-0.08413099,-0.1713483,1.2233377,-1.4738908,0.094369255,1.2889011,0.12945938,0.03913758,-2.2536407,0.84874076,-0.14542304,-0.12163574,-0.33189237,1.5436422,-1.4725592,-0.010523908,0.48957673,-0.29005355,0.7845436,0.11222263,-1.6560876,-0.21013562,-0.58879966,0.5317147,0.10313635,1.5123336,0.1831866,-0.4921463,1.4321986,0.14621156,-0.7563436,-0.7008357,-0.1362824,-0.09799955,-0.4985298,2.787638,0.15368834,-0.30971044,-0.49832916,0.100945346,0.43903372,0.12240384,-0.22785772,2.0797746,0.9659376,-0.43463174,-0.9956484,-0.19656885,0.261654,0.10599095,0.40790862,0.118546985,-0.071747795,-0.18609051,0.51184416,-0.34305876,-0.2754938,0.5494697,-0.26010656,-0.19794361,-1.328732,-0.08765163,-0.34372017,0.27985227,-0.18042573,-2.5747166,0.38305497,-0.022723742,1.7519432,0.55697584,-0.26770422,-0.57765174,0.100718126,0.24027449,0.012075089,-0.10852862,-0.40711328,-0.15267085,-1.2510706,-0.1736446,0.05078202,-0.39436397,0.06394294,0.43722388,0.42010385,0.51559734,-0.35630658,-0.1726227,0.081683844,0.4245193,-0.5504318,2.1420043,-0.09762359,0.062296588,-0.024416108,0.35172063,0.32366154,0.21934977,-0.40377805,0.28736344,-0.08718435,0.43254733,0.880257,-0.27965522,-0.20061058,0.35975102,-0.07083378,-0.3346277,-0.3282711,-0.52710795,0.15724653,0.7576213,0.4607405,0.2511499,-0.012543656,-0.10700552,-0.17036639,-0.41824144,0.63980496,-0.08973025,0.23267624,0.04115142,-0.035818852,0.13657351,-1.1553982,0.23891068,0.58934206,2.3347652,0.04585938,0.059502043,-0.09695381,0.06274329,-0.050582796,-0.22137319,0.8709277,0.19171499,-0.03771538,0.15011023,0.08400057,0.41091555,0.13694176,-0.41895494,-0.09015927,-0.49163166,0.23118104,-1.73905,0.38127595,-0.096575394,-0.27592897,-0.058773834,-1.1850758,0.51873386,-0.22016288,-0.24356556,0.16571121,0.02126595,-0.059281375,1.6704731,0.57746416,2.126546,0.28687328,-0.054905526,0.5283569,-1.4021848,0.57462037,-0.7185466,0.39957654,0.29809344,-0.4111521,-0.93469465,0.07302885,0.4121696,0.2496976,0.263381,-0.38396883,0.22842993,-0.76105416,0.85056794,-0.13876806,1.0925832,0.4568715,0.2924519,0.49812695,1.6144873,0.13800082,-0.119996205,0.09212859,1.9634295,-0.041495934,-0.42795247,0.18925463,-0.18181665,1.1037308,0.58029705,-0.21374907,0.05494103,-0.2561412,-0.13413218,-0.007437514,1.7752082,0.09684701,0.15891203,0.028282784,0.51815045,1.890991,-0.04797235,-1.2492212,-0.80284715,0.47363725,-0.6484963,0.10795723,-0.10859415,-0.117957614,-0.40804094,0.9691413,0.09577059,0.39081866,-0.65174633,0.050244205,-0.26630843,0.16582604,0.15709633,1.2868468,-0.022770867,0.32615048,-0.33955324,-0.14455938,-2.0611198,-0.2134047,-0.33299533,-0.34634656,0.12888555,-0.35466388,-0.272748,0.25954038,0.08743122,0.30103967,0.0019622706,-0.28225324,0.6382985,-0.17523979,0.262689,0.43008202,-0.017339163,-0.2747895,0.14386334,0.26076663,0.07686737,-0.019681223,-0.068297036,-2.1501186,-0.14055565,0.11016705,0.40555075,-0.2998665,0.22613081,1.251615,-0.074723795,-0.34636205,0.90519387,-0.48846272,2.266148,-0.057691243,-0.68414646,0.083829045,0.1599976,-0.60340095,0.8885832,12.076076,0.09896099,1.5490079,0.7387195,0.15082398,0.16077378,-1.5596606,0.030236304,-0.05372411,-0.04904241,0.15266576,0.15515138,-0.02557547,0.5369802,0.3211691,-0.097586185,-0.2647899,0.4954191,-0.15790078,0.036959156,-0.4347326,0.049455322,0.712196,-0.6053843,-0.18854207,-0.2696486,-0.18953748,0.17090009,-0.3212549,0.35005718,0.35089383,0.29579687,-0.25810623,-0.1386671,0.017747886,1.521786,-0.039235294,-0.21288058,0.22078593,-2.1609507,0.32096064,-1.6129376,0.4135279,0.46132106,0.46875793,0.35623676,-0.7114503,0.23459369,0.54561126,0.15286121,-0.1383202,0.74303097,0.2898475,0.11056161,0.15150766,-0.21419932,-1.19152,-0.19167122,-1.0873563,0.118214,-0.24597783,0.14601098,0.13097434,-1.959434,-0.42964002,0.31757993,0.17510113,0.19675088,-0.17750587,0.20975325,2.2787325,1.4395715,0.10745933,-0.15593424,-0.8595192,-0.30705684,-0.32429162,-0.2019676,0.051102266,-0.1304126,0.17934166,-0.04727568,0.17249605,-0.25744486,-0.12846726,0.0026055425,0.33871907,0.5319818,1.3228883,-0.07345444,-0.08668352,0.35455588,-1.3207617,-0.1679798,0.34713742,0.12695834,-1.7916759,-0.24335493,-0.21782897,0.5198792,-0.14950888,-0.5022531,0.060491417,0.31246233,-0.6720336,-1.361915,0.57745385,-0.03134886,0.34043616,-0.17986812,-0.34858072,-0.32671684,0.8214275,-0.18216231,2.0518134,-0.25965327,-0.27396566,0.19571969,0.7438782,-0.07263246,0.18917985,1.5175056,-0.29773226,-0.47148377,-0.34870118,0.2617908,0.34016448,0.44319874,0.6513742,0.6504583,0.09698832,0.03148315,0.25807488,2.19948,0.0819427,-0.1123419,-1.030994,-0.04768248,-0.10071559,-0.61098397,0.044977922,-0.33757478,0.1896132,-0.48748347,-1.508756,0.12194198,0.20741916,-0.016752658,-0.06708564,0.12058443,0.10074915,0.023910105,0.614437,0.07344304,-0.023317218,-0.096601546,-0.40915903,1.3718996,0.654166,-1.070773,0.6383658,-1.908621,0.91375816,-0.41371357,-0.20393068,-0.2654599,0.1368749,-0.20127192,0.29085663,-0.8999902,0.07059844,-0.02333284,-0.2438733,1.3352617,0.012264386,0.14658694,0.76598465,0.005854182,-0.6448497,0.44579408
net.jforum.actions.helpers.ApproveInfo;0;-0.05256155,-0.056984067,-0.07182368,0.3145707,0.09543565,-0.22176677,0.2432968,-0.16848119,0.18274088,-0.57033753,0.20996033,0.342787,-0.110006064,0.045067817,0.6266569,-0.052040584,-0.3116121,-0.114149295,0.19436097,-0.28640288,-0.13211128,-0.07896616,0.18545744,0.08110743,0.3206496,0.115262896,0.47213742,0.6613698,0.42576337,1.0304118,-0.16003112,-0.16761261,2.3323877,-0.26085472,0.13691488,0.063003615,0.024622366,-0.25620043,0.28081313,-0.18256973,-0.26645714,-0.10485126,-1.3776064,-0.02567241,0.39779973,-0.14209181,0.13661262,0.585524,0.18652701,0.13987078,-0.017533343,-0.23693797,-0.8315004,-0.046666082,-0.2509484,0.5008983,-1.0176985,0.16734293,0.18293464,-0.05717843,-0.23215094,-0.2219693,0.1838514,-0.14043134,1.8087838,-0.17361729,0.76414096,1.8163173,0.23822267,-0.4198749,-0.07716921,0.4020415,-0.0019391328,-1.0591841,-0.58457017,-0.095210575,-0.19717917,-1.4823043,-0.72120005,0.0730898,0.35354316,0.0663508,-0.0076560304,0.42950606,0.15799159,-0.542159,0.028302222,0.00021337718,-0.93201554,0.47834134,0.182825,0.002949588,1.3939159,0.11326833,0.22616053,0.5027225,0.057386946,-1.2951956,-0.18753222,-0.3343184,0.39666075,-0.8377815,-0.60661,-0.7526889,0.4063652,-0.017995287,0.5407092,-0.09368567,-0.23011515,-0.017764024,0.14246894,0.127194,0.063195296,-0.12269815,-0.12526321,0.06602356,0.23004816,0.18912907,0.036282957,0.23351908,-1.4677197,-0.165363,-0.45418337,0.9107971,0.056299374,0.042803682,-0.04409171,-0.34936252,0.55404973,0.047814753,-1.7821538,-0.59539187,-0.22856326,0.056258284,0.3859176,-0.09376505,-0.36019683,-0.38082135,-0.27765208,0.23458424,-0.7943062,-0.3235939,0.11687291,0.3463976,0.09682987,0.059884988,0.21482722,-0.017251534,0.3213897,-0.48910037,-0.87687415,-0.3717212,1.6967361,-0.5084367,-0.43459186,-1.3097073,0.24808204,-0.6609195,-0.3473362,-0.89012843,0.26057732,-0.207862,0.048077725,0.7830481,0.23351222,0.54002285,0.13433053,-0.4980905,-0.041253533,0.41412982,-0.22415431,-0.544092,-0.9032927,0.3787421,-0.07643484,0.37381166,0.010777611,0.14369571,-0.03536553,2.3553085,-0.04377272,0.19383992,0.2581357,0.1670088,-0.11933662,0.20386115,-0.50040317,-0.080229625,0.24110222,0.03510089,-0.17189291,-0.092789635,0.20056255,0.10198059,-0.20892921,0.008192204,0.1523923,0.19605799,1.6374378,-0.111316636,0.030766979,0.23499483,-0.1864343,-0.18493535,-0.321664,0.6629723,-0.24911098,0.22514632,0.61335117,1.4050497,2.3084178,0.455056,0.3411976,-0.4111586,-1.5435477,0.2461963,-0.18473203,-0.105186306,-0.22150075,-0.41304266,-1.7439172,0.10457653,-0.08490306,-0.5902652,0.005533308,0.6040554,0.12681597,0.2132411,0.11510176,-0.12968884,0.116695404,-0.067471854,-0.02350203,0.35760316,-0.9551865,-0.060898267,0.026886642,-0.08067699,-0.32450354,-1.2253714,-0.27127218,-0.11259912,0.3025326,0.682256,0.5741277,-0.80551827,-0.22875628,0.25002536,-0.16910318,0.3486589,-0.19678219,-0.54411906,-0.001248762,0.25551677,-0.40586728,0.02634725,0.17922504,0.14577407,-0.17970553,2.9025338,0.0014828704,0.631625,0.001400739,-0.55981153,0.18811285,-1.2438749,-0.2220695,-0.14617835,0.80870664,0.7065419,2.0330887,0.19175336,0.30132407,0.05635954,-0.20089433,-0.40324837,0.7946161,-0.41825128,-0.9264285,0.016618468,0.22690746,0.37773177,-0.33575028,0.011263475,0.2678527,-0.25213024,-0.39252296,-0.26705414,-0.06507075,0.21454768,0.6747817,-0.7576043,1.5355382,-0.027755644,-0.19281167,-0.24332175,0.18017133,0.4166264,0.14891055,-0.22288671,-0.08545458,0.56844014,0.18513949,-0.38169402,-0.7845924,-0.03939589,-0.6756725,-0.18379274,-0.15750292,-0.29991513,0.36148593,-1.0752792,0.08839376,-0.17449552,-0.22655845,0.29507035,0.14508687,0.21641217,-0.08677872,0.013336644,-0.06614287,-0.14879748,1.2775964,-1.3883305,0.06742643,1.1785654,0.1850628,0.056537457,-2.2202322,0.8121247,-0.11197019,-0.038696725,-0.2690122,1.453035,-1.427697,-0.045994416,0.5361538,-0.2960174,0.7177553,0.050598525,-1.6990001,-0.12677218,-0.5758732,0.5022264,0.11621045,1.4411116,0.22722,-0.4848612,1.4426402,0.15357357,-0.7001571,-0.73943436,-0.12283097,-0.25170276,-0.46494585,2.7205262,0.20619008,-0.25771803,-0.4447338,0.071555585,0.49048546,-0.008461416,-0.2539453,2.0288074,0.9014718,-0.48962778,-0.91568506,-0.18078718,0.24844392,0.1319885,0.35848787,0.14147818,-0.053076115,-0.21458527,0.47976968,-0.34148702,-0.32655638,0.45325473,-0.20253098,-0.26316136,-1.2602264,-0.11692848,-0.24549378,0.28627992,-0.16238579,-2.6347303,0.40548488,-0.045644447,1.707832,0.4230125,-0.32587472,-0.53020185,0.16059038,0.18282923,0.11061731,-0.0073893294,-0.3019444,-0.13555063,-1.2512141,-0.21127258,0.05269885,-0.34232557,0.09898271,0.4206255,0.25541165,0.5547933,-0.3780233,-0.13761011,0.10989335,0.50463605,-0.5698562,2.2213159,-0.071006715,-0.030228391,-0.051907737,0.3665233,0.41432038,0.12787963,-0.29059616,0.36574662,-0.016350038,0.52211046,0.89773947,-0.29043287,-0.16674614,0.3092738,-0.071426444,-0.2766055,-0.27474195,-0.5182649,0.014359083,0.7205478,0.4517723,0.19850314,-0.06367778,-0.13848929,-0.25931048,-0.39269894,0.5752696,0.009074003,0.3670277,0.036640927,0.006061971,0.19563061,-1.0599947,0.3299243,0.55677086,2.2862194,0.07641372,0.1636462,-0.10468623,0.07924257,-0.050480664,-0.32349315,0.8325043,0.09509184,-0.012210891,0.18127967,0.19855866,0.49575898,0.14966905,-0.2931807,-0.07927035,-0.3754434,0.21666582,-1.7292211,0.38913077,-0.2509027,-0.2800873,0.082362324,-1.0910553,0.6199515,-0.20193525,-0.27792296,0.1623996,0.023580294,-0.07510793,1.7104272,0.5552027,2.1101577,0.27606267,-0.056447856,0.5306915,-1.4268918,0.5637474,-0.72841865,0.37465397,0.22847682,-0.30683187,-0.8249688,0.02844045,0.35992792,0.16727117,0.2878942,-0.33401042,0.29787156,-0.7814247,0.85512525,-0.10157979,1.025035,0.4151882,0.2485655,0.42853236,1.6061776,0.15169466,-0.112830654,0.06652982,1.8826379,-0.09427356,-0.39542356,0.10457718,-0.17936401,1.0197479,0.5363379,-0.21084271,0.17439991,-0.28728175,-0.22527818,-0.06670135,1.7143927,0.15243009,0.07501206,-0.023622252,0.49800685,1.89951,-0.015652912,-1.2454212,-0.7561173,0.283719,-0.57732236,0.07156815,-0.024595235,-0.10411704,-0.31452197,0.7982289,0.0711373,0.36247763,-0.64418083,0.07787852,-0.20353715,0.14029658,0.17920426,1.2528069,0.06560472,0.36971694,-0.32063302,-0.14654383,-1.9855354,-0.20926759,-0.25726044,-0.30711067,0.061043143,-0.26791975,-0.17324714,0.35920116,0.0025105476,0.25655672,0.12806065,-0.3014651,0.5907293,-0.22065532,0.31691068,0.4400318,-0.07762735,-0.2563019,0.08489117,0.19117288,0.10299311,-0.028334346,-0.13772732,-2.1750464,-0.17254148,0.048983835,0.29616976,-0.33695924,0.25016266,1.2214855,-0.05280769,-0.34729403,0.8664204,-0.3670043,2.2854905,-0.06899367,-0.6978063,0.04393494,0.2537409,-0.6102178,0.87969065,12.786794,-0.01819612,1.6295943,0.694012,0.16478981,0.074607715,-1.5346911,-0.080422774,-0.19571124,-0.0657179,0.09023632,0.20933422,0.0009316541,0.54205716,0.31357056,-0.15497462,-0.29315835,0.44487113,-0.14521807,0.009691678,-0.36369085,0.059933823,0.75984967,-0.6608786,-0.1485275,-0.15886785,-0.1272966,0.2069703,-0.364667,0.27450216,0.21104038,0.240998,-0.20240593,-0.11825586,-0.048955753,1.5792224,0.012475673,-0.18253832,0.20048949,-2.071807,0.34120923,-1.4741822,0.44340858,0.3962323,0.35804015,0.29948464,-0.7046123,0.29686016,0.586297,0.096952535,-0.10285399,0.69105893,0.28659123,0.07048029,0.19351855,-0.20905377,-1.2417881,-0.07658193,-1.0409915,0.13133068,-0.24436836,0.2895046,0.08906098,-2.008126,-0.3542769,0.31722832,0.046179764,0.20288816,-0.11042076,0.23755324,2.2924895,1.3956918,0.020032983,-0.22695152,-0.8286626,-0.2973513,-0.27222848,-0.29284742,0.20575815,-0.17216714,0.15962115,0.023802206,0.143463,-0.27526644,-0.16131318,0.06521317,0.53208977,0.49299514,1.3873079,-0.13199237,-0.0585566,0.2822821,-1.333208,-0.15210056,0.3569961,0.03493131,-1.7320801,-0.2300999,-0.11799939,0.54001945,-0.17256202,-0.53868914,0.12679791,0.37458357,-0.682672,-1.2668765,0.5731306,-0.035129562,0.36031565,-0.10950014,-0.36520088,-0.23530039,0.7220843,-0.22566071,2.0719683,-0.264776,-0.23662975,0.10805505,0.6501161,-0.09429404,0.14204638,1.3893921,-0.29026154,-0.40068156,-0.2602108,0.21725522,0.32932094,0.4698971,0.67998874,0.62685645,0.13511157,0.08056654,0.29657263,2.1943433,0.14460811,-0.14038756,-1.0089597,-0.07627833,0.04511916,-0.579832,0.023399562,-0.25410336,0.20197013,-0.54662293,-1.4717594,0.107641354,0.32837424,-0.03160277,-0.060603667,0.08942148,-0.004466407,-0.033867657,0.53309697,0.11820662,-0.018868178,-0.1567452,-0.41649264,1.3258507,0.58693004,-0.994108,0.51690453,-1.9142431,0.8862244,-0.39778197,-0.10043107,-0.18982121,0.09806429,-0.2511254,0.20507947,-0.8170284,0.11493315,-0.06794421,-0.25531283,1.2384,-0.06710278,0.09943238,0.78427607,0.01033099,-0.6434148,0.51248676
net.jforum.actions.helpers.AttachedFile;1;-0.0663935,0.027306885,-0.08407251,0.24145186,0.1023645,-0.25021017,0.22034293,-0.11387913,0.1920028,-0.54347086,0.19355531,0.37340015,-0.089464836,0.095658645,0.5889988,0.052276656,-0.39298153,-0.059928603,0.13772741,-0.2402991,-0.13188133,-0.14652538,0.22858717,0.074620746,0.40374514,0.09103328,0.29780084,0.60574174,0.38039538,0.97329557,-0.23651297,-0.13976727,2.2796535,-0.20149821,0.17445192,0.09927827,0.05391127,-0.23446247,0.30708554,-0.13290428,-0.2901941,-0.017500985,-1.3646575,-0.048771452,0.41941094,-0.18883269,0.10625051,0.5088829,0.09551824,0.15262663,0.03184872,-0.30633798,-0.79241335,-0.010994215,-0.19520901,0.50681895,-1.0291896,0.09119274,0.17517592,-0.07605352,-0.2693535,-0.24318567,0.1748797,-0.09092999,1.7934335,-0.23478739,0.7097194,1.808708,0.3040403,-0.40132982,-0.046705097,0.36876345,0.018915199,-0.9284247,-0.5382543,-0.12253653,-0.16093892,-1.1975693,-0.70629114,0.106216945,0.42748377,0.118354216,0.2336552,0.40327895,0.17076305,-0.45418715,0.06669315,0.07036749,-0.83302253,0.39157426,0.21921611,0.107052326,1.250767,0.08217731,0.18899745,0.53422797,-0.014022186,-1.1638346,-0.1874879,-0.2484756,0.3275649,-0.7837943,-0.5152795,-0.86348104,0.35820746,-0.019049343,0.4878283,-0.11140448,-0.14708737,-0.07124049,0.113292105,0.04017689,0.021620313,-0.14256439,-0.09400024,0.08306683,0.18985274,0.118617386,-0.060997598,0.1557621,-1.3787397,-0.16364999,-0.47855964,0.99781406,0.07405936,0.1132195,-0.15125966,-0.27021405,0.5736052,0.1257071,-1.6447303,-0.61085165,-0.26126313,0.051921032,0.4084121,-0.06817056,-0.3222743,-0.33022496,-0.32584417,0.18883064,-0.75076985,-0.35018694,0.15972471,0.20218498,0.25763828,0.0812484,0.16035542,0.048093334,0.27975866,-0.47790095,-0.7788162,-0.24072754,1.5975506,-0.5685977,-0.31905827,-1.0925119,0.27743977,-0.59415936,-0.34731472,-0.880292,0.24223506,-0.17216668,0.016463317,0.79167885,0.19952545,0.48766664,0.07094021,-0.42752135,0.08201624,0.37142697,-0.20894462,-0.4230801,-0.9494518,0.34047997,-0.0410285,0.26228014,-0.01280259,0.10359783,-0.09894395,2.3398793,-0.0634333,0.22690293,0.26959392,0.120885186,-0.034091078,0.19420677,-0.49471542,-0.016015751,0.27668816,0.011213876,-0.09549846,-0.2019339,0.11900989,0.02014359,-0.14045334,0.08172213,0.16775918,0.28596848,1.604579,-0.14655818,0.03570684,0.22617888,-0.14385368,-0.21103981,-0.29274276,0.7008429,-0.2647578,0.24923381,0.59062773,1.3634275,2.2976356,0.48445144,0.2251779,-0.37846032,-1.4120256,0.18147,-0.25805998,-0.1737217,-0.15376416,-0.3815997,-1.7661042,0.1541176,-0.0975939,-0.63765365,0.014382176,0.5234787,0.12951334,0.16614966,0.089796364,-0.12065248,0.0744671,-0.1634028,0.020047864,0.27399358,-0.96787596,-0.04643444,-0.01856716,-0.12499124,-0.35876638,-1.1960112,-0.16123024,-0.10424411,0.37294814,0.680303,0.579344,-0.7183671,-0.25530577,0.29976425,-0.25191024,0.32073826,-0.21000408,-0.39260563,0.047454655,0.16385615,-0.40788102,0.018504392,0.15129441,0.046649396,-0.092641205,2.8439343,-0.06814811,0.59119046,-0.010112986,-0.43069702,0.16089778,-1.2169297,-0.21720868,-0.1311284,0.8038299,0.68607676,1.8455495,0.1694886,0.281033,0.09993711,-0.26377735,-0.31394166,0.8578104,-0.36386648,-0.82632774,-0.058546312,0.13582969,0.25142136,-0.26741582,-0.0135617405,0.1758183,-0.22822718,-0.3386244,-0.28324792,-0.016085178,0.22292028,0.53745246,-0.7487553,1.5345799,0.016220432,-0.23686726,-0.22850922,0.23213767,0.42950827,0.087004274,-0.30230707,-0.08656925,0.6111289,0.15582493,-0.40470782,-0.75657123,-0.011587357,-0.58558744,-0.1970787,-0.15618819,-0.25119454,0.34196886,-1.0544629,0.0070171906,-0.10574167,-0.25218907,0.14366847,0.10057941,0.17111428,-0.07788666,-0.03313318,-0.04788679,-0.19897956,1.1984892,-1.3391635,-0.01616943,1.1812364,0.30797,0.035169497,-2.1718984,0.8593056,-0.20826012,-0.03173615,-0.26715416,1.3298901,-1.4016984,-0.10096905,0.525041,-0.3445138,0.68848103,0.019674439,-1.7076021,-0.13878061,-0.61676943,0.5222911,0.094546214,1.293375,0.17586339,-0.41396606,1.3222901,0.24706988,-0.75065076,-0.72224474,-0.1349389,-0.2070473,-0.43492663,2.6757631,0.18217787,-0.31872165,-0.4586785,-0.11926375,0.4815721,0.057584893,-0.20649122,1.9703183,0.89412713,-0.43313617,-0.8703455,-0.22577739,0.22469081,0.05520321,0.3310712,0.16821046,-0.043529835,-0.21401404,0.44838098,-0.34634444,-0.29304296,0.38726354,-0.30179253,-0.21542843,-1.2040669,-0.094803415,-0.25740585,0.2715457,-0.1934405,-2.551177,0.37573275,-0.04348301,1.6338167,0.46731544,-0.29841337,-0.4708324,0.0988096,0.16094482,0.092376776,-0.091307454,-0.21255839,-0.13785364,-1.2441151,-0.230486,0.078035645,-0.33220506,0.11682072,0.35460067,0.19188611,0.5938315,-0.40707627,-0.2258182,0.03910818,0.46725765,-0.53871006,2.1384263,-0.034557693,-0.01926431,-0.028573658,0.36609378,0.3131055,0.11964666,-0.24522848,0.26478967,-0.14652315,0.488293,0.7984231,-0.35888594,-0.22142264,0.324885,-0.10968324,-0.25026348,-0.24595924,-0.43915775,0.041927245,0.70645714,0.40193653,0.20070624,0.001748316,-0.0634013,-0.19510727,-0.3777604,0.58073914,0.006110411,0.31622142,0.042389557,-0.071921185,0.17662662,-1.0585548,0.26369184,0.54258347,2.1044881,-0.016170934,0.19034752,-0.06970602,0.10707145,-0.10322052,-0.23620339,0.72998786,0.15407279,-0.05681685,0.09668374,0.24071312,0.3660835,0.14186355,-0.2724114,-0.09591943,-0.4149226,0.20528796,-1.8047485,0.38953072,-0.23740491,-0.29373324,0.14015235,-1.0880667,0.59380245,-0.1808144,-0.33885399,0.13163643,0.03271104,-0.166183,1.6482263,0.5431884,2.0457127,0.20324944,-0.15398374,0.62155485,-1.3064057,0.50232625,-0.6927837,0.37593725,0.21291175,-0.3240187,-0.82652134,0.022528656,0.3579496,0.1616332,0.29717126,-0.24797788,0.2866127,-0.593876,0.8438089,0.0074742604,0.99844635,0.36703694,0.22458996,0.41284797,1.5488483,0.17726266,-0.07266119,0.03808617,1.7915665,0.009855218,-0.37181377,0.21890332,-0.1627086,1.034707,0.5341379,-0.13237283,0.18996535,-0.32755548,-0.19481641,-0.043937393,1.6782879,0.11931546,0.01711753,0.025983363,0.43340236,1.7894663,-0.075541124,-1.2455195,-0.7473303,0.37694418,-0.5822273,0.063058406,0.0112556685,-0.008465171,-0.30362934,0.78759235,0.058055058,0.40573472,-0.5570996,0.1485526,-0.25008386,0.12747096,0.10576968,1.3191968,0.09982826,0.43995297,-0.33162814,-0.118988276,-1.894532,-0.21807416,-0.19243374,-0.35905993,-0.1373152,-0.26543665,-0.13153642,0.24387339,0.109674826,0.2060317,0.20690225,-0.19475152,0.4138482,-0.25588468,0.25746936,0.46832895,-0.07548576,-0.26948795,0.1688393,0.19762614,0.12757885,-0.052259453,-0.11011649,-2.1178875,-0.10254799,0.079183154,0.31353444,-0.26428968,0.20588352,1.196675,-0.09335201,-0.2286979,0.8075347,-0.4388758,2.176461,-0.01390386,-0.6711772,0.13040364,0.22855437,-0.70595956,0.8445752,13.676839,-0.051317606,1.5644714,0.8166474,0.12876016,0.11593674,-1.3774071,-0.049522072,-0.14528482,-0.00783167,0.12637128,0.2330812,0.035523802,0.48343915,0.27743015,-0.18748145,-0.27754834,0.39147422,-0.098350815,0.011481464,-0.37051708,0.14106339,0.7297779,-0.7033698,-0.13057002,-0.084771514,-0.055649336,0.12377383,-0.34322435,0.17956987,0.26301983,0.25606722,-0.278585,-0.089647464,-0.083740175,1.5749993,0.024941552,-0.19914842,0.22432095,-2.083546,0.33575797,-1.4371151,0.3502111,0.3059386,0.34825173,0.3247401,-0.7212609,0.26343954,0.51408994,0.02827558,-0.1393095,0.6912039,0.2901363,0.112014994,0.16355339,-0.30006742,-1.148001,-0.11267429,-1.0508711,0.1069337,-0.26084685,0.17580539,0.14338815,-1.9427555,-0.4282849,0.2436823,0.115970045,0.07828059,-0.13532637,0.18288848,2.2681098,1.3563368,0.06711577,-0.26371253,-0.7051968,-0.33913115,-0.17789331,-0.23853105,0.16199896,-0.101031855,0.053530388,-0.05813652,0.12582003,-0.2803133,-0.18800253,0.04807546,0.45344353,0.62487346,1.2735043,-0.074443296,-0.09344782,0.349674,-1.2974701,-0.22458212,0.38176018,0.0743832,-1.6380925,-0.20713618,-0.1561532,0.46782613,-0.04523947,-0.5250476,0.22203566,0.33298343,-0.6974042,-1.2279553,0.5847701,-0.00675451,0.31061745,-0.07727444,-0.38581136,-0.16662204,0.62391615,-0.21153724,2.0552888,-0.1664595,-0.1683366,0.09812431,0.6265621,-0.10990003,0.14505118,1.4015485,-0.2553921,-0.4581061,-0.32590318,0.23165648,0.24113926,0.44882563,0.6095054,0.58424497,-0.0071076453,0.04519373,0.31886673,2.136186,0.10213871,-0.19341362,-0.96977276,-0.063199356,-0.0036243796,-0.57914436,0.02419212,-0.27498913,0.21870264,-0.47027358,-1.4362642,0.14969048,0.29316664,-0.03255692,-0.052749645,0.116028905,-0.009288102,0.05605154,0.49539104,0.14692572,-0.0037488006,-0.20010641,-0.44029588,1.2640162,0.5373768,-0.9494787,0.54152894,-1.7536042,0.84008706,-0.37126946,-0.0041394606,-0.19384974,0.21425284,-0.2174885,0.23848352,-0.7623051,0.13741869,-0.045880407,-0.3397382,1.1789881,-0.15159489,0.11282187,0.7631562,-0.034893833,-0.63464195,0.52779263
net.jforum.actions.helpers.Domain;1;-0.16734798,0.12867437,-0.00822223,0.16944002,0.033705644,-0.22077884,0.23257166,-0.02806326,0.1420381,-0.3477975,0.1706458,0.3895665,-0.16171947,-0.071048506,0.54770744,0.013933064,-0.11065668,0.06992987,0.110664904,-0.21674639,-0.11015468,-0.04455028,0.27764738,0.03271299,0.26712257,0.05769967,0.28429163,0.52452993,0.19359975,0.78858626,-0.090506814,-0.11993369,1.8908633,-0.22914006,0.16012973,-0.0048384145,-0.07727045,-0.012512684,0.23342909,-0.17957367,-0.3028381,0.011542127,-1.1695101,0.08219533,0.42641884,-0.13799083,0.19668403,0.39897108,0.11208407,0.25675315,0.11138345,-0.032864004,-0.7487444,-0.046163425,-0.15490672,0.48595876,-0.9807618,0.19197693,-0.037069716,-0.14948262,-0.2602612,-0.29213053,0.108300604,-0.17950873,1.6308231,-0.14440785,0.6305131,1.3639765,-0.035830714,-0.28021947,-0.09199877,0.13794576,-0.022520527,-0.72925675,-0.4793977,0.03303819,-0.16768156,-0.8858391,-0.52465457,0.18786114,0.3182378,0.06230022,0.22486946,0.34304762,-0.026666934,-0.21776848,0.023205943,0.12322047,-0.8021157,0.33470958,0.25307348,0.025759093,0.98290294,0.06547486,0.18203016,0.3756336,0.1853989,-1.0136611,-0.0077883378,-0.28443182,0.29803854,-0.63749576,-0.20938988,-0.49568003,0.23688436,-0.1218621,0.46528867,-0.1588358,-0.118614934,-0.12928934,0.118309535,0.067649074,0.07625683,-0.028281145,-0.007719416,-0.13044149,0.20405138,0.18623438,0.017966598,0.18383035,-1.1352093,0.0030615442,-0.45942962,0.7741891,-0.009808132,-0.022083353,-0.0982476,-0.38721234,0.31856596,0.17979261,-1.435271,-0.64596385,-0.1455017,0.108354256,0.40506595,-0.13622111,-0.30498648,-0.112048976,-0.28537756,0.25499088,-0.64734215,-0.15718111,0.15245323,0.23941201,0.31351513,0.03881696,0.15235282,0.10264053,0.31267244,-0.3739304,-0.7157902,-0.19268216,1.3415076,-0.38137037,-0.31425267,-0.895892,0.24878359,-0.45929027,-0.124783196,-0.67135143,0.2979615,-0.21329522,-0.018211678,0.62831587,0.24775861,0.39089495,0.01581224,-0.29944116,-0.051811248,0.33756465,-0.26307008,-0.5418514,-0.68404734,0.26031926,0.15235609,0.40575895,-0.035525396,0.17618331,-0.022427496,1.7693024,0.018371657,-0.03835093,0.15944591,-0.08691268,-0.08803839,0.2292822,-0.33074513,-0.00665519,0.10836393,-0.07143424,-0.16725865,-0.114828914,0.12942183,-0.0037602,0.016576853,0.060657334,0.0569094,0.27989337,1.2171342,-0.083911285,-0.05580073,0.22834925,-0.052144215,-0.13986516,-0.13515015,0.33687824,-0.31885442,0.2958632,0.3916927,1.1763536,1.9679036,0.24952656,0.18502934,-0.42376617,-1.1340207,0.08271927,-0.10985355,-0.21111542,-0.20081781,-0.3482999,-1.5271404,0.12601066,-0.13054135,-0.4568621,0.024605704,0.29561287,0.23050328,0.14193976,-0.0378362,-0.032336514,0.08232098,-0.09665295,0.005386632,0.2831555,-0.49761772,-0.11274755,-0.16097218,-0.030479245,-0.16978776,-1.1804154,-0.17762843,-0.05630543,0.28314352,0.5259345,0.3803701,-0.6578045,-0.13318053,0.09366998,-0.13878566,0.32120302,-0.16828442,-0.20297237,0.047827944,0.15268287,-0.27730817,-0.07824379,0.020423898,0.10053702,0.07488561,2.4939952,0.0343619,0.43089905,0.050691016,-0.53215325,0.16875441,-1.0197293,-0.15781385,0.03319894,0.55483717,0.580354,1.6626413,0.16104391,0.24390082,0.17521945,-0.06586647,-0.21964902,0.63409805,-0.16283634,-0.84620196,-0.030619644,-0.03848882,0.17481583,-0.217877,0.0024847686,0.1535233,-0.24623138,-0.3378207,-0.07634534,-0.071795404,0.13795125,0.5311372,-0.54874,1.2477548,0.032365188,-0.24888352,-0.04539545,0.2140589,0.30677062,0.10202125,-0.31175572,0.026063628,0.49497762,0.025758222,-0.3148333,-0.5735625,-0.22869775,-0.53792405,-0.032929137,0.074516535,-0.07500945,0.3573941,-0.7898128,-0.042225637,-0.14182246,-0.10121493,0.051122688,0.024342515,0.21002305,-0.18979093,-0.07044946,-0.031113505,-0.12316543,0.9744735,-1.2402092,0.25185117,0.950361,0.0967922,-0.18238306,-1.8204,0.72337365,-0.36495697,-0.00046567433,-0.09869699,1.2170091,-1.1018753,-0.09495925,0.49505788,-0.25248402,0.4622064,-0.06755616,-1.382813,0.033882383,-0.2919194,0.24086209,-0.038665213,1.2421838,0.053616494,-0.21833766,1.19519,0.12367153,-0.50492704,-0.65141577,-0.16842024,-0.30321306,-0.18265386,2.2695303,0.33757642,-0.26972076,-0.33998865,0.075399235,0.37806264,0.015647173,-0.10261795,1.879237,0.84027576,-0.31615463,-0.6753694,-0.10163725,0.010146882,0.21718156,0.27113995,0.18736038,-0.06630216,-0.12841809,0.39260232,-0.21142797,-0.20077497,0.20065022,-0.09977259,-0.11805675,-1.0272964,0.08321385,-0.081422225,0.13446002,-0.05511492,-2.212201,0.2805131,-0.17842937,1.3976169,0.25437576,-0.10558736,-0.22466959,0.20795159,0.16064103,-0.13989696,0.043158576,-0.24710354,-0.21725914,-0.92100954,-0.13730553,-0.01627218,-0.24797058,0.00020629913,0.22205067,0.28702813,0.4491005,-0.39327917,-0.2531187,-0.038651425,0.4662279,-0.43113178,1.9915166,-0.19330573,0.053738862,-0.08117502,0.20818093,0.31383103,-0.08107139,-0.039554965,0.38059378,0.07236414,0.3975894,0.5905366,-0.18627498,-0.035189018,0.2544102,0.048793294,-0.20365453,-0.20579046,-0.45384678,0.015525073,0.4954324,0.26480067,0.30710512,-0.18795745,-0.2713473,-0.35247716,-0.4407062,0.49767506,0.10747913,0.250394,0.0032176496,0.14345157,0.2027934,-0.79570115,0.21873833,0.4687823,1.8355093,0.026514892,0.017063849,-0.15333848,0.12803489,0.007851891,-0.027235612,0.567113,0.011675473,0.11512184,0.072024986,0.38895872,0.43845886,0.094416276,-0.10769771,0.026438802,-0.35912746,0.27832276,-1.6036425,0.4844267,-0.17966697,-0.24326289,0.16164906,-0.98537064,0.41655427,-0.22577116,-0.16887113,0.0316275,0.0010841116,-0.08563836,1.6383302,0.36993772,1.7256165,-0.019809328,-0.07595293,0.37489033,-1.0165162,0.4206883,-0.4099407,0.21551943,0.24444999,-0.24335946,-0.5595693,-0.20109306,0.11343977,0.07220331,0.39299893,-0.1645571,0.17143767,-0.35789955,0.6718379,-0.17384966,0.8547497,0.37581939,0.099281296,0.43701363,1.4655814,-0.0041541792,-0.0739936,-0.07317157,1.4761696,0.045045182,-0.35205907,0.066242486,-0.08740469,0.8111609,0.3250399,-0.10591914,0.1874089,-0.1869909,-0.18244459,-0.123399556,1.5539353,0.17938481,0.013740562,-0.09945736,0.2858103,1.6540651,0.008516293,-1.0099846,-0.6906331,0.23476443,-0.45669943,-0.11343674,-0.059287056,-0.01096613,-0.23311573,0.7264012,-0.035666093,0.18013677,-0.39775735,0.09777409,-0.114585206,-0.06218064,-0.06428978,1.1543145,-0.03120273,0.31986484,-0.24764052,-0.11642187,-1.6424739,-0.15416433,-0.19399968,-0.26650393,-0.4799735,-0.29241082,-0.040344674,0.28465027,-0.08876222,0.06704254,0.06547683,-0.34845045,0.38533425,-0.19881883,0.3288889,0.34738082,-0.08355023,-0.16539001,0.1383763,0.2190532,0.053997964,0.01302254,-0.15036254,-1.8290972,0.019471265,0.15788125,0.1494922,-0.15699106,0.2843034,1.0690548,-0.06835129,-0.16177323,0.5159435,-0.12575991,1.7373238,0.0845904,-0.54773164,-0.027561115,0.36197513,-0.29185283,0.8407291,12.954519,-0.13896789,1.3261311,0.5564632,0.09997506,0.0563375,-1.228596,-0.11273295,-0.12889785,-0.11514409,0.03361521,0.09419897,-0.058556676,0.21981937,0.34202462,-0.2724794,-0.21699739,0.3484325,-0.03346921,-0.07213266,-0.05556795,0.06603001,0.68346375,-0.5550143,0.040587466,-0.21598236,-0.015680686,0.1471794,-0.252963,0.20496854,0.010789759,0.21654405,-0.11206347,-0.155357,-0.09949743,1.4192208,-0.02448319,-0.2655824,0.026877694,-1.718169,0.25285012,-1.0797579,0.41884276,0.15012242,0.25312206,0.18540949,-0.64927375,0.33424982,0.26051491,0.05554387,-0.026080355,0.6709163,0.21796101,0.012146436,0.18354142,-0.14339112,-0.90037906,-0.16858032,-0.9861757,-0.05259746,-0.16756526,0.18949652,0.058541916,-1.5788692,-0.2951017,0.14604825,-0.039183166,0.1357592,-0.044229962,0.12388508,1.8357534,1.2565234,0.0666679,-0.15473777,-0.56716025,-0.1019095,-0.063807115,-0.22903031,0.28214213,-0.28367358,0.058075134,0.040024586,0.011020392,-0.29942113,-0.027518667,0.15189242,0.55681455,0.42948657,1.293525,-0.038667172,0.04533756,0.16415098,-1.1662889,-0.13194756,0.1852845,-0.081185,-1.4848185,-0.13433087,0.16252328,0.34347478,0.06412674,-0.46879154,0.16127074,0.29606572,-0.46349734,-0.8621175,0.45488536,-0.08301103,0.2841419,0.088941514,-0.27539617,-0.27282998,0.30151093,-0.22381423,1.7980642,-0.13309066,-0.20076668,0.10281616,0.49251375,-0.01739392,0.1157671,1.1173908,-0.36089802,-0.28662476,-0.08456157,0.107722916,0.056082133,0.31905127,0.4416349,0.55283046,-0.023586757,0.168834,0.44436052,1.7480261,0.08574048,-0.20423418,-0.84862125,-0.14608835,0.14218667,-0.33091524,-0.031847645,-0.24297902,0.24150081,-0.2517947,-1.2384202,0.049696397,0.4489615,-0.030782018,0.020865614,0.0025683716,-0.044361487,0.10778195,0.3133725,0.07280368,-0.087160334,-0.2009135,-0.23028645,1.2034748,0.5495503,-0.7391726,0.54710096,-1.404358,0.72445947,-0.3134407,-0.09448556,-0.0076606236,0.18500942,-0.052598584,0.24843647,-0.5232327,0.22552398,-0.0050106905,-0.40383315,0.9017948,-0.03491261,0.076718226,0.53120077,-0.22806452,-0.529945,0.4886782
net.jforum.actions.helpers.PostFormOptions;1;-0.10264233,0.040660545,-0.023479257,0.31397185,0.08629328,-0.22577937,0.18072218,-0.117688045,0.24345964,-0.5866296,0.14059329,0.25444388,-0.22666377,-0.010787691,0.67414534,-0.024032522,-0.25349864,-0.08554735,0.16448873,-0.25436947,-0.14263949,-0.07970953,0.2645464,0.07444741,0.31802756,0.09033471,0.5363516,0.63060284,0.4023227,0.93626404,-0.14677146,-0.17575425,2.1906924,-0.266837,0.06517304,-0.028451368,-0.046302147,-0.2365283,0.31721902,-0.16511393,-0.3719473,-0.019591654,-1.222703,0.006489439,0.34584925,-0.17740351,0.090059,0.52303696,0.16446073,0.21332711,0.042802572,-0.16206005,-0.83798516,-0.016822986,-0.047753464,0.45928794,-0.9823747,0.1559549,0.11942541,-0.14148057,-0.41112244,-0.10969886,0.09202237,-0.14729175,1.682055,-0.12330862,0.6261112,1.6079162,0.1402771,-0.46798515,-0.048722737,0.3394454,0.07953901,-0.9098736,-0.590518,-0.06539543,-0.2647934,-1.1439321,-0.63349926,0.11739837,0.5482584,0.086781465,0.18044582,0.36276582,0.07012661,-0.5595112,0.07777742,0.049941905,-0.84248126,0.5010184,0.23060031,0.004466258,1.2228577,0.12633681,0.26060027,0.48641652,0.025404084,-1.4009494,-0.23380497,-0.29362336,0.31038946,-0.69735974,-0.43274075,-0.70342207,0.33317742,-0.04278273,0.53459483,-0.041952666,-0.29028195,-0.051822256,0.1114232,0.10599198,0.052800536,-0.080374576,-0.074361645,0.020301864,0.2255232,0.22355919,0.00069303066,0.24773182,-1.4666672,-0.14262931,-0.47498912,0.8341,-0.07979073,0.015672648,-0.15849075,-0.2607581,0.48393667,0.11920503,-1.65779,-0.60168153,-0.26466528,0.1899098,0.41037792,-0.16144581,-0.3345788,-0.23465237,-0.30847627,0.22640534,-0.78420925,-0.28658593,0.12008105,0.30668795,0.17523757,0.066469245,0.24496755,0.033141863,0.32002205,-0.4824442,-0.8238902,-0.36274567,1.5603285,-0.43707275,-0.38704532,-1.2185366,0.25721866,-0.54247844,-0.22185814,-0.86433816,0.30507553,-0.12817895,0.12619486,0.7463092,0.1765962,0.5694442,0.06343106,-0.45760044,0.023286765,0.32643333,-0.22463962,-0.47585276,-0.89842856,0.36765265,-0.056699496,0.3612028,-0.062367268,0.1281272,0.055607162,2.203527,0.022976957,0.14332168,0.13503762,0.00051184,-0.07166993,0.08786856,-0.52634573,-0.1763217,0.14679092,0.028907862,-0.20434201,-0.057141595,0.22440915,0.14326471,-0.11152494,0.004553959,0.051571637,0.14037602,1.5825152,-0.12676166,-0.06429396,0.2264415,-0.116815835,-0.17574576,-0.20337929,0.6282705,-0.30230328,0.31220216,0.60065246,1.2924427,2.139861,0.38342986,0.32420692,-0.44289333,-1.4103513,0.28087008,-0.13385454,-0.058960125,-0.2313356,-0.3374021,-1.5824018,0.15270552,-0.062349066,-0.551116,-0.07670949,0.5238856,0.15610659,0.21050753,-0.0510182,-0.081096515,0.21378839,-0.08183369,-0.04419064,0.33497715,-0.84662855,-0.08399841,-0.02746754,-0.17214546,-0.31919914,-1.1560485,-0.17797889,-0.11847807,0.3364603,0.5960119,0.5220411,-0.6639091,-0.19266097,0.10913351,-0.14105114,0.2054955,-0.12636226,-0.54303306,-0.03174829,0.21536061,-0.37177858,-0.09952751,0.107327856,0.15479961,-0.11126625,2.7818074,-0.077253796,0.53881335,-0.0070199035,-0.60746104,0.13377543,-1.1302814,-0.09501192,-0.10899019,0.7738281,0.7089405,1.8766403,0.18196163,0.26599282,0.19895616,-0.20579782,-0.34619308,0.642686,-0.29043376,-0.8926184,0.0137284435,0.14687413,0.36765262,-0.18612412,0.021436382,0.17771326,-0.17269598,-0.43129778,-0.24201088,-0.06673767,0.17591265,0.6412964,-0.6757159,1.540539,-0.058601286,-0.20432469,-0.12150985,0.20678319,0.45830536,0.12903978,-0.26643974,-0.14596799,0.5115926,0.09265977,-0.36449978,-0.66793394,-0.11376694,-0.5639063,-0.114243895,-0.021822095,-0.23442006,0.35946977,-1.0661943,-0.05071242,-0.060359694,-0.20797668,0.28728947,0.12469468,0.089039646,-0.14503463,0.012877226,-0.017132174,-0.22623415,1.2658824,-1.3503525,0.13433789,1.1743187,0.16030987,-0.033849753,-2.0775466,0.9310315,-0.3599524,-0.06151003,-0.2223511,1.2697737,-1.3286173,-0.0382688,0.5149357,-0.23802169,0.7426765,0.012482408,-1.5598253,-0.041961804,-0.45060295,0.49089223,0.19245948,1.4065233,0.16000414,-0.5022295,1.3148049,0.16153125,-0.6717466,-0.6503302,-0.22750616,-0.2504743,-0.44921714,2.689402,0.30568758,-0.31619433,-0.33652097,0.042018935,0.48383766,0.03403246,-0.16202801,1.8466961,0.8744527,-0.3763197,-0.92895174,-0.15665019,0.23831826,0.04769212,0.31109488,0.08757726,-0.0039625056,-0.17628118,0.39492905,-0.33367473,-0.226979,0.3572523,-0.23141344,-0.20140664,-1.1108301,-0.071823314,-0.16352591,0.27051896,-0.121929005,-2.5420237,0.33251172,-0.037464846,1.5996242,0.3259981,-0.31674987,-0.40409595,0.026730955,0.14963979,0.11251347,-0.01657531,-0.29174447,-0.089233235,-1.2138543,-0.19350946,-0.0074223652,-0.28907198,0.04886534,0.3789335,0.2982251,0.46861887,-0.3258368,-0.18736978,0.06525131,0.47337472,-0.52206427,2.035769,-0.055164814,0.07834731,-0.080928475,0.3238034,0.45464748,0.1751463,-0.20101547,0.2937935,0.06261168,0.48082677,0.85437,-0.25431386,-0.12668197,0.26520455,-0.049437545,-0.26672494,-0.29244354,-0.49372667,-0.027050585,0.70589566,0.3394853,0.16143975,-0.13723968,-0.21159251,-0.30557138,-0.42045635,0.62572235,0.057916768,0.32697928,0.097043514,0.053877346,0.2214483,-0.9766735,0.31076878,0.52806437,2.0722265,0.1304478,0.13674109,-0.06149288,0.08464846,-0.053221148,-0.21595262,0.8425386,0.014347773,0.09774388,0.16001065,0.2089409,0.4978428,0.033917185,-0.2607463,-0.04641733,-0.42776674,0.24004759,-1.5970685,0.404762,-0.34534022,-0.3242665,0.13947064,-1.0645852,0.5453374,-0.21825466,-0.32429028,0.02861014,-0.0216088,-0.015052341,1.6039668,0.33441126,1.9704181,0.20742863,-0.13503017,0.4710471,-1.3264433,0.5489749,-0.59257776,0.38335595,0.25178766,-0.2675261,-0.7967993,-0.014959477,0.29490218,0.18848224,0.25669292,-0.26227182,0.28253013,-0.62934,0.80090034,-0.17301409,1.0858337,0.4499937,0.2653035,0.46899194,1.5595587,0.13610186,-0.13282615,0.102873825,1.7694592,-0.09424053,-0.35520145,0.10093206,-0.18365484,1.0124707,0.52192104,-0.16590938,0.16712904,-0.29053703,-0.2478129,-0.02812206,1.6578531,0.123772494,-0.0072195455,-0.060139578,0.46990806,1.7868226,-0.026236687,-1.1016343,-0.72872716,0.3449627,-0.5734254,0.019483965,-0.06760495,-0.11346926,-0.384713,0.8457375,0.032547344,0.32013124,-0.6444996,0.0983368,-0.21048115,0.07701436,0.10194492,1.2333989,-0.008897205,0.32567364,-0.45589125,-0.15183306,-1.9203882,-0.12715594,-0.20141347,-0.23778899,-0.22851595,-0.26847905,-0.16275866,0.37143633,-0.054413512,0.20906144,0.015049504,-0.19788738,0.54597807,-0.2891424,0.32180578,0.3999883,0.0023606755,-0.23515314,0.14468904,0.14216128,0.058590136,-0.00019668601,-0.15523982,-2.098182,-0.12337913,0.1388013,0.21851584,-0.27911487,0.12793542,1.2317767,-0.05971445,-0.34086156,0.8612145,-0.27232414,2.1035514,-0.041667737,-0.69576764,0.055848505,0.2921983,-0.48682958,0.8743138,13.499597,-0.07822265,1.6094297,0.61709774,0.13410273,-0.015165042,-1.5145599,-0.07431187,-0.20371905,-0.051025655,0.022456883,0.13040084,0.013144817,0.48997858,0.42068672,-0.17774163,-0.29932642,0.325867,-0.09299803,-0.027566325,-0.34112573,0.036348753,0.7365358,-0.6470537,-0.1028564,-0.19012754,0.0015724748,0.28787124,-0.3098683,0.2403166,0.23318014,0.24765168,-0.17236158,-0.2813163,-0.06332242,1.3867644,-0.00090302527,-0.17931777,0.15965888,-1.9733582,0.3469397,-1.3991458,0.5172733,0.33297125,0.3611252,0.3459019,-0.7579144,0.26383328,0.46059895,0.10600343,-0.09417795,0.671461,0.26049548,0.011609206,0.11294395,-0.14716244,-1.1698936,0.0042042285,-0.9293368,0.14607695,-0.25825912,0.35782042,0.086480804,-1.9248317,-0.26415843,0.34296,0.034656532,0.24389015,-0.16689205,0.18894286,2.107498,1.4470361,-0.038284276,-0.27373916,-0.77363646,-0.2147735,-0.24116355,-0.30899584,0.2078673,-0.19749343,0.14678875,0.02114809,0.1660856,-0.3133886,-0.22130455,0.13745601,0.49709594,0.48379087,1.3636644,-0.12092529,-0.0017234348,0.24878581,-1.3172002,-0.063278034,0.17926891,-0.0051349457,-1.576247,-0.17168468,-0.0014832839,0.38849258,-0.17703496,-0.48342833,0.0916958,0.4043054,-0.5703783,-1.193647,0.58175844,-0.12168334,0.2621959,-0.044653285,-0.30034882,-0.26327294,0.70045245,-0.16725925,1.9501768,-0.24958225,-0.25201952,0.10554198,0.74154997,-0.07900948,0.13728657,1.2504172,-0.3126608,-0.46865728,-0.13739169,0.19365181,0.3190478,0.45468864,0.47644508,0.54196787,0.062886685,0.09192681,0.39736462,2.1796799,0.17058831,-0.2136839,-0.91797334,-0.121006995,0.055525564,-0.49398383,-0.051428854,-0.19302806,0.16631801,-0.49446517,-1.3582256,0.08396751,0.38487837,0.0020015351,-0.052080236,0.018286966,-0.03478851,0.03824318,0.49783427,0.17113404,0.0064744893,-0.1548976,-0.328669,1.2656453,0.5561638,-0.9389,0.5183957,-1.9008672,0.82828647,-0.35709015,-0.061243728,-0.15958068,0.114139885,-0.12148629,0.3395338,-0.815223,0.19445485,-0.111339375,-0.27988395,1.1796205,-0.032801714,0.034470033,0.73537517,-0.06977676,-0.6473893,0.42692083
net.jforum.actions.interceptors.ControllerSecurityInterceptor;0;-0.05324641,-0.0375254,-0.08963393,0.28856954,0.13396198,-0.30047232,0.2658785,-0.14807689,0.13422959,-0.5308023,0.2934154,0.39066344,-0.08591427,-0.06785282,0.5986982,-0.05738043,-0.38649464,-0.116843544,0.28888288,-0.44854474,-0.14063005,-0.1668351,0.21203294,0.05575292,0.41370687,0.1064769,0.347755,0.59597635,0.28125256,1.1402519,-0.1460624,-0.11226137,2.2435632,-0.26053557,0.15044233,0.15824705,0.06514509,-0.1924898,0.33237854,-0.1520575,-0.17884715,-0.14675745,-1.3833339,0.007981721,0.4302829,-0.0896654,0.12764674,0.568446,0.11113645,0.17652941,-0.04743548,-0.21933347,-0.79656684,-0.017676048,-0.22936629,0.5661436,-1.0584844,0.1811766,0.29295897,-0.049418516,-0.28707802,-0.26855114,0.16318412,-0.055987276,1.8404238,-0.32082108,0.8299557,1.7719315,0.2250673,-0.39322904,-0.15746997,0.3663541,-0.024661094,-0.93459404,-0.44154915,-0.2096842,-0.17337358,-1.3898804,-0.743775,0.038807884,0.3800188,0.118779674,0.061478123,0.40959358,0.0783483,-0.51648074,0.08177089,0.030810278,-0.97285473,0.49096322,0.19072941,-0.03375706,1.3734117,0.082789004,0.36562502,0.500704,0.09575975,-1.2855434,-0.24326855,-0.31570792,0.33188772,-0.9074387,-0.6257643,-0.8058878,0.33998957,-0.057383087,0.57290083,-0.08032113,-0.09074671,-0.028461829,0.19424465,0.18145362,0.06449044,-0.21920478,-0.10066881,0.03792116,0.29096273,0.19095695,-0.0062538087,0.20468938,-1.5058897,-0.100103796,-0.40433046,0.9229475,0.1766702,0.01617694,-0.05642376,-0.4624137,0.5721342,0.10712625,-1.7686853,-0.70567966,-0.15069835,-0.09324473,0.4001131,-0.004362371,-0.39623472,-0.38798234,-0.3345337,0.3126716,-0.7523715,-0.36851743,0.13679676,0.2953369,0.13698745,0.032753136,0.17996866,-0.00080857053,0.25242025,-0.39105004,-0.9222412,-0.31073785,1.6056339,-0.4840453,-0.5045226,-1.2671386,0.3491748,-0.6713374,-0.3696812,-0.8740962,0.30600712,-0.17299782,0.081602365,0.86783874,0.1935021,0.5643206,0.108032286,-0.5422208,-0.051594984,0.47806454,-0.22788866,-0.36014408,-0.8792437,0.3245784,-0.059264027,0.3895002,-0.0402922,0.23693235,0.09093505,2.375367,-0.12484197,0.18029295,0.24029599,0.18693344,0.03901019,0.26653242,-0.53796494,-0.032448914,0.2624737,0.12849304,-0.102042586,-0.13980655,0.09859489,0.09805355,-0.13813081,0.001292333,0.18960187,0.26962173,1.6390723,-0.23999944,0.003034194,0.20771936,-0.1901879,-0.23429218,-0.41332686,0.699326,-0.3211692,0.3551867,0.58315235,1.3784618,2.2965753,0.564572,0.33511686,-0.38735583,-1.5534002,0.20307498,-0.19998282,-0.17794186,-0.12223222,-0.44356585,-1.7152671,0.123835325,-0.09691864,-0.55105937,0.14842184,0.58326,0.17321625,0.39764568,0.12471134,-0.14150462,0.014620997,-0.18345714,0.10130356,0.3641113,-0.96738887,-0.013048725,0.017688956,-0.12739375,-0.3315373,-1.2621893,-0.24185942,-0.18671188,0.21436557,0.59180105,0.6410376,-0.8866904,-0.26342443,0.21730757,-0.27314484,0.34816915,-0.18475434,-0.4135681,-0.0012997314,0.30018327,-0.40592223,0.03426819,0.09167865,0.11459676,-0.13479055,2.8350265,-0.0009753853,0.57241064,0.053008754,-0.6218916,0.023802416,-1.3495063,-0.35724148,-0.18515663,0.7579234,0.71273035,1.8814347,0.21770793,0.2775905,0.06411739,-0.23710799,-0.33354482,0.7820581,-0.4107982,-0.921355,0.01788148,0.13290836,0.37743676,-0.19409157,0.0940715,0.30958414,-0.14388858,-0.35775775,-0.31796515,-0.18046033,0.2339561,0.66911095,-0.7595219,1.4849054,-0.098507285,-0.24922635,-0.16064772,0.1858149,0.37938395,0.004104987,-0.21938658,-0.12789014,0.636651,0.22931361,-0.47694513,-0.8810221,-0.019199176,-0.6529191,-0.16202283,-0.12501663,-0.109510876,0.4241697,-1.0849063,0.055991836,-0.17529309,-0.2657117,0.30558014,0.1417703,0.24811661,-0.13423884,-0.02605404,-0.13471965,-0.1742233,1.3558218,-1.4197295,0.08418138,1.1340781,0.18999085,0.016472954,-2.176509,0.8111577,-0.04273647,-0.015061943,-0.11152381,1.4709779,-1.4282196,-0.0634664,0.4964383,-0.39206126,0.70757693,0.05212514,-1.592331,-0.14231662,-0.56345606,0.5167382,-0.01706601,1.3543603,0.12640873,-0.4144401,1.4918358,0.14441082,-0.6790787,-0.78808475,-0.1628591,-0.12175949,-0.35023963,2.7399027,0.2528236,-0.28237343,-0.51019126,-0.01953962,0.49357066,0.04569327,-0.28874123,2.0588243,0.95327973,-0.5604333,-0.88025373,-0.2849348,0.26505542,0.14113209,0.3236765,0.26196215,-0.021854062,-0.21898797,0.4433706,-0.37043974,-0.3296882,0.42505848,-0.1670304,-0.25761694,-1.3590186,-0.12656069,-0.25949514,0.2711708,-0.22917682,-2.5434036,0.41640565,-0.0099707395,1.7174591,0.4287588,-0.25663623,-0.556917,0.21058775,0.1915094,0.12269008,-0.040149674,-0.41269475,-0.23556596,-1.2713416,-0.16161844,0.032720093,-0.31630412,0.24090946,0.46247318,0.27662796,0.61090857,-0.463005,-0.16715285,0.08391317,0.5305705,-0.44490337,2.2101839,-0.13793308,0.11228596,-0.048484918,0.31830373,0.34713414,0.12164989,-0.276934,0.38678324,-0.105708994,0.3933307,0.90611774,-0.25182194,-0.12639992,0.27329174,-0.023338273,-0.26740447,-0.23230694,-0.5167715,-0.047438476,0.7464179,0.4930208,0.23743016,-0.08076375,-0.086878,-0.14259681,-0.43715543,0.5879221,-0.01956145,0.34412214,-0.031911675,-0.02410566,0.054903097,-1.1882111,0.30078822,0.6424659,2.212312,-0.113472596,0.09971676,-0.12580408,0.1661645,-0.117053255,-0.39685068,0.773162,0.10395089,0.004672643,0.23318636,0.21175256,0.3374516,0.20991683,-0.33290684,-0.15261815,-0.32043922,0.20161375,-1.8265386,0.30437058,-0.18213631,-0.26783535,0.08047092,-1.1401329,0.6493255,-0.14094178,-0.2270681,0.1341525,0.08121573,-0.120618336,1.7070091,0.5546906,2.1685448,0.21244496,-0.054589503,0.59581566,-1.438275,0.51519245,-0.7284433,0.38974953,0.24027522,-0.34865025,-0.74292153,-0.03724415,0.3104992,0.25871623,0.13429683,-0.34287542,0.1811926,-0.68922186,0.8485894,-0.15018673,0.9529472,0.44553056,0.21813923,0.39920685,1.6693007,0.14387503,-0.04502393,0.014034133,1.8691869,-0.0010658726,-0.33840168,0.03983301,-0.10558881,0.98307264,0.5307229,-0.23565151,0.16193324,-0.25282985,-0.12639396,0.015565366,1.6030927,0.016882673,0.2159516,0.0006294623,0.51490384,1.8815138,-0.1569087,-1.3339418,-0.6926344,0.28429574,-0.5170314,0.06245956,0.0030351905,-0.05710285,-0.2963134,0.8850387,0.029183328,0.39314097,-0.5981969,0.08726281,-0.27901754,0.30200255,0.18267132,1.304903,-0.03485456,0.48382083,-0.18212582,-0.15286025,-1.9811678,-0.24561591,-0.33870998,-0.36644897,0.05439809,-0.3740477,-0.16245396,0.27259424,0.013112646,0.39722297,0.21061133,-0.23955016,0.59838516,-0.14506,0.27797008,0.3469693,-0.07399551,-0.21845333,0.0168573,0.2347676,0.16780019,-0.015313241,0.007999837,-2.1200616,-0.13628793,0.025823511,0.46371037,-0.1649589,0.34277716,1.2092059,0.020021457,-0.29529965,0.90295714,-0.3992621,2.1525202,-0.0343295,-0.6629843,0.115955606,0.32392135,-0.8136874,0.90416,12.985881,-0.1131098,1.5037547,0.72501385,0.15266182,0.092613205,-1.5570073,-0.04796712,-0.1421407,-0.025462084,0.06146641,0.15690894,0.071904115,0.51373464,0.24355437,-0.082635924,-0.17699301,0.47867885,-0.1808399,-0.064355865,-0.29956067,0.08320143,0.7039771,-0.58326674,-0.2518678,-0.1881047,-0.15876146,0.19025123,-0.37871426,0.31178564,0.1582954,0.290422,-0.30321324,-0.0766136,-0.09684564,1.6707124,-0.041362904,-0.22434202,0.23708734,-2.1022315,0.33973175,-1.4369955,0.3299389,0.30911437,0.4062794,0.28821713,-0.67895335,0.2527869,0.5423614,0.15139696,-0.19982933,0.722574,0.3052804,0.15830055,0.17775759,-0.22760655,-1.3035947,-0.037103303,-1.0875689,0.21049622,-0.187631,0.18090717,0.08437395,-2.0144198,-0.42263457,0.26998815,0.13249975,0.17313647,-0.18088962,0.18844604,2.2738526,1.3912216,0.079410136,-0.16370688,-0.9361427,-0.22981714,-0.20320511,-0.22333398,0.18877663,-0.16435733,0.19463235,-0.0801032,0.1317436,-0.32549164,-0.1345174,0.076261476,0.58682555,0.5563001,1.3194945,0.07869255,0.07296656,0.40756384,-1.3917776,-0.22772016,0.4141178,0.14746717,-1.8485585,-0.19586702,-0.14472908,0.55789745,-0.095320374,-0.5658037,0.13592505,0.34953302,-0.71391565,-1.2997026,0.5137424,-0.023587748,0.20244393,-0.11116059,-0.4908936,-0.28725097,0.65198505,-0.17753962,2.1021054,-0.09286956,-0.16599518,0.12016904,0.66987246,-0.059538666,0.15016218,1.569966,-0.14456098,-0.41898793,-0.28927594,0.27425262,0.23125827,0.5314256,0.6409945,0.63232774,0.008861542,0.0827705,0.24649283,2.0095546,0.11488188,-0.11539183,-1.0169338,-0.11354923,-0.08384614,-0.5854598,0.0960252,-0.32016504,0.31030905,-0.4612317,-1.4448498,0.042965025,0.18746425,-0.10160621,0.032872222,0.15735102,-0.08015027,0.009516116,0.61446893,0.13061982,-0.07196959,-0.13783324,-0.43937576,1.3174412,0.66627526,-0.9212239,0.5785216,-1.8665856,0.8880177,-0.36610973,-0.111411616,-0.16144091,0.17963433,-0.18575016,0.20650299,-0.77027327,0.060155954,0.032224026,-0.33882424,1.227288,-0.1375988,0.12621924,0.716359,0.0059559047,-0.6273222,0.46227714
net.jforum.actions.interceptors.ExtendsAnnotationInterceptor;0;-0.06500169,-0.012032598,-0.10418104,0.24587175,0.13801053,-0.28798908,0.26170254,-0.09686233,0.17110507,-0.5321579,0.26008716,0.3684142,-0.068442166,-0.04350481,0.56149405,-0.09312529,-0.3786882,-0.14717913,0.2559822,-0.44993645,-0.14470677,-0.1550011,0.24978109,0.036561288,0.419845,0.09812875,0.36706057,0.60585636,0.30798838,1.0932842,-0.17410956,-0.1273334,2.281916,-0.23983413,0.14397824,0.12289435,0.06287292,-0.16869023,0.32405394,-0.13167827,-0.2304134,-0.10021175,-1.4004397,-0.016574878,0.42506665,-0.11180675,0.088923395,0.5359259,0.14175169,0.17452894,-0.0047473125,-0.22896907,-0.79550225,-0.0391731,-0.24494614,0.56885237,-1.0190691,0.17629847,0.24396291,-0.05677197,-0.265897,-0.25925022,0.15788196,-0.11533163,1.8463,-0.28319833,0.77781487,1.781355,0.3124271,-0.40587297,-0.11289488,0.38327688,0.008736838,-0.9270293,-0.4747572,-0.17846495,-0.14484146,-1.3633286,-0.71373117,0.034245513,0.39816025,0.12651259,0.01015427,0.38535327,0.13830069,-0.5093123,0.09166191,0.066228464,-0.91191816,0.46776652,0.19398722,0.03931001,1.3635595,0.08116345,0.28370857,0.5119088,0.04015883,-1.2799292,-0.27064824,-0.30941236,0.32965192,-0.8718816,-0.604043,-0.84703934,0.31872553,-0.023513008,0.5788792,-0.076003134,-0.13840678,-0.04065723,0.15940183,0.15337193,0.04623007,-0.1962249,-0.13703674,0.047734313,0.23650621,0.14636071,-0.006714709,0.21846828,-1.4743161,-0.14220005,-0.43621215,0.95744014,0.14200042,0.05662781,-0.113799505,-0.38421267,0.5690336,0.13042906,-1.7299824,-0.66573626,-0.16892932,-0.07625905,0.39641276,-0.014074337,-0.3678588,-0.34898105,-0.3087159,0.2516001,-0.7497921,-0.37125534,0.14456382,0.25208268,0.17300199,0.051119078,0.20441559,0.02967669,0.26234892,-0.41959387,-0.85267615,-0.30817857,1.6162629,-0.5216596,-0.49545294,-1.2618607,0.32184365,-0.6304471,-0.36854526,-0.91043186,0.2550906,-0.16312607,0.047199402,0.81110185,0.18799913,0.5447213,0.10386402,-0.48166198,-0.014745925,0.44062364,-0.19493723,-0.3758784,-0.8897388,0.34861463,-0.026172042,0.36166304,-0.02106544,0.2440003,0.009936408,2.3817775,-0.069202825,0.19279599,0.24842091,0.16841158,0.017999806,0.21002725,-0.5272684,-0.025108397,0.25642043,0.07484892,-0.09443486,-0.15209125,0.081141,0.053508777,-0.17265978,0.04321581,0.1530362,0.24177456,1.6653776,-0.19904593,0.017137606,0.18488176,-0.19101739,-0.22992125,-0.3539667,0.7316274,-0.2953189,0.33132976,0.56806797,1.3668802,2.3057425,0.5619939,0.30609733,-0.40126336,-1.5108005,0.19973254,-0.19775632,-0.18244126,-0.10696813,-0.4472995,-1.7038436,0.13124886,-0.07504529,-0.59327364,0.070056945,0.5258952,0.15421265,0.3419196,0.10426765,-0.17055611,0.051892906,-0.17290756,0.07024803,0.32605386,-0.9482696,-0.030394897,0.001901105,-0.10397668,-0.30976367,-1.2746907,-0.24495097,-0.1487798,0.26166362,0.63802004,0.6087869,-0.85631776,-0.27878585,0.2414383,-0.26643902,0.31517792,-0.17631175,-0.43916777,0.04217129,0.28055233,-0.39303523,0.036317885,0.12135357,0.12061724,-0.14792632,2.8421247,-0.011304099,0.5905835,0.022426564,-0.5796315,0.05533816,-1.3394802,-0.3410166,-0.19510636,0.7970152,0.6934758,1.8612515,0.20214023,0.26309255,0.04577232,-0.24080107,-0.34221002,0.81230545,-0.38736403,-0.880554,0.03487015,0.09874597,0.3810983,-0.19750072,0.11258717,0.27251303,-0.15004224,-0.37747058,-0.3039826,-0.13926673,0.25647175,0.6573768,-0.73948056,1.5044807,-0.062403757,-0.22750597,-0.18871287,0.21294983,0.38200036,0.043740712,-0.28255337,-0.089107335,0.65897095,0.21371219,-0.4668533,-0.87156534,-0.010739202,-0.65673494,-0.21095619,-0.11997225,-0.12493374,0.43078908,-1.0626912,0.05507779,-0.17706245,-0.24820623,0.2154644,0.18400156,0.23172192,-0.09144699,-0.015277512,-0.12130356,-0.19312552,1.3268061,-1.4292238,0.018194968,1.164549,0.22314498,0.008910307,-2.194903,0.8022703,-0.12513371,-0.042017583,-0.15693897,1.4830849,-1.4260228,-0.060506716,0.49397802,-0.37862095,0.7341539,0.051908612,-1.6322948,-0.13141768,-0.58451265,0.5347235,0.020261697,1.3547977,0.1686211,-0.42754573,1.4753737,0.1813536,-0.66651225,-0.7986336,-0.17966105,-0.18491521,-0.41826427,2.7375684,0.187974,-0.27223405,-0.46569592,-0.045763724,0.53847426,0.05019071,-0.24985026,2.0602098,0.95354664,-0.5094672,-0.89475906,-0.25568208,0.25242653,0.10010368,0.37893236,0.20781599,-0.018332597,-0.21245995,0.46664897,-0.37651077,-0.3271007,0.40153044,-0.18048218,-0.2462809,-1.2944231,-0.112301715,-0.26044148,0.31391943,-0.24251342,-2.6362925,0.3992418,-0.016403519,1.7006115,0.44679666,-0.24922779,-0.5291062,0.17052494,0.18437594,0.11610783,-0.06942586,-0.38031098,-0.20029315,-1.2507602,-0.16075198,0.0690512,-0.2990608,0.22111307,0.5035068,0.25845078,0.5991172,-0.4537621,-0.20073456,0.08317886,0.5125241,-0.47750437,2.167209,-0.10663256,0.09226121,-0.046352167,0.34862065,0.33413798,0.12599757,-0.2863675,0.33290625,-0.09562286,0.44796383,0.83847964,-0.27476346,-0.17126364,0.2985508,-0.044445492,-0.2265386,-0.22291128,-0.49157807,-0.019843053,0.760391,0.42344883,0.20231158,-0.047491796,-0.11595547,-0.15905564,-0.3988174,0.5889298,-0.025295734,0.30650192,0.019727297,-0.018313915,0.09291603,-1.1304841,0.3233031,0.6555216,2.2176113,-0.055667553,0.13059764,-0.12446828,0.121266484,-0.12260117,-0.32325587,0.7752819,0.13797356,-0.02791519,0.17816128,0.22552335,0.331742,0.21496616,-0.32291454,-0.12577324,-0.36293054,0.19824359,-1.8141626,0.3295173,-0.20049174,-0.3050971,0.055111356,-1.1745098,0.6016583,-0.16053195,-0.3176791,0.16638118,0.07854844,-0.15042593,1.6806889,0.6047643,2.151608,0.21883647,-0.08275894,0.6171176,-1.3908528,0.5066227,-0.726997,0.3657049,0.22967328,-0.36056167,-0.81804276,-0.007806723,0.30998048,0.21075925,0.17403789,-0.3330613,0.19765544,-0.67264956,0.8702889,-0.077286705,1.0137894,0.43553767,0.2147141,0.37770036,1.6173218,0.16530526,-0.05362207,0.028574679,1.8804657,0.007478606,-0.34356064,0.11432144,-0.12075667,1.0259324,0.5335375,-0.17756586,0.12505943,-0.256185,-0.16682936,0.030225897,1.6419294,0.039721742,0.1659171,-0.017281134,0.49440473,1.8639119,-0.117494114,-1.2970793,-0.6994865,0.29981163,-0.5286924,0.07486982,0.0048058955,-0.039188206,-0.30147284,0.87243867,0.010851884,0.38545147,-0.584608,0.07915982,-0.26959807,0.27676564,0.1711458,1.3029526,-0.0029725693,0.47426534,-0.24100913,-0.15659234,-1.9857814,-0.19806537,-0.277567,-0.31711376,0.0073324963,-0.31353307,-0.2016034,0.23596138,0.04362781,0.35008836,0.17589062,-0.22571616,0.5441284,-0.17104281,0.25629312,0.43373427,-0.07792569,-0.1946878,0.05362193,0.204112,0.16066846,-0.101087235,-0.0057978258,-2.1837838,-0.10800272,0.040811993,0.35942507,-0.18383339,0.30552498,1.2062099,-0.019842247,-0.2761712,0.87806684,-0.41890767,2.200837,-0.043043975,-0.67597806,0.12993741,0.3129931,-0.80810875,0.8685498,13.06006,-0.04605314,1.575772,0.74573517,0.1822639,0.11052353,-1.5034461,-0.03250569,-0.10365905,-0.052613728,0.06467297,0.17861654,0.08009135,0.53953075,0.29627788,-0.15242195,-0.23333682,0.4304446,-0.14757338,-0.009816572,-0.33666125,0.09913236,0.7112533,-0.6363107,-0.22841051,-0.14543463,-0.12034321,0.141261,-0.3926579,0.24335763,0.21363884,0.25863966,-0.3086187,-0.105454065,-0.0977716,1.6606193,-0.023065396,-0.22350667,0.22720312,-2.0975945,0.34357917,-1.4386176,0.36268544,0.30129996,0.37354958,0.30901322,-0.7688457,0.28194308,0.54564816,0.12834232,-0.20881264,0.7333207,0.28779763,0.11319666,0.16768713,-0.2659971,-1.2455707,-0.08056555,-1.0815077,0.121983275,-0.1989937,0.15484834,0.09948659,-2.0397127,-0.51148957,0.24910614,0.1050323,0.13632652,-0.17186569,0.22194792,2.2910993,1.3945551,0.0852228,-0.23907323,-0.8626857,-0.23787767,-0.19571105,-0.20786321,0.2146529,-0.14903985,0.17907423,-0.03910489,0.11698142,-0.27533317,-0.16054785,0.044996366,0.5491788,0.5788528,1.3222877,0.06200397,-0.038944885,0.3893802,-1.4045345,-0.19373234,0.40429386,0.14109582,-1.7878968,-0.15580066,-0.14729975,0.45363957,-0.076718055,-0.5313116,0.17963871,0.3022406,-0.7101578,-1.317445,0.5515895,0.0031484812,0.27968174,-0.12228009,-0.4610703,-0.21287045,0.663445,-0.16705143,2.1126583,-0.10994717,-0.15040083,0.15930799,0.6773819,-0.06421752,0.15017605,1.5214528,-0.21402733,-0.45011044,-0.32152593,0.24181326,0.23888189,0.4768349,0.6463704,0.612775,0.013490019,0.058181822,0.25596026,2.0979342,0.115149416,-0.19118986,-1.0250747,-0.06534748,-0.041793928,-0.5898833,0.09986651,-0.30713296,0.2680174,-0.46954143,-1.4798932,0.089349024,0.21604264,-0.084607996,-0.0140022375,0.20686798,-0.08088916,0.01730014,0.5053811,0.110666364,-0.020889245,-0.15054111,-0.4431503,1.313412,0.6105304,-0.9590682,0.5261268,-1.8578625,0.86289984,-0.40606079,-0.061769255,-0.18728925,0.19548182,-0.16401157,0.2313044,-0.7765714,0.07016337,0.028509317,-0.33434767,1.2378143,-0.11386061,0.11528492,0.79505926,-0.023782607,-0.6505403,0.496209
net.jforum.actions.interceptors.MethodSecurityInterceptor;0;-0.07159836,-0.058582604,-0.08577336,0.28341556,0.14416102,-0.28981936,0.2559422,-0.1580644,0.1102795,-0.5025629,0.2928203,0.4016115,-0.0752523,-0.08394231,0.60015535,-0.07798014,-0.3655529,-0.114917524,0.30658937,-0.4481364,-0.13844089,-0.17814204,0.20929052,0.062475443,0.44564554,0.09873697,0.3602094,0.58948916,0.27174065,1.152616,-0.1279447,-0.09513757,2.2580783,-0.26366538,0.12934136,0.18350032,0.0657033,-0.1849348,0.32163158,-0.14686102,-0.1722813,-0.15068902,-1.4009109,-0.002773583,0.4339776,-0.081646115,0.13007098,0.5717661,0.11322326,0.15807898,-0.05145761,-0.1941182,-0.7987042,-0.020839147,-0.24333076,0.5900685,-1.0693691,0.18282127,0.31142795,-0.04785926,-0.27579892,-0.25203937,0.16736183,-0.026551113,1.8546315,-0.32810867,0.8138318,1.7709694,0.24625325,-0.39011076,-0.16871782,0.35859007,-0.04054197,-0.91277975,-0.43656123,-0.20590535,-0.15879223,-1.4319497,-0.74209666,0.02156253,0.37937406,0.11025248,0.028700627,0.42351538,0.07058395,-0.51090276,0.09684841,0.015697718,-0.9842415,0.50318253,0.17560881,-0.03661619,1.3747475,0.08513296,0.3738625,0.49762762,0.095042035,-1.3047516,-0.2530853,-0.3205014,0.31995237,-0.91352296,-0.6155925,-0.7880819,0.32977265,-0.05389486,0.5635054,-0.07934888,-0.08021173,-0.023379475,0.16804084,0.1920811,0.0842673,-0.18987328,-0.08869905,0.0055911513,0.30081367,0.19397599,-0.011876278,0.1787972,-1.5117402,-0.090399295,-0.39363834,0.9194865,0.17947477,0.004949216,-0.042292036,-0.48248997,0.5515895,0.12604591,-1.7772431,-0.7011487,-0.14336924,-0.11599012,0.39751002,0.010513926,-0.39920384,-0.39497015,-0.3028039,0.3042132,-0.77089924,-0.35400656,0.12903133,0.29877695,0.15790856,0.019595444,0.19272906,-0.021939455,0.23168112,-0.36866125,-0.9115474,-0.31187737,1.5989629,-0.47290197,-0.50921965,-1.2970448,0.3597404,-0.66705406,-0.3787333,-0.8748456,0.3035196,-0.1871085,0.0773374,0.8771855,0.18329947,0.5705183,0.107171595,-0.53928953,-0.060952533,0.4640397,-0.22317751,-0.35523295,-0.8728688,0.30912924,-0.065846466,0.398957,-0.06215069,0.24798629,0.082287565,2.3828983,-0.1416263,0.17543001,0.23271054,0.16956368,0.03414848,0.27575105,-0.55658823,-0.041416727,0.25513798,0.16194886,-0.1273153,-0.1388716,0.10065915,0.11334916,-0.12926444,-0.0010285527,0.19512308,0.27691734,1.6272665,-0.24420583,0.027066348,0.20928162,-0.20836696,-0.22115421,-0.39894575,0.701538,-0.3194669,0.36398953,0.5928879,1.3629272,2.3222687,0.61499226,0.34711283,-0.3990436,-1.5693913,0.20928875,-0.23629573,-0.16665655,-0.12631199,-0.44180477,-1.7137005,0.12048584,-0.11934456,-0.56266254,0.1490425,0.588045,0.15918642,0.42786825,0.14433067,-0.14719489,-0.008946337,-0.17545536,0.11827294,0.37245995,-0.96786714,-0.03144176,0.032951217,-0.13358945,-0.30538023,-1.2705011,-0.2629391,-0.20046172,0.21633737,0.59191215,0.63950586,-0.90401196,-0.26770434,0.21685682,-0.2807262,0.34623748,-0.17030206,-0.41160372,0.026454959,0.29273966,-0.40707856,0.02762746,0.112506375,0.11573516,-0.15357135,2.827778,-0.011964951,0.5645177,0.04939503,-0.64991206,0.021709805,-1.3493267,-0.3587837,-0.19170709,0.7646625,0.704738,1.8953651,0.22864708,0.31198895,0.045089692,-0.22526196,-0.339304,0.7641646,-0.38135883,-0.91705817,0.021729138,0.120805435,0.39162382,-0.19328654,0.103186406,0.32001713,-0.12702805,-0.3637492,-0.2768066,-0.2026042,0.23846924,0.65522236,-0.76083016,1.4999934,-0.10892895,-0.2501483,-0.16512129,0.18300647,0.36740085,-0.009350032,-0.21884784,-0.110485435,0.6421389,0.21110034,-0.49566957,-0.8936728,-0.024409851,-0.6579116,-0.1518687,-0.13843414,-0.09004057,0.43360037,-1.0875163,0.07202448,-0.19261521,-0.24706554,0.2909869,0.16408218,0.2580744,-0.1367802,-0.018935688,-0.13168536,-0.14070898,1.3693471,-1.4275205,0.07062189,1.1211425,0.22089386,0.01637351,-2.1776814,0.81737125,-0.04453723,-0.010046639,-0.09130226,1.4830197,-1.4222007,-0.065557,0.51650566,-0.4042245,0.7026797,0.055198822,-1.5989282,-0.14012131,-0.5546846,0.5246364,-0.034824498,1.3604239,0.13764238,-0.41840756,1.5038905,0.13869323,-0.63998526,-0.7867329,-0.17287505,-0.1287366,-0.35950267,2.7373886,0.2523379,-0.26906723,-0.5140609,-0.010152722,0.52222663,0.047505967,-0.2869464,2.0697846,0.93161505,-0.5676817,-0.89555216,-0.27559224,0.261664,0.14548256,0.32527035,0.28346163,-0.015117731,-0.21534933,0.4526133,-0.38193592,-0.33378345,0.4208221,-0.17128095,-0.25121754,-1.3669611,-0.11033415,-0.26814318,0.28933215,-0.24727213,-2.5500119,0.41870695,-0.017174691,1.7008748,0.4159549,-0.25514942,-0.5433556,0.24245267,0.17847946,0.12335506,-0.019242778,-0.4100945,-0.21767643,-1.252802,-0.16147418,0.03132647,-0.31292886,0.23877977,0.47356486,0.28153703,0.6064901,-0.5082055,-0.13635287,0.06811288,0.52528685,-0.4462594,2.2255373,-0.11407623,0.14018476,-0.05066118,0.32995725,0.35396641,0.10487689,-0.25810662,0.3980965,-0.09872199,0.40634656,0.92074066,-0.25108683,-0.12844217,0.2832914,-0.011570394,-0.27420783,-0.21895064,-0.5189445,-0.07009187,0.7338637,0.5036268,0.23083305,-0.07641814,-0.101156846,-0.13436082,-0.4361192,0.5951011,-0.019346539,0.35719407,-0.035143968,0.0016689524,0.041595742,-1.2152683,0.320056,0.6290859,2.2401943,-0.11338188,0.12232962,-0.11118057,0.14551719,-0.11285639,-0.44042096,0.7567797,0.1055763,0.010480709,0.2228142,0.2166157,0.3306275,0.21459286,-0.3506958,-0.15085441,-0.321478,0.1953369,-1.8266667,0.30501008,-0.17606936,-0.2621177,0.06882909,-1.1542877,0.63385063,-0.13981538,-0.23323548,0.15374418,0.07698119,-0.11321939,1.7307603,0.56634307,2.175641,0.26066142,-0.041781537,0.5944043,-1.4466665,0.50505096,-0.7275087,0.3658148,0.24897185,-0.36560598,-0.7530889,-0.027906746,0.3208725,0.2740116,0.13613439,-0.36298716,0.19692013,-0.6927223,0.8232542,-0.17404579,0.9556084,0.43027645,0.2139249,0.3868259,1.6676685,0.14510027,-0.05724499,0.024915902,1.8889258,-0.005458366,-0.35095719,0.031675972,-0.094273746,0.9764301,0.53485423,-0.24508546,0.15811491,-0.2505867,-0.1276968,0.045888677,1.6214533,0.027152553,0.23052743,0.0062815044,0.509687,1.8998189,-0.16306248,-1.3337559,-0.70899737,0.27149832,-0.49359676,0.05771442,-0.012252493,-0.060511984,-0.29186833,0.84625834,0.02850892,0.39260834,-0.6209448,0.07962943,-0.26920593,0.32938015,0.19623739,1.3229678,-0.026090026,0.46807835,-0.16835137,-0.123866454,-2.0049214,-0.24156378,-0.33368188,-0.34892425,0.0754405,-0.3789122,-0.18242149,0.2826832,1.694262e-05,0.38938764,0.24665938,-0.24946018,0.60554695,-0.14156061,0.29278195,0.34038633,-0.08699324,-0.21704444,0.013465844,0.22906016,0.17435059,-0.02652527,0.010830786,-2.1667712,-0.1273591,0.008036613,0.46650425,-0.16362384,0.3614825,1.2105386,0.04924622,-0.29552373,0.91615057,-0.3990678,2.144715,-0.0220357,-0.66053426,0.12228346,0.32860574,-0.8080476,0.8898947,12.955886,-0.114682205,1.5060735,0.7451722,0.16424918,0.08887865,-1.5746989,-0.0628829,-0.1550916,-0.021415599,0.056354888,0.16024528,0.08613817,0.53170204,0.2344809,-0.058761775,-0.14605716,0.49671936,-0.19408545,-0.072499335,-0.27810532,0.08671889,0.70707846,-0.5981098,-0.23739749,-0.16139163,-0.16827525,0.17521757,-0.3737997,0.29943725,0.15090652,0.2777284,-0.31439388,-0.08596099,-0.097041234,1.7028179,-0.03356855,-0.23993944,0.24648474,-2.0846934,0.3480429,-1.431571,0.30638254,0.30839908,0.39692667,0.26634762,-0.7012837,0.2606963,0.54701704,0.16060624,-0.21093273,0.72852397,0.30452386,0.14847612,0.17368868,-0.21598393,-1.3423892,-0.039736614,-1.0878879,0.21545419,-0.19245093,0.19273978,0.08638719,-2.0097322,-0.41172996,0.25952792,0.12553029,0.15398437,-0.18983881,0.20668398,2.28949,1.3960124,0.07111128,-0.1365199,-0.94477296,-0.22589968,-0.1959767,-0.22565377,0.20883337,-0.19104967,0.20607623,-0.0742494,0.12459542,-0.30787465,-0.120337136,0.08438868,0.60697967,0.5268952,1.3323898,0.083487466,0.08281014,0.40195382,-1.4065979,-0.20420657,0.44108173,0.13045685,-1.8680041,-0.17827702,-0.17625906,0.56993455,-0.10338575,-0.5851774,0.13705678,0.34895658,-0.7082247,-1.3037438,0.53097075,0.0016936362,0.1941199,-0.110688865,-0.4968658,-0.2839765,0.644626,-0.18482408,2.120017,-0.08105087,-0.16566424,0.11036083,0.66051406,-0.03565908,0.14664945,1.571659,-0.14737272,-0.42347908,-0.27788907,0.27528355,0.20183119,0.5156417,0.65314037,0.66648656,0.0026221424,0.0774453,0.23024935,2.019046,0.12370114,-0.11113972,-1.0169494,-0.10771242,-0.1028956,-0.59633297,0.08470778,-0.32326996,0.3129998,-0.47451222,-1.4504927,0.040285457,0.18604186,-0.11925202,0.017058875,0.15396613,-0.07629799,0.002623655,0.6111486,0.1073415,-0.0721314,-0.14806361,-0.41494602,1.3041441,0.6669516,-0.9274599,0.53312993,-1.8728133,0.9109944,-0.40300864,-0.11112836,-0.16143483,0.14917873,-0.18675229,0.18918389,-0.7544416,0.062266544,0.011761187,-0.33329904,1.2389568,-0.15752,0.13129246,0.7258234,-0.0045416877,-0.6406097,0.46176496
net.jforum.actions.interceptors.SecurityInterceptor;0;-0.08445829,0.010702024,-0.07900776,0.29830778,0.12932786,-0.22150783,0.28071257,-0.11028984,0.19070919,-0.4800849,0.23585026,0.28446987,-0.13476706,-0.10185123,0.55803365,-0.113058686,-0.3157921,-0.06105128,0.25125787,-0.39215612,-0.11239811,-0.079321615,0.1810525,0.03168877,0.30793753,0.0722866,0.46621597,0.59970164,0.2609379,0.9421628,-0.11545681,-0.11253742,2.1246598,-0.2499813,0.11834676,0.04075088,-0.010277085,-0.1389561,0.33179536,-0.1309071,-0.31256962,-0.057263866,-1.3214217,-0.00411276,0.40070257,-0.10426113,0.07669466,0.5252865,0.1680752,0.24321522,-0.045034807,-0.14322287,-0.7978781,-0.05884291,-0.116030544,0.48061863,-0.9954701,0.21846227,0.14160205,-0.10218496,-0.33033073,-0.25112593,0.116180204,-0.1429714,1.7178725,-0.2073371,0.7057913,1.5718493,0.179473,-0.35233328,-0.16671783,0.3048705,0.08692994,-0.89906794,-0.5112688,-0.18447904,-0.20048267,-1.2102062,-0.65607893,0.14019547,0.4302201,0.07319214,0.058915317,0.35073766,0.14501862,-0.5048731,0.03796843,0.107695974,-0.9074145,0.439489,0.17292519,-0.0035284013,1.2509133,0.07863648,0.35978028,0.46424052,0.055565495,-1.3115177,-0.20998575,-0.24951994,0.35600606,-0.82459307,-0.5048498,-0.7007534,0.29014644,-0.07130312,0.56878996,-0.057251554,-0.13443263,-0.03616261,0.17262006,0.20684035,0.12873863,-0.1494271,-0.14610071,-0.011337646,0.25004175,0.19055481,0.009429321,0.22734089,-1.4604243,-0.124305844,-0.45108542,0.80790406,0.10349131,-0.07772704,0.022531962,-0.34169963,0.4202156,0.106250666,-1.621739,-0.7093048,-0.1459239,0.03303023,0.36433482,-0.08984303,-0.33950803,-0.24866684,-0.27897808,0.27951506,-0.7417453,-0.22867565,0.10777194,0.30660364,0.11252769,0.035908315,0.21299057,0.0299792,0.33068684,-0.42003343,-0.88007814,-0.28562954,1.5016648,-0.44918635,-0.38806555,-1.1944612,0.43580663,-0.5749306,-0.2518238,-0.84765404,0.3883749,-0.114607334,0.16856487,0.7264295,0.22875743,0.55150753,0.043915454,-0.51568323,-0.08098766,0.44500518,-0.22605412,-0.4170595,-0.7914855,0.3595779,-0.021757126,0.37166002,-0.05023251,0.1905313,0.17332338,2.1396644,-0.044888604,0.11189375,0.15623622,-0.016127309,-0.092533685,0.20504479,-0.4932407,-0.112574995,0.19199914,0.05723508,-0.043377176,-0.082243815,0.0926567,0.10769749,-0.06424283,0.002872554,0.103746034,0.19982634,1.5408846,-0.20744912,-0.12258164,0.19640379,-0.20352113,-0.23086478,-0.27016476,0.58840907,-0.28711012,0.30445555,0.46159482,1.3301702,2.1763523,0.47586933,0.2882631,-0.40143526,-1.3607744,0.15663971,-0.06948353,-0.17065036,-0.17114894,-0.43042886,-1.5550374,0.093233585,-0.009991744,-0.50746036,0.09415116,0.4715478,0.1542917,0.2182018,0.02586169,-0.17408669,0.12053535,-0.16401473,0.108544625,0.38246074,-0.7831132,-0.07981279,0.014334674,-0.056038212,-0.31247237,-1.2009116,-0.14411385,-0.0974676,0.2181505,0.4923092,0.5191915,-0.7153928,-0.2355809,0.1437142,-0.18714952,0.27860183,-0.13960074,-0.4003363,0.043040697,0.28767157,-0.32788607,-0.036608353,0.08173856,0.23821902,-0.099715404,2.8041565,0.014807709,0.4935634,0.002246268,-0.70244306,0.025165536,-1.3114632,-0.22937465,-0.19861962,0.67231804,0.6695501,1.8730983,0.1861031,0.18481915,0.094748,-0.225277,-0.32849547,0.66233754,-0.338912,-0.87864393,0.019352024,0.06518737,0.30690816,-0.19257957,0.12743501,0.22306602,-0.1561427,-0.43665025,-0.25897285,-0.2060576,0.17486008,0.6934131,-0.68825126,1.4353799,-0.011142935,-0.28744006,-0.09080269,0.13746975,0.32783365,0.0469711,-0.25173345,-0.15644844,0.6037161,0.1307451,-0.37274292,-0.74163175,-0.06171648,-0.6329286,-0.07508942,0.07560832,-0.074440144,0.38305965,-0.9587062,-0.04255107,-0.099624716,-0.2162001,0.30743745,0.105180025,0.22350492,-0.17158371,-0.051978398,-0.13927631,-0.1920722,1.3246975,-1.4173845,0.13201462,1.0700666,0.10173308,-0.0036881156,-2.0873854,0.7690282,-0.16837172,-0.07931163,-0.1419847,1.3469802,-1.2150592,-0.09063973,0.5528152,-0.28369373,0.65569663,0.040882803,-1.4728471,-0.03335907,-0.44472632,0.4389836,0.025388366,1.4210562,0.12479659,-0.43141976,1.3381938,0.07658595,-0.6335855,-0.6173835,-0.15508877,-0.159463,-0.31210682,2.5744965,0.32035205,-0.2589928,-0.4033868,0.046970736,0.3972129,0.0032978964,-0.26299635,1.9974208,0.9150378,-0.5226571,-0.88431215,-0.20842941,0.1846593,0.09001121,0.39445642,0.15334867,-0.020630935,-0.20647633,0.37929583,-0.24855006,-0.27490786,0.29093948,-0.1219314,-0.3111023,-1.3311645,-0.05589235,-0.18248965,0.267851,-0.13169916,-2.589917,0.3922496,0.010197717,1.5719966,0.2691831,-0.2667465,-0.4673551,0.087011516,0.22201848,0.027091421,-0.0034462016,-0.37808347,-0.08179879,-1.244563,-0.15000921,-0.0011403263,-0.25133428,0.13164377,0.4502703,0.2982064,0.44474456,-0.4610239,-0.20303941,0.014770783,0.42152882,-0.4020225,2.1237323,-0.20441723,0.13176252,-0.07700785,0.26565632,0.37845793,0.14822432,-0.2357163,0.30182847,0.038154695,0.4682761,0.76521176,-0.19309324,-0.08675841,0.22701623,0.021048466,-0.26436976,-0.18830813,-0.47238693,-0.033850804,0.69835496,0.3617055,0.20093916,-0.10799075,-0.1962686,-0.23375893,-0.43245903,0.6208297,-0.009897049,0.2857373,-0.0148480125,0.10310149,0.09173286,-1.0039918,0.28784743,0.5638965,2.060506,0.06035812,-0.04045071,-0.18282501,0.12662554,-0.09221953,-0.17834628,0.75895333,0.0048314235,0.12639706,0.24403937,0.2557275,0.37417337,0.15731227,-0.26738837,-0.043510217,-0.34584343,0.1783372,-1.7059509,0.3474456,-0.23969114,-0.32149148,0.07433812,-1.1272081,0.5494798,-0.23930693,-0.30078754,0.032246903,0.023858564,-0.07420233,1.6277514,0.3692132,1.9791946,0.110235274,-0.0794375,0.41871977,-1.2923189,0.5203655,-0.60062486,0.35884705,0.2268788,-0.27639934,-0.71487355,-0.026886761,0.22460163,0.18565154,0.24311368,-0.259407,0.2012918,-0.61711943,0.7975021,-0.18449521,1.0075618,0.51108384,0.23867564,0.44297186,1.5983826,0.0743671,-0.13129674,0.06921358,1.7390856,-0.09837675,-0.3257961,-0.021069625,-0.15925272,0.9736018,0.5066067,-0.23034193,0.1753179,-0.22053702,-0.21427023,-0.0069339667,1.6102077,0.057807952,0.08364157,-0.057108026,0.43983868,1.8255502,-0.024919348,-1.1624254,-0.71322656,0.3133118,-0.5068559,0.047527384,-0.025622508,-0.07821891,-0.24732663,0.90264386,0.027968565,0.27722293,-0.54767936,0.057994474,-0.20695443,0.15416157,0.027498236,1.203703,-0.14063077,0.3825765,-0.27976677,-0.156357,-1.9095086,-0.15809293,-0.25637373,-0.24975114,-0.05497378,-0.32849798,-0.13746716,0.27011916,-0.076843955,0.36043465,0.008923293,-0.31111515,0.5692034,-0.21608992,0.25482962,0.39917147,0.0043404973,-0.16172703,0.095923655,0.2261678,0.12614551,0.03673891,-0.000119534634,-2.0650375,0.008271377,0.012616175,0.39299,-0.120082,0.3021582,1.170257,-0.031064056,-0.28666747,0.8441972,-0.2690603,1.9904972,-0.025596445,-0.70709085,-0.0007855892,0.34134206,-0.556735,0.9108205,13.07124,-0.11572194,1.5054401,0.6184674,0.1917922,0.091600634,-1.4990841,-0.01816897,-0.13021077,-0.075060256,0.09595716,0.0355241,0.022996582,0.42298582,0.36765555,-0.17096956,-0.17712565,0.32456648,-0.2170102,-0.036374316,-0.19902647,0.028450675,0.6873297,-0.59309626,-0.18016458,-0.31047246,-0.12585974,0.22059415,-0.32459426,0.30162492,0.09874768,0.25582597,-0.24587469,-0.21626644,-0.11153271,1.5332817,-0.07653509,-0.23237121,0.16167565,-1.9804069,0.29883924,-1.3066711,0.4827019,0.3576037,0.38978282,0.26702952,-0.6968282,0.25160447,0.41363835,0.14318508,-0.09467015,0.70805335,0.23451233,0.087281466,0.13657464,-0.14665607,-1.1421746,-0.123439856,-0.9909465,0.12547939,-0.17346859,0.23356402,0.08756558,-1.8725691,-0.3279437,0.2539831,0.14236103,0.2862999,-0.20960426,0.2048332,2.1057537,1.4548022,0.060353342,-0.19269346,-0.9411311,-0.20849077,-0.21247186,-0.28940544,0.28256103,-0.23740095,0.20288105,-0.00096415234,0.07216564,-0.3184251,-0.1725194,0.039108366,0.53586507,0.46416965,1.3815627,0.0752649,0.06369633,0.38472548,-1.3634653,-0.0948508,0.29522067,0.05847962,-1.5897118,-0.17082214,-0.045155082,0.43814668,-0.1477753,-0.4955187,0.17897685,0.283882,-0.65343064,-1.1755539,0.47623244,-0.09424198,0.3005934,-0.03978594,-0.29914847,-0.26039767,0.59930456,-0.19567984,2.0224376,-0.17820549,-0.22057919,0.18648963,0.68395203,-0.040147413,0.13731958,1.3392342,-0.25376722,-0.41450095,-0.14452493,0.22452909,0.26042497,0.5568485,0.44434097,0.5252816,0.004572245,0.034808557,0.40453637,2.107241,0.15650721,-0.14034729,-1.0523603,-0.10257214,-0.03283791,-0.51496106,0.10439008,-0.24290536,0.22389738,-0.40671113,-1.4122266,0.066216685,0.38280842,-0.05046244,0.015611236,0.041394424,-0.08652749,0.06330519,0.46294045,0.17008911,0.006680598,-0.10885576,-0.3580344,1.3298045,0.65370005,-0.8861719,0.61772037,-1.8344264,0.7956829,-0.36066815,-0.13734527,-0.04500854,0.19700713,-0.06676543,0.3187034,-0.7557556,0.06940851,0.025824895,-0.37050423,1.1492265,-0.077095024,0.06580499,0.68675655,-0.020952435,-0.6038344,0.37478575
