com.rafsan.inventory.controller.admin.AdminController;0;-0.0028704526,0.039164852,-0.032810427,0.05633288,0.012739717,-0.03161861,0.04740546,-0.08697818,0.10384095,0.09592307,-0.014868833,-0.092121415,0.033972792,-0.006052237,-0.12620202,0.0533653,0.068586715,0.047544666,0.008627637,-0.12864153,0.014104789,0.028241746,-0.041945983,-0.0098196305,-0.02745399,0.0040213233,-0.053897813,0.1254516,0.013294863,-0.008921248,-0.028085086,-0.042105515,-0.07156783,-0.010826882,-0.057429194,-0.032232907,0.043014355,-0.022317952,0.042886242,0.0185306,0.093443364,0.004770686,0.049923845,0.043640822,-0.044168536,-0.06668194,-0.029996036,-0.027788827,-0.016914967,0.014665579,-0.06343619,-0.030857215,-0.054367322,-0.08317789,0.017987283,0.014045565,0.0047494266,-0.079768665,0.050935894,-0.033339854,-0.02429302,0.033346307,-0.06739074,-0.03966728,-0.03302645,-0.042680204,-0.04451726,0.05046863,0.0004559206,0.038014617,0.028621202,-0.044478856,0.06515674,-0.06818827,-0.06554246,-0.021351503,0.094620265,-0.028010508,0.07764323,-0.0035283808,0.027242081,-0.05567975,0.024122173,-0.06787285,0.078297816,-0.00048468087,-0.057515904,0.109791465,0.07276295,0.04523331,0.031036377,-0.016670998,-0.078571446,-0.021007238,-0.01082954,-0.02938037,-0.006435437,-0.043194417,0.06327614,0.012241492,0.05025628,-0.014491221,-0.03743101,-0.03343115,0.0026992627,-0.039039783,-0.047156516,0.022259252,0.0073447926,-0.04584563,-0.02034631,-0.06405419,-0.024221098,-0.060573105,0.07448715,0.047149144,-0.012538819,-0.021872703,0.15521343,0.040053464,-0.04227186,-0.024393532,-0.034269013,0.09647447,0.10260545,-0.044947077,-0.06457965,-0.025529068,0.04992376,0.04579797,-0.025293415,-0.07217853,0.003672139,0.008488859,-0.041599747,-0.01758927,0.008728199,0.009141044,0.0071188253,0.035633218,0.092048906,-0.052646767,-0.005027514,0.08756968,0.049367197,0.024679806,0.02213073,0.010902276,-0.08046645,0.033589225,0.048234574,-0.037932836,-0.01708033,0.060520127,-0.021639707,-0.12934627,-0.094873406,-0.033250444,-0.052853875,-0.0026440567,-0.048964597,0.09702838,0.06677863,-0.037644804,-0.010177731,-0.0018035803,0.060151517,-0.05442287,-0.08736891,-0.023977214,-0.11144711,-0.04542276,-0.025695115,-0.11667907,-0.043797184,-0.051091056,0.08712657,-0.17260039,-0.0062363013,-0.006823936,-0.11474935,-0.0067834747,0.045804333,-0.04553989,0.018761475,-0.022075182,-0.08271841,0.089060925,0.029616367,0.03232883,0.04318709,-0.10250152,-0.07189781,-0.03984224,-0.061644137,0.049379155,0.023796178,-0.025304902,-0.029302446,-0.10677792,-0.016571902,0.05826937,-0.062239785,-0.027354872,0.025829872,-0.048435856,-0.03869629,-0.018660985,0.054695044,0.00018344837,0.03523683,0.09974379,-0.103199415,0.071705595,-0.07458376,0.0680638,0.09283447,0.0872957,-0.09149341,0.013170692,-0.02739707,0.076388754,0.013668103,-0.003611195,-0.03242588,-0.027951358,-0.0061680656,0.0075305123,0.060761184,-0.03865917,-0.003948426,0.0045234165,-0.045094695,-0.0036298772,0.02732712,0.009610036,0.014435615,0.018967574,0.124743514,0.00030869045,0.05137154,0.037420467,0.026143277,-0.11995877,0.04076919,0.004099728,-0.029134858,0.06659631,0.012624401,-0.0657713,-0.050157152,0.028447697,-0.06514693,-0.009409348,0.005144569,-0.055756174,-0.023023283,0.02156084,-0.025075698,-0.07245765,0.037426937,-0.052146055,-0.04790398,-0.04357387,0.077898,0.06505885,-0.048098102,0.017845582,-0.09223561,-0.030538151,0.034492537,0.09624593,0.034505438,0.029487696,0.050089568,-0.0074895364,-0.055407234,-0.12563203,-0.001995344,0.010703955,-0.01963652,0.04587872,0.0366883,0.051882282,-0.0045624636,-0.02208264,-0.039392706,0.041651577,-0.008024323,-0.015559759,0.0060078483,0.047003243,-0.11452887,-0.014971873,0.034247067,-0.05328626,-0.03295307,-0.03818469,-0.035409585,-0.005428057
com.rafsan.inventory.controller.category.AddController;0;-0.007127889,-0.054587808,-0.022541301,0.019371288,-0.07616781,-0.063445024,0.06003062,-0.09886983,0.06345596,-0.001225853,0.03385881,-0.03470284,0.025148518,-0.0053171795,-0.09488182,0.0030858358,0.039052326,0.061498754,-0.057504274,-0.08320316,0.11106927,-0.017551167,-0.010262044,0.015651448,0.0016031901,-0.013691203,-0.04526367,0.10091553,0.046524048,-0.020535279,-0.021761067,-0.068728894,-0.04008484,-0.0476298,-0.034871165,-0.124372356,0.032859292,-0.061697386,0.05174662,-0.0037053425,0.0610171,0.05054525,0.09679362,0.018785603,-0.050025687,-0.110416666,-0.02419637,0.005572192,-0.06077474,-0.017989095,-0.14689738,-0.042448934,-0.05533447,-0.06534526,-0.052955724,0.017397817,0.105786644,-0.112347156,0.05145162,0.03015391,-0.017108154,-0.0042460123,-0.11311607,-0.061179098,-0.074166365,0.063276164,0.0043209074,0.017873129,-0.027580261,0.03192749,0.06700236,-0.023885345,0.08379008,-0.10193278,-0.08476257,-0.10939229,0.16353557,-0.032030232,0.12054469,0.03550822,0.08873698,0.010168457,0.10094274,-0.015889486,0.061183676,-0.060293578,-0.06618194,0.08398895,0.01402181,-0.0009653727,0.06416423,-0.06815694,-0.04061572,-0.057998657,-0.03317108,0.053005982,-0.030582683,-0.04403941,0.059518434,0.042130534,0.048657227,-0.023944855,-0.08366903,-0.037484743,-0.013434855,-0.06213417,-0.14243367,-0.061739095,0.01454773,-0.045137532,-0.095151775,-0.04362081,-0.048944093,-0.044491578,0.03953018,0.0659242,-0.008218511,-0.00068764685,0.11910502,-0.024879456,-0.0972346,0.01648763,-0.11096598,0.10627238,0.06917899,-0.002334086,0.012001546,-0.030253092,0.09046249,0.096814916,-0.005502828,-0.029240927,-0.039829,0.07571208,-0.00069554645,-0.056799315,0.09135437,0.055377197,0.009289551,0.08751831,0.023430888,-0.117097475,-0.04193611,0.014144261,0.032840982,-0.06688156,0.01885376,-0.048075102,-0.10092977,-0.036295574,0.06604004,0.020960808,0.018177796,0.05563787,-0.042791747,-0.12353072,-0.05180664,-0.038254548,-0.08145294,-0.014950561,0.008072916,0.078228146,0.06562296,-0.04189046,-0.045309957,-0.022594197,-0.037682343,-0.0561025,-0.05195516,0.012938436,-0.13382569,-0.014841716,-0.063218184,-0.07489624,-0.020760855,-0.08041839,0.11968663,-0.19562581,-0.10888112,-0.044999186,-0.09864705,-0.026249187,-0.0116841635,-0.047604624,0.031202698,-0.050331116,-0.1076945,0.08286794,-0.0018356324,0.10295003,-0.016489664,-0.077439755,-0.10670014,-0.030414836,-0.12686157,0.08325602,0.03309123,-0.037578072,-0.027556865,-0.14770202,0.02388916,0.029368846,-0.036283366,-0.043899026,0.0047821044,-0.06501821,-0.026322428,-0.041322835,0.09090881,-0.079482526,0.013851674,0.03720703,-0.11135661,0.088281,-0.09675954,-0.00740153,0.10655066,0.07340698,-0.0931132,0.020788575,-0.04004618,0.13067804,-0.015118408,-0.022240194,-0.05943807,-0.020352174,0.06514079,-0.07119751,-0.01823012,-0.032561492,0.006944275,-0.04553337,0.019300334,-0.032362875,0.07097626,-0.00033302308,0.05751988,-0.02932307,0.17001547,-0.006814321,-0.027790325,0.021818416,0.024945578,-0.0073547363,1.8819173e-05,-0.011589305,-0.024098206,0.14345525,-0.028513463,-0.14317423,-0.06374105,0.013526408,-0.07194188,-0.02079312,0.027062988,-0.10607707,-0.009411875,-0.036372885,0.009187826,-0.08984375,0.06746013,-0.051670328,0.015637208,-0.08319601,0.03890635,-0.005813694,-0.079850264,-0.05877889,-0.121120706,-0.06961162,0.0056762695,0.09212341,0.04028066,-0.036965434,-0.002036031,-0.032568358,-0.01979092,-0.1266121,-0.025861613,0.0571757,-0.021683756,0.100028485,0.10459391,0.04596243,0.034753673,0.045357514,-0.07339681,-0.0025979043,0.07503967,-0.07722473,0.035819497,0.0787679,-0.09503631,-0.06951701,0.09210561,-0.049800236,-0.027557882,-0.105438866,-0.041488457,0.032693285
com.rafsan.inventory.controller.category.CategoryController;0;0.023504788,0.032997914,-0.030837491,0.065820575,-0.03515223,0.0019747105,0.07275361,-0.09778874,0.07443639,0.071609996,-0.026930943,-0.09552982,0.027506052,-0.03695707,-0.13314119,0.05825266,0.105729714,0.041054253,0.015249329,-0.09452917,0.030777806,0.011431773,-0.015827682,0.027799131,-0.012908787,-0.024813823,-0.051203657,0.10105405,0.049591884,-0.036364447,-0.07082988,-0.046253633,-0.06559537,0.025727732,-0.020668514,-0.05408392,0.005539908,-0.045846336,0.014321751,0.03641246,0.061903156,0.0457984,0.052575238,0.029104987,-0.03608324,-0.102326035,-0.070206314,-0.027444905,-0.05271711,0.006100122,-0.07687251,-0.037885416,-0.07672804,-0.09779856,0.058522593,0.053010616,7.674054e-05,-0.075868994,0.044763777,-0.034295954,-0.005361901,-0.018372605,-0.09679033,-0.06787936,-0.05033577,-0.0064746393,-0.05392888,0.06505787,-0.029724196,0.0688085,0.025353855,-0.0033715225,0.0797789,-0.03347823,-0.06881423,-0.08364024,0.13021962,-0.03447519,0.073940076,0.001953125,0.066289686,-0.026617805,0.06653532,-0.0347507,0.057713356,0.015836986,-0.021115633,0.09387975,0.05102316,0.021499932,0.021309756,-0.05339318,-0.06137487,-0.032252613,0.0071849544,-0.033480015,0.0063813,-0.014797155,0.074828655,-0.0010588855,0.01329703,0.0014483754,-0.06609839,-0.029653633,-0.013026856,-0.06292784,-0.030704852,-0.025161482,0.023080667,-0.04945932,-0.051219214,-0.058020968,-0.019335417,-0.02958642,0.07883807,0.06777671,-0.024274487,-0.028420648,0.09731624,0.03953516,-0.04985787,-0.033745,-0.07840382,0.10202317,0.06270105,-0.026216367,-0.06757008,-0.026547762,0.061605684,0.08386796,-0.022549067,-0.035597786,-0.031389005,0.036301367,-0.037443727,0.012339076,0.015334153,0.011014166,0.0333472,0.013675001,0.0733487,-0.085201226,-0.035938393,0.04247851,0.061393104,-0.013656765,-0.041442424,0.004012131,-0.048090044,-0.0005924504,0.072738424,-0.018789506,0.00059018016,0.055251405,-0.0169249,-0.109638266,-0.063093156,-0.04853248,-0.07522992,0.0016672646,-0.046549242,0.057282954,0.056139838,-0.005611364,-0.05720157,-0.013240275,0.008712248,-0.08206567,-0.0739987,-0.020641793,-0.094015874,-0.06318739,-0.038763203,-0.09483412,-0.019085247,-0.060916808,0.1349634,-0.20258436,-0.043949556,-0.016501078,-0.09406098,-0.060876466,0.006024691,-0.091266885,-0.011942794,-0.050317384,-0.06442691,0.06617387,-0.013664283,0.05883901,0.042919558,-0.08834809,-0.08460849,-0.037512504,-0.050180722,0.059814304,0.036820434,-0.03540069,-0.033329215,-0.068616614,0.022609543,0.042983636,-0.058234796,-0.043595236,0.026324017,-0.074065715,0.025515078,-0.021071866,0.043834705,-0.05361209,0.059925433,0.0576681,-0.10717995,0.07426128,-0.09150927,0.04879478,0.09990815,0.08683561,-0.07679243,-0.004808677,-0.06019808,0.07849895,-0.029014327,-0.01599464,-0.06454104,-0.029347342,0.051124163,-0.045687344,0.05781488,-0.045660622,-0.004275736,-0.020653442,-0.05381961,0.03763294,0.050399482,-0.013345635,0.01101829,-0.00025474734,0.13019711,0.030441731,0.010304223,0.0056373784,0.047175262,-0.06360518,0.0016504241,-0.059452187,-0.04094893,0.07348344,0.038905986,-0.0909857,-0.019396229,-0.0062327315,-0.028866503,0.017357217,0.003103005,-0.07574772,-0.053896498,0.037438817,-0.030861218,-0.078935206,0.024007658,-0.059724167,-0.030345228,-0.06618712,0.07902855,0.038561266,-0.04746332,-0.0041163745,-0.13556668,-0.018510623,0.02464313,0.090206094,0.011775915,0.0008866473,0.022770487,-0.033213135,-0.02401205,-0.10970176,-0.03545361,0.0150698405,-0.019098124,0.039783683,0.04469277,0.046869714,-0.00709102,-0.0023034816,-0.06686446,0.0030739855,-0.021924721,-0.012457048,-0.020115849,0.02463498,-0.091669746,-0.03729233,0.027248327,-0.021554863,-0.008223445,-0.04851729,-0.040492564,0.048661824
com.rafsan.inventory.controller.category.EditController;0;-0.034116775,-0.06342398,-0.04380282,0.027459012,-0.0837177,-0.07187594,0.07483145,-0.11402869,0.05028898,-0.010627688,0.029130261,-0.019750772,0.03936486,-0.0181481,-0.10107105,0.004579984,0.0631742,0.023677636,-0.056160796,-0.08539666,0.1368216,-0.04691021,-0.03740798,-0.0056321365,-0.0013343224,-0.033352427,-0.055322267,0.113285005,0.04522799,0.012555401,-0.050796274,-0.078278296,-0.014416504,-0.021681566,-0.017187266,-0.13447171,0.0021409255,-0.069631726,0.040310435,0.007374455,0.06433223,0.08000301,0.08507362,0.07537842,-0.026728937,-0.08343224,-0.0068303035,8.421678e-05,-0.045496546,-0.020965107,-0.1593581,-0.0361638,-0.07220928,-0.063646525,-0.0121869305,0.011972985,0.1482389,-0.0843966,0.055441517,0.04996103,-0.015489784,-0.0012977013,-0.113673404,-0.093056545,-0.05892099,0.05323275,-0.0039441623,0.007048152,-0.022867056,0.021576397,0.041964017,-0.034668203,0.09539607,-0.074113585,-0.10021503,-0.11032245,0.16700158,-0.034220066,0.13335736,0.033723332,0.08454402,-0.0068547176,0.104854405,0.0021559496,0.060480207,-0.07403001,-0.06869882,0.10635188,0.031497896,0.011049241,0.07691556,-0.059492376,-0.05236523,-0.06525597,-0.035036527,0.06562781,-0.019734075,-0.049892426,0.057084773,0.028305288,0.042946216,0.017141724,-0.10625751,-0.07373892,-0.04334717,-0.099421926,-0.1518874,-0.0788424,0.0021305964,-0.03564453,-0.07778133,-0.03310265,-0.054850888,-0.04537729,0.06163964,0.048920266,-0.020871324,-0.0012206885,0.09596323,-0.017268723,-0.098529056,0.032853816,-0.12996168,0.10827637,0.05728662,0.019051889,0.03288011,-0.036553487,0.07965675,0.09218087,-0.01874202,-0.056250937,-0.024663368,0.050257288,-0.033056404,-0.058168147,0.0975107,0.06059758,0.01693209,0.0853741,0.018766433,-0.09877883,-0.024369812,0.0061883777,0.038750753,-0.09644142,0.04349647,-0.05181392,-0.09599422,-0.037496243,0.054494064,0.019588882,0.007930345,0.049031183,-0.07690242,-0.13863023,-0.04612192,-0.031005625,-0.06785184,-0.018705867,0.01559683,0.07496798,0.07441218,-0.033184346,-0.07565871,-0.019198373,-0.03948998,-0.043365948,-0.06988619,0.0029325045,-0.13831505,-0.038564827,-0.07131723,-0.06759127,-0.028651545,-0.09280959,0.1430988,-0.20457858,-0.111968055,-0.03034668,-0.08990948,-0.049412183,-0.035555325,-0.05208764,0.005319918,-0.080624156,-0.09257061,0.09629141,-0.010092868,0.111760065,0.026936224,-0.101472706,-0.10147095,-0.04262977,-0.11728328,0.10210712,0.045853835,-0.011069665,-0.047086746,-0.15243107,0.0028508112,0.03084881,-0.032045335,-0.021730863,-0.02296706,-0.0457928,-0.0063777044,-0.025493916,0.08985032,-0.10749746,0.029746423,0.029134428,-0.118520886,0.07200998,-0.13051945,0.005870643,0.094824746,0.09869479,-0.061536584,0.0045485278,-0.041504845,0.14483337,-0.00945951,-0.019853327,-0.06800443,-0.039651725,0.09074895,-0.077424504,-0.04176771,-0.06517545,0.005580022,-0.04559526,0.009858586,-0.00473445,0.07896682,0.0015142588,0.052749723,-0.036183283,0.1786114,-0.008054058,-0.06100417,0.02406804,0.047872454,0.008633188,0.01735699,-0.012510094,-0.019571861,0.13905334,-0.050692867,-0.1605112,-0.06158729,0.015679931,-0.05966116,-0.021252882,0.006696965,-0.0769212,-0.038687132,-0.03104248,0.015908578,-0.10001127,0.07266001,-0.029494066,0.008045373,-0.07660663,0.062410325,-0.010937588,-0.09176683,-0.034786284,-0.11415124,-0.079006724,-0.005480018,0.06415358,0.056687105,-0.041344747,0.00528048,-0.02090595,-0.010038185,-0.14028695,-0.04694918,0.057685733,-0.041034404,0.08485953,0.109386265,0.035514392,0.0061037503,0.045136202,-0.09200721,0.005138368,0.06361084,-0.080013335,0.077790715,0.05924354,-0.10361891,-0.10146391,0.09300584,-0.06609509,-0.031323712,-0.09501577,-0.03301233,0.05361592
com.rafsan.inventory.controller.employee.AddController;0;0.026652526,-0.052736234,-0.011497498,0.040099144,-0.055419922,-0.015383149,0.06068001,-0.050195314,0.09567241,0.042497657,0.010299826,-0.060696624,-0.023504257,0.020768356,-0.08612981,0.02894249,0.019445801,0.064697064,-0.030545807,-0.06963961,0.04025843,0.012474442,0.046195984,0.014334107,-0.010992432,-0.0076682093,-0.0916729,0.10466385,0.031191254,-0.034622956,0.01211586,-0.08299341,-0.07098389,-0.08813934,-0.09008618,-0.09331703,0.09269867,-0.00758667,0.058836937,0.0025524138,0.03831768,0.0070007322,0.10587764,-0.039949227,-0.024545288,-0.124227144,-0.047322083,-0.026350642,-0.057195283,0.0030044555,-0.14265366,-0.028768158,-0.00075075624,-0.005183411,-0.07566931,0.018634606,0.01762123,-0.13325453,0.046945572,-0.04701195,-0.044524383,0.022922898,-0.110599615,-0.008404923,-0.06638527,0.045887757,0.034509756,0.048373032,-0.017755508,0.049497984,0.07313385,0.01062603,0.043362428,-0.09542475,-0.07971497,-0.064479634,0.12776299,-0.010406876,0.095239565,0.034213256,0.08388748,-0.010269165,0.057279535,-0.0030895234,0.040420912,-0.041680526,-0.07045631,0.06475639,-0.022890473,-0.01553421,0.023127818,-0.04937973,-0.053473376,-0.0526886,-0.032533146,0.035999108,-0.023887824,0.0011566163,0.06929207,0.035243224,0.030741502,-0.07965603,-0.03831215,0.008802551,-0.011978912,-0.041504193,-0.09297943,-0.04380188,0.021018218,-0.06672974,-0.08661356,-0.078769684,-0.045526884,-0.086920336,-0.0033426285,0.07632856,0.05516119,-0.016950214,0.15774612,-0.002045822,-0.07357292,-0.013552666,-0.13216285,0.08202362,0.08341112,-0.060456086,-0.011592877,-0.007859802,0.09719257,0.086692,-0.043287277,-0.06006088,-0.08232738,0.062329866,0.013118935,-0.079798125,0.043477632,0.013368225,-0.011114502,0.09038238,0.042774774,-0.104865074,-0.038986873,0.033471964,0.007739258,-0.03665943,-0.050462723,-0.02037716,-0.06576042,-0.006371212,0.0831192,0.019818211,0.012400436,0.038611792,-0.019068908,-0.076598845,-0.0340024,-0.028552258,-0.08077087,0.008689547,-0.03881073,0.105589986,0.0287426,-0.05115967,0.00041542054,-0.054629564,-0.035773467,-0.063342094,-0.023718262,0.030441284,-0.07723131,0.020705795,-0.042290498,-0.076265715,-0.029726218,-0.035007954,0.107710645,-0.14602356,-0.0751255,-0.095322415,-0.092443846,0.0036125183,0.019992257,-0.06051426,0.052856065,-0.0028713227,-0.104034804,0.07466469,0.007631302,0.07970886,-0.060473822,-0.018321324,-0.11718283,0.032938957,-0.09898567,0.07553444,-0.0055122375,-0.04076488,-0.036006164,-0.10128222,0.040880013,0.027817344,-0.023934936,-0.038227558,0.002747345,-0.08298302,-0.06980286,-0.033783723,0.06929779,-0.03413582,0.034093283,0.0230093,-0.09513626,0.07315655,-0.04210663,0.030072022,0.10679612,0.026966859,-0.12360611,0.024172593,-0.047750853,0.08318806,0.018863678,-0.04292221,0.0087158205,-0.0038158416,0.04374943,-0.013722229,-0.006652689,-0.003312111,0.010991287,-0.03885126,-0.005686951,-0.052064516,0.032555006,-0.038081646,0.10331397,-0.066580534,0.114018634,-0.0021024705,0.012913132,0.001076889,0.0024490356,-0.06622086,0.023327637,-0.0025167465,-0.047210313,0.111030385,0.016861057,-0.1177475,-0.088876344,0.06770973,-0.05690975,-0.0293926,0.061373137,-0.12277756,0.020010184,-0.007446289,-0.021797944,-0.051708985,0.06923523,-0.06814575,-0.008210754,-0.09356165,-0.0033714294,0.02068932,-0.06349106,-0.02574997,-0.12580986,-0.06296158,0.0093250275,0.107134245,0.01953125,-0.01897192,-0.013679886,-0.060890198,-0.04475957,-0.1333706,0.0008625031,0.023657989,-0.021337127,0.11199875,0.049242117,0.05427468,0.037055016,0.01117382,-0.010884094,-0.009822726,0.08322487,-0.01810379,0.006160736,0.08417778,-0.053193092,-0.021025848,0.055742074,-0.03164358,-0.029545974,-0.11509905,-0.09137025,-0.0069772275
com.rafsan.inventory.controller.employee.EditController;0;0.028512137,-0.072562374,-0.019362397,0.0603797,-0.03406164,-0.0059740674,0.07687512,-0.039572243,0.10231353,0.043059655,-0.0025633508,-0.06461261,-0.01807546,0.0030916655,-0.08468733,0.029028254,0.014812092,0.04148763,-0.01785513,-0.049003873,0.032118265,-0.014810415,0.050656497,-0.001872639,0.011885088,-0.010531499,-0.124743454,0.11476823,0.01908254,-0.04481389,0.015513997,-0.114352465,-0.09647847,-0.06619833,-0.10049858,-0.09968483,0.12620729,0.003847227,0.053370047,-0.012071882,0.021120008,0.004834521,0.099508725,-0.041993696,-0.023458963,-0.14106163,-0.07081822,-0.032877367,-0.040462285,0.02404584,-0.14590152,-0.050987158,0.0019705426,0.013999855,-0.05398478,0.022431929,0.024720244,-0.11775316,0.06456078,-0.03773951,-0.049793284,0.035841387,-0.15796243,0.006304395,-0.04533537,0.05534346,0.051754206,0.042293675,0.0065512187,0.04223767,0.044445667,0.0029281783,0.032088395,-0.080710694,-0.08484423,-0.038602892,0.12671804,-0.008498307,0.093031265,0.016867166,0.1126045,-0.01804226,0.043293666,0.029091971,0.025420472,-0.03984422,-0.07962908,0.0761702,-0.032110527,0.002333421,0.007271966,-0.042442236,-0.08331944,-0.023442196,-0.03727024,0.025900872,-0.018065233,0.020274403,0.08066198,0.030881107,0.03215647,-0.10689922,-0.03904674,0.0037946964,0.00014956966,-0.0852563,-0.074995436,-0.04064539,0.006587102,-0.0825088,-0.089295186,-0.098308854,-0.061400697,-0.116940826,-0.023339072,0.070691705,0.055275634,-0.03285099,0.18633631,0.038471263,-0.057379417,-0.0087486515,-0.16703813,0.07903583,0.094206505,-0.056538004,0.010369269,-0.014507587,0.098243296,0.10175898,-0.08743018,-0.090811595,-0.09309011,0.043039847,-0.008470304,-0.09248436,0.012262701,-0.001655327,-0.03336007,0.088825606,0.053883813,-0.07411194,-0.045306113,0.056571122,-0.01602743,-0.049382303,-0.06273509,-0.0131814135,-0.042642448,0.038349614,0.09087531,0.051419854,0.01590234,0.046264146,-0.027076805,-0.0685362,-0.024101257,-0.035655275,-0.09016301,0.03205859,-0.046347816,0.09728796,0.024570676,-0.024427477,-0.010564783,-0.050122146,-0.05138288,-0.074379556,0.005748707,0.048731543,-0.048090756,0.020134559,-0.033894632,-0.06595486,-0.035329796,-0.022856409,0.120754704,-0.12309785,-0.0569401,-0.11273059,-0.100500084,0.014422406,0.018195352,-0.10413084,0.034116305,-0.0019983982,-0.10244684,0.11533666,-0.002589299,0.05895057,-0.066288374,-0.0244839,-0.10894164,0.058715653,-0.10083712,0.07012772,-0.011468237,-0.01587675,-0.030323071,-0.072633594,0.03966497,0.033412892,-0.022063874,-0.033579815,-0.020481655,-0.08694592,-0.08948693,-0.022343563,0.051402334,-0.05291178,0.06048165,0.0048242924,-0.10687859,0.08134695,-0.016058283,0.061174665,0.11329454,0.053360824,-0.1222722,0.026592212,-0.036360856,0.062076274,0.04382257,-0.06609973,0.018264938,-0.01148903,0.04612866,0.00043864828,-0.007721157,-0.049899425,0.017477853,-0.02903605,-0.037352175,-0.061390635,-0.0052781994,-0.067896836,0.121098906,-0.080108136,0.102670856,-0.00849378,0.025431873,-0.020972284,-0.0057990104,-0.09723571,0.027264606,-0.0067277844,-0.084520616,0.07435407,0.030737657,-0.13228531,-0.121138014,0.09051614,-0.06572262,-0.06056664,0.056245573,-0.1183351,0.010801042,0.02064732,-0.037016146,-0.002425309,0.07219319,-0.08718235,-0.024808444,-0.10020036,-0.012769762,0.013163409,-0.06851699,0.0006284609,-0.12990595,-0.048144665,0.010124123,0.09904531,0.006313785,-0.01593814,-0.06551722,-0.06551688,-0.036043786,-0.12975101,0.02735683,0.00070894684,-0.035359476,0.09641609,0.026296511,0.083471216,0.018984448,0.007739895,0.0029981006,-0.014887778,0.11372291,0.0072537935,0.024732653,0.08139105,-0.056222938,-0.008314196,0.049028166,-0.015574613,-0.017775651,-0.08642042,-0.096159756,-0.010018613
com.rafsan.inventory.controller.employee.EmployeeController;0;0.03662969,0.023149302,-0.029144287,0.07103715,-0.018519871,0.01806655,0.07407863,-0.07924971,0.09113637,0.07560609,-0.028771773,-0.10104325,0.018593695,-0.034802206,-0.12396183,0.062292933,0.07829077,0.049108297,0.027377628,-0.08207395,0.013972761,0.012231138,0.011604488,0.030798826,-0.004218876,-0.010803706,-0.07015239,0.09921859,0.039687537,-0.06843044,-0.04698224,-0.06482019,-0.09617121,0.014743931,-0.04180643,-0.056248195,0.051626287,-0.02702883,0.018098142,0.023689449,0.04655503,0.02860457,0.05264481,-0.011950783,-0.04139545,-0.12878089,-0.09427363,-0.03456216,-0.0521905,0.019100737,-0.0743578,-0.044532884,-0.05132799,-0.08027126,0.044629306,0.053806018,-0.030399878,-0.08348275,0.052257843,-0.051997513,-0.017698225,-0.011752258,-0.120792195,-0.035185978,-0.046246238,0.0012556622,-0.035219863,0.07030298,-0.018488565,0.06907876,0.030321147,0.006524171,0.06478351,-0.03972332,-0.0598992,-0.062201746,0.12682797,-0.026782827,0.06686473,-0.0029778278,0.084365346,-0.02293883,0.048404388,-0.025416378,0.04960052,0.02218241,-0.03035754,0.08219625,0.028119897,0.027406862,0.0043760487,-0.056213845,-0.07166187,-0.013000058,0.006846325,-0.043541636,-0.0012222076,0.0011967404,0.079991154,0.0017518236,0.014915216,-0.047010053,-0.043636985,-0.011145527,0.003153895,-0.06605762,-0.012679553,-0.016023412,0.021405717,-0.06282208,-0.051265806,-0.08061116,-0.027436163,-0.053148296,0.040478345,0.07280004,-0.00891463,-0.040431637,0.13392718,0.06260489,-0.041756824,-0.040912468,-0.09646434,0.096550025,0.080992706,-0.046092845,-0.06342756,-0.017156467,0.07204935,0.09483459,-0.0490992,-0.04953447,-0.053826995,0.03703016,-0.028563593,-0.0034641032,-0.010783128,-0.008561112,0.0054329615,0.022062777,0.08348062,-0.06958998,-0.055399004,0.062008973,0.044458307,0.00028633513,-0.06856612,0.0061515486,-0.037291907,0.026244042,0.083651975,0.002707235,0.008115741,0.061642356,0.00064760307,-0.09054587,-0.056516908,-0.058443885,-0.087597124,0.018421693,-0.053979114,0.061616324,0.043103144,-0.0042555546,-0.0441952,-0.01923528,0.004984323,-0.10149419,-0.042696215,0.00014843291,-0.06904967,-0.03712048,-0.02808441,-0.089908294,-0.020987067,-0.040802576,0.12471761,-0.17152889,-0.029778924,-0.043947175,-0.10704492,-0.0303718,0.021303132,-0.1109573,0.0014073905,-0.029840747,-0.07316366,0.084140114,-0.012305175,0.042303883,0.002693221,-0.06457419,-0.08631095,-0.008313676,-0.048902486,0.052660875,0.022478282,-0.034128852,-0.019754043,-0.045298114,0.040270057,0.047867037,-0.052790646,-0.05325251,0.028582219,-0.08493744,-0.0038586827,-0.022392882,0.033947725,-0.04779597,0.07324641,0.050367758,-0.10577749,0.08291937,-0.05410824,0.064885244,0.110217385,0.08216937,-0.10055621,0.009188943,-0.057150256,0.056423992,-0.01569635,-0.03186938,-0.039265744,-0.024306607,0.037934855,-0.028580787,0.06783155,-0.05136044,0.0048736427,-0.01433728,-0.06734671,0.0131831635,0.02028022,-0.033038717,0.033708986,-0.011668783,0.11529416,0.024190338,0.033588823,-0.011430696,0.02335218,-0.098599,0.005542827,-0.0591695,-0.06529802,0.048288774,0.058892425,-0.08761826,-0.043128215,0.015854957,-0.04298838,-0.0018513908,0.0156514,-0.09262654,-0.038886916,0.05188117,-0.044723064,-0.038611684,0.028548693,-0.084729046,-0.04070189,-0.07571225,0.059013627,0.045093376,-0.04546374,0.0005038266,-0.13887432,-0.011380907,0.03281696,0.10466524,-0.0009567905,0.0036695597,-0.007193355,-0.051856853,-0.022842837,-0.104602866,-0.002209659,0.0028091574,-0.015226194,0.046146948,0.025979342,0.068911016,-0.003082347,-0.009049465,-0.04155864,0.0010581308,0.003960408,0.007616576,-0.033836257,0.03538721,-0.08191226,-0.01621601,0.023190064,3.5818755e-07,-0.004428989,-0.046627708,-0.055675864,0.02396579
com.rafsan.inventory.controller.login.LoginController;1;0.01698691,0.027979398,-0.062133916,0.05566469,-0.026318159,0.043589357,0.041261017,-0.073277585,0.11329151,0.044321936,-0.047541555,-0.09684658,-0.016332658,-0.028493412,-0.1477892,0.114640035,0.0783444,0.036735278,-0.0030614,-0.14668348,0.04537964,0.08876144,0.053322587,0.048504688,-0.025316708,-0.05447763,-0.10789655,0.1008646,0.029067744,-0.051523928,-0.03470274,-0.029207636,-0.058552977,-0.037869312,-0.051296923,-0.09023191,0.047593415,-0.0032462762,0.058865156,0.016130166,0.016849581,-0.0281459,0.12186419,0.021703627,0.01328487,-0.11534494,-0.057876587,-0.015444271,-0.044971652,0.0060545383,-0.15093982,-0.02359334,0.010036766,-0.06522619,-0.030005783,0.00651863,-0.065336384,-0.08988971,0.019906716,-0.09117252,-0.01420168,0.00986093,-0.05528966,-0.039788168,-0.0807375,0.00036070778,0.0320357,0.038530067,-0.009570075,0.06384828,0.046101805,0.08618214,0.07359589,-0.102834485,-0.090075135,-0.1002191,0.11934212,-0.013165083,0.1062843,0.03333195,0.0394097,-0.021824257,0.041401375,-0.050159205,0.104442656,0.015554209,-0.04262255,0.09724926,-0.0090071885,0.008311037,-0.02942945,-0.016590307,-0.05567901,-0.075800724,0.06283239,-0.02340198,-0.0052262605,-0.0020581854,0.06268498,0.01670162,-0.015688287,-0.0066572097,0.032180037,0.008441487,-0.048505563,-0.020684915,-0.04001705,0.018129911,0.07666541,-0.012740432,-0.04422854,-0.08120393,-0.012607512,-0.066281535,0.07073124,0.08639263,0.020524103,-0.08371347,0.12849902,0.005126953,-0.009962301,-0.047276106,-0.1047746,0.10873688,0.10629819,-0.0814703,-0.074658625,0.043637637,0.09660114,0.006486486,-0.07350315,-0.054786056,-0.050241314,0.09269717,0.0110993935,-0.021071011,-0.0239583,-0.023670385,-0.028273536,0.049406458,0.07108395,-0.11041485,-0.05641212,0.034822308,0.03387076,0.037384283,-0.028035335,-0.032026134,-0.03218554,-0.033201873,0.080233715,-0.012402143,0.039753146,0.04432442,-0.0053710938,-0.10479355,-0.12160136,0.010406838,-0.038965818,-0.0032080666,-0.042262845,0.091824844,0.043136846,-0.09791915,-0.03130317,-0.0956303,0.0042471965,-0.061161354,-0.09056642,0.04378447,-0.10186649,0.0073386645,0.0013632852,-0.12893939,-0.016941758,-0.056504358,0.120513916,-0.1489413,-0.022268826,-0.08123579,-0.08954458,0.026387949,0.01589578,-0.0389172,0.06365917,-0.034809176,-0.08549625,0.06389005,0.03753512,0.052793786,-0.04440608,-0.01096763,-0.08949579,-0.01726582,-0.0401046,0.07277642,0.00045379263,-0.037693713,-0.086768225,-0.06278485,0.061490167,0.06517013,-0.010659328,-0.070882425,0.0368067,-0.049420405,-0.031156447,-0.055631544,0.011736135,-0.005518804,0.04850919,0.046779945,-0.07541265,0.07877753,-0.08721799,0.032481458,0.058379125,0.060927093,-0.09675429,-0.030779105,-0.11469081,0.072804436,-0.032511976,0.009208054,0.014607664,-0.03752599,0.039792296,-0.033468027,0.0209816,0.005610419,0.00064587203,0.004248635,-0.053633895,-0.008030876,0.05246597,-0.0030945793,0.024574159,-0.0523853,0.13008718,0.029227335,-0.011239224,0.022957599,0.027477328,-0.09480311,0.0240446,-0.02402759,-0.030576205,0.14239368,-0.0028827542,-0.09049875,-0.03416218,0.04735803,-0.027863549,-0.0077944896,0.04904081,-0.048095703,0.015707547,0.031767797,-0.06279492,-0.0932357,0.04222307,-0.042584904,-0.024271417,-0.052298468,0.04862951,0.055858925,-0.071305506,0.025691032,-0.14783765,-0.08327097,0.022460062,0.0717342,0.0049733645,0.027325178,0.069768846,-0.047460586,-0.07075732,-0.15328504,-0.042544194,0.043287184,-0.044498943,0.009716596,0.006464411,0.036554556,0.03173078,-0.020834314,-0.010575592,0.012227496,0.02052032,0.008164844,0.016347665,0.10537294,-0.06623765,-0.0087312795,-0.011970895,-0.047701508,0.011393437,-0.13325776,-0.0919989,0.041829094
com.rafsan.inventory.controller.pos.ConfirmController;0;-0.028360765,0.045752946,-0.1192705,0.121822625,-0.11535006,-0.0040762257,0.03148385,-0.052141767,0.047252033,0.05272617,-0.06128511,-0.08224239,-0.06352908,0.008218455,-0.14975615,0.12794957,0.039537296,0.10180964,-0.011507478,-0.116383046,-0.077011466,-0.048356876,0.025927167,0.029856306,-0.051546384,0.010222679,-0.083807655,0.06537149,-0.018293513,-0.045409624,-0.006668091,-0.0065354635,-0.04134351,0.035320546,-0.07496306,0.0022607849,-0.0054129665,0.05431632,0.04454147,0.01280035,-0.0110384915,0.05385004,0.13459174,0.02829902,-0.03569244,-0.14867738,0.009811401,-0.040181715,-0.11195551,0.041372254,-0.12812556,0.013548385,-0.037599076,0.03245438,0.083533354,0.011517724,-0.0061806967,-0.0802465,0.021564573,-0.06256192,0.0190671,-0.016491912,-0.13945761,-0.086487174,-0.056111537,-0.066120595,-0.10989664,0.0332159,0.036836848,0.028082559,0.11621236,0.022808695,0.030562289,-0.09401215,-0.083817594,-0.06835654,0.15922795,-0.016565012,0.050955128,-0.05277412,-0.07051172,-0.08988633,0.010335434,0.015181431,0.14775689,0.044808675,0.020985803,0.15836494,-0.014726151,0.0507337,0.0088884225,0.044084415,-0.049321376,-0.18677042,0.015987663,-0.0019871911,-0.067065924,0.055840425,0.12133008,0.088416696,-0.008852227,-0.01698658,-0.012093833,-0.011098107,-0.009243278,0.09733227,-0.079013206,0.07335148,-0.0039640917,-0.04181117,-0.14727074,-0.15834135,0.0042407014,-0.031255323,0.13680568,0.17138582,0.047856443,-0.15445586,0.121331014,-0.023531891,0.009994152,-0.0044136937,-0.078273326,0.105257966,0.097755544,-0.090839475,-0.08786933,-0.04031301,0.018240996,0.03857138,-0.053001404,-0.024558134,-0.035958935,-0.01377811,-0.06866207,0.08558983,-0.026760368,0.012616535,0.090966515,0.09025467,0.1390403,-0.17550056,-0.057444017,0.059989043,0.037017822,-0.0058517456,-0.009918213,0.026970442,-0.1109204,-0.033632502,0.10582218,-0.08973907,-0.025928587,0.06481437,2.3154325e-05,-0.13193956,-0.10292657,0.13556263,-0.12489212,-0.023627702,-0.0017856332,0.075021185,0.039755534,-0.009772722,-0.052020404,-0.067793205,0.039588574,0.02391873,-0.12407276,0.10123319,-0.11650901,0.048872482,-0.07634008,-0.058711383,-0.037745275,0.033152737,0.21098967,-0.21886072,0.005702795,-0.13517655,-0.09246684,0.039163988,-0.010401393,0.013040587,0.045313634,-0.0016589498,-0.118998684,0.17755695,-0.09287209,0.104792394,0.037398227,-0.023504656,-0.15910104,-0.039139148,0.026604764,0.047739074,0.035953965,-0.024345221,-0.031253193,-0.08724479,-0.073227994,0.016796023,-0.14275697,-0.04777598,-0.012625938,-0.0035907833,-0.057868425,-0.018231058,0.075155035,0.039009117,0.035847507,0.12298442,-0.10077472,0.046612408,-0.1878247,0.041084822,0.14246741,0.023690157,-0.06810636,0.045750108,-0.093043484,0.14402647,-0.09453104,-0.038719,0.043565616,-0.02216002,0.03309241,0.054803893,-0.0016961652,-0.051080037,0.021775002,-0.028088236,-0.08553793,-0.005805792,0.038953204,0.01151442,0.041944403,0.041474275,0.09137495,-0.002466956,0.09713745,-0.0429314,0.15291932,-0.07061732,0.10809078,0.039660785,-0.048854783,0.14178698,0.023291217,-0.07801003,-0.0013033844,0.011194096,-0.029767059,-0.02266285,-0.020324707,-0.07851934,0.024941377,0.0061370493,0.038745258,-0.08771425,0.14345746,-0.0784394,-0.017929433,-0.11736897,-0.00093539926,-0.045665298,-0.059091702,-0.0030542419,-0.10053342,-0.09946033,-0.034730423,0.045225278,0.043323252,0.027041059,0.13618761,-0.011134658,-0.018424101,-0.16346297,-0.01545325,0.060424093,-0.11537774,0.10633078,0.045797657,0.08441233,0.024418676,0.023014689,-0.068606,0.026624568,0.013847884,-0.04019023,0.009437028,0.083832495,-0.01946028,0.09539724,0.063927226,-0.11655996,-0.0187236,-0.09643697,-0.016047854,0.015520672
com.rafsan.inventory.controller.pos.InvoiceController;0;0.0028539759,0.020340083,-0.034609262,0.088581696,-0.0044849194,0.0064410726,0.05018278,-0.056980744,0.0695421,0.047805175,-0.02206977,-0.07094368,-0.016065555,0.00059753883,-0.15094443,0.09535707,0.08006834,0.04527049,0.020743974,-0.038995873,0.006930053,-0.0024228278,0.011991195,0.009318287,-0.016356025,0.04225693,-0.08089255,0.07155277,-0.015768852,-0.05527968,-0.026729088,-0.050212946,-0.073264085,-0.013615339,-0.045922082,-0.05984893,0.0365759,-0.0071448404,0.024591636,-0.02554065,0.050499838,0.020144397,0.078722306,-0.053063314,-0.093225375,-0.15712301,-0.0014965844,-0.011045733,-0.14137606,0.014423075,-0.03506528,-0.019169465,-0.0393636,-0.06664713,-0.002774537,0.047502242,-0.021874813,-0.04415381,0.09026028,-0.05639369,-0.027315795,0.027962955,-0.1843204,-0.027839253,-0.037557237,-0.031210164,-0.06911416,0.013572292,-0.028107913,0.044327363,0.06697653,-0.044193182,0.049025442,-0.08187703,-0.044323403,-0.0016773021,0.14517608,-0.023815125,0.04599488,-0.02700922,0.015511986,-0.07959963,0.055809442,0.02484195,0.10557637,-0.011791666,-0.023480015,0.12878788,0.0075115175,0.06985031,0.08750252,0.0016095111,-0.019294273,-0.1030341,-0.01680814,-0.043811828,-0.099585846,-0.005724026,0.09504059,0.036840074,0.04497183,-0.039268088,0.0044844532,-0.019585297,0.023636913,0.0145585155,-0.08189194,0.03348221,0.031157516,-0.0696709,-0.023418281,-0.11328757,-0.046242982,-0.041309617,-0.0069619683,0.0924961,0.00932807,-0.026124444,0.1650712,0.010019434,0.033148207,-0.013863833,-0.049162652,0.08312371,0.116518185,-0.0410105,-0.06542503,-0.004012479,0.08468837,0.08880218,-0.04493795,-0.021684814,-0.06393036,0.009124756,-0.06568169,0.0076238033,-0.012461888,0.027431343,0.04181508,0.10401602,0.05465532,-0.11476939,-0.056097366,0.05782708,0.008593144,-0.011483229,0.016992744,0.01586208,-0.12453711,-0.027715553,0.10192824,0.0073873503,0.018792655,0.079802826,-0.012589636,-0.12147487,-0.06290395,0.013321028,-0.078745134,0.0023291202,-0.026027767,0.08504336,0.06011264,0.0070372135,-0.039608017,-0.0025408797,0.038585633,-0.087281965,-0.07148763,0.073840074,-0.10420402,-0.021106282,-0.017709048,-0.12145775,-0.053880416,0.019066498,0.17667511,-0.18864033,-0.009377167,-0.053568833,-0.08637453,0.012167894,0.010446592,-0.05137404,0.06213507,-0.016259346,-0.14044446,0.113140546,-0.03232359,0.08393965,-0.0353114,-0.055225402,-0.1513819,-0.04293637,-0.0059406776,0.050975073,0.047289025,-0.049741324,0.01305337,-0.1031882,-0.0049867122,0.031038474,-0.08771503,-0.06993211,-0.01555884,-0.037956245,-0.07464926,-0.0065228413,0.0878954,0.018409379,0.076155104,0.089319125,-0.08564202,0.077836365,-0.121195555,0.1032836,0.11552231,0.10804504,-0.105927214,-0.01662282,-0.02400056,0.123160094,-0.0022426925,-0.05878629,-0.014341864,-0.048422776,-0.019607486,-0.008801599,0.035593078,-0.032880943,0.021125153,0.0064723473,-0.031491347,-0.060276177,0.033685874,0.020581894,0.08749677,-0.008416212,0.12160486,-0.009908196,0.098049134,-0.01314038,0.060095925,-0.11176515,0.030365689,-0.022391982,-0.0067058885,0.09798268,0.06903347,-0.07592028,-0.007957575,0.037780587,-0.13000907,-0.001971878,-0.023444314,-0.06521222,0.0053887987,0.014040882,0.043023262,-0.067888774,0.08468092,-0.10176133,-0.06681859,-0.08991722,-0.043121103,0.008445915,-0.09292026,-0.046972435,-0.09587132,-0.04885189,-0.004423651,0.10632674,0.020410435,0.02929408,0.056438096,-0.0077063874,-0.044704,-0.0977916,-0.05067572,0.08438623,-0.045935538,0.07987883,0.095939346,0.06559765,0.03610637,0.008000847,-0.0217588,0.07069066,0.06566171,-0.015391081,-0.019050889,0.025518578,-0.0845401,0.03254455,0.09938527,0.022736527,-0.049896356,-0.06070855,-0.028857894,-0.035615355
com.rafsan.inventory.controller.pos.PosController;0;0.014363215,0.04227917,-0.012465257,0.07198561,-0.033228066,0.0035852285,0.057900943,-0.08837744,0.07089329,0.0739718,-0.028918687,-0.113311894,0.014739284,0.0064211627,-0.14850913,0.06403996,0.048419073,0.053715043,0.0018094617,-0.08149895,0.0054820227,-0.014356393,-0.02806869,0.046882585,-0.010632735,0.010751422,-0.04302597,0.089125484,0.019088268,-0.025194021,-0.057807043,-0.030185405,-0.0457504,0.015227465,-0.048024032,-0.05033757,0.044192094,-0.051411264,0.05641325,0.00938973,0.057351552,0.047193233,0.035815313,-0.028036557,-0.075904556,-0.15596324,-0.042397317,0.008732172,-0.05270503,0.001944308,-0.031207671,-0.0010166168,-0.038642664,-0.12697914,0.021160932,0.026703835,-0.029529277,-0.074265845,0.06474128,-0.039293215,-0.0040139416,0.014421316,-0.13072649,-0.03517356,-0.05446001,0.02646769,-0.0345547,0.059815295,0.00687137,0.040365364,0.081228256,-0.038826577,0.03883567,-0.06357721,-0.058520097,-0.030030765,0.13522397,-0.023212872,0.037770785,-0.017645616,0.029096898,-0.07739314,0.038356755,-0.0017353204,0.08759249,-0.011550977,-0.030107059,0.096482076,0.033691112,0.04634175,0.036904994,-0.0103907585,-0.061936453,-0.03541976,-0.017413286,-0.045647696,-0.054906256,-0.004770719,0.08411862,0.042554416,0.027346455,-0.014752755,-0.028138967,-0.030714108,-0.006689145,-0.053110417,-0.04299164,0.033024862,0.03637079,-0.059917156,-0.016375689,-0.085615344,-0.016282009,-0.015473375,0.04991269,0.07684473,-0.018153595,-0.008748274,0.12326725,0.033820517,0.009964686,0.00063837494,-0.05398134,0.080959395,0.08826728,-0.046506956,-0.07518314,-0.04095503,0.06909407,0.08076125,-0.009444457,0.02230493,-0.049827464,0.03072579,-0.017566534,0.032071773,0.027582645,0.0068987333,0.02859189,0.041812018,0.061488517,-0.09777994,-0.061658125,0.031777307,0.061831072,0.0064510563,0.02560853,0.015243567,-0.08679625,0.010055249,0.09585762,-0.021613892,-0.012712992,0.06821999,0.014882051,-0.11732083,-0.100351185,0.0018774179,-0.083983645,-0.0071648816,-0.047180213,0.05845346,0.058265097,0.016317973,-0.013162026,-0.013106273,0.0398316,-0.085676394,-0.05588009,-0.011293852,-0.10257941,-0.060813792,-0.03318464,-0.074625015,-0.039660893,-0.019259086,0.11775816,-0.21859962,-0.053525925,-0.03408003,-0.08690115,-0.04421733,0.01674953,-0.04366896,0.03434456,-0.034326848,-0.10308706,0.076639615,-0.03601441,0.0715332,-0.0024145474,-0.07309723,-0.10219673,-0.05571908,-0.06985628,0.049237177,0.03272748,-0.05959694,-0.03152671,-0.08738591,0.012386652,0.028802432,-0.075801045,-0.045463912,-0.014580066,-0.076725006,-0.038258478,-0.052796584,0.03063554,-0.00310498,0.034593727,0.03576066,-0.07462109,0.08644001,-0.06436495,0.03710446,0.09987244,0.060145196,-0.104707606,0.027767438,-0.034057762,0.08697752,-0.02968172,-0.022676688,-0.0052769003,-0.02917429,-0.009226946,-0.044481985,0.04939624,-0.032600697,0.015592227,0.016224312,-0.022055406,-0.036849536,-0.01591125,-0.03730092,0.040868815,-0.0050340067,0.097890414,-0.01472774,0.055526733,0.006533256,0.06184787,-0.07892242,0.07135355,-0.054571517,-0.0016603654,0.069084555,0.04293172,-0.072381824,-0.059278633,0.018536348,-0.05545352,-0.01634098,-0.0036174334,-0.04438349,-0.044275872,-0.01649035,0.006338523,-0.08088242,0.103969134,-0.062547535,-0.07181223,-0.039030056,0.0014011676,0.019478578,-0.052239086,-0.039421376,-0.12512633,-0.05993946,0.031927034,0.09425472,-0.0048885345,0.002522542,0.035529155,0.019835215,-0.038392104,-0.11483999,-0.025743924,0.050484583,-0.050251447,0.031106297,0.08618986,0.02977386,0.0022941737,-0.00090136897,-0.03958682,0.037419915,0.0525253,-0.008131953,-0.027423345,0.0120844105,-0.08769094,0.0016432542,0.03343956,-0.0044991053,-0.029639171,-0.021706728,-0.034336403,0.019162985
com.rafsan.inventory.controller.product.AddController;0;-0.010094383,-0.02916232,-0.0027021929,0.038151134,-0.045118853,-0.03628887,0.083571345,-0.08706388,0.07338342,0.05361657,-0.0006212538,-0.061409537,0.021236766,0.017494895,-0.12749013,-0.0101339165,0.060070384,0.04531287,-0.059722207,-0.07797382,0.053310417,-0.007740194,-0.018529719,0.02469453,0.007832614,0.010335055,-0.0442224,0.10374312,0.05166574,-0.006953846,-0.0020266445,-0.04222393,-0.043222602,-0.0452867,-0.050424576,-0.07874784,0.056307707,-0.07323039,0.06739252,-0.021333521,0.06303215,0.01186024,0.08476188,-0.029121399,-0.09157441,-0.12841086,-0.023581766,0.017792918,-0.07155263,0.007794467,-0.08155406,-0.017796604,-0.04210056,-0.06623494,-0.02394932,-0.006981763,0.051310107,-0.08751956,0.0791841,-0.020017797,-0.022994302,0.026457526,-0.13108037,-0.060621783,-0.05423702,0.05513018,-0.0013645346,0.032252613,-0.019848216,0.04561962,0.079294376,-0.042371057,0.04879206,-0.09495059,-0.10043092,-0.05109683,0.1399224,-0.027731115,0.11465749,0.019567316,0.071547076,-0.032728717,0.08125773,-0.01653706,0.0826853,-0.066376425,-0.069592565,0.12035474,0.023121573,0.030536998,0.062348105,-0.032658663,-0.06098435,-0.025598006,-0.051588926,-0.005767129,-0.04739484,-0.027120287,0.0668328,0.06973059,0.05806886,-0.019064296,-0.061581697,-0.036216736,-0.010583357,-0.08260164,-0.11542997,-0.007386988,0.003671126,-0.0352589,-0.08753551,-0.04406114,-0.06378729,-0.04370464,0.025155675,0.06206287,-0.009989738,0.008239757,0.14718698,-0.03397196,-0.054960426,0.027332652,-0.092074305,0.08196675,0.07933383,-0.024162639,-0.033576272,-0.04621471,0.08433134,0.09418483,-0.020497061,0.021147989,-0.03802178,0.058146045,-0.01314458,-0.04932629,0.106892675,0.053088102,0.009296764,0.070755005,0.040880725,-0.103115775,-0.027719585,0.03364034,0.049829658,-0.037531245,0.053351317,-0.03203444,-0.12949787,-0.0020335803,0.07967897,-0.0016881769,0.017154,0.042713687,-0.044634733,-0.09199286,-0.074713275,-0.0049034464,-0.07684291,-0.009269714,-0.009436867,0.06786443,0.06118497,-0.016344244,-0.003624309,-0.016966732,-0.014370485,-0.06639845,-0.023425015,-0.011991328,-0.11446936,-0.011371959,-0.019022161,-0.10991547,-0.03358598,-0.06385526,0.101296514,-0.21252441,-0.104652755,-0.028332798,-0.10184548,-0.015612516,0.02041834,-0.051643196,0.0034883672,-0.044967826,-0.11016846,0.06638995,-0.0074494104,0.101696014,-0.035727933,-0.07499166,-0.09933507,-0.034391228,-0.13217093,0.042611554,0.02740097,-0.047692213,-0.036629245,-0.15385923,-0.0031107122,0.00037366693,-0.046343025,-0.019363057,-0.031988665,-0.0506408,-0.03219743,-0.06752586,0.07272894,-0.04503042,0.0153777385,0.03796872,-0.098576285,0.096544616,-0.05132502,0.014451287,0.116442986,0.058981895,-0.10753493,0.04729904,-0.024984187,0.076867364,-0.027267456,-0.0070988047,-0.018762935,-0.01566072,0.012673811,-0.04646856,0.011564883,-0.019163132,0.014488567,-0.0076204645,-0.0062276665,-0.07615488,0.027011959,-0.017717795,0.053336874,-0.013994911,0.108086325,-0.024907025,-0.0025287976,0.02771759,0.02872415,-0.018138539,0.05640793,-0.016405798,-0.027068226,0.0959516,-0.012040485,-0.12561035,-0.08127386,0.009075511,-0.044863787,-0.057775304,0.007610668,-0.06743136,-0.010621678,-0.047167,-0.00051047583,-0.07831017,0.07411471,-0.08066142,-0.0077819824,-0.06399744,0.02492419,-0.011413639,-0.0823451,-0.05866172,-0.10737367,-0.05884136,0.027880581,0.09506156,0.023498189,-0.023940694,0.0057862024,-0.012084961,-0.040726934,-0.11169364,-0.007928328,0.040893555,-0.023390336,0.06659924,0.11536685,0.030689867,0.020732706,0.050067034,-0.042671897,0.018638719,0.082279555,-0.060253143,0.029654764,0.08293568,-0.106788345,-0.013390974,0.08063542,-0.03494861,-0.019190354,-0.0513701,-0.030706795,-0.008090412
com.rafsan.inventory.controller.product.EditController;0;-0.020701757,-0.009212316,0.005839838,0.040339105,-0.04802725,-0.03546713,0.08585222,-0.091980554,0.087304085,0.052656762,-0.01939875,-0.069255956,0.010413143,0.0040408694,-0.13082871,-0.0065239165,0.06840102,0.044466525,-0.059638586,-0.07649703,0.04869495,0.002784943,-0.053828444,0.030294187,0.00517658,0.018273184,-0.036945093,0.112201154,0.059163745,0.0042137075,-0.01042161,-0.041715033,-0.038223978,-0.043896258,-0.029462725,-0.06074467,0.05110753,-0.11018272,0.07841991,-0.028994836,0.04710046,0.023669092,0.06596874,-0.019870652,-0.10393959,-0.123806536,-0.018901505,0.02374649,-0.060599353,0.0083966125,-0.057662822,-0.019555777,-0.04984362,-0.07655121,-0.00017351525,-0.009284331,0.0627912,-0.094581105,0.091015965,-0.017410135,-0.022404466,0.039394487,-0.1306076,-0.05530698,-0.05032634,0.043743525,-0.001953339,0.035526894,-0.010774702,0.033152927,0.07849349,-0.050100308,0.028130932,-0.0991981,-0.10924979,-0.035796262,0.1268225,-0.038872264,0.11430245,0.026896538,0.057662252,-0.03863126,0.059798483,0.0013650199,0.09866419,-0.06934792,-0.06633609,0.116903715,0.025409164,0.061005495,0.055325802,-0.04099908,-0.08776328,-0.0056343437,-0.04166391,-0.008051507,-0.07014793,-0.010369024,0.08169983,0.088088565,0.06505504,-0.012332952,-0.04568738,-0.036743164,-0.018839328,-0.1049476,-0.11411977,0.022841124,0.01561188,-0.027414482,-0.09004169,-0.03834548,-0.053696107,-0.03946465,0.051447038,0.050754867,-0.034163218,-0.0029399463,0.15895437,-0.047338467,-0.042504143,0.022989148,-0.08683192,0.06888602,0.110316694,-0.022136083,-0.058080085,-0.04940083,0.09360982,0.08905596,-0.03221316,0.037202355,-0.028285516,0.050827455,-0.019161474,-0.046690326,0.111130185,0.05170362,0.018655082,0.047582325,0.045576435,-0.08527438,-0.028200453,0.032052226,0.061019186,-0.0376229,0.096721046,-0.033636644,-0.13607816,-0.0005156615,0.082793616,-0.022051375,0.014676103,0.04145157,-0.049842335,-0.10220056,-0.10551838,0.012044033,-0.06552865,-0.0024180189,-0.0018393258,0.05561067,0.034734137,0.00965097,0.0070723775,-0.010403642,-0.001368585,-0.061185036,-0.033567056,-0.028914122,-0.10800941,-0.042268272,-0.01707102,-0.1190284,-0.043258525,-0.06328148,0.099758394,-0.2077979,-0.1076452,-0.029647114,-0.087812476,-0.03327956,0.017823406,-0.05734909,-0.024676742,-0.046442192,-0.1130913,0.066861734,-0.012066993,0.08258114,-0.036449254,-0.078191385,-0.1023705,-0.05750139,-0.13221242,0.046829935,0.027353732,-0.044195157,-0.04514762,-0.15601328,-0.018751483,-0.0005597266,-0.036920566,0.0004965524,-0.04949837,-0.052461427,-0.024296556,-0.07434823,0.058816213,-0.03527176,0.015040603,0.052047018,-0.09229115,0.094519645,-0.036801346,0.00050867384,0.11491526,0.062100917,-0.09627697,0.04631335,-0.015135578,0.06162483,-0.013898903,0.0017831392,-0.0006027935,-0.011650014,-0.010714237,-0.042583145,0.012930416,-0.023023088,0.005052513,0.017982483,-0.012227566,-0.092397526,0.0058831186,-0.024200084,0.045314714,-0.005033261,0.10090879,-0.031729583,-0.0020175828,0.025832701,0.036067925,-0.018410657,0.08474674,-0.030751308,-0.029397696,0.08440777,-0.017710676,-0.119113244,-0.10755649,0.015683753,-0.038026758,-0.084926695,-0.0017711604,-0.045281243,-0.024896782,-0.048914827,-0.0050664884,-0.09568656,0.09041987,-0.062414438,-0.009507794,-0.035313115,0.02785114,-0.023072483,-0.08174575,-0.064477086,-0.11350172,-0.08214477,0.026747089,0.09777661,0.006740962,-0.028363094,0.009836072,-0.00021904205,-0.038752627,-0.09994193,-0.00030061242,0.037145883,-0.032556266,0.044980202,0.11575859,0.04672236,-0.0013848421,0.057422247,-0.04653617,0.03999751,0.090349145,-0.05060128,0.031634465,0.09652796,-0.11735277,-0.010252195,0.073738456,-0.014998463,-0.0036555496,-0.032624148,-0.026357383,-0.003614624
com.rafsan.inventory.controller.product.ProductController;0;0.01429055,0.046009585,-0.01943149,0.06627329,-0.025876248,-0.014417244,0.06772567,-0.090901,0.09701792,0.08548943,-0.03382729,-0.106519274,0.015260437,-0.016387582,-0.13605429,0.053234763,0.0812453,0.066152744,0.0019820766,-0.106051125,0.009695812,0.025312511,-0.029341437,0.024096055,-0.016540412,-0.0026613364,-0.047544595,0.114244,0.03428656,-0.02223379,-0.034096863,-0.03404305,-0.078736044,-0.009952256,-0.04525959,-0.027939593,0.02632118,-0.052736457,0.036363456,0.015055454,0.06929418,0.021071926,0.04383191,0.014497815,-0.05671172,-0.101088665,-0.051635593,-0.019163132,-0.0380753,0.017575258,-0.04423922,-0.028073281,-0.06935527,-0.0924063,0.04739143,0.035502072,-0.0069619957,-0.08878845,0.054241527,-0.042432092,-0.024571765,0.013233662,-0.09297553,-0.043279357,-0.04300106,-0.025951963,-0.041322883,0.06071079,-0.017463887,0.056689292,0.037691407,-0.027273467,0.048731487,-0.060509767,-0.06999871,-0.04289128,0.111551516,-0.034578845,0.0774187,0.0062750615,0.045302074,-0.04053191,0.051660363,-0.029324474,0.07680095,-0.0011207118,-0.04294959,0.10475617,0.04844495,0.04185538,0.023570322,-0.04207189,-0.06514417,-0.015820937,0.002281478,-0.041337214,-0.022079468,-0.025240263,0.067598976,0.023540959,0.03606623,-0.014089021,-0.035076257,-0.025323926,0.0044330107,-0.05535611,-0.0317073,0.023646412,0.016358463,-0.04580781,-0.0431648,-0.055442158,-0.019032855,-0.049269937,0.08335558,0.061856125,-0.023838717,-0.020097444,0.13689677,0.020878075,-0.03258413,-0.022233471,-0.049401138,0.084272385,0.09680469,-0.048639804,-0.077763416,-0.028809113,0.06630574,0.06429265,-0.0226704,-0.02408253,-0.019406607,0.021630865,-0.029478362,-0.005944801,0.026656354,0.020364588,0.024143081,0.020413138,0.086662,-0.07167679,-0.027923122,0.05456761,0.05756959,0.014848247,0.013266592,0.011264599,-0.075568,0.010716785,0.07106573,-0.03745212,-0.0074596405,0.04669837,-0.01718602,-0.11494835,-0.100130774,-0.021886883,-0.06313538,0.0076816157,-0.044387326,0.071305804,0.05189202,0.0103302,-0.013685161,-0.012124466,0.038687043,-0.06867776,-0.0700947,-0.020105073,-0.091578856,-0.057610426,-0.01940103,-0.10779791,-0.031404957,-0.048073854,0.101675555,-0.18885668,-0.030197201,-0.013792211,-0.10433625,-0.032692917,0.036819458,-0.06473198,-0.0027449492,-0.020594278,-0.073266216,0.06835787,0.008734847,0.04127277,0.019515138,-0.087965414,-0.081313565,-0.040777497,-0.0650503,0.040315453,0.026079705,-0.03415287,-0.029026955,-0.08826331,0.0034873558,0.038990367,-0.060682442,-0.028900884,0.010957429,-0.05996265,-0.008310954,-0.028454058,0.04065739,-0.0068020676,0.03421292,0.06873715,-0.10081585,0.08301916,-0.06543073,0.042919736,0.107655264,0.068971,-0.08806847,0.017555395,-0.034452844,0.07683413,0.0052443994,-0.0038618643,-0.032524638,-0.023264915,-0.001470219,-0.013195717,0.062257245,-0.022973437,0.0042481855,0.0049837,-0.05069113,-0.0077860863,0.025404438,-0.009985432,0.0152614135,0.008367683,0.11768564,0.013817585,0.039427727,0.013466806,0.036401633,-0.07950384,0.036181666,-0.029143188,-0.039719205,0.06493534,0.03021363,-0.060856413,-0.055435933,0.015215093,-0.03583882,-0.0076875323,0.009899284,-0.06618509,-0.02757269,0.023246419,-0.018161008,-0.07567994,0.04185285,-0.059681922,-0.030939536,-0.048023745,0.06483096,0.037238266,-0.04250428,-0.018333608,-0.11886331,-0.045174915,0.03977767,0.10011638,0.025409352,0.0054766336,0.03348511,-0.009774324,-0.046908695,-0.10644664,-0.018987194,0.022682045,-0.014431404,0.045468014,0.051639557,0.047124516,-0.0014529951,-0.0037251674,-0.045944907,0.032551542,-0.00013507497,-0.016730044,-0.023103079,0.041207515,-0.1090845,0.0006630059,0.027960228,-0.014603875,-0.023647482,-0.03488136,-0.028233197,0.02309766
com.rafsan.inventory.controller.purchase.AddController;0;0.0005168509,-0.025788004,0.0009129301,0.05474123,-0.024147684,-0.046965253,0.09883572,-0.06359084,0.100357175,0.0728097,-0.034978095,-0.079198815,-0.0038646942,0.03596345,-0.14843743,0.011593108,0.028809892,0.039379515,-0.03659577,-0.083320804,0.03250546,0.003156946,-0.021209717,0.05242709,0.006591797,0.036564603,-0.02347094,0.10190014,0.0140137365,-0.021143487,0.01899346,-0.02749926,-0.07785294,-0.049135897,-0.056392428,-0.06149422,0.055571537,-0.06956515,0.072464965,-0.043696303,0.04428117,0.03567294,0.07761708,-0.08968207,-0.10855492,-0.14903714,-0.014584805,0.045486573,-0.10621676,-0.00059314485,-0.028883914,-0.02912529,-0.020843668,-0.109895095,-0.022257116,-0.014699895,0.019321198,-0.083227925,0.082255915,-0.020926943,-0.02573411,0.039486255,-0.12637176,-0.03356901,-0.020498114,0.03027149,-0.027906945,0.014719903,-0.011109373,0.06725425,0.09145793,-0.06850239,0.038239826,-0.087544546,-0.07028296,-0.04139547,0.12455068,-0.018332623,0.078613445,0.038474225,0.07102674,-0.04718667,0.07474778,0.009255267,0.08902432,-0.05851778,-0.08710204,0.12516525,0.036927164,0.07950219,0.05606988,0.0072794165,-0.042553112,-0.03328234,-0.03564226,-0.03583218,-0.07306168,-0.03852065,0.053789504,0.07629524,0.10221274,-0.055592477,-0.06228443,-0.02473742,0.026313296,-0.07428003,-0.10093462,0.013175153,-0.00543083,-0.052431796,-0.05651076,-0.044269644,-0.078928195,-0.060126446,0.036197904,0.07613949,-0.012815704,0.01584318,0.17568581,-0.05046536,-0.0059493044,0.025047788,-0.10008986,0.071962394,0.057117686,-0.02914721,-0.048583984,-0.07602513,0.08677332,0.08871845,-0.025307188,0.05417,-0.05213409,0.070692025,-0.027196357,-0.030400053,0.09689591,0.031035727,-0.0068294443,0.09268059,0.04981605,-0.11415749,-0.053877078,0.02303647,0.06584638,-0.01943012,0.0652797,-0.040329143,-0.14428516,-0.023520611,0.0872082,-0.007227918,0.024354164,0.035992723,-0.028547572,-0.09031995,-0.062522404,-0.015067892,-0.110052556,-0.014649087,-0.021269454,0.042170357,0.07159684,-0.013819918,0.0008327403,-0.019697148,-0.0051862025,-0.08831203,0.0014038086,-0.013593309,-0.13630968,-0.017528778,0.0014012114,-0.11526506,-0.037898447,-0.0673708,0.07357626,-0.21070895,-0.09241494,-0.041849338,-0.13029838,-0.003460174,0.03305703,-0.05682941,0.023068367,-0.06824152,-0.10662842,0.07781755,-0.014230606,0.0997342,-0.072784096,-0.05555368,-0.11311146,-0.06264675,-0.12576586,0.035197806,0.05680717,-0.04789685,-0.027200902,-0.15038088,0.0037478183,0.01130238,-0.06732438,-0.021141864,-0.046739943,-0.05364211,-0.03722885,-0.06685533,0.08063718,-0.029658217,0.010754362,0.053292133,-0.08509729,0.12411223,-0.052401926,0.059860878,0.14607114,0.04009182,-0.1325609,0.0626827,-0.03272783,0.07041931,-0.03763142,0.013175477,-0.00281898,0.0011664857,-0.009821465,-0.05288372,0.032763623,-0.018119162,0.034924123,-0.00019422491,0.003022539,-0.09312163,0.021719264,-0.017679011,0.06697397,-0.011134208,0.08755168,-0.013047076,0.0025222453,0.030883789,-0.0035126058,-0.014421504,0.07249191,-0.016202074,-0.021530801,0.06911533,0.0022012426,-0.11874195,-0.052121427,0.022992073,-0.047364417,-0.062330835,0.009200725,-0.038417086,0.0046320166,-0.046468534,-0.007967036,-0.046142504,0.07410187,-0.12145185,-0.027011303,-0.07590501,0.034797505,-0.017156074,-0.086919904,-0.07336686,-0.076182425,-0.05315318,0.033636864,0.10928864,0.03647792,0.01155415,0.013243655,0.013256316,-0.028019205,-0.09580637,-0.028369011,0.02634576,-0.0073449966,0.060596548,0.13697977,0.023808194,0.014876508,0.047466036,-0.037992436,0.04933144,0.0796762,-0.057151306,0.00895139,0.08214488,-0.11683957,0.008483238,0.1268606,-0.007816153,-0.011454156,-0.06892399,-0.01495544,-0.041595258
com.rafsan.inventory.controller.purchase.PurchaseController;0;0.03614584,0.033681948,-0.0394346,0.077620834,-0.00723918,-0.009902329,0.085578784,-0.080009595,0.1026332,0.094608575,-0.037993316,-0.1015283,-0.0029592682,-0.01133082,-0.14456123,0.056727137,0.08393833,0.05313547,0.0231631,-0.096476234,-0.007843006,0.02655471,-0.0036894146,0.03549908,-0.012317323,0.0031599412,-0.05212465,0.114504,0.016051712,-0.041881897,-0.042108726,-0.04360266,-0.11190671,0.01765433,-0.029445268,-0.03154286,0.016606024,-0.043056913,0.030359324,0.012969168,0.061037745,0.04315275,0.032991644,-0.0147608705,-0.049898203,-0.10990326,-0.06926272,-0.0126622515,-0.06971357,0.008099578,-0.03858591,-0.030240599,-0.06022158,-0.12670328,0.04395513,0.036863025,-0.035031322,-0.07535386,0.04266286,-0.06410833,-0.01818455,-0.002767797,-0.079523675,-0.037047625,-0.027939914,-0.038740728,-0.06212808,0.052561,-0.022993745,0.09310967,0.050202485,-0.023488898,0.07426587,-0.042105515,-0.03377948,-0.06307002,0.108415216,-0.03759641,0.03942978,0.017094128,0.058825932,-0.0402567,0.059614304,-0.024883516,0.07188014,0.018087823,-0.034782186,0.12369335,0.06359087,0.049148023,0.014015242,-0.022152727,-0.05691689,-0.02882876,0.005105805,-0.048628066,-0.006936592,-0.024992691,0.064884655,0.0011403937,0.049334966,-0.032365587,-0.055285003,-0.01996153,0.019642657,-0.026931405,-0.011113038,-0.0041341055,0.009510955,-0.068200186,-0.021927861,-0.05898838,-0.032292414,-0.049236275,0.07948366,0.08097295,-0.008599248,-0.01373648,0.119836286,0.028205568,-0.010443035,-0.046415273,-0.05680071,0.08870782,0.06811435,-0.051472,-0.07004659,-0.021654988,0.08199761,0.07157782,-0.028966535,-0.02234101,-0.030337552,0.04484052,-0.0268088,0.023220664,0.0043692784,-0.014778182,0.009547183,0.032942746,0.08401552,-0.0840902,-0.059501067,0.047252096,0.07450153,0.014872813,-0.045038056,-0.0047947844,-0.057840627,-0.0044528446,0.06789037,-0.044697657,0.0110654775,0.051565785,-0.01417479,-0.086763635,-0.061822098,-0.04660159,-0.088047855,-0.0036978025,-0.051381115,0.057954095,0.0610837,-0.016543025,-0.045900602,-0.016726978,0.03634572,-0.093983434,-0.05518467,-0.023192646,-0.10479308,-0.050079077,-0.0054605943,-0.1090435,-0.025880335,-0.044983804,0.10861742,-0.18716466,-0.013028998,-0.012170446,-0.12699042,-0.034664758,0.026310792,-0.095957525,0.009125034,-0.059361506,-0.04904012,0.06518519,-0.005134716,0.040077522,0.017120741,-0.08936653,-0.09558756,-0.042539004,-0.04072544,0.050744485,0.049306065,-0.039189924,-0.017848678,-0.06822088,0.007914761,0.05237566,-0.06428938,-0.050698373,0.028363144,-0.074356884,0.026227271,-0.017753199,0.05586751,-0.016172532,0.053411115,0.08002494,-0.09314933,0.109036095,-0.07537985,0.09212168,0.11658643,0.07021256,-0.09715231,0.006495314,-0.054477446,0.06880839,-0.008106254,-0.013227145,-0.044324115,-0.013811524,0.012625444,-0.028901752,0.08572513,-0.043736953,0.014727141,-0.005181251,-0.06282445,0.014787194,0.0348662,-0.00046900698,0.021751601,0.0019655284,0.10439872,0.031343963,0.045631543,0.014704253,0.01831599,-0.084708944,0.031189077,-0.037048966,-0.03705423,0.036506977,0.04857584,-0.078811556,-0.0028223852,0.008191739,-0.039806522,0.016284442,0.007876837,-0.06603955,-0.03163495,0.04089445,-0.037555404,-0.051058486,0.017766763,-0.09512971,-0.05155396,-0.06017567,0.07360358,0.040857684,-0.037664402,-0.0062602083,-0.12028432,-0.004266393,0.02636036,0.09942806,0.014430175,0.02087081,0.035442486,-0.022306789,-0.031660873,-0.09178438,-0.030490719,0.008434229,-0.0038679244,0.066554554,0.050049186,0.040610507,-0.011558756,-0.011471308,-0.04034638,0.0417904,-0.023980748,-0.01858386,-0.043721516,0.035465352,-0.09418688,-0.0044145193,0.051408913,-0.0065748426,-0.012029815,-0.053981848,-0.034990344,0.008012247
com.rafsan.inventory.controller.report.ReportController;0;0.033024188,0.049577046,-0.031057669,0.06278495,-0.006533068,0.015525285,0.07597919,-0.08729394,0.088204764,0.08797488,-0.018791908,-0.09326774,0.029159768,-0.026600488,-0.13950898,0.08309369,0.09584702,0.056442168,0.049247287,-0.10637399,0.0038368867,0.024897242,0.0074408776,0.03348151,-0.002392791,0.00044573186,-0.046012346,0.09769635,0.03876726,-0.049827043,-0.046929117,-0.073240764,-0.09076531,0.022741197,-0.023113428,-0.038484797,0.027812868,-0.0039782855,0.032872442,0.011512047,0.07287096,0.022028724,0.0384529,-0.017123556,-0.06260007,-0.12693219,-0.06404109,-0.022883704,-0.08515469,0.010724905,-0.059201527,-0.044168163,-0.05211502,-0.10972418,0.0245419,0.032174688,-0.02502051,-0.06507171,0.052765958,-0.05289885,-0.0145448195,0.0066422084,-0.111282036,-0.05135594,-0.053222746,-0.030935775,-0.06369702,0.04949206,-0.021753443,0.074366726,0.056601766,-0.0072316015,0.085514866,-0.06536209,-0.04245381,-0.05756041,0.14316967,-0.03414935,0.05975874,-0.018624239,0.051744685,-0.03309587,0.029142335,-0.038609926,0.07940612,0.016474525,-0.010806949,0.0816541,0.053655315,0.03323728,0.022653624,-0.032138202,-0.061534084,-0.05260858,-0.00850327,-0.048363443,-0.013636745,-0.02229349,0.09446539,-0.011047008,0.012246775,-0.0377341,-0.034601964,-0.031556774,0.0032042125,-0.020070897,-0.028579002,-0.0034741247,0.022750854,-0.05609202,-0.023830414,-0.07652447,-0.036817063,-0.03651517,0.048734754,0.08764542,-0.011689813,-0.03806926,0.13798629,0.062508516,-0.03590282,-0.067389555,-0.046308827,0.098492645,0.075188264,-0.034050167,-0.08059586,-0.0152917905,0.08155601,0.067310065,-0.0515614,-0.036085263,-0.030390363,0.027079027,-0.025645234,0.017711729,-0.022841608,-0.0106744105,0.01629071,0.0442221,0.052394334,-0.0668406,-0.052996967,0.059885602,0.04708348,0.017492471,-0.056615964,0.0120091215,-0.061292782,0.0075259986,0.07312366,-0.005639298,0.0133799175,0.06663549,0.008190421,-0.07956338,-0.07817832,-0.03920799,-0.08699976,0.0007958079,-0.072283946,0.085580036,0.06525705,-0.014300324,-0.04424989,-0.015421002,0.03296391,-0.09970235,-0.06726461,-0.0036912076,-0.098108694,-0.03242697,-0.018683854,-0.10915259,-0.02904138,-0.04247018,0.12706216,-0.18094572,-0.01748879,-0.023538679,-0.12592103,-0.020986868,0.024804048,-0.06792893,0.002410545,-0.03688333,-0.06834092,0.08407983,-0.011777568,0.055729266,0.0316157,-0.07480728,-0.10518461,-0.019491151,-0.017426956,0.05427724,0.04391871,-0.06881891,-0.011236501,-0.05821831,0.030023087,0.05704161,-0.073877424,-0.07689527,0.048415784,-0.062136274,0.007254667,-0.018954432,0.061374042,-0.032973003,0.0673342,0.07228869,-0.10276007,0.08242567,-0.09299451,0.069999516,0.08295108,0.09262005,-0.077194616,-0.005991492,-0.051702634,0.06492455,-0.02540695,-0.026753454,-0.046334043,-0.026381826,0.034338396,-0.014981647,0.070343375,-0.034486018,0.0043702237,-0.020827936,-0.0683505,0.0017000242,0.009935024,0.008292087,0.035677776,0.0043309233,0.11037374,0.0070535527,0.065331124,0.012003478,0.012356514,-0.11703988,0.01630253,-0.041419007,-0.04084902,0.06294793,0.061479855,-0.0779025,-0.0014721848,0.017452506,-0.061778843,0.02084458,0.014906018,-0.08862043,-0.03337363,0.05097234,-0.022795599,-0.0642544,0.03652466,-0.08117401,-0.067550614,-0.084026955,0.05738742,0.043034576,-0.046357267,-0.002520894,-0.12546167,-0.013625389,0.03609764,0.11694549,-0.004384418,0.015415458,0.041874353,-0.035290875,-0.044522,-0.07930347,-0.020655433,0.017485285,-0.014042566,0.056452196,0.028992409,0.050903674,-0.0049199834,-0.027250335,-0.04234354,0.031233909,-0.006470436,0.0049403934,-0.03764911,0.021700127,-0.09570419,0.0011555871,0.027803466,-0.0064386767,-0.014972598,-0.058388643,-0.05509068,0.012164448
com.rafsan.inventory.controller.report.ViewController;0;0.010494151,0.04291161,-0.061443977,0.0114369495,0.039836477,0.033288833,0.042401254,-0.071982525,0.060907565,0.10056962,0.045581575,-0.024560807,0.026105272,-0.023601126,-0.1497556,0.1685739,0.0790652,0.06937325,0.085368216,-0.09571351,0.027298989,0.032657705,-0.021188289,0.020164976,0.020535083,0.06882818,0.016721036,0.062231187,-0.011285011,-0.025117915,-0.008464407,-0.15514357,-0.05701463,0.057395123,0.038573246,-0.041624676,0.06700491,0.09321107,0.13199957,-0.08125257,0.14139637,0.03434591,0.06713607,-0.115618765,-0.16813627,-0.19107121,0.12955816,-0.01922997,-0.20381586,0.012882314,-0.057131503,-0.0834435,-0.032421354,-0.18011995,-0.05752304,-0.049847867,0.029039424,-0.075986825,0.13042563,-0.026772358,0.036036715,0.15331511,-0.19609767,-0.07032809,-0.13181646,0.012015485,-0.11699011,-0.064611554,-0.060834195,0.009537068,0.18110819,-0.011017495,0.08675563,-0.22593917,-0.026758721,-0.019240359,0.21397108,-0.022996617,0.0438609,-0.07575826,-0.040688373,-0.11156447,-0.12199856,-0.01757293,0.17502545,-0.00057788607,-0.00086488115,0.038197618,0.011638235,0.13232552,0.08834514,0.046752606,-0.09891851,-0.1850573,-0.058362596,-0.044714097,-0.16053025,0.015544485,0.14807779,0.042651888,0.0020128614,-0.08179295,0.036101647,-0.08409346,-0.00906437,0.017824862,-0.121145695,0.08203125,0.06854638,0.031681143,-0.0129251685,-0.072912335,-0.05244998,-0.07663418,-0.08051982,0.13456629,0.04301144,-0.056978267,0.2824902,0.100587234,0.07562126,-0.13870044,-0.0035010804,0.09893409,0.16076258,0.019702667,-0.11431625,-0.055879634,0.13046362,0.034564078,-0.12866925,0.040152043,-0.01171875,0.009859126,-0.011549929,0.06555046,-0.031905804,0.042221233,0.06655429,0.16675064,-0.05786912,-0.030155912,-0.05987679,0.10495644,-0.031242695,-0.020668842,0.03225838,0.052885015,-0.19496058,0.0037348322,0.13630839,0.08706121,0.09841594,0.12699987,0.068078876,-0.04899778,-0.13776284,0.07848602,-0.08976908,0.01737554,-0.18725197,0.17373191,0.06044818,0.014471825,-0.02411538,0.015824987,0.022032717,-0.1549676,-0.09966067,0.099853516,-0.10079112,0.027412577,-0.030005923,-0.18632086,-0.07286039,-0.029393623,0.15577926,-0.1106892,-0.06614068,-0.10661933,-0.16162369,0.05665361,0.02191292,-0.010740239,-0.008163411,-0.027498286,-0.19530211,0.1647222,-0.10376821,0.11287348,0.010073398,-0.050279334,-0.22710793,-0.019406583,0.008830618,0.048739817,0.1272648,-0.16817491,-0.017010627,-0.14142105,0.045825716,0.09877306,-0.05649518,-0.11429937,-0.016621042,0.00793457,-0.08384672,-0.06541151,0.23280627,-0.035019245,0.11994447,0.0709774,-0.08355583,0.07669262,-0.15466763,0.13098924,0.0022855718,0.16591433,-0.10692321,-0.05883789,-0.005093189,0.11594862,-0.07057223,-0.055191364,0.01317497,-0.023769947,0.0016869078,-0.0067580203,-0.0123342965,-0.0114041595,0.019425413,0.010718488,-0.107564725,-0.12754789,-0.06818276,0.1239835,0.13377824,0.009973729,0.090089835,-0.13993901,0.14803623,0.0055434857,-0.03255641,-0.16580655,0.12953024,-0.018285548,-0.003305638,0.15459329,0.092250094,-0.11004509,0.018715717,0.1238702,-0.24898708,8.120435e-05,0.037841797,-0.07515116,0.02330504,0.08009111,0.08042616,-0.10160925,0.1925828,-0.048311274,-0.16089387,-0.16136137,-0.036797706,-0.044253733,-0.13358907,-0.034782246,-0.090020366,-0.0426363,0.037337933,0.15046334,-0.034226436,0.059498888,0.040677983,-0.0037348322,-0.13710834,-0.025192585,0.017631369,0.024733523,-0.12533504,0.03423423,0.025489321,0.02297584,-0.027335634,-0.017557023,0.0473438,0.09724674,0.11348124,0.005319149,0.03428877,0.08312144,-0.13664733,0.057628874,0.09170532,0.059282992,-0.022146672,-0.07632771,-0.09931435,-0.078580976
com.rafsan.inventory.controller.sales.SalesController;0;0.041088827,0.029994862,-0.04420698,0.07115029,0.0019454956,-0.02523515,0.0943352,-0.098306395,0.11283823,0.11513682,-0.03682111,-0.09984514,0.010183231,-0.018996967,-0.15798868,0.04582668,0.08304101,0.043930355,0.028665172,-0.11477001,0.017716086,0.023844486,-0.0060080453,0.025639508,-0.0018199199,0.015723925,-0.047912393,0.11949096,0.030307872,-0.03911776,-0.03372378,-0.033043113,-0.099002734,0.006200223,-0.02804019,-0.009462305,0.022517024,-0.045913696,0.031425063,0.017252844,0.07180843,0.031561982,0.053572167,-0.012969558,-0.07099667,-0.105077796,-0.063759826,-0.008318102,-0.06337346,0.00092657836,-0.03664924,-0.033952042,-0.05745166,-0.11292493,0.031384546,0.018671732,-0.02195451,-0.073203504,0.041277498,-0.023367804,-0.026321823,-0.0015936929,-0.08173726,-0.054974735,-0.03518213,-0.040992323,-0.024661502,0.052621692,-0.014013961,0.08012102,0.075061075,-0.022596205,0.07498416,-0.06523318,-0.050320547,-0.0489304,0.109887615,-0.04838789,0.06223194,0.0009452201,0.06043759,-0.052262485,0.063451305,-0.028404133,0.06861713,0.0102803,-0.022457844,0.12694345,0.06012303,0.020913716,0.023614831,-0.020337285,-0.043461155,-0.020560393,0.016017295,-0.06999021,0.0013906118,-0.051055133,0.06562888,0.021058984,0.035212338,-0.023614626,-0.031726733,-0.029153978,0.0418363,-0.045442633,-0.0056193583,0.008048444,0.0011130668,-0.07221201,-0.019517744,-0.055263054,-0.05372898,-0.045450367,0.07411637,0.07414576,-0.025015425,-0.012224352,0.11919341,0.021864194,-0.02944601,-0.037982013,-0.0460801,0.07888114,0.071125396,-0.048395827,-0.046477858,-0.00021980904,0.08209631,0.053735267,-0.022142772,-0.021180024,-0.021124557,0.033572428,-0.026835468,0.008111283,-0.0019187927,-0.0121305315,0.008928041,0.021054655,0.076662526,-0.0867889,-0.04075128,0.053091306,0.080613114,0.025299484,-0.047103263,-0.0026156968,-0.05675857,0.0020544208,0.07992059,-0.028851407,0.014680089,0.061288368,-0.011550078,-0.06866016,-0.08364054,-0.051402323,-0.072931856,0.0025490425,-0.051103592,0.0783823,0.09125333,-0.020718137,-0.04221607,-0.021146156,0.020988258,-0.0825219,-0.05246339,-0.019413304,-0.11601711,-0.019270098,0.005337277,-0.11119915,-0.037856642,-0.062018935,0.10400772,-0.18216519,-0.0045554703,0.0070557464,-0.1192229,-0.016573519,0.04197806,-0.075516716,0.028744582,-0.044803515,-0.05002656,0.06932068,0.0116394665,0.05749749,0.012616363,-0.07292794,-0.070468925,-0.014006743,-0.060060244,0.042302724,0.024329534,-0.05293439,-0.007844667,-0.074250914,0.022435987,0.039824616,-0.057276238,-0.047754005,0.026823714,-0.05877727,0.011484507,-0.021434268,0.047521643,-0.008220982,0.031312685,0.072569564,-0.093097225,0.10171694,-0.05768977,0.06624047,0.11532923,0.07534419,-0.075350374,0.016681438,-0.049273722,0.06895983,-0.020699166,0.0022512835,-0.056199063,-0.026250273,0.010693833,-0.023171915,0.084350176,-0.033941425,0.0232845,-0.0016516093,-0.063364804,0.014599259,0.047318537,-0.00848069,0.018511254,-0.008497651,0.11146277,0.028488675,0.054341186,0.013547485,0.010750951,-0.094362,0.016576534,-0.035372656,-0.044087797,0.042772565,0.060411222,-0.06795832,-0.017201887,0.017260784,-0.04444081,0.012576761,0.04528798,-0.081798606,-0.03147641,0.030022493,-0.028023617,-0.047885988,0.023762265,-0.10114825,-0.061185632,-0.06386916,0.067107536,0.03770055,-0.04906814,-0.0053809914,-0.12900193,-0.020186966,0.0213971,0.11050869,0.022786114,-0.0030239208,0.043426026,-0.028551308,-0.039368913,-0.085865125,-0.031788904,0.01913612,0.010599497,0.059475873,0.058719944,0.06286333,-0.0021146827,-0.018365294,-0.05135325,0.036376398,-0.0195329,-0.022397319,-0.0402432,0.046433732,-0.10080657,0.004885287,0.05530713,0.006956152,-0.026405746,-0.061851297,-0.042224444,-0.00894263
com.rafsan.inventory.controller.supplier.AddController;0;0.009102821,-0.08029747,0.0041160583,0.02927661,-0.05282402,-0.034482002,0.056774616,-0.066781044,0.08095527,0.05123228,0.016748875,-0.060100824,0.017134666,0.017176628,-0.08941561,-0.01247859,0.0058898926,0.04993032,-0.026604652,-0.073503524,0.0746074,0.0323205,0.025341034,0.018537521,0.006624222,-0.0009793043,-0.049203873,0.09320831,0.060940742,-0.046414375,0.034443855,-0.08403742,-0.079811096,-0.07996559,-0.07309508,-0.09009075,0.06715202,-0.0059461594,0.05761099,-0.01397562,0.04316163,0.008390427,0.0763306,-0.05984211,-0.07412553,-0.12756538,-0.03929329,-0.011167824,-0.101462364,0.013309479,-0.12672043,-0.030316353,-0.020301819,-0.052969933,-0.06654598,-0.013880968,0.01924181,-0.12106037,0.06527519,-0.023349285,-0.036088943,0.009530067,-0.14407837,-0.03335333,-0.064156055,0.06731033,-0.0121616125,0.047053337,-0.020813465,0.041749954,0.07496071,0.0027577877,0.03676176,-0.08209622,-0.0718112,-0.06719208,0.15656328,-0.024965763,0.08410001,0.027376175,0.09712982,-0.017559052,0.0906322,-0.0063228607,0.07007265,-0.061235428,-0.09065986,0.05081129,-0.02137351,0.006129265,0.06574154,-0.046468735,-0.041540444,-0.04291439,-0.05756712,0.016094923,-0.046339273,-0.057567596,0.083409786,0.040554047,0.0661993,-0.08323932,-0.058357716,-0.007799454,-0.0037298203,-0.04925573,-0.10777092,-0.033042908,0.008374214,-0.05318165,-0.104465485,-0.055940628,-0.071125984,-0.077982426,-0.018003702,0.07568163,0.008133769,0.022833839,0.18288136,-0.0108065605,-0.06756067,-0.011722565,-0.11764717,0.08611107,0.0672476,-0.04893446,-0.030101776,-0.040254593,0.08783364,0.10282606,-0.0063033104,-0.00830555,-0.06992544,0.07971954,0.006078005,-0.07305908,0.07608509,0.04207611,-0.024187088,0.101659775,0.050412893,-0.107073545,-0.041149974,0.05339086,0.031811237,-0.014864206,-0.030455112,-0.03449607,-0.12493515,-0.0022810698,0.08791065,0.02276814,0.0185709,0.02163434,-0.032989502,-0.09086956,-0.03964424,-0.03387046,-0.09620094,-0.00012302399,-0.02479744,0.07627096,0.075051785,-0.047122955,-0.021775723,-0.025717616,-0.048846245,-0.090922356,0.009196281,0.018746376,-0.102458,0.043447495,-0.026599884,-0.10947418,-0.022711515,-0.06494975,0.086184025,-0.17469406,-0.11677313,-0.07263279,-0.12884331,0.008399963,0.019854546,-0.05569005,0.04327154,-0.008000135,-0.14423037,0.07453394,-0.010952473,0.1014595,-0.0824635,-0.02298963,-0.10014963,-0.00605011,-0.11491442,0.043484688,0.0007343292,-0.06310114,0.005852461,-0.13937569,0.04118657,0.014570951,-0.028503418,-0.039150715,-0.0067071915,-0.071033955,-0.026935577,-0.06540012,0.08255291,-0.074281216,0.023337007,0.026762962,-0.07803345,0.08821845,-0.043087006,0.019542694,0.124717295,0.018722057,-0.13083744,0.07445955,-0.04898739,0.06634545,-0.020178795,0.013676643,-0.03040886,0.002047062,0.029182673,-0.03596306,0.014371008,-0.021808863,0.00807333,-0.039868474,-0.012464523,-0.07870865,0.044163227,-0.019774795,0.06487784,-0.05287814,0.09836197,-0.019487143,0.0060338974,0.012105465,-0.033124685,-0.015305519,0.056673527,-0.019352198,-0.03015852,0.103667974,0.01992619,-0.13441086,-0.056954384,0.024401188,-0.040135622,-0.06842181,0.014823914,-0.100522995,0.014789343,-0.038267136,-0.01878357,-0.040252686,0.04681778,-0.08675575,-0.0030136108,-0.10298073,0.027618885,0.0082959235,-0.06451893,-0.05830574,-0.10469484,-0.0688591,0.019742966,0.10831165,0.032296658,-0.03079462,-0.028872967,-0.061820984,-0.059359804,-0.11733627,0.0016260147,0.03396225,0.0007247925,0.10612202,0.08394432,0.04477778,0.029365778,0.022607088,-0.043563843,0.0021716654,0.075668335,-0.047820568,0.016658783,0.083498,-0.1170063,-0.0067100525,0.09150648,-0.04104197,-0.031469822,-0.09802687,-0.058789074,-0.030696098
com.rafsan.inventory.controller.supplier.EditController;0;-0.013264126,-0.11416796,0.011289597,0.042299695,-0.0438758,-0.009817336,0.061866336,-0.059103224,0.073923536,0.09447728,-0.003146304,-0.061135,0.034745958,0.01770613,-0.10370811,-0.03999562,0.008277046,-0.0022619169,-0.008491516,-0.09405012,0.07667163,0.05775494,0.020302666,0.01725769,0.022869535,-0.010380957,-0.024778578,0.10546875,0.08593496,-0.059698317,0.060343426,-0.08975527,-0.082333036,-0.067611694,-0.06822184,-0.06424543,0.056389704,0.013920254,0.0641115,-0.017525991,0.04001808,-0.0047183568,0.060924903,-0.06880442,-0.08985583,-0.13015577,-0.020855375,-0.0142468875,-0.14396752,0.045326233,-0.11774021,-0.03315311,-0.023264566,-0.089646235,-0.041318696,-0.05520566,-0.010453542,-0.09227583,0.09228007,-0.031924352,-0.038041856,0.02788035,-0.18387954,-0.05315272,-0.05216853,0.061913386,-0.051120654,0.05216641,-0.01987754,0.030051338,0.06781176,0.009144889,0.0067100525,-0.06103696,-0.06871499,-0.053449843,0.17174657,-0.05082999,0.071866564,0.010052151,0.102396645,-0.060787626,0.1012249,0.011835734,0.10872099,-0.07848697,-0.109590106,0.062730156,-0.011775547,0.039973788,0.093918696,-0.02249315,-0.04184156,-0.019727072,-0.09079531,-0.02060212,-0.06638442,-0.107676186,0.10791482,0.033715144,0.09225803,-0.07637596,-0.08247248,-0.040881958,-0.02129025,-0.07230663,-0.10721673,-0.0019683838,-0.010120816,-0.043183222,-0.10574341,-0.045621235,-0.09831831,-0.079632655,-0.041149776,0.076651625,-0.022622956,0.049722474,0.21556684,-0.023260752,-0.04353375,-0.028703477,-0.1325565,0.0692732,0.05623052,-0.054584503,-0.06299676,-0.053034466,0.06648021,0.096582144,-0.0053113303,0.030811734,-0.0685409,0.09320068,-0.022158094,-0.06450907,0.098867625,0.04574246,-0.052274916,0.11428324,0.082653254,-0.09078535,-0.029389169,0.084378034,0.044640437,-0.0036640167,-0.024507735,-0.021629969,-0.17180379,0.010301484,0.089102,0.0034197702,0.013022105,-0.011341307,-0.0719808,-0.097883135,-0.028208414,-0.008568446,-0.107552424,0.009886848,-0.024008857,0.06617728,0.0967013,-0.043887667,-0.04251565,-0.019760132,-0.061742995,-0.11101193,0.040116206,0.006989373,-0.1093572,0.09257507,0.0014190674,-0.15495808,-0.021245956,-0.08342213,0.07601462,-0.22605048,-0.13922755,-0.06598663,-0.17390782,0.014102512,0.025793288,-0.06683625,0.024506887,-0.020922132,-0.17409982,0.062875114,-0.027883317,0.120276555,-0.10860634,-0.019406106,-0.0955357,-0.027526855,-0.11494997,0.014876472,-0.00790702,-0.08013776,0.010281669,-0.17297533,0.03087298,-0.0056298575,-0.0422092,-0.008246952,-0.053496465,-0.05181249,0.015682645,-0.10381487,0.09140608,-0.11433368,0.04221482,0.0138880415,-0.06077406,0.10414611,-0.034203425,0.050479464,0.1351925,0.021816254,-0.12875111,0.1134953,-0.06877221,0.024824567,-0.050749883,0.08534495,-0.060843572,-0.007603539,0.011685054,-0.042309232,0.025893398,-0.045298472,-0.009252336,-0.032651372,-0.039345637,-0.10547214,0.039966583,-0.009680324,0.03982658,-0.06414689,0.06186676,-0.024808884,-0.0052634347,0.0103246905,-0.062491313,0.02298906,0.12338299,-0.040354624,-0.023606619,0.088056564,0.017590098,-0.16205174,-0.02628157,0.009471046,-0.0025747088,-0.11800255,-0.044650607,-0.0688324,-0.016561083,-0.05191888,-0.021655612,-0.0126953125,0.039493136,-0.11277432,-0.0029296875,-0.118068375,0.055420347,0.0009103616,-0.06916385,-0.059202407,-0.07959027,-0.069366455,0.02993944,0.09110599,0.03800244,-0.033201855,-0.04782571,-0.072014704,-0.087188095,-0.1066352,-0.00562795,0.030914307,-0.003133138,0.090393916,0.087644786,0.015442663,0.012085173,-0.005584505,-0.0450236,0.015709056,0.06563653,-0.04030736,0.05202569,0.075291954,-0.1685401,0.027709113,0.11545096,-0.061913915,-0.039685145,-0.07979838,-0.044803884,-0.055415843
com.rafsan.inventory.controller.supplier.SupplierController;0;0.025407057,0.015681414,-0.018549552,0.06732203,-0.024092015,0.021195779,0.070575126,-0.08438844,0.07984602,0.10054073,-0.032578543,-0.10413123,0.03052231,-0.023844926,-0.13227199,0.042901076,0.08008062,0.03531639,0.032202568,-0.096969895,0.016582498,0.04200983,0.0011474169,0.034592114,-0.0054916968,-0.013087254,-0.04090331,0.09650253,0.060571305,-0.065014176,-0.032988988,-0.05198347,-0.08719122,0.0144645255,-0.034305792,-0.033850595,0.021765195,-0.019373087,0.021184701,0.027423345,0.056254275,0.024047852,0.040582124,-0.01691833,-0.059186935,-0.120096795,-0.07586299,-0.0339657,-0.08141092,0.029064942,-0.061318398,-0.033037186,-0.05902217,-0.10723232,0.049907096,0.028954672,-0.048300304,-0.07602477,0.058588173,-0.059943713,-0.013708298,-0.010422028,-0.12005487,-0.055685118,-0.04877582,-0.0060724113,-0.07069456,0.07944628,-0.02880896,0.067265,0.038660638,0.008948693,0.053077992,-0.02876931,-0.053092297,-0.06653218,0.1366035,-0.039241645,0.054060716,-0.0028968225,0.07441286,-0.04244401,0.06510962,-0.03368726,0.07308476,0.0135439355,-0.035714224,0.08037268,0.036900952,0.035469715,0.032614928,-0.04443671,-0.055620927,-0.011800766,-0.012001551,-0.057701476,-0.01204542,-0.03831823,0.09107399,-0.0003082569,0.029689789,-0.030977488,-0.059756353,-0.02578077,-0.007417991,-0.05552303,-0.016233297,-0.005598325,0.015478721,-0.05165804,-0.054070987,-0.06066856,-0.033445653,-0.037866592,0.04050768,0.07375189,-0.02799935,-0.011578486,0.1331699,0.03858538,-0.03530961,-0.051329393,-0.08217459,0.08409104,0.06249609,-0.04739158,-0.09192511,-0.028468352,0.060880296,0.08777824,-0.01730875,-0.009745378,-0.0440043,0.049427785,-0.033325195,0.010705801,0.01583602,0.004200715,0.0047243284,0.028841019,0.09395952,-0.07514031,-0.042119835,0.068867736,0.06395472,0.01309094,-0.06319765,0.0068686926,-0.075430356,0.016036473,0.08122606,-0.024046622,0.0019234878,0.03595,-0.016743587,-0.096670955,-0.054037314,-0.046016105,-0.0910409,0.008927529,-0.053528383,0.05306439,0.062360324,-0.011871631,-0.05157942,-0.013514189,0.0046698498,-0.10797167,-0.03568705,-0.017053457,-0.086545795,-0.019054633,-0.016771976,-0.11937574,-0.016451469,-0.0576502,0.11290455,-0.20687869,-0.05150377,-0.027244128,-0.12261391,-0.036046326,0.026954724,-0.09449061,-0.0042585228,-0.033170845,-0.08857432,0.055564146,-0.018378185,0.0614905,-0.0001858106,-0.0617331,-0.08036783,-0.033971053,-0.048359063,0.033273403,0.018041912,-0.05710502,-0.011235604,-0.07712291,0.03461636,0.031807534,-0.06056107,-0.03941703,0.017670559,-0.07336308,0.035196744,-0.04591091,0.047472,-0.06377235,0.06640999,0.05332184,-0.08967163,0.08727421,-0.06320484,0.061379068,0.11308802,0.06254402,-0.09761055,0.034789305,-0.06867996,0.041042622,-0.043365184,0.01946038,-0.062814355,-0.02254354,0.028673245,-0.036683597,0.07984514,-0.04136812,-0.0062807524,-0.017760094,-0.06891896,0.0066465233,0.037620764,-0.0122118,0.00842677,-0.0085712215,0.098450474,0.021912575,0.024490943,0.0012011528,0.007937505,-0.05590644,0.037475385,-0.07013211,-0.04294777,0.050843395,0.05691244,-0.09321286,-0.0049234536,-0.007628808,-0.012229479,-0.014422481,-0.017708374,-0.07616465,-0.051408987,0.029393855,-0.03785183,-0.044768922,0.01532716,-0.087930165,-0.03468356,-0.079407915,0.08158135,0.04451957,-0.041683197,-0.015835028,-0.121695444,-0.016749749,0.035611484,0.09712335,0.012220823,2.4648813e-05,0.0061060647,-0.053007163,-0.04544911,-0.098696046,-0.018374737,0.009888392,-0.0071778665,0.045931082,0.04333452,0.04208407,-0.005839641,-0.017802533,-0.057545297,0.012066374,-0.019572625,-0.0052605364,-0.029912362,0.027358422,-0.11304327,-0.00012163015,0.035632942,-0.01731249,-0.013927827,-0.04309581,-0.040956113,0.010250275
com.rafsan.inventory.dao.CategoryDao;2;-0.11450195,-0.00783128,-0.14701961,0.04364483,-0.0047701322,-0.1452261,0.07647236,-0.19843937,-0.001577524,0.016338643,0.027033878,0.06388973,0.104745716,-0.10822941,-0.19185697,0.008206881,0.21938851,-0.079458386,-0.125939,-0.07369291,0.15444711,-0.251324,-0.21566068,-0.122558594,0.015404334,-0.14723557,-0.06520433,0.1449538,-0.014747033,0.18066406,-0.23659104,-0.026198167,0.13153546,0.20402645,0.13081712,-0.122737005,-0.048527643,-0.16805325,0.024282603,0.060434196,0.11545973,0.18209134,0.09791917,0.30108172,-0.012300932,-0.029296875,0.056415264,0.06557993,-0.039870042,-0.020486685,-0.137808,-0.09882061,-0.20757587,-0.10220102,0.18668893,0.03497784,0.3333834,0.09264198,0.06588041,0.13209885,0.086472735,0.09420072,-0.0971398,-0.24673226,-0.06278639,0.028978787,-0.03624549,-0.048264723,0.021033654,-0.06376766,-0.02313702,-0.15070988,0.18419471,-0.06255634,-0.15707633,-0.062222995,0.16107647,-0.050879844,0.13146973,-0.061542217,0.115722656,-0.122708835,0.1054664,-0.033522386,0.046166055,-0.1292443,-0.054048978,0.28720328,0.1568134,0.07232197,0.10625751,0.054048978,-0.1570012,-0.045222357,0.0013239934,0.025916466,0.050189678,-0.017353058,0.031099759,0.048959587,-0.0042255106,0.22577374,-0.24311711,-0.18918552,-0.065129206,-0.28136268,-0.16530198,-0.040940505,-0.07391827,0.0068359375,-0.069969766,0.037391074,-0.03641451,0.0015294001,0.14578365,-0.021700345,-0.10434195,-0.06896973,0.010404146,0.008174016,-0.07932692,0.15517953,-0.12761043,0.03985361,0.070733875,0.20815805,0.16871056,-0.035775993,0.01556866,0.08043495,-0.0073148287,-0.059382513,0.03938176,0.00078054576,-0.15054086,0.018755399,0.05893179,0.08338341,0.10970365,-0.03505296,-0.0089393025,-0.07066932,0.060978815,0.037306566,0.022010216,-0.22126652,0.18980995,-0.037423942,-0.13499099,0.026874248,0.06868803,-0.0065615727,0.026536208,0.16894531,-0.18962215,-0.18329327,-0.03431819,0.022038387,-0.0020845854,-0.034583457,0.047814004,-0.01763916,0.052302435,0.013315054,-0.19232647,0.07806866,0.0013709435,-0.020658053,-0.18798828,-0.049992487,-0.17442909,-0.16695462,-0.07128906,-0.14921512,-0.08757137,-0.15341422,0.26384208,-0.29740083,-0.11682129,0.13654973,-0.0045306864,-0.16543344,-0.11632362,-0.057709914,-0.1258451,-0.2177171,0.0135967545,0.10793833,-0.06668795,0.18100211,0.1986929,-0.322491,0.023118239,-0.09540264,-0.23587741,0.06302584,0.11741286,0.108961836,-0.10772236,-0.24605618,-0.124586836,0.057523288,-0.05313345,0.03617037,-0.19014798,0.04685622,0.0461238,0.06858473,0.092416614,-0.19992301,0.056020882,-0.044245794,-0.18323693,0.08169321,-0.16806266,0.06253756,0.030221792,0.28354117,0.027193509,-0.05085637,-0.008695162,0.19238281,-0.09475473,0.046898477,-0.16260704,-0.085524336,0.104717545,-0.2198768,-0.090012774,-0.20102164,-0.044377252,0.010582557,-0.01379864,0.113489,0.1560622,0.047945462,0.024963379,0.030860314,0.17762169,-0.0013404259,-0.16817532,0.03565275,0.17576247,0.047738884,0.024301382,-0.012986403,0.020403348,0.16569637,-0.17658879,-0.2738131,-0.05081881,-0.102723345,-0.106149524,0.033714883,-0.09442608,0.07239708,-0.17778133,-0.069129355,0.06676307,-0.16918945,0.11429537,0.0064978967,-0.0016338641,-0.041776218,0.072941706,-0.011751615,-0.18967849,0.08372145,-0.102989785,0.07708271,-0.08676382,-0.04077618,0.10509315,-0.021017222,0.010033241,0.06332632,0.013084998,-0.1737131,-0.1401555,-0.03575721,-0.11780724,-0.0775616,0.22415866,-0.02393752,-0.04788912,0.05908203,-0.14742807,-0.0012394831,0.009352464,-0.10359074,0.19944412,0.011981671,-0.14898682,-0.16988431,0.10130897,-0.142888,0.022385817,0.061448317,0.052208535,0.09735577
com.rafsan.inventory.dao.EmployeeDao;2;0.022635324,-0.034493584,-0.11354283,0.12297712,0.13474238,-0.023449127,0.026948474,-0.043640137,0.18531436,0.114201955,-0.01894415,-0.06275576,0.0083342055,-0.052001953,-0.1463187,0.09734236,0.011160715,-0.02682059,-0.0511649,-0.124488465,0.042689733,-0.12714495,0.037394207,-0.017857144,0.08357748,-0.09709822,-0.13248698,0.109892346,-0.05455962,-0.072265625,-0.06808472,-0.16737583,-0.07424491,-0.032273065,-0.109313965,-0.14054944,0.34542412,-0.011747815,0.06461661,0.00671968,-0.03426688,0.021641323,0.14425223,-0.078085035,0.0769973,-0.19090635,-0.031343006,-0.026925223,-0.015648251,-0.0052301316,-0.20793806,-0.0703125,0.025187174,0.0003952753,0.058245704,0.039213635,-0.0024646576,-0.08341471,0.078624904,-0.09194801,-0.03858003,0.1266741,-0.19262114,0.034737725,-0.09114293,0.074614026,0.13639323,-0.027202789,0.059454054,-0.02088565,0.058384486,0.08328683,-0.00097074965,-0.1508353,-0.21044922,0.035455614,0.061104912,-0.04755365,0.12786575,-0.068417504,0.122930616,-0.0929827,-0.021363758,-0.041620165,0.051688056,-0.054662794,-0.14629836,0.10579427,-0.0812407,0.037190754,-0.07280041,0.03062221,-0.19168527,0.031040737,0.0397179,-0.051252093,-0.013526553,0.09356399,0.06899879,0.11267671,0.04015387,-0.0718006,0.027884347,0.034060523,-0.037615094,-0.22156343,-0.031901043,0.122177854,0.053501673,-0.09021577,-0.055905297,-0.14620535,-0.0757766,-0.24713498,-0.11547343,-0.0039004372,0.06828962,-0.14853632,0.3501209,0.1505185,0.095889136,-0.02709961,-0.24482654,0.06845383,0.23014323,-0.10495286,0.1002546,0.04766555,0.079034716,0.03138951,-0.2406064,-0.14611816,-0.15405273,0.08608936,-0.020423526,-0.10644531,-0.09201195,-0.070405506,-0.112054735,0.017240979,0.06577846,-0.04545666,-0.07030088,0.16160366,-0.04966518,0.051316034,0.024600074,0.040518623,-0.052060083,0.12330264,0.2001023,0.12541562,0.1331264,0.19800967,0.0052780877,-0.10985166,-0.06968907,-0.0047781807,-0.021228608,0.16285923,-0.028448196,0.16624233,0.013128372,-0.020577567,0.027239118,-0.04499145,0.038295202,-0.15827288,-0.075683594,0.09049479,-0.025204614,0.10893613,0.013099307,-0.1586845,-0.07385835,-0.046142578,0.12553842,-0.09495908,-0.028026763,-0.12570918,-0.12132917,0.09701683,0.020496914,-0.20036606,0.0028948102,-0.013956706,-0.121605285,0.21302432,-0.02898298,0.00860305,-0.17903645,-0.005684989,-0.089756556,0.10918899,-0.2213251,0.105399,0.05498977,0.096051894,-0.1309175,-0.015206473,0.030226935,0.14633325,0.006033761,-0.05219959,-0.12526448,-0.11031669,-0.20842634,-0.089448474,-0.046409972,-0.06316848,0.14870489,-0.12579636,-0.053135462,0.12930152,0.1254534,0.118954614,0.08001055,0.26211402,-0.18516323,0.011898949,-0.027773902,0.030389694,-0.030598959,-0.07454137,0.044840496,-0.051426478,-0.010910761,-0.130871,0.016863141,-0.19862583,0.014590309,0.09170387,-0.092041016,-0.04318891,-0.06953357,-0.103515625,0.13011824,-0.08553932,0.10340954,-0.017857144,-0.00031389509,-0.073399864,0.047107514,-0.2374907,0.12081473,-0.034295946,-0.06284877,0.07662528,-0.013799759,-0.20814732,-0.2758324,0.10547093,-0.20735677,-0.026840936,0.17394438,-0.11173502,0.055088587,0.0845802,-0.08580962,-0.01819429,0.19997442,-0.083984375,-0.071661085,-0.055896576,-0.058845155,0.07218424,-0.19235957,0.13218471,-0.16857329,0.058750696,0.051888604,0.1607637,-0.07200986,0.03463745,-0.13423084,-0.07389323,-0.08179873,-0.2054952,0.06185913,-0.096365795,-0.07147798,-0.07678223,0.0014880953,0.07017299,-0.023670014,-0.048809234,0.14490037,-0.032377698,0.16773623,0.08835565,0.1578311,0.19997442,-0.080359325,-0.03796968,0.078037806,-0.033697218,0.12706938,-0.07524182,-0.13225447,0.0011625744
com.rafsan.inventory.dao.InvoiceDao;2;-0.008217552,0.11987305,-0.0698797,0.0005576394,0.12961648,0.10464755,0.068359375,-0.05041504,0.04253873,0.15740412,0.12643155,0.003462358,0.057495117,-0.061945137,-0.24911222,0.23097922,0.22536398,0.099365234,0.16144353,-0.031582918,0.01627974,-0.012839577,-0.015325373,-0.008234197,0.050625887,0.14976917,0.08251953,0.028289795,-0.03153853,-0.041126598,-0.066184305,-0.1397594,-0.022549717,0.14604048,0.1514948,-0.04999334,0.117054336,0.15020198,0.16583806,-0.18150745,0.21777344,0.0038951526,0.10369318,-0.29421166,-0.3087491,-0.31154564,0.15083452,-0.005814986,-0.3655895,0.10067749,-0.034446023,-0.16619319,-0.072354406,-0.2549716,-0.06257074,-0.028564453,0.07426314,-0.022999156,0.24256481,-0.006336559,0.04403409,0.2273615,-0.36320356,-0.14608487,-0.13514848,0.068847656,-0.25004438,-0.17919922,-0.13827237,0.042491566,0.23623934,-0.0986994,0.12917258,-0.39311078,0.004705256,0.08940541,0.32140005,-0.0071744053,0.10583496,-0.2257413,0.017400568,-0.16308594,-0.20197366,0.001953125,0.25066584,-0.00024414062,0.03955078,0.061856356,0.08158736,0.28591087,0.052689984,0.10085227,-0.115234375,-0.28817472,-0.15797009,-0.12025035,-0.24213201,0.067072086,0.17944336,0.091641515,-0.026123047,-0.09601385,0.07755904,-0.14607932,-0.0139826,0.012207031,-0.23548473,0.10604581,0.016135477,0.11044034,0.018160732,-0.07000177,-0.16361861,-0.07838163,-0.20057955,0.16085538,0.025790127,-0.08146529,0.44256037,0.17735706,0.061745383,-0.19071822,0.076327235,0.121762365,0.1825284,0.13299006,-0.13664107,-0.09943182,0.16552734,0.09818892,-0.23171164,0.10298295,-0.036177203,-0.02221541,-0.023359818,0.08753551,-0.09818892,0.06995738,0.13826127,0.22012606,-0.16321911,0.016867898,-0.05357777,0.18323864,-0.06551847,-0.031405363,0.06423673,0.07500111,-0.30597478,0.029962713,0.1253995,0.23774303,0.17260742,0.25461647,0.111128375,0.017666904,-0.18036166,0.09082031,-0.16508345,0.03774192,-0.30502042,0.21712424,0.07284269,0.08212003,0.02116949,0.0542658,0.12779652,-0.27938566,-0.12202592,0.17507102,-0.12153764,0.09468217,0.01159668,-0.24363917,-0.12826261,-0.006680575,0.19870967,-0.108532995,-0.105657406,-0.12306907,-0.27999046,0.07233221,0.027843129,0.005483454,-0.0073810923,-0.073353164,-0.2729936,0.2434193,-0.23120117,0.19952947,0.013716265,-0.08926947,-0.29461116,7.2132454e-05,0.08451705,-0.016396262,0.29456675,-0.24889027,-0.04629794,-0.16046697,0.1241566,0.097722836,-0.17045455,-0.15718217,0.0144486865,0.09099787,-0.12366832,-0.04325728,0.37280273,-0.060757723,0.18357156,0.06904741,-0.14206766,0.03971169,-0.20856267,0.27885297,-0.029307973,0.3388228,-0.1467507,-0.11421342,0.012850675,0.1159446,-0.16867898,-0.11209939,0.03874068,-0.02553489,-0.06768799,0.015358665,-0.08010032,-0.03191029,0.07677113,0.04683061,-0.17352849,-0.22436385,-0.1619762,0.2286044,0.22872092,0.05913197,0.051535867,-0.21109286,0.2364391,-0.029464722,-0.06545188,-0.3051314,0.076171875,0.013377797,0.016795766,0.16048917,0.14402078,-0.17320667,0.034135297,0.20228577,-0.43918678,0.06510232,-0.03178267,-0.045987215,0.051746715,0.10263339,0.19400302,-0.1418901,0.2677557,-0.10591264,-0.24485086,-0.36168325,-0.18741122,-0.14162375,-0.2265625,-0.025745738,-0.05637429,0.08254728,0.07517312,0.30621338,-0.10724432,0.12246704,0.062633164,-0.014670632,-0.13174716,0.07151378,0.036876332,0.03713157,-0.16124378,-0.032326438,0.08318537,-0.004416726,0.005459872,-0.006680575,0.107016824,0.13789506,0.17063211,0.041104402,0.057617188,0.022172408,-0.1988026,0.111283734,0.20695357,0.12898393,-0.064453125,-0.039417613,-0.13272372,-0.1747159
com.rafsan.inventory.dao.ProductDao;2;-0.04864823,0.09700093,0.0774504,0.047183387,-0.034745067,0.019980982,0.17948191,-0.12102308,0.15774055,0.08444696,-0.09430895,-0.14391448,-0.02319336,-0.080759145,-0.20384458,-0.039987665,0.19983552,0.08005243,-0.123329565,-0.032920435,-0.01719264,0.014018811,-0.18312474,0.05001028,0.03695518,0.044844776,0.012293765,0.13521536,0.1053531,0.03877981,-0.08722245,-0.009457237,-0.006373355,-0.001329924,0.06418971,-0.007463957,0.079024464,-0.33343184,0.1586657,-0.102950245,-0.023129111,0.03594007,0.013067949,-0.04325144,-0.27630293,-0.16933079,-0.060495477,0.084549755,-0.0064504524,0.05499107,0.09261924,-0.06799959,-0.10913086,-0.13260691,0.17879607,-0.027639288,0.13581929,-0.05966026,0.18721731,-0.07866468,-0.014352899,0.09786184,-0.18318899,-0.051655017,-0.085683726,0.0860917,0.012406198,0.0069302507,-0.034642268,-0.0010600843,0.044729132,-0.13448294,-0.08799342,-0.17572986,-0.17912212,0.08860377,0.054173518,-0.06651226,0.18913189,-0.008210835,0.035638105,-0.012335527,0.008128919,0.026110196,0.15676399,-0.08501234,-0.015881991,0.22097297,0.094495274,0.1717208,0.008403577,-0.086117394,-0.2547543,0.10785233,-0.023373252,-0.11220189,-0.16983193,0.10116416,0.14278372,0.2576326,0.08905993,0.0573088,0.048622534,-0.029778732,-0.01696135,-0.27032793,-0.13252981,0.16277754,0.03230366,0.019325659,-0.14485891,-0.02629009,-0.03564453,0.024573877,0.1495281,0.03705155,-0.18104954,-0.055927478,0.22183388,-0.13071804,-0.01696135,0.09775262,-0.055381373,0.0046932823,0.25611636,-0.0053261206,-0.20215486,-0.046977796,0.13124485,0.108192846,-0.074115954,0.20230263,-0.00085770455,0.010900397,-0.051680714,-0.026534231,0.17280017,0.10695929,0.086766295,-0.07691715,0.032406457,-0.01536801,0.02239669,0.06319387,0.0857833,-0.044228002,0.35419664,-0.04414448,-0.27372018,0.021535773,0.12350946,-0.08979557,0.013145045,0.10390111,-0.07257401,-0.094777964,-0.3282583,0.11107113,-0.038445722,0.029630963,0.03433388,-0.012994063,-0.09760485,0.20363899,0.08610454,0.014494243,0.09082031,-0.030543277,-0.062140215,-0.106702305,-0.04272461,-0.19875617,0.03775185,-0.20961922,-0.10552015,-0.061382093,0.12500161,-0.20168586,-0.12278346,-0.006463302,0.0018182052,-0.14504524,0.023116263,-0.09309307,-0.1627904,-0.086361535,-0.121196546,0.057116058,-0.0572831,0.03798314,-0.050601356,-0.1535773,-0.10994038,-0.0858604,-0.21474095,0.02007093,0.022223221,-0.012078536,-0.09714227,-0.23093133,-0.12990852,-0.069400184,0.0014648438,0.090794615,-0.14694695,-0.020790502,0.018040707,-0.11009457,-0.015419408,0.032284386,-0.041529607,0.09706517,-0.13868472,0.1094007,0.067395665,-0.05283717,0.1237022,0.07597592,-0.06614926,0.112947166,0.05182206,-0.01847759,0.065224096,0.020803351,0.099487305,0.023591693,-0.16303454,-0.06402909,0.029219778,0.02446546,-0.028988486,0.18209036,-0.046367444,-0.25867262,-0.12273849,-0.07206003,-0.018924112,0.11785889,0.04140111,-0.11639083,0.029200504,0.02609012,0.13274825,-0.03151984,0.2236842,-0.093004726,-0.08272512,0.05028012,-0.044099506,-0.06815378,-0.2805561,-0.025722302,0.004060444,-0.2236553,-0.08614309,0.045988385,-0.074199475,-0.07706492,-0.014005962,-0.20560496,0.17136101,-0.032457855,-0.019556949,0.07982113,0.000912315,-0.08965101,-0.099609375,-0.13641036,-0.17470188,-0.11010742,0.0110248765,0.09941342,-0.06889906,-0.03549355,0.0045166016,0.0911287,-0.015040347,-0.020531906,0.0665219,-0.0017668072,-0.07371762,-0.09488076,0.22234786,0.12209601,-0.051783513,0.13058953,-0.006601434,0.11401367,0.11436061,-0.036055714,0.0015290913,0.16410105,-0.18319863,0.06661184,0.023678428,0.0957481,0.078549035,0.13173313,0.028847143,-0.013513264
com.rafsan.inventory.dao.PurchaseDao;2;0.042439777,-0.09608968,-0.13933308,0.13883464,0.046619415,-0.06880697,0.20540364,0.034922283,0.25577798,0.09354655,-0.07485962,-0.032002766,-0.22497559,0.035859227,-0.2537435,0.014322917,0.08907064,0.05185954,-0.054433186,0.07421875,0.03704834,0.006917318,-0.062204998,0.09248861,0.02705892,0.14054362,0.026346842,0.13163249,-0.24924724,-0.075683594,0.006755829,0.08750407,-0.23632812,0.10904948,0.09903971,-0.028767904,0.04743703,-0.1652832,0.072774254,-0.19018555,0.045735676,0.23364258,0.07985433,-0.22827148,-0.15720622,-0.203125,0.0925293,0.11214193,-0.30244955,0.019927979,0.22094727,-0.1015625,-0.01646932,-0.34358725,0.0049743652,-0.006164551,-0.068237305,-0.04860433,0.041697185,-0.041992188,-0.025594076,0.08683268,-0.08455404,0.064697266,0.1160024,0.00079345703,-0.19108073,-0.124308266,-0.071492516,0.1770935,0.19148763,-0.14550781,0.08412679,-0.08721924,0.19930013,-0.057454426,0.024902344,0.033381145,-0.10412598,0.15468343,0.20357259,-0.16438802,0.16898601,0.18652344,0.15372722,-0.0066223145,-0.14758301,0.32936606,0.17370605,0.2985026,-0.059305828,0.20414226,0.018208822,-0.07766724,0.024881998,-0.11319987,-0.049662273,-0.015047709,-0.06998698,0.11238607,0.26104736,-0.12792969,-0.1318156,-0.030614218,0.17797852,-0.037038166,-0.04069519,0.026997885,-0.06998698,-0.09326172,0.025878906,0.043884277,-0.08671061,-0.11721929,0.15406291,0.17617798,0.010803223,0.16633098,0.20206706,-0.10345459,0.20703125,-0.0079243975,-0.07763672,0.0462265,0.039479572,0.044484455,-0.0015258789,-0.09887695,0.19592285,0.09364828,-0.035054523,0.16105144,-0.07096354,0.13631313,-0.018538157,0.080952965,-0.036397297,-0.06270345,-0.023671469,0.113972984,0.08768717,-0.15360515,-0.19500732,-0.021525064,0.2183431,-0.055684406,0.0943807,-0.119140625,-0.14408366,-0.16101074,0.10941569,-0.1228892,0.13535564,0.04309082,-0.06526693,-0.039154053,0.011159261,-0.06604004,-0.2611898,0.03684489,0.03445943,-0.13055928,-0.020202637,0.054036457,-0.08315023,-0.015075684,0.14013672,-0.1887207,0.039042156,-0.017659506,-0.18253581,-0.02722168,0.19335938,-0.20201428,-0.054158527,-0.054016113,0.060424805,-0.17529297,-0.016490301,-0.07334391,-0.32743326,-0.01940918,-0.03375244,-0.22991943,0.10959879,-0.3064982,-0.016072592,0.09688314,-0.042582195,0.03975423,-0.12963867,-0.17415364,-0.14005534,-0.16597493,-0.105641685,-6.1035156e-05,0.27189127,0.014780681,-0.037434895,-0.19563802,-0.06636556,0.09486898,-0.10835775,0.049397785,-0.14579265,-0.026082357,0.0785319,0.04313151,0.24723308,-0.000579834,0.007751465,0.13195801,-0.015360515,0.30236816,-0.035909016,0.44091797,0.28564453,0.07269287,-0.16552734,-0.055216473,-0.11855062,0.15067546,-0.032633465,-0.023002625,-0.002456665,0.060750324,-0.17936198,-0.12902832,0.06829834,-0.18888347,0.14554851,0.07208252,-0.001566569,-0.054950714,0.14200847,0.15690105,0.15863545,-0.019322714,0.020629883,0.053344727,0.052083332,-0.0024223328,-0.06626383,-0.02207438,0.07543945,0.06685384,0.031351727,-0.007019043,0.009236653,-0.17260742,0.07865397,0.11210505,-0.1332194,0.018803915,-0.059733074,0.10365804,0.07542928,-0.016479492,-0.020304361,0.087137856,0.066975914,-0.23966472,-0.07255045,-0.11173502,0.011474609,-0.108662926,-0.15018718,-0.0056966147,-0.0017000834,0.11771647,0.06679281,0.16798401,0.12422689,0.16137695,0.08707682,0.041707356,0.07078043,-0.017789206,-0.14678955,-0.018371582,0.014912923,0.057169598,0.2121582,-0.036905926,0.041549683,0.08616129,0.060246784,0.23813884,0.023620605,-0.17089844,-0.034861248,0.11960856,-0.036951702,0.092041016,0.3115336,0.12580363,-0.0008036296,-0.10001627,0.054626465,-0.20247395
